SVM-light Version V6.02
2 # kernel type
3 # kernel parameter -d 
0.0001 # kernel parameter -g 
1 # kernel parameter -s 
1 # kernel parameter -r 
empty# kernel parameter -u 
60 # highest feature index 
569 # number of training documents 
412 # number of support vectors plus 1 
-6.4888923 # threshold b, each following line is a SV (starting with alpha*y)
-89.873134243302956747356802225113 1:4 2:0 3:0 4:0 5:4 6:0 7:4 8:4 9:4 10:20 11:4 12:12 13:8 14:4 15:8 16:8 17:4 18:8 19:0 20:4 21:0 22:0 23:12 24:12 25:0 26:0 27:4 28:4 29:20 30:4 31:4 32:12 33:0 34:8 35:4 36:8 37:4 38:4 39:0 40:0 41:2.4100001 42:0 43:6.02 44:7.23 45:2.4100001 46:4.8200002 47:4.8200002 48:4.8200002 49:7.23 50:15.66 51:2.4100001 52:3.6099999 53:4.8200002 54:7.23 55:6.02 56:6.02 57:3.6099999 58:3.6099999 59:2.4100001 60:4.8200002 #
-17.639349384538149934087414294481 1:28 2:0 3:0 4:0 5:0 6:4 7:4 8:0 9:0 10:0 11:4 12:0 13:24 14:0 15:16 16:20 17:0 18:0 19:0 20:0 21:4 22:8 23:4 24:8 25:4 26:8 27:4 28:0 29:8 30:20 31:0 32:0 33:4 34:4 35:0 36:16 37:0 38:0 39:0 40:8 41:19.57 42:2.1700001 43:1.09 44:2.1700001 45:2.1700001 46:10.87 47:2.1700001 48:1.09 49:0 50:4.3499999 51:4.3499999 52:0 53:15.22 54:9.7799997 55:1.09 56:10.87 57:6.52 58:5.4299998 59:0 60:1.09 #
50 1:12 2:0 3:0 4:0 5:4 6:4 7:0 8:8 9:8 10:12 11:16 12:4 13:0 14:4 15:12 16:16 17:0 18:0 19:0 20:0 21:8 22:0 23:0 24:8 25:0 26:0 27:0 28:8 29:8 30:20 31:4 32:0 33:12 34:0 35:0 36:8 37:8 38:4 39:0 40:12 41:7.3099999 42:0.91000003 43:4.1100001 44:6.8499999 45:6.3899999 46:8.2200003 47:0.91000003 48:5.02 49:8.6800003 50:3.6500001 51:0.46000001 52:4.5700002 53:5.9400001 54:4.5700002 55:6.8499999 56:8.6800003 57:5.9400001 58:6.8499999 59:0.46000001 60:3.6500001 #
-18.809594079339419181451376061887 1:4 2:4 3:12 4:4 5:0 6:0 7:0 8:4 9:0 10:8 11:4 12:4 13:12 14:4 15:12 16:16 17:8 18:4 19:0 20:0 21:12 22:0 23:4 24:8 25:4 26:8 27:0 28:4 29:4 30:4 31:8 32:8 33:12 34:0 35:8 36:0 37:4 38:8 39:0 40:4 41:0 42:8.5699997 43:5.71 44:5.71 45:5.71 46:0 47:0 48:2.8599999 49:5.71 50:5.71 51:2.8599999 52:11.43 53:0 54:2.8599999 55:20 56:5.71 57:2.8599999 58:2.8599999 59:2.8599999 60:8.5699997 #
-14.029936755106689361127791926265 1:4 2:16 3:4 4:4 5:0 6:4 7:0 8:4 9:4 10:4 11:4 12:16 13:0 14:20 15:4 16:4 17:0 18:4 19:0 20:4 21:4 22:4 23:0 24:8 25:0 26:4 27:4 28:0 29:4 30:20 31:0 32:8 33:12 34:4 35:8 36:8 37:12 38:0 39:0 40:0 41:0 42:10 43:10 44:5 45:5 46:0 47:0 48:0 49:15 50:20 51:0 52:10 53:0 54:0 55:5 56:5 57:0 58:5 59:5 60:5 #
50 1:36 2:0 3:0 4:4 5:4 6:0 7:8 8:0 9:4 10:8 11:8 12:0 13:0 14:0 15:12 16:8 17:0 18:0 19:8 20:0 21:0 22:12 23:0 24:20 25:0 26:8 27:0 28:4 29:16 30:4 31:0 32:8 33:0 34:4 35:4 36:12 37:0 38:8 39:0 40:0 41:9.2600002 42:0.28 43:4.4200001 44:3.99 45:4.1300001 46:8.2600002 47:2.5599999 48:6.1300001 49:5.27 50:10.97 51:2.4200001 52:4.4200001 53:3.28 54:3.99 55:5.1300001 56:6.6999998 57:6.1300001 58:8.2600002 59:1.14 60:3.28 #
50 1:20 2:0 3:0 4:0 5:4 6:12 7:0 8:4 9:8 10:12 11:8 12:0 13:4 14:0 15:8 16:8 17:8 18:4 19:0 20:0 21:12 22:0 23:4 24:8 25:4 26:8 27:12 28:8 29:4 30:4 31:0 32:4 33:8 34:4 35:4 36:4 37:0 38:4 39:0 40:8 41:9.21 42:0.99000001 43:4.6100001 44:8.2200003 45:3.95 46:7.2399998 47:3.29 48:5.2600002 49:6.9099998 50:7.2399998 51:3.6199999 52:3.29 53:4.2800002 54:1.3200001 55:5.9200001 56:4.6100001 57:6.9099998 58:6.25 59:3.6199999 60:3.29 #
36.214718882772785946144722402096 1:16 2:4 3:4 4:0 5:4 6:12 7:0 8:0 9:8 10:8 11:8 12:0 13:12 14:0 15:0 16:4 17:8 18:12 19:0 20:0 21:4 22:0 23:0 24:8 25:8 26:0 27:0 28:0 29:8 30:12 31:12 32:0 33:4 34:8 35:8 36:4 37:4 38:16 39:0 40:4 41:8.3999996 42:2.6700001 43:4.5799999 44:2.6700001 45:4.5799999 46:8.0200005 47:1.15 48:4.1999998 49:4.1999998 50:8.3999996 51:3.05 52:3.4400001 53:5.3400002 54:4.5799999 55:6.1100001 56:6.1100001 57:8.3999996 58:9.1599998 59:0.75999999 60:4.1999998 #
36.843081915504342305212048813701 1:12 2:0 3:4 4:24 5:0 6:0 7:4 8:0 9:4 10:4 11:4 12:0 13:12 14:4 15:8 16:8 17:4 18:8 19:0 20:0 21:0 22:0 23:8 24:8 25:4 26:4 27:8 28:8 29:4 30:16 31:4 32:4 33:0 34:4 35:4 36:8 37:16 38:0 39:0 40:0 41:4.0500002 42:2.53 43:3.54 44:3.29 45:10.38 46:6.3299999 47:2.28 48:8.8599997 49:3.54 50:9.3699999 51:3.29 52:3.54 53:4.5599999 54:2.78 55:4.3000002 56:6.8400002 57:5.5700002 58:7.5900002 59:2.28 60:5.0599999 #
50 1:16 2:4 3:0 4:0 5:0 6:12 7:0 8:0 9:0 10:24 11:4 12:0 13:4 14:0 15:12 16:4 17:4 18:12 19:4 20:0 21:12 22:8 23:4 24:0 25:8 26:8 27:4 28:4 29:8 30:12 31:4 32:4 33:0 34:0 35:0 36:0 37:4 38:8 39:4 40:8 41:14.68 42:1.83 43:3.6700001 44:1.83 45:0.92000002 46:7.3400002 47:8.2600002 48:2.75 49:2.75 50:16.51 51:0.92000002 52:0.92000002 53:5.5 54:3.6700001 55:2.75 56:10.09 57:2.75 58:7.3400002 59:2.75 60:2.75 #
-8.7258720300250907087047380628064 1:32 2:0 3:0 4:4 5:0 6:12 7:4 8:0 9:0 10:12 11:4 12:0 13:0 14:0 15:16 16:0 17:0 18:8 19:8 20:0 21:4 22:4 23:8 24:4 25:8 26:0 27:4 28:12 29:12 30:4 31:4 32:4 33:12 34:0 35:4 36:0 37:0 38:0 39:4 40:12 41:9.6499996 42:3.22 43:4.6799998 44:6.73 45:6.1399999 46:8.1899996 47:2.05 48:7.5999999 49:3.8 50:7.02 51:0.57999998 52:2.3399999 53:6.4299998 54:4.3899999 55:4.6799998 56:5.8499999 57:5.2600002 58:7.8899999 59:0.88 60:2.6300001 #
50 1:16 2:4 3:0 4:0 5:8 6:4 7:0 8:0 9:8 10:8 11:4 12:4 13:20 14:4 15:8 16:8 17:0 18:0 19:0 20:4 21:0 22:0 23:16 24:4 25:12 26:8 27:8 28:4 29:4 30:4 31:0 32:8 33:8 34:0 35:4 36:0 37:4 38:8 39:8 40:0 41:11.39 42:0 43:5.0599999 44:10.13 45:3.8 46:0 47:6.3299999 48:3.8 49:11.39 50:5.0599999 51:3.8 52:3.8 53:3.8 54:1.27 55:3.8 56:6.3299999 57:5.0599999 58:8.8599997 59:3.8 60:2.53 #
-67.634013753544195424183271825314 1:16 2:4 3:4 4:0 5:4 6:16 7:0 8:4 9:8 10:4 11:8 12:0 13:0 14:4 15:12 16:4 17:0 18:12 19:0 20:0 21:0 22:0 23:4 24:4 25:4 26:12 27:4 28:8 29:0 30:24 31:0 32:0 33:4 34:4 35:0 36:4 37:4 38:20 39:0 40:4 41:10.16 42:1.0700001 43:4.2800002 44:5.8800001 45:3.21 46:11.23 47:3.74 48:4.2800002 49:7.4899998 50:10.16 51:2.6700001 52:5.3499999 53:1.0700001 54:3.21 55:5.3499999 56:5.3499999 57:4.8099999 58:9.6300001 59:0 60:1.0700001 #
50 1:4 2:0 3:8 4:0 5:4 6:0 7:0 8:8 9:4 10:8 11:4 12:4 13:16 14:12 15:4 16:8 17:8 18:4 19:0 20:4 21:20 22:0 23:4 24:4 25:4 26:4 27:0 28:0 29:4 30:0 31:0 32:8 33:16 34:4 35:0 36:20 37:8 38:4 39:0 40:0 41:6.77 42:6.02 43:4.5100002 44:8.2700005 45:3.76 46:4.5100002 47:2.26 48:4.5100002 49:8.2700005 50:7.52 51:2.26 52:6.77 53:6.77 54:4.5100002 55:7.52 56:3.76 57:2.26 58:4.5100002 59:3.01 60:2.26 #
50 1:8 2:8 3:0 4:0 5:0 6:4 7:0 8:4 9:0 10:12 11:4 12:12 13:4 14:4 15:24 16:4 17:0 18:12 19:0 20:0 21:16 22:0 23:4 24:20 25:0 26:0 27:0 28:0 29:24 30:4 31:0 32:8 33:8 34:4 35:0 36:8 37:0 38:4 39:0 40:0 41:5.9499998 42:1.7 43:9.9200001 44:15.3 45:2.55 46:6.52 47:1.7 48:2.27 49:8.7799997 50:3.4000001 51:1.7 52:7.3699999 53:3.97 54:5.0999999 55:1.98 56:11.9 57:4.8200002 58:3.4000001 59:0.28 60:1.42 #
23.621809443044369913877744693309 1:4 2:0 3:8 4:4 5:0 6:8 7:0 8:0 9:8 10:0 11:4 12:4 13:8 14:28 15:4 16:4 17:4 18:0 19:12 20:0 21:4 22:0 23:0 24:8 25:8 26:0 27:0 28:0 29:16 30:4 31:0 32:8 33:0 34:20 35:0 36:20 37:0 38:0 39:8 40:4 41:7.7399998 42:1.29 43:5.1599998 44:5.1599998 45:4.52 46:4.52 47:1.9400001 48:5.8099999 49:9.6800003 50:10.32 51:3.23 52:3.23 53:5.1599998 54:5.8099999 55:4.52 56:10.32 57:4.52 58:2.5799999 59:3.23 60:1.29 #
-34.182582107327903031546156853437 1:4 2:0 3:0 4:8 5:12 6:0 7:0 8:4 9:8 10:8 11:4 12:0 13:0 14:4 15:12 16:20 17:8 18:4 19:0 20:4 21:20 22:0 23:8 24:24 25:4 26:4 27:0 28:12 29:4 30:8 31:4 32:0 33:0 34:0 35:0 36:0 37:4 38:4 39:0 40:4 41:8.04 42:1.61 43:4.5599999 44:6.6999998 45:4.02 46:8.3100004 47:3.22 48:6.9699998 49:9.1199999 50:8.8500004 51:1.0700001 52:5.3600001 53:4.02 54:3.22 55:3.22 56:5.3600001 57:6.1700001 58:6.9699998 59:0.54000002 60:2.6800001 #
30.013827192427324774826047359966 1:0 2:4 3:4 4:0 5:4 6:8 7:8 8:8 9:0 10:12 11:8 12:4 13:4 14:4 15:4 16:0 17:0 18:24 19:4 20:0 21:4 22:0 23:0 24:12 25:8 26:0 27:0 28:0 29:12 30:12 31:4 32:4 33:4 34:4 35:12 36:8 37:8 38:4 39:4 40:0 41:0 42:0 43:25 44:12.5 45:0 46:0 47:0 48:0 49:12.5 50:12.5 51:0 52:0 53:0 54:0 55:12.5 56:12.5 57:0 58:0 59:0 60:12.5 #
-13.461263628196491026756120845675 1:8 2:0 3:0 4:0 5:4 6:0 7:8 8:12 9:12 10:8 11:4 12:0 13:4 14:4 15:12 16:12 17:0 18:4 19:0 20:8 21:12 22:12 23:12 24:12 25:0 26:0 27:4 28:0 29:12 30:8 31:4 32:4 33:0 34:0 35:4 36:8 37:0 38:4 39:4 40:0 41:3.8900001 42:1.16 43:5.1500001 44:6.7199998 45:3.8900001 46:4.9400001 47:3.26 48:7.25 49:7.6700001 50:12.08 51:1.37 52:5.25 53:4.1999998 54:5.04 55:4.4099998 56:7.77 57:5.46 58:4.52 59:1.79 60:4.1999998 #
50 1:20 2:0 3:0 4:0 5:0 6:36 7:0 8:0 9:0 10:20 11:4 12:0 13:0 14:0 15:8 16:12 17:0 18:0 19:0 20:0 21:4 22:0 23:12 24:8 25:0 26:4 27:4 28:4 29:8 30:20 31:4 32:0 33:8 34:8 35:12 36:0 37:0 38:4 39:0 40:0 41:6.98 42:1.66 43:5.6500001 44:5.98 45:3.3199999 46:4.98 47:2.6600001 48:4.98 49:4.6500001 50:11.63 51:1.66 52:2.3299999 53:3.6500001 54:6.3099999 55:7.9699998 56:4.98 57:5.98 58:7.9699998 59:1.66 60:4.98 #
50 1:36 2:0 3:0 4:0 5:0 6:20 7:0 8:0 9:0 10:8 11:8 12:0 13:8 14:0 15:12 16:0 17:4 18:4 19:0 20:0 21:8 22:0 23:0 24:0 25:0 26:0 27:4 28:0 29:20 30:12 31:4 32:0 33:12 34:0 35:12 36:8 37:0 38:8 39:4 40:8 41:9.4499998 42:2.1800001 43:4.73 44:5.8200002 45:2.9100001 46:9.4499998 47:3.27 48:1.8200001 49:3.27 50:12 51:3.6400001 52:2.1800001 53:8 54:2.55 55:6.1799998 56:8 57:2.9100001 58:6.1799998 59:0.73000002 60:4.73 #
-71.793809333119753546270658262074 1:16 2:0 3:0 4:0 5:0 6:16 7:0 8:0 9:0 10:48 11:4 12:0 13:4 14:0 15:8 16:4 17:0 18:0 19:0 20:0 21:0 22:0 23:8 24:8 25:0 26:0 27:0 28:4 29:12 30:24 31:0 32:8 33:0 34:4 35:16 36:8 37:0 38:8 39:0 40:0 41:6.4699998 42:1 43:1.99 44:5.4699998 45:7.96 46:7.96 47:1.49 48:1 49:2.49 50:12.94 51:1.99 52:3.48 53:4.98 54:1.99 55:5.4699998 56:10.95 57:3.98 58:12.44 59:2.49 60:3.48 #
-46.011584251557174241042957874015 1:28 2:0 3:0 4:4 5:0 6:8 7:0 8:0 9:0 10:20 11:4 12:0 13:4 14:4 15:4 16:4 17:4 18:8 19:8 20:0 21:4 22:4 23:0 24:4 25:0 26:12 27:4 28:0 29:0 30:8 31:0 32:0 33:8 34:4 35:12 36:20 37:12 38:4 39:4 40:0 41:8.4200001 42:2.97 43:3.96 44:6.4400001 45:4.9499998 46:5.9400001 47:2.97 48:3.47 49:2.97 50:13.37 51:0.99000001 52:2.97 53:5.4499998 54:4.9499998 55:10.89 56:5.4499998 57:4.46 58:5.9400001 59:1.49 60:1.98 #
-40.475580628926998372207890497521 1:32 2:4 3:0 4:0 5:0 6:4 7:0 8:0 9:0 10:16 11:4 12:0 13:8 14:4 15:20 16:4 17:0 18:0 19:4 20:0 21:4 22:0 23:0 24:12 25:0 26:8 27:4 28:12 29:0 30:12 31:0 32:0 33:0 34:4 35:12 36:12 37:8 38:4 39:0 40:8 41:14.64 42:1.38 43:4.4200001 44:6.0799999 45:3.5899999 46:8.8400002 47:1.38 48:6.3499999 49:6.0799999 50:9.9399996 51:4.1399999 52:2.76 53:4.1399999 54:4.1399999 55:3.5899999 56:5.8000002 57:5.52 58:3.8699999 59:1.38 60:1.9299999 #
50 1:8 2:0 3:0 4:0 5:4 6:0 7:0 8:12 9:0 10:12 11:4 12:4 13:0 14:8 15:16 16:20 17:0 18:8 19:4 20:0 21:4 22:0 23:8 24:12 25:16 26:0 27:0 28:0 29:12 30:0 31:4 32:8 33:12 34:4 35:0 36:4 37:8 38:8 39:0 40:0 41:5.1700001 42:0 43:8.6199999 44:6.9000001 45:5.1700001 46:8.6199999 47:0 48:3.45 49:10.34 50:8.6199999 51:1.72 52:1.72 53:5.1700001 54:8.6199999 55:6.9000001 56:1.72 57:5.1700001 58:6.9000001 59:0 60:5.1700001 #
31.100904830431602476892294362187 1:4 2:0 3:4 4:0 5:4 6:0 7:0 8:8 9:4 10:8 11:4 12:8 13:8 14:4 15:4 16:24 17:0 18:8 19:0 20:8 21:0 22:0 23:4 24:0 25:8 26:0 27:0 28:8 29:16 30:16 31:0 32:8 33:8 34:4 35:4 36:0 37:8 38:0 39:0 40:16 41:3 42:1.28 43:3.21 44:2.5699999 45:5.3499999 46:5.5700002 47:2.1400001 48:11.78 49:8.7799997 50:8.7799997 51:6.8499999 52:9.8500004 53:2.1400001 54:1.5 55:2.3599999 56:5.5700002 57:4.2800002 58:4.5 59:2.3599999 60:8.1400003 #
-63.317633501375937044031161349267 1:12 2:0 3:8 4:4 5:0 6:4 7:4 8:0 9:0 10:12 11:8 12:4 13:16 14:4 15:0 16:4 17:8 18:4 19:0 20:8 21:20 22:0 23:0 24:8 25:0 26:4 27:0 28:0 29:4 30:4 31:0 32:12 33:4 34:8 35:0 36:0 37:4 38:16 39:12 40:4 41:10.12 42:0 43:7.1399999 44:2.98 45:3.5699999 46:8.9300003 47:4.1700001 48:3.5699999 49:7.1399999 50:8.9300003 51:1.79 52:8.9300003 53:5.9499998 54:1.79 55:2.3800001 56:5.3600001 57:4.7600002 58:6.5500002 59:2.3800001 60:3.5699999 #
-30.168336718066683488359558396041 1:0 2:0 3:0 4:0 5:4 6:4 7:4 8:12 9:16 10:12 11:4 12:0 13:8 14:4 15:4 16:12 17:12 18:4 19:0 20:0 21:0 22:0 23:0 24:16 25:8 26:4 27:0 28:12 29:8 30:8 31:0 32:12 33:4 34:8 35:8 36:0 37:8 38:4 39:0 40:0 41:4.04 42:1.01 43:5.7199998 44:5.3899999 45:6.4000001 46:5.0500002 47:1.01 48:5.0500002 49:11.78 50:8.0799999 51:1.35 52:8.0799999 53:4.3800001 54:1.6799999 55:5.0500002 56:9.0900002 57:6.0599999 58:6.0599999 59:1.35 60:3.3699999 #
-40.711601214268483772684703581035 1:0 2:4 3:0 4:0 5:12 6:4 7:0 8:8 9:8 10:12 11:4 12:4 13:0 14:0 15:16 16:16 17:8 18:0 19:4 20:0 21:0 22:0 23:4 24:4 25:8 26:8 27:4 28:8 29:16 30:0 31:0 32:16 33:12 34:4 35:0 36:4 37:4 38:0 39:8 40:0 41:3.8 42:0.22 43:5.5900002 44:7.3800001 45:6.2600002 46:4.4699998 47:1.79 48:6.2600002 49:6.71 50:10.29 51:0.44999999 52:7.1599998 53:6.71 54:2.6800001 55:4.6999998 56:6.4899998 57:7.6100001 58:6.9400001 59:0.67000002 60:3.8 #
35.805897774182852799640386365354 1:40 2:0 3:0 4:0 5:0 6:12 7:0 8:0 9:0 10:16 11:4 12:0 13:4 14:4 15:8 16:4 17:0 18:4 19:4 20:0 21:8 22:0 23:0 24:0 25:8 26:12 27:0 28:0 29:8 30:12 31:0 32:0 33:4 34:0 35:4 36:8 37:12 38:8 39:8 40:8 41:6.4000001 42:1.2 43:3.5999999 44:7.5999999 45:3.2 46:7.1999998 47:2 48:4.4000001 49:3.5999999 50:8.8000002 51:2.4000001 52:3.5999999 53:8 54:4 55:9.1999998 56:5.5999999 57:6 58:9.1999998 59:2 60:2 #
50 1:32 2:4 3:0 4:0 5:0 6:4 7:0 8:0 9:0 10:8 11:4 12:0 13:4 14:4 15:16 16:8 17:4 18:12 19:0 20:0 21:4 22:0 23:4 24:4 25:8 26:12 27:0 28:8 29:0 30:8 31:4 32:4 33:8 34:4 35:12 36:4 37:0 38:4 39:4 40:8 41:10.7 42:2.5599999 43:5.1199999 44:6.98 45:3.02 46:6.98 47:3.02 48:4.1900001 49:3.49 50:10 51:1.86 52:3.26 53:4.1900001 54:4.4200001 55:5.5799999 56:6.98 57:6.0500002 58:7.21 59:1.16 60:3.26 #
50 1:20 2:4 3:0 4:0 5:4 6:12 7:0 8:0 9:0 10:16 11:4 12:0 13:0 14:0 15:20 16:12 17:4 18:4 19:0 20:0 21:4 22:0 23:0 24:0 25:4 26:8 27:0 28:0 29:8 30:16 31:0 32:4 33:8 34:8 35:12 36:24 37:0 38:0 39:4 40:0 41:6.27 42:0.99000001 43:6.27 44:7.2600002 45:4.29 46:6.27 47:1.98 48:5.2800002 49:4.29 50:10.89 51:0.99000001 52:2.6400001 53:8.9099998 54:5.6100001 55:6.5999999 56:4.6199999 57:5.2800002 58:6.27 59:1.3200001 60:3.96 #
-91.570075986673131751558685209602 1:28 2:0 3:0 4:0 5:0 6:12 7:0 8:0 9:0 10:12 11:8 12:0 13:4 14:0 15:16 16:0 17:8 18:12 19:0 20:0 21:8 22:0 23:12 24:4 25:4 26:8 27:8 28:0 29:8 30:8 31:0 32:4 33:12 34:0 35:0 36:16 37:0 38:4 39:0 40:4 41:9.71 42:2.0699999 43:4.5500002 44:4.75 45:3.9300001 46:6.8200002 47:2.27 48:3.0999999 49:3.72 50:11.57 51:1.24 52:2.8900001 53:7.02 54:4.3400002 55:7.23 56:10.12 57:3.9300001 58:7.02 59:2.27 60:1.45 #
-77.464667331728946919611189514399 1:28 2:0 3:4 4:4 5:4 6:4 7:0 8:4 9:0 10:8 11:8 12:0 13:0 14:4 15:16 16:8 17:8 18:0 19:0 20:0 21:4 22:4 23:0 24:16 25:4 26:0 27:4 28:0 29:4 30:12 31:4 32:0 33:0 34:12 35:8 36:16 37:0 38:4 39:0 40:8 41:4.5 42:2.78 43:4.2800002 44:4.71 45:3.6400001 46:5.1399999 47:6 48:3.4300001 49:4.9299998 50:11.56 51:2.1400001 52:3.4300001 53:7.2800002 54:5.1399999 55:5.1399999 56:9.4200001 57:6 58:6.4200001 59:1.9299999 60:2.1400001 #
50 1:4 2:0 3:0 4:8 5:12 6:0 7:0 8:0 9:16 10:20 11:4 12:0 13:0 14:12 15:4 16:4 17:8 18:4 19:0 20:4 21:12 22:0 23:12 24:8 25:4 26:4 27:0 28:12 29:0 30:12 31:4 32:4 33:8 34:4 35:4 36:0 37:0 38:12 39:0 40:0 41:3.4200001 42:3.8 43:4.5599999 44:5.6999998 45:6.0799999 46:3.8 47:2.6600001 48:6.8400002 49:8.3699999 50:14.83 51:2.28 52:4.5599999 53:1.52 54:3.04 55:3.8 56:11.03 57:5.6999998 58:4.1799998 59:0 60:3.8 #
46.55007485187741167464992031455 1:4 2:0 3:8 4:12 5:4 6:0 7:0 8:12 9:8 10:4 11:4 12:4 13:12 14:4 15:4 16:0 17:4 18:12 19:0 20:4 21:8 22:0 23:4 24:4 25:0 26:8 27:0 28:4 29:24 30:4 31:0 32:16 33:0 34:0 35:0 36:0 37:8 38:12 39:8 40:0 41:7.0999999 42:1.09 43:4.9200001 44:7.0999999 45:4.3699999 46:4.3699999 47:1.64 48:5.46 49:6.0100002 50:8.1999998 51:3.28 52:4.3699999 53:3.28 54:2.73 55:8.7399998 56:7.6500001 57:8.1999998 58:5.46 59:1.64 60:4.3699999 #
50 1:4 2:4 3:4 4:0 5:4 6:4 7:0 8:12 9:8 10:12 11:4 12:0 13:8 14:4 15:4 16:16 17:4 18:4 19:0 20:4 21:16 22:0 23:8 24:20 25:0 26:0 27:0 28:8 29:12 30:16 31:0 32:4 33:4 34:0 35:0 36:4 37:0 38:4 39:0 40:4 41:10.39 42:0 43:5.1900001 44:9.0900002 45:2.5999999 46:2.5999999 47:3.9000001 48:7.79 49:5.1900001 50:11.69 51:1.3 52:5.1900001 53:6.4899998 54:5.1900001 55:7.79 56:1.3 57:3.9000001 58:3.9000001 59:1.3 60:5.1900001 #
15.015346709301624628096760716289 1:32 2:0 3:4 4:4 5:0 6:28 7:0 8:0 9:0 10:0 11:8 12:0 13:8 14:0 15:4 16:4 17:0 18:4 19:4 20:0 21:4 22:4 23:0 24:4 25:12 26:12 27:0 28:0 29:0 30:16 31:0 32:0 33:0 34:8 35:12 36:20 37:0 38:8 39:0 40:0 41:8.2600002 42:1.47 43:3.8299999 44:2.95 45:4.4200001 46:10.32 47:2.95 48:3.54 49:5.0100002 50:11.21 51:4.1300001 52:2.95 53:7.0799999 54:2.95 55:4.7199998 56:7.6700001 57:3.8299999 58:8.5500002 59:0.88 60:3.24 #
-48.87201324804126301160067669116 1:4 2:0 3:0 4:0 5:0 6:4 7:0 8:8 9:4 10:8 11:4 12:12 13:4 14:4 15:0 16:16 17:8 18:20 19:4 20:0 21:12 22:0 23:0 24:8 25:4 26:0 27:8 28:4 29:16 30:12 31:0 32:4 33:4 34:4 35:12 36:0 37:4 38:8 39:0 40:0 41:9.2200003 42:2.53 43:4.6999998 44:5.4200001 45:4.1599998 46:7.0500002 47:1.45 48:4.3400002 49:6.6900001 50:9.5799999 51:1.45 52:4.8800001 53:4.8800001 54:3.8 55:4.6999998 56:8.3199997 57:5.9699998 58:7.23 59:0.89999998 60:2.71 #
-52.903624501104786759242415428162 1:0 2:0 3:0 4:8 5:12 6:16 7:0 8:0 9:12 10:0 11:4 12:4 13:0 14:8 15:4 16:20 17:8 18:4 19:0 20:0 21:20 22:0 23:8 24:8 25:0 26:4 27:0 28:8 29:8 30:12 31:4 32:4 33:0 34:0 35:8 36:4 37:4 38:4 39:0 40:4 41:7.9299998 42:1.17 43:6.3099999 44:6.6100001 45:4.2600002 46:5.1399999 47:1.62 48:4.5500002 49:6.46 50:14.39 51:3.3800001 52:4.6999998 53:3.6700001 54:3.3800001 55:5.4299998 56:7.9299998 57:4.8499999 58:3.52 59:1.17 60:3.52 #
-65.321100603529572481420473195612 1:4 2:0 3:8 4:8 5:4 6:0 7:0 8:4 9:8 10:16 11:4 12:0 13:12 14:8 15:0 16:0 17:8 18:4 19:4 20:8 21:20 22:0 23:0 24:0 25:8 26:16 27:0 28:0 29:4 30:8 31:0 32:4 33:0 34:0 35:12 36:4 37:0 38:24 39:0 40:0 41:4.7600002 42:1.9 43:4.7600002 44:9.5200005 45:1.9 46:6.6700001 47:0.94999999 48:5.71 49:9.5200005 50:8.5699997 51:1.9 52:3.8099999 53:0.94999999 54:4.7600002 55:7.6199999 56:5.71 57:6.6700001 58:6.6700001 59:0.94999999 60:6.6700001 #
39.763917452524253803858300670981 1:28 2:4 3:0 4:0 5:0 6:12 7:0 8:0 9:0 10:20 11:8 12:0 13:4 14:0 15:16 16:0 17:4 18:4 19:0 20:0 21:4 22:4 23:12 24:16 25:4 26:4 27:4 28:8 29:4 30:8 31:4 32:4 33:12 34:4 35:0 36:8 37:0 38:0 39:0 40:0 41:6.73 42:0 43:6.73 44:9.6199999 45:4.8099999 46:3.8499999 47:0.95999998 48:2.8800001 49:3.8499999 50:6.73 51:1.92 52:2.8800001 53:7.6900001 54:1.92 55:10.58 56:8.6499996 57:2.8800001 58:8.6499996 59:3.8499999 60:4.8099999 #
-0.44841634816168607358122244477272 1:20 2:4 3:0 4:0 5:0 6:24 7:0 8:0 9:0 10:16 11:4 12:0 13:8 14:0 15:20 16:0 17:0 18:4 19:0 20:0 21:4 22:0 23:24 24:8 25:12 26:0 27:0 28:0 29:0 30:16 31:4 32:0 33:0 34:0 35:0 36:16 37:4 38:12 39:0 40:0 41:7.0900002 42:1.96 43:5.1300001 44:7.2399998 45:4.6799998 46:6.0300002 47:3.02 48:3.77 49:5.2800002 50:11.76 51:3.6199999 52:3.3199999 53:5.5799999 54:3.6199999 55:6.9400001 56:6.6399999 57:4.0700002 58:5.73 59:0.75 60:3.77 #
-32.196338735101477368516498245299 1:24 2:0 3:0 4:0 5:4 6:20 7:0 8:0 9:0 10:20 11:4 12:0 13:8 14:0 15:16 16:4 17:0 18:0 19:0 20:0 21:8 22:4 23:12 24:8 25:4 26:0 27:4 28:0 29:4 30:0 31:4 32:8 33:8 34:0 35:8 36:8 37:12 38:4 39:4 40:0 41:5.4400001 42:0.77999997 43:5.1799998 44:5.1799998 45:4.6599998 46:6.2199998 47:2.5899999 48:5.4400001 49:4.9200001 50:9.8400002 51:2.8499999 52:4.6599998 53:5.96 54:4.1500001 55:6.48 56:9.0699997 57:3.3699999 58:6.9899998 59:0.51999998 60:5.6999998 #
-90.819043694541903732897480949759 1:36 2:0 3:0 4:4 5:0 6:20 7:0 8:4 9:4 10:0 11:8 12:4 13:8 14:0 15:0 16:8 17:0 18:4 19:0 20:0 21:16 22:4 23:4 24:4 25:0 26:4 27:4 28:0 29:12 30:16 31:0 32:0 33:8 34:4 35:0 36:4 37:8 38:4 39:0 40:8 41:11.59 42:2.1400001 43:6.0599999 44:8.1999998 45:3.21 46:6.5999999 47:1.4299999 48:4.46 49:9.8000002 50:9.6300001 51:3.3900001 52:4.2800002 53:3.03 54:5.6999998 55:4.46 56:5.3499999 57:3.21 58:3.03 59:0.70999998 60:3.74 #
16.873762891746878267440479248762 1:0 2:0 3:8 4:0 5:0 6:0 7:0 8:8 9:4 10:8 11:4 12:12 13:8 14:0 15:0 16:20 17:20 18:0 19:0 20:8 21:12 22:0 23:4 24:16 25:0 26:8 27:0 28:0 29:8 30:8 31:0 32:0 33:0 34:8 35:8 36:12 37:4 38:4 39:0 40:8 41:10.07 42:0 43:2.8800001 44:2.8800001 45:7.9099998 46:12.23 47:2.8800001 48:1.4400001 49:3.5999999 50:7.1900001 51:5.7600002 52:2.8800001 53:5.7600002 54:4.3200002 55:7.1900001 56:5.04 57:2.1600001 58:9.3500004 59:0.72000003 60:5.7600002 #
50 1:0 2:0 3:12 4:8 5:8 6:4 7:4 8:4 9:4 10:8 11:4 12:4 13:8 14:4 15:0 16:8 17:0 18:16 19:0 20:4 21:8 22:0 23:4 24:12 25:0 26:0 27:0 28:8 29:8 30:12 31:0 32:4 33:0 34:20 35:12 36:0 37:4 38:0 39:0 40:8 41:8.1499996 42:1.09 43:2.72 44:4.8899999 45:3.8 46:4.3499999 47:2.72 48:6.52 49:8.1499996 50:10.33 51:0 52:7.6100001 53:3.26 54:3.26 55:5.4299998 56:9.2399998 57:4.8899999 58:6.52 59:3.26 60:3.8 #
28.561227758339441606949549168348 1:8 2:0 3:8 4:8 5:0 6:4 7:4 8:0 9:0 10:4 11:4 12:20 13:4 14:4 15:8 16:8 17:4 18:0 19:0 20:12 21:24 22:0 23:0 24:0 25:0 26:20 27:0 28:8 29:8 30:8 31:0 32:0 33:4 34:4 35:4 36:0 37:0 38:16 39:0 40:4 41:9.4200001 42:0.72000003 43:2.9000001 44:4.3499999 45:2.9000001 46:13.77 47:0 48:6.52 49:3.6199999 50:7.25 51:0 52:3.6199999 53:2.1700001 54:2.1700001 55:7.25 56:8.6999998 57:9.4200001 58:9.4200001 59:2.1700001 60:3.6199999 #
-45.666486681366222910583019256592 1:4 2:0 3:20 4:12 5:0 6:0 7:0 8:0 9:0 10:8 11:4 12:4 13:12 14:4 15:4 16:8 17:8 18:4 19:0 20:8 21:8 22:0 23:0 24:4 25:12 26:16 27:0 28:12 29:4 30:12 31:0 32:4 33:0 34:4 35:0 36:12 37:4 38:8 39:0 40:0 41:10.48 42:0.94999999 43:1.9 44:4.7600002 45:3.8099999 46:10.48 47:2.8599999 48:5.71 49:9.5200005 50:5.71 51:1.9 52:4.7600002 53:1.9 54:5.71 55:5.71 56:4.7600002 57:2.8599999 58:9.5200005 59:3.8099999 60:2.8599999 #
-39.167695797371038679557386785746 1:16 2:0 3:8 4:4 5:8 6:4 7:8 8:4 9:0 10:8 11:4 12:0 13:4 14:8 15:4 16:4 17:8 18:8 19:0 20:0 21:4 22:0 23:4 24:4 25:8 26:8 27:4 28:8 29:12 30:12 31:4 32:4 33:0 34:0 35:8 36:12 37:8 38:0 39:0 40:0 41:6.5 42:1.66 43:4.8400002 44:5.6700001 45:4.4299998 46:6.3600001 47:2.77 48:4.98 49:5.6700001 50:9.6800003 51:3.46 52:3.1800001 53:4.5599999 54:3.73 55:6.2199998 56:7.3299999 57:5.5300002 58:6.3600001 59:2.49 60:4.5599999 #
-33.413839375660060682093899231404 1:4 2:8 3:0 4:0 5:8 6:4 7:4 8:0 9:8 10:12 11:4 12:0 13:12 14:0 15:12 16:16 17:0 18:8 19:0 20:0 21:0 22:8 23:8 24:0 25:8 26:4 27:4 28:12 29:4 30:16 31:0 32:4 33:12 34:4 35:4 36:4 37:0 38:8 39:0 40:0 41:5.6199999 42:1.17 43:3.98 44:8.8999996 45:6.79 46:7.2600002 47:3.51 48:5.1500001 49:5.3899999 50:10.07 51:1.87 52:3.75 53:4.2199998 54:4.4499998 55:5.8499999 56:7.2600002 57:3.98 58:7.2600002 59:0.69999999 60:2.8099999 #
50 1:40 2:4 3:0 4:0 5:0 6:8 7:0 8:0 9:0 10:4 11:4 12:0 13:4 14:4 15:12 16:4 17:0 18:12 19:4 20:0 21:16 22:0 23:4 24:16 25:4 26:4 27:0 28:0 29:12 30:8 31:0 32:0 33:16 34:4 35:4 36:4 37:4 38:0 39:0 40:4 41:6.48 42:0.93000001 43:6.48 44:7.4099998 45:6.48 46:3.24 47:2.3099999 48:4.6300001 49:3.7 50:9.2600002 51:0.46000001 52:4.1700001 53:6.9400001 54:3.24 55:8.8000002 56:6.02 57:4.1700001 58:9.7200003 59:1.39 60:4.1700001 #
-64.774158466015194335341220721602 1:28 2:0 3:0 4:0 5:0 6:8 7:0 8:0 9:0 10:16 11:4 12:0 13:8 14:0 15:16 16:4 17:0 18:16 19:0 20:0 21:0 22:0 23:4 24:12 25:4 26:4 27:0 28:8 29:16 30:12 31:4 32:0 33:0 34:8 35:4 36:16 37:0 38:4 39:0 40:4 41:11.9 42:1.98 43:4.7600002 44:5.5599999 45:3.1700001 46:8.3299999 47:1.1900001 48:4.3699999 49:3.1700001 50:12.3 51:1.98 52:3.5699999 53:4.7600002 54:5.1599998 55:6.75 56:5.1599998 57:4.7600002 58:7.54 59:1.59 60:1.98 #
-100 1:32 2:4 3:0 4:0 5:0 6:16 7:0 8:0 9:4 10:8 11:4 12:0 13:0 14:0 15:12 16:8 17:0 18:8 19:4 20:0 21:4 22:4 23:0 24:8 25:4 26:12 27:0 28:4 29:28 30:4 31:0 32:0 33:0 34:4 35:0 36:4 37:0 38:12 39:8 40:4 41:6.5100002 42:0.77999997 43:4.6900001 44:8.5900002 45:8.3299999 46:6.25 47:3.3900001 48:4.9499998 49:7.8099999 50:9.1099997 51:3.6500001 52:2.8599999 53:2.0799999 54:4.9499998 55:5.73 56:6.5100002 57:5.9899998 58:4.6900001 59:1.04 60:2.0799999 #
21.36001134497778153331637440715 1:36 2:0 3:0 4:0 5:0 6:4 7:4 8:0 9:8 10:8 11:4 12:0 13:20 14:0 15:8 16:4 17:4 18:0 19:0 20:0 21:4 22:4 23:12 24:4 25:4 26:0 27:0 28:8 29:12 30:12 31:0 32:4 33:0 34:0 35:0 36:0 37:4 38:24 39:4 40:4 41:6.5100002 42:1.92 43:3.0699999 44:3.8299999 45:4.5999999 46:12.64 47:2.3 48:5.3600001 49:5.75 50:9.5799999 51:2.3 52:3.45 53:4.5999999 54:4.21 55:7.6599998 56:4.21 57:6.1300001 58:7.6599998 59:0.76999998 60:3.45 #
-21.129134054068323678166052559391 1:12 2:4 3:0 4:0 5:0 6:20 7:0 8:4 9:0 10:16 11:4 12:0 13:4 14:0 15:20 16:4 17:0 18:12 19:0 20:0 21:4 22:0 23:0 24:0 25:0 26:8 27:4 28:4 29:4 30:8 31:0 32:4 33:24 34:16 35:4 36:8 37:4 38:4 39:0 40:4 41:7.0500002 42:1.5 43:4.6999998 44:8.1199999 45:4.27 46:6.8400002 47:2.99 48:3.4200001 49:3.21 50:12.61 51:2.1400001 52:2.5599999 53:5.5599999 54:6.1999998 55:8.1199999 56:5.77 57:5.3400002 58:5.77 59:0.63999999 60:3.21 #
50 1:0 2:4 3:0 4:0 5:8 6:4 7:0 8:8 9:0 10:12 11:4 12:8 13:8 14:4 15:20 16:12 17:4 18:4 19:0 20:0 21:0 22:0 23:12 24:8 25:0 26:0 27:0 28:12 29:20 30:4 31:8 32:20 33:0 34:4 35:4 36:0 37:0 38:0 39:8 40:0 41:4.7600002 42:1.1900001 43:5 44:5 45:4.7600002 46:1.67 47:1.1900001 48:7.8600001 49:9.29 50:12.86 51:2.3800001 52:7.6199999 53:2.8599999 54:2.3800001 55:3.5699999 56:11.19 57:6.9000001 58:4.7600002 59:0.94999999 60:3.8099999 #
23.472644134904925294904387556016 1:4 2:0 3:4 4:0 5:12 6:12 7:0 8:4 9:0 10:16 11:8 12:8 13:0 14:0 15:8 16:8 17:4 18:8 19:0 20:4 21:8 22:0 23:8 24:16 25:4 26:0 27:0 28:8 29:4 30:12 31:0 32:12 33:4 34:0 35:4 36:8 37:4 38:8 39:0 40:0 41:13.04 42:2.1700001 43:2.1700001 44:15.22 45:2.1700001 46:0 47:2.1700001 48:0 49:21.74 50:8.6999998 51:0 52:4.3499999 53:6.52 54:4.3499999 55:0 56:2.1700001 57:2.1700001 58:8.6999998 59:0 60:4.3499999 #
50 1:4 2:0 3:0 4:0 5:4 6:4 7:0 8:0 9:12 10:16 11:4 12:4 13:8 14:0 15:8 16:20 17:4 18:0 19:4 20:8 21:0 22:0 23:8 24:4 25:12 26:0 27:0 28:8 29:4 30:12 31:0 32:12 33:4 34:4 35:4 36:12 37:8 38:8 39:0 40:0 41:3.04 42:0.50999999 43:4.7199998 44:3.71 45:4.3800001 46:2.1900001 47:2.8699999 48:6.9099998 49:7.5900002 50:12.82 51:1.35 52:7.0799999 53:6.2399998 54:6.75 55:2.3599999 56:12.48 57:7.4200001 58:3.3699999 59:1.35 60:2.8699999 #
-100 1:4 2:0 3:0 4:0 5:12 6:0 7:0 8:8 9:8 10:16 11:4 12:4 13:12 14:4 15:12 16:8 17:4 18:0 19:0 20:4 21:12 22:0 23:8 24:32 25:0 26:4 27:0 28:0 29:4 30:16 31:0 32:0 33:4 34:4 35:4 36:4 37:4 38:4 39:0 40:0 41:8 42:2 43:4 44:10 45:6 46:8 47:0 48:8 49:6 50:7 51:3 52:4 53:7 54:2 55:5 56:5 57:5 58:6 59:1 60:3 #
-58.295439008263514324426068924367 1:0 2:0 3:4 4:8 5:8 6:0 7:4 8:12 9:8 10:16 11:4 12:0 13:4 14:0 15:4 16:20 17:8 18:0 19:0 20:0 21:4 22:0 23:0 24:0 25:4 26:4 27:4 28:0 29:0 30:24 31:0 32:12 33:12 34:0 35:4 36:12 37:4 38:8 39:4 40:4 41:10 42:0 43:0 44:0 45:10 46:10 47:10 48:10 49:0 50:0 51:0 52:10 53:10 54:0 55:0 56:0 57:0 58:10 59:10 60:10 #
3.8789217828342028582255807123147 1:8 2:8 3:8 4:12 5:4 6:12 7:0 8:4 9:0 10:0 11:8 12:0 13:8 14:0 15:8 16:0 17:4 18:8 19:4 20:4 21:4 22:0 23:8 24:4 25:0 26:8 27:4 28:0 29:4 30:8 31:0 32:0 33:24 34:12 35:0 36:8 37:4 38:0 39:0 40:12 41:12.3 42:0.81999999 43:1.64 44:1.64 45:4.9200001 46:16.389999 47:0.81999999 48:8.1999998 49:1.64 50:9.8400002 51:2.46 52:3.28 53:4.9200001 54:3.28 55:9.0200005 56:5.7399998 57:4.0999999 58:6.5599999 59:1.64 60:0.81999999 #
-100 1:24 2:0 3:4 4:0 5:8 6:12 7:0 8:0 9:4 10:0 11:12 12:0 13:12 14:12 15:4 16:8 17:0 18:0 19:0 20:0 21:16 22:0 23:4 24:0 25:12 26:8 27:0 28:4 29:0 30:16 31:8 32:4 33:8 34:8 35:0 36:4 37:0 38:8 39:0 40:0 41:18.18 42:0 43:0 44:9.0900002 45:9.0900002 46:0 47:0 48:9.0900002 49:9.0900002 50:9.0900002 51:0 52:0 53:9.0900002 54:0 55:0 56:9.0900002 57:9.0900002 58:0 59:0 60:9.0900002 #
-3.6269702326235062628256855532527 1:12 2:0 3:4 4:12 5:4 6:0 7:0 8:0 9:4 10:12 11:12 12:12 13:8 14:8 15:4 16:4 17:0 18:4 19:0 20:0 21:4 22:8 23:4 24:0 25:4 26:0 27:4 28:8 29:4 30:4 31:16 32:4 33:0 34:8 35:8 36:16 37:4 38:0 39:0 40:4 41:3.7 42:7.4099998 43:3.7 44:7.4099998 45:3.7 46:3.7 47:0 48:3.7 49:11.11 50:0 51:7.4099998 52:0 53:3.7 54:0 55:0 56:25.93 57:7.4099998 58:7.4099998 59:3.7 60:0 #
50 1:20 2:0 3:0 4:8 5:0 6:8 7:0 8:4 9:4 10:8 11:4 12:0 13:8 14:4 15:8 16:8 17:0 18:8 19:0 20:8 21:12 22:0 23:8 24:8 25:0 26:8 27:4 28:4 29:16 30:8 31:0 32:4 33:4 34:0 35:0 36:4 37:12 38:4 39:0 40:4 41:12 42:0 43:3 44:4 45:4 46:8 47:2 48:7 49:7 50:8 51:2 52:1 53:5 54:4 55:10 56:8 57:4 58:7 59:1 60:3 #
50 1:4 2:0 3:0 4:0 5:4 6:4 7:8 8:4 9:8 10:24 11:8 12:0 13:0 14:8 15:12 16:8 17:4 18:0 19:4 20:0 21:16 22:0 23:0 24:24 25:0 26:4 27:0 28:0 29:20 30:20 31:0 32:4 33:0 34:0 35:0 36:0 37:8 38:4 39:0 40:0 41:7.0999999 42:1.11 43:5.9899998 44:9.3100004 45:4.4299998 46:2.6600001 47:1.55 48:5.9899998 49:9.9799995 50:11.31 51:2.8800001 52:5.0999999 53:3.99 54:4.21 55:5.3200002 56:8.1999998 57:2.8800001 58:3.77 59:1.11 60:3.0999999 #
50 1:0 2:4 3:4 4:0 5:8 6:0 7:4 8:8 9:20 10:12 11:8 12:0 13:8 14:4 15:4 16:8 17:0 18:4 19:0 20:4 21:4 22:0 23:0 24:8 25:0 26:8 27:8 28:4 29:12 30:16 31:0 32:8 33:0 34:4 35:8 36:8 37:0 38:0 39:0 40:12 41:3.0799999 42:2.1199999 43:6.3600001 44:5.3899999 45:5.7800002 46:5.7800002 47:0.95999998 48:10.4 49:11.37 50:8.4799995 51:1.54 52:11.18 53:2.3099999 54:2.1199999 55:2.7 56:6.9400001 57:3.6600001 58:4.4299998 59:0.19 60:5.1999998 #
50 1:0 2:0 3:4 4:12 5:0 6:4 7:0 8:0 9:8 10:16 11:4 12:0 13:4 14:0 15:4 16:36 17:8 18:0 19:0 20:0 21:12 22:0 23:0 24:4 25:12 26:8 27:4 28:4 29:8 30:8 31:4 32:4 33:4 34:0 35:4 36:8 37:8 38:4 39:0 40:4 41:9.0299997 42:1.08 43:2.1700001 44:2.8900001 45:5.4200001 46:11.19 47:0.72000003 48:7.2199998 49:7.9400001 50:7.9400001 51:1.8099999 52:5.0500002 53:5.0500002 54:4.3299999 55:2.8900001 56:7.2199998 57:7.2199998 58:7.9400001 59:0.72000003 60:2.1700001 #
-73.224739826225629713007947430015 1:0 2:0 3:0 4:4 5:4 6:4 7:8 8:8 9:8 10:12 11:8 12:4 13:0 14:4 15:16 16:16 17:0 18:4 19:0 20:0 21:0 22:0 23:0 24:32 25:4 26:0 27:0 28:4 29:20 30:16 31:4 32:8 33:0 34:4 35:4 36:4 37:0 38:0 39:0 40:0 41:3.3299999 42:1.87 43:5.4699998 44:6.1300001 45:6.1300001 46:2.8 47:2.4000001 48:7.5999999 49:8.2700005 50:11.07 51:2.27 52:5.3299999 53:1.87 54:4.27 55:5.0700002 56:8.3999996 57:6 58:5.3299999 59:1.47 60:4.9299998 #
-100 1:4 2:4 3:0 4:0 5:4 6:4 7:0 8:4 9:4 10:8 11:8 12:4 13:0 14:12 15:8 16:24 17:12 18:0 19:0 20:0 21:4 22:0 23:0 24:16 25:4 26:0 27:0 28:8 29:24 30:4 31:0 32:4 33:8 34:0 35:4 36:12 37:4 38:4 39:0 40:4 41:9.0900002 42:0 43:4.4299998 44:8.1599998 45:3.73 46:7.9299998 47:3.03 48:5.1300001 49:7.46 50:12.59 51:0.69999999 52:2.5599999 53:4.9000001 54:2.8 55:4.1999998 56:6.29 57:5.1300001 58:6.0599999 59:1.4 60:4.4299998 #
-18.943665034379080225335201248527 1:4 2:0 3:4 4:8 5:4 6:4 7:0 8:4 9:0 10:4 11:4 12:0 13:0 14:0 15:4 16:52 17:4 18:4 19:0 20:0 21:4 22:0 23:8 24:4 25:8 26:8 27:0 28:0 29:16 30:16 31:0 32:0 33:0 34:8 35:8 36:8 37:8 38:0 39:0 40:4 41:6.5900002 42:2.54 43:4.9400001 44:7.3400002 45:4.1900001 46:3.5899999 47:2.6900001 48:4.79 49:4.6399999 50:13.62 51:2.25 52:4.79 53:3.29 54:7.04 55:5.3899999 56:8.5299997 57:4.1900001 58:5.9899998 59:1.35 60:2.25 #
-28.171074199894121647957945242524 1:8 2:0 3:0 4:0 5:4 6:0 7:0 8:4 9:8 10:8 11:4 12:4 13:8 14:0 15:12 16:12 17:12 18:16 19:0 20:0 21:4 22:0 23:0 24:16 25:12 26:0 27:4 28:8 29:16 30:4 31:4 32:8 33:0 34:0 35:0 36:12 37:0 38:0 39:4 40:8 41:8.3299999 42:0.46000001 43:6.02 44:12.96 45:6.02 46:3.24 47:0.93000001 48:3.7 49:3.24 50:8.3299999 51:1.39 52:8.3299999 53:4.1700001 54:3.7 55:3.7 56:9.7200003 57:5.0900002 58:7.4099998 59:0.46000001 60:2.78 #
-100 1:32 2:0 3:0 4:0 5:0 6:4 7:0 8:0 9:4 10:16 11:4 12:0 13:0 14:4 15:12 16:8 17:4 18:12 19:0 20:0 21:0 22:0 23:4 24:8 25:4 26:12 27:0 28:4 29:12 30:8 31:0 32:4 33:8 34:0 35:8 36:4 37:4 38:4 39:8 40:8 41:3.9300001 42:1.97 43:6.8899999 44:6.5599999 45:3.9300001 46:5.9000001 47:3.6099999 48:5.5700002 49:7.8699999 50:10.16 51:1.3099999 52:3.28 53:4.2600002 54:4.9200001 55:5.25 56:6.5599999 57:4.9200001 58:6.5599999 59:0.98000002 60:5.5700002 #
-33.308939944651925202379061374813 1:20 2:0 3:0 4:0 5:0 6:12 7:0 8:0 9:0 10:12 11:4 12:4 13:32 14:0 15:0 16:8 17:0 18:8 19:0 20:0 21:8 22:4 23:0 24:0 25:12 26:16 27:4 28:4 29:8 30:20 31:0 32:8 33:0 34:4 35:4 36:0 37:8 38:0 39:0 40:0 41:7.7199998 42:1.61 43:3.22 44:4.8200002 45:3.54 46:11.25 47:2.8900001 48:2.25 49:4.1799998 50:10.29 51:1.9299999 52:4.1799998 53:7.4000001 54:4.8200002 55:2.5699999 56:8.3599997 57:7.7199998 58:7.4000001 59:0.95999998 60:2.8900001 #
-51.489000516502713367117394227535 1:24 2:0 3:0 4:0 5:0 6:0 7:4 8:0 9:0 10:8 11:8 12:0 13:12 14:0 15:12 16:12 17:0 18:20 19:0 20:0 21:4 22:0 23:4 24:8 25:0 26:4 27:4 28:8 29:4 30:4 31:0 32:0 33:12 34:4 35:8 36:12 37:12 38:4 39:4 40:4 41:6.0599999 42:0.30000001 43:4.8499999 44:6.0599999 45:6.3600001 46:7.5799999 47:4.2399998 48:7.8800001 49:5.7600002 50:7.27 51:1.21 52:2.4200001 53:6.6700001 54:2.73 55:7.27 56:5.4499998 57:4.2399998 58:9.3900003 59:1.52 60:2.73 #
20.840758008343101437276345677674 1:8 2:0 3:8 4:4 5:4 6:4 7:0 8:8 9:20 10:0 11:4 12:4 13:0 14:12 15:0 16:20 17:4 18:0 19:0 20:0 21:0 22:4 23:0 24:8 25:4 26:4 27:4 28:8 29:4 30:12 31:12 32:4 33:0 34:4 35:4 36:8 37:8 38:8 39:0 40:4 41:8.7600002 42:0.73000002 43:2.55 44:3.28 45:4.3800001 46:10.95 47:1.46 48:9.4899998 49:6.5700002 50:9.1199999 51:1.8200001 52:4.7399998 53:4.0100002 54:4.7399998 55:3.28 56:5.4699998 57:5.4699998 58:8.7600002 59:0.73000002 60:3.6500001 #
50 1:4 2:0 3:0 4:0 5:4 6:4 7:4 8:4 9:0 10:4 11:4 12:0 13:0 14:4 15:20 16:20 17:20 18:0 19:0 20:8 21:0 22:0 23:12 24:16 25:8 26:12 27:0 28:8 29:4 30:4 31:0 32:0 33:0 34:8 35:8 36:4 37:8 38:4 39:4 40:0 41:8.3999996 42:0.25999999 43:4.46 44:9.71 45:4.1999998 46:6.3000002 47:0.79000002 48:5.5100002 49:11.02 50:6.8200002 51:1.3099999 52:3.1500001 53:2.6199999 54:3.9400001 55:6.5599999 56:7.3499999 57:6.3000002 58:7.3499999 59:1.05 60:2.8900001 #
50 1:16 2:0 3:0 4:0 5:8 6:0 7:0 8:4 9:4 10:12 11:4 12:0 13:0 14:0 15:16 16:16 17:16 18:4 19:0 20:0 21:0 22:0 23:0 24:8 25:8 26:0 27:4 28:12 29:28 30:0 31:0 32:16 33:0 34:4 35:4 36:12 37:0 38:4 39:0 40:0 41:9.0900002 42:0.28 43:3.4100001 44:2.8399999 45:4.2600002 46:5.1100001 47:2.27 48:7.3899999 49:4.5500002 50:10.8 51:2.8399999 52:5.1100001 53:5.6799998 54:6.5300002 55:4.2600002 56:9.0900002 57:7.0999999 58:5.1100001 59:2.27 60:1.99 #
-41.321568872903981173294596374035 1:4 2:0 3:8 4:4 5:0 6:16 7:0 8:4 9:20 10:4 11:4 12:4 13:0 14:0 15:0 16:24 17:4 18:4 19:0 20:0 21:0 22:0 23:4 24:0 25:12 26:4 27:4 28:8 29:4 30:16 31:4 32:4 33:16 34:4 35:0 36:8 37:0 38:12 39:0 40:0 41:4 42:0 43:4 44:4 45:4 46:4 47:4 48:0 49:24 50:4 51:0 52:4 53:0 54:0 55:0 56:8 57:8 58:16 59:8 60:4 #
-17.154835470453718926364672370255 1:0 2:0 3:4 4:0 5:16 6:0 7:0 8:12 9:16 10:8 11:4 12:4 13:4 14:4 15:12 16:12 17:0 18:4 19:0 20:0 21:0 22:4 23:4 24:8 25:8 26:8 27:0 28:8 29:4 30:4 31:4 32:4 33:8 34:4 35:8 36:8 37:4 38:4 39:0 40:8 41:8.0799999 42:1.77 43:4.8000002 44:7.8299999 45:2.02 46:5.0500002 47:1.01 48:7.5799999 49:9.3400002 50:9.8500004 51:2.02 52:6.3099999 53:4.04 54:5.0500002 55:4.04 56:6.5700002 57:5.3000002 58:5.0500002 59:1.01 60:3.28 #
50 1:28 2:0 3:0 4:0 5:4 6:8 7:8 8:4 9:4 10:16 11:4 12:4 13:0 14:0 15:12 16:4 17:0 18:0 19:4 20:0 21:8 22:4 23:0 24:8 25:4 26:24 27:0 28:0 29:4 30:12 31:0 32:0 33:16 34:4 35:0 36:4 37:8 38:4 39:0 40:0 41:7.54 42:2.01 43:4.52 44:7.54 45:3.02 46:6.0300002 47:2.01 48:7.04 49:7.54 50:7.04 51:2.51 52:6.0300002 53:8.54 54:3.52 55:4.02 56:2.51 57:6.5300002 58:7.54 59:0.5 60:4.02 #
-25.873350826037817995484147104435 1:16 2:4 3:0 4:0 5:0 6:16 7:0 8:4 9:0 10:12 11:4 12:0 13:12 14:0 15:12 16:4 17:0 18:8 19:4 20:4 21:20 22:0 23:4 24:20 25:0 26:0 27:0 28:0 29:4 30:4 31:0 32:0 33:20 34:4 35:0 36:4 37:8 38:12 39:0 40:0 41:9.6899996 42:1.76 43:3.52 44:4.4099998 45:1.3200001 46:7.0500002 47:3.0799999 48:8.3699999 49:3.52 50:10.13 51:4.4099998 52:2.6400001 53:6.6100001 54:7.4899998 55:6.1700001 56:6.1700001 57:4.4099998 58:5.29 59:0.44 60:3.52 #
-86.03686453528293043291341746226 1:24 2:4 3:0 4:4 5:0 6:4 7:0 8:0 9:0 10:8 11:4 12:4 13:4 14:4 15:16 16:0 17:4 18:8 19:12 20:0 21:12 22:0 23:4 24:8 25:4 26:8 27:0 28:4 29:8 30:16 31:4 32:0 33:4 34:4 35:4 36:0 37:4 38:8 39:4 40:4 41:9.8800001 42:1.34 43:4.3600001 44:5.6999998 45:2.3499999 46:7.3699999 47:1.17 48:6.5300002 49:5.8600001 50:7.1999998 51:2.01 52:2.6800001 53:11.22 54:3.1800001 55:4.02 56:6.6999998 57:7.54 58:8.54 59:0.67000002 60:1.6799999 #
-59.162819555500163914985023438931 1:16 2:0 3:4 4:0 5:0 6:20 7:0 8:12 9:8 10:4 11:4 12:8 13:4 14:0 15:8 16:12 17:0 18:0 19:0 20:0 21:12 22:0 23:0 24:8 25:0 26:8 27:0 28:8 29:0 30:16 31:4 32:4 33:12 34:16 35:4 36:8 37:0 38:0 39:0 40:0 41:12.24 42:0 43:4.0799999 44:8.1599998 45:2.04 46:8.1599998 47:0 48:10.2 49:6.1199999 50:10.2 51:2.04 52:0 53:2.04 54:2.04 55:8.1599998 56:6.1199999 57:6.1199999 58:10.2 59:2.04 60:0 #
50 1:4 2:8 3:8 4:12 5:0 6:0 7:0 8:0 9:12 10:8 11:4 12:0 13:8 14:4 15:4 16:8 17:4 18:16 19:0 20:0 21:8 22:12 23:12 24:0 25:8 26:4 27:8 28:4 29:12 30:8 31:0 32:0 33:0 34:4 35:0 36:0 37:4 38:4 39:4 40:8 41:5.2600002 42:5.2600002 43:5.2600002 44:15.79 45:0 46:10.53 47:10.53 48:0 49:15.79 50:0 51:0 52:0 53:0 54:5.2600002 55:5.2600002 56:5.2600002 57:5.2600002 58:5.2600002 59:0 60:5.2600002 #
50 1:4 2:0 3:0 4:4 5:8 6:4 7:0 8:4 9:8 10:12 11:4 12:0 13:4 14:0 15:8 16:24 17:4 18:12 19:0 20:0 21:12 22:4 23:0 24:8 25:0 26:4 27:0 28:20 29:4 30:0 31:0 32:0 33:4 34:0 35:8 36:4 37:12 38:12 39:4 40:4 41:10.93 42:1.09 43:5.46 44:6.5599999 45:3.28 46:6.0100002 47:6.5599999 48:4.9200001 49:5.46 50:9.8400002 51:1.64 52:4.3699999 53:4.3699999 54:5.46 55:4.9200001 56:4.3699999 57:6.5599999 58:3.8299999 59:1.09 60:3.28 #
25.50525589726322550632175989449 1:0 2:0 3:0 4:4 5:16 6:0 7:0 8:4 9:20 10:0 11:4 12:0 13:16 14:8 15:4 16:8 17:4 18:12 19:0 20:0 21:4 22:0 23:12 24:4 25:4 26:0 27:0 28:8 29:20 30:16 31:4 32:4 33:0 34:0 35:8 36:8 37:4 38:4 39:0 40:0 41:4.98 42:2.3299999 43:3.99 44:10.3 45:6.6399999 46:3.99 47:1.99 48:6.3099999 49:10.96 50:11.63 51:2.6600001 52:7.3099999 53:1.33 54:2.6600001 55:3.99 56:5.3200002 57:3.99 58:3.6500001 59:1.33 60:4.6500001 #
-53.401053660855041016475297510624 1:4 2:0 3:0 4:4 5:16 6:8 7:4 8:0 9:8 10:12 11:4 12:0 13:0 14:4 15:4 16:12 17:8 18:4 19:0 20:8 21:8 22:0 23:8 24:4 25:8 26:4 27:4 28:12 29:4 30:4 31:0 32:8 33:4 34:0 35:4 36:12 37:4 38:0 39:0 40:12 41:3.1700001 42:1.8099999 43:3.6199999 44:7.0100002 45:5.4299998 46:4.75 47:2.71 48:6.3299999 49:7.0100002 50:10.63 51:1.58 52:4.98 53:5.4299998 54:4.98 55:4.75 56:8.6000004 57:7.2399998 58:4.75 59:1.8099999 60:3.3900001 #
-27.026976423317648823285708203912 1:0 2:0 3:0 4:4 5:16 6:0 7:0 8:0 9:16 10:12 11:4 12:0 13:8 14:4 15:8 16:4 17:12 18:4 19:0 20:8 21:12 22:0 23:4 24:8 25:4 26:4 27:4 28:0 29:16 30:12 31:4 32:8 33:4 34:4 35:0 36:0 37:0 38:0 39:8 40:8 41:5.9699998 42:0.75 43:8.96 44:6.7199998 45:0 46:2.24 47:2.99 48:4.48 49:6.7199998 50:14.18 51:2.24 52:3.73 53:2.99 54:12.69 55:5.2199998 56:5.9699998 57:5.9699998 58:3.73 59:0.75 60:3.73 #
-84.578028021543076420130091719329 1:4 2:4 3:0 4:0 5:4 6:0 7:0 8:12 9:12 10:16 11:4 12:0 13:8 14:0 15:8 16:20 17:4 18:4 19:0 20:0 21:12 22:0 23:8 24:0 25:0 26:8 27:0 28:12 29:12 30:8 31:0 32:4 33:8 34:0 35:8 36:8 37:0 38:8 39:4 40:0 41:4.6900001 42:0.94 43:3.99 44:5.6300001 45:3.76 46:5.8699999 47:2.1099999 48:8.6899996 49:7.2800002 50:11.27 51:1.64 52:8.4499998 53:4.9299998 54:4.6900001 55:2.5799999 56:7.75 57:5.4000001 58:5.4000001 59:0.47 60:4.46 #
50 1:20 2:0 3:0 4:0 5:0 6:16 7:0 8:0 9:0 10:16 11:4 12:4 13:4 14:4 15:16 16:8 17:0 18:8 19:0 20:0 21:8 22:8 23:0 24:4 25:0 26:8 27:16 28:0 29:8 30:12 31:0 32:0 33:8 34:8 35:4 36:4 37:4 38:4 39:0 40:4 41:7.5900002 42:2.53 43:5.0599999 44:8.8599997 45:1.27 46:8.8599997 47:0 48:6.3299999 49:5.0599999 50:5.0599999 51:2.53 52:5.0599999 53:6.3299999 54:2.53 55:5.0599999 56:7.5900002 57:7.5900002 58:8.8599997 59:2.53 60:1.27 #
50 1:24 2:4 3:4 4:0 5:0 6:8 7:4 8:0 9:0 10:16 11:4 12:0 13:4 14:0 15:16 16:4 17:8 18:4 19:0 20:0 21:0 22:0 23:4 24:16 25:0 26:8 27:0 28:8 29:4 30:20 31:0 32:4 33:8 34:4 35:4 36:4 37:8 38:8 39:0 40:0 41:10 42:2 43:8 44:7 45:3 46:4 47:2 48:7 49:6 50:5 51:1 52:3 53:7 54:2 55:8 56:4 57:6 58:8 59:2 60:5 #
-16.356599786332651547127170488238 1:28 2:0 3:0 4:0 5:0 6:8 7:0 8:0 9:0 10:20 11:4 12:0 13:4 14:4 15:20 16:4 17:4 18:4 19:0 20:0 21:4 22:0 23:0 24:12 25:0 26:8 27:0 28:0 29:8 30:8 31:0 32:4 33:4 34:8 35:4 36:4 37:12 38:16 39:0 40:8 41:10.64 42:1.7 43:5.96 44:5.1100001 45:4.6799998 46:9.3599997 47:1.49 48:4.6799998 49:5.96 50:7.23 51:1.91 52:4.04 53:4.8899999 54:4.6799998 55:4.2600002 56:4.6799998 57:4.6799998 58:8.9399996 59:1.49 60:3.6199999 #
50 1:0 2:0 3:0 4:0 5:16 6:20 7:0 8:8 9:12 10:8 11:4 12:4 13:4 14:0 15:8 16:8 17:4 18:4 19:0 20:0 21:4 22:4 23:4 24:8 25:8 26:4 27:0 28:4 29:8 30:0 31:8 32:8 33:4 34:4 35:0 36:20 37:0 38:0 39:0 40:12 41:6.7800002 42:1.36 43:4.0700002 44:5.0799999 45:4.75 46:5.0799999 47:2.71 48:7.46 49:5.0799999 50:9.8299999 51:3.05 52:5.4200001 53:5.0799999 54:3.73 55:6.0999999 56:8.8100004 57:4.4099998 58:5.0799999 59:1.6900001 60:4.4099998 #
50 1:4 2:0 3:0 4:4 5:0 6:12 7:0 8:8 9:0 10:4 11:4 12:12 13:12 14:12 15:0 16:20 17:8 18:0 19:0 20:0 21:8 22:0 23:4 24:8 25:8 26:12 27:0 28:8 29:20 30:8 31:0 32:4 33:4 34:0 35:4 36:8 37:4 38:0 39:0 40:0 41:7.6300001 42:0 43:4.2399998 44:3.3900001 45:5.0799999 46:12.71 47:2.54 48:4.2399998 49:10.17 50:10.17 51:3.3900001 52:7.6300001 53:2.54 54:4.2399998 55:0.85000002 56:4.2399998 57:8.4700003 58:5.0799999 59:0 60:3.3900001 #
-100 1:12 2:8 3:0 4:4 5:4 6:4 7:0 8:8 9:0 10:16 11:4 12:8 13:8 14:4 15:12 16:4 17:0 18:4 19:0 20:0 21:8 22:4 23:0 24:0 25:4 26:8 27:4 28:4 29:8 30:16 31:8 32:4 33:4 34:0 35:8 36:4 37:4 38:12 39:0 40:0 41:5.6799998 42:0.94999999 43:6.0599999 44:6.4400001 45:5.3000002 46:6.25 47:2.46 48:4.9200001 49:7.1999998 50:11.74 51:1.7 52:3.03 53:2.27 54:7.0100002 55:4.9200001 56:7.3899999 57:4.9200001 58:7.5799999 59:0.75999999 60:3.4100001 #
-41.498210047285581936193921137601 1:0 2:0 3:4 4:4 5:0 6:4 7:4 8:0 9:4 10:8 11:8 12:12 13:4 14:16 15:4 16:12 17:12 18:0 19:4 20:0 21:4 22:4 23:8 24:4 25:12 26:0 27:4 28:8 29:4 30:8 31:0 32:4 33:4 34:12 35:8 36:8 37:8 38:0 39:0 40:0 41:6.9200001 42:3.3299999 43:3.3299999 44:5.9899998 45:4.79 46:7.0599999 47:2.26 48:2.9300001 49:2.8 50:17.18 51:1.6 52:2 53:6.3899999 54:5.9899998 55:5.9899998 56:7.1900001 57:4.2600002 58:7.0599999 59:1.86 60:1.0700001 #
-63.39380542105462268409610260278 1:0 2:4 3:0 4:4 5:0 6:20 7:0 8:4 9:8 10:8 11:4 12:4 13:4 14:4 15:8 16:8 17:12 18:8 19:0 20:0 21:4 22:4 23:4 24:0 25:28 26:0 27:4 28:8 29:0 30:20 31:0 32:0 33:0 34:0 35:0 36:4 37:0 38:12 39:4 40:8 41:5.98 42:2.79 43:3.5899999 44:10.76 45:3.5899999 46:7.5700002 47:2.3900001 48:1.99 49:4.7800002 50:12.35 51:2.3900001 52:2.3900001 53:2.3900001 54:5.5799999 55:8.3699999 56:6.3699999 57:4.7800002 58:8.7600002 59:1.2 60:1.99 #
50 1:24 2:0 3:0 4:0 5:0 6:4 7:0 8:8 9:0 10:8 11:4 12:0 13:0 14:4 15:16 16:4 17:20 18:8 19:0 20:0 21:0 22:0 23:8 24:12 25:0 26:4 27:4 28:8 29:16 30:0 31:0 32:4 33:12 34:4 35:0 36:0 37:0 38:0 39:12 40:16 41:8.0600004 42:1.61 43:8.8699999 44:8.8699999 45:4.8400002 46:5.6500001 47:2.4200001 48:6.4499998 49:7.2600002 50:7.2600002 51:0.81 52:4.0300002 53:6.4499998 54:2.4200001 55:5.6500001 56:1.61 57:2.4200001 58:9.6800003 59:1.61 60:4.0300002 #
20.183011905583061462721161660738 1:32 2:0 3:0 4:0 5:4 6:8 7:0 8:0 9:0 10:4 11:8 12:0 13:0 14:0 15:12 16:4 17:16 18:4 19:4 20:4 21:0 22:0 23:0 24:16 25:12 26:4 27:0 28:4 29:16 30:4 31:0 32:8 33:0 34:4 35:4 36:4 37:8 38:8 39:8 40:0 41:7.5100002 42:1.34 43:6.0100002 44:5.0100002 45:4.1700001 46:6.1799998 47:2.1700001 48:5.1799998 49:6.3400002 50:9.6800003 51:2.6700001 52:5.1799998 53:5.3400002 54:3.3399999 55:4.3400002 56:6.5100002 57:6.6799998 58:7.6799998 59:1 60:3.6700001 #
-31.962101433545427653371007181704 1:24 2:0 3:0 4:4 5:0 6:4 7:0 8:8 9:0 10:4 11:4 12:0 13:0 14:0 15:4 16:20 17:12 18:12 19:4 20:0 21:4 22:0 23:8 24:12 25:0 26:12 27:8 28:8 29:16 30:4 31:0 32:8 33:4 34:0 35:0 36:0 37:12 38:4 39:0 40:0 41:6.9000001 42:5.1700001 43:8.6199999 44:1.72 45:6.9000001 46:3.45 47:5.1700001 48:6.9000001 49:13.79 50:5.1700001 51:3.45 52:5.1700001 53:3.45 54:1.72 55:6.9000001 56:1.72 57:0 58:5.1700001 59:1.72 60:6.9000001 #
50 1:20 2:0 3:4 4:0 5:4 6:4 7:0 8:0 9:0 10:12 11:4 12:0 13:4 14:8 15:16 16:12 17:4 18:8 19:0 20:0 21:4 22:0 23:12 24:4 25:8 26:8 27:0 28:0 29:12 30:16 31:0 32:8 33:4 34:0 35:0 36:4 37:0 38:12 39:0 40:8 41:9.1199999 42:0.31 43:6.5999999 44:6.29 45:4.7199998 46:5.3499999 47:0.94 48:3.77 49:8.8100004 50:12.58 51:0 52:5.0300002 53:3.1400001 54:2.2 55:3.77 56:8.8100004 57:5.6599998 58:8.8100004 59:0 60:4.0900002 #
34.823091116157428359656478278339 1:0 2:0 3:8 4:20 5:4 6:0 7:0 8:0 9:4 10:12 11:4 12:4 13:12 14:12 15:0 16:4 17:12 18:4 19:0 20:0 21:8 22:0 23:0 24:12 25:12 26:8 27:0 28:0 29:0 30:12 31:8 32:4 33:4 34:0 35:8 36:4 37:8 38:12 39:0 40:0 41:5.73 42:1.4299999 43:3.23 44:3.5799999 45:5.73 46:10.04 47:0.36000001 48:5.73 49:6.8099999 50:10.39 51:1.79 52:5.02 53:4.3000002 54:4.3000002 55:5.73 56:5.73 57:7.8899999 58:7.5300002 59:1.08 60:3.5799999 #
36.899681556509307256419560872018 1:8 2:0 3:8 4:8 5:4 6:0 7:0 8:8 9:8 10:12 11:4 12:8 13:4 14:8 15:0 16:8 17:4 18:8 19:0 20:0 21:4 22:4 23:4 24:4 25:4 26:0 27:0 28:0 29:4 30:8 31:0 32:4 33:4 34:0 35:4 36:12 37:4 38:28 39:8 40:4 41:6.8800001 42:1.45 43:1.45 44:3.99 45:4.71 46:10.87 47:0.72000003 48:4.71 49:4.3499999 50:10.87 51:0.36000001 52:5.0700002 53:3.26 54:4.71 55:6.52 56:9.0600004 57:5.8000002 58:8.6999998 59:1.45 60:5.0700002 #
50 1:0 2:0 3:4 4:4 5:0 6:4 7:12 8:12 9:0 10:4 11:4 12:8 13:16 14:0 15:0 16:20 17:8 18:0 19:4 20:0 21:4 22:0 23:4 24:0 25:4 26:4 27:0 28:4 29:0 30:20 31:8 32:4 33:4 34:8 35:4 36:16 37:8 38:4 39:0 40:4 41:5.9699998 42:0.63 43:4.7199998 44:4.0900002 45:6.29 46:9.4300003 47:1.89 48:5.6599998 49:5.6599998 50:7.5500002 51:1.89 52:4.7199998 53:4.7199998 54:4.7199998 55:5.9699998 56:8.4899998 57:6.5999999 58:5.6599998 59:1.26 60:4.0900002 #
-3.9057589093503786159544688416645 1:4 2:0 3:4 4:12 5:0 6:0 7:8 8:4 9:12 10:4 11:8 12:8 13:0 14:4 15:0 16:8 17:0 18:16 19:8 20:0 21:8 22:0 23:4 24:0 25:4 26:20 27:0 28:0 29:4 30:20 31:12 32:0 33:0 34:0 35:8 36:4 37:0 38:12 39:0 40:4 41:25 42:0 43:0 44:0 45:0 46:0 47:0 48:0 49:0 50:0 51:25 52:25 53:0 54:0 55:0 56:0 57:0 58:25 59:0 60:0 #
50 1:16 2:0 3:0 4:0 5:8 6:12 7:0 8:8 9:4 10:8 11:4 12:0 13:0 14:0 15:16 16:16 17:0 18:8 19:0 20:0 21:4 22:0 23:0 24:16 25:0 26:4 27:0 28:4 29:20 30:8 31:4 32:0 33:4 34:8 35:8 36:12 37:4 38:0 39:0 40:4 41:7.8600001 42:1.5700001 43:5.6599998 44:6.9200001 45:5.9699998 46:7.23 47:1.89 48:4.4000001 49:5.6599998 50:8.8100004 51:1.5700001 52:4.4000001 53:5.3499999 54:4.0900002 55:5.3499999 56:7.5500002 57:4.7199998 58:6.5999999 59:1.26 60:3.1400001 #
-6.0039352893503803443309152498841 1:16 2:4 3:0 4:0 5:0 6:4 7:4 8:12 9:0 10:8 11:4 12:8 13:4 14:0 15:16 16:20 17:0 18:0 19:0 20:0 21:4 22:0 23:0 24:12 25:8 26:8 27:4 28:0 29:20 30:4 31:12 32:0 33:4 34:8 35:0 36:8 37:0 38:8 39:0 40:0 41:7.0500002 42:1.63 43:5.8200002 44:6.6399999 45:4.1900001 46:6.23 47:3.1700001 48:4.9000001 49:5.1100001 50:8.7799997 51:1.84 52:4.1900001 53:5.21 54:5.6199999 55:5.6199999 56:7.46 57:4.8000002 58:7.25 59:1.33 60:3.1700001 #
50 1:0 2:0 3:4 4:0 5:0 6:0 7:4 8:16 9:4 10:20 11:4 12:8 13:4 14:12 15:8 16:12 17:4 18:0 19:0 20:0 21:4 22:0 23:8 24:4 25:4 26:12 27:4 28:12 29:0 30:4 31:0 32:4 33:8 34:0 35:8 36:4 37:16 38:4 39:0 40:4 41:7.5799999 42:1.46 43:2.6199999 44:1.75 45:8.75 46:7.5799999 47:3.21 48:8.4499998 49:1.17 50:11.95 51:2.6199999 52:2.9200001 53:6.4099998 54:1.75 55:2.3299999 56:7.29 57:3.21 58:9.3299999 59:3.79 60:5.8299999 #
50 1:8 2:0 3:0 4:4 5:8 6:4 7:0 8:0 9:12 10:4 11:4 12:4 13:4 14:20 15:8 16:8 17:4 18:4 19:0 20:4 21:8 22:0 23:12 24:4 25:0 26:8 27:0 28:8 29:4 30:16 31:0 32:12 33:0 34:0 35:12 36:0 37:4 38:12 39:0 40:0 41:9.6199999 42:0.38 43:5.3800001 44:4.6199999 45:4.23 46:7.3099999 47:1.15 48:7.3099999 49:5 50:9.2299995 51:1.15 52:4.23 53:3.8499999 54:5.3800001 55:8.46 56:6.1500001 57:4.6199999 58:9.2299995 59:0.38 60:2.3099999 #
50 1:4 2:0 3:12 4:0 5:0 6:4 7:0 8:12 9:8 10:4 11:4 12:4 13:16 14:8 15:0 16:8 17:8 18:4 19:0 20:4 21:12 22:0 23:8 24:0 25:8 26:0 27:8 28:4 29:8 30:8 31:8 32:12 33:4 34:0 35:4 36:8 37:0 38:8 39:0 40:0 41:5.6700001 42:0.49000001 43:6.1599998 44:4.9299998 45:4.4299998 46:8.1300001 47:1.97 48:6.9000001 49:7.1399999 50:9.3599997 51:3.2 52:5.4200001 53:3.9400001 54:2.71 55:5.1700001 56:7.3899999 57:6.6500001 58:5.1700001 59:1.23 60:3.9400001 #
49.886783446106704786870977841318 1:8 2:0 3:4 4:16 5:4 6:8 7:0 8:4 9:0 10:12 11:4 12:0 13:8 14:8 15:12 16:4 17:4 18:4 19:0 20:0 21:0 22:4 23:0 24:20 25:4 26:4 27:4 28:12 29:4 30:4 31:0 32:0 33:4 34:8 35:4 36:8 37:8 38:4 39:0 40:8 41:6.9699998 42:1.39 43:1.74 44:4.1799998 45:7.3200002 46:5.23 47:0.69999999 48:6.9699998 49:4.5300002 50:10.8 51:3.48 52:3.8299999 53:6.27 54:4.1799998 55:5.9200001 56:9.7600002 57:5.5700002 58:7.3200002 59:1.74 60:2.0899999 #
-85.883322942377503750321920961142 1:12 2:0 3:8 4:4 5:8 6:0 7:0 8:8 9:8 10:0 11:4 12:12 13:8 14:12 15:4 16:4 17:4 18:0 19:0 20:4 21:4 22:4 23:8 24:4 25:4 26:8 27:0 28:8 29:8 30:4 31:0 32:0 33:8 34:0 35:8 36:12 37:8 38:4 39:8 40:0 41:5.5599999 42:8.3299999 43:5.5599999 44:5.5599999 45:2.78 46:5.5599999 47:2.78 48:0 49:5.5599999 50:2.78 51:2.78 52:5.5599999 53:0 54:5.5599999 55:11.11 56:2.78 57:5.5599999 58:8.3299999 59:5.5599999 60:8.3299999 #
-53.85802907888670176816958701238 1:4 2:4 3:0 4:4 5:0 6:4 7:0 8:4 9:16 10:8 11:4 12:0 13:4 14:4 15:8 16:12 17:12 18:12 19:0 20:0 21:8 22:0 23:0 24:4 25:0 26:0 27:0 28:8 29:8 30:4 31:4 32:8 33:16 34:0 35:4 36:12 37:16 38:8 39:0 40:0 41:5.1700001 42:0.38 43:6.9000001 44:5.5599999 45:3.8299999 46:6.1300001 47:1.92 48:6.6999998 49:6.9000001 50:9.1999998 51:1.15 52:6.5100002 53:5.3600001 54:3.0699999 55:5.1700001 56:10.54 57:5.5599999 58:5.3600001 59:0.38 60:4.21 #
50 1:20 2:0 3:0 4:0 5:4 6:4 7:0 8:0 9:4 10:4 11:8 12:4 13:4 14:0 15:16 16:12 17:8 18:12 19:0 20:0 21:8 22:0 23:0 24:8 25:4 26:16 27:0 28:4 29:12 30:16 31:4 32:0 33:4 34:0 35:0 36:4 37:4 38:12 39:0 40:4 41:0 42:0 43:7.6900001 44:7.6900001 45:7.6900001 46:7.6900001 47:2.5599999 48:5.1300001 49:15.38 50:5.1300001 51:0 52:2.5599999 53:2.5599999 54:7.6900001 55:5.1300001 56:2.5599999 57:0 58:15.38 59:0 60:5.1300001 #
50 1:32 2:0 3:0 4:0 5:0 6:4 7:4 8:4 9:0 10:12 11:8 12:0 13:4 14:0 15:12 16:12 17:0 18:8 19:0 20:0 21:8 22:0 23:0 24:12 25:8 26:20 27:0 28:0 29:8 30:0 31:0 32:0 33:4 34:12 35:0 36:20 37:0 38:4 39:4 40:0 41:9.5900002 42:0.2 43:4.4899998 44:10.82 45:3.27 46:6.73 47:1.63 48:4.29 49:9.3900003 50:7.3499999 51:3.6700001 52:2.45 53:7.5500002 54:4.6900001 55:5.5100002 56:5.0999999 57:4.29 58:3.8800001 59:2.24 60:2.8599999 #
50 1:20 2:0 3:0 4:0 5:4 6:8 7:0 8:0 9:0 10:16 11:4 12:0 13:0 14:0 15:16 16:16 17:12 18:4 19:0 20:0 21:4 22:0 23:8 24:8 25:4 26:8 27:0 28:4 29:12 30:4 31:8 32:4 33:4 34:4 35:8 36:4 37:0 38:4 39:8 40:4 41:6.3499999 42:0.79000002 43:7.1399999 44:7.1399999 45:4.7600002 46:4.7600002 47:0.79000002 48:2.3800001 49:10.32 50:10.32 51:3.1700001 52:0 53:7.1399999 54:4.7600002 55:4.7600002 56:6.3499999 57:4.7600002 58:4.7600002 59:4.7600002 60:4.7600002 #
-100 1:12 2:0 3:0 4:0 5:0 6:24 7:0 8:0 9:0 10:20 11:4 12:0 13:4 14:4 15:16 16:8 17:4 18:4 19:0 20:0 21:16 22:4 23:8 24:8 25:0 26:0 27:0 28:12 29:16 30:8 31:0 32:0 33:4 34:8 35:0 36:8 37:0 38:4 39:0 40:4 41:10.49 42:2.1900001 43:5.48 44:5.6300001 45:2.8199999 46:9.0799999 47:2.8199999 48:5.1599998 49:4.23 50:7.04 51:2.3499999 52:1.88 53:5.79 54:2.5 55:5.79 56:5.6300001 57:5.9499998 58:9.3900003 59:2.03 60:3.76 #
-47.380649587696353819410433061421 1:8 2:0 3:0 4:0 5:8 6:8 7:0 8:4 9:8 10:8 11:8 12:8 13:0 14:0 15:12 16:16 17:4 18:4 19:0 20:4 21:0 22:0 23:8 24:8 25:0 26:4 27:4 28:8 29:16 30:8 31:8 32:8 33:8 34:0 35:0 36:0 37:0 38:8 39:0 40:12 41:5 42:0.62 43:5.6199999 44:7.71 45:3.75 46:8.1199999 47:2.0799999 48:5 49:6.8800001 50:10.62 51:1.88 52:5.8299999 53:3.75 54:3.1199999 55:3.54 56:8.75 57:3.3299999 58:8.96 59:0.62 60:4.79 #
-18.070633019418153253354830667377 1:16 2:0 3:0 4:0 5:0 6:4 7:4 8:0 9:0 10:16 11:4 12:0 13:0 14:8 15:20 16:8 17:4 18:8 19:8 20:0 21:4 22:4 23:8 24:12 25:0 26:16 27:4 28:0 29:12 30:16 31:4 32:0 33:0 34:0 35:0 36:0 37:4 38:16 39:0 40:0 41:7.8600001 42:1.46 43:5.9699998 44:6.5500002 45:3.2 46:6.5500002 47:2.3299999 48:6.2600002 49:6.6999998 50:7.8600001 51:2.77 52:3.0599999 53:5.0900002 54:3.9300001 55:5.5300002 56:7.8600001 57:4.5100002 58:9.0200005 59:1.16 60:2.3299999 #
50 1:4 2:8 3:12 4:8 5:4 6:0 7:0 8:4 9:12 10:16 11:4 12:4 13:0 14:4 15:8 16:0 17:4 18:4 19:0 20:4 21:0 22:16 23:0 24:0 25:8 26:0 27:0 28:4 29:8 30:8 31:0 32:12 33:4 34:4 35:4 36:16 37:12 38:4 39:0 40:0 41:5.4099998 42:2.7 43:7.4299998 44:3.3800001 45:6.5300002 46:7.4299998 47:1.8 48:6.5300002 49:8.7799997 50:9.0100002 51:1.35 52:6.7600002 53:2.7 54:3.5999999 55:4.9499998 56:8.3299999 57:5.1799998 58:4.2800002 59:0.89999998 60:2.9300001 #
19.100215831588911896687932312489 1:4 2:0 3:16 4:0 5:4 6:4 7:12 8:0 9:4 10:0 11:4 12:8 13:8 14:4 15:0 16:12 17:16 18:4 19:0 20:0 21:4 22:0 23:4 24:4 25:0 26:4 27:4 28:0 29:12 30:8 31:0 32:4 33:20 34:4 35:0 36:4 37:28 38:0 39:0 40:0 41:3.8099999 42:0.27000001 43:5.4499998 44:4.6300001 45:5.1799998 46:4.9000001 47:2.45 48:7.3600001 49:7.6300001 50:12.26 51:2.1800001 52:4.9000001 53:7.6300001 54:2.72 55:5.4499998 56:9.2600002 57:5.7199998 58:4.0900002 59:1.63 60:2.45 #
50 1:0 2:0 3:4 4:8 5:0 6:0 7:4 8:16 9:12 10:4 11:4 12:20 13:4 14:4 15:4 16:8 17:4 18:4 19:0 20:0 21:8 22:0 23:0 24:12 25:0 26:8 27:4 28:8 29:12 30:20 31:0 32:0 33:4 34:8 35:0 36:8 37:0 38:0 39:0 40:8 41:8.2799997 42:2.76 43:2.0699999 44:2.76 45:5.52 46:8.9700003 47:0.69 48:6.9000001 49:2.76 50:15.86 51:2.0699999 52:5.52 53:5.52 54:1.38 55:6.21 56:5.52 57:7.5900002 58:5.52 59:0.69 60:3.45 #
-30.902760278656103309913305565715 1:12 2:0 3:12 4:4 5:12 6:4 7:0 8:4 9:12 10:8 11:4 12:4 13:8 14:0 15:0 16:0 17:12 18:0 19:0 20:4 21:4 22:0 23:0 24:0 25:8 26:12 27:0 28:0 29:8 30:12 31:0 32:20 33:0 34:4 35:0 36:0 37:16 38:12 39:4 40:0 41:7.1100001 42:0 43:5.7800002 44:2.22 45:7.1100001 46:6.2199998 47:0.44 48:6.6700001 49:11.56 50:6.2199998 51:0.44 52:9.7799997 53:2.6700001 54:2.6700001 55:1.78 56:8.4399996 57:9.3299999 58:8.4399996 59:0 60:3.1099999 #
-34.456994383875780840753577649593 1:0 2:0 3:0 4:0 5:8 6:4 7:0 8:20 9:16 10:12 11:4 12:16 13:4 14:0 15:0 16:4 17:0 18:12 19:0 20:0 21:4 22:0 23:0 24:12 25:4 26:0 27:0 28:8 29:8 30:8 31:0 32:16 33:4 34:12 35:0 36:8 37:8 38:4 39:0 40:4 41:3.3099999 42:0.99000001 43:3.8099999 44:7.4499998 45:2.98 46:4.9699998 47:1.66 48:7.9499998 49:7.2800002 50:9.7700005 51:1.99 52:10.1 53:2.6500001 54:7.1199999 55:2.48 56:11.59 57:5.1300001 58:5.96 59:0.17 60:2.6500001 #
-100 1:8 2:0 3:8 4:8 5:0 6:0 7:12 8:4 9:4 10:8 11:4 12:4 13:20 14:0 15:0 16:8 17:0 18:12 19:0 20:0 21:0 22:0 23:4 24:8 25:8 26:4 27:4 28:8 29:12 30:16 31:0 32:8 33:4 34:4 35:4 36:8 37:4 38:4 39:0 40:0 41:4.3699999 42:1.1900001 43:3.1700001 44:1.98 45:3.5699999 46:7.1399999 47:2.3800001 48:8.7299995 49:6.3499999 50:13.49 51:2.3800001 52:3.97 53:6.3499999 54:1.98 55:6.3499999 56:9.1300001 57:4.3699999 58:7.1399999 59:2.78 60:3.1700001 #
50 1:12 2:0 3:0 4:4 5:0 6:8 7:0 8:0 9:0 10:24 11:4 12:0 13:8 14:4 15:20 16:4 17:0 18:8 19:0 20:4 21:28 22:0 23:4 24:20 25:0 26:0 27:0 28:12 29:4 30:8 31:0 32:4 33:0 34:4 35:8 36:0 37:4 38:4 39:0 40:0 41:16.1 42:0 43:4.2399998 44:4.2399998 45:5.0799999 46:7.6300001 47:1.6900001 48:0.85000002 49:2.54 50:10.17 51:1.6900001 52:3.3900001 53:5.0799999 54:6.7800002 55:1.6900001 56:8.4700003 57:7.6300001 58:11.86 59:0 60:0.85000002 #
28.568593711712402694047341356054 1:8 2:8 3:0 4:0 5:4 6:16 7:0 8:0 9:0 10:20 11:4 12:0 13:0 14:0 15:28 16:0 17:8 18:0 19:4 20:0 21:4 22:0 23:4 24:16 25:0 26:0 27:4 28:4 29:8 30:12 31:0 32:0 33:0 34:4 35:20 36:12 37:4 38:8 39:0 40:0 41:14.29 42:1.27 43:4.7600002 44:10.48 45:2.22 46:5.0799999 47:2.22 48:6.6700001 49:4.4400001 50:13.65 51:3.1700001 52:2.8599999 53:2.54 54:6.0300002 55:6.0300002 56:4.4400001 57:4.4400001 58:0.94999999 59:0.31999999 60:4.1300001 #
50 1:16 2:4 3:0 4:0 5:0 6:8 7:0 8:0 9:4 10:12 11:4 12:0 13:4 14:8 15:12 16:12 17:0 18:4 19:12 20:0 21:4 22:4 23:8 24:4 25:0 26:8 27:0 28:4 29:8 30:8 31:0 32:4 33:12 34:8 35:4 36:0 37:8 38:12 39:0 40:4 41:8.9300003 42:2 43:5.0999999 44:4.5500002 45:2.9100001 46:8.9300003 47:4.3699999 48:4.1900001 49:4.1900001 50:8.1999998 51:2.3699999 52:3.46 53:6.1900001 54:5.8299999 55:6.1900001 56:5.8299999 57:4.5500002 58:6.9200001 59:2 60:3.28 #
-77.721836894681757712532998993993 1:20 2:0 3:0 4:0 5:0 6:16 7:0 8:0 9:0 10:12 11:4 12:0 13:12 14:0 15:16 16:4 17:8 18:0 19:8 20:0 21:8 22:12 23:4 24:8 25:0 26:4 27:0 28:0 29:8 30:4 31:0 32:0 33:8 34:0 35:8 36:12 37:8 38:8 39:4 40:4 41:6.3400002 42:1.46 43:5.1999998 44:7.0700002 45:3.3299999 46:5.9299998 47:2.3900001 48:5.6100001 49:7.1700001 50:9.5600004 51:2.3900001 52:3.53 53:6.0300002 54:3.6400001 55:4.2600002 56:7.6900001 57:5.1999998 58:7.3800001 59:2.1800001 60:3.6400001 #
-30.028424226720119349920423701406 1:20 2:4 3:0 4:0 5:0 6:12 7:0 8:0 9:4 10:20 11:4 12:0 13:0 14:0 15:8 16:16 17:4 18:0 19:4 20:4 21:8 22:4 23:12 24:0 25:4 26:4 27:0 28:4 29:8 30:4 31:8 32:4 33:8 34:12 35:0 36:8 37:4 38:8 39:0 40:0 41:8.7200003 42:1.28 43:4.6799998 44:7.6599998 45:3.8299999 46:10.64 47:2.1300001 48:6.8099999 49:7.4499998 50:8.3000002 51:2.55 52:3.8299999 53:4.04 54:2.1300001 55:4.4699998 56:5.3200002 57:5.3200002 58:7.8699999 59:0.63999999 60:2.3399999 #
-27.908791259627101055684761377051 1:8 2:0 3:0 4:0 5:0 6:20 7:0 8:0 9:0 10:16 11:4 12:0 13:12 14:0 15:8 16:12 17:8 18:8 19:4 20:0 21:4 22:8 23:0 24:8 25:0 26:16 27:0 28:8 29:0 30:4 31:4 32:0 33:20 34:4 35:8 36:12 37:0 38:4 39:0 40:0 41:8.1899996 42:0.57999998 43:4.0900002 44:11.11 45:4.0900002 46:7.02 47:3.51 48:4.6799998 49:1.75 50:12.87 51:0.57999998 52:0 53:4.6799998 54:2.9200001 55:11.7 56:9.3599997 57:3.51 58:4.6799998 59:1.75 60:2.9200001 #
5.3205963149618469287815969437361 1:8 2:4 3:0 4:4 5:8 6:0 7:0 8:20 9:0 10:16 11:4 12:4 13:0 14:0 15:0 16:4 17:4 18:20 19:0 20:4 21:0 22:0 23:4 24:0 25:16 26:4 27:0 28:20 29:0 30:24 31:0 32:0 33:12 34:0 35:0 36:8 37:8 38:0 39:0 40:4 41:5.8400002 42:0.69 43:1.37 44:4.4699998 45:8.9300003 46:6.5300002 47:0 48:12.03 49:2.0599999 50:16.49 51:1.03 52:4.4699998 53:3.78 54:1.37 55:2.75 56:10.31 57:4.4699998 58:5.5 59:1.72 60:6.1900001 #
48.610787560637959359155502170324 1:8 2:0 3:0 4:0 5:4 6:8 7:0 8:8 9:16 10:4 11:8 12:0 13:12 14:12 15:0 16:4 17:0 18:12 19:0 20:4 21:0 22:0 23:0 24:12 25:4 26:8 27:8 28:0 29:8 30:20 31:0 32:0 33:4 34:4 35:4 36:4 37:4 38:8 39:0 40:12 41:4.5500002 42:0 43:4.5500002 44:4.5500002 45:0 46:4.5500002 47:9.0900002 48:9.0900002 49:13.64 50:13.64 51:0 52:4.5500002 53:4.5500002 54:0 55:0 56:9.0900002 57:4.5500002 58:4.5500002 59:9.0900002 60:0 #
-67.277373050547453203762415796518 1:8 2:0 3:0 4:4 5:8 6:4 7:0 8:4 9:16 10:12 11:4 12:0 13:0 14:16 15:8 16:8 17:0 18:4 19:4 20:0 21:4 22:0 23:4 24:4 25:4 26:16 27:0 28:4 29:4 30:16 31:4 32:0 33:12 34:0 35:4 36:4 37:4 38:8 39:4 40:4 41:0 42:0 43:0 44:0 45:20 46:20 47:0 48:20 49:0 50:20 51:0 52:0 53:20 54:0 55:0 56:0 57:0 58:0 59:0 60:0 #
-45.164059511132336410810239613056 1:0 2:4 3:4 4:0 5:4 6:0 7:4 8:16 9:4 10:4 11:4 12:8 13:4 14:8 15:12 16:12 17:4 18:0 19:0 20:8 21:0 22:0 23:8 24:0 25:0 26:12 27:4 28:0 29:20 30:20 31:4 32:4 33:0 34:4 35:0 36:0 37:8 38:12 39:0 40:4 41:3.6300001 42:0.91000003 43:3.8499999 44:8.1599998 45:4.54 46:3.8499999 47:3.4000001 48:7.2600002 49:7.2600002 50:11.56 51:2.72 52:5.6700001 53:4.7600002 54:3.6300001 55:3.8499999 56:7.71 57:5.4400001 58:4.54 59:0.44999999 60:6.8000002 #
-24.931634898209438233607215806842 1:4 2:0 3:4 4:0 5:4 6:0 7:0 8:8 9:12 10:8 11:4 12:0 13:8 14:12 15:12 16:4 17:0 18:20 19:0 20:0 21:4 22:0 23:4 24:12 25:0 26:4 27:0 28:8 29:24 30:12 31:0 32:4 33:4 34:0 35:0 36:8 37:4 38:12 39:0 40:0 41:8.0600004 42:1.42 43:6.6399999 44:8.5299997 45:1.9 46:5.6900001 47:0.47 48:10.43 49:10.43 50:9.4799995 51:2.3699999 52:6.1599998 53:4.7399998 54:2.8399999 55:2.8399999 56:5.21 57:5.21 58:6.6399999 59:0.47 60:0.47 #
50 1:16 2:4 3:0 4:4 5:0 6:8 7:0 8:0 9:0 10:16 11:4 12:4 13:12 14:0 15:20 16:0 17:0 18:4 19:8 20:0 21:4 22:0 23:0 24:4 25:4 26:16 27:0 28:4 29:12 30:8 31:4 32:8 33:8 34:4 35:4 36:12 37:4 38:4 39:0 40:0 41:7.8000002 42:1.02 43:6.0999999 44:8.1400003 45:4.75 46:7.1199999 47:2.03 48:4.75 49:4.0700002 50:9.8299999 51:2.3699999 52:4.75 53:5.0799999 54:3.3900001 55:6.7800002 56:5.7600002 57:5.4200001 58:5.0799999 59:1.36 60:4.4099998 #
50 1:4 2:4 3:0 4:0 5:0 6:20 7:0 8:4 9:0 10:32 11:4 12:4 13:0 14:0 15:4 16:8 17:8 18:4 19:0 20:4 21:8 22:0 23:8 24:0 25:4 26:0 27:0 28:4 29:20 30:8 31:0 32:8 33:12 34:4 35:8 36:8 37:0 38:8 39:0 40:0 41:6.8099999 42:1.79 43:5.3800001 44:6.8099999 45:6.4499998 46:4.3000002 47:2.51 48:5.73 49:7.5300002 50:6.0900002 51:0.72000003 52:6.0900002 53:9.3199997 54:4.3000002 55:5.02 56:5.73 57:4.6599998 58:5.73 59:0.72000003 60:4.3000002 #
-21.566756455697365879586868686602 1:16 2:4 3:0 4:0 5:4 6:12 7:0 8:0 9:0 10:16 11:4 12:0 13:0 14:0 15:16 16:12 17:4 18:8 19:4 20:0 21:4 22:0 23:4 24:4 25:4 26:4 27:4 28:4 29:4 30:12 31:0 32:0 33:8 34:4 35:16 36:8 37:12 38:0 39:0 40:8 41:7.1599998 42:1.6799999 43:5.2600002 44:7.3699999 45:3.5799999 46:7.5799999 47:2.95 48:4 49:4.21 50:10.95 51:3.79 52:3.3699999 53:5.2600002 54:2.3199999 55:6.1100001 56:6.5300002 57:6.3200002 58:8 59:0.41999999 60:3.1600001 #
28.554446262331250494526102556847 1:8 2:0 3:4 4:0 5:0 6:8 7:4 8:8 9:8 10:16 11:4 12:0 13:4 14:8 15:0 16:8 17:4 18:16 19:0 20:0 21:4 22:0 23:12 24:12 25:8 26:4 27:0 28:0 29:24 30:4 31:0 32:0 33:0 34:4 35:8 36:0 37:0 38:8 39:0 40:12 41:20 42:20 43:0 44:0 45:20 46:20 47:0 48:20 49:0 50:0 51:0 52:0 53:0 54:0 55:0 56:0 57:0 58:0 59:0 60:0 #
50 1:20 2:0 3:0 4:4 5:0 6:0 7:0 8:12 9:8 10:4 11:4 12:4 13:4 14:0 15:8 16:24 17:0 18:4 19:0 20:4 21:12 22:0 23:12 24:12 25:4 26:4 27:0 28:4 29:4 30:12 31:0 32:4 33:8 34:0 35:0 36:4 37:0 38:12 39:0 40:8 41:11.11 42:0.31 43:2.1600001 44:7.4099998 45:5.25 46:6.79 47:1.23 48:4.3200002 49:6.48 50:9.8800001 51:0 52:5.5599999 53:4.6300001 54:3.4000001 55:1.85 56:12.35 57:7.4099998 58:7.7199998 59:0 60:2.1600001 #
50 1:8 2:0 3:0 4:8 5:12 6:0 7:8 8:4 9:16 10:8 11:8 12:0 13:8 14:0 15:0 16:12 17:4 18:4 19:0 20:0 21:0 22:8 23:4 24:8 25:4 26:8 27:4 28:8 29:8 30:8 31:4 32:0 33:4 34:4 35:0 36:8 37:4 38:8 39:0 40:8 41:5.71 42:1.4299999 43:5.71 44:11.43 45:7.1399999 46:8.5699997 47:5.71 48:7.1399999 49:5.71 50:8.5699997 51:0 52:4.29 53:1.4299999 54:0 55:5.71 56:8.5699997 57:4.29 58:8.5699997 59:0 60:0 #
-38.755644146919522086136566940695 1:12 2:0 3:0 4:0 5:0 6:4 7:0 8:4 9:4 10:16 11:4 12:4 13:0 14:4 15:12 16:24 17:4 18:4 19:0 20:4 21:0 22:0 23:0 24:4 25:4 26:8 27:0 28:8 29:8 30:16 31:4 32:4 33:8 34:4 35:16 36:4 37:0 38:4 39:0 40:8 41:7.1300001 42:1.4299999 43:5.8600001 44:7.6100001 45:3.96 46:5.8600001 47:1.74 48:5.23 49:7.1300001 50:7.9200001 51:3.49 52:3.49 53:4.1199999 54:4.2800002 55:7.1300001 56:7.4499998 57:5.5500002 58:6.5 59:0.16 60:3.96 #
-5.0056420144948869932477464317344 1:8 2:8 3:4 4:8 5:0 6:4 7:0 8:0 9:12 10:8 11:4 12:4 13:24 14:4 15:0 16:8 17:0 18:4 19:0 20:0 21:8 22:8 23:0 24:20 25:4 26:12 27:12 28:8 29:12 30:8 31:4 32:0 33:0 34:0 35:4 36:0 37:0 38:0 39:0 40:0 41:15.38 42:15.38 43:7.6900001 44:7.6900001 45:0 46:0 47:0 48:15.38 49:15.38 50:0 51:0 52:0 53:7.6900001 54:0 55:7.6900001 56:0 57:7.6900001 58:0 59:0 60:0 #
50 1:8 2:4 3:0 4:4 5:0 6:20 7:4 8:4 9:0 10:12 11:4 12:0 13:0 14:0 15:20 16:8 17:0 18:8 19:0 20:4 21:0 22:8 23:8 24:0 25:8 26:16 27:4 28:0 29:0 30:8 31:0 32:4 33:0 34:4 35:12 36:8 37:8 38:4 39:4 40:4 41:7.77 42:1.61 43:6.4299998 44:6.1700001 45:4.5599999 46:4.29 47:2.6800001 48:6.4299998 49:6.1700001 50:5.6300001 51:3.49 52:4.29 53:7.77 54:2.6800001 55:5.6300001 56:5.6300001 57:5.6300001 58:6.6999998 59:2.6800001 60:3.75 #
50 1:8 2:0 3:0 4:0 5:0 6:8 7:0 8:0 9:4 10:24 11:4 12:0 13:12 14:0 15:16 16:8 17:8 18:8 19:0 20:0 21:4 22:4 23:0 24:8 25:8 26:4 27:4 28:4 29:0 30:16 31:0 32:0 33:8 34:0 35:8 36:8 37:12 38:4 39:4 40:4 41:5.2600002 42:0 43:0 44:10.53 45:0 46:15.79 47:5.2600002 48:10.53 49:5.2600002 50:21.049999 51:5.2600002 52:0 53:10.53 54:0 55:0 56:5.2600002 57:0 58:5.2600002 59:0 60:0 #
-87.105619516667843527102377265692 1:24 2:0 3:0 4:12 5:4 6:0 7:0 8:4 9:0 10:8 11:4 12:4 13:8 14:4 15:0 16:8 17:4 18:8 19:4 20:4 21:4 22:4 23:4 24:8 25:8 26:8 27:4 28:4 29:4 30:12 31:0 32:4 33:0 34:4 35:16 36:8 37:0 38:0 39:0 40:8 41:7.5100002 42:2.3499999 43:3.76 44:7.04 45:2.8199999 46:5.6300001 47:2.3499999 48:3.76 49:7.5100002 50:12.21 51:2.8199999 52:4.6900001 53:4.23 54:8.4499998 55:1.88 56:4.6900001 57:4.6900001 58:7.98 59:1.88 60:3.76 #
-50.876767321903798801940865814686 1:4 2:0 3:4 4:4 5:4 6:12 7:0 8:0 9:0 10:28 11:4 12:0 13:0 14:0 15:16 16:12 17:8 18:4 19:0 20:0 21:4 22:0 23:4 24:4 25:4 26:8 27:4 28:0 29:4 30:20 31:0 32:0 33:8 34:4 35:12 36:4 37:12 38:4 39:4 40:0 41:8.1000004 42:2.95 43:4.79 44:4.79 45:4.5999999 46:6.8099999 47:3.5 48:3.1300001 49:3.3099999 50:10.5 51:0.37 52:2.5799999 53:7 54:4.0500002 55:6.4499998 56:7.5500002 57:5.3400002 58:7.1799998 59:2.76 60:4.2399998 #
37.536323599372906301141483709216 1:12 2:0 3:0 4:4 5:20 6:4 7:4 8:0 9:4 10:0 11:4 12:8 13:4 14:0 15:8 16:12 17:8 18:4 19:4 20:0 21:16 22:0 23:0 24:0 25:0 26:8 27:4 28:8 29:8 30:0 31:4 32:8 33:8 34:4 35:0 36:8 37:16 38:8 39:0 40:0 41:9.3800001 42:1.04 43:2.0799999 44:2.0799999 45:6.25 46:7.29 47:2.0799999 48:8.3299999 49:7.29 50:11.46 51:0 52:6.25 53:4.1700001 54:2.0799999 55:5.21 56:5.21 57:6.25 58:6.25 59:4.1700001 60:3.1199999 #
50 1:16 2:0 3:4 4:0 5:0 6:4 7:0 8:8 9:12 10:12 11:4 12:4 13:0 14:0 15:4 16:20 17:4 18:4 19:4 20:0 21:0 22:0 23:8 24:8 25:4 26:12 27:0 28:0 29:16 30:4 31:8 32:8 33:4 34:0 35:4 36:0 37:0 38:16 39:4 40:4 41:5.6500001 42:0 43:8.0600004 44:8.8699999 45:3.23 46:0 47:1.61 48:5.6500001 49:12.1 50:9.6800003 51:0.81 52:3.23 53:3.23 54:7.2600002 55:4.0300002 56:10.48 57:7.2600002 58:6.4499998 59:0 60:2.4200001 #
39.231304077376393024678691290319 1:20 2:0 3:12 4:0 5:4 6:12 7:0 8:8 9:12 10:0 11:8 12:0 13:0 14:0 15:4 16:8 17:4 18:4 19:4 20:0 21:0 22:0 23:16 24:16 25:8 26:4 27:4 28:4 29:16 30:4 31:0 32:8 33:4 34:0 35:4 36:0 37:0 38:0 39:4 40:8 41:6.7800002 42:0 43:7.6300001 44:13.56 45:3.3900001 46:2.54 47:0 48:5.9299998 49:12.71 50:7.6300001 51:0.85000002 52:1.6900001 53:4.2399998 54:4.2399998 55:5.0799999 56:5.9299998 57:5.0799999 58:6.7800002 59:0.85000002 60:5.0799999 #
-18.714549856351403889220819110051 1:24 2:0 3:0 4:4 5:0 6:4 7:0 8:16 9:0 10:4 11:8 12:0 13:0 14:4 15:8 16:16 17:4 18:8 19:0 20:0 21:4 22:0 23:16 24:8 25:8 26:8 27:0 28:0 29:28 30:0 31:0 32:8 33:0 34:0 35:0 36:8 37:0 38:0 39:8 40:4 41:10.2 42:0 43:7 44:11.66 45:2.04 46:6.71 47:0.57999998 48:2.6199999 49:12.24 50:7.5799999 51:0.87 52:4.96 53:1.75 54:6.4099998 55:6.71 56:8.1599998 57:2.6199999 58:2.9200001 59:2.3299999 60:2.6199999 #
24.318125315162205879460088908672 1:4 2:0 3:4 4:4 5:4 6:4 7:0 8:12 9:4 10:12 11:4 12:4 13:0 14:0 15:4 16:16 17:8 18:4 19:8 20:4 21:0 22:0 23:0 24:8 25:16 26:8 27:0 28:4 29:4 30:8 31:0 32:4 33:0 34:8 35:8 36:28 37:0 38:0 39:0 40:4 41:7.3000002 42:0.38999999 43:2.3699999 44:1.1799999 45:8.4799995 46:9.4700003 47:2.76 48:8.8800001 49:1.1799999 50:13.41 51:3.3499999 52:3.1600001 53:5.52 54:2.1700001 55:2.3699999 56:9.0699997 57:4.9299998 58:7.0999999 59:2.5599999 60:4.3400002 #
-31.154382685164563326907227747142 1:12 2:0 3:4 4:4 5:8 6:4 7:4 8:0 9:12 10:12 11:12 12:0 13:8 14:4 15:8 16:0 17:4 18:4 19:0 20:0 21:8 22:0 23:12 24:4 25:8 26:0 27:0 28:12 29:8 30:8 31:0 32:0 33:4 34:0 35:4 36:12 37:0 38:12 39:0 40:8 41:0 42:0 43:0 44:0 45:25 46:25 47:0 48:0 49:0 50:0 51:0 52:0 53:0 54:0 55:0 56:25 57:0 58:0 59:25 60:0 #
-40.886817966364674248325172811747 1:16 2:0 3:0 4:8 5:0 6:8 7:0 8:0 9:4 10:8 11:4 12:4 13:24 14:0 15:4 16:4 17:0 18:16 19:0 20:0 21:16 22:4 23:8 24:0 25:12 26:0 27:0 28:8 29:8 30:8 31:4 32:0 33:4 34:0 35:0 36:8 37:8 38:12 39:0 40:0 41:6.8099999 42:1.5700001 43:6.8099999 44:7.8499999 45:2.6199999 46:6.8099999 47:2.6199999 48:5.7600002 49:9.4200001 50:10.99 51:3.6600001 52:2.6199999 53:6.2800002 54:2.6199999 55:6.2800002 56:6.2800002 57:5.2399998 58:3.6600001 59:0 60:2.0899999 #
-65.516853255949115464318310841918 1:8 2:0 3:0 4:0 5:16 6:4 7:4 8:4 9:0 10:16 11:8 12:24 13:0 14:0 15:12 16:0 17:0 18:4 19:0 20:0 21:4 22:0 23:4 24:0 25:4 26:0 27:0 28:4 29:12 30:12 31:8 32:0 33:8 34:8 35:4 36:8 37:8 38:8 39:4 40:4 41:7.5700002 42:0.99000001 43:5.2600002 44:6.5799999 45:3.29 46:6.9099998 47:2.6300001 48:4.6100001 49:7.5700002 50:13.82 51:2.6300001 52:3.29 53:3.95 54:4.9299998 55:3.6199999 56:6.5799999 57:7.2399998 58:3.95 59:1.3200001 60:3.29 #
50 1:28 2:0 3:4 4:0 5:0 6:8 7:0 8:0 9:0 10:0 11:4 12:8 13:12 14:4 15:0 16:24 17:4 18:4 19:0 20:0 21:12 22:0 23:12 24:0 25:8 26:0 27:0 28:0 29:4 30:0 31:4 32:0 33:4 34:0 35:12 36:12 37:4 38:12 39:16 40:0 41:6.3099999 42:2.7 43:6.7600002 44:7.21 45:2.25 46:5.4099998 47:3.1500001 48:4.9499998 49:6.7600002 50:4.5 51:2.7 52:4.0500002 53:8.1099997 54:4.0500002 55:6.7600002 56:7.6599998 57:4.5 58:4.0500002 59:3.5999999 60:4.5 #
-11.091291841471729640034027397633 1:12 2:0 3:0 4:0 5:0 6:0 7:0 8:0 9:0 10:16 11:4 12:0 13:0 14:4 15:20 16:20 17:16 18:8 19:0 20:0 21:4 22:0 23:4 24:4 25:0 26:0 27:8 28:4 29:4 30:4 31:8 32:4 33:12 34:12 35:4 36:4 37:4 38:12 39:4 40:4 41:8.2399998 42:1.45 43:5.4899998 44:6.6199999 45:3.55 46:6.9499998 47:2.4200001 48:5.8200002 49:5.6500001 50:9.6899996 51:1.45 52:4.3600001 53:5.8200002 54:3.55 55:6.3000002 56:5.6500001 57:6.46 58:6.79 59:0.64999998 60:3.0699999 #
-32.74718362467251608904916793108 1:8 2:4 3:4 4:0 5:4 6:12 7:0 8:0 9:0 10:16 11:4 12:0 13:8 14:0 15:20 16:8 17:0 18:4 19:4 20:4 21:12 22:0 23:8 24:8 25:8 26:0 27:0 28:4 29:8 30:16 31:0 32:8 33:4 34:0 35:8 36:4 37:4 38:8 39:0 40:0 41:8.8699999 42:0.67000002 43:5.7600002 44:6.21 45:2.22 46:7.54 47:1.11 48:7.54 49:7.7600002 50:8.1999998 51:1.11 52:2.4400001 53:8.8699999 54:3.55 55:4.4299998 56:7.54 57:6.21 58:7.7600002 59:1.55 60:0.67000002 #
-8.1918148185175105879807233577594 1:4 2:4 3:0 4:0 5:8 6:0 7:8 8:4 9:4 10:8 11:4 12:0 13:4 14:0 15:16 16:8 17:4 18:20 19:0 20:4 21:0 22:8 23:8 24:12 25:0 26:8 27:0 28:16 29:16 30:16 31:4 32:4 33:0 34:0 35:0 36:4 37:0 38:4 39:0 40:0 41:3.7 42:1.09 43:5.8800001 44:4.79 45:3.9200001 46:4.1300001 47:2.1800001 48:7.73 49:7.8299999 50:10.99 51:2.29 52:5.4400001 53:5.5500002 54:5.0100002 55:4.6799998 56:8.0500002 57:6.6399999 58:5.5500002 59:1.09 60:3.48 #
50 1:8 2:12 3:4 4:4 5:4 6:4 7:0 8:4 9:4 10:4 11:12 12:0 13:4 14:16 15:4 16:8 17:4 18:4 19:0 20:0 21:8 22:0 23:0 24:12 25:4 26:0 27:0 28:0 29:16 30:24 31:0 32:4 33:4 34:8 35:4 36:4 37:4 38:8 39:0 40:0 41:4.2399998 42:4.8499999 43:8.4799995 44:5.4499998 45:1.8200001 46:6.6700001 47:3.6400001 48:7.8800001 49:6.6700001 50:13.33 51:2.4200001 52:3.6400001 53:3.03 54:3.03 55:6.6700001 56:4.8499999 57:2.4200001 58:3.6400001 59:3.03 60:4.2399998 #
20.308533523623466976459894794971 1:8 2:4 3:4 4:0 5:4 6:16 7:0 8:4 9:8 10:16 11:4 12:4 13:12 14:4 15:0 16:4 17:0 18:8 19:0 20:0 21:20 22:4 23:0 24:4 25:16 26:4 27:0 28:0 29:4 30:12 31:4 32:12 33:8 34:0 35:0 36:0 37:4 38:4 39:4 40:0 41:6.3699999 42:1.59 43:3.1900001 44:3.98 45:6.77 46:11.16 47:0.80000001 48:5.98 49:5.98 50:9.1599998 51:3.5899999 52:1.59 53:7.5700002 54:3.98 55:5.5799999 56:4.7800002 57:6.77 58:6.3699999 59:0.80000001 60:3.98 #
50 1:12 2:0 3:4 4:4 5:0 6:12 7:4 8:8 9:8 10:12 11:8 12:0 13:4 14:4 15:4 16:12 17:4 18:0 19:0 20:0 21:8 22:0 23:4 24:0 25:12 26:4 27:0 28:4 29:8 30:20 31:0 32:4 33:8 34:4 35:4 36:12 37:4 38:4 39:0 40:0 41:7.1999998 42:0.40000001 43:3.5999999 44:4 45:7.5999999 46:9.6000004 47:1.6 48:6.4000001 49:8.3999996 50:10.8 51:0.80000001 52:6 53:4 54:2.8 55:5.5999999 56:6.8000002 57:5.1999998 58:4.8000002 59:1.2 60:3.2 #
12.471498596188780538795981556177 1:0 2:0 3:0 4:4 5:8 6:0 7:0 8:4 9:4 10:16 11:4 12:4 13:12 14:0 15:4 16:36 17:0 18:0 19:0 20:4 21:28 22:0 23:0 24:4 25:4 26:12 27:0 28:4 29:8 30:4 31:0 32:0 33:12 34:0 35:0 36:0 37:12 38:12 39:0 40:0 41:9.54 42:2.1500001 43:2.77 44:3.6900001 45:6.46 46:11.08 47:0.62 48:6.1500001 49:7.3800001 50:8 51:3.0799999 52:2.77 53:6.1500001 54:2.77 55:2.46 56:8 57:5.23 58:5.54 59:0.92000002 60:5.23 #
-20.565908028041803845553658902645 1:8 2:0 3:12 4:8 5:4 6:4 7:0 8:4 9:12 10:4 11:4 12:4 13:8 14:4 15:0 16:4 17:8 18:8 19:0 20:4 21:8 22:0 23:8 24:4 25:16 26:8 27:4 28:0 29:12 30:12 31:0 32:4 33:0 34:0 35:4 36:4 37:0 38:12 39:0 40:4 41:7.6900001 42:0.38 43:5.77 44:5.3800001 45:4.23 46:7.6900001 47:1.92 48:5 49:5 50:10.77 51:1.54 52:5.77 53:4.23 54:3.8499999 55:4.23 56:7.6900001 57:6.1500001 58:6.54 59:0.38 60:5.77 #
-65.706521747775468611507676541805 1:12 2:4 3:0 4:4 5:0 6:0 7:0 8:8 9:20 10:16 11:4 12:4 13:4 14:0 15:8 16:8 17:4 18:0 19:0 20:4 21:4 22:0 23:8 24:16 25:4 26:8 27:0 28:0 29:0 30:8 31:0 32:8 33:8 34:0 35:0 36:0 37:12 38:16 39:0 40:8 41:7.5799999 42:1.29 43:6.2800002 44:6.2800002 45:2.5899999 46:6.6500001 47:1.66 48:5.9099998 49:9.2399998 50:9.8000002 51:1.66 52:4.4400001 53:5.73 54:3.51 55:4.4400001 56:6.2800002 57:4.8099999 58:7.7600002 59:1.11 60:2.96 #
50 1:8 2:0 3:4 4:4 5:4 6:4 7:4 8:4 9:8 10:8 11:4 12:4 13:4 14:8 15:8 16:4 17:8 18:8 19:0 20:4 21:20 22:0 23:0 24:0 25:4 26:4 27:0 28:0 29:12 30:8 31:0 32:0 33:12 34:8 35:0 36:8 37:4 38:16 39:0 40:4 41:9.2399998 42:1.11 43:4.46 44:5.5700002 45:6.3699999 46:8.6000004 47:1.91 48:6.0500002 49:4.6199999 50:10.35 51:1.4299999 52:3.8199999 53:4.7800002 54:4.3000002 55:5.4099998 56:5.73 57:5.0999999 58:6.8499999 59:0.63999999 60:3.6600001 #
50 1:8 2:4 3:0 4:0 5:4 6:0 7:0 8:4 9:4 10:24 11:4 12:4 13:4 14:0 15:24 16:12 17:0 18:4 19:0 20:0 21:0 22:0 23:4 24:8 25:8 26:12 27:0 28:8 29:8 30:4 31:0 32:0 33:0 34:16 35:20 36:4 37:0 38:0 39:4 40:4 41:10.12 42:0.31 43:5.52 44:7.6700001 45:3.99 46:4.5999999 47:1.23 48:3.99 49:7.98 50:9.5100002 51:1.23 52:3.0699999 53:7.3600001 54:2.45 55:4.9099998 56:7.0599999 57:6.75 58:5.8299999 59:0.92000002 60:5.52 #
50 1:8 2:4 3:0 4:0 5:4 6:4 7:0 8:0 9:4 10:12 11:4 12:4 13:0 14:4 15:20 16:20 17:4 18:4 19:0 20:4 21:8 22:0 23:8 24:0 25:4 26:4 27:0 28:0 29:4 30:12 31:4 32:0 33:4 34:0 35:8 36:24 37:4 38:8 39:0 40:8 41:10.79 42:0.66000003 43:3.74 44:7.4899998 45:3.0799999 46:6.8299999 47:1.98 48:4.4099998 49:4.6300001 50:9.4700003 51:3.0799999 52:3.96 53:5.5100002 54:3.3 55:3.3 56:9.25 57:5.73 58:8.1499996 59:0.66000003 60:3.96 #
14.533300916813857384113362058997 1:8 2:0 3:8 4:8 5:0 6:8 7:0 8:0 9:0 10:8 11:4 12:0 13:8 14:4 15:16 16:4 17:4 18:4 19:4 20:12 21:0 22:0 23:12 24:0 25:4 26:4 27:0 28:0 29:8 30:16 31:0 32:0 33:8 34:0 35:8 36:24 37:4 38:8 39:0 40:4 41:15.52 42:0.86000001 43:2.5899999 44:3.45 45:2.5899999 46:6.9000001 47:0.86000001 48:6.9000001 49:3.45 50:8.6199999 51:0 52:1.72 53:6.0300002 54:0.86000001 55:5.1700001 56:6.9000001 57:7.7600002 58:13.79 59:3.45 60:2.5899999 #
-46.86353465654957517472212202847 1:4 2:0 3:0 4:0 5:12 6:0 7:0 8:0 9:4 10:20 11:4 12:4 13:8 14:8 15:16 16:4 17:16 18:0 19:0 20:0 21:0 22:8 23:4 24:4 25:8 26:16 27:0 28:12 29:8 30:4 31:0 32:8 33:0 34:0 35:0 36:28 37:0 38:0 39:0 40:0 41:2.96 42:1.48 43:9.6300001 44:6.6700001 45:3.7 46:3.7 47:1.48 48:9.6300001 49:8.8900003 50:11.11 51:0 52:8.1499996 53:4.4400001 54:0.74000001 55:4.4400001 56:8.8900003 57:6.6700001 58:3.7 59:0 60:3.7 #
50 1:12 2:0 3:0 4:12 5:0 6:8 7:0 8:4 9:4 10:12 11:8 12:0 13:4 14:4 15:0 16:0 17:4 18:20 19:4 20:4 21:8 22:4 23:8 24:8 25:12 26:0 27:8 28:0 29:8 30:16 31:0 32:0 33:4 34:4 35:4 36:0 37:8 38:4 39:0 40:4 41:5.1500001 42:1.03 43:20.620001 44:31.959999 45:1.03 46:4.1199999 47:5.1500001 48:1.03 49:6.1900001 50:4.1199999 51:0 52:3.0899999 53:1.03 54:6.1900001 55:2.0599999 56:0 57:2.0599999 58:3.0899999 59:0 60:2.0599999 #
-44.800316595241397976678854320198 1:12 2:0 3:0 4:4 5:0 6:4 7:4 8:0 9:8 10:12 11:4 12:0 13:0 14:4 15:8 16:8 17:4 18:20 19:4 20:4 21:8 22:0 23:4 24:8 25:8 26:16 27:4 28:0 29:8 30:0 31:0 32:0 33:8 34:4 35:4 36:8 37:4 38:4 39:12 40:0 41:7.6900001 42:1.62 43:5.6700001 44:7.6900001 45:5.2600002 46:8.5 47:2.4300001 48:2.8299999 49:4.8600001 50:8.9099998 51:2.02 52:2.8299999 53:6.48 54:1.62 55:6.8800001 56:6.8800001 57:4.4499998 58:7.6900001 59:1.62 60:4.0500002 #
30.480922662192071470599330496043 1:4 2:0 3:0 4:12 5:4 6:8 7:0 8:4 9:8 10:8 11:4 12:4 13:12 14:8 15:0 16:4 17:8 18:4 19:0 20:8 21:16 22:0 23:12 24:8 25:8 26:4 27:0 28:4 29:8 30:4 31:4 32:4 33:8 34:4 35:4 36:8 37:0 38:0 39:0 40:4 41:12.1 42:1.27 43:2.55 44:3.1800001 45:5.73 46:15.29 47:0.63999999 48:5.0999999 49:4.46 50:5.73 51:5.73 52:3.8199999 53:3.8199999 54:4.46 55:2.55 56:6.3699999 57:7.6399999 58:5.73 59:0 60:3.8199999 #
33.881380968002574149977590423077 1:4 2:4 3:0 4:4 5:0 6:12 7:4 8:0 9:0 10:20 11:12 12:0 13:0 14:4 15:20 16:8 17:0 18:8 19:0 20:0 21:0 22:0 23:8 24:0 25:0 26:4 27:4 28:4 29:16 30:4 31:0 32:8 33:20 34:0 35:0 36:20 37:4 38:0 39:4 40:4 41:9.6099997 42:1.5599999 43:2.0799999 44:5.1900001 45:4.6799998 46:5.1900001 47:2.3399999 48:5.4499998 49:3.3800001 50:12.47 51:2.8599999 52:2.0799999 53:8.3100004 54:5.4499998 55:5.71 56:6.23 57:5.9699998 58:7.0100002 59:2.3399999 60:2.0799999 #
50 1:12 2:0 3:0 4:0 5:0 6:8 7:0 8:0 9:12 10:16 11:8 12:0 13:8 14:0 15:8 16:4 17:8 18:16 19:0 20:0 21:12 22:0 23:4 24:8 25:0 26:4 27:4 28:12 29:8 30:12 31:0 32:4 33:4 34:4 35:0 36:4 37:12 38:4 39:4 40:0 41:5.4400001 42:0 43:5.4400001 44:7.48 45:5.4400001 46:5.4400001 47:1.36 48:10.2 49:6.1199999 50:8.8400002 51:0 52:6.8000002 53:4.0799999 54:0 55:8.1599998 56:8.8400002 57:6.8000002 58:5.4400001 59:0.68000001 60:3.4000001 #
-23.836089135114093551237601786852 1:12 2:4 3:0 4:4 5:8 6:12 7:0 8:0 9:20 10:4 11:4 12:0 13:4 14:4 15:4 16:8 17:12 18:0 19:0 20:0 21:16 22:0 23:8 24:4 25:4 26:4 27:0 28:4 29:24 30:8 31:8 32:4 33:0 34:0 35:4 36:0 37:8 38:0 39:0 40:4 41:1.59 42:1.59 43:4.7600002 44:6.3499999 45:1.59 46:12.7 47:4.7600002 48:6.3499999 49:9.5200005 50:3.1700001 51:1.59 52:9.5200005 53:6.3499999 54:3.1700001 55:1.59 56:6.3499999 57:6.3499999 58:4.7600002 59:1.59 60:6.3499999 #
-18.610074923241828770414940663613 1:8 2:0 3:4 4:0 5:12 6:0 7:0 8:4 9:4 10:4 11:8 12:0 13:12 14:4 15:4 16:12 17:8 18:12 19:0 20:4 21:4 22:4 23:4 24:12 25:12 26:0 27:0 28:0 29:12 30:12 31:0 32:8 33:0 34:12 35:0 36:0 37:8 38:12 39:0 40:0 41:5.02 42:2.51 43:4.3000002 44:6.4499998 45:2.8699999 46:4.3000002 47:2.8699999 48:6.0900002 49:6.4499998 50:13.26 51:2.1500001 52:4.6599998 53:2.8699999 54:6.0900002 55:3.9400001 56:8.2399998 57:6.4499998 58:6.8099999 59:0.72000003 60:3.9400001 #
50 1:8 2:0 3:4 4:4 5:0 6:8 7:0 8:0 9:4 10:16 11:8 12:8 13:0 14:0 15:8 16:20 17:8 18:4 19:0 20:0 21:4 22:4 23:0 24:4 25:4 26:4 27:4 28:16 29:12 30:4 31:4 32:4 33:4 34:4 35:4 36:16 37:0 38:4 39:0 40:4 41:8.2299995 42:2.53 43:3.1600001 44:4.4299998 45:5.0599999 46:5.6999998 47:0.94999999 48:6.96 49:6.0100002 50:8.8599997 51:4.1100001 52:5.0599999 53:4.1100001 54:2.8499999 55:5.0599999 56:9.8100004 57:6.96 58:5.0599999 59:2.8499999 60:2.22 #
31.439288873661837442341493442655 1:4 2:0 3:12 4:4 5:8 6:28 7:4 8:0 9:0 10:4 11:4 12:0 13:8 14:4 15:16 16:0 17:0 18:0 19:0 20:4 21:8 22:0 23:0 24:0 25:0 26:0 27:4 28:20 29:4 30:16 31:0 32:8 33:0 34:12 35:0 36:4 37:12 38:4 39:0 40:8 41:4.3499999 42:1.36 43:2.1700001 44:5.71 45:4.8899999 46:9.5100002 47:3.8 48:7.8800001 49:3.26 50:10.33 51:1.63 52:3.26 53:6.52 54:4.0799999 55:4.0799999 56:8.1499996 57:7.0700002 58:7.0700002 59:1.09 60:3.8 #
-100 1:4 2:0 3:4 4:4 5:4 6:0 7:0 8:0 9:4 10:20 11:4 12:8 13:8 14:4 15:16 16:12 17:8 18:0 19:0 20:0 21:4 22:0 23:8 24:0 25:4 26:4 27:8 28:16 29:0 30:4 31:8 32:0 33:4 34:4 35:8 36:4 37:4 38:0 39:8 40:12 41:7.8200002 42:2.04 43:4.4200001 44:6.8000002 45:4.0799999 46:8.5 47:1.7 48:3.4000001 49:6.1199999 50:7.48 51:3.4000001 52:2.72 53:4.0799999 54:1.02 55:6.1199999 56:8.5 57:6.8000002 58:10.2 59:1.02 60:3.74 #
-75.156041001251324473741988185793 1:8 2:8 3:0 4:0 5:0 6:24 7:0 8:0 9:0 10:16 11:4 12:0 13:8 14:4 15:12 16:8 17:0 18:4 19:4 20:0 21:4 22:0 23:4 24:16 25:0 26:0 27:8 28:4 29:4 30:8 31:4 32:4 33:8 34:0 35:12 36:12 37:0 38:8 39:4 40:0 41:7.9200001 42:2.97 43:4.9499998 44:6.6799998 45:4.9499998 46:11.39 47:2.97 48:2.72 49:5.1999998 50:8.1700001 51:1.73 52:1.73 53:5.4499998 54:4.21 55:7.4299998 56:6.4400001 57:4.6999998 58:5.9400001 59:2.23 60:2.23 #
-100 1:4 2:4 3:0 4:4 5:4 6:8 7:0 8:0 9:0 10:28 11:4 12:4 13:0 14:0 15:20 16:12 17:4 18:4 19:0 20:0 21:12 22:0 23:4 24:8 25:0 26:8 27:4 28:20 29:8 30:4 31:0 32:8 33:0 34:4 35:0 36:4 37:8 38:0 39:0 40:8 41:8.8999996 42:1.3099999 43:3.6600001 44:7.3299999 45:4.4499998 46:8.8999996 47:2.0899999 48:6.8099999 49:7.0700002 50:8.8999996 51:2.6199999 52:3.4000001 53:3.6600001 54:4.9699998 55:2.6199999 56:6.8099999 57:6.2800002 58:5.5 59:0.79000002 60:3.9300001 #
-18.80396052044108756717832875438 1:4 2:0 3:0 4:0 5:12 6:4 7:0 8:4 9:4 10:8 11:4 12:8 13:4 14:4 15:20 16:8 17:12 18:4 19:0 20:0 21:12 22:0 23:4 24:8 25:4 26:8 27:0 28:4 29:4 30:8 31:0 32:4 33:4 34:0 35:8 36:8 37:20 38:4 39:0 40:0 41:7.8400002 42:0.94 43:4.3899999 44:5.3299999 45:2.8199999 46:7.8400002 47:2.1900001 48:8.46 49:5.6399999 50:9.3999996 51:0.94 52:5.6399999 53:5.6399999 54:1.88 55:3.45 56:9.0900002 57:6.9000001 58:8.46 59:0.31 60:2.8199999 #
50 1:4 2:4 3:0 4:0 5:0 6:8 7:0 8:4 9:4 10:28 11:8 12:8 13:8 14:0 15:20 16:4 17:0 18:0 19:0 20:0 21:12 22:0 23:4 24:12 25:0 26:0 27:4 28:12 29:16 30:8 31:0 32:4 33:12 34:4 35:0 36:4 37:4 38:4 39:0 40:0 41:5.9499998 42:1.38 43:5.5300002 44:4.1500001 45:4.98 46:6.2199998 47:1.52 48:7.6100001 49:6.5 50:11.07 51:1.52 52:4.29 53:4.1500001 54:4.0100002 55:4.6999998 56:10.79 57:6.9200001 58:6.0900002 59:0.14 60:2.49 #
50 1:0 2:0 3:4 4:0 5:16 6:4 7:4 8:0 9:12 10:12 11:8 12:0 13:8 14:4 15:8 16:4 17:12 18:0 19:0 20:4 21:20 22:4 23:0 24:12 25:4 26:4 27:0 28:4 29:16 30:8 31:0 32:0 33:4 34:0 35:8 36:4 37:4 38:0 39:8 40:0 41:6.1100001 42:0.87 43:5.6799998 44:5.2399998 45:6.1100001 46:4.8000002 47:0.87 48:3.9300001 49:8.7299995 50:8.7299995 51:2.1800001 52:4.8000002 53:3.49 54:6.1100001 55:4.8000002 56:9.1700001 57:5.2399998 58:7.8600001 59:1.75 60:3.49 #
48.083010335963592751795658841729 1:8 2:12 3:0 4:4 5:0 6:0 7:0 8:0 9:0 10:28 11:8 12:0 13:12 14:0 15:20 16:4 17:4 18:0 19:0 20:0 21:0 22:0 23:8 24:4 25:0 26:12 27:0 28:4 29:4 30:20 31:4 32:8 33:0 34:0 35:16 36:16 37:4 38:0 39:0 40:0 41:6.1100001 42:1.02 43:4.8299999 44:7.8899999 45:4.3299999 46:5.0900002 47:1.78 48:6.1100001 49:3.8199999 50:16.540001 51:3.3099999 52:3.5599999 53:3.8199999 54:4.3299999 55:6.8699999 56:7.8899999 57:4.3299999 58:5.3400002 59:1.27 60:1.78 #
-66.310837576338769849826348945498 1:4 2:0 3:12 4:8 5:0 6:8 7:0 8:12 9:12 10:4 11:8 12:4 13:8 14:4 15:4 16:4 17:4 18:0 19:0 20:4 21:0 22:4 23:12 24:8 25:8 26:4 27:0 28:0 29:24 30:4 31:0 32:8 33:4 34:0 35:8 36:0 37:0 38:4 39:12 40:0 41:6.4699998 42:3.5999999 43:4.3200002 44:7.1900001 45:2.8800001 46:7.9099998 47:2.1600001 48:2.8800001 49:7.1900001 50:8.6300001 51:2.1600001 52:5.7600002 53:5.7600002 54:5.04 55:5.04 56:8.6300001 57:5.04 58:3.5999999 59:2.1600001 60:3.5999999 #
-70.625966350773694557574344798923 1:16 2:4 3:0 4:8 5:8 6:16 7:0 8:8 9:8 10:0 11:4 12:0 13:0 14:0 15:0 16:8 17:0 18:16 19:4 20:0 21:8 22:0 23:4 24:12 25:4 26:4 27:0 28:0 29:24 30:0 31:0 32:4 33:0 34:8 35:4 36:12 37:0 38:4 39:0 40:12 41:6.4699998 42:1.62 43:7.8200002 44:5.1199999 45:3.77 46:7.5500002 47:4.3099999 48:7.5500002 49:4.3099999 50:8.3599997 51:2.4300001 52:1.89 53:4.8499999 54:2.4300001 55:7.8200002 56:7.5500002 57:4.5799999 58:8.0900002 59:0.81 60:2.7 #
32.469088424041842699807602912188 1:16 2:0 3:0 4:4 5:4 6:0 7:0 8:0 9:0 10:12 11:8 12:0 13:16 14:4 15:8 16:12 17:4 18:4 19:4 20:4 21:20 22:0 23:8 24:0 25:4 26:4 27:0 28:8 29:4 30:12 31:0 32:8 33:0 34:0 35:0 36:12 37:4 38:4 39:4 40:8 41:9.6800003 42:1.9400001 43:4.52 44:1.29 45:2.9000001 46:6.4499998 47:0.31999999 48:5.8099999 49:5.8099999 50:12.26 51:2.5799999 52:3.23 53:4.8400002 54:3.23 55:4.52 56:9.3500004 57:5.48 58:7.4200001 59:2.5799999 60:5.8099999 #
50 1:12 2:8 3:0 4:0 5:0 6:4 7:12 8:4 9:0 10:24 11:4 12:0 13:4 14:4 15:16 16:4 17:0 18:4 19:0 20:0 21:12 22:0 23:0 24:0 25:0 26:8 27:4 28:4 29:0 30:20 31:4 32:0 33:0 34:8 35:0 36:16 37:4 38:20 39:0 40:0 41:7.5599999 42:1.6799999 43:0.83999997 44:4.1999998 45:5.04 46:9.2399998 47:5.04 48:5.04 49:4.1999998 50:15.13 51:4.1999998 52:3.3599999 53:5.8800001 54:0 55:3.3599999 56:9.2399998 57:6.7199998 58:4.1999998 59:3.3599999 60:1.6799999 #
36.545492158468292132056376431137 1:16 2:0 3:0 4:0 5:0 6:8 7:0 8:0 9:0 10:16 11:4 12:0 13:12 14:0 15:20 16:16 17:0 18:8 19:0 20:0 21:0 22:0 23:8 24:8 25:4 26:12 27:12 28:0 29:0 30:8 31:0 32:12 33:16 34:0 35:0 36:0 37:8 38:4 39:4 40:4 41:8.1999998 42:0 43:0 44:8.1999998 45:6.5599999 46:8.1999998 47:6.5599999 48:1.64 49:4.9200001 50:8.1999998 51:4.9200001 52:1.64 53:8.1999998 54:0 55:8.1999998 56:8.1999998 57:3.28 58:8.1999998 59:1.64 60:3.28 #
-6.1250058208424889016896486282349 1:4 2:0 3:4 4:0 5:0 6:8 7:12 8:4 9:4 10:20 11:4 12:0 13:4 14:4 15:8 16:8 17:0 18:4 19:4 20:8 21:8 22:8 23:8 24:0 25:0 26:8 27:0 28:0 29:0 30:24 31:0 32:4 33:0 34:8 35:12 36:0 37:8 38:4 39:0 40:8 41:4.5799999 42:2.4300001 43:4.8499999 44:7.0100002 45:4.8499999 46:4.5799999 47:4.8499999 48:4.8499999 49:5.6599998 50:10.24 51:0.81 52:4.5799999 53:4.5799999 54:4.5799999 55:5.6599998 56:4.04 57:7.2800002 58:6.4699998 59:2.96 60:5.1199999 #
-51.677742597429634940908727003261 1:4 2:0 3:4 4:8 5:8 6:8 7:0 8:0 9:0 10:16 11:4 12:0 13:12 14:0 15:4 16:8 17:0 18:12 19:4 20:8 21:8 22:0 23:0 24:8 25:0 26:8 27:0 28:0 29:4 30:24 31:8 32:4 33:12 34:0 35:8 36:0 37:4 38:4 39:4 40:4 41:8.5200005 42:1.14 43:3.4100001 44:6.25 45:3.4100001 46:6.25 47:2.8399999 48:4.5500002 49:9.0900002 50:11.36 51:5.1100001 52:2.8399999 53:5.1100001 54:5.1100001 55:3.98 56:5.6799998 57:5.6799998 58:5.6799998 59:1.7 60:2.27 #
50 1:16 2:0 3:0 4:0 5:4 6:20 7:0 8:4 9:8 10:16 11:4 12:0 13:0 14:4 15:0 16:4 17:8 18:12 19:0 20:0 21:4 22:4 23:8 24:8 25:0 26:8 27:0 28:8 29:4 30:12 31:4 32:4 33:8 34:0 35:12 36:4 37:4 38:8 39:0 40:0 41:7.98 42:1.1799999 43:5.9099998 44:7.0900002 45:2.8099999 46:6.5 47:2.22 48:4.8699999 49:5.6100001 50:9.6000004 51:2.8099999 52:3.25 53:4.4299998 54:3.25 55:6.0599999 56:6.6500001 57:5.9099998 58:8.4200001 59:1.33 60:4.1399999 #
32.035936824062765992948698112741 1:12 2:0 3:0 4:0 5:0 6:0 7:0 8:4 9:0 10:16 11:4 12:12 13:4 14:0 15:16 16:16 17:4 18:12 19:0 20:0 21:8 22:0 23:4 24:24 25:4 26:0 27:0 28:4 29:32 30:8 31:0 32:0 33:0 34:8 35:0 36:4 37:0 38:4 39:0 40:0 41:3.99 42:0.23 43:7.04 44:8.4499998 45:4.9299998 46:5.6300001 47:1.88 48:4.9299998 49:10.09 50:9.6199999 51:3.05 52:3.99 53:5.8699999 54:4.23 55:3.99 56:7.5100002 57:4.9299998 58:3.29 59:1.41 60:4.9299998 #
50 1:4 2:0 3:0 4:0 5:4 6:12 7:0 8:4 9:8 10:12 11:4 12:0 13:4 14:0 15:4 16:16 17:4 18:16 19:4 20:4 21:0 22:0 23:8 24:8 25:0 26:8 27:0 28:16 29:8 30:0 31:0 32:12 33:0 34:4 35:4 36:12 37:0 38:4 39:12 40:4 41:3.5699999 42:0 43:12.5 44:3.5699999 45:1.79 46:5.3600001 47:3.5699999 48:0 49:5.3600001 50:7.1399999 51:1.79 52:5.3600001 53:1.79 54:5.3600001 55:8.9300003 56:3.5699999 57:8.9300003 58:10.71 59:3.5699999 60:7.1399999 #
50 1:8 2:0 3:0 4:4 5:4 6:16 7:0 8:12 9:4 10:12 11:4 12:0 13:4 14:0 15:8 16:4 17:0 18:8 19:8 20:4 21:0 22:0 23:4 24:16 25:4 26:0 27:0 28:4 29:16 30:4 31:0 32:0 33:0 34:8 35:8 36:8 37:8 38:8 39:12 40:0 41:4.1199999 42:0 43:5.1500001 44:11.34 45:2.0599999 46:2.0599999 47:1.03 48:4.1199999 49:8.25 50:10.31 51:1.03 52:3.0899999 53:5.1500001 54:12.37 55:8.25 56:8.25 57:5.1500001 58:4.1199999 59:2.0599999 60:2.0599999 #
-100 1:16 2:4 3:4 4:4 5:4 6:0 7:0 8:8 9:0 10:12 11:4 12:4 13:4 14:4 15:16 16:4 17:8 18:4 19:0 20:0 21:0 22:0 23:0 24:8 25:0 26:0 27:0 28:12 29:16 30:4 31:0 32:8 33:12 34:0 35:0 36:20 37:0 38:12 39:0 40:8 41:5.0999999 42:1.15 43:6.25 44:7.0700002 45:6.25 46:5.2600002 47:1.97 48:6.25 49:9.3800001 50:9.54 51:2.3 52:5.5900002 53:4.9299998 54:3.6199999 55:4.9299998 56:6.4099998 57:4.6100001 58:5.2600002 59:0.81999999 60:3.29 #
-100 1:12 2:4 3:0 4:0 5:8 6:4 7:4 8:4 9:8 10:12 11:8 12:0 13:0 14:4 15:16 16:4 17:4 18:8 19:0 20:0 21:0 22:0 23:0 24:12 25:0 26:4 27:0 28:12 29:24 30:8 31:0 32:4 33:4 34:4 35:8 36:4 37:12 38:0 39:4 40:0 41:5.7800002 42:1.6799999 43:5.2199998 44:5.4099998 45:4.8499999 46:6.7199998 47:2.6099999 48:5.4099998 49:7.2800002 50:7.2800002 51:1.87 52:5.2199998 53:5.9699998 54:2.99 55:4.0999999 56:8.21 57:6.5300002 58:7.0900002 59:2.6099999 60:3.1700001 #
41.487270266082134639873402193189 1:12 2:0 3:0 4:4 5:0 6:8 7:0 8:8 9:16 10:4 11:4 12:4 13:16 14:0 15:4 16:12 17:4 18:0 19:0 20:4 21:0 22:4 23:8 24:16 25:4 26:0 27:4 28:8 29:12 30:0 31:4 32:0 33:16 34:0 35:4 36:4 37:4 38:8 39:0 40:4 41:4.9099998 42:0.69999999 43:6.3099999 44:8.8800001 45:3.27 46:5.1399999 47:0.93000001 48:8.8800001 49:8.1800003 50:7.9400001 51:0.93000001 52:4.4400001 53:7.0100002 54:4.4400001 55:4.9099998 56:7.0100002 57:4.9099998 58:6.54 59:1.64 60:3.04 #
6.7925399233389214259659638628364 1:8 2:0 3:4 4:12 5:0 6:24 7:28 8:0 9:4 10:4 11:8 12:0 13:4 14:0 15:0 16:0 17:0 18:0 19:0 20:4 21:16 22:0 23:8 24:4 25:12 26:12 27:8 28:0 29:8 30:8 31:0 32:4 33:0 34:4 35:0 36:4 37:0 38:8 39:0 40:4 41:9.2600002 42:0 43:1.85 44:5.5599999 45:5.5599999 46:11.11 47:0 48:5.5599999 49:9.2600002 50:7.4099998 51:1.85 52:3.7 53:5.5599999 54:3.7 55:9.2600002 56:1.85 57:5.5599999 58:3.7 59:7.4099998 60:1.85 #
50 1:20 2:0 3:4 4:0 5:4 6:16 7:0 8:4 9:12 10:0 11:4 12:0 13:8 14:0 15:4 16:12 17:8 18:4 19:0 20:0 21:4 22:0 23:0 24:4 25:12 26:8 27:4 28:4 29:8 30:16 31:4 32:4 33:4 34:4 35:4 36:4 37:8 38:4 39:0 40:4 41:10.23 42:1.14 43:3.4100001 44:3.4100001 45:5.3000002 46:10.61 47:0.75999999 48:4.9200001 49:4.5500002 50:11.36 51:3.4100001 52:2.6500001 53:3.4100001 54:3.03 55:6.8200002 56:4.9200001 57:8.71 58:6.4400001 59:0.75999999 60:4.1700001 #
34.661488582067363495298195630312 1:8 2:0 3:0 4:8 5:0 6:8 7:0 8:0 9:0 10:20 11:4 12:0 13:32 14:0 15:12 16:4 17:0 18:0 19:4 20:0 21:4 22:0 23:0 24:8 25:4 26:4 27:4 28:8 29:16 30:12 31:4 32:8 33:4 34:4 35:4 36:12 37:0 38:0 39:0 40:4 41:11.77 42:1.02 43:3.05 44:4.6500001 45:4.3600001 46:10.61 47:0.73000002 48:4.9400001 49:3.3399999 50:12.06 51:1.89 52:3.05 53:5.0900002 54:2.6199999 55:7.5599999 56:8.1400003 57:4.2199998 58:7.27 59:1.45 60:2.1800001 #
-22.073721835440395011573855299503 1:4 2:0 3:0 4:4 5:0 6:16 7:4 8:4 9:0 10:4 11:4 12:0 13:20 14:12 15:8 16:4 17:4 18:0 19:12 20:0 21:8 22:0 23:0 24:8 25:0 26:8 27:4 28:0 29:0 30:8 31:0 32:0 33:4 34:8 35:8 36:12 37:4 38:4 39:24 40:0 41:26.09 42:0 43:0 44:0 45:0 46:13.04 47:0 48:0 49:0 50:13.04 51:0 52:0 53:4.3499999 54:0 55:0 56:8.6999998 57:0 58:0 59:34.779999 60:0 #
-60.29685278593905195521074347198 1:0 2:4 3:0 4:0 5:4 6:24 7:8 8:0 9:0 10:12 11:4 12:0 13:12 14:4 15:16 16:4 17:4 18:0 19:0 20:4 21:4 22:0 23:8 24:12 25:8 26:12 27:0 28:4 29:0 30:4 31:0 32:4 33:4 34:4 35:8 36:4 37:4 38:4 39:12 40:4 41:10.69 42:0 43:5.3400002 44:3.8199999 45:3.05 46:6.1100001 47:2.29 48:1.53 49:4.5799999 50:9.9200001 51:3.8199999 52:2.29 53:4.5799999 54:6.8699999 55:8.3999996 56:6.1100001 57:4.5799999 58:12.21 59:0.75999999 60:3.05 #
10.493700215023750388354528695345 1:16 2:0 3:4 4:4 5:4 6:4 7:0 8:12 9:12 10:8 11:4 12:4 13:4 14:8 15:4 16:0 17:4 18:4 19:4 20:0 21:4 22:0 23:4 24:12 25:4 26:0 27:4 28:4 29:16 30:8 31:0 32:8 33:16 34:4 35:0 36:0 37:4 38:0 39:4 40:8 41:12.61 42:0.89999998 43:7.21 44:11.71 45:2.7 46:0.89999998 47:0 48:4.5 49:11.71 50:8.1099997 51:2.7 52:4.5 53:5.4099998 54:1.8 55:1.8 56:6.3099999 57:3.5999999 58:7.21 59:2.7 60:3.5999999 #
50 1:12 2:4 3:0 4:0 5:8 6:4 7:0 8:0 9:4 10:8 11:4 12:8 13:0 14:8 15:12 16:12 17:4 18:8 19:0 20:4 21:16 22:0 23:8 24:16 25:4 26:0 27:0 28:8 29:16 30:0 31:0 32:0 33:12 34:4 35:0 36:4 37:4 38:8 39:0 40:0 41:7.8400002 42:0.38 43:4.9699998 44:10.71 45:4.02 46:2.6800001 47:1.15 48:4.9699998 49:11.47 50:10.33 51:1.91 52:4.21 53:4.9699998 54:3.4400001 55:4.02 56:8.2200003 57:5.9299998 58:5.1599998 59:0.38 60:3.25 #
-100 1:20 2:0 3:0 4:0 5:0 6:8 7:0 8:12 9:0 10:12 11:4 12:4 13:4 14:4 15:4 16:12 17:12 18:0 19:0 20:4 21:20 22:0 23:16 24:8 25:4 26:8 27:0 28:4 29:8 30:0 31:0 32:4 33:0 34:0 35:0 36:12 37:0 38:16 39:0 40:0 41:10.53 42:0 43:3.01 44:10.53 45:3.76 46:2.26 47:0.75 48:6.77 49:8.2700005 50:8.2700005 51:3.01 52:3.01 53:6.77 54:7.52 55:6.02 56:5.2600002 57:4.5100002 58:4.5100002 59:0 60:5.2600002 #
-70.444333857730924819406936876476 1:8 2:0 3:4 4:0 5:12 6:4 7:0 8:0 9:4 10:8 11:4 12:0 13:0 14:12 15:8 16:12 17:0 18:12 19:8 20:4 21:24 22:0 23:4 24:4 25:4 26:0 27:0 28:0 29:20 30:4 31:0 32:0 33:0 34:24 35:0 36:4 37:8 38:4 39:0 40:0 41:7.6900001 42:1.1799999 43:2.96 44:8.8800001 45:3.55 46:2.96 47:2.3699999 48:2.96 49:7.0999999 50:8.2799997 51:2.3699999 52:5.3299999 53:4.1399999 54:2.96 55:7.0999999 56:7.0999999 57:8.2799997 58:9.4700003 59:2.3699999 60:2.96 #
-61.674387796837010000672307796776 1:8 2:0 3:4 4:0 5:0 6:0 7:0 8:8 9:12 10:16 11:8 12:0 13:4 14:4 15:8 16:12 17:4 18:12 19:0 20:0 21:12 22:0 23:16 24:8 25:4 26:4 27:0 28:16 29:12 30:12 31:0 32:4 33:0 34:0 35:4 36:0 37:4 38:4 39:0 40:0 41:8.9300003 42:0 43:3.5699999 44:5.3600001 45:3.5699999 46:12.5 47:0 48:1.79 49:8.9300003 50:7.1399999 51:0 52:7.1399999 53:7.1399999 54:8.9300003 55:0 56:3.5699999 57:3.5699999 58:16.07 59:0 60:1.79 #
17.878214931445747026828030357137 1:12 2:0 3:20 4:0 5:4 6:12 7:0 8:0 9:0 10:4 11:4 12:0 13:20 14:4 15:0 16:8 17:8 18:4 19:0 20:0 21:4 22:0 23:8 24:0 25:0 26:8 27:0 28:8 29:0 30:4 31:0 32:0 33:8 34:4 35:16 36:12 37:8 38:20 39:0 40:0 41:9 42:1.67 43:3.77 44:3.3499999 45:5.8600001 46:9.8299999 47:1.46 48:6.0700002 49:0.83999997 50:15.06 51:1.46 52:2.0899999 53:5.8600001 54:1.88 55:6.2800002 56:9 57:4.3899999 58:7.7399998 59:1.88 60:2.51 #
0.35636236325557746340564335696399 1:4 2:4 3:4 4:0 5:8 6:12 7:0 8:0 9:4 10:0 11:12 12:0 13:12 14:8 15:4 16:8 17:0 18:16 19:0 20:4 21:4 22:4 23:0 24:0 25:8 26:28 27:0 28:12 29:4 30:0 31:16 32:0 33:0 34:4 35:4 36:4 37:12 38:0 39:0 40:0 41:13.79 42:6.9000001 43:0 44:3.45 45:6.9000001 46:24.139999 47:0 48:3.45 49:0 50:10.34 51:10.34 52:0 53:0 54:0 55:10.34 56:3.45 57:3.45 58:3.45 59:0 60:0 #
50 1:0 2:4 3:4 4:0 5:4 6:16 7:0 8:0 9:0 10:16 11:4 12:0 13:8 14:12 15:16 16:4 17:4 18:8 19:0 20:0 21:8 22:4 23:4 24:0 25:8 26:8 27:0 28:12 29:4 30:16 31:0 32:4 33:0 34:0 35:4 36:4 37:8 38:4 39:4 40:8 41:11.33 42:1.29 43:4.21 44:7.1199999 45:1.9400001 46:5.8299999 47:1.62 48:3.8800001 49:6.4699998 50:13.92 51:2.27 52:1.9400001 53:4.21 54:5.1799998 55:8.4099998 56:8.4099998 57:4.21 58:5.5 59:0.64999998 60:1.62 #
-84.782333693067982949287397786975 1:8 2:0 3:4 4:8 5:4 6:20 7:4 8:12 9:4 10:0 11:8 12:4 13:0 14:4 15:0 16:8 17:0 18:12 19:0 20:0 21:4 22:0 23:0 24:0 25:8 26:8 27:0 28:8 29:12 30:16 31:0 32:0 33:4 34:0 35:4 36:12 37:8 38:8 39:0 40:8 41:6.71 42:1.89 43:4.6100001 44:7.9699998 45:2.9400001 46:7.3400002 47:2.52 48:6.71 49:7.1300001 50:7.5500002 51:2.3099999 52:3.77 53:5.0300002 54:3.1400001 55:5.4499998 56:3.98 57:6.0799999 58:7.5500002 59:2.52 60:4.8200002 #
-44.173797382974470338012906722724 1:16 2:4 3:0 4:0 5:4 6:8 7:4 8:0 9:0 10:4 11:4 12:0 13:4 14:0 15:8 16:12 17:8 18:16 19:8 20:0 21:4 22:0 23:0 24:8 25:0 26:4 27:4 28:0 29:4 30:32 31:0 32:8 33:0 34:0 35:8 36:8 37:8 38:8 39:0 40:4 41:6.1300001 42:1.9400001 43:3.23 44:2.5799999 45:4.52 46:4.8400002 47:5.48 48:6.4499998 49:7.0999999 50:14.84 51:2.5799999 52:2.5799999 53:4.8400002 54:5.1599998 55:8.0600004 56:5.1599998 57:5.48 58:3.23 59:2.26 60:3.55 #
-75.135321024256583655187569092959 1:12 2:0 3:0 4:0 5:12 6:16 7:0 8:0 9:0 10:8 11:4 12:0 13:8 14:4 15:8 16:12 17:8 18:4 19:4 20:0 21:4 22:0 23:4 24:4 25:8 26:16 27:0 28:8 29:0 30:12 31:0 32:4 33:8 34:8 35:4 36:0 37:4 38:8 39:0 40:8 41:8.2799997 42:3.45 43:5.1700001 44:6.21 45:2.0699999 46:5.52 47:1.38 48:3.45 49:3.79 50:12.76 51:2.0699999 52:2.4100001 53:5.1700001 54:3.79 55:9.6599998 56:6.9000001 57:5.8600001 58:7.5900002 59:2.0699999 60:2.4100001 #
50 1:16 2:0 3:0 4:4 5:4 6:4 7:0 8:8 9:8 10:8 11:4 12:4 13:0 14:0 15:12 16:20 17:0 18:4 19:0 20:4 21:20 22:0 23:4 24:16 25:0 26:0 27:0 28:4 29:4 30:12 31:0 32:4 33:0 34:8 35:4 36:12 37:0 38:12 39:0 40:0 41:10 42:0.91000003 43:0.91000003 44:8.1800003 45:5.4499998 46:7.27 47:1.8200001 48:3.6400001 49:6.3600001 50:10.91 51:0.91000003 52:5.4499998 53:5.4499998 54:5.4499998 55:0.91000003 56:10.91 57:4.5500002 58:10 59:0 60:0.91000003 #
7.2653670154319875962301011895761 1:12 2:0 3:0 4:0 5:20 6:8 7:0 8:4 9:8 10:4 11:4 12:4 13:0 14:0 15:4 16:12 17:8 18:8 19:0 20:4 21:12 22:0 23:24 24:4 25:0 26:12 27:4 28:4 29:16 30:4 31:0 32:8 33:0 34:0 35:4 36:0 37:0 38:4 39:4 40:0 41:6.25 42:0 43:6.25 44:6.25 45:18.75 46:0 47:0 48:6.25 49:0 50:0 51:0 52:0 53:0 54:6.25 55:0 56:6.25 57:18.75 58:12.5 59:6.25 60:6.25 #
50 1:20 2:0 3:0 4:0 5:4 6:0 7:0 8:0 9:8 10:8 11:4 12:0 13:0 14:4 15:12 16:24 17:8 18:8 19:0 20:0 21:20 22:0 23:4 24:12 25:0 26:8 27:4 28:8 29:4 30:8 31:0 32:4 33:0 34:4 35:0 36:8 37:8 38:8 39:0 40:0 41:8.5 42:0 43:4.5799999 44:5.23 45:5.23 46:5.23 47:2.6099999 48:5.23 49:6.54 50:7.8400002 51:3.27 52:1.96 53:10.46 54:3.9200001 55:0.64999998 56:9.8000002 57:7.8400002 58:9.1499996 59:0.64999998 60:1.3099999 #
-28.025639515723923977930098772049 1:12 2:0 3:12 4:4 5:0 6:4 7:16 8:0 9:4 10:0 11:4 12:16 13:4 14:0 15:0 16:20 17:4 18:0 19:0 20:0 21:8 22:0 23:8 24:0 25:0 26:12 27:0 28:8 29:16 30:16 31:0 32:0 33:0 34:0 35:4 36:8 37:8 38:0 39:0 40:12 41:11.9 42:5.9499998 43:1.1900001 44:3.5699999 45:4.7600002 46:3.5699999 47:2.3800001 48:1.1900001 49:8.3299999 50:14.29 51:0 52:8.3299999 53:2.3800001 54:3.5699999 55:2.3800001 56:7.1399999 57:3.5699999 58:10.71 59:0 60:4.7600002 #
-63.757296503616544214310124516487 1:12 2:0 3:0 4:0 5:0 6:4 7:0 8:8 9:0 10:4 11:12 12:8 13:4 14:0 15:24 16:12 17:0 18:8 19:4 20:0 21:16 22:0 23:0 24:16 25:0 26:0 27:0 28:0 29:8 30:8 31:0 32:4 33:8 34:8 35:0 36:16 37:4 38:4 39:4 40:4 41:5.9499998 42:0.92000002 43:5.6500001 44:7.9099998 45:2.3599999 46:5.6500001 47:2.1600001 48:7.1900001 49:7.5999999 50:10.47 51:2.5699999 52:4 53:5.75 54:4.52 55:5.54 56:5.4400001 57:6.0599999 58:7.29 59:0.41 60:2.5699999 #
-16.84115821820515179751964751631 1:12 2:8 3:0 4:0 5:0 6:4 7:0 8:0 9:0 10:16 11:4 12:0 13:16 14:0 15:20 16:4 17:0 18:12 19:4 20:0 21:12 22:0 23:12 24:8 25:12 26:4 27:0 28:0 29:16 30:0 31:4 32:4 33:0 34:4 35:8 36:0 37:12 38:4 39:0 40:0 41:13.33 42:2.5 43:4.1700001 44:7.5 45:4.1700001 46:8.75 47:0.82999998 48:7.0799999 49:8.3299999 50:8.75 51:2.9200001 52:4.1700001 53:2.9200001 54:4.5799999 55:2.0799999 56:5 57:4.5799999 58:5.8299999 59:0.41999999 60:2.0799999 #
50 1:12 2:4 3:4 4:0 5:0 6:16 7:0 8:16 9:8 10:12 11:4 12:4 13:4 14:4 15:0 16:4 17:4 18:4 19:0 20:0 21:12 22:0 23:4 24:4 25:8 26:12 27:0 28:8 29:0 30:20 31:0 32:0 33:4 34:12 35:0 36:4 37:0 38:8 39:0 40:4 41:12.45 42:2.5599999 43:3.6600001 44:3.3 45:3.6600001 46:8.4200001 47:0.73000002 48:4.0300002 49:5.1300001 50:12.09 51:1.83 52:2.9300001 53:5.1300001 54:6.5900002 55:6.5900002 56:5.4899998 57:5.4899998 58:6.96 59:0 60:2.9300001 #
28.522276504297721544389787595719 1:20 2:0 3:0 4:4 5:0 6:8 7:0 8:4 9:4 10:4 11:4 12:4 13:4 14:0 15:12 16:12 17:0 18:4 19:8 20:8 21:4 22:0 23:4 24:24 25:0 26:0 27:0 28:4 29:20 30:8 31:0 32:0 33:4 34:0 35:12 36:4 37:0 38:4 39:4 40:8 41:3.28 42:0 43:9.8400002 44:9.8400002 45:3.28 46:3.28 47:1.64 48:6.5599999 49:8.1999998 50:11.48 51:3.28 52:6.5599999 53:3.28 54:4.9200001 55:11.48 56:1.64 57:3.28 58:3.28 59:1.64 60:3.28 #
50 1:12 2:0 3:0 4:4 5:4 6:4 7:0 8:4 9:4 10:16 11:4 12:4 13:0 14:4 15:16 16:8 17:8 18:4 19:4 20:0 21:8 22:0 23:0 24:4 25:0 26:4 27:4 28:4 29:16 30:16 31:0 32:0 33:8 34:0 35:0 36:24 37:8 38:4 39:0 40:0 41:7.1100001 42:0.69 43:2.0599999 44:4.5900002 45:5.0500002 46:6.6500001 47:2.0599999 48:6.4200001 49:6.8800001 50:12.16 51:3.4400001 52:3.4400001 53:4.5900002 54:3.21 55:5.2800002 56:7.8000002 57:5.96 58:7.1100001 59:3.21 60:2.29 #
50 1:8 2:4 3:0 4:0 5:4 6:4 7:0 8:0 9:0 10:4 11:4 12:4 13:4 14:4 15:28 16:12 17:4 18:16 19:0 20:0 21:16 22:0 23:4 24:16 25:0 26:0 27:4 28:0 29:20 30:8 31:0 32:4 33:0 34:4 35:8 36:0 37:0 38:12 39:0 40:4 41:16.18 42:0 43:5.8800001 44:6.6199999 45:4.4099998 46:7.3499999 47:8.8199997 48:2.9400001 49:4.4099998 50:6.6199999 51:0.74000001 52:3.6800001 53:5.1500001 54:4.4099998 55:2.21 56:5.1500001 57:3.6800001 58:3.6800001 59:1.47 60:6.6199999 #
