SVM-light Version V6.02
2 # kernel type
3 # kernel parameter -d 
0.0001 # kernel parameter -g 
1 # kernel parameter -s 
1 # kernel parameter -r 
empty# kernel parameter -u 
60 # highest feature index 
16265 # number of training documents 
8217 # number of support vectors plus 1 
2.8407318 # threshold b, each following line is a SV (starting with alpha*y)
-1.9516589722300465847837358523975 1:8 2:4 3:0 4:8 5:4 6:8 7:0 8:4 9:16 10:4 11:8 12:4 13:12 14:8 15:4 16:0 17:8 18:0 19:0 20:0 21:4 22:0 23:8 24:12 25:8 26:16 27:4 28:0 29:4 30:12 31:0 32:4 33:4 34:8 35:0 36:12 37:0 38:4 39:0 40:0 41:5.8499999 42:2.1700001 43:4.6799998 44:10.2 45:2.3399999 46:7.3600001 47:1.34 48:3.8499999 49:9.8699999 50:7.5300002 51:1.67 52:3.6800001 53:6.52 54:5.8499999 55:5.3499999 56:9.8699999 57:4.6799998 58:4.1799998 59:1.67 60:1.34 #
-1.9516589722300465847837358523975 1:4 2:8 3:4 4:8 5:4 6:12 7:0 8:4 9:4 10:8 11:8 12:0 13:8 14:12 15:0 16:12 17:0 18:4 19:0 20:0 21:8 22:0 23:0 24:12 25:4 26:0 27:0 28:0 29:16 30:8 31:0 32:4 33:0 34:8 35:8 36:4 37:8 38:8 39:4 40:8 41:4.79 42:1.92 43:5.1100001 44:11.5 45:1.6 46:2.24 47:2.24 48:2.8800001 49:7.6700001 50:18.209999 51:2.24 52:2.5599999 53:2.24 54:8.3100004 55:5.75 56:5.75 57:4.1500001 58:6.71 59:1.28 60:2.8800001 #
-1.9516589722300465847837358523975 1:4 2:12 3:0 4:0 5:0 6:0 7:0 8:4 9:28 10:0 11:4 12:4 13:0 14:0 15:12 16:12 17:8 18:12 19:0 20:0 21:0 22:0 23:12 24:4 25:8 26:4 27:4 28:0 29:0 30:16 31:0 32:8 33:4 34:0 35:0 36:12 37:12 38:4 39:4 40:8 41:4.6399999 42:1.73 43:5.29 44:6.3699999 45:5.7199998 46:2.3800001 47:2.1600001 48:7.5599999 49:6.0500002 50:11.23 51:1.73 52:6.2600002 53:4.3200002 54:4.8600001 55:3.8900001 56:9.9399996 57:6.3699999 58:4 59:0.86000001 60:4.6399999 #
-1.9516589722300465847837358523975 1:0 2:12 3:4 4:20 5:0 6:0 7:0 8:4 9:20 10:8 11:4 12:0 13:12 14:0 15:4 16:0 17:4 18:4 19:0 20:4 21:4 22:0 23:4 24:4 25:8 26:8 27:4 28:4 29:0 30:12 31:0 32:4 33:4 34:4 35:8 36:4 37:16 38:8 39:4 40:0 41:6.0700002 42:5.2800002 43:3.96 44:3.1700001 45:3.4300001 46:6.3299999 47:2.1099999 48:5.8000002 49:4.75 50:13.72 51:1.0599999 52:4.2199998 53:4.2199998 54:3.6900001 55:6.3299999 56:7.3899999 57:5.54 58:6.5999999 59:2.1099999 60:4.2199998 #
-1.9516589722300465847837358523975 1:4 2:0 3:0 4:0 5:16 6:0 7:0 8:12 9:0 10:12 11:4 12:4 13:8 14:4 15:8 16:8 17:8 18:8 19:0 20:4 21:8 22:0 23:0 24:8 25:16 26:8 27:0 28:4 29:4 30:4 31:0 32:0 33:12 34:4 35:0 36:16 37:12 38:0 39:0 40:4 41:6.6799998 42:2.1700001 43:9.3199997 44:7.6100001 45:2.95 46:6.21 47:2.3299999 48:5.2800002 49:11.65 50:6.52 51:2.3299999 52:2.95 53:2.95 54:3.73 55:4.04 56:9.3199997 57:4.8099999 58:6.3699999 59:1.09 60:1.71 #
25.371566638990604047876331605949 1:12 2:0 3:4 4:28 5:0 6:0 7:0 8:0 9:4 10:4 11:4 12:0 13:12 14:4 15:12 16:8 17:4 18:4 19:0 20:0 21:8 22:0 23:8 24:4 25:4 26:4 27:8 28:4 29:12 30:16 31:4 32:4 33:0 34:4 35:0 36:4 37:16 38:0 39:0 40:0 41:4.0500002 42:2.53 43:3.29 44:3.29 45:10.38 46:6.5799999 47:2.28 48:8.3500004 49:3.54 50:9.1099997 51:3.54 52:3.54 53:4.5599999 54:3.04 55:4.3000002 56:6.5799999 57:6.0799999 58:7.5900002 59:2.28 60:5.0599999 #
25.371566638990604047876331605949 1:8 2:0 3:0 4:4 5:0 6:0 7:8 8:0 9:4 10:4 11:4 12:4 13:12 14:0 15:24 16:20 17:0 18:4 19:4 20:0 21:4 22:0 23:4 24:8 25:8 26:8 27:4 28:8 29:16 30:4 31:4 32:0 33:0 34:0 35:12 36:0 37:12 38:4 39:0 40:4 41:2.72 42:1.0599999 43:6.6599998 44:7.7199998 45:3.6300001 46:5.1399999 47:4.54 48:4.54 49:9.6800003 50:3.78 51:1.0599999 52:4.8400002 53:6.5100002 54:5.5999999 55:9.5299997 56:9.2299995 57:4.3899999 58:3.78 59:0.75999999 60:4.8400002 #
1.4545445818795066372786095598713 1:12 2:0 3:0 4:0 5:0 6:16 7:0 8:0 9:0 10:16 11:4 12:0 13:4 14:0 15:16 16:16 17:4 18:4 19:8 20:0 21:16 22:4 23:0 24:4 25:4 26:4 27:0 28:0 29:4 30:24 31:4 32:8 33:4 34:0 35:0 36:4 37:12 38:8 39:0 40:0 41:7.1399999 42:2.5999999 43:4.8699999 44:4.5500002 45:2.27 46:10.06 47:1.95 48:4.5500002 49:1.95 50:10.39 51:1.95 52:2.9200001 53:8.7700005 54:4.8699999 55:6.8200002 56:7.79 57:4.8699999 58:8.4399996 59:0.31999999 60:2.9200001 #
-1.9516589722300465847837358523975 1:12 2:4 3:0 4:0 5:8 6:4 7:0 8:0 9:4 10:8 11:8 12:4 13:8 14:4 15:0 16:28 17:8 18:0 19:0 20:0 21:8 22:0 23:12 24:8 25:8 26:8 27:0 28:0 29:4 30:0 31:0 32:0 33:8 34:0 35:4 36:4 37:12 38:12 39:12 40:0 41:11.11 42:3.3299999 43:4.4400001 44:2.78 45:2.78 46:10.56 47:2.22 48:3.8900001 49:5 50:12.78 51:1.67 52:5 53:6.6700001 54:2.78 55:3.8900001 56:3.8900001 57:7.2199998 58:7.2199998 59:0.56 60:2.22 #
25.371566638990604047876331605949 1:20 2:0 3:8 4:8 5:0 6:4 7:0 8:0 9:0 10:0 11:4 12:4 13:12 14:0 15:0 16:24 17:12 18:4 19:0 20:0 21:16 22:8 23:4 24:4 25:16 26:8 27:4 28:8 29:8 30:4 31:0 32:0 33:0 34:0 35:4 36:4 37:8 38:4 39:0 40:0 41:11.38 42:3.25 43:2.4400001 44:4.0700002 45:4.0700002 46:11.38 47:1.63 48:5.6900001 49:3.25 50:4.8800001 51:6.5 52:4.0700002 53:3.25 54:5.6900001 55:5.6900001 56:4.8800001 57:8.1300001 58:8.1300001 59:1.63 60:0 #
-1.9516589722300465847837358523975 1:28 2:0 3:0 4:0 5:0 6:4 7:0 8:0 9:4 10:4 11:4 12:0 13:4 14:0 15:16 16:12 17:4 18:20 19:0 20:0 21:24 22:0 23:8 24:4 25:0 26:0 27:0 28:4 29:20 30:16 31:0 32:0 33:0 34:4 35:0 36:8 37:4 38:8 39:0 40:0 41:14.09 42:0 43:9.3999996 44:8.7200003 45:4.6999998 46:4.6999998 47:0 48:2.6800001 49:6.71 50:12.75 51:0 52:1.34 53:2.01 54:4.0300002 55:10.74 56:4.6999998 57:4.6999998 58:6.71 59:0.67000002 60:1.34 #
-1.9516589722300465847837358523975 1:52 2:4 3:0 4:0 5:0 6:0 7:4 8:0 9:0 10:4 11:4 12:0 13:8 14:0 15:4 16:20 17:0 18:0 19:0 20:0 21:4 22:0 23:0 24:20 25:8 26:8 27:0 28:12 29:12 30:8 31:0 32:8 33:0 34:4 35:12 36:0 37:0 38:4 39:0 40:0 41:12.61 42:1.26 43:3.78 44:7.1399999 45:3.78 46:9.6599998 47:2.52 48:7.5599999 49:3.3599999 50:7.1399999 51:1.6799999 52:2.9400001 53:6.7199998 54:3.78 55:5.8800001 56:5.04 57:5.46 58:6.3000002 59:0.41999999 60:2.9400001 #
-1.9516589722300465847837358523975 1:4 2:0 3:4 4:4 5:0 6:0 7:0 8:0 9:0 10:0 11:4 12:0 13:0 14:4 15:48 16:32 17:0 18:0 19:0 20:0 21:4 22:0 23:8 24:4 25:4 26:0 27:4 28:8 29:28 30:8 31:4 32:4 33:0 34:12 35:4 36:8 37:0 38:0 39:0 40:0 41:4.8400002 42:0 43:5.0799999 44:9.4399996 45:1.6900001 46:5.5700002 47:1.9400001 48:2.1800001 49:14.77 50:2.6600001 51:0.97000003 52:3.3900001 53:4.5999999 54:2.1800001 55:12.59 56:20.82 57:1.6900001 58:3.3900001 59:0.73000002 60:1.45 #
25.371566638990604047876331605949 1:4 2:0 3:4 4:0 5:8 6:8 7:0 8:12 9:20 10:12 11:4 12:4 13:4 14:4 15:0 16:8 17:0 18:8 19:0 20:0 21:8 22:0 23:8 24:8 25:0 26:12 27:0 28:0 29:4 30:8 31:0 32:4 33:4 34:0 35:8 36:16 37:4 38:4 39:4 40:8 41:8.0600004 42:0.81 43:6.4499998 44:7.2600002 45:6.4499998 46:7.2600002 47:3.23 48:5.2399998 49:7.6599998 50:7.6599998 51:0.40000001 52:3.6300001 53:7.6599998 54:0.81 55:3.23 56:6.0500002 57:6.8499999 58:7.6599998 59:1.21 60:2.4200001 #
25.371566638990604047876331605949 1:4 2:0 3:0 4:0 5:4 6:8 7:0 8:20 9:4 10:12 11:4 12:0 13:8 14:0 15:4 16:4 17:12 18:8 19:4 20:4 21:4 22:4 23:12 24:0 25:4 26:0 27:0 28:4 29:0 30:4 31:4 32:0 33:4 34:4 35:16 36:28 37:4 38:8 39:0 40:0 41:2.5599999 42:0 43:6.8400002 44:11.11 45:1.71 46:2.5599999 47:6.8400002 48:7.6900001 49:5.98 50:5.98 51:2.5599999 52:1.71 53:3.4200001 54:5.98 55:7.6900001 56:11.11 57:5.98 58:8.5500002 59:1.71 60:0 #
2.5223370857718840909456048393622 1:0 2:0 3:0 4:4 5:8 6:4 7:4 8:20 9:12 10:4 11:4 12:8 13:12 14:4 15:0 16:4 17:4 18:4 19:0 20:4 21:0 22:0 23:4 24:20 25:4 26:4 27:0 28:4 29:8 30:12 31:0 32:8 33:4 34:4 35:4 36:4 37:4 38:8 39:4 40:4 41:2.45 42:2.45 43:3.4300001 44:4.9000001 45:3.9200001 46:7.3499999 47:5.3899999 48:7.3499999 49:8.3299999 50:8.8199997 51:0.98000002 52:7.3499999 53:5.3899999 54:4.9000001 55:5.8800001 56:4.9000001 57:6.3699999 58:5.3899999 59:0.98000002 60:3.4300001 #
-1.9516589722300465847837358523975 1:8 2:4 3:0 4:8 5:4 6:4 7:4 8:0 9:0 10:0 11:12 12:4 13:4 14:12 15:8 16:12 17:8 18:8 19:0 20:0 21:12 22:0 23:4 24:0 25:0 26:8 27:4 28:12 29:8 30:8 31:0 32:0 33:0 34:4 35:4 36:16 37:4 38:4 39:0 40:12 41:6.25 42:1.5599999 43:4.6900001 44:6.25 45:4.6900001 46:7.8099999 47:4.6900001 48:3.1199999 49:4.6900001 50:15.62 51:1.5599999 52:10.94 53:1.5599999 54:4.6900001 55:3.1199999 56:6.25 57:4.6900001 58:6.25 59:1.5599999 60:0 #
-1.9516589722300465847837358523975 1:0 2:4 3:0 4:0 5:0 6:8 7:4 8:0 9:0 10:44 11:4 12:0 13:16 14:0 15:12 16:8 17:0 18:0 19:0 20:0 21:12 22:0 23:0 24:0 25:4 26:8 27:4 28:0 29:4 30:8 31:8 32:0 33:8 34:0 35:12 36:4 37:12 38:4 39:0 40:12 41:11 42:1.86 43:4.29 44:5.8600001 45:4.71 46:6.29 47:2.71 48:2.1400001 49:4.1399999 50:11 51:1.14 52:3.71 53:7.5700002 54:4.5700002 55:5.4299998 56:8.1400003 57:3.8599999 58:7.4299998 59:2 60:2.1400001 #
-1.9516589722300465847837358523975 1:4 2:4 3:4 4:12 5:4 6:0 7:0 8:4 9:8 10:8 11:8 12:4 13:4 14:8 15:4 16:4 17:16 18:0 19:4 20:0 21:8 22:0 23:12 24:20 25:4 26:0 27:0 28:0 29:8 30:4 31:0 32:8 33:8 34:0 35:4 36:8 37:4 38:4 39:0 40:8 41:4.6399999 42:2.55 43:4.2800002 44:4.5500002 45:6.6399999 46:5.2800002 47:2 48:8.1000004 49:5.46 50:11.37 51:1.73 52:4.6399999 53:4.3699999 54:3.46 55:4.3699999 56:10.37 57:6.5500002 58:5.5500002 59:1.27 60:2.8199999 #
8.0100807615675542194821900920942 1:4 2:0 3:8 4:16 5:4 6:4 7:0 8:8 9:12 10:8 11:12 12:0 13:8 14:0 15:12 16:0 17:0 18:4 19:0 20:0 21:4 22:0 23:4 24:0 25:8 26:0 27:0 28:16 29:8 30:20 31:0 32:4 33:4 34:0 35:8 36:8 37:4 38:8 39:0 40:4 41:0 42:0 43:0 44:0 45:0 46:0 47:0 48:0 49:0 50:0 51:0 52:0 53:0 54:0 55:0 56:100 57:0 58:0 59:0 60:0 #
25.371566638990604047876331605949 1:4 2:0 3:8 4:4 5:0 6:8 7:0 8:0 9:8 10:0 11:4 12:4 13:8 14:28 15:4 16:4 17:4 18:0 19:12 20:0 21:4 22:0 23:0 24:8 25:8 26:0 27:0 28:0 29:16 30:4 31:0 32:8 33:0 34:20 35:0 36:20 37:0 38:0 39:8 40:4 41:7.7399998 42:1.29 43:5.1599998 44:5.1599998 45:4.52 46:4.52 47:1.9400001 48:5.8099999 49:9.6800003 50:10.32 51:3.23 52:3.23 53:5.1599998 54:5.8099999 55:4.52 56:10.32 57:4.52 58:2.5799999 59:3.23 60:1.29 #
-1.9516589722300465847837358523975 1:0 2:0 3:0 4:12 5:8 6:8 7:4 8:0 9:16 10:4 11:4 12:8 13:4 14:8 15:0 16:8 17:0 18:8 19:0 20:8 21:12 22:4 23:4 24:12 25:0 26:8 27:0 28:4 29:4 30:8 31:0 32:4 33:8 34:0 35:0 36:8 37:4 38:8 39:8 40:4 41:4.4899998 42:1.5599999 43:6.4499998 44:5.6599998 45:6.25 46:5.8600001 47:2.9300001 48:4.3000002 49:6.4499998 50:6.6399999 51:0.98000002 52:6.0500002 53:6.4499998 54:6.0500002 55:4.4899998 56:6.0500002 57:6.0500002 58:6.6399999 59:0.98000002 60:5.6599998 #
-1.9516589722300465847837358523975 1:20 2:0 3:4 4:0 5:0 6:36 7:0 8:0 9:0 10:0 11:4 12:4 13:0 14:4 15:16 16:8 17:0 18:0 19:4 20:0 21:4 22:0 23:0 24:4 25:0 26:8 27:4 28:4 29:4 30:32 31:0 32:8 33:4 34:8 35:8 36:4 37:8 38:0 39:0 40:0 41:5.6100001 42:2.55 43:3.5699999 44:4.5900002 45:3.8299999 46:11.73 47:4.0799999 48:5.8699999 49:4.5900002 50:8.9300003 51:1.53 52:5.8699999 53:5.8699999 54:2.55 55:6.6300001 56:4.8499999 57:4.5900002 58:5.3600001 59:2.8099999 60:4.5900002 #
-1.9516589722300465847837358523975 1:8 2:0 3:0 4:0 5:12 6:8 7:0 8:4 9:4 10:28 11:4 12:0 13:4 14:0 15:0 16:4 17:8 18:12 19:0 20:4 21:0 22:0 23:8 24:16 25:16 26:4 27:0 28:0 29:8 30:8 31:0 32:8 33:4 34:12 35:8 36:4 37:4 38:0 39:0 40:0 41:6.25 42:0.28 43:7.2199998 44:6.3899999 45:4.3099999 46:3.0599999 47:1.8099999 48:5.8299999 49:9.7200003 50:9.3100004 51:1.39 52:7.7800002 53:4.4400001 54:3.8900001 55:4.1700001 56:9.7200003 57:6.25 58:4.8600001 59:0.97000003 60:2.3599999 #
-0.62539618361392967926803976297379 1:12 2:0 3:4 4:8 5:0 6:4 7:0 8:4 9:4 10:4 11:8 12:4 13:0 14:4 15:0 16:28 17:8 18:8 19:0 20:0 21:8 22:4 23:0 24:4 25:8 26:0 27:4 28:0 29:8 30:12 31:4 32:8 33:4 34:12 35:0 36:8 37:8 38:4 39:4 40:0 41:8.8900003 42:0.93000001 43:4.2600002 44:6.3000002 45:3.1500001 46:5.1900001 47:2.96 48:4.4400001 49:7.4099998 50:9.8100004 51:2.22 52:4.0700002 53:5.5599999 54:2.96 55:4.8099999 56:11.11 57:5.1900001 58:5.1900001 59:1.3 60:4.2600002 #
25.371566638990604047876331605949 1:16 2:0 3:0 4:0 5:0 6:16 7:0 8:0 9:0 10:48 11:4 12:0 13:4 14:0 15:8 16:4 17:0 18:0 19:0 20:0 21:0 22:0 23:8 24:8 25:0 26:0 27:0 28:4 29:12 30:24 31:0 32:8 33:0 34:4 35:16 36:8 37:0 38:8 39:0 40:0 41:6.4699998 42:1 43:1.99 44:5.4699998 45:7.96 46:7.96 47:1.49 48:1 49:2.49 50:12.94 51:1.99 52:3.48 53:4.98 54:1.99 55:5.4699998 56:10.95 57:3.98 58:12.44 59:2.49 60:3.48 #
25.371566638990604047876331605949 1:8 2:8 3:0 4:0 5:0 6:8 7:0 8:0 9:0 10:28 11:4 12:0 13:8 14:0 15:12 16:16 17:4 18:4 19:0 20:0 21:12 22:4 23:12 24:16 25:8 26:12 27:4 28:0 29:0 30:0 31:0 32:0 33:4 34:4 35:4 36:4 37:0 38:16 39:0 40:0 41:6.9400001 42:1.74 43:3.1199999 44:6.25 45:2.0799999 46:10.07 47:3.1199999 48:2.0799999 49:7.29 50:16.32 51:1.74 52:2.78 53:4.1700001 54:6.25 55:3.1199999 56:9.0299997 57:4.1700001 58:5.5599999 59:1.74 60:2.4300001 #
25.371566638990604047876331605949 1:4 2:8 3:4 4:0 5:0 6:0 7:0 8:4 9:0 10:32 11:4 12:4 13:8 14:0 15:8 16:0 17:0 18:16 19:4 20:4 21:0 22:12 23:8 24:4 25:4 26:0 27:0 28:8 29:0 30:12 31:4 32:0 33:8 34:4 35:12 36:12 37:0 38:8 39:0 40:4 41:8.6999998 42:2.1700001 43:3.6199999 44:3.99 45:5.4299998 46:5.4299998 47:1.09 48:9.4200001 49:5.0700002 50:11.96 51:0.72000003 52:6.8800001 53:3.26 54:4.3499999 55:6.1599998 56:7.25 57:5.0700002 58:5.4299998 59:0.72000003 60:3.26 #
-1.9516589722300465847837358523975 1:0 2:0 3:0 4:0 5:4 6:4 7:0 8:32 9:12 10:8 11:4 12:8 13:4 14:4 15:0 16:4 17:0 18:8 19:4 20:4 21:0 22:0 23:16 24:4 25:4 26:0 27:0 28:4 29:8 30:8 31:0 32:12 33:0 34:12 35:8 36:12 37:4 38:8 39:0 40:0 41:4.3099999 42:1.4400001 43:5.75 44:1.97 45:4.1300001 46:7.1799998 47:0.36000001 48:7.7199998 49:2.6900001 50:9.1599998 51:2.6900001 52:8.4399996 53:1.8 54:3.5899999 55:1.08 56:16.16 57:9.8699999 58:7.7199998 59:0.72000003 60:3.23 #
-1.9516589722300465847837358523975 1:4 2:0 3:4 4:0 5:8 6:0 7:12 8:8 9:4 10:12 11:4 12:0 13:12 14:4 15:0 16:8 17:16 18:4 19:0 20:0 21:0 22:0 23:16 24:24 25:0 26:0 27:4 28:0 29:20 30:8 31:0 32:4 33:0 34:4 35:0 36:4 37:0 38:16 39:0 40:0 41:3.9300001 42:1.02 43:6.98 44:7.3600001 45:6.2199998 46:4.5700002 47:2.9200001 48:7.8699999 49:7.9899998 50:8.8800001 51:2.1600001 52:7.7399998 53:3.4300001 54:2.9200001 55:3.6800001 56:6.3499999 57:4.8200002 58:6.4699998 59:0.88999999 60:3.8099999 #
-1.9516589722300465847837358523975 1:8 2:0 3:0 4:0 5:4 6:4 7:0 8:8 9:0 10:16 11:8 12:4 13:4 14:0 15:8 16:16 17:4 18:4 19:8 20:4 21:0 22:0 23:8 24:12 25:8 26:0 27:0 28:4 29:24 30:4 31:4 32:4 33:4 34:0 35:0 36:8 37:16 38:0 39:0 40:4 41:3.8299999 42:1.03 43:12.22 44:8.6899996 45:4.27 46:6.6300001 47:2.5 48:5.7399998 49:7.0700002 50:7.9499998 51:1.47 52:7.8099999 53:3.6800001 54:2.6500001 55:2.0599999 56:9.4300003 57:3.8299999 58:4.71 59:1.33 60:3.0899999 #
7.4079848012376379173815621470567 1:12 2:0 3:0 4:4 5:8 6:48 7:0 8:0 9:4 10:4 11:4 12:4 13:0 14:0 15:0 16:4 17:8 18:0 19:0 20:0 21:4 22:0 23:0 24:4 25:0 26:4 27:4 28:0 29:4 30:28 31:4 32:8 33:0 34:8 35:0 36:12 37:8 38:0 39:4 40:8 41:10.06 42:1.89 43:3.77 44:3.1400001 45:3.77 46:13.84 47:0.63 48:3.77 49:3.1400001 50:12.58 51:4.4000001 52:5.6599998 53:3.77 54:2.52 55:5.6599998 56:3.1400001 57:9.4300003 58:4.4000001 59:1.26 60:3.1400001 #
9.6354310860552558892777597066015 1:12 2:16 3:0 4:0 5:0 6:16 7:4 8:0 9:0 10:12 11:4 12:0 13:16 14:0 15:12 16:4 17:0 18:4 19:0 20:0 21:28 22:4 23:0 24:0 25:0 26:4 27:0 28:0 29:0 30:20 31:0 32:4 33:4 34:4 35:8 36:0 37:4 38:4 39:12 40:4 41:21.950001 42:0 43:2.4400001 44:2.4400001 45:0 46:4.8800001 47:2.4400001 48:0 49:2.4400001 50:12.2 51:2.4400001 52:0 53:7.3200002 54:4.8800001 55:21.950001 56:7.3200002 57:4.8800001 58:0 59:2.4400001 60:0 #
25.371566638990604047876331605949 1:4 2:0 3:12 4:4 5:8 6:28 7:4 8:0 9:0 10:4 11:4 12:0 13:8 14:4 15:16 16:0 17:0 18:0 19:0 20:4 21:8 22:0 23:0 24:0 25:0 26:0 27:4 28:20 29:4 30:16 31:0 32:8 33:0 34:12 35:0 36:4 37:12 38:4 39:0 40:8 41:4.3499999 42:1.36 43:2.1700001 44:5.71 45:4.8899999 46:9.5100002 47:3.8 48:7.8800001 49:3.26 50:10.33 51:1.63 52:3.26 53:6.52 54:4.0799999 55:4.0799999 56:8.1499996 57:7.0700002 58:7.0700002 59:1.09 60:3.8 #
-1.9516589722300465847837358523975 1:8 2:0 3:0 4:0 5:8 6:20 7:4 8:0 9:0 10:8 11:12 12:8 13:12 14:4 15:4 16:4 17:4 18:0 19:0 20:4 21:0 22:0 23:12 24:4 25:12 26:4 27:4 28:0 29:0 30:16 31:0 32:4 33:8 34:0 35:16 36:12 37:0 38:8 39:0 40:0 41:9.8900003 42:1.1 43:5.4899998 44:8.79 45:4.9499998 46:8.79 47:4.4000001 48:1.65 49:0.55000001 50:14.29 51:0 52:1.1 53:7.1399999 54:2.2 55:10.99 56:4.9499998 57:3.8499999 58:6.5900002 59:1.1 60:2.2 #
-1.9516589722300465847837358523975 1:16 2:0 3:0 4:0 5:0 6:12 7:4 8:0 9:0 10:24 11:8 12:0 13:4 14:0 15:4 16:0 17:8 18:12 19:8 20:0 21:8 22:0 23:0 24:8 25:0 26:12 27:4 28:4 29:0 30:32 31:8 32:0 33:4 34:4 35:0 36:4 37:0 38:12 39:0 40:0 41:8.2200003 42:0.69999999 43:4.46 44:6.5700002 45:3.52 46:14.55 47:14.55 48:3.05 49:2.8199999 50:9.8599997 51:0.47 52:0.94 53:4.23 54:1.64 55:3.99 56:8.6899996 57:3.99 58:6.0999999 59:0.94 60:0.69999999 #
-1.9516589722300465847837358523975 1:16 2:0 3:0 4:4 5:0 6:8 7:0 8:0 9:4 10:4 11:4 12:0 13:20 14:0 15:16 16:4 17:8 18:4 19:4 20:4 21:20 22:4 23:0 24:4 25:4 26:8 27:0 28:4 29:0 30:20 31:0 32:4 33:16 34:0 35:8 36:0 37:4 38:4 39:0 40:0 41:13.03 42:0.34999999 43:2.8199999 44:11.27 45:1.41 46:6.3400002 47:1.41 48:2.8199999 49:4.5799999 50:10.92 51:0.69999999 52:0 53:13.03 54:4.9299998 55:6.3400002 56:8.4499998 57:5.2800002 58:4.5799999 59:0.69999999 60:1.0599999 #
25.371566638990604047876331605949 1:4 2:0 3:4 4:8 5:4 6:4 7:0 8:4 9:0 10:4 11:4 12:0 13:0 14:0 15:4 16:52 17:4 18:4 19:0 20:0 21:4 22:0 23:8 24:4 25:8 26:8 27:0 28:0 29:16 30:16 31:0 32:0 33:0 34:8 35:8 36:8 37:8 38:0 39:0 40:4 41:6.5900002 42:2.54 43:4.9400001 44:7.3400002 45:4.1900001 46:3.5899999 47:2.6900001 48:4.79 49:4.6399999 50:13.62 51:2.25 52:4.79 53:3.29 54:7.04 55:5.3899999 56:8.5299997 57:4.1900001 58:5.9899998 59:1.35 60:2.25 #
14.131822558049833560289698652923 1:24 2:0 3:0 4:4 5:0 6:4 7:0 8:16 9:0 10:4 11:8 12:0 13:0 14:4 15:8 16:16 17:4 18:8 19:0 20:0 21:4 22:0 23:16 24:8 25:8 26:8 27:0 28:0 29:28 30:0 31:0 32:8 33:0 34:0 35:0 36:8 37:0 38:0 39:8 40:4 41:10.2 42:0 43:7 44:11.66 45:2.04 46:6.71 47:0.57999998 48:2.6199999 49:12.24 50:7.5799999 51:0.87 52:4.96 53:1.75 54:6.4099998 55:6.71 56:8.1599998 57:2.6199999 58:2.9200001 59:2.3299999 60:2.6199999 #
0.45025517558543715068708479520865 1:12 2:0 3:0 4:8 5:4 6:0 7:0 8:0 9:0 10:16 11:8 12:0 13:4 14:0 15:16 16:24 17:0 18:4 19:0 20:4 21:8 22:0 23:0 24:4 25:0 26:12 27:0 28:0 29:36 30:12 31:0 32:0 33:4 34:4 35:16 36:0 37:0 38:4 39:0 40:0 41:3.5699999 42:0 43:8.9300003 44:7.1399999 45:5.3600001 46:3.5699999 47:3.5699999 48:1.79 49:10.71 50:8.9300003 51:3.5699999 52:3.5699999 53:3.5699999 54:3.5699999 55:5.3600001 56:7.1399999 57:5.3600001 58:5.3600001 59:1.79 60:7.1399999 #
-1.9516589722300465847837358523975 1:16 2:0 3:0 4:16 5:0 6:0 7:0 8:0 9:4 10:12 11:4 12:0 13:0 14:4 15:32 16:4 17:0 18:0 19:0 20:8 21:12 22:0 23:4 24:8 25:4 26:0 27:4 28:0 29:4 30:4 31:0 32:4 33:4 34:0 35:12 36:4 37:16 38:8 39:8 40:4 41:5.3899999 42:0.82999998 43:6.2199998 44:7.8800001 45:4.1500001 46:7.0500002 47:4.98 48:3.73 49:4.98 50:10.79 51:2.49 52:2.49 53:4.98 54:2.0699999 55:9.96 56:4.98 57:5.8099999 58:8.3000002 59:0.41 60:2.49 #
-1.9516589722300465847837358523975 1:12 2:0 3:0 4:0 5:0 6:0 7:4 8:0 9:4 10:4 11:4 12:8 13:0 14:4 15:24 16:20 17:4 18:8 19:4 20:0 21:12 22:0 23:8 24:12 25:8 26:4 27:8 28:4 29:0 30:0 31:4 32:8 33:0 34:4 35:16 36:0 37:0 38:8 39:0 40:4 41:6.1700001 42:0.88 43:3.4200001 44:8.3800001 45:2.76 46:7.7199998 47:1.1 48:3.3099999 49:3.4200001 50:8.1599998 51:1.87 52:2.54 53:12.35 54:2.98 55:5.0700002 56:12.02 57:7.8299999 58:6.6199999 59:1.1 60:2.3199999 #
-1.9516589722300465847837358523975 1:4 2:0 3:0 4:4 5:0 6:0 7:0 8:8 9:12 10:0 11:4 12:0 13:0 14:4 15:20 16:28 17:8 18:8 19:0 20:0 21:8 22:4 23:0 24:4 25:4 26:0 27:0 28:0 29:12 30:4 31:4 32:12 33:0 34:4 35:12 36:0 37:8 38:8 39:12 40:4 41:2.45 42:2.1300001 43:5.8899999 44:7.5300002 45:4.9099998 46:3.1099999 47:3.27 48:7.3600001 49:8.5100002 50:8.3500004 51:2.1300001 52:7.6900001 53:3.5999999 54:2.95 55:3.4400001 56:8.8400002 57:8.0200005 58:5.8899999 59:0.81999999 60:3.1099999 #
23.459494269134054889036633539945 1:12 2:16 3:4 4:4 5:0 6:4 7:0 8:4 9:4 10:4 11:8 12:0 13:24 14:0 15:4 16:0 17:0 18:8 19:0 20:4 21:16 22:0 23:4 24:8 25:4 26:16 27:4 28:0 29:8 30:24 31:0 32:4 33:0 34:0 35:0 36:8 37:0 38:4 39:0 40:0 41:5.71 42:2.8599999 43:5.71 44:4.0799999 45:6.5300002 46:11.43 47:0.81999999 48:4.4899998 49:8.1599998 50:6.5300002 51:0.41 52:5.71 53:1.63 54:2.8599999 55:2.45 56:8.5699997 57:11.43 58:5.3099999 59:1.63 60:3.6700001 #
-1.9516589722300465847837358523975 1:0 2:0 3:8 4:0 5:16 6:8 7:4 8:0 9:0 10:8 11:4 12:4 13:4 14:4 15:0 16:12 17:8 18:8 19:4 20:8 21:12 22:8 23:0 24:12 25:0 26:16 27:4 28:0 29:4 30:0 31:0 32:0 33:4 34:8 35:8 36:12 37:8 38:4 39:0 40:0 41:7.0900002 42:3.04 43:2.3599999 44:4.0500002 45:6.0799999 46:7.0900002 47:2.3599999 48:4.0500002 49:1.6900001 50:17.23 51:1.35 52:2.3599999 53:4.3899999 54:3.72 55:6.0799999 56:7.4299998 57:3.72 58:9.8000002 59:2.3599999 60:3.72 #
25.371566638990604047876331605949 1:32 2:0 3:8 4:8 5:0 6:12 7:0 8:0 9:4 10:8 11:4 12:0 13:12 14:4 15:0 16:4 17:0 18:4 19:0 20:0 21:4 22:0 23:0 24:0 25:0 26:24 27:0 28:8 29:4 30:20 31:4 32:4 33:16 34:4 35:0 36:8 37:4 38:0 39:0 40:0 41:6.52 42:0 43:5.4299998 44:16.299999 45:6.52 46:3.26 47:0 48:2.1700001 49:3.26 50:13.04 51:4.3499999 52:0 53:3.26 54:8.6999998 55:6.52 56:5.4299998 57:6.52 58:5.4299998 59:2.1700001 60:1.09 #
-1.9516589722300465847837358523975 1:16 2:0 3:0 4:0 5:0 6:8 7:4 8:0 9:0 10:12 11:4 12:4 13:12 14:0 15:12 16:4 17:4 18:4 19:12 20:4 21:8 22:0 23:4 24:4 25:8 26:12 27:0 28:4 29:16 30:4 31:0 32:0 33:4 34:0 35:0 36:8 37:20 38:0 39:0 40:8 41:10.27 42:2.05 43:3.4200001 44:1.37 45:6.8499999 46:6.8499999 47:1.37 48:2.74 49:2.74 50:13.7 51:1.37 52:3.4200001 53:3.4200001 54:7.5300002 55:6.1599998 56:5.48 57:4.79 58:8.8999996 59:4.1100001 60:3.4200001 #
-1.9516589722300465847837358523975 1:12 2:0 3:0 4:0 5:4 6:20 7:0 8:4 9:0 10:28 11:4 12:0 13:4 14:4 15:0 16:12 17:0 18:0 19:8 20:0 21:4 22:0 23:0 24:4 25:12 26:16 27:0 28:4 29:8 30:12 31:4 32:0 33:0 34:4 35:4 36:12 37:16 38:0 39:0 40:0 41:11.01 42:1.33 43:5.0100002 44:9.0100002 45:2.8900001 46:6.4499998 47:3.78 48:1.89 49:4.1199999 50:11.79 51:1.45 52:2.78 53:4.6700001 54:7.3400002 55:6.1199999 56:6.3400002 57:4.8899999 58:6.6700001 59:0.88999999 60:1.5599999 #
-1.9516589722300465847837358523975 1:16 2:8 3:0 4:0 5:0 6:8 7:4 8:0 9:0 10:12 11:4 12:0 13:16 14:0 15:12 16:8 17:0 18:4 19:8 20:0 21:4 22:0 23:0 24:12 25:0 26:12 27:4 28:4 29:16 30:8 31:0 32:0 33:4 34:4 35:4 36:16 37:12 38:0 39:0 40:0 41:8.0200005 42:1.23 43:5.5599999 44:8.0200005 45:3.7 46:3.0899999 47:1.23 48:6.79 49:5.5599999 50:6.79 51:3.0899999 52:5.5599999 53:3.7 54:6.1700001 55:4.9400001 56:6.1700001 57:4.9400001 58:12.35 59:1.85 60:1.23 #
25.371566638990604047876331605949 1:0 2:0 3:4 4:0 5:8 6:0 7:8 8:4 9:8 10:0 11:4 12:4 13:0 14:0 15:8 16:16 17:28 18:4 19:0 20:4 21:4 22:8 23:0 24:16 25:16 26:12 27:0 28:0 29:0 30:8 31:4 32:0 33:0 34:8 35:20 36:0 37:0 38:0 39:0 40:4 41:8.4799995 42:0.61000001 43:4.8499999 44:10.3 45:0 46:5.4499998 47:0 48:8.4799995 49:6.0599999 50:7.27 51:2.4200001 52:4.8499999 53:4.8499999 54:4.2399998 55:9.0900002 56:6.6700001 57:6.0599999 58:4.8499999 59:2.4200001 60:3.03 #
25.371566638990604047876331605949 1:12 2:0 3:8 4:12 5:0 6:0 7:4 8:0 9:8 10:8 11:4 12:4 13:4 14:12 15:0 16:8 17:4 18:8 19:0 20:4 21:0 22:4 23:4 24:12 25:4 26:8 27:0 28:0 29:0 30:8 31:0 32:8 33:16 34:4 35:8 36:8 37:4 38:4 39:8 40:0 41:16.309999 42:2.1300001 43:4.96 44:21.280001 45:3.55 46:0.70999998 47:1.42 48:0.70999998 49:6.3800001 50:0.70999998 51:0 52:3.55 53:7.0900002 54:2.1300001 55:3.55 56:5.6700001 57:8.5100002 58:9.2200003 59:0 60:2.1300001 #
-1.9516589722300465847837358523975 1:12 2:4 3:8 4:8 5:4 6:8 7:0 8:0 9:8 10:12 11:4 12:4 13:12 14:4 15:4 16:0 17:4 18:0 19:0 20:4 21:8 22:0 23:4 24:0 25:4 26:4 27:0 28:0 29:12 30:12 31:0 32:4 33:12 34:4 35:4 36:20 37:0 38:4 39:4 40:4 41:8.1800003 42:1.5700001 43:5.5 44:6.5999999 45:3.9300001 46:4.4000001 47:2.3599999 48:3.9300001 49:6.4499998 50:12.42 51:2.8299999 52:3.1400001 53:3.6199999 54:6.29 55:4.5599999 56:7.6999998 57:5.8200002 58:6.9200001 59:0.79000002 60:2.99 #
-1.9516589722300465847837358523975 1:4 2:12 3:0 4:4 5:0 6:0 7:0 8:4 9:20 10:4 11:4 12:4 13:4 14:0 15:16 16:12 17:0 18:12 19:0 20:0 21:4 22:0 23:16 24:8 25:4 26:4 27:0 28:8 29:0 30:12 31:4 32:12 33:4 34:8 35:0 36:4 37:4 38:0 39:8 40:0 41:4.8499999 42:2.51 43:5.1799998 44:5.52 45:6.52 46:4.3499999 47:1.84 48:7.3600001 49:5.3499999 50:9.6999998 51:1.67 52:7.1900001 53:3.1800001 54:3.8499999 55:4.6799998 56:10.7 57:4.1799998 58:5.3499999 59:1.51 60:4.52 #
-1.9516589722300465847837358523975 1:4 2:0 3:0 4:4 5:12 6:4 7:0 8:4 9:0 10:12 11:4 12:8 13:4 14:0 15:0 16:24 17:4 18:12 19:0 20:4 21:12 22:4 23:12 24:12 25:4 26:4 27:0 28:4 29:4 30:12 31:4 32:12 33:0 34:0 35:4 36:4 37:0 38:0 39:8 40:0 41:5.73 42:1.27 43:3.1800001 44:12.1 45:1.91 46:7.6399999 47:1.91 48:3.8199999 49:7.0100002 50:7.0100002 51:2.55 52:1.27 53:3.1800001 54:7.0100002 55:7.6399999 56:5.73 57:3.8199999 58:10.83 59:2.55 60:3.8199999 #
-1.9516589722300465847837358523975 1:0 2:4 3:0 4:0 5:12 6:0 7:0 8:0 9:16 10:20 11:8 12:4 13:4 14:4 15:0 16:16 17:4 18:8 19:0 20:0 21:0 22:0 23:0 24:8 25:8 26:0 27:0 28:4 29:8 30:24 31:4 32:4 33:4 34:8 35:0 36:4 37:8 38:8 39:8 40:0 41:0 42:0 43:0 44:0 45:0 46:0 47:0 48:0 49:0 50:0 51:0 52:0 53:0 54:50 55:50 56:0 57:0 58:0 59:0 60:0 #
19.488033019189444416952028404921 1:28 2:0 3:0 4:0 5:0 6:4 7:0 8:8 9:4 10:4 11:4 12:4 13:0 14:4 15:8 16:16 17:0 18:4 19:4 20:8 21:12 22:0 23:4 24:4 25:4 26:4 27:0 28:4 29:8 30:0 31:0 32:4 33:8 34:8 35:4 36:8 37:20 38:0 39:0 40:8 41:8.3299999 42:0 43:0 44:8.3299999 45:0 46:0 47:0 48:0 49:8.3299999 50:25 51:0 52:8.3299999 53:0 54:8.3299999 55:0 56:8.3299999 57:16.67 58:8.3299999 59:0 60:0 #
-1.9516589722300465847837358523975 1:8 2:0 3:4 4:8 5:0 6:4 7:0 8:0 9:16 10:4 11:12 12:0 13:0 14:4 15:4 16:8 17:8 18:12 19:0 20:8 21:20 22:0 23:4 24:8 25:4 26:0 27:0 28:8 29:8 30:12 31:0 32:8 33:8 34:0 35:0 36:0 37:8 38:8 39:0 40:4 41:7.1799998 42:1.97 43:5.75 44:5.3899999 45:3.5899999 46:8.0799999 47:1.97 48:7 49:5.21 50:9.6899996 51:1.8 52:3.95 53:6.6399999 54:1.4400001 55:4.8499999 56:8.9799995 57:6.6399999 58:5.9200001 59:0.72000003 60:3.23 #
25.371566638990604047876331605949 1:0 2:8 3:0 4:4 5:4 6:4 7:0 8:8 9:8 10:24 11:4 12:4 13:0 14:4 15:0 16:4 17:12 18:8 19:0 20:4 21:0 22:0 23:8 24:20 25:0 26:0 27:0 28:8 29:0 30:4 31:4 32:0 33:0 34:4 35:0 36:12 37:32 38:4 39:0 40:4 41:5.6900001 42:1.33 43:6.4499998 44:10.44 45:5.5 46:3.23 47:2.28 48:6.0700002 49:10.44 50:5.8800001 51:1.52 52:4.9299998 53:1.33 54:4.3600001 55:5.1199999 56:7.5900002 57:6.8299999 58:6.8299999 59:1.14 60:3.04 #
-1.9516589722300465847837358523975 1:28 2:0 3:4 4:0 5:0 6:16 7:0 8:12 9:4 10:12 11:4 12:0 13:0 14:8 15:4 16:0 17:4 18:4 19:0 20:0 21:8 22:4 23:8 24:4 25:0 26:12 27:0 28:8 29:0 30:8 31:0 32:4 33:4 34:0 35:0 36:12 37:4 38:12 39:4 40:8 41:8.7200003 42:2.5599999 43:5.1300001 44:6.6700001 45:4.6199999 46:5.6399999 47:1.03 48:6.1500001 49:7.6900001 50:7.1799998 51:3.0799999 52:5.6399999 53:2.5599999 54:5.1300001 55:5.6399999 56:5.6399999 57:5.6399999 58:9.2299995 59:0.50999999 60:1.54 #
-1.9516589722300465847837358523975 1:8 2:0 3:0 4:4 5:0 6:0 7:0 8:12 9:20 10:4 11:12 12:0 13:8 14:0 15:4 16:0 17:12 18:8 19:4 20:4 21:0 22:0 23:4 24:12 25:0 26:8 27:4 28:12 29:12 30:8 31:4 32:0 33:4 34:8 35:4 36:16 37:4 38:0 39:0 40:0 41:3.27 42:2.45 43:2.6500001 44:4.0799999 45:7.3499999 46:9.1800003 47:1.22 48:12.24 49:4.9000001 50:12.86 51:3.47 52:4.0799999 53:4.29 54:2.24 55:2.45 56:7.3499999 57:5.9200001 58:4.6900001 59:2.45 60:2.8599999 #
-1.9516589722300465847837358523975 1:24 2:4 3:4 4:4 5:0 6:4 7:0 8:4 9:0 10:20 11:4 12:0 13:0 14:0 15:4 16:4 17:16 18:0 19:8 20:0 21:4 22:0 23:0 24:4 25:0 26:0 27:0 28:0 29:0 30:20 31:0 32:0 33:28 34:8 35:0 36:12 37:20 38:4 39:0 40:0 41:4.9499998 42:2.97 43:4.9499998 44:6.4400001 45:4.9499998 46:4.9499998 47:2.23 48:6.6799998 49:5.9400001 50:8.4200001 51:1.49 52:4.21 53:6.6799998 54:4.9499998 55:3.22 56:8.1700001 57:7.1799998 58:6.6799998 59:2.97 60:1.98 #
25.371566638990604047876331605949 1:0 2:0 3:0 4:4 5:4 6:0 7:4 8:0 9:0 10:16 11:8 12:8 13:20 14:0 15:0 16:28 17:4 18:4 19:0 20:0 21:20 22:0 23:8 24:8 25:12 26:4 27:0 28:0 29:8 30:4 31:0 32:0 33:4 34:8 35:4 36:4 37:4 38:8 39:0 40:4 41:5.5599999 42:2.22 43:4.4400001 44:10 45:5.5599999 46:3.3299999 47:2.22 48:3.3299999 49:3.3299999 50:12.22 51:2.22 52:2.22 53:8.8900003 54:7.7800002 55:5.5599999 56:8.8900003 57:1.11 58:4.4400001 59:5.5599999 60:1.11 #
6.3334213345963608077227036119439 1:0 2:0 3:0 4:4 5:12 6:4 7:0 8:4 9:4 10:12 11:12 12:4 13:4 14:0 15:4 16:8 17:4 18:16 19:4 20:4 21:8 22:0 23:0 24:20 25:4 26:0 27:0 28:4 29:16 30:12 31:0 32:0 33:0 34:20 35:8 36:8 37:0 38:0 39:0 40:0 41:3.8499999 42:0 43:3.8499999 44:19.23 45:3.8499999 46:3.8499999 47:0 48:0 49:7.6900001 50:3.8499999 51:0 52:0 53:3.8499999 54:15.38 55:15.38 56:0 57:0 58:7.6900001 59:7.6900001 60:3.8499999 #
25.371566638990604047876331605949 1:8 2:0 3:0 4:0 5:4 6:0 7:4 8:0 9:0 10:24 11:8 12:0 13:4 14:0 15:4 16:28 17:8 18:8 19:0 20:0 21:8 22:0 23:8 24:12 25:8 26:0 27:0 28:0 29:16 30:12 31:0 32:8 33:8 34:4 35:12 36:0 37:0 38:0 39:0 40:4 41:5.1700001 42:0.86000001 43:6.0300002 44:11.21 45:3.45 46:1.72 47:1.72 48:6.0300002 49:5.1700001 50:12.07 51:3.45 52:4.3099999 53:6.0300002 54:3.45 55:8.6199999 56:6.9000001 57:5.1700001 58:1.72 59:2.5899999 60:4.3099999 #
-1.9516589722300465847837358523975 1:8 2:0 3:0 4:4 5:8 6:8 7:0 8:4 9:0 10:12 11:4 12:8 13:8 14:4 15:4 16:16 17:4 18:4 19:0 20:4 21:0 22:0 23:4 24:12 25:4 26:0 27:0 28:0 29:24 30:4 31:4 32:4 33:0 34:16 35:20 36:0 37:4 38:4 39:0 40:0 41:5.0799999 42:0.85000002 43:3.1099999 44:7.3400002 45:7.9099998 46:3.1099999 47:1.98 48:6.21 49:8.1899996 50:11.3 51:1.98 52:8.4700003 53:3.1099999 54:5.0799999 55:3.95 56:8.1899996 57:4.52 58:5.3699999 59:1.13 60:3.1099999 #
-1.9516589722300465847837358523975 1:4 2:0 3:4 4:0 5:0 6:4 7:0 8:0 9:20 10:0 11:8 12:8 13:0 14:4 15:20 16:12 17:8 18:8 19:0 20:0 21:4 22:0 23:4 24:4 25:0 26:8 27:0 28:8 29:16 30:12 31:0 32:4 33:0 34:8 35:16 36:8 37:0 38:0 39:4 40:4 41:6.6300001 42:0 43:9.9399996 44:13.26 45:1.66 46:4.9699998 47:0.55000001 48:4.9699998 49:12.71 50:7.1799998 51:1.1 52:6.0799999 53:3.3099999 54:3.3099999 55:6.0799999 56:3.3099999 57:3.8699999 58:6.6300001 59:1.1 60:3.3099999 #
-1.9516589722300465847837358523975 1:4 2:0 3:0 4:12 5:8 6:20 7:0 8:8 9:0 10:4 11:8 12:0 13:8 14:0 15:0 16:8 17:4 18:0 19:8 20:8 21:8 22:4 23:0 24:8 25:0 26:0 27:0 28:4 29:12 30:20 31:4 32:0 33:8 34:4 35:4 36:8 37:0 38:8 39:0 40:8 41:7.4699998 42:2.4100001 43:5.7800002 44:7.71 45:3.8599999 46:5.54 47:1.9299999 48:3.6099999 49:4.3400002 50:12.77 51:2.1700001 52:2.4100001 53:6.02 54:5.0599999 55:5.0599999 56:5.54 57:6.02 58:6.9899998 59:0.47999999 60:4.8200002 #
25.371566638990604047876331605949 1:0 2:0 3:8 4:0 5:4 6:0 7:8 8:4 9:20 10:8 11:4 12:8 13:0 14:0 15:0 16:12 17:12 18:8 19:4 20:0 21:8 22:0 23:0 24:0 25:0 26:0 27:0 28:0 29:4 30:4 31:0 32:0 33:40 34:8 35:0 36:12 37:20 38:4 39:0 40:0 41:1.61 42:3.23 43:9.6800003 44:4.8400002 45:3.23 46:8.0600004 47:0 48:9.6800003 49:3.23 50:9.6800003 51:3.23 52:6.4499998 53:4.8400002 54:3.23 55:9.6800003 56:0 57:8.0600004 58:8.0600004 59:0 60:3.23 #
22.316083348020793408750250819139 1:56 2:0 3:4 4:0 5:0 6:4 7:0 8:0 9:0 10:4 11:8 12:0 13:16 14:4 15:0 16:0 17:4 18:0 19:0 20:0 21:8 22:4 23:0 24:4 25:12 26:0 27:4 28:8 29:4 30:8 31:4 32:4 33:4 34:8 35:4 36:4 37:8 38:4 39:0 40:8 41:7.8000002 42:1.77 43:2.1300001 44:2.1300001 45:6.0300002 46:12.06 47:4.6100001 48:4.96 49:5.3200002 50:10.64 51:4.2600002 52:2.1300001 53:4.2600002 54:2.1300001 55:6.0300002 56:4.2600002 57:7.4499998 58:6.7399998 59:0.34999999 60:4.96 #
15.630028377746441492490703240037 1:8 2:8 3:0 4:0 5:4 6:4 7:0 8:0 9:12 10:12 11:16 12:8 13:0 14:0 15:0 16:8 17:8 18:8 19:0 20:4 21:12 22:0 23:0 24:4 25:8 26:0 27:0 28:0 29:8 30:16 31:0 32:0 33:0 34:8 35:12 36:20 37:0 38:0 39:0 40:12 41:4.21 42:0.52999997 43:4.4699998 44:5.2600002 45:3.95 46:6.0500002 47:2.1099999 48:7.3699999 49:10.79 50:9.7399998 51:1.84 52:10.53 53:3.1600001 54:4.7399998 55:5 56:7.8899999 57:4.4699998 58:5.2600002 59:0.79000002 60:1.84 #
-1.9516589722300465847837358523975 1:12 2:4 3:0 4:4 5:0 6:0 7:4 8:0 9:0 10:16 11:4 12:0 13:12 14:0 15:24 16:8 17:0 18:8 19:0 20:4 21:20 22:0 23:8 24:4 25:4 26:4 27:0 28:4 29:4 30:16 31:0 32:4 33:12 34:0 35:0 36:4 37:16 38:0 39:0 40:0 41:8.4099998 42:2.5899999 43:2.96 44:3.97 45:4.25 46:6.8400002 47:3.05 48:2.03 49:3.5999999 50:12.85 51:1.02 52:1.85 53:7.4899998 54:4.3400002 55:11 56:6.6500001 57:4.9899998 58:7.9499998 59:1.66 60:2.5 #
-1.9516589722300465847837358523975 1:24 2:8 3:0 4:0 5:0 6:0 7:4 8:0 9:4 10:4 11:4 12:0 13:4 14:0 15:20 16:12 17:8 18:8 19:0 20:0 21:16 22:0 23:0 24:0 25:8 26:28 27:0 28:0 29:28 30:0 31:0 32:0 33:4 34:0 35:0 36:4 37:8 38:4 39:0 40:0 41:20.27 42:0 43:4.73 44:5.4099998 45:5.4099998 46:7.4299998 47:0 48:2.03 49:6.7600002 50:6.0799999 51:0.68000001 52:4.0500002 53:9.46 54:4.0500002 55:2.7 56:5.4099998 57:3.3800001 58:10.14 59:0.68000001 60:1.35 #
-1.9516589722300465847837358523975 1:12 2:0 3:0 4:0 5:4 6:4 7:4 8:0 9:0 10:24 11:4 12:0 13:8 14:0 15:16 16:8 17:4 18:4 19:4 20:4 21:8 22:0 23:0 24:4 25:12 26:4 27:4 28:4 29:12 30:16 31:8 32:4 33:12 34:0 35:4 36:0 37:4 38:4 39:0 40:0 41:5.8800001 42:1.4400001 43:4.8499999 44:9.29 45:5.3699999 46:4.6399999 47:3.2 48:5.8800001 49:7.6399999 50:10.94 51:2.27 52:4.8499999 53:5.5700002 54:4.4400001 55:4.23 56:5.0599999 57:4.23 58:4.75 59:0.93000001 60:4.54 #
25.371566638990604047876331605949 1:0 2:0 3:12 4:12 5:0 6:4 7:4 8:0 9:8 10:4 11:4 12:0 13:8 14:8 15:4 16:8 17:12 18:8 19:4 20:0 21:12 22:4 23:4 24:16 25:0 26:4 27:8 28:0 29:0 30:4 31:4 32:0 33:0 34:24 35:16 36:4 37:0 38:0 39:0 40:0 41:13.51 42:8.1099997 43:5.4099998 44:2.7 45:5.4099998 46:2.7 47:5.4099998 48:2.7 49:2.7 50:2.7 51:2.7 52:0 53:2.7 54:21.620001 55:5.4099998 56:8.1099997 57:0 58:5.4099998 59:2.7 60:0 #
6.117335570680507927932012535166 1:8 2:8 3:0 4:0 5:12 6:16 7:4 8:4 9:8 10:0 11:4 12:0 13:4 14:4 15:8 16:8 17:4 18:4 19:4 20:0 21:8 22:0 23:4 24:8 25:0 26:0 27:0 28:4 29:16 30:8 31:0 32:0 33:0 34:8 35:28 36:4 37:0 38:0 39:8 40:4 41:5.52 42:0.69 43:3.45 44:4.8299999 45:2.0699999 46:5.52 47:2.0699999 48:5.52 49:8.9700003 50:6.21 51:3.45 52:4.1399999 53:6.9000001 54:6.21 55:5.52 56:10.34 57:6.9000001 58:6.21 59:0 60:5.52 #
25.371566638990604047876331605949 1:4 2:0 3:4 4:0 5:4 6:8 7:0 8:4 9:8 10:12 11:12 12:0 13:4 14:4 15:0 16:8 17:16 18:4 19:0 20:8 21:12 22:0 23:0 24:8 25:4 26:4 27:4 28:4 29:4 30:0 31:4 32:0 33:0 34:16 35:16 36:4 37:4 38:4 39:4 40:8 41:0 42:14.29 43:0 44:0 45:0 46:28.57 47:0 48:0 49:0 50:14.29 51:0 52:0 53:0 54:0 55:0 56:14.29 57:0 58:14.29 59:0 60:14.29 #
-1.9516589722300465847837358523975 1:0 2:0 3:0 4:0 5:20 6:32 7:0 8:0 9:4 10:0 11:4 12:4 13:4 14:4 15:0 16:8 17:20 18:0 19:0 20:0 21:8 22:0 23:8 24:12 25:0 26:4 27:0 28:0 29:0 30:20 31:4 32:0 33:4 34:4 35:8 36:12 37:4 38:4 39:0 40:8 41:6.6799998 42:1.13 43:4.4099998 44:5.77 45:4.4699998 46:8.21 47:2.49 48:3.45 49:4.8099999 50:10.36 51:1.53 52:4.8099999 53:6.2800002 54:4.8699999 55:4.02 56:10.19 57:8.8299999 58:4.4699998 59:1.25 60:1.98 #
-1.9516589722300465847837358523975 1:0 2:4 3:4 4:8 5:4 6:8 7:0 8:4 9:8 10:8 11:4 12:4 13:4 14:4 15:12 16:20 17:0 18:4 19:0 20:0 21:12 22:0 23:16 24:8 25:0 26:0 27:0 28:8 29:4 30:8 31:4 32:16 33:0 34:0 35:0 36:4 37:4 38:12 39:4 40:0 41:4.6100001 42:2.2 43:4.0100002 44:6.21 45:4.21 46:3.01 47:3.01 48:5.6100001 49:8.0200005 50:12.22 51:1.6 52:6.0100002 53:5.8099999 54:3.8099999 55:6.0100002 56:8.8199997 57:5.21 58:6.4099998 59:1.4 60:1.8 #
-1.9516589722300465847837358523975 1:4 2:0 3:4 4:4 5:4 6:16 7:0 8:12 9:12 10:4 11:8 12:8 13:4 14:8 15:0 16:4 17:8 18:0 19:0 20:0 21:4 22:0 23:0 24:12 25:8 26:0 27:4 28:4 29:8 30:20 31:0 32:12 33:0 34:4 35:8 36:8 37:0 38:8 39:0 40:0 41:4.6700001 42:1.0700001 43:4.0900002 44:7.1999998 45:3.7 46:8.5600004 47:2.4300001 48:9.2399998 49:5.54 50:10.02 51:1.85 52:3.99 53:4.77 54:4.96 55:6.52 56:6.8099999 57:4.1799998 58:5.7399998 59:1.0700001 60:3.5999999 #
-1.9516589722300465847837358523975 1:4 2:0 3:8 4:4 5:4 6:0 7:4 8:0 9:0 10:4 11:4 12:4 13:0 14:4 15:8 16:28 17:12 18:8 19:0 20:4 21:4 22:8 23:0 24:0 25:4 26:8 27:4 28:4 29:0 30:24 31:4 32:0 33:0 34:0 35:0 36:12 37:8 38:16 39:0 40:4 41:8.4700003 42:2.1199999 43:2.8199999 44:3.29 45:6.5900002 46:6.1199999 47:0.94 48:5.4099998 49:2.5899999 50:14.82 51:2.1199999 52:3.0599999 53:5.8800001 54:1.88 55:4.2399998 56:10.12 57:6.5900002 58:8 59:1.1799999 60:3.76 #
20.372516257795084015924658160657 1:20 2:8 3:0 4:0 5:8 6:0 7:0 8:4 9:8 10:12 11:8 12:0 13:4 14:4 15:12 16:4 17:0 18:8 19:0 20:0 21:0 22:0 23:4 24:0 25:8 26:44 27:0 28:8 29:8 30:0 31:4 32:4 33:0 34:4 35:0 36:16 37:0 38:0 39:0 40:0 41:10 42:1.91 43:5.5300002 44:6.8099999 45:4.04 46:11.49 47:2.3399999 48:2.98 49:7.8699999 50:3.8299999 51:1.0599999 52:3.1900001 53:4.2600002 54:5.1100001 55:6.5999999 56:6.1700001 57:6.3800001 58:6.3800001 59:0.63999999 60:3.4000001 #
-1.9516589722300465847837358523975 1:16 2:12 3:4 4:0 5:4 6:4 7:0 8:0 9:8 10:8 11:4 12:0 13:8 14:0 15:4 16:12 17:8 18:4 19:0 20:4 21:12 22:0 23:4 24:12 25:0 26:4 27:0 28:8 29:12 30:16 31:0 32:4 33:0 34:0 35:4 36:16 37:0 38:8 39:0 40:0 41:7.6199999 42:1.49 43:5.7600002 44:4.8299999 45:5.02 46:8.9200001 47:1.49 48:4.8299999 49:5.9499998 50:10.59 51:2.4200001 52:3.1600001 53:5.02 54:3.53 55:5.5799999 56:7.4299998 57:4.2800002 58:7.25 59:1.12 60:3.72 #
-1.9516589722300465847837358523975 1:20 2:0 3:0 4:0 5:16 6:0 7:0 8:8 9:4 10:8 11:4 12:4 13:8 14:8 15:0 16:8 17:12 18:0 19:0 20:0 21:12 22:8 23:0 24:4 25:0 26:4 27:4 28:8 29:4 30:4 31:4 32:0 33:0 34:0 35:4 36:20 37:12 38:4 39:0 40:8 41:6.8000002 42:5.1599998 43:6.4200001 44:5.79 45:3.53 46:7.4299998 47:2.02 48:3.9000001 49:9.5699997 50:7.8099999 51:1.89 52:5.29 53:4.6599998 54:4.0300002 55:3.1500001 56:7.3000002 57:4.9099998 58:6.0500002 59:1.26 60:3.02 #
-1.9516589722300465847837358523975 1:32 2:0 3:0 4:0 5:4 6:0 7:0 8:0 9:4 10:16 11:8 12:0 13:4 14:4 15:4 16:12 17:4 18:8 19:0 20:0 21:20 22:0 23:0 24:0 25:0 26:52 27:0 28:0 29:0 30:0 31:20 32:0 33:4 34:0 35:4 36:0 37:0 38:0 39:0 40:0 41:6.9299998 42:0 43:1.98 44:0.99000001 45:0.99000001 46:22.77 47:0.99000001 48:0.99000001 49:1.98 50:14.85 51:25.74 52:7.9200001 53:5.9400001 54:0 55:2.97 56:4.9499998 57:0 58:0 59:0 60:0 #
-1.9516589722300465847837358523975 1:64 2:0 3:0 4:4 5:0 6:12 7:0 8:0 9:0 10:4 11:4 12:0 13:0 14:0 15:0 16:0 17:0 18:12 19:0 20:0 21:12 22:0 23:8 24:12 25:0 26:8 27:8 28:4 29:8 30:12 31:0 32:0 33:4 34:0 35:4 36:8 37:0 38:0 39:4 40:8 41:9.9099998 42:2.6199999 43:4.3699999 44:7 45:2.04 46:8.4499998 47:2.04 48:4.96 49:10.2 50:4.96 51:2.04 52:3.21 53:6.1199999 54:4.6599998 55:9.3299999 56:6.4099998 57:4.3699999 58:4.0799999 59:0 60:3.21 #
25.371566638990604047876331605949 1:0 2:4 3:4 4:0 5:32 6:0 7:0 8:4 9:4 10:12 11:4 12:0 13:4 14:8 15:0 16:4 17:8 18:0 19:4 20:8 21:0 22:8 23:4 24:0 25:0 26:8 27:8 28:16 29:4 30:4 31:4 32:8 33:0 34:4 35:12 36:4 37:4 38:8 39:4 40:0 41:1.85 42:2.78 43:4.6300001 44:3.7 45:3.7 46:10.19 47:0.93000001 48:8.3299999 49:7.4099998 50:12.04 51:1.85 52:5.5599999 53:1.85 54:1.85 55:8.3299999 56:13.89 57:3.7 58:3.7 59:0.93000001 60:2.78 #
25.371566638990604047876331605949 1:20 2:0 3:0 4:4 5:0 6:0 7:0 8:8 9:4 10:12 11:4 12:0 13:20 14:4 15:0 16:12 17:12 18:0 19:0 20:0 21:8 22:0 23:8 24:4 25:0 26:12 27:0 28:0 29:0 30:28 31:4 32:8 33:8 34:20 35:0 36:0 37:0 38:0 39:0 40:0 41:6.8200002 42:1.1900001 43:5.04 44:4.1500001 45:6.23 46:8.0100002 47:1.1900001 48:4.1500001 49:5.3400002 50:9.5 51:1.1900001 52:5.9299998 53:3.8599999 54:6.5300002 55:2.97 56:10.09 57:6.8200002 58:6.8200002 59:0.88999999 60:3.26 #
1.0630265138912875499954679980874 1:0 2:8 3:0 4:0 5:12 6:0 7:0 8:8 9:4 10:16 11:4 12:12 13:4 14:8 15:8 16:0 17:8 18:0 19:0 20:8 21:4 22:0 23:12 24:4 25:8 26:4 27:0 28:4 29:4 30:20 31:0 32:12 33:0 34:0 35:4 36:4 37:12 38:0 39:0 40:8 41:5.1199999 42:1.99 43:6.1199999 44:3.4100001 45:5.4099998 46:4.4099998 47:2.5599999 48:6.1199999 49:7.54 50:8.5299997 51:0.85000002 52:5.8299999 53:5.8299999 54:3.4100001 55:6.1199999 56:9.5299997 57:5.9699998 58:5.6900001 59:0.85000002 60:4.6900001 #
-1.9516589722300465847837358523975 1:4 2:4 3:0 4:0 5:12 6:0 7:4 8:8 9:4 10:12 11:4 12:0 13:16 14:0 15:16 16:8 17:4 18:0 19:4 20:0 21:4 22:4 23:0 24:0 25:12 26:0 27:0 28:12 29:0 30:16 31:4 32:0 33:4 34:4 35:4 36:8 37:8 38:8 39:8 40:4 41:5.1599998 42:5.1599998 43:4.23 44:9.8599997 45:3.76 46:5.6300001 47:4.6900001 48:3.29 49:5.6300001 50:7.5100002 51:2.3499999 52:2.8199999 53:5.1599998 54:3.76 55:6.0999999 56:7.98 57:5.1599998 58:5.1599998 59:3.29 60:3.29 #
-1.9516589722300465847837358523975 1:8 2:4 3:4 4:0 5:8 6:4 7:0 8:8 9:0 10:8 11:4 12:0 13:8 14:0 15:20 16:4 17:4 18:8 19:4 20:4 21:0 22:0 23:0 24:4 25:8 26:0 27:8 28:8 29:8 30:16 31:8 32:0 33:4 34:16 35:4 36:0 37:8 38:4 39:4 40:0 41:2.23 42:2.4100001 43:4.27 44:7.79 45:3.1500001 46:7.2399998 47:2.78 48:4.0799999 49:8.1599998 50:9.6499996 51:2.04 52:5.1900001 53:4.4499998 54:4.0799999 55:7.98 56:9.2799997 57:5.9400001 58:5.1900001 59:1.3 60:2.78 #
-1.9516589722300465847837358523975 1:8 2:0 3:0 4:0 5:12 6:4 7:0 8:8 9:12 10:0 11:4 12:0 13:0 14:0 15:32 16:8 17:4 18:4 19:0 20:4 21:0 22:8 23:4 24:12 25:0 26:0 27:0 28:24 29:16 30:4 31:4 32:12 33:4 34:0 35:0 36:0 37:0 38:0 39:0 40:12 41:10.26 42:0 43:5.1300001 44:1.28 45:2.5599999 46:2.5599999 47:3.8499999 48:11.54 49:6.4099998 50:11.54 51:0 52:3.8499999 53:0 54:6.4099998 55:17.950001 56:3.8499999 57:3.8499999 58:2.5599999 59:1.28 60:5.1300001 #
25.371566638990604047876331605949 1:4 2:0 3:0 4:8 5:4 6:12 7:0 8:0 9:0 10:0 11:4 12:16 13:0 14:24 15:4 16:12 17:4 18:0 19:0 20:8 21:0 22:0 23:0 24:4 25:12 26:36 27:0 28:0 29:0 30:0 31:0 32:8 33:8 34:16 35:8 36:4 37:0 38:0 39:4 40:0 41:6.04 42:0 43:2.01 44:4.0300002 45:6.04 46:29.530001 47:3.3599999 48:2.01 49:3.3599999 50:2.6800001 51:0 52:12.08 53:8.0500002 54:8.0500002 55:2.6800001 56:5.3699999 57:0.67000002 58:2.01 59:0 60:2.01 #
9.2468913153086305101169273257256 1:16 2:0 3:0 4:0 5:4 6:0 7:0 8:0 9:0 10:8 11:4 12:0 13:4 14:4 15:16 16:32 17:8 18:4 19:0 20:0 21:8 22:0 23:0 24:8 25:4 26:48 27:0 28:0 29:4 30:0 31:16 32:0 33:4 34:0 35:0 36:4 37:0 38:4 39:0 40:0 41:10.7 42:0.55000001 43:6.27 44:7.3800001 45:2.5799999 46:9.4099998 47:0.37 48:7.75 49:7.3800001 50:9.04 51:0.92000002 52:3.51 53:2.95 54:2.95 55:4.6100001 56:5.54 57:8.1199999 58:8.8599997 59:0 60:1.11 #
25.371566638990604047876331605949 1:36 2:0 3:0 4:8 5:0 6:12 7:0 8:0 9:0 10:4 11:4 12:4 13:12 14:4 15:0 16:8 17:4 18:0 19:0 20:4 21:28 22:4 23:4 24:0 25:8 26:20 27:0 28:8 29:4 30:8 31:0 32:0 33:0 34:0 35:4 36:4 37:0 38:0 39:0 40:8 41:9.0299997 42:3.47 43:4.1700001 44:5.5599999 45:5.5599999 46:13.19 47:0 48:5.5599999 49:6.9400001 50:7.6399999 51:3.47 52:2.0799999 53:4.8600001 54:2.78 55:4.1700001 56:7.6399999 57:4.8600001 58:5.5599999 59:0.69 60:2.78 #
-1.9516589722300465847837358523975 1:0 2:0 3:0 4:0 5:4 6:68 7:0 8:0 9:0 10:16 11:0 12:0 13:0 14:0 15:0 16:0 17:0 18:0 19:0 20:12 21:12 22:0 23:0 24:4 25:4 26:4 27:8 28:8 29:8 30:12 31:0 32:0 33:12 34:4 35:0 36:8 37:8 38:4 39:0 40:4 41:17.280001 42:0 43:0 44:0 45:0 46:12.35 47:0 48:8.6400003 49:1.23 50:8.6400003 51:0 52:0 53:18.52 54:11.11 55:4.9400001 56:0 57:3.7 58:13.58 59:0 60:0 #
-1.9516589722300465847837358523975 1:8 2:0 3:0 4:0 5:0 6:20 7:0 8:0 9:0 10:20 11:4 12:0 13:20 14:4 15:12 16:8 17:0 18:4 19:0 20:0 21:4 22:0 23:20 24:4 25:4 26:8 27:4 28:0 29:0 30:8 31:0 32:0 33:12 34:0 35:20 36:4 37:8 38:0 39:0 40:4 41:4.7800002 42:5.9000001 43:5.3400002 44:7.02 45:2.53 46:12.64 47:1.97 48:3.3699999 49:6.46 50:7.02 51:1.97 52:2.53 53:10.96 54:3.3699999 55:5.9000001 56:5.6199999 57:5.6199999 58:2.25 59:0.28 60:4.4899998 #
-1.9516589722300465847837358523975 1:16 2:0 3:8 4:0 5:4 6:44 7:0 8:0 9:0 10:0 11:8 12:4 13:12 14:0 15:4 16:0 17:0 18:0 19:0 20:0 21:12 22:0 23:4 24:0 25:4 26:0 27:8 28:0 29:4 30:4 31:0 32:0 33:4 34:8 35:8 36:4 37:24 38:16 39:0 40:0 41:7.4099998 42:2.0599999 43:3.7 44:4.1199999 45:3.7 46:13.17 47:0.81999999 48:7 49:9.4700003 50:7.4099998 51:2.0599999 52:1.23 53:4.9400001 54:1.65 55:8.6400003 56:5.3499999 57:6.1700001 58:7 59:1.23 60:2.8800001 #
17.433468801998326824787000077777 1:8 2:0 3:4 4:0 5:4 6:0 7:8 8:8 9:8 10:16 11:4 12:4 13:4 14:0 15:12 16:8 17:4 18:4 19:0 20:4 21:4 22:4 23:8 24:20 25:16 26:0 27:0 28:4 29:4 30:20 31:0 32:8 33:4 34:0 35:0 36:4 37:4 38:0 39:0 40:0 41:3.5999999 42:1.4400001 43:5.7600002 44:3.5999999 45:5.04 46:5.04 47:3.24 48:8.2700005 49:6.8299999 50:12.23 51:2.52 52:7.1900001 53:5.4000001 54:3.96 55:5.04 56:7.9099998 57:3.24 58:4.3200002 59:0.72000003 60:4.6799998 #
14.471319157645716302340588299558 1:8 2:0 3:0 4:0 5:0 6:8 7:0 8:8 9:4 10:12 11:8 12:4 13:0 14:0 15:16 16:8 17:20 18:4 19:0 20:0 21:4 22:4 23:8 24:16 25:0 26:0 27:0 28:12 29:4 30:16 31:0 32:0 33:0 34:4 35:16 36:0 37:4 38:8 39:4 40:0 41:4.29 42:1.84 43:5.71 44:9.1800003 45:3.6700001 46:3.8800001 47:1.22 48:5.5100002 49:10.41 50:12.86 51:0.41 52:10.2 53:2.6500001 54:3.27 55:3.0599999 56:10.41 57:4.9000001 58:4.0799999 59:0.81999999 60:1.63 #
-1.9516589722300465847837358523975 1:4 2:0 3:0 4:4 5:8 6:4 7:4 8:4 9:4 10:16 11:4 12:4 13:12 14:4 15:0 16:12 17:8 18:8 19:0 20:0 21:4 22:0 23:20 24:12 25:16 26:8 27:0 28:4 29:0 30:0 31:0 32:4 33:8 34:0 35:12 36:4 37:8 38:0 39:0 40:0 41:8.1099997 42:0.76999998 43:3.8599999 44:3.0899999 45:1.54 46:5.02 47:1.16 48:7.3400002 49:3.0899999 50:7.3400002 51:1.9299999 52:8.1099997 53:5.02 54:5.4099998 55:3.47 56:9.2700005 57:8.8800001 58:8.1099997 59:1.54 60:6.9499998 #
-1.9516589722300465847837358523975 1:20 2:4 3:0 4:4 5:0 6:0 7:4 8:0 9:0 10:16 11:8 12:4 13:4 14:0 15:12 16:0 17:12 18:4 19:8 20:0 21:4 22:0 23:8 24:8 25:8 26:4 27:0 28:4 29:8 30:12 31:0 32:8 33:0 34:20 35:4 36:8 37:0 38:4 39:0 40:0 41:6.7399998 42:2.8900001 43:2.8900001 44:3.8499999 45:6.3600001 46:8.6700001 47:1.16 48:5.3899999 49:4.4299998 50:15.61 51:3.47 52:3.0799999 53:4.4299998 54:3.8499999 55:2.8900001 56:7.71 57:5.0100002 58:7.1300001 59:1.54 60:2.8900001 #
-1.9516589722300465847837358523975 1:12 2:0 3:4 4:0 5:4 6:8 7:0 8:0 9:4 10:28 11:4 12:0 13:0 14:0 15:4 16:0 17:4 18:12 19:8 20:8 21:4 22:0 23:4 24:24 25:4 26:8 27:0 28:0 29:0 30:12 31:0 32:4 33:0 34:16 35:8 36:8 37:0 38:4 39:0 40:4 41:7.9400001 42:1.27 43:2.22 44:2.8599999 45:9.21 46:8.25 47:2.54 48:5.0799999 49:3.49 50:20.950001 51:2.22 52:1.59 53:2.22 54:2.54 55:3.49 56:9.21 57:5.71 58:6.0300002 59:1.59 60:1.59 #
-1.9516589722300465847837358523975 1:4 2:0 3:0 4:16 5:12 6:4 7:0 8:4 9:8 10:12 11:4 12:0 13:0 14:0 15:4 16:0 17:16 18:8 19:0 20:8 21:0 22:4 23:0 24:12 25:0 26:0 27:0 28:0 29:16 30:24 31:0 32:12 33:0 34:4 35:4 36:16 37:0 38:0 39:4 40:4 41:5.8000002 42:2.1700001 43:3.6199999 44:7.25 45:5.0700002 46:8.6999998 47:2.9000001 48:4.3499999 49:9.4200001 50:12.32 51:1.45 52:6.52 53:3.6199999 54:2.9000001 55:4.3499999 56:4.3499999 57:5.0700002 58:6.52 59:0.72000003 60:2.9000001 #
25.371566638990604047876331605949 1:16 2:4 3:4 4:16 5:4 6:4 7:0 8:0 9:0 10:8 11:4 12:0 13:24 14:0 15:0 16:12 17:0 18:4 19:0 20:0 21:24 22:0 23:0 24:0 25:4 26:12 27:0 28:4 29:4 30:12 31:0 32:4 33:0 34:0 35:4 36:4 37:4 38:16 39:8 40:0 41:11.33 42:1.9299999 43:4.9699998 44:11.33 45:1.38 46:6.0799999 47:1.9299999 48:2.76 49:6.0799999 50:12.71 51:1.9299999 52:2.76 53:7.73 54:4.4200001 55:4.4200001 56:5.25 57:4.1399999 58:6.0799999 59:0.55000001 60:2.21 #
18.113224607485214789903693599626 1:4 2:0 3:0 4:12 5:4 6:8 7:0 8:8 9:4 10:4 11:4 12:0 13:28 14:0 15:0 16:8 17:4 18:12 19:0 20:0 21:24 22:0 23:0 24:0 25:4 26:8 27:0 28:8 29:4 30:12 31:4 32:0 33:4 34:4 35:8 36:4 37:8 38:8 39:0 40:0 41:7.1399999 42:1.79 43:0 44:5.3600001 45:5.3600001 46:5.3600001 47:1.79 48:1.79 49:5.3600001 50:7.1399999 51:3.5699999 52:5.3600001 53:7.1399999 54:3.5699999 55:10.71 56:7.1399999 57:8.9300003 58:7.1399999 59:0 60:5.3600001 #
25.371566638990604047876331605949 1:8 2:0 3:0 4:0 5:0 6:12 7:0 8:0 9:4 10:4 11:4 12:0 13:40 14:0 15:0 16:8 17:0 18:4 19:0 20:16 21:12 22:0 23:4 24:4 25:12 26:16 27:0 28:8 29:4 30:8 31:4 32:0 33:4 34:0 35:4 36:8 37:8 38:0 39:0 40:4 41:7.3200002 42:5.2800002 43:4.8800001 44:5.6900001 45:4.4699998 46:9.7600002 47:2.03 48:2.8499999 49:2.8499999 50:10.57 51:0.81 52:1.22 53:12.2 54:5.6900001 55:6.0999999 56:3.25 57:4.8800001 58:8.1300001 59:1.63 60:0.41 #
-1.9516589722300465847837358523975 1:8 2:0 3:4 4:0 5:4 6:4 7:8 8:4 9:0 10:8 11:12 12:0 13:16 14:0 15:8 16:12 17:4 18:4 19:0 20:4 21:8 22:0 23:4 24:8 25:0 26:4 27:0 28:4 29:4 30:12 31:0 32:0 33:8 34:8 35:12 36:24 37:0 38:4 39:0 40:0 41:13.85 42:1.01 43:4.4699998 44:5.3400002 45:4.7600002 46:6.9299998 47:3.1700001 48:2.45 49:5.3400002 50:8.5100002 51:3.03 52:2.5999999 53:8.0799999 54:3.3199999 55:4.6199999 56:10.53 57:5.77 58:3.75 59:0.57999998 60:1.88 #
-1.9516589722300465847837358523975 1:12 2:0 3:0 4:8 5:0 6:4 7:4 8:0 9:8 10:8 11:8 12:4 13:12 14:0 15:0 16:28 17:0 18:0 19:4 20:0 21:0 22:0 23:0 24:0 25:4 26:8 27:0 28:8 29:40 30:4 31:0 32:4 33:0 34:0 35:8 36:4 37:8 38:8 39:0 40:4 41:7.9899998 42:1.42 43:4.25 44:3.99 45:6.8299999 46:7.0900002 47:3.22 48:6.4400001 49:3.99 50:9.6599998 51:2.96 52:3.99 53:3.99 54:2.5799999 55:4.6399999 56:6.6999998 57:5.8000002 58:6.6999998 59:2.71 60:5.0300002 #
-1.9516589722300465847837358523975 1:0 2:0 3:8 4:4 5:0 6:8 7:0 8:0 9:24 10:8 11:8 12:0 13:8 14:20 15:4 16:8 17:0 18:0 19:0 20:0 21:8 22:0 23:0 24:0 25:0 26:20 27:0 28:4 29:32 30:8 31:8 32:4 33:4 34:0 35:0 36:8 37:0 38:4 39:0 40:0 41:35.709999 42:0 43:14.29 44:7.1399999 45:7.1399999 46:0 47:0 48:7.1399999 49:21.43 50:0 51:0 52:0 53:0 54:7.1399999 55:0 56:0 57:0 58:0 59:0 60:0 #
25.371566638990604047876331605949 1:12 2:0 3:8 4:4 5:4 6:0 7:0 8:8 9:8 10:8 11:4 12:0 13:0 14:0 15:0 16:0 17:28 18:12 19:4 20:0 21:8 22:0 23:8 24:8 25:8 26:0 27:0 28:0 29:8 30:8 31:0 32:0 33:0 34:8 35:12 36:8 37:0 38:12 39:0 40:12 41:4.0300002 42:1.26 43:6.3000002 44:6.0500002 45:2.27 46:6.8000002 47:1.26 48:6.5500002 49:8.8199997 50:10.08 51:1.01 52:4.5300002 53:5.04 54:4.5300002 55:5.29 56:7.8099999 57:5.04 58:9.3199997 59:1.76 60:2.27 #
25.371566638990604047876331605949 1:16 2:4 3:4 4:0 5:4 6:4 7:4 8:4 9:0 10:12 11:8 12:0 13:4 14:8 15:12 16:0 17:4 18:4 19:8 20:0 21:4 22:0 23:56 24:36 25:0 26:0 27:0 28:0 29:0 30:0 31:0 32:4 33:0 34:0 35:0 36:0 37:0 38:0 39:0 40:0 41:3.02 42:2.72 43:6.04 44:9.6700001 45:2.72 46:4.5300002 47:1.51 48:4.5300002 49:6.9499998 50:14.2 51:1.8099999 52:3.3199999 53:3.9300001 54:6.6500001 55:6.9499998 56:7.5500002 57:4.8299999 58:6.04 59:0 60:3.02 #
25.371566638990604047876331605949 1:28 2:8 3:0 4:0 5:0 6:4 7:0 8:4 9:4 10:4 11:4 12:0 13:0 14:0 15:4 16:4 17:8 18:28 19:0 20:0 21:16 22:0 23:8 24:12 25:0 26:8 27:4 28:0 29:0 30:16 31:0 32:0 33:0 34:4 35:0 36:20 37:4 38:4 39:0 40:4 41:7.0799999 42:0.44 43:6.1900001 44:7.0799999 45:4.1999998 46:8.8500004 47:2.4300001 48:6.4200001 49:7.0799999 50:10.62 51:3.76 52:2.6500001 53:3.76 54:1.55 55:4.6500001 56:7.7399998 57:4.6500001 58:8.1899996 59:0.88 60:1.77 #
-1.9516589722300465847837358523975 1:8 2:4 3:4 4:8 5:0 6:28 7:0 8:0 9:8 10:0 11:4 12:0 13:8 14:0 15:4 16:12 17:8 18:4 19:0 20:0 21:12 22:0 23:4 24:16 25:8 26:0 27:4 28:0 29:16 30:8 31:8 32:0 33:0 34:4 35:8 36:4 37:4 38:0 39:0 40:4 41:4.3800001 42:1.46 43:5.8400002 44:11.68 45:2.1900001 46:3.6500001 47:5.8400002 48:4.3800001 49:7.3000002 50:10.95 51:3.6500001 52:4.3800001 53:2.1900001 54:7.3000002 55:9.4899998 56:5.1100001 57:3.6500001 58:5.1100001 59:0.73000002 60:0.73000002 #
-1.9516589722300465847837358523975 1:32 2:0 3:0 4:0 5:4 6:12 7:0 8:0 9:0 10:24 11:4 12:0 13:0 14:0 15:8 16:8 17:0 18:8 19:0 20:0 21:20 22:0 23:4 24:4 25:4 26:4 27:0 28:4 29:0 30:20 31:0 32:0 33:0 34:12 35:8 36:8 37:4 38:8 39:0 40:0 41:5.8099999 42:1.74 43:3.49 44:4.0700002 45:6.4000001 46:6.98 47:1.74 48:6.4000001 49:0 50:15.7 51:3.49 52:1.74 53:2.9100001 54:4.6500001 55:6.98 56:10.47 57:6.4000001 58:6.4000001 59:2.9100001 60:1.74 #
-1.9516589722300465847837358523975 1:12 2:0 3:8 4:0 5:4 6:8 7:4 8:8 9:0 10:24 11:4 12:0 13:4 14:0 15:4 16:12 17:4 18:0 19:4 20:0 21:12 22:0 23:4 24:4 25:0 26:4 27:0 28:0 29:0 30:20 31:0 32:0 33:4 34:8 35:40 36:4 37:0 38:0 39:0 40:0 41:3.45 42:3.45 43:1.72 44:3.45 45:0 46:8.6199999 47:3.45 48:3.45 49:6.9000001 50:10.34 51:0 52:0 53:5.1700001 54:5.1700001 55:17.24 56:12.07 57:6.9000001 58:1.72 59:1.72 60:5.1700001 #
24.820170571954108140744210686535 1:8 2:8 3:4 4:8 5:0 6:4 7:0 8:0 9:12 10:8 11:4 12:4 13:24 14:4 15:0 16:8 17:0 18:4 19:0 20:0 21:8 22:8 23:0 24:20 25:4 26:12 27:12 28:8 29:12 30:8 31:4 32:0 33:0 34:0 35:4 36:0 37:0 38:0 39:0 40:0 41:15.38 42:15.38 43:7.6900001 44:7.6900001 45:0 46:0 47:0 48:15.38 49:15.38 50:0 51:0 52:0 53:7.6900001 54:0 55:7.6900001 56:0 57:7.6900001 58:0 59:0 60:0 #
25.371566638990604047876331605949 1:8 2:12 3:4 4:8 5:0 6:0 7:0 8:4 9:12 10:4 11:8 12:4 13:8 14:20 15:0 16:4 17:0 18:0 19:0 20:4 21:4 22:4 23:0 24:20 25:4 26:8 27:0 28:0 29:16 30:4 31:0 32:4 33:0 34:0 35:8 36:16 37:4 38:8 39:0 40:0 41:11.11 42:16.67 43:0 44:5.5599999 45:0 46:0 47:0 48:5.5599999 49:11.11 50:5.5599999 51:0 52:0 53:5.5599999 54:16.67 55:5.5599999 56:5.5599999 57:0 58:5.5599999 59:0 60:5.5599999 #
-1.9516589722300465847837358523975 1:0 2:0 3:0 4:4 5:20 6:4 7:0 8:0 9:8 10:32 11:8 12:4 13:0 14:0 15:4 16:8 17:4 18:4 19:0 20:0 21:4 22:0 23:4 24:0 25:0 26:0 27:0 28:8 29:8 30:16 31:4 32:0 33:8 34:8 35:16 36:12 37:4 38:8 39:0 40:0 41:5.0999999 42:1.63 43:5.71 44:6.1199999 45:3.8800001 46:8.1599998 47:2.8599999 48:6.73 49:5.3099999 50:11.63 51:1.4299999 52:4.0799999 53:3.27 54:1.84 55:3.8800001 56:11.63 57:3.0599999 58:8.9799995 59:1.4299999 60:3.27 #
-1.9516589722300465847837358523975 1:0 2:0 3:4 4:4 5:4 6:0 7:8 8:4 9:4 10:12 11:4 12:4 13:8 14:4 15:0 16:12 17:0 18:28 19:0 20:0 21:8 22:0 23:16 24:12 25:0 26:20 27:0 28:0 29:36 30:0 31:0 32:0 33:0 34:0 35:4 36:4 37:0 38:0 39:0 40:0 41:4.5100002 42:0.69 43:8.6800003 44:6.5999999 45:2.4300001 46:6.25 47:2.78 48:5.9000001 49:9.0299997 50:9.0299997 51:2.78 52:6.9400001 53:3.1199999 54:4.1700001 55:4.1700001 56:5.9000001 57:4.1700001 58:8.6800003 59:1.04 60:3.1199999 #
-1.9516589722300465847837358523975 1:8 2:0 3:0 4:4 5:0 6:8 7:0 8:4 9:12 10:4 11:8 12:0 13:0 14:4 15:12 16:12 17:4 18:12 19:0 20:8 21:0 22:0 23:4 24:20 25:12 26:4 27:0 28:0 29:24 30:8 31:0 32:4 33:4 34:0 35:4 36:0 37:0 38:4 39:4 40:8 41:2.8399999 42:2.8399999 43:4.2600002 44:21.280001 45:2.8399999 46:4.2600002 47:0.70999998 48:2.1300001 49:11.35 50:5.6700001 51:2.8399999 52:2.8399999 53:0.70999998 54:0.70999998 55:5.6700001 56:13.48 57:6.3800001 58:6.3800001 59:0 60:2.8399999 #
-1.9516589722300465847837358523975 1:0 2:4 3:8 4:4 5:0 6:4 7:0 8:0 9:4 10:12 11:8 12:0 13:8 14:0 15:16 16:12 17:16 18:4 19:0 20:0 21:12 22:4 23:16 24:4 25:0 26:20 27:0 28:0 29:4 30:8 31:4 32:0 33:0 34:4 35:0 36:12 37:8 38:0 39:0 40:4 41:9.4200001 42:1.37 43:4.02 44:4.3299999 45:2.51 46:9.5699997 47:5.3200002 48:3.1900001 49:5.0900002 50:7.1399999 51:1.8200001 52:4.9400001 53:7.29 54:4.7800002 55:5.1599998 56:10.48 57:6 58:4.5599999 59:0.46000001 60:2.5799999 #
7.2641054793557202629017410799861 1:32 2:0 3:0 4:0 5:0 6:4 7:0 8:8 9:0 10:4 11:4 12:0 13:0 14:4 15:8 16:24 17:4 18:8 19:0 20:0 21:20 22:0 23:0 24:4 25:0 26:4 27:8 28:0 29:8 30:16 31:0 32:4 33:8 34:0 35:8 36:8 37:8 38:0 39:0 40:4 41:12.5 42:0 43:0 44:4.1700001 45:12.5 46:4.1700001 47:0 48:4.1700001 49:8.3299999 50:0 51:4.1700001 52:8.3299999 53:4.1700001 54:0 55:8.3299999 56:20.83 57:4.1700001 58:0 59:0 60:4.1700001 #
25.371566638990604047876331605949 1:12 2:0 3:20 4:0 5:4 6:12 7:0 8:0 9:0 10:4 11:4 12:0 13:20 14:4 15:0 16:8 17:8 18:4 19:0 20:0 21:4 22:0 23:8 24:0 25:0 26:8 27:0 28:8 29:0 30:4 31:0 32:0 33:8 34:4 35:16 36:12 37:8 38:20 39:0 40:0 41:9 42:1.67 43:3.77 44:3.3499999 45:5.8600001 46:9.8299999 47:1.46 48:6.0700002 49:0.83999997 50:15.06 51:1.46 52:2.0899999 53:5.8600001 54:1.88 55:6.2800002 56:9 57:4.3899999 58:7.7399998 59:1.88 60:2.51 #
25.371566638990604047876331605949 1:12 2:0 3:4 4:0 5:4 6:0 7:4 8:4 9:12 10:12 11:8 12:4 13:8 14:0 15:4 16:12 17:4 18:4 19:4 20:0 21:16 22:0 23:0 24:12 25:0 26:4 27:0 28:0 29:4 30:24 31:0 32:0 33:8 34:4 35:12 36:4 37:4 38:4 39:0 40:4 41:5.48 42:0 43:10.96 44:5.48 45:1.37 46:1.37 47:2.74 48:1.37 49:2.74 50:16.440001 51:6.8499999 52:5.48 53:5.48 54:6.8499999 55:12.33 56:4.1100001 57:1.37 58:2.74 59:0 60:6.8499999 #
-1.9516589722300465847837358523975 1:36 2:0 3:0 4:0 5:0 6:8 7:4 8:8 9:0 10:0 11:8 12:0 13:8 14:0 15:4 16:12 17:8 18:4 19:0 20:0 21:4 22:0 23:8 24:0 25:4 26:4 27:8 28:8 29:0 30:12 31:0 32:8 33:8 34:0 35:0 36:16 37:16 38:0 39:4 40:0 41:11.25 42:0.41999999 43:6.25 44:5.4200001 45:6.25 46:10.42 47:0.82999998 48:4.5799999 49:6.6700001 50:10.83 51:0.82999998 52:1.25 53:5.4200001 54:4.1700001 55:3.75 56:5.4200001 57:5.4200001 58:5.4200001 59:2.5 60:2.9200001 #
-1.9516589722300465847837358523975 1:28 2:0 3:0 4:0 5:4 6:0 7:0 8:4 9:4 10:12 11:8 12:0 13:4 14:0 15:4 16:16 17:8 18:8 19:0 20:0 21:0 22:0 23:12 24:8 25:0 26:4 27:0 28:12 29:0 30:12 31:0 32:4 33:4 34:0 35:0 36:12 37:12 38:4 39:12 40:4 41:11.39 42:1.78 43:6.0500002 44:6.4099998 45:2.8499999 46:8.54 47:2.1400001 48:5.6900001 49:1.42 50:4.6300001 51:0.36000001 52:4.98 53:1.78 54:4.27 55:2.49 56:9.25 57:11.03 58:6.4099998 59:1.42 60:7.1199999 #
-1.9516589722300465847837358523975 1:40 2:0 3:0 4:0 5:0 6:16 7:0 8:0 9:0 10:0 11:4 12:0 13:4 14:0 15:12 16:8 17:4 18:8 19:4 20:0 21:4 22:0 23:12 24:16 25:4 26:0 27:0 28:8 29:0 30:4 31:4 32:0 33:8 34:4 35:8 36:12 37:4 38:4 39:0 40:8 41:4.8200002 42:2.28 43:4.4200001 44:6.5599999 45:4.8200002 46:3.8800001 47:2.54 48:5.2199998 49:6.02 50:15.26 51:2.8099999 52:5.3499999 53:2.95 54:5.3499999 55:5.3499999 56:7.7600002 57:5.6199999 58:5.7600002 59:1.0700001 60:2.1400001 #
-0.5999561607677605934441089630127 1:16 2:4 3:0 4:0 5:0 6:0 7:8 8:0 9:0 10:40 11:4 12:0 13:12 14:0 15:4 16:8 17:0 18:4 19:0 20:0 21:0 22:4 23:4 24:16 25:4 26:0 27:4 28:4 29:8 30:12 31:0 32:0 33:4 34:4 35:4 36:4 37:12 38:8 39:8 40:0 41:10 42:2.22 43:3.3299999 44:7.7800002 45:2.22 46:4.4400001 47:0 48:3.3299999 49:10 50:6.6700001 51:2.22 52:7.7800002 53:5.5599999 54:8.8900003 55:3.3299999 56:3.3299999 57:3.3299999 58:8.8900003 59:0 60:6.6700001 #
25.371566638990604047876331605949 1:4 2:4 3:0 4:0 5:4 6:16 7:4 8:0 9:8 10:8 11:8 12:4 13:4 14:4 15:0 16:12 17:4 18:12 19:4 20:0 21:12 22:0 23:0 24:8 25:12 26:12 27:8 28:0 29:28 30:0 31:0 32:0 33:0 34:0 35:4 36:0 37:8 38:8 39:0 40:0 41:6.79 42:0.62 43:4.9400001 44:6.1700001 45:4.3200002 46:6.1700001 47:1.23 48:5.5599999 49:8.6400003 50:6.79 51:3.7 52:7.4099998 53:3.0899999 54:0.62 55:6.1700001 56:11.73 57:4.3200002 58:6.79 59:1.85 60:3.0899999 #
-1.9516589722300465847837358523975 1:0 2:0 3:0 4:4 5:4 6:0 7:0 8:4 9:4 10:12 11:28 12:8 13:0 14:28 15:0 16:4 17:0 18:0 19:0 20:4 21:28 22:0 23:0 24:12 25:12 26:8 27:0 28:0 29:12 30:0 31:0 32:4 33:8 34:8 35:0 36:4 37:0 38:4 39:0 40:0 41:7.27 42:2.96 43:4.71 44:4.8499999 45:2.96 46:3.9000001 47:4.3099999 48:2.4200001 49:5.79 50:10.23 51:1.75 52:4.04 53:6.8600001 54:10.63 55:3.23 56:12.11 57:6.3299999 58:3.0999999 59:0.27000001 60:2.29 #
-1.9516589722300465847837358523975 1:8 2:0 3:4 4:0 5:8 6:0 7:4 8:8 9:4 10:16 11:12 12:0 13:12 14:4 15:4 16:4 17:4 18:0 19:0 20:8 21:8 22:0 23:8 24:8 25:12 26:4 27:0 28:4 29:28 30:4 31:4 32:0 33:4 34:4 35:4 36:4 37:0 38:0 39:0 40:4 41:6.9400001 42:0 43:2.8900001 44:10.4 45:4.6199999 46:3.47 47:1.73 48:5.7800002 49:10.98 50:8.6700001 51:1.73 52:4.6199999 53:5.1999998 54:5.1999998 55:8.6700001 56:5.7800002 57:6.3600001 58:2.8900001 59:1.16 60:2.8900001 #
-1.9516589722300465847837358523975 1:12 2:4 3:4 4:0 5:0 6:4 7:0 8:0 9:0 10:4 11:4 12:4 13:32 14:12 15:4 16:12 17:4 18:0 19:0 20:0 21:16 22:0 23:8 24:0 25:28 26:4 27:4 28:0 29:4 30:4 31:0 32:0 33:4 34:0 35:4 36:8 37:4 38:8 39:4 40:0 41:7.7399998 42:2.26 43:3.8099999 44:6.6700001 45:5.3600001 46:5.3600001 47:2.02 48:4.7600002 49:5.2399998 50:12.74 51:2.1400001 52:2.6199999 53:4.8800001 54:2.8599999 55:5.9499998 56:7.1399999 57:5.48 58:7.8600001 59:2.02 60:3.0999999 #
25.371566638990604047876331605949 1:20 2:0 3:4 4:4 5:0 6:16 7:4 8:4 9:8 10:0 11:4 12:0 13:4 14:0 15:4 16:16 17:0 18:12 19:0 20:0 21:8 22:8 23:8 24:4 25:0 26:4 27:4 28:4 29:4 30:8 31:0 32:4 33:0 34:0 35:4 36:24 37:4 38:8 39:0 40:4 41:5.29 42:1.1 43:5.0700002 44:6.3899999 45:4.8499999 46:7.9299998 47:2.2 48:4.4099998 49:7.9299998 50:11.67 51:1.98 52:4.6300001 53:5.0700002 54:3.0799999 55:4.4099998 56:9.6899996 57:4.6300001 58:5.9499998 59:1.1 60:2.6400001 #
-1.9516589722300465847837358523975 1:16 2:0 3:4 4:4 5:0 6:12 7:0 8:0 9:4 10:24 11:4 12:0 13:4 14:0 15:0 16:12 17:4 18:4 19:4 20:4 21:4 22:0 23:4 24:8 25:8 26:8 27:4 28:8 29:8 30:12 31:4 32:4 33:8 34:8 35:0 36:0 37:4 38:4 39:4 40:0 41:9.1199999 42:1.8200001 43:3.6500001 44:4.8600001 45:5.4699998 46:8.5100002 47:2.4300001 48:4.5599999 49:5.7800002 50:8.5100002 51:2.74 52:5.4699998 53:4.8600001 54:2.74 55:3.95 56:7.29 57:4.5599999 58:7.5999999 59:2.1300001 60:3.95 #
25.371566638990604047876331605949 1:28 2:0 3:0 4:4 5:0 6:8 7:0 8:0 9:0 10:20 11:4 12:0 13:4 14:4 15:4 16:4 17:4 18:8 19:8 20:0 21:4 22:4 23:0 24:4 25:0 26:12 27:4 28:0 29:0 30:8 31:0 32:0 33:8 34:4 35:12 36:20 37:12 38:4 39:4 40:0 41:8.4200001 42:2.97 43:3.96 44:6.4400001 45:4.9499998 46:5.9400001 47:2.97 48:3.47 49:2.97 50:13.37 51:0.99000001 52:2.97 53:5.4499998 54:4.9499998 55:10.89 56:5.4499998 57:4.46 58:5.9400001 59:1.49 60:1.98 #
25.371566638990604047876331605949 1:12 2:0 3:4 4:4 5:8 6:0 7:0 8:4 9:12 10:12 11:4 12:12 13:8 14:4 15:4 16:4 17:0 18:8 19:0 20:0 21:20 22:0 23:4 24:0 25:0 26:16 27:0 28:0 29:44 30:0 31:4 32:0 33:4 34:0 35:4 36:0 37:4 38:0 39:0 40:0 41:3.3299999 42:0 43:5 44:8.3299999 45:3.3299999 46:6.6700001 47:1.67 48:6.6700001 49:10 50:11.67 51:1.67 52:3.3299999 53:5 54:1.67 55:8.3299999 56:8.3299999 57:3.3299999 58:5 59:0 60:6.6700001 #
-1.9516589722300465847837358523975 1:16 2:0 3:4 4:0 5:0 6:4 7:0 8:0 9:0 10:8 11:4 12:4 13:16 14:0 15:0 16:16 17:12 18:8 19:4 20:4 21:16 22:0 23:4 24:8 25:0 26:8 27:4 28:0 29:8 30:16 31:0 32:0 33:4 34:12 35:0 36:8 37:12 38:0 39:0 40:0 41:8.9899998 42:3.1700001 43:1.3200001 44:5.5599999 45:4.5 46:5.8200002 47:0.79000002 48:3.7 49:0.79000002 50:11.11 51:2.9100001 52:2.6500001 53:6.6100001 54:3.97 55:8.9899998 56:7.6700001 57:4.23 58:12.17 59:1.85 60:3.1700001 #
-1.9516589722300465847837358523975 1:12 2:0 3:4 4:8 5:0 6:12 7:0 8:0 9:0 10:8 11:4 12:0 13:4 14:0 15:12 16:20 17:12 18:4 19:0 20:0 21:8 22:12 23:0 24:12 25:0 26:0 27:0 28:0 29:0 30:8 31:4 32:0 33:8 34:24 35:4 36:8 37:4 38:4 39:0 40:4 41:12.43 42:1.48 43:3.25 44:5.0300002 45:4.73 46:7.0999999 47:5.0300002 48:3.55 49:1.48 50:15.09 51:2.6600001 52:0.58999997 53:5.3299999 54:1.78 55:4.4400001 56:9.1700001 57:5.9200001 58:6.8000002 59:1.1799999 60:2.96 #
-1.9516589722300465847837358523975 1:24 2:0 3:0 4:0 5:0 6:12 7:0 8:0 9:0 10:8 11:4 12:4 13:16 14:0 15:0 16:28 17:0 18:4 19:0 20:0 21:12 22:4 23:4 24:8 25:8 26:4 27:0 28:4 29:4 30:12 31:0 32:8 33:0 34:8 35:4 36:4 37:8 38:4 39:0 40:4 41:8.7200003 42:1.4299999 43:4.6599998 44:3.46 45:3.7 46:8 47:2.51 48:4.1799998 49:4.6599998 50:9.3199997 51:3.1099999 52:5.02 53:8.4799995 54:3.5799999 55:4.7800002 56:8.7200003 57:5.8499999 58:5.8499999 59:0.83999997 60:3.1099999 #
-1.338914274018733863158558961004 1:12 2:0 3:0 4:0 5:8 6:0 7:0 8:16 9:12 10:8 11:12 12:4 13:0 14:4 15:0 16:4 17:12 18:8 19:0 20:0 21:8 22:12 23:12 24:12 25:12 26:4 27:0 28:0 29:0 30:4 31:4 32:4 33:4 34:8 35:4 36:8 37:4 38:0 39:0 40:0 41:3.96 42:6.9299998 43:5.9400001 44:4.9499998 45:3.96 46:3.96 47:0.99000001 48:4.9499998 49:6.9299998 50:5.9400001 51:0.99000001 52:5.9400001 53:0.99000001 54:8.9099998 55:0.99000001 56:12.87 57:6.9299998 58:3.96 59:2.97 60:6.9299998 #
21.175006047944179954356513917446 1:8 2:0 3:4 4:0 5:0 6:8 7:4 8:8 9:8 10:16 11:4 12:0 13:4 14:8 15:0 16:8 17:4 18:16 19:0 20:0 21:4 22:0 23:12 24:12 25:8 26:4 27:0 28:0 29:24 30:4 31:0 32:0 33:0 34:4 35:8 36:0 37:0 38:8 39:0 40:12 41:20 42:20 43:0 44:0 45:20 46:20 47:0 48:20 49:0 50:0 51:0 52:0 53:0 54:0 55:0 56:0 57:0 58:0 59:0 60:0 #
25.371566638990604047876331605949 1:4 2:0 3:12 4:8 5:0 6:8 7:0 8:12 9:12 10:4 11:8 12:4 13:8 14:4 15:4 16:4 17:4 18:0 19:0 20:4 21:0 22:4 23:12 24:8 25:8 26:4 27:0 28:0 29:24 30:4 31:0 32:8 33:4 34:0 35:8 36:0 37:0 38:4 39:12 40:0 41:6.4699998 42:3.5999999 43:4.3200002 44:7.1900001 45:2.8800001 46:7.9099998 47:2.1600001 48:2.8800001 49:7.1900001 50:8.6300001 51:2.1600001 52:5.7600002 53:5.7600002 54:5.04 55:5.04 56:8.6300001 57:5.04 58:3.5999999 59:2.1600001 60:3.5999999 #
-1.9516589722300465847837358523975 1:8 2:0 3:0 4:0 5:0 6:12 7:4 8:0 9:12 10:8 11:4 12:12 13:4 14:0 15:24 16:4 17:0 18:4 19:4 20:0 21:4 22:0 23:0 24:8 25:4 26:4 27:0 28:0 29:24 30:12 31:0 32:0 33:4 34:0 35:8 36:12 37:0 38:16 39:4 40:0 41:6.3200002 42:2.1099999 43:4.21 44:5.2600002 45:5.2600002 46:12.63 47:1.05 48:5.2600002 49:13.68 50:8.4200001 51:0 52:7.3699999 53:4.21 54:2.1099999 55:4.21 56:6.3200002 57:2.1099999 58:8.4200001 59:0 60:1.05 #
-1.9516589722300465847837358523975 1:0 2:0 3:0 4:0 5:8 6:16 7:4 8:24 9:4 10:16 11:8 12:0 13:0 14:0 15:0 16:12 17:0 18:8 19:0 20:0 21:4 22:8 23:8 24:8 25:0 26:0 27:4 28:0 29:16 30:8 31:0 32:8 33:4 34:0 35:0 36:4 37:4 38:12 39:8 40:4 41:2.4400001 42:12.2 43:2.4400001 44:4.8800001 45:0 46:12.2 47:2.4400001 48:7.3200002 49:4.8800001 50:4.8800001 51:0 52:7.3200002 53:4.8800001 54:0 55:4.8800001 56:2.4400001 57:2.4400001 58:2.4400001 59:0 60:21.950001 #
-1.9516589722300465847837358523975 1:0 2:0 3:0 4:0 5:4 6:12 7:0 8:8 9:12 10:12 11:4 12:0 13:4 14:0 15:28 16:4 17:4 18:4 19:0 20:4 21:0 22:0 23:4 24:0 25:4 26:8 27:0 28:4 29:20 30:12 31:0 32:4 33:4 34:4 35:12 36:4 37:8 38:8 39:0 40:4 41:3.3800001 42:0.97000003 43:1.9299999 44:3.3800001 45:4.3499999 46:5.3099999 47:1.45 48:6.7600002 49:12.08 50:11.11 51:2.4200001 52:6.2800002 53:5.3099999 54:4.3499999 55:8.6999998 56:4.8299999 57:4.8299999 58:8.21 59:0 60:4.3499999 #
25.371566638990604047876331605949 1:16 2:0 3:0 4:0 5:0 6:8 7:0 8:0 9:4 10:16 11:4 12:0 13:20 14:0 15:16 16:4 17:4 18:4 19:0 20:4 21:8 22:0 23:0 24:28 25:0 26:4 27:0 28:0 29:0 30:0 31:0 32:0 33:16 34:16 35:0 36:12 37:12 38:4 39:0 40:0 41:12.02 42:0.86000001 43:5.1500001 44:18.030001 45:0.43000001 46:5.5799999 47:0.86000001 48:1.29 49:4.29 50:4.7199998 51:0.86000001 52:1.29 53:6.4400001 54:4.29 55:2.5799999 56:12.02 57:8.5799999 58:8.5799999 59:0 60:2.1500001 #
25.371566638990604047876331605949 1:28 2:0 3:0 4:0 5:0 6:4 7:4 8:0 9:0 10:0 11:4 12:0 13:24 14:0 15:16 16:20 17:0 18:0 19:0 20:0 21:4 22:8 23:4 24:8 25:4 26:8 27:4 28:0 29:8 30:20 31:0 32:0 33:4 34:4 35:0 36:16 37:0 38:0 39:0 40:8 41:19.57 42:2.1700001 43:1.09 44:2.1700001 45:2.1700001 46:10.87 47:2.1700001 48:1.09 49:0 50:4.3499999 51:4.3499999 52:0 53:15.22 54:9.7799997 55:1.09 56:10.87 57:6.52 58:5.4299998 59:0 60:1.09 #
-1.9516589722300465847837358523975 1:20 2:0 3:0 4:0 5:4 6:0 7:0 8:0 9:4 10:12 11:4 12:0 13:12 14:8 15:0 16:32 17:4 18:0 19:0 20:0 21:16 22:0 23:0 24:12 25:0 26:12 27:0 28:0 29:8 30:12 31:4 32:4 33:8 34:4 35:12 36:4 37:0 38:0 39:0 40:4 41:14.81 42:1.01 43:4.04 44:5.3899999 45:1.01 46:5.7199998 47:1.01 48:5.0500002 49:4.3800001 50:8.4200001 51:3.03 52:2.3599999 53:9.0900002 54:2.3599999 55:5.7199998 56:6.0599999 57:7.0700002 58:10.44 59:0.67000002 60:2.3599999 #
-1.9516589722300465847837358523975 1:28 2:0 3:0 4:0 5:0 6:0 7:0 8:8 9:4 10:20 11:4 12:0 13:4 14:0 15:4 16:12 17:0 18:12 19:4 20:0 21:36 22:0 23:4 24:16 25:0 26:4 27:0 28:0 29:8 30:8 31:0 32:0 33:8 34:4 35:0 36:0 37:12 38:0 39:0 40:0 41:9.9399996 42:0.86000001 43:7.1300001 44:9.0699997 45:6.9099998 46:6.48 47:2.5899999 48:4.75 49:9.29 50:7.1300001 51:0.43000001 52:3.46 53:6.2600002 54:2.8099999 55:1.9400001 56:4.9699998 57:3.02 58:8.4200001 59:0.64999998 60:3.8900001 #
-1.9516589722300465847837358523975 1:24 2:0 3:4 4:0 5:0 6:0 7:0 8:0 9:16 10:4 11:4 12:0 13:12 14:0 15:12 16:20 17:0 18:4 19:0 20:0 21:28 22:0 23:4 24:8 25:4 26:8 27:0 28:4 29:0 30:8 31:4 32:0 33:4 34:4 35:4 36:0 37:12 38:8 39:0 40:0 41:9.1199999 42:2.74 43:5.4699998 44:5.4699998 45:3.6500001 46:8.8100004 47:2.74 48:4.2600002 49:2.74 50:9.1199999 51:1.8200001 52:3.04 53:3.3399999 54:3.95 55:7.29 56:8.21 57:6.0799999 58:9.1199999 59:0.91000003 60:2.1300001 #
-0.018838577575678527864511124789715 1:12 2:0 3:4 4:4 5:4 6:12 7:0 8:8 9:4 10:12 11:4 12:0 13:8 14:12 15:8 16:8 17:0 18:0 19:0 20:0 21:0 22:0 23:12 24:0 25:0 26:0 27:4 28:4 29:8 30:28 31:0 32:8 33:4 34:4 35:4 36:16 37:0 38:4 39:0 40:4 41:5.0300002 42:1.37 43:4 44:6.4000001 45:6.0599999 46:2.0599999 47:1.6 48:5.71 49:5.1399999 50:13.49 51:1.37 52:6.0599999 53:5.3699999 54:3.2 55:4.3400002 56:13.6 57:4.9099998 58:5.8299999 59:1.49 60:2.97 #
25.371566638990604047876331605949 1:0 2:0 3:4 4:0 5:16 6:4 7:0 8:16 9:4 10:12 11:4 12:8 13:0 14:0 15:4 16:16 17:4 18:4 19:0 20:4 21:4 22:0 23:4 24:4 25:4 26:0 27:8 28:0 29:16 30:8 31:0 32:12 33:8 34:4 35:12 36:8 37:4 38:4 39:0 40:0 41:2 42:6 43:8 44:0 45:12 46:2 47:2 48:12 49:6 50:12 51:0 52:4 53:4 54:0 55:10 56:10 57:6 58:2 59:0 60:2 #
8.2192791033832452995966377784498 1:8 2:0 3:4 4:0 5:4 6:0 7:0 8:24 9:4 10:16 11:8 12:4 13:0 14:0 15:4 16:16 17:4 18:4 19:0 20:0 21:0 22:0 23:4 24:0 25:16 26:4 27:0 28:28 29:0 30:12 31:0 32:12 33:0 34:0 35:0 36:8 37:4 38:4 39:0 40:8 41:3.8199999 42:0 43:1.67 44:1.67 45:5.25 46:4.0599999 47:1.1900001 48:16.709999 49:3.0999999 50:19.57 51:2.3900001 52:8.5900002 53:1.67 54:1.67 55:0.47999999 56:10.5 57:3.5799999 58:4.77 59:0.23999999 60:9.0699997 #
-1.9516589722300465847837358523975 1:4 2:0 3:4 4:0 5:8 6:12 7:4 8:0 9:4 10:4 11:8 12:4 13:8 14:8 15:8 16:8 17:8 18:4 19:0 20:4 21:0 22:0 23:16 24:12 25:8 26:0 27:4 28:4 29:4 30:4 31:0 32:12 33:0 34:8 35:0 36:24 37:0 38:0 39:0 40:4 41:8.3000002 42:0.87 43:7.8600001 44:11.79 45:5.2399998 46:1.75 47:2.6199999 48:5.2399998 49:9.1700001 50:10.48 51:1.75 52:3.9300001 53:3.49 54:2.6199999 55:3.9300001 56:5.6799998 57:4.8000002 58:6.5500002 59:0.87 60:3.0599999 #
-1.9516589722300465847837358523975 1:16 2:0 3:4 4:8 5:0 6:4 7:0 8:8 9:0 10:8 11:4 12:4 13:0 14:0 15:4 16:8 17:28 18:0 19:0 20:4 21:4 22:0 23:12 24:4 25:16 26:8 27:0 28:4 29:12 30:8 31:8 32:8 33:0 34:0 35:4 36:4 37:4 38:0 39:0 40:4 41:4.0100002 42:0.75 43:5.5100002 44:5.3200002 45:4.4499998 46:2.6900001 47:1.88 48:7.3899999 49:9.3900003 50:11.21 51:1.38 52:6.7600002 53:3.9400001 54:5.6999998 55:4.5100002 56:9.71 57:6.4499998 58:5.1300001 59:0.5 60:3.3199999 #
-1.9516589722300465847837358523975 1:4 2:4 3:12 4:4 5:4 6:8 7:0 8:4 9:0 10:4 11:8 12:0 13:8 14:0 15:20 16:4 17:4 18:8 19:0 20:4 21:0 22:4 23:4 24:20 25:4 26:4 27:0 28:0 29:4 30:20 31:0 32:0 33:20 34:0 35:4 36:8 37:4 38:4 39:0 40:0 41:14.65 42:2.9300001 43:3.3 44:6.96 45:4.0300002 46:11.36 47:4.4000001 48:0.37 49:0.37 50:12.09 51:1.1 52:0.73000002 53:5.8600001 54:2.9300001 55:8.4200001 56:5.4899998 57:5.1300001 58:8.0600004 59:1.1 60:0.73000002 #
25.371566638990604047876331605949 1:4 2:4 3:0 4:4 5:8 6:0 7:0 8:0 9:4 10:16 11:4 12:4 13:20 14:4 15:0 16:8 17:4 18:12 19:0 20:4 21:32 22:0 23:0 24:20 25:4 26:4 27:0 28:0 29:8 30:12 31:0 32:0 33:4 34:8 35:0 36:0 37:4 38:4 39:0 40:0 41:9.9099998 42:2.3599999 43:7.3099999 44:6.5999999 45:4.0100002 46:7.0799999 47:3.3 48:8.4899998 49:5.9000001 50:6.8400002 51:1.89 52:4.25 53:2.5899999 54:1.89 55:5.4200001 56:6.5999999 57:5.1900001 58:7.0799999 59:0.23999999 60:3.0699999 #
25.371566638990604047876331605949 1:16 2:0 3:12 4:4 5:4 6:12 7:0 8:4 9:4 10:4 11:4 12:0 13:12 14:4 15:8 16:12 17:0 18:0 19:0 20:0 21:28 22:0 23:8 24:16 25:4 26:4 27:0 28:0 29:4 30:12 31:0 32:0 33:0 34:0 35:16 36:8 37:0 38:0 39:0 40:0 41:7.1399999 42:0 43:0 44:5.3600001 45:1.79 46:7.1399999 47:1.79 48:7.1399999 49:3.5699999 50:12.5 51:1.79 52:1.79 53:3.5699999 54:8.9300003 55:10.71 56:5.3600001 57:8.9300003 58:5.3600001 59:1.79 60:5.3600001 #
-1.9516589722300465847837358523975 1:20 2:0 3:0 4:0 5:0 6:8 7:0 8:0 9:0 10:4 11:4 12:0 13:36 14:0 15:16 16:4 17:4 18:4 19:0 20:0 21:16 22:4 23:0 24:0 25:0 26:12 27:8 28:0 29:0 30:32 31:0 32:0 33:4 34:0 35:0 36:4 37:8 38:8 39:4 40:0 41:5.6799998 42:2.9200001 43:4.71 44:6.4899998 45:4.0599999 46:6.98 47:3.73 48:3.4100001 49:4.2199998 50:8.4399996 51:1.62 52:4.2199998 53:6.8200002 54:5.3600001 55:6.4899998 56:8.1199999 57:4.0599999 58:6.6599998 59:1.79 60:4.2199998 #
-1.7625742496390870428513153456151 1:12 2:0 3:8 4:8 5:0 6:8 7:4 8:0 9:4 10:16 11:8 12:4 13:0 14:0 15:4 16:8 17:8 18:0 19:8 20:0 21:4 22:0 23:0 24:4 25:8 26:4 27:0 28:0 29:12 30:0 31:8 32:8 33:4 34:4 35:4 36:4 37:16 38:8 39:4 40:8 41:9.8299999 42:0.83999997 43:3.3499999 44:6.6900001 45:2.0899999 46:4.8099999 47:1.05 48:2.9300001 49:6.4899998 50:11.51 51:2.51 52:2.9300001 53:11.72 54:5.02 55:5.02 56:8.1599998 57:8.5799999 58:5.23 59:0.20999999 60:1.05 #
-1.9516589722300465847837358523975 1:28 2:8 3:4 4:4 5:0 6:4 7:0 8:4 9:0 10:8 11:4 12:0 13:16 14:4 15:12 16:0 17:0 18:4 19:0 20:0 21:4 22:0 23:0 24:8 25:4 26:4 27:4 28:0 29:8 30:28 31:4 32:4 33:0 34:8 35:8 36:12 37:0 38:4 39:0 40:0 41:15.59 42:4.8400002 43:9.1400003 44:11.83 45:3.23 46:5.3800001 47:2.1500001 48:0.54000002 49:5.3800001 50:8.0600004 51:1.61 52:1.08 53:7.5300002 54:2.1500001 55:10.22 56:3.76 57:0.54000002 58:3.76 59:2.6900001 60:0.54000002 #
20.427910906760331499754101969302 1:4 2:0 3:8 4:4 5:0 6:16 7:0 8:4 9:20 10:4 11:4 12:4 13:0 14:0 15:0 16:24 17:4 18:4 19:0 20:0 21:0 22:0 23:4 24:0 25:12 26:4 27:4 28:8 29:4 30:16 31:4 32:4 33:16 34:4 35:0 36:8 37:0 38:12 39:0 40:0 41:4 42:0 43:4 44:4 45:4 46:4 47:4 48:0 49:24 50:4 51:0 52:4 53:0 54:0 55:0 56:8 57:8 58:16 59:8 60:4 #
25.371566638990604047876331605949 1:0 2:0 3:0 4:8 5:0 6:0 7:4 8:0 9:4 10:28 11:12 12:0 13:4 14:8 15:8 16:20 17:0 18:0 19:0 20:4 21:4 22:8 23:4 24:0 25:0 26:0 27:12 28:4 29:4 30:8 31:8 32:4 33:12 34:8 35:0 36:4 37:4 38:4 39:8 40:4 41:4.8800001 42:1.63 43:6.5 44:4.8800001 45:3.6600001 46:6.0999999 47:3.25 48:5.2800002 49:6.9099998 50:8.54 51:4.0700002 52:4.0700002 53:5.6900001 54:7.3200002 55:4.4699998 56:4.8800001 57:6.0999999 58:6.5 59:1.63 60:3.6600001 #
1.0865340996036536580504616722465 1:4 2:4 3:0 4:0 5:0 6:20 7:0 8:0 9:8 10:12 11:4 12:0 13:12 14:4 15:4 16:16 17:4 18:4 19:4 20:0 21:4 22:0 23:4 24:12 25:4 26:4 27:4 28:12 29:12 30:4 31:4 32:0 33:8 34:4 35:0 36:8 37:8 38:4 39:0 40:4 41:8.96 42:1.5700001 43:4.0900002 44:5.5 45:2.8299999 46:9.75 47:2.99 48:5.5 49:6.29 50:8.0200005 51:2.2 52:2.99 53:6.4499998 54:2.52 55:4.5599999 56:5.8200002 57:5.0300002 58:8.96 59:2.04 60:3.9300001 #
-1.9516589722300465847837358523975 1:8 2:0 3:0 4:0 5:16 6:0 7:8 8:8 9:0 10:12 11:4 12:0 13:0 14:8 15:0 16:8 17:4 18:4 19:4 20:16 21:8 22:0 23:12 24:8 25:12 26:8 27:0 28:0 29:8 30:0 31:0 32:12 33:4 34:4 35:0 36:12 37:4 38:8 39:0 40:0 41:2.8599999 42:4 43:1.14 44:5.71 45:2.29 46:5.1399999 47:1.71 48:3.4300001 49:13.14 50:3.4300001 51:1.14 52:4.5700002 53:6.8600001 54:6.29 55:5.1399999 56:3.4300001 57:8.5699997 58:10.86 59:3.4300001 60:6.8600001 #
-1.9516589722300465847837358523975 1:4 2:0 3:8 4:4 5:4 6:4 7:4 8:4 9:8 10:16 11:4 12:4 13:0 14:12 15:4 16:8 17:0 18:0 19:8 20:4 21:0 22:0 23:0 24:8 25:0 26:12 27:0 28:0 29:8 30:0 31:0 32:12 33:20 34:12 35:0 36:24 37:0 38:0 39:0 40:4 41:7.3000002 42:3 43:4.29 44:7.3000002 45:6.0100002 46:1.29 47:1.72 48:6.0100002 49:6.4400001 50:13.3 51:3.8599999 52:2.1500001 53:4.29 54:5.1500001 55:5.1500001 56:3.8599999 57:4.29 58:7.3000002 59:1.72 60:5.5799999 #
-1.9516589722300465847837358523975 1:12 2:4 3:0 4:4 5:4 6:4 7:0 8:0 9:0 10:12 11:8 12:4 13:0 14:20 15:4 16:12 17:4 18:8 19:0 20:0 21:0 22:0 23:8 24:4 25:4 26:8 27:0 28:0 29:8 30:0 31:4 32:8 33:8 34:12 35:0 36:24 37:0 38:8 39:0 40:4 41:6.1700001 42:2.4100001 43:4.8299999 44:5.9000001 45:4.02 46:4.5599999 47:3.22 48:5.9000001 49:6.9699998 50:13.4 51:4.02 52:5.6300001 53:3.22 54:5.9000001 55:2.6800001 56:6.1700001 57:5.0900002 58:5.0900002 59:0 60:4.8299999 #
-1.9516589722300465847837358523975 1:4 2:0 3:0 4:12 5:4 6:4 7:0 8:0 9:4 10:12 11:4 12:4 13:8 14:8 15:12 16:24 17:0 18:0 19:0 20:0 21:4 22:0 23:0 24:4 25:4 26:44 27:16 28:4 29:20 30:0 31:4 32:0 33:0 34:0 35:0 36:0 37:0 38:0 39:0 40:0 41:4.6700001 42:0.61000001 43:0.61000001 44:5.48 45:3.45 46:26.98 47:0.81 48:2.6400001 49:14.4 50:5.8800001 51:6.29 52:0.61000001 53:2.23 54:0.41 55:2.23 56:17.85 57:1.42 58:3.04 59:0.41 60:0 #
-1.9516589722300465847837358523975 1:8 2:0 3:0 4:8 5:0 6:16 7:0 8:0 9:8 10:0 11:4 12:8 13:24 14:4 15:0 16:12 17:4 18:0 19:4 20:0 21:8 22:0 23:4 24:4 25:0 26:28 27:0 28:0 29:4 30:4 31:0 32:16 33:8 34:4 35:0 36:0 37:4 38:4 39:8 40:4 41:5.1199999 42:0 43:1.5700001 44:1.5700001 45:3.9400001 46:23.23 47:1.1799999 48:0.79000002 49:0.38999999 50:5.9099998 51:8.6599998 52:5.1199999 53:9.4499998 54:4.7199998 55:5.1199999 56:8.2700005 57:4.3299999 58:3.9400001 59:0.79000002 60:5.9099998 #
-1.9516589722300465847837358523975 1:0 2:0 3:4 4:4 5:0 6:20 7:0 8:8 9:12 10:0 11:4 12:4 13:16 14:4 15:4 16:8 17:0 18:8 19:4 20:0 21:16 22:0 23:8 24:0 25:16 26:24 27:0 28:12 29:4 30:4 31:0 32:0 33:4 34:0 35:4 36:0 37:4 38:0 39:0 40:4 41:4.1700001 42:0 43:6.25 44:2.0799999 45:3.1199999 46:14.58 47:1.04 48:9.3800001 49:4.1700001 50:3.1199999 51:2.0799999 52:3.1199999 53:2.0799999 54:1.04 55:3.1199999 56:9.3800001 57:15.62 58:11.46 59:1.04 60:3.1199999 #
25.371566638990604047876331605949 1:4 2:0 3:0 4:0 5:8 6:8 7:0 8:12 9:0 10:20 11:4 12:12 13:4 14:0 15:12 16:8 17:4 18:0 19:0 20:4 21:16 22:0 23:4 24:8 25:4 26:4 27:4 28:4 29:16 30:8 31:0 32:4 33:4 34:8 35:0 36:8 37:0 38:8 39:0 40:0 41:8.4499998 42:0 43:4.23 44:14.08 45:1.41 46:5.6300001 47:4.23 48:2.8199999 49:5.6300001 50:12.68 51:1.41 52:4.23 53:2.8199999 54:1.41 55:5.6300001 56:11.27 57:4.23 58:8.4499998 59:0 60:1.41 #
25.371566638990604047876331605949 1:12 2:0 3:0 4:0 5:0 6:4 7:0 8:8 9:4 10:24 11:4 12:8 13:4 14:0 15:8 16:12 17:8 18:4 19:0 20:0 21:0 22:0 23:4 24:0 25:4 26:0 27:0 28:4 29:4 30:0 31:0 32:32 33:0 34:0 35:16 36:28 37:0 38:0 39:0 40:8 41:5.0500002 42:1.14 43:7.6500001 44:7.6500001 45:5.21 46:4.0700002 47:1.95 48:8.1400003 49:8.96 50:7.8200002 51:1.3 52:6.5100002 53:3.5799999 54:2.4400001 55:7.3299999 56:7.6500001 57:4.4000001 58:6.0300002 59:0.16 60:2.9300001 #
25.371566638990604047876331605949 1:4 2:0 3:0 4:8 5:8 6:0 7:0 8:0 9:12 10:4 11:8 12:0 13:8 14:8 15:8 16:4 17:0 18:16 19:0 20:12 21:12 22:0 23:0 24:0 25:4 26:4 27:0 28:0 29:4 30:4 31:4 32:4 33:0 34:8 35:4 36:40 37:4 38:4 39:0 40:4 41:5.9099998 42:1.64 43:7.0599999 44:7.5500002 45:4.5999999 46:5.25 47:4.4299998 48:4.9299998 49:5.0900002 50:11.49 51:2.79 52:3.28 53:4.4299998 54:3.6099999 55:6.0799999 56:6.5700002 57:4.27 58:6.2399998 59:1.64 60:3.1199999 #
-1.9516589722300465847837358523975 1:8 2:4 3:0 4:0 5:4 6:4 7:0 8:0 9:4 10:24 11:4 12:0 13:4 14:4 15:0 16:0 17:8 18:16 19:12 20:4 21:0 22:8 23:4 24:16 25:0 26:0 27:0 28:0 29:0 30:12 31:4 32:4 33:4 34:4 35:8 36:16 37:8 38:12 39:0 40:0 41:6.77 42:2.8599999 43:2.8599999 44:6.25 45:3.1199999 46:7.5500002 47:2.8599999 48:2.3399999 49:4.6900001 50:10.16 51:1.3 52:2.0799999 53:9.1099997 54:6.5100002 55:5.21 56:9.6400003 57:4.6900001 58:8.0699997 59:1.3 60:2.5999999 #
-1.9516589722300465847837358523975 1:16 2:4 3:0 4:4 5:0 6:32 7:4 8:0 9:0 10:0 11:4 12:8 13:8 14:4 15:0 16:8 17:0 18:4 19:4 20:0 21:8 22:4 23:8 24:4 25:0 26:12 27:0 28:8 29:4 30:8 31:0 32:0 33:16 34:4 35:0 36:8 37:4 38:8 39:4 40:0 41:11.87 42:4.1500001 43:1.78 44:1.1900001 45:5.04 46:6.8200002 47:2.97 48:4.75 49:1.48 50:16.02 51:1.48 52:2.0799999 53:4.75 54:1.78 55:8.0100002 56:7.1199999 57:5.3400002 58:8.0100002 59:1.78 60:3.5599999 #
-1.9516589722300465847837358523975 1:4 2:8 3:0 4:0 5:0 6:0 7:0 8:0 9:0 10:36 11:4 12:0 13:12 14:0 15:12 16:8 17:0 18:8 19:8 20:0 21:4 22:4 23:0 24:20 25:0 26:0 27:0 28:0 29:8 30:12 31:0 32:4 33:0 34:12 35:8 36:8 37:12 38:4 39:0 40:4 41:5.6199999 42:1.66 43:4.52 44:5.1599998 45:4.8800001 46:6.73 47:3.1300001 48:4.79 49:4.0599999 50:11.34 51:3.04 52:4.4200001 53:5.6199999 54:4.52 55:5.0700002 56:9.0299997 57:6.0799999 58:5.9000001 59:2.3 60:2.1199999 #
-1.9516589722300465847837358523975 1:16 2:0 3:4 4:4 5:8 6:8 7:0 8:4 9:4 10:8 11:4 12:0 13:8 14:0 15:4 16:12 17:12 18:4 19:0 20:0 21:4 22:4 23:20 24:8 25:0 26:4 27:4 28:4 29:0 30:4 31:4 32:4 33:4 34:8 35:4 36:4 37:4 38:8 39:0 40:8 41:7.2800002 42:0.69999999 43:5.8699999 44:8.4499998 45:0.94 46:9.3900003 47:1.41 48:2.1099999 49:5.4000001 50:9.1499996 51:2.1099999 52:3.05 53:8.2200003 54:5.4000001 55:8.9200001 56:5.6300001 57:4.6900001 58:8.4499998 59:0.69999999 60:2.1099999 #
-1.9516589722300465847837358523975 1:8 2:0 3:0 4:4 5:0 6:0 7:8 8:4 9:0 10:8 11:8 12:8 13:12 14:4 15:4 16:4 17:12 18:8 19:0 20:8 21:8 22:0 23:4 24:12 25:0 26:4 27:8 28:8 29:8 30:12 31:0 32:8 33:4 34:4 35:4 36:8 37:8 38:0 39:0 40:0 41:7.9099998 42:0.63 43:3.48 44:4.75 45:2.8499999 46:3.48 47:1.9 48:6.3299999 49:5.0599999 50:6.3299999 51:1.9 52:6.6500001 53:9.4899998 54:5.3800001 55:5.0599999 56:9.1800003 57:8.2299995 58:6.96 59:0.63 60:3.8 #
-1.9516589722300465847837358523975 1:28 2:4 3:4 4:0 5:0 6:8 7:0 8:0 9:0 10:8 11:4 12:0 13:4 14:8 15:16 16:0 17:12 18:4 19:0 20:0 21:8 22:0 23:0 24:4 25:20 26:0 27:0 28:8 29:4 30:8 31:4 32:0 33:4 34:4 35:4 36:4 37:4 38:8 39:4 40:12 41:10.34 42:2.79 43:3.6300001 44:2.79 45:6.4200001 46:6.4200001 47:1.96 48:6.98 49:3.3499999 50:12.57 51:1.96 52:2.79 53:3.0699999 54:5.0300002 55:5.8699999 56:8.3800001 57:5.5900002 58:6.6999998 59:1.12 60:2.23 #
25.371566638990604047876331605949 1:0 2:0 3:0 4:0 5:0 6:20 7:4 8:0 9:4 10:8 11:4 12:0 13:20 14:0 15:8 16:20 17:8 18:0 19:4 20:0 21:16 22:0 23:4 24:20 25:0 26:8 27:0 28:4 29:0 30:4 31:4 32:0 33:8 34:4 35:12 36:4 37:12 38:0 39:0 40:0 41:9.3800001 42:0.95999998 43:2.6400001 44:6.25 45:3.6099999 46:8.4099998 47:2.6400001 48:2.4000001 49:3.6099999 50:11.54 51:1.92 52:1.4400001 53:9.1300001 54:3.8499999 55:9.1300001 56:7.21 57:5.29 58:5.29 59:2.1600001 60:3.1199999 #
-1.9516589722300465847837358523975 1:32 2:0 3:0 4:8 5:0 6:12 7:0 8:0 9:0 10:0 11:4 12:0 13:0 14:8 15:24 16:8 17:4 18:0 19:0 20:0 21:12 22:0 23:0 24:0 25:4 26:0 27:0 28:20 29:12 30:12 31:0 32:4 33:0 34:4 35:4 36:0 37:4 38:8 39:8 40:8 41:7.3400002 42:2.28 43:4.2399998 44:3.75 45:4.8899999 46:7.9899998 47:2.1199999 48:6.3600001 49:4.0799999 50:14.68 51:1.14 52:3.9200001 53:5.2199998 54:2.28 55:3.9200001 56:7.9899998 57:4.0799999 58:7.5 59:2.6099999 60:3.5899999 #
-1.9516589722300465847837358523975 1:44 2:0 3:0 4:4 5:0 6:4 7:0 8:0 9:0 10:8 11:4 12:0 13:0 14:0 15:20 16:0 17:12 18:4 19:0 20:0 21:8 22:4 23:0 24:4 25:0 26:8 27:0 28:8 29:12 30:0 31:0 32:4 33:12 34:12 35:8 36:4 37:4 38:8 39:0 40:4 41:6.4499998 42:6.3099999 43:4.71 44:4.5700002 45:4.2800002 46:7.4000001 47:3.05 48:3.77 49:4.2800002 50:7.98 51:2.0999999 52:6.2399998 53:5.2199998 54:3.55 55:4.4200001 56:8.6300001 57:5.4400001 58:5.6599998 59:2.25 60:3.7 #
-1.9516589722300465847837358523975 1:12 2:8 3:4 4:0 5:0 6:0 7:0 8:0 9:4 10:8 11:12 12:0 13:8 14:8 15:8 16:8 17:0 18:8 19:8 20:4 21:12 22:0 23:8 24:8 25:4 26:8 27:0 28:12 29:12 30:4 31:4 32:0 33:8 34:4 35:4 36:0 37:4 38:4 39:4 40:0 41:13.48 42:2.6199999 43:2.8099999 44:7.4899998 45:3.1800001 46:11.99 47:2.0599999 48:0.75 49:3.3699999 50:8.9899998 51:0.94 52:1.6900001 53:11.24 54:3.9300001 55:7.6799998 56:6.7399998 57:3.5599999 58:4.8699999 59:0.75 60:1.87 #
-1.9516589722300465847837358523975 1:8 2:0 3:4 4:8 5:0 6:4 7:0 8:0 9:0 10:0 11:4 12:4 13:12 14:16 15:8 16:24 17:8 18:0 19:0 20:0 21:20 22:0 23:0 24:4 25:4 26:12 27:0 28:12 29:4 30:8 31:0 32:4 33:8 34:12 35:8 36:0 37:0 38:4 39:0 40:0 41:11.95 42:0.88 43:1.33 44:3.0999999 45:8.4099998 46:1.33 47:2.6500001 48:7.52 49:1.77 50:13.27 51:3.0999999 52:3.98 53:5.3099999 54:5.75 55:6.1900001 56:9.29 57:2.6500001 58:5.3099999 59:1.33 60:4.8699999 #
-1.9516589722300465847837358523975 1:4 2:0 3:4 4:8 5:4 6:12 7:4 8:4 9:4 10:12 11:4 12:4 13:0 14:4 15:4 16:8 17:4 18:8 19:8 20:0 21:20 22:0 23:8 24:4 25:0 26:12 27:0 28:4 29:4 30:8 31:0 32:0 33:8 34:0 35:16 36:16 37:0 38:0 39:0 40:0 41:11.95 42:1.8200001 43:3.3800001 44:7.0100002 45:4.4200001 46:6.75 47:2.5999999 48:4.4200001 49:3.9000001 50:10.39 51:1.5599999 52:2.3399999 53:10.65 54:4.1599998 55:4.9400001 56:5.9699998 57:4.9400001 58:4.4200001 59:1.3 60:3.1199999 #
25.371566638990604047876331605949 1:28 2:0 3:0 4:0 5:4 6:0 7:0 8:8 9:4 10:12 11:4 12:0 13:12 14:0 15:0 16:24 17:0 18:4 19:0 20:0 21:4 22:4 23:8 24:4 25:12 26:20 27:0 28:0 29:0 30:4 31:0 32:0 33:0 34:0 35:0 36:20 37:8 38:12 39:0 40:4 41:7.3200002 42:3.1400001 43:9.4099998 44:4.5300002 45:1.39 46:9.4099998 47:1.39 48:3.48 49:5.23 50:3.8299999 51:1.39 52:5.9200001 53:3.8299999 54:3.8299999 55:1.05 56:12.54 57:8.3599997 58:6.9699998 59:2.0899999 60:4.8800001 #
7.7455546400300647746917093172669 1:24 2:4 3:0 4:0 5:0 6:12 7:0 8:0 9:0 10:24 11:4 12:0 13:4 14:0 15:12 16:8 17:8 18:0 19:0 20:0 21:0 22:0 23:0 24:20 25:4 26:4 27:4 28:0 29:8 30:8 31:0 32:8 33:4 34:4 35:0 36:20 37:0 38:12 39:4 40:0 41:5.9899998 42:2.8199999 43:5.6300001 44:7.75 45:4.9299998 46:5.9899998 47:2.46 48:7.75 49:9.8599997 50:5.9899998 51:2.1099999 52:7.75 53:5.6300001 54:2.8199999 55:3.52 56:4.23 57:4.5799999 58:4.23 59:2.1099999 60:3.8699999 #
25.371566638990604047876331605949 1:20 2:8 3:0 4:0 5:0 6:4 7:8 8:4 9:4 10:32 11:4 12:0 13:0 14:0 15:4 16:0 17:0 18:8 19:0 20:4 21:4 22:0 23:4 24:12 25:12 26:0 27:0 28:0 29:4 30:24 31:0 32:0 33:12 34:0 35:8 36:8 37:8 38:4 39:0 40:0 41:7.3499999 42:1.84 43:6.5300002 44:6.3299999 45:5.0999999 46:4.29 47:1.02 48:6.9400001 49:5.0999999 50:11.84 51:2.45 52:3.8800001 53:5.5100002 54:3.27 55:7.3499999 56:5.3099999 57:4.6900001 58:6.3299999 59:1.02 60:3.8800001 #
-1.9516589722300465847837358523975 1:4 2:4 3:8 4:4 5:0 6:12 7:0 8:0 9:0 10:8 11:4 12:4 13:12 14:0 15:4 16:12 17:4 18:8 19:0 20:12 21:0 22:4 23:8 24:4 25:4 26:8 27:0 28:4 29:16 30:16 31:0 32:0 33:4 34:0 35:0 36:20 37:4 38:0 39:0 40:8 41:5.04 42:0.99000001 43:4.5100002 44:6.0999999 45:4.9699998 46:4.5100002 47:1.0599999 48:9.1499996 49:6.0999999 50:11.93 51:2.52 52:5.6999998 53:3.51 54:2.98 55:4.71 56:9.1499996 57:5.2399998 58:6.8299999 59:1.33 60:3.71 #
-1.9516589722300465847837358523975 1:8 2:0 3:0 4:0 5:12 6:8 7:0 8:8 9:8 10:16 11:4 12:4 13:0 14:4 15:4 16:16 17:8 18:0 19:0 20:0 21:4 22:4 23:0 24:8 25:0 26:4 27:0 28:4 29:4 30:12 31:0 32:4 33:0 34:4 35:16 36:16 37:12 38:4 39:0 40:4 41:5.6599998 42:2.8299999 43:7.5500002 44:6.5999999 45:4.7199998 46:11.32 47:0.94 48:7.5500002 49:2.8299999 50:4.7199998 51:2.8299999 52:7.5500002 53:5.6599998 54:2.8299999 55:2.8299999 56:9.4300003 57:4.7199998 58:6.5999999 59:0 60:2.8299999 #
-1.9516589722300465847837358523975 1:0 2:4 3:0 4:4 5:8 6:4 7:4 8:12 9:0 10:24 11:4 12:4 13:4 14:4 15:4 16:8 17:4 18:4 19:0 20:4 21:0 22:0 23:8 24:8 25:4 26:4 27:4 28:0 29:0 30:24 31:0 32:4 33:0 34:0 35:4 36:24 37:8 38:8 39:0 40:0 41:6.0599999 42:0.64999998 43:4.2600002 44:7.04 45:5.2399998 46:7.6900001 47:2.6199999 48:6.0599999 49:5.2399998 50:10.15 51:1.8 52:5.2399998 53:4.0900002 54:3.5999999 55:5.4000001 56:7.04 57:4.75 58:7.8600001 59:1.3099999 60:3.9300001 #
12.269299371348665772529784590006 1:12 2:0 3:0 4:0 5:8 6:4 7:0 8:4 9:0 10:8 11:4 12:8 13:0 14:4 15:12 16:20 17:12 18:4 19:0 20:0 21:0 22:0 23:12 24:4 25:0 26:4 27:0 28:8 29:8 30:8 31:0 32:12 33:8 34:8 35:4 36:8 37:4 38:12 39:0 40:0 41:12.05 42:1.2 43:5.6199999 44:4.8200002 45:3.6099999 46:7.6300001 47:4.4200001 48:5.8200002 49:6.2199998 50:9.04 51:1.61 52:4.6199999 53:3.8199999 54:3.01 55:3.6099999 56:7.0300002 57:5.8200002 58:6.2199998 59:0.80000001 60:3.01 #
25.365364424277871080448676366359 1:8 2:0 3:8 4:8 5:0 6:4 7:4 8:0 9:0 10:4 11:4 12:20 13:4 14:4 15:8 16:8 17:4 18:0 19:0 20:12 21:24 22:0 23:0 24:0 25:0 26:20 27:0 28:8 29:8 30:8 31:0 32:0 33:4 34:4 35:4 36:0 37:0 38:16 39:0 40:4 41:9.4200001 42:0.72000003 43:2.9000001 44:4.3499999 45:2.9000001 46:13.77 47:0 48:6.52 49:3.6199999 50:7.25 51:0 52:3.6199999 53:2.1700001 54:2.1700001 55:7.25 56:8.6999998 57:9.4200001 58:9.4200001 59:2.1700001 60:3.6199999 #
16.748425613925149946226156316698 1:8 2:0 3:0 4:0 5:0 6:4 7:0 8:4 9:0 10:0 11:8 12:0 13:8 14:4 15:24 16:28 17:12 18:0 19:0 20:0 21:12 22:8 23:4 24:4 25:4 26:4 27:0 28:4 29:4 30:8 31:0 32:12 33:0 34:20 35:4 36:0 37:0 38:0 39:0 40:12 41:14.15 42:1.89 43:3.77 44:2.8299999 45:2.8299999 46:11.32 47:2.8299999 48:2.8299999 49:0 50:2.8299999 51:3.77 52:3.77 53:6.5999999 54:15.09 55:3.77 56:7.5500002 57:9.4300003 58:3.77 59:0 60:0.94 #
-1.9516589722300465847837358523975 1:4 2:0 3:4 4:0 5:4 6:24 7:0 8:0 9:32 10:4 11:4 12:4 13:4 14:0 15:0 16:4 17:0 18:12 19:0 20:0 21:12 22:0 23:4 24:20 25:0 26:8 27:0 28:4 29:0 30:0 31:0 32:0 33:12 34:4 35:4 36:8 37:0 38:20 39:0 40:4 41:5.5 42:1.83 43:8.7200003 44:3.6700001 45:3.6700001 46:5.0500002 47:1.38 48:6.4200001 49:10.55 50:8.7200003 51:1.83 52:2.75 53:1.83 54:6.8800001 55:8.2600002 56:5.5 57:5.0500002 58:8.2600002 59:0.92000002 60:3.21 #
-1.9516589722300465847837358523975 1:20 2:4 3:0 4:0 5:4 6:4 7:0 8:0 9:12 10:4 11:4 12:0 13:0 14:4 15:4 16:12 17:4 18:24 19:0 20:0 21:28 22:0 23:8 24:0 25:8 26:0 27:0 28:0 29:8 30:4 31:0 32:8 33:4 34:8 35:4 36:0 37:4 38:12 39:0 40:4 41:20.620001 42:0 43:6.8800001 44:3.1199999 45:2.8099999 46:7.1900001 47:1.5599999 48:4.6900001 49:7.8099999 50:5.9400001 51:3.75 52:3.1199999 53:5.3099999 54:2.8099999 55:1.5599999 56:7.8099999 57:3.1199999 58:8.4399996 59:0.94 60:2.5 #
-1.9516589722300465847837358523975 1:8 2:8 3:0 4:0 5:0 6:16 7:0 8:0 9:4 10:8 11:8 12:4 13:0 14:8 15:4 16:4 17:4 18:24 19:0 20:0 21:24 22:0 23:8 24:16 25:0 26:0 27:0 28:0 29:16 30:0 31:0 32:0 33:8 34:4 35:0 36:4 37:8 38:12 39:0 40:0 41:8.4499998 42:0 43:4.23 44:18.309999 45:2.8199999 46:4.23 47:0 48:2.8199999 49:15.49 50:0 51:1.41 52:1.41 53:5.6300001 54:2.8199999 55:0 56:4.23 57:12.68 58:12.68 59:1.41 60:1.41 #
25.371566638990604047876331605949 1:0 2:0 3:8 4:40 5:0 6:12 7:0 8:0 9:4 10:8 11:8 12:0 13:4 14:4 15:4 16:4 17:4 18:0 19:0 20:0 21:8 22:8 23:8 24:8 25:8 26:0 27:12 28:0 29:8 30:20 31:0 32:4 33:0 34:0 35:4 36:4 37:4 38:4 39:0 40:0 41:2.4400001 42:7.3200002 43:7.3200002 44:19.51 45:0 46:0 47:0 48:0 49:4.8800001 50:12.2 51:0 52:0 53:2.4400001 54:7.3200002 55:12.2 56:7.3200002 57:7.3200002 58:9.7600002 59:0 60:0 #
25.371566638990604047876331605949 1:8 2:0 3:4 4:20 5:4 6:8 7:0 8:0 9:8 10:16 11:4 12:0 13:16 14:0 15:4 16:4 17:0 18:4 19:0 20:0 21:0 22:0 23:4 24:12 25:0 26:8 27:8 28:8 29:16 30:8 31:0 32:8 33:4 34:0 35:4 36:12 37:4 38:0 39:0 40:4 41:5.8800001 42:5.8800001 43:1.47 44:2.9400001 45:7.3499999 46:11.76 47:4.4099998 48:7.3499999 49:1.47 50:7.3499999 51:0 52:2.9400001 53:1.47 54:2.9400001 55:11.76 56:7.3499999 57:4.4099998 58:7.3499999 59:1.47 60:4.4099998 #
-1.9516589722300465847837358523975 1:16 2:4 3:8 4:4 5:0 6:8 7:0 8:0 9:0 10:8 11:4 12:0 13:8 14:0 15:8 16:28 17:0 18:0 19:0 20:4 21:4 22:0 23:0 24:0 25:12 26:40 27:4 28:0 29:0 30:8 31:0 32:4 33:4 34:0 35:0 36:4 37:4 38:4 39:0 40:12 41:17.26 42:2.6500001 43:4.8699999 44:3.0999999 45:2.6500001 46:12.83 47:3.0999999 48:0.44 49:2.6500001 50:7.52 51:0.88 52:2.21 53:8.4099998 54:2.6500001 55:10.18 56:5.75 57:3.0999999 58:5.75 59:0.88 60:3.0999999 #
-0.82218149553197861223452491685748 1:4 2:8 3:4 4:0 5:12 6:12 7:8 8:12 9:4 10:16 11:8 12:0 13:0 14:4 15:4 16:4 17:0 18:0 19:0 20:0 21:4 22:4 23:4 24:4 25:0 26:0 27:4 28:4 29:0 30:12 31:4 32:0 33:20 34:0 35:12 36:20 37:8 38:0 39:0 40:0 41:6 42:3.45 43:5.3299999 44:4.8800001 45:7.1999998 46:5.9299998 47:2.6300001 48:7.3499999 49:4.4299998 50:7.1999998 51:3.6800001 52:4.5 53:4.3499999 54:3.3800001 55:4.0500002 56:8.3299999 57:6.75 58:6.1500001 59:0.98000002 60:3.45 #
-1.9516589722300465847837358523975 1:4 2:0 3:12 4:8 5:8 6:4 7:0 8:0 9:4 10:8 11:0 12:0 13:4 14:0 15:8 16:24 17:4 18:4 19:4 20:4 21:0 22:4 23:0 24:12 25:4 26:16 27:4 28:0 29:12 30:20 31:4 32:4 33:0 34:4 35:0 36:4 37:4 38:0 39:0 40:8 41:10.87 42:1.09 43:4.3499999 44:4.3499999 45:6.52 46:4.8899999 47:0 48:4.8899999 49:8.1499996 50:8.6999998 51:1.09 52:7.0700002 53:2.72 54:3.26 55:5.4299998 56:8.1499996 57:6.52 58:7.6100001 59:0.54000002 60:3.8 #
21.879027174033776503847548156045 1:0 2:0 3:0 4:0 5:4 6:16 7:4 8:4 9:4 10:8 11:4 12:4 13:0 14:8 15:8 16:12 17:0 18:24 19:0 20:0 21:8 22:0 23:4 24:12 25:0 26:8 27:8 28:4 29:0 30:8 31:0 32:4 33:0 34:8 35:12 36:0 37:0 38:16 39:0 40:8 41:5.1300001 42:1.28 43:5.77 44:5.77 45:1.28 46:7.0500002 47:1.28 48:8.9700003 49:7.6900001 50:4.4899998 51:5.1300001 52:2.5599999 53:3.8499999 54:4.4899998 55:5.1300001 56:9.6199999 57:8.9700003 58:8.9700003 59:1.28 60:1.28 #
-1.9516589722300465847837358523975 1:4 2:4 3:0 4:4 5:8 6:20 7:0 8:4 9:0 10:4 11:4 12:4 13:0 14:8 15:4 16:16 17:4 18:4 19:4 20:4 21:0 22:0 23:4 24:0 25:0 26:4 27:8 28:0 29:8 30:8 31:0 32:4 33:4 34:4 35:20 36:12 37:12 38:4 39:4 40:4 41:9.1400003 42:0.97000003 43:3.05 44:4.5700002 45:2.77 46:9.9700003 47:2.49 48:4.4299998 49:4.4299998 50:8.8599997 51:2.3499999 52:3.05 53:9.6999998 54:3.46 55:5.54 56:11.77 57:5.1199999 58:4.5700002 59:0.69 60:3.05 #
25.371566638990604047876331605949 1:4 2:0 3:8 4:0 5:4 6:8 7:4 8:8 9:0 10:12 11:8 12:4 13:0 14:0 15:4 16:0 17:0 18:32 19:4 20:0 21:16 22:4 23:8 24:12 25:0 26:8 27:4 28:4 29:8 30:8 31:0 32:4 33:4 34:0 35:4 36:4 37:0 38:12 39:0 40:0 41:5.6199999 42:1.25 43:2.5 44:3.4400001 45:10 46:3.4400001 47:0.94 48:8.4399996 49:3.1199999 50:15.94 51:1.88 52:3.1199999 53:3.1199999 54:2.1900001 55:2.5 56:12.5 57:9.3800001 58:5.6199999 59:1.88 60:3.1199999 #
25.371566638990604047876331605949 1:8 2:4 3:0 4:0 5:8 6:8 7:0 8:0 9:4 10:20 11:4 12:0 13:4 14:0 15:8 16:20 17:8 18:4 19:0 20:0 21:8 22:4 23:12 24:16 25:4 26:0 27:4 28:0 29:8 30:12 31:0 32:4 33:4 34:4 35:0 36:16 37:0 38:0 39:0 40:4 41:7.5599999 42:0.83999997 43:5.04 44:9.2399998 45:1.6799999 46:8.3999996 47:1.6799999 48:4.1999998 49:8.3999996 50:4.1999998 51:0.83999997 52:1.6799999 53:5.04 54:0 55:0 56:14.29 57:7.5599999 58:13.45 59:2.52 60:3.3599999 #
-1.9516589722300465847837358523975 1:4 2:4 3:4 4:4 5:8 6:0 7:0 8:16 9:4 10:0 11:4 12:0 13:0 14:4 15:12 16:8 17:12 18:16 19:0 20:0 21:16 22:0 23:0 24:20 25:0 26:12 27:4 28:8 29:8 30:12 31:8 32:0 33:0 34:4 35:0 36:0 37:4 38:4 39:0 40:0 41:5.46 42:1.87 43:6.3200002 44:6.0300002 45:4.02 46:8.1899996 47:3.02 48:6.0300002 49:7.3299999 50:10.2 51:2.1600001 52:4.7399998 53:4.1700001 54:2.4400001 55:5.75 56:5.75 57:6.75 58:4.8899999 59:0.56999999 60:4.3099999 #
-1.9516589722300465847837358523975 1:8 2:0 3:0 4:0 5:4 6:4 7:4 8:32 9:12 10:4 11:4 12:0 13:0 14:4 15:0 16:4 17:4 18:12 19:0 20:4 21:4 22:4 23:4 24:8 25:4 26:0 27:4 28:8 29:12 30:8 31:0 32:4 33:8 34:0 35:4 36:4 37:8 38:12 39:4 40:0 41:4.75 42:0.91000003 43:8.4099998 44:6.5799999 45:5.48 46:5.1199999 47:2.1900001 48:4.1999998 49:9.5100002 50:8.5900002 51:2.01 52:6.0300002 53:5.6700001 54:2.9300001 55:3.1099999 56:6.2199998 57:5.3000002 58:4.75 59:1.46 60:6.7600002 #
-1.9516589722300465847837358523975 1:0 2:0 3:0 4:0 5:4 6:8 7:0 8:16 9:4 10:4 11:4 12:20 13:4 14:0 15:8 16:8 17:8 18:12 19:0 20:0 21:0 22:0 23:4 24:20 25:0 26:4 27:4 28:8 29:16 30:4 31:8 32:4 33:0 34:4 35:4 36:12 37:0 38:8 39:0 40:0 41:4.5799999 42:1.3099999 43:6.21 44:10.46 45:3.9200001 46:3.9200001 47:1.3099999 48:8.5 49:5.23 50:9.1499996 51:2.9400001 52:8.8199997 53:3.27 54:2.29 55:6.54 56:4.9000001 57:5.23 58:5.8800001 59:0.33000001 60:5.23 #
11.540732281357897193174721905962 1:8 2:4 3:0 4:0 5:0 6:12 7:4 8:0 9:0 10:32 11:8 12:0 13:8 14:0 15:16 16:8 17:0 18:0 19:0 20:0 21:0 22:4 23:4 24:4 25:4 26:12 27:0 28:12 29:20 30:4 31:0 32:0 33:0 34:4 35:0 36:20 37:8 38:4 39:0 40:0 41:5.6999998 42:2.53 43:5.0599999 44:3.8 45:6.3299999 46:14.56 47:3.8 48:2.53 49:6.96 50:5.6999998 51:1.9 52:5.0599999 53:5.0599999 54:1.9 55:3.1600001 56:9.4899998 57:5.0599999 58:8.8599997 59:0.63 60:1.9 #
-1.9516589722300465847837358523975 1:12 2:0 3:4 4:0 5:4 6:0 7:4 8:0 9:0 10:20 11:4 12:12 13:0 14:12 15:4 16:12 17:4 18:4 19:4 20:0 21:4 22:0 23:8 24:4 25:4 26:4 27:0 28:16 29:16 30:8 31:4 32:8 33:0 34:4 35:4 36:12 37:0 38:4 39:0 40:0 41:5.3400002 42:0.70999998 43:6.8499999 44:7.3000002 45:4.1799998 46:3.6500001 47:2.1400001 48:7.4699998 49:9.25 50:10.32 51:1.6900001 52:5.6900001 53:4.3600001 54:3.47 55:5.96 56:8.8999996 57:5.4299998 58:3.9100001 59:0.44 60:2.9400001 #
25.371566638990604047876331605949 1:12 2:0 3:4 4:0 5:0 6:8 7:4 8:4 9:12 10:28 11:4 12:0 13:8 14:4 15:4 16:4 17:4 18:0 19:0 20:0 21:0 22:0 23:4 24:4 25:12 26:12 27:0 28:12 29:8 30:12 31:0 32:4 33:4 34:0 35:0 36:12 37:12 38:4 39:0 40:0 41:4.8899999 42:0 43:6.52 44:7.0700002 45:1.63 46:5.98 47:1.09 48:5.98 49:8.1499996 50:14.67 51:0.54000002 52:2.72 53:5.98 54:4.3499999 55:5.98 56:7.6100001 57:7.6100001 58:4.3499999 59:1.09 60:3.8 #
-1.9516589722300465847837358523975 1:16 2:0 3:0 4:0 5:0 6:8 7:0 8:0 9:0 10:24 11:4 12:0 13:28 14:0 15:8 16:0 17:8 18:4 19:0 20:0 21:4 22:4 23:12 24:4 25:4 26:0 27:0 28:4 29:0 30:16 31:0 32:4 33:12 34:4 35:8 36:0 37:8 38:12 39:0 40:4 41:4.6500001 42:5.8099999 43:8.1400003 44:3.49 45:3.49 46:0 47:1.16 48:3.49 49:5.8099999 50:12.79 51:2.3299999 52:3.49 53:5.8099999 54:3.49 55:10.47 56:8.1400003 57:3.49 58:6.98 59:1.16 60:5.8099999 #
-1.9516589722300465847837358523975 1:24 2:0 3:0 4:4 5:0 6:12 7:4 8:0 9:0 10:12 11:8 12:0 13:24 14:0 15:4 16:4 17:4 18:0 19:0 20:0 21:8 22:0 23:4 24:4 25:16 26:0 27:0 28:4 29:4 30:8 31:0 32:4 33:8 34:4 35:4 36:4 37:12 38:8 39:0 40:8 41:7.1700001 42:2.23 43:5.0999999 44:4.46 45:4.46 46:6.6900001 47:1.91 48:5.8899999 49:6.6900001 50:6.5300002 51:2.23 52:5.8899999 53:4.46 54:3.98 55:5.0999999 56:8.7600002 57:7.0100002 58:7.96 59:0.95999998 60:2.55 #
-1.9516589722300465847837358523975 1:8 2:0 3:0 4:12 5:4 6:4 7:0 8:8 9:4 10:12 11:4 12:4 13:12 14:0 15:12 16:4 17:4 18:8 19:0 20:0 21:0 22:0 23:0 24:12 25:4 26:0 27:0 28:8 29:4 30:16 31:4 32:0 33:12 34:8 35:8 36:8 37:4 38:8 39:0 40:4 41:6.7399998 42:2.7 43:8.0900002 44:2.1600001 45:4.8499999 46:7.2800002 47:4.04 48:3.5 49:4.3099999 50:9.4300003 51:2.1600001 52:4.3099999 53:4.8499999 54:3.23 55:5.9299998 56:8.6300001 57:4.3099999 58:7.8200002 59:3.5 60:2.1600001 #
2.3421288939658637673346675001085 1:4 2:0 3:4 4:12 5:0 6:0 7:8 8:4 9:12 10:4 11:8 12:8 13:0 14:4 15:0 16:8 17:0 18:16 19:8 20:0 21:8 22:0 23:4 24:0 25:4 26:20 27:0 28:0 29:4 30:20 31:12 32:0 33:0 34:0 35:8 36:4 37:0 38:12 39:0 40:4 41:25 42:0 43:0 44:0 45:0 46:0 47:0 48:0 49:0 50:0 51:25 52:25 53:0 54:0 55:0 56:0 57:0 58:25 59:0 60:0 #
15.362202697164264009188627824187 1:4 2:4 3:0 4:4 5:12 6:0 7:0 8:28 9:0 10:12 11:8 12:0 13:0 14:0 15:0 16:4 17:12 18:0 19:0 20:12 21:4 22:0 23:0 24:4 25:0 26:8 27:4 28:24 29:8 30:24 31:4 32:0 33:4 34:0 35:0 36:4 37:4 38:8 39:0 40:0 41:5.9299998 42:0 43:3.7 44:2.22 45:5.1900001 46:4.4400001 47:0 48:17.040001 49:2.22 50:18.52 51:3.7 52:8.8900003 53:1.48 54:0.74000001 55:0.74000001 56:6.6700001 57:7.4099998 58:5.1900001 59:0.74000001 60:5.1900001 #
25.371566638990604047876331605949 1:8 2:4 3:0 4:4 5:8 6:0 7:0 8:20 9:0 10:16 11:4 12:4 13:0 14:0 15:0 16:4 17:4 18:20 19:0 20:4 21:0 22:0 23:4 24:0 25:16 26:4 27:0 28:20 29:0 30:24 31:0 32:0 33:12 34:0 35:0 36:8 37:8 38:0 39:0 40:4 41:5.8400002 42:0.69 43:1.37 44:4.4699998 45:8.9300003 46:6.5300002 47:0 48:12.03 49:2.0599999 50:16.49 51:1.03 52:4.4699998 53:3.78 54:1.37 55:2.75 56:10.31 57:4.4699998 58:5.5 59:1.72 60:6.1900001 #
-1.9516589722300465847837358523975 1:4 2:0 3:0 4:8 5:0 6:24 7:4 8:4 9:4 10:20 11:12 12:4 13:0 14:0 15:0 16:4 17:0 18:8 19:4 20:0 21:8 22:12 23:0 24:4 25:0 26:12 27:0 28:4 29:0 30:32 31:0 32:8 33:0 34:0 35:4 36:12 37:0 38:4 39:0 40:0 41:7.9099998 42:1.4400001 43:1.4400001 44:4.3200002 45:8.6300001 46:6.4699998 47:3.5999999 48:2.1600001 49:2.8800001 50:14.39 51:2.1600001 52:2.1600001 53:5.04 54:6.4699998 55:6.4699998 56:7.1900001 57:5.7600002 58:4.3200002 59:3.5999999 60:3.5999999 #
-1.9516589722300465847837358523975 1:56 2:0 3:0 4:4 5:0 6:12 7:0 8:0 9:0 10:0 11:4 12:0 13:8 14:0 15:4 16:8 17:4 18:0 19:0 20:0 21:0 22:0 23:4 24:8 25:12 26:4 27:0 28:8 29:12 30:8 31:8 32:16 33:0 34:4 35:0 36:4 37:4 38:8 39:0 40:0 41:8.6000004 42:3.23 43:1.4299999 44:2.51 45:4.6599998 46:8.96 47:1.08 48:7.5300002 49:3.5799999 50:15.77 51:1.4299999 52:3.23 53:3.23 54:2.1500001 55:2.1500001 56:8.6000004 57:6.0900002 58:11.47 59:1.4299999 60:2.8699999 #
-1.9516589722300465847837358523975 1:0 2:0 3:4 4:0 5:24 6:0 7:4 8:4 9:12 10:4 11:4 12:4 13:0 14:12 15:0 16:12 17:0 18:4 19:4 20:8 21:0 22:0 23:0 24:4 25:12 26:0 27:4 28:20 29:0 30:16 31:4 32:8 33:4 34:4 35:4 36:12 37:0 38:4 39:0 40:4 41:7.27 42:1.8200001 43:0 44:1.8200001 45:7.27 46:0 47:3.6400001 48:20 49:5.4499998 50:14.55 51:1.8200001 52:1.8200001 53:3.6400001 54:5.4499998 55:3.6400001 56:7.27 57:5.4499998 58:3.6400001 59:0 60:5.4499998 #
-1.9516589722300465847837358523975 1:8 2:0 3:4 4:4 5:0 6:8 7:8 8:4 9:4 10:8 11:4 12:0 13:16 14:8 15:0 16:12 17:8 18:4 19:0 20:0 21:12 22:0 23:0 24:4 25:4 26:4 27:4 28:8 29:16 30:16 31:8 32:0 33:8 34:4 35:0 36:4 37:0 38:8 39:0 40:0 41:7.9000001 42:2.52 43:4.4699998 44:5.3800001 45:3.3199999 46:8.25 47:1.6 48:3.3199999 49:4.2399998 50:12.03 51:1.49 52:2.0599999 53:10.54 54:5.1500001 55:5.04 56:10.42 57:3.8900001 58:5.27 59:0.69 60:2.4100001 #
