SVM-light Version V6.02
2 # kernel type
3 # kernel parameter -d 
0.001 # kernel parameter -g 
1 # kernel parameter -s 
1 # kernel parameter -r 
empty# kernel parameter -u 
60 # highest feature index 
569 # number of training documents 
432 # number of support vectors plus 1 
1.0895435 # threshold b, each following line is a SV (starting with alpha*y)
-0.52982630988146650619086130973301 1:36 2:0 3:0 4:4 5:4 6:0 7:8 8:0 9:4 10:8 11:8 12:0 13:0 14:0 15:12 16:8 17:0 18:0 19:8 20:0 21:0 22:12 23:0 24:20 25:0 26:8 27:0 28:4 29:16 30:4 31:0 32:8 33:0 34:4 35:4 36:12 37:0 38:8 39:0 40:0 41:9.2600002 42:0.28 43:4.4200001 44:3.99 45:4.1300001 46:8.2600002 47:2.5599999 48:6.1300001 49:5.27 50:10.97 51:2.4200001 52:4.4200001 53:3.28 54:3.99 55:5.1300001 56:6.6999998 57:6.1300001 58:8.2600002 59:1.14 60:3.28 #
-0.52982630988146650619086130973301 1:20 2:0 3:0 4:0 5:4 6:12 7:0 8:4 9:8 10:12 11:8 12:0 13:4 14:0 15:8 16:8 17:8 18:4 19:0 20:0 21:12 22:0 23:4 24:8 25:4 26:8 27:12 28:8 29:4 30:4 31:0 32:4 33:8 34:4 35:4 36:4 37:0 38:4 39:0 40:8 41:9.21 42:0.99000001 43:4.6100001 44:8.2200003 45:3.95 46:7.2399998 47:3.29 48:5.2600002 49:6.9099998 50:7.2399998 51:3.6199999 52:3.29 53:4.2800002 54:1.3200001 55:5.9200001 56:4.6100001 57:6.9099998 58:6.25 59:3.6199999 60:3.29 #
-0.46071624988703918646137935866136 1:8 2:0 3:0 4:0 5:0 6:12 7:0 8:12 9:4 10:16 11:8 12:4 13:4 14:0 15:0 16:8 17:4 18:16 19:4 20:0 21:12 22:0 23:0 24:12 25:0 26:4 27:0 28:4 29:12 30:12 31:4 32:4 33:4 34:0 35:12 36:8 37:0 38:8 39:0 40:4 41:7.29 42:0 43:5.21 44:7.29 45:2.0799999 46:4.1700001 47:3.1199999 48:7.29 49:10.42 50:13.54 51:2.0799999 52:7.29 53:5.21 54:2.0799999 55:8.3299999 56:4.1700001 57:5.21 58:2.0799999 59:0 60:3.1199999 #
-0.43233181995624719862192364416842 1:12 2:0 3:4 4:4 5:8 6:8 7:0 8:12 9:0 10:4 11:4 12:4 13:8 14:4 15:4 16:8 17:8 18:4 19:0 20:4 21:0 22:0 23:4 24:4 25:12 26:16 27:0 28:0 29:12 30:12 31:4 32:4 33:0 34:4 35:4 36:0 37:4 38:16 39:0 40:4 41:8.46 42:0.76999998 43:2.6900001 44:3.8499999 45:5.3800001 46:7.6900001 47:1.54 48:6.1500001 49:9.2299995 50:9.2299995 51:2.3099999 52:3.46 53:5.3800001 54:3.0799999 55:4.23 56:5.3800001 57:6.54 58:10 59:1.15 60:3.46 #
-0.52982630988146650619086130973301 1:16 2:4 3:0 4:0 5:0 6:12 7:0 8:0 9:0 10:24 11:4 12:0 13:4 14:0 15:12 16:4 17:4 18:12 19:4 20:0 21:12 22:8 23:4 24:0 25:8 26:8 27:4 28:4 29:8 30:12 31:4 32:4 33:0 34:0 35:0 36:0 37:4 38:8 39:4 40:8 41:14.68 42:1.83 43:3.6700001 44:1.83 45:0.92000002 46:7.3400002 47:8.2600002 48:2.75 49:2.75 50:16.51 51:0.92000002 52:0.92000002 53:5.5 54:3.6700001 55:2.75 56:10.09 57:2.75 58:7.3400002 59:2.75 60:2.75 #
0.45421640520387740469487880545785 1:8 2:8 3:0 4:0 5:8 6:8 7:8 8:4 9:0 10:4 11:4 12:0 13:0 14:4 15:20 16:12 17:4 18:4 19:4 20:0 21:4 22:0 23:4 24:8 25:0 26:4 27:4 28:16 29:8 30:4 31:0 32:4 33:0 34:12 35:8 36:4 37:4 38:4 39:0 40:12 41:12.13 42:1.62 43:4.5799999 44:8.0900002 45:4.3099999 46:10.24 47:0.54000002 48:6.1999998 49:7.2800002 50:6.7399998 51:3.23 52:4.04 53:4.04 54:4.3099999 55:5.1199999 56:2.7 57:5.3899999 58:5.1199999 59:1.08 60:3.23 #
0.39390671031515989142235412145965 1:12 2:0 3:0 4:0 5:4 6:4 7:4 8:0 9:4 10:20 11:4 12:0 13:4 14:0 15:12 16:12 17:12 18:4 19:0 20:4 21:4 22:0 23:4 24:12 25:12 26:8 27:0 28:8 29:8 30:12 31:0 32:4 33:12 34:4 35:0 36:4 37:8 38:0 39:0 40:0 41:9.3199997 42:0.31999999 43:7.7199998 44:5.4699998 45:5.1399999 46:8.6800003 47:2.25 48:2.25 49:7.4000001 50:7.4000001 51:1.61 52:7.0700002 53:4.5 54:3.22 55:3.54 56:7.0700002 57:4.8200002 58:4.5 59:2.8900001 60:4.8200002 #
1.3245657747036663209883045055903 1:8 2:0 3:0 4:0 5:4 6:0 7:4 8:0 9:0 10:16 11:8 12:0 13:12 14:4 15:20 16:4 17:8 18:12 19:0 20:0 21:4 22:0 23:4 24:8 25:4 26:40 27:0 28:4 29:8 30:0 31:20 32:0 33:8 34:0 35:0 36:0 37:0 38:0 39:0 40:0 41:10.33 42:0.56999999 43:6.8800001 44:7.8400002 45:1.53 46:8.8000002 47:0.38 48:8.0299997 49:9.75 50:8.4099998 51:2.0999999 52:3.8199999 53:2.6800001 54:3.0599999 55:3.25 56:4.5900002 57:6.1199999 58:10.33 59:0.19 60:1.34 #
1.3245657747036663209883045055903 1:16 2:4 3:0 4:0 5:0 6:16 7:0 8:4 9:0 10:12 11:4 12:0 13:12 14:0 15:12 16:4 17:0 18:8 19:4 20:4 21:20 22:0 23:4 24:20 25:0 26:0 27:0 28:0 29:4 30:4 31:0 32:0 33:20 34:4 35:0 36:4 37:8 38:12 39:0 40:0 41:9.6899996 42:1.76 43:3.52 44:4.4099998 45:1.3200001 46:7.0500002 47:3.0799999 48:8.3699999 49:3.52 50:10.13 51:4.4099998 52:2.6400001 53:6.6100001 54:7.4899998 55:6.1700001 56:6.1700001 57:4.4099998 58:5.29 59:0.44 60:3.52 #
0.082758103386479708873935123847332 1:4 2:4 3:0 4:0 5:4 6:8 7:8 8:4 9:4 10:8 11:4 12:4 13:0 14:8 15:12 16:16 17:0 18:4 19:4 20:4 21:20 22:0 23:0 24:8 25:12 26:4 27:8 28:4 29:4 30:8 31:0 32:8 33:4 34:0 35:4 36:12 37:4 38:0 39:0 40:0 41:9.1499996 42:1.96 43:4.79 44:6.3200002 45:2.6099999 46:11.98 47:2.1800001 48:7.8400002 49:7.8400002 50:6.9699998 51:2.1800001 52:3.9200001 53:3.49 54:2.8299999 55:2.8299999 56:4.5799999 57:6.3200002 58:9.5900002 59:0.44 60:2.1800001 #
-0.52982630988146650619086130973301 1:4 2:0 3:0 4:0 5:4 6:4 7:4 8:4 9:0 10:4 11:4 12:0 13:0 14:4 15:20 16:20 17:20 18:0 19:0 20:8 21:0 22:0 23:12 24:16 25:8 26:12 27:0 28:8 29:4 30:4 31:0 32:0 33:0 34:8 35:8 36:4 37:8 38:4 39:4 40:0 41:8.3999996 42:0.25999999 43:4.46 44:9.71 45:4.1999998 46:6.3000002 47:0.79000002 48:5.5100002 49:11.02 50:6.8200002 51:1.3099999 52:3.1500001 53:2.6199999 54:3.9400001 55:6.5599999 56:7.3499999 57:6.3000002 58:7.3499999 59:1.05 60:2.8900001 #
-0.52982630988146650619086130973301 1:12 2:4 3:0 4:0 5:8 6:4 7:0 8:0 9:4 10:8 11:4 12:8 13:0 14:8 15:12 16:12 17:4 18:8 19:0 20:4 21:16 22:0 23:8 24:16 25:4 26:0 27:0 28:8 29:16 30:0 31:0 32:0 33:12 34:4 35:0 36:4 37:4 38:8 39:0 40:0 41:7.8400002 42:0.38 43:4.9699998 44:10.71 45:4.02 46:2.6800001 47:1.15 48:4.9699998 49:11.47 50:10.33 51:1.91 52:4.21 53:4.9699998 54:3.4400001 55:4.02 56:8.2200003 57:5.9299998 58:5.1599998 59:0.38 60:3.25 #
-0.52982630988146650619086130973301 1:8 2:0 3:0 4:0 5:4 6:0 7:0 8:12 9:0 10:12 11:4 12:4 13:0 14:8 15:16 16:20 17:0 18:8 19:4 20:0 21:4 22:0 23:8 24:12 25:16 26:0 27:0 28:0 29:12 30:0 31:4 32:8 33:12 34:4 35:0 36:4 37:8 38:8 39:0 40:0 41:5.1700001 42:0 43:8.6199999 44:6.9000001 45:5.1700001 46:8.6199999 47:0 48:3.45 49:10.34 50:8.6199999 51:1.72 52:1.72 53:5.1700001 54:8.6199999 55:6.9000001 56:1.72 57:5.1700001 58:6.9000001 59:0 60:5.1700001 #
1.163894306049005233916204815614 1:28 2:4 3:0 4:0 5:0 6:12 7:0 8:12 9:0 10:12 11:4 12:4 13:0 14:0 15:12 16:4 17:0 18:8 19:0 20:0 21:8 22:8 23:4 24:4 25:0 26:0 27:8 28:8 29:12 30:12 31:0 32:4 33:8 34:0 35:8 36:4 37:0 38:8 39:4 40:0 41:9.9799995 42:1.63 43:6.3099999 44:4.6799998 45:5.6999998 46:9.3699999 47:2.24 48:6.7199998 49:4.2800002 50:6.3099999 51:2.24 52:3.6700001 53:4.8899999 54:3.26 55:5.6999998 56:6.1100001 57:5.3000002 58:8.96 59:0.2 60:2.4400001 #
-0.28385941367495415299515570950462 1:12 2:0 3:12 4:4 5:4 6:0 7:0 8:8 9:16 10:12 11:4 12:0 13:0 14:8 15:0 16:0 17:4 18:4 19:0 20:12 21:16 22:0 23:8 24:4 25:0 26:20 27:0 28:8 29:4 30:8 31:0 32:0 33:4 34:0 35:8 36:8 37:4 38:8 39:0 40:0 41:4.7199998 42:2.4200001 43:6.8000002 44:6.9099998 45:4.4899998 46:8.5299997 47:2.0699999 48:5.9899998 49:6.8000002 50:9.79 51:3.9200001 52:3.6900001 53:2.53 54:2.8800001 55:6.1100001 56:5.8800001 57:6.4499998 58:7.5999999 59:0.46000001 60:1.96 #
1.3245657747036663209883045055903 1:32 2:0 3:0 4:0 5:0 6:4 7:0 8:0 9:4 10:16 11:4 12:0 13:0 14:4 15:12 16:8 17:4 18:12 19:0 20:0 21:0 22:0 23:4 24:8 25:4 26:12 27:0 28:4 29:12 30:8 31:0 32:4 33:8 34:0 35:8 36:4 37:4 38:4 39:8 40:8 41:3.9300001 42:1.97 43:6.8899999 44:6.5599999 45:3.9300001 46:5.9000001 47:3.6099999 48:5.5700002 49:7.8699999 50:10.16 51:1.3099999 52:3.28 53:4.2600002 54:4.9200001 55:5.25 56:6.5599999 57:4.9200001 58:6.5599999 59:0.98000002 60:5.5700002 #
-0.52982630988146650619086130973301 1:24 2:4 3:4 4:0 5:0 6:8 7:4 8:0 9:0 10:16 11:4 12:0 13:4 14:0 15:16 16:4 17:8 18:4 19:0 20:0 21:0 22:0 23:4 24:16 25:0 26:8 27:0 28:8 29:4 30:20 31:0 32:4 33:8 34:4 35:4 36:4 37:8 38:8 39:0 40:0 41:10 42:2 43:8 44:7 45:3 46:4 47:2 48:7 49:6 50:5 51:1 52:3 53:7 54:2 55:8 56:4 57:6 58:8 59:2 60:5 #
-0.52982630988146650619086130973301 1:32 2:4 3:0 4:0 5:0 6:4 7:0 8:0 9:0 10:8 11:4 12:0 13:4 14:4 15:16 16:8 17:4 18:12 19:0 20:0 21:4 22:0 23:4 24:4 25:8 26:12 27:0 28:8 29:0 30:8 31:4 32:4 33:8 34:4 35:12 36:4 37:0 38:4 39:4 40:8 41:10.7 42:2.5599999 43:5.1199999 44:6.98 45:3.02 46:6.98 47:3.02 48:4.1900001 49:3.49 50:10 51:1.86 52:3.26 53:4.1900001 54:4.4200001 55:5.5799999 56:6.98 57:6.0500002 58:7.21 59:1.16 60:3.26 #
-0.52982630988146650619086130973301 1:16 2:4 3:0 4:4 5:0 6:8 7:0 8:0 9:0 10:16 11:4 12:4 13:12 14:0 15:20 16:0 17:0 18:4 19:8 20:0 21:4 22:0 23:0 24:4 25:4 26:16 27:0 28:4 29:12 30:8 31:4 32:8 33:8 34:4 35:4 36:12 37:4 38:4 39:0 40:0 41:7.8000002 42:1.02 43:6.0999999 44:8.1400003 45:4.75 46:7.1199999 47:2.03 48:4.75 49:4.0700002 50:9.8299999 51:2.3699999 52:4.75 53:5.0799999 54:3.3900001 55:6.7800002 56:5.7600002 57:5.4200001 58:5.0799999 59:1.36 60:4.4099998 #
1.0070407902156865986853517824784 1:8 2:0 3:0 4:0 5:0 6:0 7:0 8:4 9:4 10:8 11:4 12:0 13:0 14:4 15:20 16:8 17:28 18:4 19:0 20:8 21:8 22:0 23:12 24:16 25:4 26:4 27:0 28:4 29:20 30:4 31:0 32:8 33:0 34:0 35:0 36:4 37:4 38:8 39:4 40:0 41:6.6500001 42:0.64999998 43:7.48 44:9.0500002 45:3.23 46:4.9899998 47:1.75 48:6.46 49:9.3299999 50:8.4899998 51:2.03 52:4.0599999 53:4.9899998 54:3.5999999 55:4.25 56:8.1300001 57:5.7199998 58:6.0900002 59:0.55000001 60:2.49 #
1.3245657747036663209883045055903 1:4 2:0 3:0 4:8 5:12 6:0 7:0 8:4 9:8 10:8 11:4 12:0 13:0 14:4 15:12 16:20 17:8 18:4 19:0 20:4 21:20 22:0 23:8 24:24 25:4 26:4 27:0 28:12 29:4 30:8 31:4 32:0 33:0 34:0 35:0 36:0 37:4 38:4 39:0 40:4 41:8.04 42:1.61 43:4.5599999 44:6.6999998 45:4.02 46:8.3100004 47:3.22 48:6.9699998 49:9.1199999 50:8.8500004 51:1.0700001 52:5.3600001 53:4.02 54:3.22 55:3.22 56:5.3600001 57:6.1700001 58:6.9699998 59:0.54000002 60:2.6800001 #
1.3245657747036663209883045055903 1:4 2:4 3:0 4:0 5:4 6:4 7:0 8:4 9:4 10:8 11:8 12:4 13:0 14:12 15:8 16:24 17:12 18:0 19:0 20:0 21:4 22:0 23:0 24:16 25:4 26:0 27:0 28:8 29:24 30:4 31:0 32:4 33:8 34:0 35:4 36:12 37:4 38:4 39:0 40:4 41:9.0900002 42:0 43:4.4299998 44:8.1599998 45:3.73 46:7.9299998 47:3.03 48:5.1300001 49:7.46 50:12.59 51:0.69999999 52:2.5599999 53:4.9000001 54:2.8 55:4.1999998 56:6.29 57:5.1300001 58:6.0599999 59:1.4 60:4.4299998 #
-0.52982630988146650619086130973301 1:0 2:0 3:4 4:0 5:16 6:4 7:4 8:0 9:12 10:12 11:8 12:0 13:8 14:4 15:8 16:4 17:12 18:0 19:0 20:4 21:20 22:4 23:0 24:12 25:4 26:4 27:0 28:4 29:16 30:8 31:0 32:0 33:4 34:0 35:8 36:4 37:4 38:0 39:8 40:0 41:6.1100001 42:0.87 43:5.6799998 44:5.2399998 45:6.1100001 46:4.8000002 47:0.87 48:3.9300001 49:8.7299995 50:8.7299995 51:2.1800001 52:4.8000002 53:3.49 54:6.1100001 55:4.8000002 56:9.1700001 57:5.2399998 58:7.8600001 59:1.75 60:3.49 #
-0.52982630988146650619086130973301 1:8 2:0 3:0 4:0 5:4 6:8 7:8 8:0 9:4 10:20 11:4 12:0 13:0 14:0 15:8 16:20 17:12 18:0 19:0 20:4 21:0 22:0 23:12 24:8 25:0 26:4 27:4 28:4 29:12 30:16 31:0 32:4 33:20 34:0 35:0 36:0 37:12 38:0 39:0 40:4 41:7.4099998 42:0 43:0 44:3.7 45:11.11 46:14.81 47:0 48:0 49:3.7 50:14.81 51:7.4099998 52:3.7 53:7.4099998 54:3.7 55:0 56:3.7 57:3.7 58:3.7 59:7.4099998 60:3.7 #
-0.52982630988146650619086130973301 1:4 2:4 3:4 4:0 5:4 6:4 7:0 8:12 9:8 10:12 11:4 12:0 13:8 14:4 15:4 16:16 17:4 18:4 19:0 20:4 21:16 22:0 23:8 24:20 25:0 26:0 27:0 28:8 29:12 30:16 31:0 32:4 33:4 34:0 35:0 36:4 37:0 38:4 39:0 40:4 41:10.39 42:0 43:5.1900001 44:9.0900002 45:2.5999999 46:2.5999999 47:3.9000001 48:7.79 49:5.1900001 50:11.69 51:1.3 52:5.1900001 53:6.4899998 54:5.1900001 55:7.79 56:1.3 57:3.9000001 58:3.9000001 59:1.3 60:5.1900001 #
1.3245657747036663209883045055903 1:32 2:4 3:0 4:0 5:0 6:4 7:0 8:0 9:0 10:16 11:4 12:0 13:8 14:4 15:20 16:4 17:0 18:0 19:4 20:0 21:4 22:0 23:0 24:12 25:0 26:8 27:4 28:12 29:0 30:12 31:0 32:0 33:0 34:4 35:12 36:12 37:8 38:4 39:0 40:8 41:14.64 42:1.38 43:4.4200001 44:6.0799999 45:3.5899999 46:8.8400002 47:1.38 48:6.3499999 49:6.0799999 50:9.9399996 51:4.1399999 52:2.76 53:4.1399999 54:4.1399999 55:3.5899999 56:5.8000002 57:5.52 58:3.8699999 59:1.38 60:1.9299999 #
0.097717532629796099996610792004503 1:24 2:4 3:0 4:0 5:0 6:8 7:4 8:0 9:0 10:12 11:4 12:0 13:12 14:0 15:16 16:4 17:0 18:4 19:4 20:4 21:12 22:0 23:4 24:4 25:12 26:8 27:0 28:8 29:4 30:16 31:4 32:4 33:4 34:0 35:4 36:8 37:4 38:4 39:0 40:0 41:10.14 42:1.5599999 43:5.46 44:6.04 45:3.9000001 46:10.33 47:1.95 48:7.02 49:5.2600002 50:7.5999999 51:1.95 52:3.9000001 53:4.48 54:4.0900002 55:5.6500001 56:5.0700002 57:3.7 58:7.21 59:0.57999998 60:4.0900002 #
1.0475579795997134180396415104042 1:24 2:4 3:0 4:4 5:0 6:4 7:0 8:0 9:0 10:8 11:4 12:4 13:4 14:4 15:16 16:0 17:4 18:8 19:12 20:0 21:12 22:0 23:4 24:8 25:4 26:8 27:0 28:4 29:8 30:16 31:4 32:0 33:4 34:4 35:4 36:0 37:4 38:8 39:4 40:4 41:9.8800001 42:1.34 43:4.3600001 44:5.6999998 45:2.3499999 46:7.3699999 47:1.17 48:6.5300002 49:5.8600001 50:7.1999998 51:2.01 52:2.6800001 53:11.22 54:3.1800001 55:4.02 56:6.6999998 57:7.54 58:8.54 59:0.67000002 60:1.6799999 #
-0.52982630988146650619086130973301 1:40 2:0 3:0 4:0 5:0 6:12 7:0 8:0 9:0 10:16 11:4 12:0 13:4 14:4 15:8 16:4 17:0 18:4 19:4 20:0 21:8 22:0 23:0 24:0 25:8 26:12 27:0 28:0 29:8 30:12 31:0 32:0 33:4 34:0 35:4 36:8 37:12 38:8 39:8 40:8 41:6.4000001 42:1.2 43:3.5999999 44:7.5999999 45:3.2 46:7.1999998 47:2 48:4.4000001 49:3.5999999 50:8.8000002 51:2.4000001 52:3.5999999 53:8 54:4 55:9.1999998 56:5.5999999 57:6 58:9.1999998 59:2 60:2 #
-0.52982630988146650619086130973301 1:24 2:0 3:0 4:0 5:0 6:0 7:0 8:8 9:4 10:12 11:4 12:4 13:4 14:0 15:16 16:12 17:12 18:0 19:0 20:0 21:12 22:0 23:0 24:16 25:8 26:4 27:0 28:0 29:12 30:16 31:0 32:0 33:0 34:0 35:4 36:16 37:8 38:4 39:0 40:0 41:10.51 42:0.2 43:4.2399998 44:6.6700001 45:2.6300001 46:9.29 47:1.21 48:5.6599998 49:5.0500002 50:11.72 51:0.40000001 52:3.4300001 53:4.04 54:5.25 55:6.0599999 56:7.27 57:4.4400001 58:8.6899996 59:0.40000001 60:2.8299999 #
-0.52982630988146650619086130973301 1:16 2:12 3:0 4:0 5:4 6:16 7:0 8:4 9:0 10:12 11:4 12:0 13:4 14:4 15:16 16:4 17:0 18:0 19:4 20:0 21:12 22:0 23:8 24:12 25:0 26:0 27:0 28:8 29:0 30:16 31:0 32:4 33:4 34:8 35:4 36:12 37:4 38:0 39:4 40:4 41:6.4499998 42:0.74000001 43:5.96 44:9.6800003 45:3.97 46:6.6999998 47:1.49 48:4.96 49:10.92 50:9.6800003 51:2.48 52:2.98 53:1.99 54:3.97 55:5.46 56:8.1899996 57:4.96 58:6.1999998 59:0.99000001 60:2.23 #
1.3245657747036663209883045055903 1:0 2:0 3:0 4:4 5:16 6:0 7:0 8:0 9:16 10:12 11:4 12:0 13:8 14:4 15:8 16:4 17:12 18:4 19:0 20:8 21:12 22:0 23:4 24:8 25:4 26:4 27:4 28:0 29:16 30:12 31:4 32:8 33:4 34:4 35:0 36:0 37:0 38:0 39:8 40:8 41:5.9699998 42:0.75 43:8.96 44:6.7199998 45:0 46:2.24 47:2.99 48:4.48 49:6.7199998 50:14.18 51:2.24 52:3.73 53:2.99 54:12.69 55:5.2199998 56:5.9699998 57:5.9699998 58:3.73 59:0.75 60:3.73 #
1.3245657747036663209883045055903 1:0 2:0 3:0 4:0 5:8 6:4 7:0 8:20 9:16 10:12 11:4 12:16 13:4 14:0 15:0 16:4 17:0 18:12 19:0 20:0 21:4 22:0 23:0 24:12 25:4 26:0 27:0 28:8 29:8 30:8 31:0 32:16 33:4 34:12 35:0 36:8 37:8 38:4 39:0 40:4 41:3.3099999 42:0.99000001 43:3.8099999 44:7.4499998 45:2.98 46:4.9699998 47:1.66 48:7.9499998 49:7.2800002 50:9.7700005 51:1.99 52:10.1 53:2.6500001 54:7.1199999 55:2.48 56:11.59 57:5.1300001 58:5.96 59:0.17 60:2.6500001 #
0.064473271173940083222930752526736 1:4 2:0 3:0 4:0 5:8 6:4 7:4 8:12 9:16 10:12 11:4 12:4 13:4 14:4 15:4 16:12 17:0 18:4 19:0 20:4 21:4 22:0 23:4 24:20 25:4 26:0 27:4 28:4 29:24 30:12 31:0 32:4 33:0 34:4 35:0 36:12 37:4 38:0 39:0 40:0 41:2.9100001 42:1.46 43:7.2800002 44:12.14 45:2.4300001 46:6.8000002 47:1.9400001 48:9.2200003 49:6.8000002 50:9.71 51:2.9100001 52:3.8800001 53:3.4000001 54:3.8800001 55:2.9100001 56:6.3099999 57:6.8000002 58:5.3400002 59:0.97000003 60:2.9100001 #
-0.52982630988146650619086130973301 1:16 2:0 3:0 4:0 5:8 6:0 7:0 8:4 9:4 10:12 11:4 12:0 13:0 14:0 15:16 16:16 17:16 18:4 19:0 20:0 21:0 22:0 23:0 24:8 25:8 26:0 27:4 28:12 29:28 30:0 31:0 32:16 33:0 34:4 35:4 36:12 37:0 38:4 39:0 40:0 41:9.0900002 42:0.28 43:3.4100001 44:2.8399999 45:4.2600002 46:5.1100001 47:2.27 48:7.3899999 49:4.5500002 50:10.8 51:2.8399999 52:5.1100001 53:5.6799998 54:6.5300002 55:4.2600002 56:9.0900002 57:7.0999999 58:5.1100001 59:2.27 60:1.99 #
-0.52982630988146650619086130973301 1:4 2:0 3:0 4:4 5:16 6:4 7:0 8:4 9:12 10:4 11:8 12:4 13:4 14:0 15:12 16:4 17:8 18:8 19:0 20:4 21:0 22:0 23:4 24:0 25:12 26:0 27:0 28:8 29:12 30:12 31:0 32:4 33:4 34:4 35:4 36:8 37:4 38:4 39:12 40:8 41:5.7800002 42:1.73 43:5.3899999 44:6.5500002 45:4.2399998 46:4.6199999 47:3.47 48:6.7399998 49:7.5100002 50:10.79 51:2.5 52:4.6199999 53:3.6600001 54:2.5 55:5.1999998 56:6.5500002 57:7.1300001 58:5.3899999 59:1.35 60:4.2399998 #
-0.52982630988146650619086130973301 1:8 2:4 3:0 4:0 5:8 6:4 7:0 8:4 9:8 10:12 11:4 12:8 13:0 14:4 15:12 16:16 17:0 18:4 19:0 20:4 21:4 22:0 23:0 24:16 25:8 26:0 27:0 28:8 29:12 30:0 31:0 32:4 33:4 34:8 35:12 36:8 37:0 38:4 39:4 40:8 41:4.7800002 42:2.3900001 43:8.3699999 44:6.3699999 45:6.3699999 46:7.1700001 47:1.59 48:5.98 49:6.3699999 50:10.36 51:0 52:3.5899999 53:5.98 54:3.1900001 55:6.77 56:6.77 57:4.7800002 58:2.79 59:0.80000001 60:5.5799999 #
0.89820302433644561013181828457164 1:8 2:0 3:0 4:0 5:0 6:20 7:0 8:4 9:0 10:28 11:4 12:0 13:16 14:0 15:8 16:8 17:0 18:4 19:0 20:0 21:0 22:0 23:8 24:8 25:4 26:12 27:4 28:12 29:0 30:12 31:0 32:0 33:0 34:4 35:16 36:8 37:4 38:4 39:0 40:4 41:8.29 42:1.38 43:6.9099998 44:4.6999998 45:3.8699999 46:5.52 47:5.25 48:6.6300001 49:4.6999998 50:10.77 51:2.76 52:2.21 53:5.52 54:3.5899999 55:8.0100002 56:5.52 57:5.8000002 58:4.9699998 59:0.28 60:3.3099999 #
1.0793854824046049678543113259366 1:12 2:8 3:0 4:4 5:0 6:8 7:0 8:0 9:0 10:20 11:4 12:0 13:4 14:4 15:12 16:8 17:8 18:4 19:0 20:4 21:4 22:4 23:8 24:4 25:4 26:8 27:0 28:0 29:4 30:12 31:4 32:4 33:4 34:8 35:0 36:0 37:16 38:16 39:0 40:0 41:7.0599999 42:3.53 43:4.9400001 44:5.6500001 45:4 46:6.8200002 47:2.5899999 48:4.2399998 49:5.4099998 50:12.24 51:2.3499999 52:2.3499999 53:6.1199999 54:5.4099998 55:6.5900002 56:5.4099998 57:5.1799998 58:5.4099998 59:0.94 60:3.76 #
0.44662708285749630476857419125736 1:16 2:0 3:0 4:0 5:0 6:16 7:0 8:4 9:0 10:16 11:4 12:4 13:0 14:8 15:12 16:12 17:4 18:4 19:0 20:0 21:8 22:0 23:4 24:8 25:8 26:16 27:0 28:4 29:0 30:8 31:4 32:0 33:0 34:0 35:0 36:12 37:12 38:12 39:0 40:4 41:13.27 42:2.8399999 43:5.21 44:4.7399998 45:2.3699999 46:9.9499998 47:1.9 48:5.21 49:3.79 50:7.1100001 51:1.9 52:3.3199999 53:4.7399998 54:5.21 55:5.21 56:6.1599998 57:5.21 58:10.9 59:0.47 60:0.47 #
-0.52982630988146650619086130973301 1:20 2:0 3:0 4:0 5:0 6:16 7:0 8:0 9:0 10:16 11:4 12:4 13:4 14:4 15:16 16:8 17:0 18:8 19:0 20:0 21:8 22:8 23:0 24:4 25:0 26:8 27:16 28:0 29:8 30:12 31:0 32:0 33:8 34:8 35:4 36:4 37:4 38:4 39:0 40:4 41:7.5900002 42:2.53 43:5.0599999 44:8.8599997 45:1.27 46:8.8599997 47:0 48:6.3299999 49:5.0599999 50:5.0599999 51:2.53 52:5.0599999 53:6.3299999 54:2.53 55:5.0599999 56:7.5900002 57:7.5900002 58:8.8599997 59:2.53 60:1.27 #
-0.52982630988146650619086130973301 1:16 2:4 3:0 4:0 5:0 6:8 7:0 8:0 9:4 10:12 11:4 12:0 13:4 14:8 15:12 16:12 17:0 18:4 19:12 20:0 21:4 22:4 23:8 24:4 25:0 26:8 27:0 28:4 29:8 30:8 31:0 32:4 33:12 34:8 35:4 36:0 37:8 38:12 39:0 40:4 41:8.9300003 42:2 43:5.0999999 44:4.5500002 45:2.9100001 46:8.9300003 47:4.3699999 48:4.1900001 49:4.1900001 50:8.1999998 51:2.3699999 52:3.46 53:6.1900001 54:5.8299999 55:6.1900001 56:5.8299999 57:4.5500002 58:6.9200001 59:2 60:3.28 #
-0.52982630988146650619086130973301 1:12 2:0 3:0 4:0 5:0 6:4 7:0 8:4 9:4 10:16 11:4 12:0 13:12 14:0 15:20 16:8 17:4 18:8 19:0 20:4 21:8 22:0 23:0 24:0 25:0 26:4 27:8 28:4 29:0 30:8 31:0 32:8 33:8 34:4 35:8 36:4 37:4 38:24 39:8 40:0 41:7.6599998 42:1.41 43:6.0500002 44:6.8499999 45:2.4200001 46:7.46 47:3.8299999 48:3.6300001 49:3.8299999 50:8.8699999 51:1.61 52:3.23 53:7.6599998 54:4.23 55:6.25 56:7.46 57:4.4400001 58:7.8600001 59:2.6199999 60:2.6199999 #
1.3230426305669562569988784161978 1:16 2:0 3:0 4:0 5:4 6:0 7:0 8:4 9:4 10:12 11:4 12:4 13:0 14:0 15:12 16:24 17:12 18:4 19:0 20:0 21:8 22:0 23:4 24:12 25:12 26:0 27:4 28:4 29:12 30:4 31:0 32:12 33:0 34:0 35:8 36:0 37:0 38:8 39:8 40:4 41:8.6999998 42:0.54000002 43:4.3499999 44:5.98 45:2.72 46:8.1499996 47:2.72 48:7.6100001 49:8.6999998 50:8.1499996 51:0 52:7.0700002 53:3.8 54:5.98 55:0.54000002 56:6.52 57:5.98 58:5.4299998 59:2.1700001 60:4.8899999 #
0.28439086710756428244550875206187 1:0 2:4 3:0 4:0 5:12 6:4 7:0 8:8 9:8 10:12 11:4 12:4 13:0 14:0 15:16 16:16 17:8 18:0 19:4 20:0 21:0 22:0 23:4 24:4 25:8 26:8 27:4 28:8 29:16 30:0 31:0 32:16 33:12 34:4 35:0 36:4 37:4 38:0 39:8 40:0 41:3.8 42:0.22 43:5.5900002 44:7.3800001 45:6.2600002 46:4.4699998 47:1.79 48:6.2600002 49:6.71 50:10.29 51:0.44999999 52:7.1599998 53:6.71 54:2.6800001 55:4.6999998 56:6.4899998 57:7.6100001 58:6.9400001 59:0.67000002 60:3.8 #
0.49774185508180945891609781028819 1:16 2:4 3:0 4:0 5:0 6:4 7:4 8:12 9:0 10:8 11:4 12:8 13:4 14:0 15:16 16:20 17:0 18:0 19:0 20:0 21:4 22:0 23:0 24:12 25:8 26:8 27:4 28:0 29:20 30:4 31:12 32:0 33:4 34:8 35:0 36:8 37:0 38:8 39:0 40:0 41:7.0500002 42:1.63 43:5.8200002 44:6.6399999 45:4.1900001 46:6.23 47:3.1700001 48:4.9000001 49:5.1100001 50:8.7799997 51:1.84 52:4.1900001 53:5.21 54:5.6199999 55:5.6199999 56:7.46 57:4.8000002 58:7.25 59:1.33 60:3.1700001 #
-0.52982630988146650619086130973301 1:0 2:0 3:4 4:12 5:0 6:4 7:0 8:0 9:8 10:16 11:4 12:0 13:4 14:0 15:4 16:36 17:8 18:0 19:0 20:0 21:12 22:0 23:0 24:4 25:12 26:8 27:4 28:4 29:8 30:8 31:4 32:4 33:4 34:0 35:4 36:8 37:8 38:4 39:0 40:4 41:9.0299997 42:1.08 43:2.1700001 44:2.8900001 45:5.4200001 46:11.19 47:0.72000003 48:7.2199998 49:7.9400001 50:7.9400001 51:1.8099999 52:5.0500002 53:5.0500002 54:4.3299999 55:2.8900001 56:7.2199998 57:7.2199998 58:7.9400001 59:0.72000003 60:2.1700001 #
-0.52982630988146650619086130973301 1:4 2:0 3:0 4:4 5:0 6:12 7:0 8:8 9:0 10:4 11:4 12:12 13:12 14:12 15:0 16:20 17:8 18:0 19:0 20:0 21:8 22:0 23:4 24:8 25:8 26:12 27:0 28:8 29:20 30:8 31:0 32:4 33:4 34:0 35:4 36:8 37:4 38:0 39:0 40:0 41:7.6300001 42:0 43:4.2399998 44:3.3900001 45:5.0799999 46:12.71 47:2.54 48:4.2399998 49:10.17 50:10.17 51:3.3900001 52:7.6300001 53:2.54 54:4.2399998 55:0.85000002 56:4.2399998 57:8.4700003 58:5.0799999 59:0 60:3.3900001 #
-0.52982630988146650619086130973301 1:8 2:0 3:0 4:0 5:0 6:8 7:0 8:0 9:0 10:12 11:8 12:0 13:4 14:8 15:20 16:20 17:8 18:4 19:0 20:0 21:4 22:0 23:0 24:4 25:8 26:16 27:0 28:8 29:4 30:8 31:4 32:12 33:4 34:0 35:8 36:8 37:4 38:8 39:0 40:0 41:10.23 42:1.16 43:4.1300001 44:6.77 45:4.6199999 46:9.5699997 47:1.49 48:5.4499998 49:6.4400001 50:9.7399998 51:2.8099999 52:3.1400001 53:3.47 54:4.9499998 55:4.6199999 56:7.2600002 57:4.46 58:7.2600002 59:0.5 60:1.98 #
0.83337603726173148377398547381745 1:12 2:4 3:0 4:0 5:0 6:20 7:0 8:4 9:0 10:16 11:4 12:0 13:4 14:0 15:20 16:4 17:0 18:12 19:0 20:0 21:4 22:0 23:0 24:0 25:0 26:8 27:4 28:4 29:4 30:8 31:0 32:4 33:24 34:16 35:4 36:8 37:4 38:4 39:0 40:4 41:7.0500002 42:1.5 43:4.6999998 44:8.1199999 45:4.27 46:6.8400002 47:2.99 48:3.4200001 49:3.21 50:12.61 51:2.1400001 52:2.5599999 53:5.5599999 54:6.1999998 55:8.1199999 56:5.77 57:5.3400002 58:5.77 59:0.63999999 60:3.21 #
0.79778123059650285497923505317885 1:20 2:0 3:0 4:0 5:0 6:16 7:0 8:0 9:0 10:12 11:4 12:0 13:12 14:0 15:16 16:4 17:8 18:0 19:8 20:0 21:8 22:12 23:4 24:8 25:0 26:4 27:0 28:0 29:8 30:4 31:0 32:0 33:8 34:0 35:8 36:12 37:8 38:8 39:4 40:4 41:6.3400002 42:1.46 43:5.1999998 44:7.0700002 45:3.3299999 46:5.9299998 47:2.3900001 48:5.6100001 49:7.1700001 50:9.5600004 51:2.3900001 52:3.53 53:6.0300002 54:3.6400001 55:4.2600002 56:7.6900001 57:5.1999998 58:7.3800001 59:2.1800001 60:3.6400001 #
1.3245657747036663209883045055903 1:4 2:0 3:4 4:8 5:8 6:8 7:0 8:0 9:0 10:16 11:4 12:0 13:12 14:0 15:4 16:8 17:0 18:12 19:4 20:8 21:8 22:0 23:0 24:8 25:0 26:8 27:0 28:0 29:4 30:24 31:8 32:4 33:12 34:0 35:8 36:0 37:4 38:4 39:4 40:4 41:8.5200005 42:1.14 43:3.4100001 44:6.25 45:3.4100001 46:6.25 47:2.8399999 48:4.5500002 49:9.0900002 50:11.36 51:5.1100001 52:2.8399999 53:5.1100001 54:5.1100001 55:3.98 56:5.6799998 57:5.6799998 58:5.6799998 59:1.7 60:2.27 #
-0.52982630988146650619086130973301 1:24 2:0 3:0 4:0 5:0 6:4 7:0 8:8 9:0 10:8 11:4 12:0 13:0 14:4 15:16 16:4 17:20 18:8 19:0 20:0 21:0 22:0 23:8 24:12 25:0 26:4 27:4 28:8 29:16 30:0 31:0 32:4 33:12 34:4 35:0 36:0 37:0 38:0 39:12 40:16 41:8.0600004 42:1.61 43:8.8699999 44:8.8699999 45:4.8400002 46:5.6500001 47:2.4200001 48:6.4499998 49:7.2600002 50:7.2600002 51:0.81 52:4.0300002 53:6.4499998 54:2.4200001 55:5.6500001 56:1.61 57:2.4200001 58:9.6800003 59:1.61 60:4.0300002 #
-0.52982630988146650619086130973301 1:8 2:0 3:8 4:4 5:12 6:8 7:0 8:4 9:0 10:16 11:4 12:0 13:0 14:4 15:8 16:0 17:8 18:16 19:0 20:0 21:16 22:0 23:0 24:8 25:8 26:4 27:0 28:0 29:4 30:8 31:12 32:8 33:16 34:8 35:0 36:4 37:0 38:0 39:0 40:4 41:5.1900001 42:1.73 43:4.7600002 44:5.6300001 45:6.0599999 46:9.0900002 47:3.46 48:5.1900001 49:7.3600001 50:8.2299995 51:2.5999999 52:2.5999999 53:6.4899998 54:4.7600002 55:5.1900001 56:4.7600002 57:5.6300001 58:7.3600001 59:0.43000001 60:3.46 #
-0.52982630988146650619086130973301 1:28 2:4 3:0 4:0 5:0 6:12 7:0 8:0 9:0 10:20 11:8 12:0 13:4 14:0 15:16 16:0 17:4 18:4 19:0 20:0 21:4 22:4 23:12 24:16 25:4 26:4 27:4 28:8 29:4 30:8 31:4 32:4 33:12 34:4 35:0 36:8 37:0 38:0 39:0 40:0 41:6.73 42:0 43:6.73 44:9.6199999 45:4.8099999 46:3.8499999 47:0.95999998 48:2.8800001 49:3.8499999 50:6.73 51:1.92 52:2.8800001 53:7.6900001 54:1.92 55:10.58 56:8.6499996 57:2.8800001 58:8.6499996 59:3.8499999 60:4.8099999 #
1.0071117569296932359179663762916 1:4 2:0 3:0 4:0 5:0 6:8 7:0 8:4 9:0 10:12 11:4 12:0 13:4 14:8 15:12 16:24 17:0 18:16 19:0 20:4 21:0 22:0 23:4 24:4 25:8 26:12 27:0 28:8 29:8 30:4 31:0 32:4 33:12 34:4 35:4 36:8 37:8 38:4 39:0 40:8 41:9.3800001 42:0.56999999 43:5.4000001 44:4.5500002 45:4.5500002 46:8.2399998 47:2.27 48:4.8299999 49:5.9699998 50:9.3800001 51:3.98 52:3.6900001 53:5.9699998 54:2.5599999 55:5.1100001 56:6.5300002 57:4.8299999 58:8.5200005 59:0.56999999 60:3.1199999 #
1.0191966597118062853866149453097 1:12 2:0 3:0 4:0 5:8 6:4 7:0 8:4 9:0 10:8 11:4 12:8 13:0 14:4 15:12 16:20 17:12 18:4 19:0 20:0 21:0 22:0 23:12 24:4 25:0 26:4 27:0 28:8 29:8 30:8 31:0 32:12 33:8 34:8 35:4 36:8 37:4 38:12 39:0 40:0 41:12.05 42:1.2 43:5.6199999 44:4.8200002 45:3.6099999 46:7.6300001 47:4.4200001 48:5.8200002 49:6.2199998 50:9.04 51:1.61 52:4.6199999 53:3.8199999 54:3.01 55:3.6099999 56:7.0300002 57:5.8200002 58:6.2199998 59:0.80000001 60:3.01 #
0.78492787938459218644027259870199 1:4 2:4 3:0 4:0 5:4 6:0 7:0 8:12 9:12 10:16 11:4 12:0 13:8 14:0 15:8 16:20 17:4 18:4 19:0 20:0 21:12 22:0 23:8 24:0 25:0 26:8 27:0 28:12 29:12 30:8 31:0 32:4 33:8 34:0 35:8 36:8 37:0 38:8 39:4 40:0 41:4.6900001 42:0.94 43:3.99 44:5.6300001 45:3.76 46:5.8699999 47:2.1099999 48:8.6899996 49:7.2800002 50:11.27 51:1.64 52:8.4499998 53:4.9299998 54:4.6900001 55:2.5799999 56:7.75 57:5.4000001 58:5.4000001 59:0.47 60:4.46 #
-0.52982630988146650619086130973301 1:8 2:0 3:0 4:0 5:8 6:4 7:0 8:8 9:4 10:16 11:4 12:4 13:4 14:0 15:12 16:12 17:4 18:8 19:4 20:0 21:4 22:4 23:8 24:4 25:0 26:8 27:0 28:8 29:8 30:12 31:0 32:0 33:8 34:0 35:12 36:12 37:8 38:0 39:4 40:0 41:3.1500001 42:0.79000002 43:5.5100002 44:1.5700001 45:4.7199998 46:6.3000002 47:2.3599999 48:8.6599998 49:7.8699999 50:7.0900002 51:0.79000002 52:7.8699999 53:8.6599998 54:3.1500001 55:3.1500001 56:5.5100002 57:8.6599998 58:8.6599998 59:3.1500001 60:2.3599999 #
-0.52982630988146650619086130973301 1:0 2:4 3:0 4:0 5:12 6:0 7:0 8:4 9:4 10:20 11:4 12:4 13:8 14:0 15:16 16:16 17:4 18:4 19:0 20:0 21:8 22:0 23:12 24:4 25:0 26:4 27:4 28:8 29:8 30:4 31:4 32:4 33:8 34:0 35:8 36:8 37:0 38:8 39:0 40:8 41:6.5799999 42:0.44 43:4.8200002 44:3.95 45:5.6999998 46:3.0699999 47:1.75 48:6.5799999 49:9.6499996 50:12.28 51:1.75 52:6.5799999 53:5.2600002 54:5.2600002 55:3.95 56:6.5799999 57:5.6999998 58:6.5799999 59:1.3200001 60:2.1900001 #
-0.52982630988146650619086130973301 1:0 2:0 3:0 4:0 5:8 6:4 7:4 8:0 9:4 10:20 11:4 12:4 13:12 14:0 15:16 16:16 17:4 18:0 19:0 20:4 21:0 22:0 23:4 24:0 25:4 26:12 27:4 28:8 29:16 30:12 31:0 32:4 33:12 34:0 35:8 36:8 37:0 38:4 39:4 40:0 41:4.23 42:0.52999997 43:5.29 44:4.7600002 45:3.1700001 46:6.3499999 47:2.6500001 48:6.8800001 49:10.58 50:8.4700003 51:1.59 52:4.7600002 53:3.7 54:2.6500001 55:5.8200002 56:8.9899998 57:7.4099998 58:6.8800001 59:1.0599999 60:4.23 #
1.3245657747036663209883045055903 1:28 2:0 3:0 4:0 5:0 6:12 7:0 8:0 9:0 10:12 11:8 12:0 13:4 14:0 15:16 16:0 17:8 18:12 19:0 20:0 21:8 22:0 23:12 24:4 25:4 26:8 27:8 28:0 29:8 30:8 31:0 32:4 33:12 34:0 35:0 36:16 37:0 38:4 39:0 40:4 41:9.71 42:2.0699999 43:4.5500002 44:4.75 45:3.9300001 46:6.8200002 47:2.27 48:3.0999999 49:3.72 50:11.57 51:1.24 52:2.8900001 53:7.02 54:4.3400002 55:7.23 56:10.12 57:3.9300001 58:7.02 59:2.27 60:1.45 #
1.3232128812980845644631244795164 1:32 2:0 3:0 4:4 5:0 6:12 7:4 8:0 9:0 10:12 11:4 12:0 13:0 14:0 15:16 16:0 17:0 18:8 19:8 20:0 21:4 22:4 23:8 24:4 25:8 26:0 27:4 28:12 29:12 30:4 31:4 32:4 33:12 34:0 35:4 36:0 37:0 38:0 39:4 40:12 41:9.6499996 42:3.22 43:4.6799998 44:6.73 45:6.1399999 46:8.1899996 47:2.05 48:7.5999999 49:3.8 50:7.02 51:0.57999998 52:2.3399999 53:6.4299998 54:4.3899999 55:4.6799998 56:5.8499999 57:5.2600002 58:7.8899999 59:0.88 60:2.6300001 #
0.86371162675186285984096912216046 1:24 2:0 3:0 4:0 5:0 6:12 7:0 8:0 9:0 10:8 11:8 12:4 13:0 14:4 15:12 16:8 17:4 18:8 19:8 20:0 21:4 22:0 23:4 24:8 25:8 26:8 27:8 28:4 29:8 30:8 31:0 32:4 33:12 34:0 35:4 36:0 37:8 38:8 39:0 40:4 41:6.77 42:3.01 43:7.52 44:9.0200005 45:1.5 46:12.78 47:3.01 48:1.5 49:0.75 50:9.7700005 51:1.5 52:2.26 53:7.52 54:3.76 55:7.52 56:6.77 57:4.5100002 58:9.7700005 59:0 60:0.75 #
-0.52982630988146650619086130973301 1:24 2:0 3:0 4:0 5:4 6:12 7:0 8:0 9:0 10:8 11:4 12:0 13:8 14:0 15:8 16:16 17:4 18:12 19:0 20:0 21:4 22:0 23:8 24:8 25:4 26:8 27:0 28:4 29:4 30:8 31:4 32:4 33:12 34:0 35:4 36:8 37:4 38:12 39:0 40:4 41:9.3800001 42:2.23 43:5.3600001 44:5.3600001 45:2.6800001 46:5.8000002 47:2.6800001 48:4.02 49:6.6999998 50:7.5900002 51:1.34 52:1.79 53:5.8000002 54:2.6800001 55:6.6999998 56:11.16 57:4.02 58:10.71 59:0.88999999 60:3.1199999 #
-0.52982630988146650619086130973301 1:20 2:0 3:0 4:8 5:0 6:8 7:0 8:4 9:4 10:8 11:4 12:0 13:8 14:4 15:8 16:8 17:0 18:8 19:0 20:8 21:12 22:0 23:8 24:8 25:0 26:8 27:4 28:4 29:16 30:8 31:0 32:4 33:4 34:0 35:0 36:4 37:12 38:4 39:0 40:4 41:12 42:0 43:3 44:4 45:4 46:8 47:2 48:7 49:7 50:8 51:2 52:1 53:5 54:4 55:10 56:8 57:4 58:7 59:1 60:3 #
-0.52982630988146650619086130973301 1:36 2:0 3:0 4:0 5:0 6:20 7:0 8:0 9:0 10:8 11:8 12:0 13:8 14:0 15:12 16:0 17:4 18:4 19:0 20:0 21:8 22:0 23:0 24:0 25:0 26:0 27:4 28:0 29:20 30:12 31:4 32:0 33:12 34:0 35:12 36:8 37:0 38:8 39:4 40:8 41:9.4499998 42:2.1800001 43:4.73 44:5.8200002 45:2.9100001 46:9.4499998 47:3.27 48:1.8200001 49:3.27 50:12 51:3.6400001 52:2.1800001 53:8 54:2.55 55:6.1799998 56:8 57:2.9100001 58:6.1799998 59:0.73000002 60:4.73 #
1.2819554488434168337818164218334 1:8 2:0 3:0 4:0 5:12 6:0 7:0 8:4 9:12 10:16 11:4 12:0 13:4 14:0 15:8 16:12 17:4 18:12 19:0 20:4 21:4 22:0 23:0 24:0 25:4 26:8 27:8 28:0 29:8 30:8 31:0 32:4 33:8 34:0 35:20 36:16 37:8 38:0 39:0 40:4 41:4.3699999 42:1.16 43:6.5500002 44:5.9699998 45:4.3699999 46:4.8000002 47:2.04 48:6.9899998 49:9.1700001 50:10.92 51:2.77 52:5.5300002 53:4.3699999 54:3.0599999 55:3.9300001 56:7.5700002 57:5.0900002 58:6.2600002 59:1.16 60:3.9300001 #
1.3245657747036663209883045055903 1:4 2:0 3:4 4:4 5:4 6:0 7:0 8:0 9:4 10:20 11:4 12:8 13:8 14:4 15:16 16:12 17:8 18:0 19:0 20:0 21:4 22:0 23:8 24:0 25:4 26:4 27:8 28:16 29:0 30:4 31:8 32:0 33:4 34:4 35:8 36:4 37:4 38:0 39:8 40:12 41:7.8200002 42:2.04 43:4.4200001 44:6.8000002 45:4.0799999 46:8.5 47:1.7 48:3.4000001 49:6.1199999 50:7.48 51:3.4000001 52:2.72 53:4.0799999 54:1.02 55:6.1199999 56:8.5 57:6.8000002 58:10.2 59:1.02 60:3.74 #
1.2646050201281673341924260967062 1:4 2:0 3:0 4:0 5:12 6:0 7:0 8:0 9:4 10:20 11:4 12:4 13:8 14:8 15:16 16:4 17:16 18:0 19:0 20:0 21:0 22:8 23:4 24:4 25:8 26:16 27:0 28:12 29:8 30:4 31:0 32:8 33:0 34:0 35:0 36:28 37:0 38:0 39:0 40:0 41:2.96 42:1.48 43:9.6300001 44:6.6700001 45:3.7 46:3.7 47:1.48 48:9.6300001 49:8.8900003 50:11.11 51:0 52:8.1499996 53:4.4400001 54:0.74000001 55:4.4400001 56:8.8900003 57:6.6700001 58:3.7 59:0 60:3.7 #
-0.52982630988146650619086130973301 1:4 2:0 3:0 4:4 5:8 6:4 7:0 8:4 9:8 10:12 11:4 12:0 13:4 14:0 15:8 16:24 17:4 18:12 19:0 20:0 21:12 22:4 23:0 24:8 25:0 26:4 27:0 28:20 29:4 30:0 31:0 32:0 33:4 34:0 35:8 36:4 37:12 38:12 39:4 40:4 41:10.93 42:1.09 43:5.46 44:6.5599999 45:3.28 46:6.0100002 47:6.5599999 48:4.9200001 49:5.46 50:9.8400002 51:1.64 52:4.3699999 53:4.3699999 54:5.46 55:4.9200001 56:4.3699999 57:6.5599999 58:3.8299999 59:1.09 60:3.28 #
-0.52982630988146650619086130973301 1:4 2:4 3:0 4:0 5:8 6:4 7:4 8:12 9:4 10:12 11:4 12:0 13:4 14:0 15:4 16:12 17:12 18:4 19:4 20:4 21:4 22:0 23:8 24:0 25:8 26:8 27:0 28:12 29:8 30:4 31:0 32:16 33:0 34:4 35:4 36:8 37:4 38:4 39:8 40:0 41:4.29 42:1.4299999 43:7.1399999 44:4.29 45:3.5699999 46:8.5699997 47:3.5699999 48:5.71 49:5 50:7.8600001 51:4.29 52:6.4299998 53:5.71 54:0.70999998 55:4.29 56:4.29 57:7.1399999 58:10 59:1.4299999 60:4.29 #
-0.52982630988146650619086130973301 1:0 2:8 3:0 4:0 5:0 6:4 7:8 8:4 9:12 10:16 11:4 12:8 13:4 14:4 15:8 16:4 17:12 18:4 19:0 20:0 21:4 22:8 23:0 24:8 25:4 26:0 27:4 28:12 29:12 30:8 31:0 32:4 33:4 34:0 35:4 36:4 37:16 38:4 39:0 40:4 41:5.75 42:1.53 43:5.75 44:5.5599999 45:2.49 46:4.98 47:0.95999998 48:7.2800002 49:8.4300003 50:11.11 51:1.92 52:8.2399998 53:4.21 54:2.1099999 55:4.4099998 56:8.6199999 57:5.1700001 58:6.3200002 59:0.38 60:4.79 #
1.3245657747036663209883045055903 1:16 2:0 3:0 4:0 5:8 6:4 7:0 8:8 9:0 10:4 11:8 12:4 13:8 14:4 15:16 16:8 17:8 18:4 19:0 20:0 21:8 22:0 23:8 24:16 25:0 26:0 27:4 28:4 29:4 30:8 31:4 32:4 33:8 34:0 35:12 36:4 37:4 38:0 39:0 40:12 41:6.77 42:0.62 43:6.1500001 44:7.6900001 45:4.6199999 46:6.1500001 47:3.0799999 48:7.6900001 49:5.54 50:5.8499999 51:1.85 52:4.6199999 53:4.3099999 54:3.0799999 55:7.0799999 56:5.23 57:6.46 58:8.3100004 59:0.92000002 60:4 #
1.3245657747036663209883045055903 1:12 2:0 3:8 4:4 5:0 6:4 7:4 8:0 9:0 10:12 11:8 12:4 13:16 14:4 15:0 16:4 17:8 18:4 19:0 20:8 21:20 22:0 23:0 24:8 25:0 26:4 27:0 28:0 29:4 30:4 31:0 32:12 33:4 34:8 35:0 36:0 37:4 38:16 39:12 40:4 41:10.12 42:0 43:7.1399999 44:2.98 45:3.5699999 46:8.9300003 47:4.1700001 48:3.5699999 49:7.1399999 50:8.9300003 51:1.79 52:8.9300003 53:5.9499998 54:1.79 55:2.3800001 56:5.3600001 57:4.7600002 58:6.5500002 59:2.3800001 60:3.5699999 #
1.3245657747036663209883045055903 1:20 2:0 3:0 4:0 5:8 6:0 7:0 8:4 9:4 10:0 11:8 12:0 13:12 14:0 15:16 16:8 17:16 18:4 19:0 20:0 21:4 22:0 23:4 24:8 25:4 26:12 27:0 28:8 29:8 30:8 31:0 32:8 33:4 34:8 35:8 36:0 37:4 38:12 39:0 40:0 41:5.6199999 42:0 43:7.8699999 44:11.8 45:6.7399998 46:3.3699999 47:2.25 48:2.25 49:11.8 50:9.5500002 51:1.6900001 52:4.4899998 53:3.9300001 54:4.4899998 55:5.0599999 56:7.3000002 57:5.6199999 58:5.0599999 59:0 60:1.12 #
-0.52982630988146650619086130973301 1:24 2:4 3:0 4:0 5:4 6:0 7:0 8:0 9:4 10:4 11:4 12:0 13:12 14:8 15:16 16:8 17:4 18:8 19:0 20:0 21:8 22:4 23:4 24:16 25:4 26:4 27:0 28:0 29:4 30:12 31:4 32:4 33:12 34:0 35:4 36:4 37:4 38:8 39:4 40:0 41:12.04 42:0.97000003 43:6.5999999 44:6.9899998 45:3.1099999 46:8.1599998 47:2.3299999 48:6.02 49:6.5999999 50:8.54 51:0.97000003 52:3.1099999 53:3.8800001 54:3.5 55:7.3800001 56:4.4699998 57:3.5 58:8.7399998 59:1.36 60:1.75 #
-0.52982630988146650619086130973301 1:8 2:4 3:0 4:0 5:4 6:4 7:0 8:0 9:0 10:4 11:4 12:4 13:4 14:4 15:28 16:12 17:4 18:16 19:0 20:0 21:16 22:0 23:4 24:16 25:0 26:0 27:4 28:0 29:20 30:8 31:0 32:4 33:0 34:4 35:8 36:0 37:0 38:12 39:0 40:4 41:16.18 42:0 43:5.8800001 44:6.6199999 45:4.4099998 46:7.3499999 47:8.8199997 48:2.9400001 49:4.4099998 50:6.6199999 51:0.74000001 52:3.6800001 53:5.1500001 54:4.4099998 55:2.21 56:5.1500001 57:3.6800001 58:3.6800001 59:1.47 60:6.6199999 #
-0.52982630988146650619086130973301 1:20 2:0 3:0 4:4 5:8 6:4 7:0 8:0 9:4 10:4 11:4 12:4 13:4 14:0 15:16 16:16 17:4 18:4 19:4 20:0 21:8 22:4 23:8 24:16 25:4 26:8 27:8 28:8 29:12 30:8 31:0 32:0 33:0 34:0 35:8 36:4 37:0 38:4 39:0 40:0 41:11.46 42:0.98000002 43:4.3899999 44:4.3899999 45:3.4100001 46:11.95 47:1.22 48:4.8800001 49:5.6100001 50:9.7600002 51:1.46 52:4.1500001 53:6.3400002 54:2.6800001 55:4.8800001 56:7.0700002 57:5.1199999 58:7.3200002 59:0.98000002 60:1.95 #
1.1828639693464237936382232874166 1:0 2:8 3:4 4:0 5:12 6:8 7:4 8:4 9:8 10:12 11:4 12:8 13:0 14:0 15:8 16:12 17:4 18:4 19:0 20:0 21:20 22:0 23:4 24:0 25:0 26:12 27:8 28:12 29:12 30:4 31:8 32:4 33:4 34:0 35:8 36:0 37:4 38:0 39:0 40:0 41:4.71 42:3.24 43:6.1799998 44:6.1799998 45:4.4099998 46:6.4699998 47:1.76 48:6.4699998 49:6.7600002 50:10.59 51:2.3499999 52:4.4099998 53:4.4099998 54:2.0599999 55:6.7600002 56:7.0599999 57:6.7600002 58:7.6500001 59:0.28999999 60:1.47 #
1.3245657747036663209883045055903 1:8 2:0 3:0 4:0 5:4 6:8 7:0 8:4 9:0 10:20 11:4 12:4 13:8 14:0 15:8 16:16 17:4 18:4 19:8 20:0 21:0 22:0 23:0 24:0 25:4 26:8 27:4 28:16 29:16 30:24 31:0 32:8 33:0 34:4 35:4 36:4 37:0 38:0 39:4 40:4 41:8.1999998 42:0.94 43:4.9200001 44:6.0900002 45:6.0900002 46:9.3699999 47:3.04 48:3.28 49:4.4499998 50:12.65 51:1.41 52:2.5799999 53:4.2199998 54:5.6199999 55:6.5599999 56:5.8499999 57:5.6199999 58:5.6199999 59:0.69999999 60:2.8099999 #
0.66647420934666901093379465237376 1:4 2:8 3:0 4:0 5:8 6:4 7:4 8:0 9:8 10:12 11:4 12:0 13:12 14:0 15:12 16:16 17:0 18:8 19:0 20:0 21:0 22:8 23:8 24:0 25:8 26:4 27:4 28:12 29:4 30:16 31:0 32:4 33:12 34:4 35:4 36:4 37:0 38:8 39:0 40:0 41:5.6199999 42:1.17 43:3.98 44:8.8999996 45:6.79 46:7.2600002 47:3.51 48:5.1500001 49:5.3899999 50:10.07 51:1.87 52:3.75 53:4.2199998 54:4.4499998 55:5.8499999 56:7.2600002 57:3.98 58:7.2600002 59:0.69999999 60:2.8099999 #
-0.52982630988146650619086130973301 1:0 2:4 3:4 4:0 5:8 6:0 7:4 8:8 9:20 10:12 11:8 12:0 13:8 14:4 15:4 16:8 17:0 18:4 19:0 20:4 21:4 22:0 23:0 24:8 25:0 26:8 27:8 28:4 29:12 30:16 31:0 32:8 33:0 34:4 35:8 36:8 37:0 38:0 39:0 40:12 41:3.0799999 42:2.1199999 43:6.3600001 44:5.3899999 45:5.7800002 46:5.7800002 47:0.95999998 48:10.4 49:11.37 50:8.4799995 51:1.54 52:11.18 53:2.3099999 54:2.1199999 55:2.7 56:6.9400001 57:3.6600001 58:4.4299998 59:0.19 60:5.1999998 #
-0.52982630988146650619086130973301 1:8 2:4 3:0 4:0 5:0 6:16 7:0 8:0 9:12 10:20 11:4 12:0 13:8 14:0 15:4 16:4 17:4 18:16 19:0 20:0 21:4 22:0 23:12 24:0 25:8 26:12 27:0 28:4 29:4 30:8 31:4 32:4 33:8 34:4 35:4 36:12 37:0 38:12 39:0 40:0 41:4.0900002 42:1.23 43:6.1300001 44:4.5 45:3.6800001 46:7.98 47:1.4299999 48:6.3400002 49:9 50:11.04 51:2.45 52:7.3600001 53:4.6999998 54:3.0699999 55:4.5 56:6.9499998 57:6.1300001 58:5.52 59:0.81999999 60:3.0699999 #
-0.52982630988146650619086130973301 1:8 2:0 3:0 4:0 5:0 6:8 7:0 8:0 9:4 10:24 11:4 12:0 13:12 14:0 15:16 16:8 17:8 18:8 19:0 20:0 21:4 22:4 23:0 24:8 25:8 26:4 27:4 28:4 29:0 30:16 31:0 32:0 33:8 34:0 35:8 36:8 37:12 38:4 39:4 40:4 41:5.2600002 42:0 43:0 44:10.53 45:0 46:15.79 47:5.2600002 48:10.53 49:5.2600002 50:21.049999 51:5.2600002 52:0 53:10.53 54:0 55:0 56:5.2600002 57:0 58:5.2600002 59:0 60:0 #
0.56032900223378612203362081345404 1:12 2:0 3:0 4:0 5:8 6:0 7:0 8:0 9:0 10:8 11:4 12:4 13:12 14:0 15:20 16:16 17:8 18:8 19:0 20:0 21:8 22:0 23:8 24:16 25:8 26:0 27:0 28:8 29:12 30:8 31:0 32:0 33:8 34:0 35:0 36:4 37:8 38:12 39:0 40:0 41:11.08 42:0.31999999 43:4.75 44:8.2299995 45:5.0599999 46:7.2800002 47:1.27 48:5.6999998 49:5.0599999 50:7.5900002 51:2.22 52:3.1600001 53:4.75 54:3.1600001 55:4.4299998 56:6.96 57:6.0100002 58:8.8599997 59:0.31999999 60:3.8 #
1.3245657747036663209883045055903 1:8 2:4 3:0 4:4 5:8 6:4 7:0 8:0 9:8 10:8 11:4 12:0 13:8 14:8 15:12 16:12 17:0 18:12 19:0 20:0 21:8 22:0 23:0 24:12 25:8 26:4 27:4 28:0 29:8 30:12 31:4 32:0 33:0 34:4 35:4 36:20 37:0 38:8 39:0 40:4 41:8.1400003 42:2.3699999 43:5.5900002 44:4.9200001 45:3.73 46:6.9499998 47:3.73 48:4.0700002 49:5.7600002 50:8.1400003 51:3.5599999 52:3.3900001 53:5.9299998 54:4.75 55:5.5900002 56:7.9699998 57:5.0799999 58:7.6300001 59:0.34 60:2.3699999 #
0.9454450976971846554164358167327 1:20 2:0 3:0 4:4 5:4 6:4 7:8 8:4 9:8 10:8 11:8 12:0 13:0 14:0 15:16 16:12 17:0 18:0 19:4 20:0 21:12 22:4 23:0 24:8 25:4 26:8 27:0 28:4 29:16 30:12 31:0 32:0 33:0 34:8 35:0 36:4 37:4 38:12 39:0 40:4 41:7.7399998 42:0.64999998 43:6.1300001 44:5.48 45:2.5799999 46:4.52 47:3.23 48:5.48 49:8.3900003 50:10.65 51:1.9400001 52:1.61 53:4.8400002 54:5.8099999 55:4.1900001 56:7.7399998 57:5.48 58:10 59:0.97000003 60:2.5799999 #
-0.52982630988146650619086130973301 1:8 2:4 3:0 4:0 5:4 6:4 7:0 8:0 9:4 10:12 11:4 12:4 13:0 14:4 15:20 16:20 17:4 18:4 19:0 20:4 21:8 22:0 23:8 24:0 25:4 26:4 27:0 28:0 29:4 30:12 31:4 32:0 33:4 34:0 35:8 36:24 37:4 38:8 39:0 40:8 41:10.79 42:0.66000003 43:3.74 44:7.4899998 45:3.0799999 46:6.8299999 47:1.98 48:4.4099998 49:4.6300001 50:9.4700003 51:3.0799999 52:3.96 53:5.5100002 54:3.3 55:3.3 56:9.25 57:5.73 58:8.1499996 59:0.66000003 60:3.96 #
-0.52982630988146650619086130973301 1:4 2:0 3:0 4:0 5:4 6:12 7:0 8:0 9:4 10:12 11:12 12:0 13:0 14:4 15:12 16:20 17:4 18:12 19:0 20:0 21:0 22:0 23:0 24:12 25:4 26:4 27:0 28:8 29:16 30:16 31:0 32:4 33:4 34:16 35:0 36:12 37:0 38:4 39:0 40:0 41:11.34 42:0.51999998 43:4.6399999 44:7.73 45:2.5799999 46:3.0899999 47:1.03 48:5.6700001 49:8.25 50:10.31 51:1.55 52:4.6399999 53:2.5799999 54:4.1199999 55:4.1199999 56:9.2799997 57:5.1500001 58:9.79 59:0.51999998 60:3.0899999 #
-0.52982630988146650619086130973301 1:12 2:0 3:0 4:0 5:8 6:8 7:4 8:4 9:0 10:8 11:4 12:4 13:0 14:4 15:16 16:8 17:16 18:4 19:0 20:0 21:4 22:0 23:4 24:4 25:0 26:8 27:0 28:0 29:16 30:8 31:0 32:8 33:4 34:12 35:0 36:16 37:0 38:4 39:4 40:8 41:9.71 42:0 43:3.8800001 44:6.8000002 45:2.9100001 46:7.77 47:0 48:2.9100001 49:6.8000002 50:8.7399998 51:3.8800001 52:3.8800001 53:4.8499999 54:6.8000002 55:4.8499999 56:8.7399998 57:2.9100001 58:7.77 59:4.8499999 60:1.9400001 #
1.3245657747036663209883045055903 1:8 2:0 3:4 4:0 5:4 6:20 7:0 8:4 9:12 10:12 11:4 12:4 13:0 14:0 15:8 16:4 17:8 18:8 19:0 20:0 21:12 22:0 23:8 24:0 25:4 26:16 27:0 28:4 29:0 30:20 31:0 32:0 33:0 34:0 35:4 36:20 37:4 38:4 39:0 40:4 41:9.2799997 42:1.03 43:5.1500001 44:5.1500001 45:3.6099999 46:5.6700001 47:2.0599999 48:4.1199999 49:6.1900001 50:8.25 51:4.6399999 52:5.1500001 53:5.1500001 54:1.55 55:4.6399999 56:7.73 57:5.6700001 58:13.92 59:0.51999998 60:0.51999998 #
1.3245657747036663209883045055903 1:4 2:0 3:4 4:0 5:8 6:4 7:4 8:0 9:12 10:12 11:4 12:4 13:0 14:12 15:12 16:0 17:8 18:12 19:0 20:0 21:4 22:4 23:8 24:4 25:0 26:0 27:0 28:0 29:12 30:16 31:0 32:4 33:12 34:8 35:4 36:0 37:8 38:12 39:0 40:4 41:7.4099998 42:0 43:3.7 44:12.96 45:1.85 46:3.7 47:3.7 48:11.11 49:11.11 50:9.2600002 51:1.85 52:7.4099998 53:0 54:1.85 55:5.5599999 56:9.2600002 57:5.5599999 58:3.7 59:0 60:0 #
1.12130857454636267966918694583 1:4 2:0 3:0 4:0 5:4 6:8 7:0 8:4 9:12 10:12 11:4 12:4 13:0 14:16 15:8 16:4 17:8 18:12 19:0 20:0 21:4 22:4 23:0 24:8 25:0 26:8 27:0 28:8 29:12 30:4 31:0 32:0 33:8 34:4 35:8 36:8 37:4 38:16 39:0 40:4 41:8.5600004 42:0.52999997 43:9.0900002 44:8.5600004 45:4.8099999 46:5.3499999 47:1.6 48:5.3499999 49:9.6300001 50:8.0200005 51:1.0700001 52:2.6700001 53:3.21 54:4.8099999 55:4.8099999 56:6.9499998 57:5.3499999 58:7.4899998 59:0 60:2.1400001 #
-0.52982630988146650619086130973301 1:8 2:0 3:4 4:0 5:0 6:16 7:0 8:4 9:8 10:8 11:4 12:4 13:0 14:8 15:8 16:4 17:8 18:12 19:0 20:4 21:24 22:0 23:0 24:0 25:4 26:12 27:4 28:8 29:4 30:12 31:4 32:0 33:0 34:0 35:4 36:4 37:12 38:8 39:0 40:0 41:5.98 42:3.1600001 43:6.48 44:7.8099999 45:3.3199999 46:4.3200002 47:2.6600001 48:6.1500001 49:5.8099999 50:9.9700003 51:2.6600001 52:3.6500001 53:5.6500001 54:3.8199999 55:5.1500001 56:6.1500001 57:4.98 58:6.98 59:1.16 60:4.1500001 #
-0.52982630988146650619086130973301 1:12 2:4 3:8 4:8 5:4 6:0 7:0 8:0 9:0 10:12 11:4 12:0 13:8 14:8 15:12 16:0 17:8 18:4 19:4 20:4 21:4 22:0 23:0 24:4 25:0 26:8 27:0 28:4 29:12 30:8 31:4 32:4 33:4 34:8 35:0 36:4 37:8 38:20 39:0 40:8 41:6.0900002 42:0.69999999 43:5.8499999 44:6.5599999 45:4.4499998 46:10.54 47:0.94 48:7.4899998 49:7.4899998 50:10.07 51:3.51 52:3.51 53:3.04 54:4.6799998 55:3.98 56:5.3899999 57:5.6199999 58:4.9200001 59:1.87 60:3.28 #
-0.52982630988146650619086130973301 1:4 2:0 3:4 4:0 5:0 6:0 7:4 8:4 9:8 10:24 11:4 12:0 13:4 14:16 15:12 16:4 17:4 18:8 19:0 20:0 21:12 22:0 23:4 24:12 25:0 26:8 27:0 28:12 29:0 30:16 31:4 32:0 33:4 34:4 35:12 36:0 37:0 38:4 39:4 40:4 41:5.25 42:0.72000003 43:4.77 44:10.98 45:5.4899998 46:6.21 47:1.91 48:4.3000002 49:10.98 50:4.77 51:1.91 52:1.67 53:3.8199999 54:5.9699998 55:5.4899998 56:9.5500002 57:6.6799998 58:6.21 59:1.1900001 60:2.1500001 #
0.27142317343422761588556113565573 1:8 2:0 3:4 4:0 5:4 6:4 7:0 8:4 9:4 10:16 11:4 12:12 13:0 14:4 15:12 16:12 17:4 18:4 19:0 20:4 21:4 22:0 23:4 24:0 25:4 26:12 27:0 28:0 29:20 30:8 31:0 32:12 33:4 34:0 35:0 36:20 37:0 38:4 39:4 40:4 41:6.48 42:1.39 43:3.9400001 44:8.1000004 45:3.9400001 46:8.8000002 47:2.55 48:5.0900002 49:5.0900002 50:10.65 51:3.01 52:4.8600001 53:5.0900002 54:4.4000001 55:3.7 56:6.9400001 57:5.3200002 58:6.02 59:0.46000001 60:4.1700001 #
0.4352813163161828313718615390826 1:0 2:4 3:0 4:0 5:0 6:0 7:0 8:0 9:0 10:16 11:4 12:4 13:8 14:0 15:20 16:16 17:12 18:4 19:4 20:8 21:8 22:4 23:12 24:8 25:0 26:4 27:0 28:0 29:8 30:12 31:4 32:8 33:0 34:0 35:0 36:16 37:0 38:12 39:0 40:4 41:4.4899998 42:1.5 43:4.9899998 44:3.99 45:5.9899998 46:6.48 47:2.24 48:5.9899998 49:7.98 50:9.9799995 51:2 52:7.73 53:4.9899998 54:5.9899998 55:3.24 56:5.9899998 57:3.49 58:6.23 59:2 60:4.7399998 #
0.20427007349767373201032683027734 1:8 2:0 3:0 4:0 5:0 6:8 7:0 8:4 9:0 10:16 11:4 12:4 13:0 14:4 15:16 16:16 17:8 18:12 19:0 20:0 21:12 22:0 23:0 24:4 25:12 26:8 27:0 28:4 29:8 30:0 31:0 32:8 33:0 34:0 35:8 36:24 37:0 38:0 39:8 40:4 41:7.7600002 42:2.8 43:8.3900003 44:6.21 45:4.04 46:6.8299999 47:3.4200001 48:5.9000001 49:5.9000001 50:9.0100002 51:1.55 52:3.73 53:5.2800002 54:2.48 55:5.2800002 56:6.52 57:7.1399999 58:5.5900002 59:0.93000001 60:1.24 #
-0.52982630988146650619086130973301 1:16 2:0 3:4 4:0 5:0 6:4 7:0 8:8 9:12 10:12 11:4 12:4 13:0 14:0 15:4 16:20 17:4 18:4 19:4 20:0 21:0 22:0 23:8 24:8 25:4 26:12 27:0 28:0 29:16 30:4 31:8 32:8 33:4 34:0 35:4 36:0 37:0 38:16 39:4 40:4 41:5.6500001 42:0 43:8.0600004 44:8.8699999 45:3.23 46:0 47:1.61 48:5.6500001 49:12.1 50:9.6800003 51:0.81 52:3.23 53:3.23 54:7.2600002 55:4.0300002 56:10.48 57:7.2600002 58:6.4499998 59:0 60:2.4200001 #
-0.52982630988146650619086130973301 1:4 2:4 3:0 4:0 5:0 6:4 7:0 8:8 9:8 10:12 11:4 12:0 13:8 14:4 15:24 16:4 17:8 18:4 19:4 20:0 21:4 22:0 23:16 24:4 25:4 26:0 27:0 28:12 29:12 30:0 31:4 32:12 33:16 34:0 35:8 36:0 37:4 38:0 39:0 40:4 41:6.8899999 42:2.05 43:7.6399999 44:6.1500001 45:3.3499999 46:6.52 47:2.98 48:5.5900002 49:8.3800001 50:8.75 51:2.4200001 52:5.0300002 53:4.0999999 54:2.05 55:2.98 56:7.4499998 57:6.52 58:7.4499998 59:1.12 60:2.6099999 #
-0.52982630988146650619086130973301 1:4 2:0 3:12 4:0 5:4 6:0 7:4 8:8 9:4 10:8 11:4 12:12 13:8 14:0 15:4 16:12 17:4 18:4 19:0 20:8 21:8 22:0 23:8 24:4 25:8 26:8 27:4 28:0 29:8 30:16 31:0 32:0 33:4 34:0 35:0 36:20 37:0 38:8 39:4 40:0 41:10.3 42:0.86000001 43:4.29 44:3 45:6.0100002 46:8.1499996 47:0.43000001 48:3.4300001 49:6.8699999 50:10.73 51:1.29 52:7.3000002 53:4.29 54:4.7199998 55:1.72 56:6.8699999 57:10.3 58:6.4400001 59:0.43000001 60:2.5799999 #
0.97110838982427016841114664202905 1:12 2:8 3:0 4:0 5:0 6:4 7:4 8:0 9:0 10:20 11:4 12:0 13:0 14:12 15:16 16:0 17:4 18:8 19:4 20:4 21:8 22:0 23:4 24:16 25:4 26:0 27:0 28:4 29:0 30:12 31:0 32:8 33:8 34:8 35:8 36:0 37:4 38:12 39:4 40:0 41:8.3800001 42:1.95 43:4.9400001 44:7.04 45:5.3899999 46:7.6300001 47:3.1400001 48:2.99 49:3.29 50:12.43 51:0.60000002 52:1.5 53:5.54 54:5.6900001 55:8.2299995 56:7.04 57:5.2399998 58:4.9400001 59:2.0999999 60:1.95 #
1.3245657747036663209883045055903 1:12 2:0 3:0 4:0 5:0 6:24 7:0 8:0 9:0 10:20 11:4 12:0 13:4 14:4 15:16 16:8 17:4 18:4 19:0 20:0 21:16 22:4 23:8 24:8 25:0 26:0 27:0 28:12 29:16 30:8 31:0 32:0 33:4 34:8 35:0 36:8 37:0 38:4 39:0 40:4 41:10.49 42:2.1900001 43:5.48 44:5.6300001 45:2.8199999 46:9.0799999 47:2.8199999 48:5.1599998 49:4.23 50:7.04 51:2.3499999 52:1.88 53:5.79 54:2.5 55:5.79 56:5.6300001 57:5.9499998 58:9.3900003 59:2.03 60:3.76 #
0.85435432020553392362671729642898 1:12 2:4 3:0 4:0 5:8 6:4 7:4 8:4 9:8 10:12 11:8 12:0 13:0 14:4 15:16 16:4 17:4 18:8 19:0 20:0 21:0 22:0 23:0 24:12 25:0 26:4 27:0 28:12 29:24 30:8 31:0 32:4 33:4 34:4 35:8 36:4 37:12 38:0 39:4 40:0 41:5.7800002 42:1.6799999 43:5.2199998 44:5.4099998 45:4.8499999 46:6.7199998 47:2.6099999 48:5.4099998 49:7.2800002 50:7.2800002 51:1.87 52:5.2199998 53:5.9699998 54:2.99 55:4.0999999 56:8.21 57:6.5300002 58:7.0900002 59:2.6099999 60:3.1700001 #
-0.52982630988146650619086130973301 1:8 2:4 3:0 4:0 5:16 6:4 7:4 8:4 9:0 10:8 11:4 12:12 13:0 14:4 15:8 16:16 17:0 18:4 19:4 20:0 21:0 22:0 23:4 24:8 25:0 26:4 27:0 28:12 29:12 30:8 31:4 32:0 33:8 34:12 35:4 36:4 37:12 38:4 39:0 40:4 41:5.9099998 42:2.3199999 43:3.1600001 44:5.6999998 45:5.6999998 46:4.6399999 47:3.5899999 48:6.1199999 49:7.1700001 50:12.87 51:2.3199999 52:4.8499999 53:5.0599999 54:4.2199998 55:4.8499999 56:7.1700001 57:3.8 58:6.3299999 59:2.53 60:1.6900001 #
-0.52982630988146650619086130973301 1:8 2:8 3:0 4:0 5:0 6:24 7:0 8:0 9:0 10:16 11:4 12:0 13:8 14:4 15:12 16:8 17:0 18:4 19:4 20:0 21:4 22:0 23:4 24:16 25:0 26:0 27:8 28:4 29:4 30:8 31:4 32:4 33:8 34:0 35:12 36:12 37:0 38:8 39:4 40:0 41:7.9200001 42:2.97 43:4.9499998 44:6.6799998 45:4.9499998 46:11.39 47:2.97 48:2.72 49:5.1999998 50:8.1700001 51:1.73 52:1.73 53:5.4499998 54:4.21 55:7.4299998 56:6.4400001 57:4.6999998 58:5.9400001 59:2.23 60:2.23 #
-0.52982630988146650619086130973301 1:8 2:0 3:0 4:0 5:4 6:8 7:0 8:8 9:0 10:16 11:4 12:4 13:4 14:8 15:12 16:16 17:8 18:0 19:0 20:0 21:12 22:4 23:0 24:0 25:4 26:0 27:0 28:8 29:12 30:8 31:8 32:4 33:4 34:4 35:4 36:12 37:8 38:8 39:0 40:0 41:9.3100004 42:2.5799999 43:6.3000002 44:6.4499998 45:3.72 46:7.3099999 47:1.29 48:5.3000002 49:5.5900002 50:7.02 51:2.5799999 52:4.4400001 53:6.02 54:3.01 55:5.5900002 56:6.3000002 57:4.73 58:9.46 59:0.86000001 60:2.1500001 #
1.3245657747036663209883045055903 1:20 2:4 3:0 4:0 5:0 6:8 7:0 8:8 9:8 10:12 11:4 12:4 13:4 14:0 15:8 16:12 17:4 18:0 19:0 20:4 21:0 22:0 23:20 24:4 25:0 26:8 27:0 28:0 29:16 30:0 31:4 32:0 33:8 34:8 35:8 36:4 37:4 38:8 39:4 40:4 41:7.4299998 42:0.31999999 43:4.52 44:6.9499998 45:3.23 46:8.2399998 47:2.26 48:5.6500001 49:7.9200001 50:7.5900002 51:4.04 52:3.8800001 53:4.1999998 54:5.8200002 55:5.6500001 56:5.3299999 57:6.3000002 58:5.4899998 59:1.78 60:3.3900001 #
1.3245657747036663209883045055903 1:4 2:0 3:0 4:0 5:4 6:8 7:4 8:8 9:8 10:12 11:8 12:8 13:4 14:8 15:0 16:8 17:12 18:0 19:0 20:4 21:0 22:0 23:4 24:16 25:4 26:0 27:0 28:4 29:16 30:16 31:4 32:4 33:4 34:12 35:0 36:12 37:0 38:0 39:0 40:4 41:7.1399999 42:0.88999999 43:9.8199997 44:7.1399999 45:2.6800001 46:2.6800001 47:0.88999999 48:5.3600001 49:11.61 50:11.61 51:0.88999999 52:4.46 53:3.5699999 54:0.88999999 55:7.1399999 56:8.04 57:4.46 58:1.79 59:4.46 60:4.46 #
0.39301627153036805539798592690204 1:4 2:0 3:4 4:0 5:0 6:0 7:0 8:8 9:12 10:16 11:4 12:0 13:4 14:8 15:8 16:12 17:8 18:4 19:0 20:8 21:8 22:4 23:12 24:4 25:4 26:8 27:4 28:4 29:0 30:4 31:0 32:4 33:0 34:8 35:4 36:8 37:8 38:4 39:4 40:8 41:7.9299998 42:1.53 43:6.1399999 44:4.8600001 45:4.3499999 46:7.6700001 47:0.25999999 48:6.6500001 49:8.1800003 50:9.21 51:2.8099999 52:7.1599998 53:2.3 54:2.8099999 55:2.5599999 56:7.6700001 57:8.4399996 58:7.9299998 59:0.50999999 60:1.02 #
-0.52982630988146650619086130973301 1:8 2:0 3:0 4:4 5:4 6:4 7:4 8:16 9:8 10:8 11:8 12:8 13:0 14:0 15:12 16:8 17:8 18:0 19:0 20:0 21:4 22:0 23:12 24:4 25:0 26:12 27:0 28:8 29:12 30:4 31:0 32:0 33:12 34:4 35:4 36:0 37:12 38:4 39:4 40:4 41:5.8499999 42:1.55 43:4.48 44:8.2600002 45:3.79 46:10.5 47:1.89 48:4.9899998 49:9.29 50:8.6099997 51:1.89 52:3.6099999 53:5.1599998 54:2.5799999 55:3.0999999 56:6.54 57:4.3000002 58:8.0900002 59:1.03 60:4.48 #
-0.52982630988146650619086130973301 1:4 2:0 3:0 4:0 5:4 6:0 7:4 8:4 9:4 10:20 11:4 12:12 13:8 14:4 15:8 16:8 17:4 18:8 19:0 20:4 21:0 22:0 23:12 24:12 25:0 26:0 27:4 28:4 29:20 30:4 31:4 32:12 33:0 34:8 35:4 36:8 37:4 38:4 39:0 40:0 41:2.4100001 42:0 43:6.02 44:7.23 45:2.4100001 46:4.8200002 47:4.8200002 48:4.8200002 49:7.23 50:15.66 51:2.4100001 52:3.6099999 53:4.8200002 54:7.23 55:6.02 56:6.02 57:3.6099999 58:3.6099999 59:2.4100001 60:4.8200002 #
-0.52982630988146650619086130973301 1:24 2:0 3:0 4:0 5:0 6:8 7:4 8:0 9:0 10:16 11:8 12:0 13:0 14:0 15:12 16:16 17:4 18:8 19:0 20:0 21:4 22:0 23:16 24:4 25:4 26:4 27:8 28:8 29:8 30:4 31:0 32:4 33:16 34:0 35:0 36:4 37:8 38:0 39:4 40:4 41:6.4699998 42:0 43:2.8800001 44:9.3500004 45:7.9099998 46:8.6300001 47:2.8800001 48:9.3500004 49:6.4699998 50:10.79 51:1.4400001 52:1.4400001 53:5.7600002 54:0.72000003 55:10.07 56:2.1600001 57:4.3200002 58:4.3200002 59:1.4400001 60:3.5999999 #
1.3245657747036663209883045055903 1:8 2:0 3:0 4:0 5:16 6:4 7:4 8:4 9:0 10:16 11:8 12:24 13:0 14:0 15:12 16:0 17:0 18:4 19:0 20:0 21:4 22:0 23:4 24:0 25:4 26:0 27:0 28:4 29:12 30:12 31:8 32:0 33:8 34:8 35:4 36:8 37:8 38:8 39:4 40:4 41:7.5700002 42:0.99000001 43:5.2600002 44:6.5799999 45:3.29 46:6.9099998 47:2.6300001 48:4.6100001 49:7.5700002 50:13.82 51:2.6300001 52:3.29 53:3.95 54:4.9299998 55:3.6199999 56:6.5799999 57:7.2399998 58:3.95 59:1.3200001 60:3.29 #
1.3245657747036663209883045055903 1:16 2:0 3:0 4:0 5:4 6:16 7:4 8:8 9:4 10:4 11:16 12:4 13:4 14:0 15:8 16:8 17:4 18:0 19:0 20:0 21:12 22:0 23:0 24:4 25:0 26:12 27:4 28:8 29:4 30:4 31:4 32:8 33:0 34:0 35:0 36:12 37:12 38:12 39:0 40:4 41:7.6300001 42:1.58 43:5.5300002 44:6.0500002 45:4.21 46:7.1100001 47:3.1600001 48:4.21 49:6.8400002 50:8.9499998 51:3.1600001 52:2.6300001 53:6.0500002 54:4.4699998 55:4.7399998 56:7.6300001 57:4.4699998 58:6.0500002 59:1.84 60:3.6800001 #
1.3245657747036663209883045055903 1:4 2:8 3:4 4:0 5:0 6:0 7:0 8:4 9:0 10:16 11:4 12:12 13:12 14:4 15:4 16:16 17:4 18:8 19:0 20:0 21:16 22:0 23:0 24:8 25:4 26:12 27:0 28:4 29:16 30:12 31:8 32:0 33:4 34:4 35:0 36:4 37:0 38:8 39:0 40:0 41:14.55 42:1.24 43:6.1900001 44:2.79 45:2.48 46:9.6000004 47:1.24 48:4.02 49:6.8099999 50:7.7399998 51:3.0999999 52:2.48 53:4.6399999 54:2.79 55:3.0999999 56:7.4299998 57:6.1900001 58:11.15 59:0.31 60:2.1700001 #
-0.52982630988146650619086130973301 1:20 2:0 3:0 4:0 5:4 6:4 7:0 8:0 9:4 10:4 11:8 12:4 13:4 14:0 15:16 16:12 17:8 18:12 19:0 20:0 21:8 22:0 23:0 24:8 25:4 26:16 27:0 28:4 29:12 30:16 31:4 32:0 33:4 34:0 35:0 36:4 37:4 38:12 39:0 40:4 41:0 42:0 43:7.6900001 44:7.6900001 45:7.6900001 46:7.6900001 47:2.5599999 48:5.1300001 49:15.38 50:5.1300001 51:0 52:2.5599999 53:2.5599999 54:7.6900001 55:5.1300001 56:2.5599999 57:0 58:15.38 59:0 60:5.1300001 #
-0.52982630988146650619086130973301 1:8 2:0 3:0 4:0 5:4 6:4 7:0 8:4 9:4 10:20 11:8 12:8 13:4 14:0 15:12 16:8 17:4 18:4 19:0 20:8 21:0 22:0 23:4 24:4 25:8 26:4 27:0 28:12 29:0 30:20 31:4 32:0 33:0 34:0 35:0 36:16 37:8 38:12 39:0 40:8 41:5.4200001 42:0.25 43:4.6799998 44:10.84 45:3.9400001 46:2.71 47:1.72 48:5.4200001 49:10.34 50:10.1 51:1.48 52:6.6500001 53:1.97 54:6.1599998 55:6.4000001 56:8.1300001 57:5.9099998 58:2.96 59:1.97 60:2.96 #
-0.52982630988146650619086130973301 1:16 2:0 3:0 4:4 5:4 6:4 7:0 8:8 9:8 10:8 11:4 12:4 13:0 14:0 15:12 16:20 17:0 18:4 19:0 20:4 21:20 22:0 23:4 24:16 25:0 26:0 27:0 28:4 29:4 30:12 31:0 32:4 33:0 34:8 35:4 36:12 37:0 38:12 39:0 40:0 41:10 42:0.91000003 43:0.91000003 44:8.1800003 45:5.4499998 46:7.27 47:1.8200001 48:3.6400001 49:6.3600001 50:10.91 51:0.91000003 52:5.4499998 53:5.4499998 54:5.4499998 55:0.91000003 56:10.91 57:4.5500002 58:10 59:0 60:0.91000003 #
1.1157218170377891652833568514325 1:4 2:0 3:4 4:0 5:0 6:8 7:4 8:0 9:4 10:20 11:4 12:0 13:0 14:8 15:24 16:12 17:0 18:4 19:0 20:4 21:4 22:0 23:20 24:4 25:0 26:12 27:4 28:0 29:0 30:0 31:0 32:4 33:20 34:4 35:12 36:8 37:8 38:0 39:0 40:0 41:12.31 42:1.54 43:1.54 44:6.1500001 45:3.0799999 46:13.85 47:3.0799999 48:1.54 49:0 50:9.2299995 51:1.54 52:0 53:7.6900001 54:4.6199999 55:18.459999 56:3.0799999 57:3.0799999 58:6.1500001 59:0 60:3.0799999 #
1.3245657747036663209883045055903 1:20 2:0 3:0 4:0 5:8 6:4 7:0 8:4 9:4 10:4 11:4 12:4 13:0 14:4 15:12 16:20 17:4 18:0 19:0 20:8 21:4 22:0 23:0 24:8 25:0 26:8 27:8 28:8 29:8 30:12 31:4 32:4 33:8 34:0 35:4 36:8 37:12 38:4 39:0 40:0 41:6.1700001 42:1.0599999 43:7.02 44:8.5100002 45:2.98 46:6.5999999 47:1.28 48:7.23 49:10 50:10.85 51:1.0599999 52:3.8299999 53:2.77 54:4.8899999 55:4.6799998 56:5.7399998 57:4.6799998 58:8.3000002 59:0.20999999 60:2.1300001 #
0.6608753828116794570846082024218 1:0 2:12 3:0 4:0 5:0 6:0 7:8 8:16 9:4 10:12 11:4 12:12 13:0 14:0 15:12 16:8 17:4 18:0 19:0 20:8 21:0 22:0 23:12 24:4 25:0 26:0 27:0 28:4 29:16 30:20 31:0 32:16 33:0 34:0 35:8 36:4 37:8 38:4 39:0 40:4 41:5.3800001 42:0.76999998 43:5.9000001 44:10.51 45:3.3299999 46:3.3299999 47:1.54 48:6.1500001 49:8.21 50:10.26 51:2.05 52:8.46 53:2.3099999 54:3.3299999 55:5.9000001 56:6.9200001 57:4.0999999 58:6.9200001 59:0.50999999 60:4.0999999 #
-0.52982630988146650619086130973301 1:8 2:4 3:0 4:4 5:0 6:20 7:4 8:4 9:0 10:12 11:4 12:0 13:0 14:0 15:20 16:8 17:0 18:8 19:0 20:4 21:0 22:8 23:8 24:0 25:8 26:16 27:4 28:0 29:0 30:8 31:0 32:4 33:0 34:4 35:12 36:8 37:8 38:4 39:4 40:4 41:7.77 42:1.61 43:6.4299998 44:6.1700001 45:4.5599999 46:4.29 47:2.6800001 48:6.4299998 49:6.1700001 50:5.6300001 51:3.49 52:4.29 53:7.77 54:2.6800001 55:5.6300001 56:5.6300001 57:5.6300001 58:6.6999998 59:2.6800001 60:3.75 #
-0.52982630988146650619086130973301 1:16 2:0 3:0 4:0 5:4 6:4 7:0 8:12 9:4 10:8 11:4 12:4 13:4 14:0 15:8 16:16 17:8 18:0 19:4 20:4 21:4 22:0 23:4 24:4 25:0 26:8 27:4 28:0 29:24 30:8 31:8 32:0 33:0 34:8 35:8 36:8 37:0 38:8 39:0 40:4 41:3.8299999 42:1.1799999 43:5.0100002 44:6.1900001 45:4.4200001 46:5.3099999 47:2.3599999 48:6.4899998 49:8.5500002 50:8.5500002 51:2.0599999 52:4.1300001 53:6.4899998 54:4.1300001 55:6.7800002 56:6.7800002 57:7.0799999 58:4.7199998 59:2.95 60:2.95 #
-0.52982630988146650619086130973301 1:24 2:4 3:0 4:0 5:4 6:0 7:4 8:4 9:4 10:4 11:4 12:4 13:4 14:4 15:16 16:4 17:8 18:4 19:4 20:0 21:8 22:0 23:4 24:4 25:4 26:12 27:4 28:0 29:12 30:0 31:0 32:8 33:4 34:4 35:4 36:12 37:12 38:8 39:0 40:0 41:5.02 42:0.72000003 43:4.3000002 44:7.1700001 45:4.3000002 46:4.3000002 47:2.8699999 48:5.3800001 49:3.5799999 50:10.39 51:3.23 52:5.02 53:5.02 54:1.4299999 55:8.6000004 56:6.4499998 57:6.8099999 58:10.39 59:1.79 60:3.23 #
-0.36695913083225173423329579236452 1:0 2:0 3:0 4:4 5:8 6:0 7:0 8:4 9:4 10:16 11:4 12:4 13:12 14:0 15:4 16:36 17:0 18:0 19:0 20:4 21:28 22:0 23:0 24:4 25:4 26:12 27:0 28:4 29:8 30:4 31:0 32:0 33:12 34:0 35:0 36:0 37:12 38:12 39:0 40:0 41:9.54 42:2.1500001 43:2.77 44:3.6900001 45:6.46 46:11.08 47:0.62 48:6.1500001 49:7.3800001 50:8 51:3.0799999 52:2.77 53:6.1500001 54:2.77 55:2.46 56:8 57:5.23 58:5.54 59:0.92000002 60:5.23 #
1.3150356574853354629794921493158 1:12 2:4 3:0 4:0 5:0 6:4 7:0 8:0 9:0 10:32 11:4 12:0 13:16 14:4 15:12 16:8 17:0 18:0 19:4 20:0 21:12 22:0 23:0 24:20 25:4 26:0 27:0 28:8 29:8 30:4 31:0 32:4 33:0 34:4 35:12 36:12 37:0 38:12 39:0 40:0 41:5.48 42:2.6300001 43:5.9200001 44:7.02 45:3.95 46:8.3299999 47:1.75 48:5.9200001 49:8.3299999 50:10.53 51:3.0699999 52:1.75 53:3.95 54:5.04 55:5.2600002 56:4.6100001 57:4.3899999 58:8.1099997 59:0.66000003 60:3.29 #
1.0260106369460484376787690052879 1:4 2:0 3:0 4:0 5:4 6:4 7:0 8:4 9:0 10:16 11:4 12:4 13:8 14:0 15:16 16:8 17:16 18:12 19:0 20:0 21:8 22:4 23:4 24:12 25:0 26:4 27:0 28:4 29:4 30:12 31:4 32:8 33:4 34:0 35:4 36:8 37:0 38:20 39:0 40:0 41:12.63 42:0 43:3.1600001 44:4.21 45:6.3200002 46:2.1099999 47:3.1600001 48:4.21 49:9.4700003 50:4.21 51:2.1099999 52:10.53 53:6.3200002 54:5.2600002 55:0 56:9.4700003 57:3.1600001 58:9.4700003 59:0 60:4.21 #
-0.52982630988146650619086130973301 1:12 2:0 3:0 4:4 5:0 6:8 7:0 8:0 9:0 10:24 11:4 12:0 13:8 14:4 15:20 16:4 17:0 18:8 19:0 20:4 21:28 22:0 23:4 24:20 25:0 26:0 27:0 28:12 29:4 30:8 31:0 32:4 33:0 34:4 35:8 36:0 37:4 38:4 39:0 40:0 41:16.1 42:0 43:4.2399998 44:4.2399998 45:5.0799999 46:7.6300001 47:1.6900001 48:0.85000002 49:2.54 50:10.17 51:1.6900001 52:3.3900001 53:5.0799999 54:6.7800002 55:1.6900001 56:8.4700003 57:7.6300001 58:11.86 59:0 60:0.85000002 #
-0.52982630988146650619086130973301 1:0 2:8 3:0 4:0 5:8 6:4 7:4 8:0 9:4 10:12 11:4 12:4 13:8 14:12 15:4 16:4 17:8 18:8 19:4 20:4 21:0 22:0 23:4 24:8 25:4 26:4 27:8 28:4 29:4 30:12 31:0 32:12 33:8 34:4 35:4 36:12 37:4 38:4 39:0 40:4 41:8.5900002 42:1.48 43:5.3699999 44:6.4400001 45:2.6800001 46:7.25 47:3.49 48:6.1700001 49:4.8299999 50:11.54 51:2.01 52:3.0899999 53:3.49 54:4.4299998 55:6.1700001 56:7.52 57:4.6999998 58:8.9899998 59:0.54000002 60:1.21 #
-0.52982630988146650619086130973301 1:4 2:4 3:0 4:0 5:0 6:8 7:0 8:4 9:4 10:28 11:8 12:8 13:8 14:0 15:20 16:4 17:0 18:0 19:0 20:0 21:12 22:0 23:4 24:12 25:0 26:0 27:4 28:12 29:16 30:8 31:0 32:4 33:12 34:4 35:0 36:4 37:4 38:4 39:0 40:0 41:5.9499998 42:1.38 43:5.5300002 44:4.1500001 45:4.98 46:6.2199998 47:1.52 48:7.6100001 49:6.5 50:11.07 51:1.52 52:4.29 53:4.1500001 54:4.0100002 55:4.6999998 56:10.79 57:6.9200001 58:6.0900002 59:0.14 60:2.49 #
1.3245657747036663209883045055903 1:16 2:4 3:0 4:0 5:0 6:12 7:4 8:12 9:4 10:12 11:4 12:0 13:0 14:0 15:8 16:12 17:4 18:8 19:0 20:0 21:0 22:4 23:8 24:12 25:0 26:12 27:4 28:4 29:8 30:8 31:8 32:4 33:0 34:0 35:8 36:4 37:0 38:4 39:0 40:12 41:11.09 42:1.05 43:4.8099999 44:6.2800002 45:3.3499999 46:9.21 47:0.41999999 48:6.2800002 49:6.0700002 50:9 51:1.88 52:3.3499999 53:4.3899999 54:3.5599999 55:4.3899999 56:6.4899998 57:6.0700002 58:9 59:1.05 60:2.3 #
1.3245657747036663209883045055903 1:8 2:0 3:0 4:0 5:4 6:8 7:0 8:4 9:12 10:12 11:4 12:0 13:12 14:0 15:12 16:16 17:4 18:4 19:0 20:0 21:0 22:0 23:0 24:0 25:16 26:0 27:4 28:8 29:24 30:8 31:12 32:8 33:0 34:0 35:4 36:4 37:0 38:8 39:0 40:4 41:5.5700002 42:1.42 43:6.04 44:6.6399999 45:4.8600001 46:5.3299999 47:1.78 48:6.75 49:8.4099998 50:7.8200002 51:2.3699999 52:5.3299999 53:6.04 54:4.0300002 55:3.6700001 56:6.4000001 57:5.3299999 58:6.8699999 59:2.25 60:3.0799999 #
1.3245657747036663209883045055903 1:16 2:4 3:4 4:0 5:4 6:16 7:0 8:4 9:8 10:4 11:8 12:0 13:0 14:4 15:12 16:4 17:0 18:12 19:0 20:0 21:0 22:0 23:4 24:4 25:4 26:12 27:4 28:8 29:0 30:24 31:0 32:0 33:4 34:4 35:0 36:4 37:4 38:20 39:0 40:4 41:10.16 42:1.0700001 43:4.2800002 44:5.8800001 45:3.21 46:11.23 47:3.74 48:4.2800002 49:7.4899998 50:10.16 51:2.6700001 52:5.3499999 53:1.0700001 54:3.21 55:5.3499999 56:5.3499999 57:4.8099999 58:9.6300001 59:0 60:1.0700001 #
-0.52982630988146650619086130973301 1:16 2:0 3:0 4:0 5:8 6:12 7:0 8:8 9:4 10:8 11:4 12:0 13:0 14:0 15:16 16:16 17:0 18:8 19:0 20:0 21:4 22:0 23:0 24:16 25:0 26:4 27:0 28:4 29:20 30:8 31:4 32:0 33:4 34:8 35:8 36:12 37:4 38:0 39:0 40:4 41:7.8600001 42:1.5700001 43:5.6599998 44:6.9200001 45:5.9699998 46:7.23 47:1.89 48:4.4000001 49:5.6599998 50:8.8100004 51:1.5700001 52:4.4000001 53:5.3499999 54:4.0900002 55:5.3499999 56:7.5500002 57:4.7199998 58:6.5999999 59:1.26 60:3.1400001 #
-0.52982630988146650619086130973301 1:4 2:4 3:0 4:0 5:8 6:4 7:4 8:8 9:12 10:12 11:4 12:0 13:8 14:4 15:8 16:16 17:0 18:0 19:0 20:4 21:0 22:0 23:4 24:12 25:12 26:0 27:0 28:4 29:8 30:4 31:0 32:12 33:4 34:0 35:8 36:8 37:8 38:4 39:0 40:12 41:8.7600002 42:0.75999999 43:6.29 44:5.3299999 45:5.52 46:7.2399998 47:1.52 48:5.9000001 49:7.0500002 50:7.6199999 51:2.0999999 52:5.3299999 53:5.1399999 54:4.1900001 55:3.24 56:6.6700001 57:4.9499998 58:6.48 59:1.14 60:4.7600002 #
-0.52982630988146650619086130973301 1:20 2:0 3:4 4:0 5:4 6:4 7:0 8:0 9:0 10:12 11:4 12:0 13:4 14:8 15:16 16:12 17:4 18:8 19:0 20:0 21:4 22:0 23:12 24:4 25:8 26:8 27:0 28:0 29:12 30:16 31:0 32:8 33:4 34:0 35:0 36:4 37:0 38:12 39:0 40:8 41:9.1199999 42:0.31 43:6.5999999 44:6.29 45:4.7199998 46:5.3499999 47:0.94 48:3.77 49:8.8100004 50:12.58 51:0 52:5.0300002 53:3.1400001 54:2.2 55:3.77 56:8.8100004 57:5.6599998 58:8.8100004 59:0 60:4.0900002 #
0.8476177658201873299503859016113 1:4 2:0 3:4 4:4 5:4 6:12 7:0 8:0 9:0 10:28 11:4 12:0 13:0 14:0 15:16 16:12 17:8 18:4 19:0 20:0 21:4 22:0 23:4 24:4 25:4 26:8 27:4 28:0 29:4 30:20 31:0 32:0 33:8 34:4 35:12 36:4 37:12 38:4 39:4 40:0 41:8.1000004 42:2.95 43:4.79 44:4.79 45:4.5999999 46:6.8099999 47:3.5 48:3.1300001 49:3.3099999 50:10.5 51:0.37 52:2.5799999 53:7 54:4.0500002 55:6.4499998 56:7.5500002 57:5.3400002 58:7.1799998 59:2.76 60:4.2399998 #
0.5447893981050179190717130950361 1:0 2:0 3:4 4:0 5:8 6:0 7:4 8:0 9:12 10:12 11:4 12:4 13:4 14:0 15:8 16:12 17:4 18:12 19:4 20:8 21:0 22:0 23:8 24:4 25:8 26:8 27:0 28:8 29:4 30:12 31:0 32:12 33:0 34:4 35:12 36:8 37:8 38:0 39:4 40:0 41:3.8499999 42:1.1 43:5.4899998 44:4.4000001 45:4.1199999 46:5.77 47:3.3 48:7.4200001 49:6.5900002 50:9.3400002 51:1.1 52:5.77 53:7.4200001 54:3.5699999 55:3.8499999 56:9.6199999 57:7.1399999 58:7.6900001 59:0.55000001 60:1.92 #
0.42490426251526858258955599012552 1:8 2:0 3:0 4:4 5:0 6:12 7:4 8:12 9:4 10:12 11:4 12:0 13:0 14:4 15:12 16:8 17:8 18:4 19:0 20:4 21:12 22:0 23:8 24:0 25:8 26:8 27:4 28:4 29:4 30:8 31:0 32:4 33:12 34:0 35:8 36:4 37:4 38:12 39:0 40:0 41:6.1199999 42:3.4000001 43:6.1199999 44:12.24 45:2.72 46:5.4400001 47:3.4000001 48:5.4400001 49:4.7600002 50:8.1599998 51:2.04 52:3.4000001 53:4.0799999 54:2.72 55:3.4000001 56:8.1599998 57:8.1599998 58:6.1199999 59:0.68000001 60:3.4000001 #
-0.52982630988146650619086130973301 1:12 2:0 3:0 4:0 5:4 6:0 7:0 8:0 9:8 10:8 11:4 12:4 13:4 14:4 15:8 16:12 17:20 18:12 19:0 20:0 21:4 22:0 23:8 24:4 25:0 26:12 27:0 28:12 29:0 30:8 31:16 32:0 33:0 34:4 35:12 36:8 37:4 38:0 39:4 40:4 41:8.3500004 42:0.25 43:4.9099998 44:5.9000001 45:4.6700001 46:5.6500001 47:2.21 48:4.4200001 49:7.1300001 50:12.04 51:0.25 52:8.6000004 53:2.95 54:4.1799998 55:2.46 56:10.32 57:5.1599998 58:7.3699999 59:1.47 60:1.72 #
-0.52982630988146650619086130973301 1:8 2:0 3:0 4:0 5:12 6:0 7:0 8:0 9:0 10:8 11:4 12:0 13:8 14:4 15:20 16:12 17:4 18:8 19:4 20:8 21:8 22:0 23:0 24:0 25:4 26:8 27:0 28:12 29:0 30:24 31:4 32:0 33:0 34:8 35:12 36:8 37:0 38:8 39:4 40:0 41:4.9099998 42:0.56999999 43:8.5100002 44:3.21 45:6.2399998 46:4.54 47:1.13 48:9.0699997 49:6.9899998 50:9.4499998 51:1.13 52:6.4299998 53:4.1599998 54:3.4000001 55:5.48 56:8.1300001 57:5.6700001 58:5.29 59:1.89 60:3.78 #
-0.52982630988146650619086130973301 1:8 2:4 3:0 4:0 5:4 6:0 7:0 8:4 9:4 10:24 11:4 12:4 13:4 14:0 15:24 16:12 17:0 18:4 19:0 20:0 21:0 22:0 23:4 24:8 25:8 26:12 27:0 28:8 29:8 30:4 31:0 32:0 33:0 34:16 35:20 36:4 37:0 38:0 39:4 40:4 41:10.12 42:0.31 43:5.52 44:7.6700001 45:3.99 46:4.5999999 47:1.23 48:3.99 49:7.98 50:9.5100002 51:1.23 52:3.0699999 53:7.3600001 54:2.45 55:4.9099998 56:7.0599999 57:6.75 58:5.8299999 59:0.92000002 60:5.52 #
1.3245657747036663209883045055903 1:16 2:4 3:4 4:4 5:4 6:0 7:0 8:8 9:0 10:12 11:4 12:4 13:4 14:4 15:16 16:4 17:8 18:4 19:0 20:0 21:0 22:0 23:0 24:8 25:0 26:0 27:0 28:12 29:16 30:4 31:0 32:8 33:12 34:0 35:0 36:20 37:0 38:12 39:0 40:8 41:5.0999999 42:1.15 43:6.25 44:7.0700002 45:6.25 46:5.2600002 47:1.97 48:6.25 49:9.3800001 50:9.54 51:2.3 52:5.5900002 53:4.9299998 54:3.6199999 55:4.9299998 56:6.4099998 57:4.6100001 58:5.2600002 59:0.81999999 60:3.29 #
-0.14537866726162029795688113154029 1:4 2:0 3:4 4:8 5:4 6:4 7:0 8:4 9:0 10:4 11:4 12:0 13:0 14:0 15:4 16:52 17:4 18:4 19:0 20:0 21:4 22:0 23:8 24:4 25:8 26:8 27:0 28:0 29:16 30:16 31:0 32:0 33:0 34:8 35:8 36:8 37:8 38:0 39:0 40:4 41:6.5900002 42:2.54 43:4.9400001 44:7.3400002 45:4.1900001 46:3.5899999 47:2.6900001 48:4.79 49:4.6399999 50:13.62 51:2.25 52:4.79 53:3.29 54:7.04 55:5.3899999 56:8.5299997 57:4.1900001 58:5.9899998 59:1.35 60:2.25 #
1.3245657747036663209883045055903 1:16 2:0 3:0 4:0 5:8 6:0 7:0 8:4 9:8 10:0 11:8 12:0 13:0 14:4 15:8 16:28 17:8 18:8 19:0 20:0 21:4 22:0 23:0 24:8 25:8 26:12 27:0 28:0 29:24 30:8 31:0 32:8 33:4 34:0 35:0 36:8 37:4 38:4 39:0 40:8 41:9.4700003 42:0.38 43:6.0599999 44:6.8200002 45:4.9200001 46:6.4400001 47:3.03 48:5.6799998 49:8.71 50:9.0900002 51:2.6500001 52:3.03 53:3.79 54:2.27 55:2.6500001 56:5.6799998 57:7.9499998 58:9.4700003 59:0.38 60:1.52 #
-0.52982630988146650619086130973301 1:20 2:0 3:0 4:0 5:16 6:4 7:0 8:4 9:4 10:4 11:4 12:0 13:4 14:4 15:12 16:12 17:8 18:4 19:0 20:0 21:8 22:0 23:4 24:16 25:4 26:0 27:4 28:8 29:8 30:4 31:4 32:8 33:4 34:0 35:0 36:4 37:4 38:8 39:8 40:4 41:8.8199997 42:1.1799999 43:2.9400001 44:5.29 45:7.0599999 46:8.8199997 47:1.76 48:8.2399998 49:8.2399998 50:7.0599999 51:0.58999997 52:4.1199999 53:4.71 54:2.3499999 55:4.71 56:9.4099998 57:5.8800001 58:8.2399998 59:0 60:0.58999997 #
-0.52982630988146650619086130973301 1:20 2:0 3:0 4:0 5:0 6:0 7:0 8:4 9:0 10:8 11:16 12:4 13:4 14:0 15:12 16:16 17:12 18:4 19:0 20:0 21:8 22:0 23:0 24:0 25:8 26:0 27:4 28:4 29:20 30:8 31:0 32:8 33:8 34:0 35:8 36:4 37:8 38:4 39:0 40:8 41:9.5200005 42:0 43:4.1700001 44:8.9300003 45:2.3800001 46:5.3600001 47:1.79 48:2.98 49:5.3600001 50:5.9499998 51:2.3800001 52:3.5699999 53:8.3299999 54:5.9499998 55:6.5500002 56:8.9300003 57:5.3600001 58:7.1399999 59:2.98 60:2.3800001 #
-0.52982630988146650619086130973301 1:12 2:0 3:0 4:4 5:0 6:4 7:4 8:4 9:12 10:16 11:8 12:4 13:4 14:0 15:8 16:4 17:12 18:0 19:0 20:4 21:0 22:0 23:4 24:8 25:0 26:0 27:4 28:0 29:16 30:4 31:4 32:4 33:12 34:0 35:0 36:8 37:4 38:20 39:0 40:12 41:7.48 42:0.68000001 43:3.4000001 44:1.36 45:7.48 46:4.7600002 47:1.36 48:6.8000002 49:6.1199999 50:10.88 51:2.72 52:6.1199999 53:4.7600002 54:4.0799999 55:4.7600002 56:5.4400001 57:3.4000001 58:8.8400002 59:4.7600002 60:4.7600002 #
1.1326862579416638876494971555076 1:8 2:4 3:0 4:0 5:0 6:4 7:0 8:0 9:0 10:4 11:4 12:0 13:16 14:0 15:16 16:16 17:4 18:4 19:20 20:0 21:4 22:0 23:4 24:8 25:0 26:16 27:4 28:0 29:8 30:16 31:4 32:0 33:4 34:8 35:16 36:0 37:4 38:4 39:0 40:0 41:6.98 42:1.35 43:5.1799998 44:5.8600001 45:3.3800001 46:8.7799997 47:1.8 48:4.0500002 49:4.0500002 50:10.81 51:0.44999999 52:1.8 53:8.5600004 54:3.8299999 55:7.8800001 56:5.1799998 57:6.98 58:10.14 59:1.13 60:1.8 #
1.0535392617288825700683219110942 1:12 2:0 3:8 4:0 5:12 6:4 7:4 8:4 9:0 10:20 11:8 12:0 13:4 14:4 15:16 16:0 17:0 18:4 19:0 20:0 21:8 22:4 23:16 24:4 25:4 26:20 27:0 28:0 29:12 30:4 31:0 32:0 33:4 34:8 35:8 36:0 37:8 38:0 39:0 40:0 41:8.46 42:1.54 43:3.8499999 44:7.8499999 45:3.54 46:5.54 47:2 48:2.3099999 49:6.3099999 50:13.54 51:2.46 52:3.3800001 53:6.77 54:5.54 55:6.46 56:5.8499999 57:5.3800001 58:5.23 59:1.23 60:2.77 #
-0.52982630988146650619086130973301 1:0 2:0 3:4 4:4 5:0 6:4 7:4 8:0 9:4 10:8 11:8 12:12 13:4 14:16 15:4 16:12 17:12 18:0 19:4 20:0 21:4 22:4 23:8 24:4 25:12 26:0 27:4 28:8 29:4 30:8 31:0 32:4 33:4 34:12 35:8 36:8 37:8 38:0 39:0 40:0 41:6.9200001 42:3.3299999 43:3.3299999 44:5.9899998 45:4.79 46:7.0599999 47:2.26 48:2.9300001 49:2.8 50:17.18 51:1.6 52:2 53:6.3899999 54:5.9899998 55:5.9899998 56:7.1900001 57:4.2600002 58:7.0599999 59:1.86 60:1.0700001 #
-0.52982630988146650619086130973301 1:8 2:4 3:8 4:4 5:4 6:0 7:0 8:0 9:0 10:24 11:4 12:0 13:8 14:4 15:8 16:4 17:4 18:8 19:8 20:0 21:12 22:4 23:8 24:0 25:0 26:12 27:8 28:0 29:4 30:16 31:0 32:4 33:4 34:4 35:0 36:8 37:4 38:8 39:4 40:0 41:6.2800002 42:1.9299999 43:4.5900002 44:5.8000002 45:3.6199999 46:8.9399996 47:1.9299999 48:7.4899998 49:7.25 50:10.63 51:2.6600001 52:2.6600001 53:6.04 54:4.5900002 55:5.0700002 56:7.25 57:3.6199999 58:7 59:0 60:2.6600001 #
-0.52982630988146650619086130973301 1:4 2:4 3:0 4:0 5:8 6:0 7:0 8:4 9:4 10:20 11:4 12:0 13:4 14:4 15:16 16:16 17:8 18:0 19:0 20:4 21:4 22:8 23:8 24:4 25:0 26:8 27:12 28:0 29:4 30:4 31:0 32:8 33:8 34:0 35:4 36:4 37:0 38:16 39:4 40:4 41:4.7600002 42:0.94999999 43:7.6199999 44:7.6199999 45:0.94999999 46:10.48 47:0.94999999 48:5.71 49:7.6199999 50:9.5200005 51:1.9 52:2.8599999 53:7.6199999 54:3.8099999 55:2.8599999 56:4.7600002 57:9.5200005 58:6.6700001 59:0.94999999 60:2.8599999 #
-0.52982630988146650619086130973301 1:8 2:0 3:8 4:0 5:4 6:12 7:8 8:0 9:0 10:8 11:4 12:0 13:8 14:4 15:20 16:8 17:0 18:0 19:8 20:0 21:8 22:0 23:0 24:12 25:0 26:12 27:0 28:0 29:4 30:20 31:0 32:0 33:0 34:8 35:12 36:12 37:0 38:8 39:4 40:0 41:9.3000002 42:1.95 43:3.8900001 44:6.4899998 45:4 46:7.5700002 47:2.9200001 48:2.5899999 49:2.3800001 50:15.78 51:1.73 52:3.03 53:6.3800001 54:4.2199998 55:7.3499999 56:6.0500002 57:4.4299998 58:6.8099999 59:0.75999999 60:2.3800001 #
1.3245657747036663209883045055903 1:4 2:0 3:0 4:4 5:16 6:8 7:4 8:0 9:8 10:12 11:4 12:0 13:0 14:4 15:4 16:12 17:8 18:4 19:0 20:8 21:8 22:0 23:8 24:4 25:8 26:4 27:4 28:12 29:4 30:4 31:0 32:8 33:4 34:0 35:4 36:12 37:4 38:0 39:0 40:12 41:3.1700001 42:1.8099999 43:3.6199999 44:7.0100002 45:5.4299998 46:4.75 47:2.71 48:6.3299999 49:7.0100002 50:10.63 51:1.58 52:4.98 53:5.4299998 54:4.98 55:4.75 56:8.6000004 57:7.2399998 58:4.75 59:1.8099999 60:3.3900001 #
0.68626754469347150955371716918307 1:16 2:0 3:4 4:0 5:4 6:4 7:4 8:4 9:4 10:8 11:4 12:8 13:0 14:0 15:20 16:4 17:12 18:0 19:0 20:4 21:12 22:4 23:8 24:0 25:4 26:0 27:0 28:4 29:20 30:4 31:0 32:4 33:8 34:4 35:8 36:4 37:12 38:4 39:0 40:0 41:6.8499999 42:1.37 43:8.2200003 44:8.2200003 45:1.37 46:5.48 47:4.1100001 48:2.74 49:8.2200003 50:12.33 51:2.74 52:4.1100001 53:5.48 54:4.1100001 55:6.8499999 56:4.1100001 57:5.48 58:6.8499999 59:0 60:1.37 #
1.3245657747036663209883045055903 1:24 2:0 3:0 4:0 5:0 6:0 7:4 8:0 9:0 10:8 11:8 12:0 13:12 14:0 15:12 16:12 17:0 18:20 19:0 20:0 21:4 22:0 23:4 24:8 25:0 26:4 27:4 28:8 29:4 30:4 31:0 32:0 33:12 34:4 35:8 36:12 37:12 38:4 39:4 40:4 41:6.0599999 42:0.30000001 43:4.8499999 44:6.0599999 45:6.3600001 46:7.5799999 47:4.2399998 48:7.8800001 49:5.7600002 50:7.27 51:1.21 52:2.4200001 53:6.6700001 54:2.73 55:7.27 56:5.4499998 57:4.2399998 58:9.3900003 59:1.52 60:2.73 #
-0.52982630988146650619086130973301 1:16 2:12 3:0 4:0 5:4 6:8 7:0 8:0 9:4 10:16 11:4 12:0 13:0 14:8 15:8 16:8 17:4 18:8 19:0 20:0 21:12 22:0 23:0 24:8 25:0 26:8 27:0 28:12 29:4 30:4 31:0 32:0 33:4 34:12 35:0 36:4 37:16 38:12 39:0 40:4 41:12.43 42:0.56 43:4.3800001 44:10.45 45:1.98 46:3.8099999 47:2.26 48:4.3800001 49:7.77 50:10.03 51:1.55 52:2.6800001 53:4.3800001 54:6.5 55:5.5100002 56:8.1899996 57:4.6599998 58:5.79 59:0.70999998 60:1.98 #
-0.52982630988146650619086130973301 1:24 2:12 3:0 4:4 5:4 6:12 7:4 8:0 9:0 10:4 11:4 12:0 13:4 14:0 15:8 16:8 17:4 18:0 19:4 20:4 21:0 22:0 23:0 24:4 25:12 26:4 27:8 28:8 29:8 30:12 31:4 32:0 33:8 34:4 35:4 36:0 37:16 38:8 39:0 40:0 41:7.1700001 42:2.1099999 43:4.2199998 44:2.53 45:5.4899998 46:9.2799997 47:1.6900001 48:2.1099999 49:4.6399999 50:13.92 51:4.2199998 52:2.95 53:3.3800001 54:5.9099998 55:5.9099998 56:7.1700001 57:6.75 58:6.3299999 59:0 60:4.2199998 #
-0.52982630988146650619086130973301 1:4 2:0 3:0 4:0 5:4 6:12 7:0 8:4 9:8 10:12 11:4 12:0 13:4 14:0 15:4 16:16 17:4 18:16 19:4 20:4 21:0 22:0 23:8 24:8 25:0 26:8 27:0 28:16 29:8 30:0 31:0 32:12 33:0 34:4 35:4 36:12 37:0 38:4 39:12 40:4 41:3.5699999 42:0 43:12.5 44:3.5699999 45:1.79 46:5.3600001 47:3.5699999 48:0 49:5.3600001 50:7.1399999 51:1.79 52:5.3600001 53:1.79 54:5.3600001 55:8.9300003 56:3.5699999 57:8.9300003 58:10.71 59:3.5699999 60:7.1399999 #
0.71145498325423550678436868111021 1:12 2:8 3:0 4:4 5:4 6:4 7:0 8:8 9:0 10:16 11:4 12:8 13:8 14:4 15:12 16:4 17:0 18:4 19:0 20:0 21:8 22:4 23:0 24:0 25:4 26:8 27:4 28:4 29:8 30:16 31:8 32:4 33:4 34:0 35:8 36:4 37:4 38:12 39:0 40:0 41:5.6799998 42:0.94999999 43:6.0599999 44:6.4400001 45:5.3000002 46:6.25 47:2.46 48:4.9200001 49:7.1999998 50:11.74 51:1.7 52:3.03 53:2.27 54:7.0100002 55:4.9200001 56:7.3899999 57:4.9200001 58:7.5799999 59:0.75999999 60:3.4100001 #
1.0477102449710535836402414133772 1:0 2:4 3:0 4:0 5:4 6:12 7:4 8:4 9:4 10:8 11:4 12:0 13:12 14:0 15:16 16:12 17:12 18:0 19:4 20:0 21:8 22:0 23:12 24:4 25:4 26:0 27:4 28:0 29:0 30:8 31:4 32:4 33:12 34:12 35:12 36:12 37:0 38:4 39:0 40:0 41:6.0100002 42:2.8299999 43:5.6500001 44:4.9499998 45:4.2399998 46:6.71 47:2.8299999 48:3.8900001 49:4.2399998 50:11.31 51:0.70999998 52:2.8299999 53:7.0700002 54:5.3000002 55:8.1300001 56:7.77 57:3.53 58:8.1300001 59:2.1199999 60:1.77 #
-0.22806267881670336250543584810657 1:4 2:4 3:0 4:0 5:12 6:4 7:0 8:20 9:0 10:16 11:4 12:4 13:8 14:4 15:4 16:8 17:0 18:0 19:4 20:4 21:0 22:0 23:0 24:0 25:8 26:0 27:0 28:24 29:0 30:20 31:4 32:8 33:4 34:0 35:0 36:8 37:0 38:20 39:0 40:4 41:6.7800002 42:0.66000003 43:2.3099999 44:1.8200001 45:6.4499998 46:5.29 47:1.98 48:11.74 49:2.1500001 50:15.21 51:3.6400001 52:6.6100001 53:1.98 54:1.49 55:1.65 56:8.6000004 57:7.9299998 58:5.6199999 59:1.16 60:6.9400001 #
-0.52982630988146650619086130973301 1:12 2:4 3:4 4:0 5:4 6:12 7:0 8:0 9:4 10:16 11:4 12:0 13:0 14:4 15:12 16:4 17:8 18:4 19:0 20:8 21:4 22:0 23:8 24:4 25:4 26:8 27:0 28:4 29:4 30:12 31:4 32:8 33:8 34:0 35:8 36:4 37:4 38:12 39:0 40:4 41:7.1100001 42:1.67 43:5.4400001 44:7.9499998 45:3.3499999 46:5.4400001 47:3.77 48:6.2800002 49:6.2800002 50:6.6900001 51:0.41999999 52:4.1799998 53:6.2800002 54:4.1799998 55:8.3699999 56:5.4400001 57:4.5999999 58:6.6900001 59:3.3499999 60:2.51 #
-0.52982630988146650619086130973301 1:12 2:0 3:0 4:0 5:4 6:4 7:4 8:8 9:0 10:12 11:4 12:8 13:8 14:0 15:20 16:4 17:4 18:4 19:0 20:4 21:0 22:0 23:8 24:16 25:4 26:4 27:0 28:0 29:8 30:20 31:0 32:0 33:8 34:4 35:4 36:12 37:0 38:8 39:0 40:4 41:12.24 42:1.02 43:7.1399999 44:12.24 45:7.1399999 46:0 47:1.02 48:3.0599999 49:7.1399999 50:7.1399999 51:0 52:5.0999999 53:3.0599999 54:3.0599999 55:8.1599998 56:3.0599999 57:6.1199999 58:7.1399999 59:0 60:6.1199999 #
-0.52982630988146650619086130973301 1:4 2:4 3:0 4:0 5:8 6:0 7:8 8:8 9:0 10:20 11:4 12:0 13:8 14:4 15:16 16:8 17:4 18:4 19:0 20:0 21:4 22:0 23:8 24:16 25:4 26:0 27:0 28:0 29:20 30:4 31:8 32:0 33:12 34:0 35:0 36:16 37:0 38:8 39:0 40:0 41:4.04 42:1.1900001 43:5.9400001 44:10.45 45:4.9899998 46:5.46 47:1.4299999 48:5.46 49:13.06 50:9.7399998 51:2.1400001 52:6.1799998 53:1.4299999 54:3.3299999 55:7.5999999 56:4.9899998 57:3.3299999 58:4.75 59:1.1900001 60:3.3299999 #
1.3245657747036663209883045055903 1:16 2:4 3:4 4:0 5:4 6:0 7:0 8:0 9:4 10:12 11:4 12:0 13:0 14:8 15:12 16:16 17:0 18:8 19:8 20:0 21:16 22:0 23:4 24:0 25:8 26:4 27:8 28:0 29:8 30:8 31:0 32:0 33:0 34:20 35:0 36:8 37:4 38:8 39:4 40:0 41:9.1800003 42:0.74000001 43:4.2199998 44:7.4400001 45:4.2199998 46:10.42 47:2.48 48:4.2199998 49:3.97 50:11.66 51:1.99 52:2.23 53:8.1899996 54:2.23 55:6.4499998 56:5.21 57:3.97 58:6.9499998 59:1.24 60:2.98 #
1.3245657747036663209883045055903 1:16 2:0 3:0 4:0 5:0 6:8 7:8 8:4 9:4 10:8 11:4 12:0 13:0 14:0 15:12 16:16 17:0 18:12 19:0 20:8 21:12 22:0 23:0 24:12 25:4 26:8 27:8 28:4 29:0 30:12 31:0 32:0 33:0 34:16 35:12 36:0 37:0 38:12 39:0 40:0 41:5.2399998 42:1.5 43:6.23 44:6.23 45:5.7399998 46:5.4899998 47:5.9899998 48:4.2399998 49:4.9899998 50:10.72 51:1.75 52:3.49 53:4.2399998 54:5.4899998 55:5.9899998 56:5.7399998 57:4.4899998 58:6.48 59:2.24 60:3.74 #
1.308261348095061782359493918193 1:4 2:4 3:0 4:0 5:4 6:4 7:0 8:4 9:0 10:16 11:4 12:0 13:4 14:8 15:12 16:20 17:0 18:16 19:0 20:0 21:20 22:0 23:0 24:4 25:0 26:8 27:4 28:4 29:8 30:4 31:0 32:0 33:4 34:4 35:4 36:8 37:16 38:8 39:0 40:4 41:8.4499998 42:2.8199999 43:4.9299998 44:3.52 45:2.8199999 46:7.04 47:2.1099999 48:4.9299998 49:9.1499996 50:7.75 51:3.52 52:6.3400002 53:5.6300001 54:2.1099999 55:4.23 56:7.04 57:5.6300001 58:9.8599997 59:0 60:2.1099999 #
-0.52982630988146650619086130973301 1:4 2:0 3:0 4:0 5:0 6:4 7:0 8:8 9:4 10:8 11:4 12:12 13:4 14:4 15:0 16:16 17:8 18:20 19:4 20:0 21:12 22:0 23:0 24:8 25:4 26:0 27:8 28:4 29:16 30:12 31:0 32:4 33:4 34:4 35:12 36:0 37:4 38:8 39:0 40:0 41:9.2200003 42:2.53 43:4.6999998 44:5.4200001 45:4.1599998 46:7.0500002 47:1.45 48:4.3400002 49:6.6900001 50:9.5799999 51:1.45 52:4.8800001 53:4.8800001 54:3.8 55:4.6999998 56:8.3199997 57:5.9699998 58:7.23 59:0.89999998 60:2.71 #
-0.52982630988146650619086130973301 1:8 2:0 3:0 4:0 5:0 6:4 7:0 8:4 9:0 10:0 11:8 12:0 13:8 14:4 15:24 16:28 17:12 18:0 19:0 20:0 21:12 22:8 23:4 24:4 25:4 26:4 27:0 28:4 29:4 30:8 31:0 32:12 33:0 34:20 35:4 36:0 37:0 38:0 39:0 40:12 41:14.15 42:1.89 43:3.77 44:2.8299999 45:2.8299999 46:11.32 47:2.8299999 48:2.8299999 49:0 50:2.8299999 51:3.77 52:3.77 53:6.5999999 54:15.09 55:3.77 56:7.5500002 57:9.4300003 58:3.77 59:0 60:0.94 #
-0.52982630988146650619086130973301 1:20 2:0 3:0 4:0 5:4 6:0 7:0 8:0 9:8 10:8 11:4 12:0 13:0 14:4 15:12 16:24 17:8 18:8 19:0 20:0 21:20 22:0 23:4 24:12 25:0 26:8 27:4 28:8 29:4 30:8 31:0 32:4 33:0 34:4 35:0 36:8 37:8 38:8 39:0 40:0 41:8.5 42:0 43:4.5799999 44:5.23 45:5.23 46:5.23 47:2.6099999 48:5.23 49:6.54 50:7.8400002 51:3.27 52:1.96 53:10.46 54:3.9200001 55:0.64999998 56:9.8000002 57:7.8400002 58:9.1499996 59:0.64999998 60:1.3099999 #
1.3245657747036663209883045055903 1:4 2:0 3:0 4:0 5:12 6:0 7:0 8:8 9:8 10:16 11:4 12:4 13:12 14:4 15:12 16:8 17:4 18:0 19:0 20:4 21:12 22:0 23:8 24:32 25:0 26:4 27:0 28:0 29:4 30:16 31:0 32:0 33:4 34:4 35:4 36:4 37:4 38:4 39:0 40:0 41:8 42:2 43:4 44:10 45:6 46:8 47:0 48:8 49:6 50:7 51:3 52:4 53:7 54:2 55:5 56:5 57:5 58:6 59:1 60:3 #
-0.35374129359955419626970751778572 1:0 2:0 3:4 4:12 5:4 6:16 7:0 8:4 9:0 10:12 11:4 12:8 13:4 14:0 15:8 16:4 17:8 18:8 19:0 20:4 21:16 22:0 23:0 24:0 25:12 26:0 27:0 28:0 29:0 30:12 31:12 32:0 33:4 34:8 35:8 36:0 37:4 38:16 39:4 40:4 41:6.3200002 42:0 43:8.4200001 44:3.1600001 45:1.05 46:13.68 47:3.1600001 48:7.3699999 49:3.1600001 50:9.4700003 51:0 52:7.3699999 53:3.1600001 54:8.4200001 55:6.3200002 56:6.3200002 57:1.05 58:8.4200001 59:0 60:3.1600001 #
1.3245657747036663209883045055903 1:12 2:0 3:4 4:0 5:0 6:8 7:4 8:4 9:12 10:28 11:4 12:0 13:8 14:4 15:4 16:4 17:4 18:0 19:0 20:0 21:0 22:0 23:4 24:4 25:12 26:12 27:0 28:12 29:8 30:12 31:0 32:4 33:4 34:0 35:0 36:12 37:12 38:4 39:0 40:0 41:4.8899999 42:0 43:6.52 44:7.0700002 45:1.63 46:5.98 47:1.09 48:5.98 49:8.1499996 50:14.67 51:0.54000002 52:2.72 53:5.98 54:4.3499999 55:5.98 56:7.6100001 57:7.6100001 58:4.3499999 59:1.09 60:3.8 #
-0.52982630988146650619086130973301 1:4 2:0 3:0 4:0 5:4 6:4 7:0 8:0 9:12 10:16 11:4 12:4 13:8 14:0 15:8 16:20 17:4 18:0 19:4 20:8 21:0 22:0 23:8 24:4 25:12 26:0 27:0 28:8 29:4 30:12 31:0 32:12 33:4 34:4 35:4 36:12 37:8 38:8 39:0 40:0 41:3.04 42:0.50999999 43:4.7199998 44:3.71 45:4.3800001 46:2.1900001 47:2.8699999 48:6.9099998 49:7.5900002 50:12.82 51:1.35 52:7.0799999 53:6.2399998 54:6.75 55:2.3599999 56:12.48 57:7.4200001 58:3.3699999 59:1.35 60:2.8699999 #
-0.52982630988146650619086130973301 1:16 2:4 3:0 4:0 5:8 6:0 7:4 8:0 9:4 10:16 11:4 12:0 13:8 14:0 15:12 16:8 17:8 18:8 19:0 20:0 21:8 22:0 23:4 24:0 25:4 26:8 27:0 28:8 29:8 30:8 31:12 32:8 33:0 34:0 35:8 36:4 37:12 38:4 39:0 40:4 41:9.8299999 42:0.68000001 43:1.6900001 44:3.05 45:3.05 46:11.53 47:1.02 48:6.4400001 49:4.4099998 50:11.19 51:5.4200001 52:2.03 53:5.4200001 54:2.3699999 55:4.0700002 56:7.1199999 57:5.7600002 58:8.4700003 59:2.03 60:4.4099998 #
-0.52982630988146650619086130973301 1:0 2:0 3:0 4:0 5:0 6:0 7:8 8:12 9:4 10:20 11:4 12:0 13:12 14:0 15:16 16:4 17:12 18:8 19:0 20:0 21:8 22:0 23:4 24:0 25:12 26:12 27:0 28:0 29:8 30:12 31:8 32:4 33:0 34:8 35:0 36:4 37:8 38:4 39:8 40:0 41:2.6199999 42:1.05 43:5.0700002 44:5.2399998 45:5.4200001 46:2.0999999 47:1.75 48:9.6199999 49:7.52 50:12.41 51:1.05 52:10.66 53:3.1500001 54:3.6700001 55:4.3699999 56:9.2700005 57:6.6399999 58:4.5500002 59:1.5700001 60:2.27 #
1.0849662615639918961107923678355 1:0 2:0 3:0 4:0 5:4 6:8 7:4 8:16 9:4 10:0 11:4 12:4 13:4 14:8 15:8 16:20 17:4 18:12 19:0 20:0 21:0 22:0 23:0 24:16 25:8 26:12 27:4 28:4 29:16 30:8 31:0 32:4 33:0 34:0 35:8 36:4 37:8 38:4 39:4 40:0 41:4.0599999 42:1.13 43:6.77 44:6.3200002 45:5.4200001 46:6.5500002 47:1.8099999 48:6.77 49:9.0299997 50:9.71 51:1.13 52:6.3200002 53:4.7399998 54:2.03 55:4.9699998 56:7.9000001 57:4.5100002 58:5.6399999 59:2.03 60:3.1600001 #
1.3245657747036663209883045055903 1:12 2:0 3:0 4:0 5:0 6:4 7:0 8:8 9:4 10:24 11:4 12:8 13:4 14:0 15:8 16:12 17:8 18:4 19:0 20:0 21:0 22:0 23:4 24:0 25:4 26:0 27:0 28:4 29:4 30:0 31:0 32:32 33:0 34:0 35:16 36:28 37:0 38:0 39:0 40:8 41:5.0500002 42:1.14 43:7.6500001 44:7.6500001 45:5.21 46:4.0700002 47:1.95 48:8.1400003 49:8.96 50:7.8200002 51:1.3 52:6.5100002 53:3.5799999 54:2.4400001 55:7.3299999 56:7.6500001 57:4.4000001 58:6.0300002 59:0.16 60:2.9300001 #
1.2696353851334545304041512281401 1:20 2:4 3:0 4:0 5:0 6:24 7:0 8:0 9:0 10:16 11:4 12:0 13:8 14:0 15:20 16:0 17:0 18:4 19:0 20:0 21:4 22:0 23:24 24:8 25:12 26:0 27:0 28:0 29:0 30:16 31:4 32:0 33:0 34:0 35:0 36:16 37:4 38:12 39:0 40:0 41:7.0900002 42:1.96 43:5.1300001 44:7.2399998 45:4.6799998 46:6.0300002 47:3.02 48:3.77 49:5.2800002 50:11.76 51:3.6199999 52:3.3199999 53:5.5799999 54:3.6199999 55:6.9400001 56:6.6399999 57:4.0700002 58:5.73 59:0.75 60:3.77 #
-0.52982630988146650619086130973301 1:8 2:0 3:0 4:0 5:8 6:12 7:4 8:4 9:4 10:8 11:12 12:0 13:4 14:4 15:12 16:8 17:0 18:4 19:4 20:4 21:0 22:0 23:8 24:16 25:4 26:12 27:0 28:4 29:16 30:12 31:0 32:4 33:4 34:8 35:0 36:4 37:0 38:8 39:0 40:0 41:7.29 42:0 43:4.1700001 44:6.25 45:5.21 46:7.29 47:5.21 48:6.25 49:6.25 50:12.5 51:0 52:2.0799999 53:5.21 54:5.21 55:4.1700001 56:7.29 57:0 58:7.29 59:1.04 60:7.29 #
0.88793229944096019323751534102485 1:12 2:0 3:4 4:0 5:4 6:8 7:4 8:4 9:8 10:20 11:4 12:0 13:4 14:4 15:8 16:8 17:8 18:0 19:0 20:0 21:12 22:0 23:8 24:0 25:0 26:8 27:0 28:8 29:4 30:4 31:0 32:12 33:0 34:8 35:4 36:4 37:4 38:8 39:8 40:8 41:7 42:1.17 43:3.5 44:6.71 45:3.79 46:8.75 47:1.46 48:5.25 49:7.29 50:9.9099998 51:1.75 52:4.6599998 53:7.29 54:3.5 55:4.0799999 56:4.0799999 57:8.4499998 58:5.8299999 59:1.75 60:3.79 #
-0.52982630988146650619086130973301 1:12 2:12 3:4 4:4 5:0 6:0 7:0 8:8 9:12 10:4 11:8 12:0 13:4 14:8 15:4 16:8 17:0 18:12 19:0 20:0 21:0 22:4 23:8 24:12 25:4 26:4 27:0 28:0 29:20 30:16 31:4 32:8 33:4 34:8 35:4 36:4 37:0 38:0 39:0 40:0 41:5.1700001 42:5.1700001 43:8.6199999 44:6.9000001 45:3.45 46:5.1700001 47:1.72 48:3.45 49:8.6199999 50:10.34 51:3.45 52:6.9000001 53:6.9000001 54:6.9000001 55:5.1700001 56:1.72 57:5.1700001 58:1.72 59:0 60:3.45 #
-0.52982630988146650619086130973301 1:8 2:0 3:0 4:0 5:4 6:8 7:4 8:4 9:4 10:16 11:4 12:0 13:0 14:20 15:8 16:12 17:0 18:4 19:0 20:4 21:0 22:0 23:12 24:16 25:8 26:0 27:0 28:8 29:16 30:4 31:4 32:4 33:4 34:8 35:4 36:8 37:0 38:4 39:0 40:0 41:11.05 42:0 43:8.9499998 44:11.05 45:4.21 46:3.6800001 47:0.52999997 48:5.79 49:13.16 50:10 51:4.21 52:2.1099999 53:3.6800001 54:3.6800001 55:5.79 56:2.6300001 57:3.6800001 58:4.21 59:0 60:1.58 #
0.39455784061033660758965879722382 1:0 2:0 3:0 4:0 5:4 6:4 7:4 8:0 9:8 10:16 11:12 12:4 13:4 14:0 15:12 16:4 17:12 18:8 19:0 20:8 21:4 22:4 23:4 24:12 25:0 26:0 27:0 28:0 29:8 30:12 31:4 32:8 33:0 34:4 35:4 36:8 37:8 38:16 39:0 40:4 41:2.8599999 42:1.1900001 43:7.4000001 44:7.4000001 45:4.3000002 46:4.3000002 47:3.0999999 48:8.3500004 49:8.5900002 50:8.5900002 51:2.1500001 52:5.73 53:4.5300002 54:2.6300001 55:5.73 56:6.9200001 57:5.4899998 58:5.4899998 59:2.3900001 60:2.8599999 #
0.50979242946209213371844271023292 1:4 2:0 3:0 4:0 5:8 6:4 7:8 8:4 9:4 10:24 11:4 12:8 13:0 14:0 15:8 16:20 17:4 18:0 19:0 20:0 21:0 22:0 23:8 24:8 25:0 26:0 27:4 28:4 29:0 30:16 31:0 32:4 33:12 34:12 35:8 36:8 37:4 38:8 39:0 40:4 41:8.7700005 42:1.1799999 43:5.4499998 44:6.1599998 45:4.27 46:6.1599998 47:2.3699999 48:5.9200001 49:3.79 50:5.9200001 51:2.6099999 52:5.4499998 53:4.7399998 54:4.7399998 55:6.8699999 56:8.0600004 57:5.4499998 58:6.6399999 59:1.66 60:3.79 #
-0.26384540994158994786644711894041 1:12 2:4 3:4 4:0 5:0 6:16 7:0 8:16 9:8 10:12 11:4 12:4 13:4 14:4 15:0 16:4 17:4 18:4 19:0 20:0 21:12 22:0 23:4 24:4 25:8 26:12 27:0 28:8 29:0 30:20 31:0 32:0 33:4 34:12 35:0 36:4 37:0 38:8 39:0 40:4 41:12.45 42:2.5599999 43:3.6600001 44:3.3 45:3.6600001 46:8.4200001 47:0.73000002 48:4.0300002 49:5.1300001 50:12.09 51:1.83 52:2.9300001 53:5.1300001 54:6.5900002 55:6.5900002 56:5.4899998 57:5.4899998 58:6.96 59:0 60:2.9300001 #
-0.52982630988146650619086130973301 1:28 2:0 3:0 4:4 5:0 6:8 7:0 8:0 9:0 10:20 11:4 12:0 13:4 14:4 15:4 16:4 17:4 18:8 19:8 20:0 21:4 22:4 23:0 24:4 25:0 26:12 27:4 28:0 29:0 30:8 31:0 32:0 33:8 34:4 35:12 36:20 37:12 38:4 39:4 40:0 41:8.4200001 42:2.97 43:3.96 44:6.4400001 45:4.9499998 46:5.9400001 47:2.97 48:3.47 49:2.97 50:13.37 51:0.99000001 52:2.97 53:5.4499998 54:4.9499998 55:10.89 56:5.4499998 57:4.46 58:5.9400001 59:1.49 60:1.98 #
-0.52982630988146650619086130973301 1:16 2:0 3:0 4:0 5:0 6:8 7:0 8:0 9:4 10:16 11:4 12:0 13:20 14:0 15:16 16:4 17:4 18:4 19:0 20:4 21:8 22:0 23:0 24:28 25:0 26:4 27:0 28:0 29:0 30:0 31:0 32:0 33:16 34:16 35:0 36:12 37:12 38:4 39:0 40:0 41:12.02 42:0.86000001 43:5.1500001 44:18.030001 45:0.43000001 46:5.5799999 47:0.86000001 48:1.29 49:4.29 50:4.7199998 51:0.86000001 52:1.29 53:6.4400001 54:4.29 55:2.5799999 56:12.02 57:8.5799999 58:8.5799999 59:0 60:2.1500001 #
-0.5109967032389503005518349709746 1:12 2:4 3:0 4:4 5:8 6:12 7:0 8:0 9:20 10:4 11:4 12:0 13:4 14:4 15:4 16:8 17:12 18:0 19:0 20:0 21:16 22:0 23:8 24:4 25:4 26:4 27:0 28:4 29:24 30:8 31:8 32:4 33:0 34:0 35:4 36:0 37:8 38:0 39:0 40:4 41:1.59 42:1.59 43:4.7600002 44:6.3499999 45:1.59 46:12.7 47:4.7600002 48:6.3499999 49:9.5200005 50:3.1700001 51:1.59 52:9.5200005 53:6.3499999 54:3.1700001 55:1.59 56:6.3499999 57:6.3499999 58:4.7600002 59:1.59 60:6.3499999 #
0.36453282756603921921367827962968 1:4 2:4 3:0 4:0 5:8 6:0 7:8 8:4 9:4 10:8 11:4 12:0 13:4 14:0 15:16 16:8 17:4 18:20 19:0 20:4 21:0 22:8 23:8 24:12 25:0 26:8 27:0 28:16 29:16 30:16 31:4 32:4 33:0 34:0 35:0 36:4 37:0 38:4 39:0 40:0 41:3.7 42:1.09 43:5.8800001 44:4.79 45:3.9200001 46:4.1300001 47:2.1800001 48:7.73 49:7.8299999 50:10.99 51:2.29 52:5.4400001 53:5.5500002 54:5.0100002 55:4.6799998 56:8.0500002 57:6.6399999 58:5.5500002 59:1.09 60:3.48 #
1.3245657747036663209883045055903 1:4 2:4 3:0 4:4 5:0 6:8 7:8 8:4 9:8 10:4 11:12 12:0 13:4 14:4 15:16 16:8 17:0 18:0 19:12 20:0 21:4 22:0 23:4 24:0 25:0 26:12 27:0 28:4 29:20 30:20 31:0 32:0 33:4 34:0 35:0 36:12 37:8 38:4 39:4 40:4 41:4.3600001 42:1.45 43:4.9400001 44:6.0999999 45:4.0700002 46:3.78 47:3.49 48:9.3000002 49:6.4000001 50:13.08 51:2.6199999 52:5.23 53:6.0999999 54:5.8099999 55:3.2 56:5.52 57:5.8099999 58:3.49 59:0 60:5.23 #
-0.52982630988146650619086130973301 1:8 2:0 3:0 4:0 5:0 6:8 7:0 8:8 9:4 10:12 11:8 12:4 13:0 14:0 15:16 16:8 17:20 18:4 19:0 20:0 21:4 22:4 23:8 24:16 25:0 26:0 27:0 28:12 29:4 30:16 31:0 32:0 33:0 34:4 35:16 36:0 37:4 38:8 39:4 40:0 41:4.29 42:1.84 43:5.71 44:9.1800003 45:3.6700001 46:3.8800001 47:1.22 48:5.5100002 49:10.41 50:12.86 51:0.41 52:10.2 53:2.6500001 54:3.27 55:3.0599999 56:10.41 57:4.9000001 58:4.0799999 59:0.81999999 60:1.63 #
-0.52982630988146650619086130973301 1:4 2:0 3:0 4:0 5:8 6:0 7:4 8:4 9:0 10:12 11:4 12:8 13:8 14:4 15:24 16:4 17:4 18:8 19:0 20:4 21:0 22:0 23:4 24:4 25:0 26:0 27:12 28:4 29:20 30:24 31:4 32:0 33:0 34:4 35:4 36:8 37:8 38:4 39:0 40:0 41:4.1300001 42:0.82999998 43:7.1599998 44:6.3400002 45:3.3099999 46:5.23 47:1.1 48:8.2600002 49:7.4400001 50:15.7 51:3.5799999 52:5.23 53:2.2 54:2.48 55:4.6799998 56:9.0900002 57:5.23 58:4.6799998 59:0.28 60:3.03 #
-0.52982630988146650619086130973301 1:4 2:4 3:0 4:0 5:0 6:8 7:0 8:8 9:0 10:16 11:8 12:4 13:8 14:0 15:12 16:8 17:8 18:12 19:0 20:0 21:8 22:4 23:0 24:12 25:0 26:4 27:0 28:12 29:16 30:8 31:0 32:12 33:0 34:0 35:0 36:12 37:4 38:4 39:0 40:4 41:6 42:0.25 43:4.6199999 44:7.6199999 45:4.1199999 46:4.5 47:1.75 48:6.5 49:7.6199999 50:9.8800001 51:1.62 52:6.3800001 53:4.5 54:4.1199999 55:5.5 56:7.5 57:6 58:6.75 59:1.5 60:3.25 #
1.3245657747036663209883045055903 1:8 2:0 3:0 4:0 5:0 6:20 7:0 8:0 9:0 10:16 11:4 12:0 13:12 14:0 15:8 16:12 17:8 18:8 19:4 20:0 21:4 22:8 23:0 24:8 25:0 26:16 27:0 28:8 29:0 30:4 31:4 32:0 33:20 34:4 35:8 36:12 37:0 38:4 39:0 40:0 41:8.1899996 42:0.57999998 43:4.0900002 44:11.11 45:4.0900002 46:7.02 47:3.51 48:4.6799998 49:1.75 50:12.87 51:0.57999998 52:0 53:4.6799998 54:2.9200001 55:11.7 56:9.3599997 57:3.51 58:4.6799998 59:1.75 60:2.9200001 #
1.232719003666477908254250905884 1:28 2:0 3:0 4:0 5:0 6:8 7:0 8:0 9:0 10:16 11:4 12:0 13:8 14:0 15:16 16:4 17:0 18:16 19:0 20:0 21:0 22:0 23:4 24:12 25:4 26:4 27:0 28:8 29:16 30:12 31:4 32:0 33:0 34:8 35:4 36:16 37:0 38:4 39:0 40:4 41:11.9 42:1.98 43:4.7600002 44:5.5599999 45:3.1700001 46:8.3299999 47:1.1900001 48:4.3699999 49:3.1700001 50:12.3 51:1.98 52:3.5699999 53:4.7600002 54:5.1599998 55:6.75 56:5.1599998 57:4.7600002 58:7.54 59:1.59 60:1.98 #
1.3245657747036663209883045055903 1:12 2:0 3:0 4:4 5:0 6:4 7:4 8:0 9:8 10:12 11:4 12:0 13:0 14:4 15:8 16:8 17:4 18:20 19:4 20:4 21:8 22:0 23:4 24:8 25:8 26:16 27:4 28:0 29:8 30:0 31:0 32:0 33:8 34:4 35:4 36:8 37:4 38:4 39:12 40:0 41:7.6900001 42:1.62 43:5.6700001 44:7.6900001 45:5.2600002 46:8.5 47:2.4300001 48:2.8299999 49:4.8600001 50:8.9099998 51:2.02 52:2.8299999 53:6.48 54:1.62 55:6.8800001 56:6.8800001 57:4.4499998 58:7.6900001 59:1.62 60:4.0500002 #
-0.52982630988146650619086130973301 1:4 2:4 3:0 4:4 5:0 6:12 7:4 8:0 9:0 10:20 11:12 12:0 13:0 14:4 15:20 16:8 17:0 18:8 19:0 20:0 21:0 22:0 23:8 24:0 25:0 26:4 27:4 28:4 29:16 30:4 31:0 32:8 33:20 34:0 35:0 36:20 37:4 38:0 39:4 40:4 41:9.6099997 42:1.5599999 43:2.0799999 44:5.1900001 45:4.6799998 46:5.1900001 47:2.3399999 48:5.4499998 49:3.3800001 50:12.47 51:2.8599999 52:2.0799999 53:8.3100004 54:5.4499998 55:5.71 56:6.23 57:5.9699998 58:7.0100002 59:2.3399999 60:2.0799999 #
-0.52982630988146650619086130973301 1:8 2:0 3:0 4:8 5:12 6:0 7:8 8:4 9:16 10:8 11:8 12:0 13:8 14:0 15:0 16:12 17:4 18:4 19:0 20:0 21:0 22:8 23:4 24:8 25:4 26:8 27:4 28:8 29:8 30:8 31:4 32:0 33:4 34:4 35:0 36:8 37:4 38:8 39:0 40:8 41:5.71 42:1.4299999 43:5.71 44:11.43 45:7.1399999 46:8.5699997 47:5.71 48:7.1399999 49:5.71 50:8.5699997 51:0 52:4.29 53:1.4299999 54:0 55:5.71 56:8.5699997 57:4.29 58:8.5699997 59:0 60:0 #
-0.52982630988146650619086130973301 1:0 2:8 3:0 4:0 5:4 6:20 7:4 8:4 9:0 10:4 11:4 12:0 13:16 14:0 15:12 16:4 17:0 18:4 19:16 20:0 21:4 22:0 23:4 24:8 25:8 26:8 27:4 28:4 29:8 30:12 31:0 32:4 33:8 34:0 35:0 36:4 37:8 38:8 39:0 40:8 41:9.7299995 42:1.77 43:3.0999999 44:7.52 45:5.3099999 46:6.1900001 47:1.33 48:4.8699999 49:4.4200001 50:5.75 51:1.77 52:3.98 53:7.96 54:4.8699999 55:8.8500004 56:4.4200001 57:5.75 58:6.6399999 59:1.77 60:3.98 #
0.25653700012012825570906215943978 1:0 2:4 3:0 4:0 5:0 6:8 7:0 8:12 9:8 10:12 11:8 12:0 13:12 14:0 15:8 16:16 17:4 18:4 19:0 20:4 21:0 22:0 23:4 24:12 25:4 26:8 27:0 28:12 29:16 30:16 31:0 32:4 33:0 34:8 35:8 36:8 37:0 38:0 39:0 40:0 41:5.5599999 42:2.0599999 43:5.5599999 44:6.5799999 45:5.1399999 46:4.9400001 47:3.29 48:5.9699998 49:9.2600002 50:11.93 51:2.0599999 52:5.1399999 53:4.73 54:2.6700001 55:5.1399999 56:6.79 57:4.73 58:3.5 59:1.03 60:3.9100001 #
1.3245657747036663209883045055903 1:8 2:4 3:4 4:0 5:4 6:0 7:0 8:12 9:12 10:4 11:4 12:8 13:8 14:0 15:8 16:8 17:8 18:4 19:0 20:4 21:8 22:0 23:0 24:4 25:8 26:8 27:4 28:4 29:20 30:12 31:0 32:4 33:0 34:12 35:0 36:8 37:0 38:4 39:0 40:4 41:3.51 42:2.5599999 43:7.9899998 44:4.79 45:5.75 46:3.51 47:0.63999999 48:5.1100001 49:7.6700001 50:12.78 51:2.5599999 52:5.1100001 53:3.51 54:2.24 55:5.1100001 56:9.2700005 57:7.0300002 58:7.6700001 59:1.28 60:1.92 #
1.1594421823645766345123320206767 1:0 2:0 3:0 4:0 5:4 6:4 7:4 8:12 9:16 10:12 11:4 12:0 13:8 14:4 15:4 16:12 17:12 18:4 19:0 20:0 21:0 22:0 23:0 24:16 25:8 26:4 27:0 28:12 29:8 30:8 31:0 32:12 33:4 34:8 35:8 36:0 37:8 38:4 39:0 40:0 41:4.04 42:1.01 43:5.7199998 44:5.3899999 45:6.4000001 46:5.0500002 47:1.01 48:5.0500002 49:11.78 50:8.0799999 51:1.35 52:8.0799999 53:4.3800001 54:1.6799999 55:5.0500002 56:9.0900002 57:6.0599999 58:6.0599999 59:1.35 60:3.3699999 #
-0.52982630988146650619086130973301 1:8 2:0 3:8 4:0 5:0 6:0 7:4 8:12 9:8 10:8 11:4 12:0 13:4 14:4 15:8 16:16 17:0 18:12 19:0 20:4 21:4 22:0 23:4 24:8 25:0 26:4 27:0 28:8 29:12 30:12 31:0 32:12 33:0 34:4 35:0 36:12 37:4 38:8 39:4 40:4 41:2.95 42:1.0700001 43:3.75 44:5.6300001 45:5.0900002 46:4.5599999 47:0.80000001 48:6.6999998 49:9.3800001 50:14.21 51:1.61 52:6.1700001 53:4.8299999 54:3.49 55:4.29 56:6.9699998 57:7.2399998 58:4.5599999 59:2.1400001 60:4.5599999 #
-0.52982630988146650619086130973301 1:12 2:0 3:0 4:0 5:0 6:8 7:0 8:4 9:8 10:12 11:16 12:4 13:8 14:4 15:8 16:4 17:4 18:8 19:0 20:0 21:0 22:0 23:12 24:0 25:4 26:16 27:0 28:8 29:24 30:8 31:4 32:4 33:0 34:4 35:4 36:0 37:0 38:12 39:0 40:0 41:4.8899999 42:1.11 43:4 44:6.6700001 45:7.1100001 46:6.6700001 47:2.6700001 48:4 49:5.3299999 50:9.5600004 51:2 52:5.7800002 53:4.4400001 54:3.3299999 55:5.7800002 56:9.3299999 57:5.5599999 58:7.1100001 59:1.78 60:2.8900001 #
-0.52982630988146650619086130973301 1:8 2:0 3:0 4:0 5:12 6:4 7:4 8:4 9:4 10:4 11:16 12:0 13:4 14:4 15:16 16:4 17:12 18:4 19:0 20:0 21:4 22:0 23:8 24:8 25:0 26:8 27:0 28:4 29:20 30:8 31:0 32:4 33:0 34:4 35:0 36:16 37:0 38:12 39:4 40:0 41:6.8699999 42:1.53 43:3.05 44:5.3400002 45:4.5799999 46:7.6300001 47:1.53 48:3.8199999 49:5.3400002 50:10.69 51:4.5799999 52:3.05 53:7.6300001 54:0.75999999 55:1.53 56:8.3999996 57:7.6300001 58:6.8699999 59:1.53 60:7.6300001 #
0.766969897888581719769263145281 1:4 2:4 3:0 4:4 5:4 6:24 7:0 8:0 9:0 10:16 11:4 12:0 13:4 14:0 15:16 16:8 17:4 18:4 19:4 20:0 21:12 22:0 23:0 24:12 25:0 26:12 27:4 28:0 29:4 30:8 31:0 32:4 33:4 34:4 35:8 36:12 37:12 38:4 39:0 40:0 41:7.1900001 42:2.1900001 43:3.1199999 44:7.1900001 45:3.4400001 46:6.5599999 47:4.0599999 48:4.0599999 49:5.3099999 50:9.3800001 51:1.5599999 52:3.1199999 53:5.3099999 54:4.0599999 55:4.6900001 56:9.0600004 57:5.9400001 58:8.1199999 59:2.1900001 60:3.4400001 #
0.99874190326523759608789987396449 1:8 2:0 3:0 4:0 5:4 6:8 7:0 8:8 9:0 10:8 11:4 12:0 13:16 14:0 15:20 16:4 17:16 18:4 19:0 20:0 21:0 22:0 23:0 24:12 25:8 26:16 27:0 28:0 29:8 30:4 31:4 32:8 33:4 34:4 35:0 36:24 37:4 38:4 39:0 40:0 41:10.89 42:0.70999998 43:6.0700002 44:6.79 45:3.3900001 46:6.79 47:2.6800001 48:3.5699999 49:5.71 50:9.1099997 51:2.3199999 52:2.8599999 53:5.54 54:4.46 55:5.8899999 56:6.4299998 57:5 58:6.6100001 59:1.96 60:3.21 #
1.3245657747036663209883045055903 1:0 2:0 3:0 4:0 5:0 6:16 7:0 8:8 9:8 10:16 11:4 12:4 13:8 14:4 15:12 16:8 17:4 18:0 19:4 20:4 21:8 22:0 23:4 24:8 25:0 26:0 27:8 28:4 29:4 30:4 31:0 32:0 33:8 34:0 35:4 36:24 37:8 38:4 39:4 40:8 41:6.3099999 42:1.83 43:5.48 44:7.6399999 45:4.98 46:5.98 47:3.1600001 48:4.6500001 49:4.98 50:12.79 51:1.99 52:1.83 53:6.1500001 54:4.8200002 55:6.98 56:6.1500001 57:5.3200002 58:5.6500001 59:0.82999998 60:2.49 #
-0.52982630988146650619086130973301 1:0 2:0 3:0 4:0 5:0 6:20 7:4 8:0 9:4 10:8 11:4 12:0 13:20 14:0 15:8 16:20 17:8 18:0 19:4 20:0 21:16 22:0 23:4 24:20 25:0 26:8 27:0 28:4 29:0 30:4 31:4 32:0 33:8 34:4 35:12 36:4 37:12 38:0 39:0 40:0 41:9.3800001 42:0.95999998 43:2.6400001 44:6.25 45:3.6099999 46:8.4099998 47:2.6400001 48:2.4000001 49:3.6099999 50:11.54 51:1.92 52:1.4400001 53:9.1300001 54:3.8499999 55:9.1300001 56:7.21 57:5.29 58:5.29 59:2.1600001 60:3.1199999 #
-0.52982630988146650619086130973301 1:0 2:0 3:0 4:0 5:16 6:20 7:0 8:8 9:12 10:8 11:4 12:4 13:4 14:0 15:8 16:8 17:4 18:4 19:0 20:0 21:4 22:4 23:4 24:8 25:8 26:4 27:0 28:4 29:8 30:0 31:8 32:8 33:4 34:4 35:0 36:20 37:0 38:0 39:0 40:12 41:6.7800002 42:1.36 43:4.0700002 44:5.0799999 45:4.75 46:5.0799999 47:2.71 48:7.46 49:5.0799999 50:9.8299999 51:3.05 52:5.4200001 53:5.0799999 54:3.73 55:6.0999999 56:8.8100004 57:4.4099998 58:5.0799999 59:1.6900001 60:4.4099998 #
-0.52982630988146650619086130973301 1:12 2:0 3:0 4:0 5:8 6:0 7:0 8:4 9:0 10:8 11:4 12:8 13:0 14:12 15:20 16:16 17:4 18:4 19:0 20:0 21:4 22:4 23:0 24:0 25:4 26:12 27:0 28:0 29:0 30:16 31:4 32:4 33:4 34:0 35:4 36:12 37:12 38:8 39:4 40:8 41:0 42:0 43:10.34 44:6.9000001 45:3.45 46:6.9000001 47:0 48:10.34 49:10.34 50:13.79 51:0 52:6.9000001 53:3.45 54:6.9000001 55:6.9000001 56:0 57:0 58:6.9000001 59:0 60:6.9000001 #
0.93330086983251492327440246299375 1:4 2:0 3:4 4:0 5:4 6:0 7:0 8:8 9:12 10:8 11:4 12:0 13:8 14:12 15:12 16:4 17:0 18:20 19:0 20:0 21:4 22:0 23:4 24:12 25:0 26:4 27:0 28:8 29:24 30:12 31:0 32:4 33:4 34:0 35:0 36:8 37:4 38:12 39:0 40:0 41:8.0600004 42:1.42 43:6.6399999 44:8.5299997 45:1.9 46:5.6900001 47:0.47 48:10.43 49:10.43 50:9.4799995 51:2.3699999 52:6.1599998 53:4.7399998 54:2.8399999 55:2.8399999 56:5.21 57:5.21 58:6.6399999 59:0.47 60:0.47 #
1.1624636734724616005109965044539 1:8 2:0 3:4 4:0 5:0 6:0 7:0 8:8 9:12 10:16 11:8 12:0 13:4 14:4 15:8 16:12 17:4 18:12 19:0 20:0 21:12 22:0 23:16 24:8 25:4 26:4 27:0 28:16 29:12 30:12 31:0 32:4 33:0 34:0 35:4 36:0 37:4 38:4 39:0 40:0 41:8.9300003 42:0 43:3.5699999 44:5.3600001 45:3.5699999 46:12.5 47:0 48:1.79 49:8.9300003 50:7.1399999 51:0 52:7.1399999 53:7.1399999 54:8.9300003 55:0 56:3.5699999 57:3.5699999 58:16.07 59:0 60:1.79 #
