SVM-light Version V6.02
0 # kernel type
3 # kernel parameter -d 
1 # kernel parameter -g 
1 # kernel parameter -s 
1 # kernel parameter -r 
empty# kernel parameter -u 
60 # highest feature index 
569 # number of training documents 
414 # number of support vectors plus 1 
-0.10778976 # threshold b, each following line is a SV (starting with alpha*y)
-0.00010000000000000000479217360238593 1:4 2:0 3:0 4:0 5:8 6:4 7:4 8:12 9:16 10:12 11:4 12:4 13:4 14:4 15:4 16:12 17:0 18:4 19:0 20:4 21:4 22:0 23:4 24:20 25:4 26:0 27:4 28:4 29:24 30:12 31:0 32:4 33:0 34:4 35:0 36:12 37:4 38:0 39:0 40:0 41:2.9100001 42:1.46 43:7.2800002 44:12.14 45:2.4300001 46:6.8000002 47:1.9400001 48:9.2200003 49:6.8000002 50:9.71 51:2.9100001 52:3.8800001 53:3.4000001 54:3.8800001 55:2.9100001 56:6.3099999 57:6.8000002 58:5.3400002 59:0.97000003 60:2.9100001 #
-0.00010000000000000000479217360238593 1:20 2:0 3:0 4:0 5:4 6:12 7:0 8:4 9:8 10:12 11:8 12:0 13:4 14:0 15:8 16:8 17:8 18:4 19:0 20:0 21:12 22:0 23:4 24:8 25:4 26:8 27:12 28:8 29:4 30:4 31:0 32:4 33:8 34:4 35:4 36:4 37:0 38:4 39:0 40:8 41:9.21 42:0.99000001 43:4.6100001 44:8.2200003 45:3.95 46:7.2399998 47:3.29 48:5.2600002 49:6.9099998 50:7.2399998 51:3.6199999 52:3.29 53:4.2800002 54:1.3200001 55:5.9200001 56:4.6100001 57:6.9099998 58:6.25 59:3.6199999 60:3.29 #
-0.00010000000000000000479217360238593 1:16 2:0 3:0 4:4 5:8 6:4 7:0 8:16 9:0 10:20 11:4 12:8 13:8 14:0 15:0 16:4 17:4 18:4 19:0 20:0 21:12 22:0 23:4 24:4 25:4 26:0 27:4 28:8 29:0 30:24 31:0 32:4 33:0 34:4 35:0 36:4 37:8 38:12 39:0 40:8 41:6.8200002 42:0 43:0 44:0.56999999 45:3.4100001 46:3.98 47:2.8399999 48:13.07 49:3.4100001 50:18.75 51:6.25 52:4.5500002 53:6.8200002 54:3.4100001 55:2.27 56:6.25 57:13.07 58:2.27 59:1.7 60:0.56999999 #
-0.00010000000000000000479217360238593 1:12 2:0 3:4 4:24 5:0 6:0 7:4 8:0 9:4 10:4 11:4 12:0 13:12 14:4 15:8 16:8 17:4 18:8 19:0 20:0 21:0 22:0 23:8 24:8 25:4 26:4 27:8 28:8 29:4 30:16 31:4 32:4 33:0 34:4 35:4 36:8 37:16 38:0 39:0 40:0 41:4.0500002 42:2.53 43:3.54 44:3.29 45:10.38 46:6.3299999 47:2.28 48:8.8599997 49:3.54 50:9.3699999 51:3.29 52:3.54 53:4.5599999 54:2.78 55:4.3000002 56:6.8400002 57:5.5700002 58:7.5900002 59:2.28 60:5.0599999 #
-0.00010000000000000000479217360238593 1:16 2:4 3:0 4:0 5:0 6:12 7:0 8:0 9:0 10:24 11:4 12:0 13:4 14:0 15:12 16:4 17:4 18:12 19:4 20:0 21:12 22:8 23:4 24:0 25:8 26:8 27:4 28:4 29:8 30:12 31:4 32:4 33:0 34:0 35:0 36:0 37:4 38:8 39:4 40:8 41:14.68 42:1.83 43:3.6700001 44:1.83 45:0.92000002 46:7.3400002 47:8.2600002 48:2.75 49:2.75 50:16.51 51:0.92000002 52:0.92000002 53:5.5 54:3.6700001 55:2.75 56:10.09 57:2.75 58:7.3400002 59:2.75 60:2.75 #
0.00069999999999999999288763374849509 1:12 2:0 3:0 4:0 5:12 6:8 7:0 8:4 9:0 10:24 11:8 12:0 13:8 14:4 15:4 16:4 17:0 18:0 19:12 20:0 21:4 22:0 23:4 24:8 25:0 26:4 27:0 28:4 29:0 30:16 31:0 32:4 33:0 34:4 35:8 36:12 37:4 38:16 39:4 40:8 41:7.9699998 42:1.99 43:5.6300001 44:8.9099998 45:1.76 46:6.8000002 47:2.1099999 48:3.52 49:5.1599998 50:9.5 51:1.17 52:2.3399999 53:8.3199997 54:4.3400002 55:3.99 56:10.55 57:5.6300001 58:7.9699998 59:0.69999999 60:1.64 #
-0.00010000000000000000479217360238593 1:16 2:4 3:0 4:0 5:4 6:12 7:0 8:0 9:0 10:16 11:4 12:0 13:0 14:0 15:16 16:12 17:4 18:8 19:4 20:0 21:4 22:0 23:4 24:4 25:4 26:4 27:4 28:4 29:4 30:12 31:0 32:0 33:8 34:4 35:16 36:8 37:12 38:0 39:0 40:8 41:7.1599998 42:1.6799999 43:5.2600002 44:7.3699999 45:3.5799999 46:7.5799999 47:2.95 48:4 49:4.21 50:10.95 51:3.79 52:3.3699999 53:5.2600002 54:2.3199999 55:6.1100001 56:6.5300002 57:6.3200002 58:8 59:0.41999999 60:3.1600001 #
9.2104390296116360123401811677013e-05 1:4 2:0 3:0 4:4 5:0 6:16 7:4 8:4 9:0 10:4 11:4 12:0 13:20 14:12 15:8 16:4 17:4 18:0 19:12 20:0 21:8 22:0 23:0 24:8 25:0 26:8 27:4 28:0 29:0 30:8 31:0 32:0 33:4 34:8 35:8 36:12 37:4 38:4 39:24 40:0 41:26.09 42:0 43:0 44:0 45:0 46:13.04 47:0 48:0 49:0 50:13.04 51:0 52:0 53:4.3499999 54:0 55:0 56:8.6999998 57:0 58:0 59:34.779999 60:0 #
0.00069999999999999999288763374849509 1:16 2:0 3:0 4:0 5:0 6:16 7:0 8:0 9:0 10:48 11:4 12:0 13:4 14:0 15:8 16:4 17:0 18:0 19:0 20:0 21:0 22:0 23:8 24:8 25:0 26:0 27:0 28:4 29:12 30:24 31:0 32:8 33:0 34:4 35:16 36:8 37:0 38:8 39:0 40:0 41:6.4699998 42:1 43:1.99 44:5.4699998 45:7.96 46:7.96 47:1.49 48:1 49:2.49 50:12.94 51:1.99 52:3.48 53:4.98 54:1.99 55:5.4699998 56:10.95 57:3.98 58:12.44 59:2.49 60:3.48 #
0.00069999999999999999288763374849509 1:24 2:0 3:0 4:4 5:0 6:4 7:0 8:8 9:0 10:4 11:4 12:0 13:0 14:0 15:4 16:20 17:12 18:12 19:4 20:0 21:4 22:0 23:8 24:12 25:0 26:12 27:8 28:8 29:16 30:4 31:0 32:8 33:4 34:0 35:0 36:0 37:12 38:4 39:0 40:0 41:6.9000001 42:5.1700001 43:8.6199999 44:1.72 45:6.9000001 46:3.45 47:5.1700001 48:6.9000001 49:13.79 50:5.1700001 51:3.45 52:5.1700001 53:3.45 54:1.72 55:6.9000001 56:1.72 57:0 58:5.1700001 59:1.72 60:6.9000001 #
-0.00010000000000000000479217360238593 1:4 2:0 3:0 4:0 5:8 6:20 7:0 8:4 9:8 10:8 11:4 12:0 13:0 14:0 15:8 16:24 17:0 18:8 19:0 20:4 21:0 22:0 23:8 24:12 25:0 26:4 27:0 28:4 29:8 30:4 31:0 32:0 33:24 34:8 35:0 36:4 37:4 38:20 39:0 40:0 41:9.04 42:0.51999998 43:4.46 44:8.3900003 45:5.2399998 46:9.4399996 47:1.5700001 48:5.2399998 49:7.21 50:8.5200005 51:1.7 52:4.3299999 53:3.9300001 54:4.5900002 55:6.0300002 56:5.9000001 57:4.46 58:6.1599998 59:0.38999999 60:2.8800001 #
-0.00010000000000000000479217360238593 1:0 2:4 3:4 4:0 5:4 6:8 7:8 8:8 9:0 10:12 11:8 12:4 13:4 14:4 15:4 16:0 17:0 18:24 19:4 20:0 21:4 22:0 23:0 24:12 25:8 26:0 27:0 28:0 29:12 30:12 31:4 32:4 33:4 34:4 35:12 36:8 37:8 38:4 39:4 40:0 41:0 42:0 43:25 44:12.5 45:0 46:0 47:0 48:0 49:12.5 50:12.5 51:0 52:0 53:0 54:0 55:12.5 56:12.5 57:0 58:0 59:0 60:12.5 #
-0.00010000000000000000479217360238593 1:4 2:4 3:0 4:0 5:0 6:20 7:0 8:4 9:0 10:32 11:4 12:4 13:0 14:0 15:4 16:8 17:8 18:4 19:0 20:4 21:8 22:0 23:8 24:0 25:4 26:0 27:0 28:4 29:20 30:8 31:0 32:8 33:12 34:4 35:8 36:8 37:0 38:8 39:0 40:0 41:6.8099999 42:1.79 43:5.3800001 44:6.8099999 45:6.4499998 46:4.3000002 47:2.51 48:5.73 49:7.5300002 50:6.0900002 51:0.72000003 52:6.0900002 53:9.3199997 54:4.3000002 55:5.02 56:5.73 57:4.6599998 58:5.73 59:0.72000003 60:4.3000002 #
-0.00010000000000000000479217360238593 1:4 2:0 3:0 4:0 5:4 6:12 7:0 8:4 9:8 10:12 11:4 12:0 13:4 14:0 15:4 16:16 17:4 18:16 19:4 20:4 21:0 22:0 23:8 24:8 25:0 26:8 27:0 28:16 29:8 30:0 31:0 32:12 33:0 34:4 35:4 36:12 37:0 38:4 39:12 40:4 41:3.5699999 42:0 43:12.5 44:3.5699999 45:1.79 46:5.3600001 47:3.5699999 48:0 49:5.3600001 50:7.1399999 51:1.79 52:5.3600001 53:1.79 54:5.3600001 55:8.9300003 56:3.5699999 57:8.9300003 58:10.71 59:3.5699999 60:7.1399999 #
-0.00010000000000000000479217360238593 1:0 2:0 3:0 4:0 5:4 6:8 7:4 8:16 9:4 10:0 11:4 12:4 13:4 14:8 15:8 16:20 17:4 18:12 19:0 20:0 21:0 22:0 23:0 24:16 25:8 26:12 27:4 28:4 29:16 30:8 31:0 32:4 33:0 34:0 35:8 36:4 37:8 38:4 39:4 40:0 41:4.0599999 42:1.13 43:6.77 44:6.3200002 45:5.4200001 46:6.5500002 47:1.8099999 48:6.77 49:9.0299997 50:9.71 51:1.13 52:6.3200002 53:4.7399998 54:2.03 55:4.9699998 56:7.9000001 57:4.5100002 58:5.6399999 59:2.03 60:3.1600001 #
0.00069999999999999999288763374849509 1:28 2:0 3:4 4:4 5:4 6:4 7:0 8:4 9:0 10:8 11:8 12:0 13:0 14:4 15:16 16:8 17:8 18:0 19:0 20:0 21:4 22:4 23:0 24:16 25:4 26:0 27:4 28:0 29:4 30:12 31:4 32:0 33:0 34:12 35:8 36:16 37:0 38:4 39:0 40:8 41:4.5 42:2.78 43:4.2800002 44:4.71 45:3.6400001 46:5.1399999 47:6 48:3.4300001 49:4.9299998 50:11.56 51:2.1400001 52:3.4300001 53:7.2800002 54:5.1399999 55:5.1399999 56:9.4200001 57:6 58:6.4200001 59:1.9299999 60:2.1400001 #
3.1554405350248446561825521605726e-05 1:4 2:4 3:0 4:0 5:16 6:8 7:4 8:0 9:4 10:12 11:4 12:0 13:0 14:0 15:0 16:8 17:16 18:8 19:0 20:12 21:4 22:8 23:0 24:0 25:0 26:16 27:0 28:4 29:8 30:20 31:4 32:8 33:4 34:0 35:4 36:8 37:0 38:8 39:0 40:4 41:10.81 42:0 43:1.8 44:4.5 45:7.21 46:4.5 47:1.8 48:5.4099998 49:9.9099998 50:14.41 51:0.89999998 52:2.7 53:5.4099998 54:4.5 55:1.8 56:9.0100002 57:5.4099998 58:6.3099999 59:1.8 60:1.8 #
0.00069999999999999999288763374849509 1:12 2:16 3:4 4:4 5:0 6:4 7:0 8:4 9:4 10:4 11:8 12:0 13:24 14:0 15:4 16:0 17:0 18:8 19:0 20:4 21:16 22:0 23:4 24:8 25:4 26:16 27:4 28:0 29:8 30:24 31:0 32:4 33:0 34:0 35:0 36:8 37:0 38:4 39:0 40:0 41:5.71 42:2.8599999 43:5.71 44:4.0799999 45:6.5300002 46:11.43 47:0.81999999 48:4.4899998 49:8.1599998 50:6.5300002 51:0.41 52:5.71 53:1.63 54:2.8599999 55:2.45 56:8.5699997 57:11.43 58:5.3099999 59:1.63 60:3.6700001 #
-0.00010000000000000000479217360238593 1:8 2:8 3:0 4:0 5:0 6:0 7:4 8:4 9:12 10:12 11:4 12:4 13:0 14:0 15:4 16:16 17:12 18:4 19:0 20:8 21:12 22:0 23:8 24:12 25:12 26:0 27:0 28:0 29:16 30:8 31:0 32:12 33:0 34:0 35:8 36:4 37:0 38:4 39:0 40:4 41:8.6099997 42:0 43:7.5 44:7.5 45:3.6099999 46:4.1700001 47:0.82999998 48:6.3899999 49:10.56 50:9.7200003 51:1.9400001 52:4.4400001 53:6.3899999 54:4.4400001 55:1.39 56:8.3299999 57:5.5599999 58:6.1100001 59:0.28 60:2.22 #
0.00069999999999999999288763374849509 1:16 2:0 3:8 4:4 5:8 6:4 7:8 8:4 9:0 10:8 11:4 12:0 13:4 14:8 15:4 16:4 17:8 18:8 19:0 20:0 21:4 22:0 23:4 24:4 25:8 26:8 27:4 28:8 29:12 30:12 31:4 32:4 33:0 34:0 35:8 36:12 37:8 38:0 39:0 40:0 41:6.5 42:1.66 43:4.8400002 44:5.6700001 45:4.4299998 46:6.3600001 47:2.77 48:4.98 49:5.6700001 50:9.6800003 51:3.46 52:3.1800001 53:4.5599999 54:3.73 55:6.2199998 56:7.3299999 57:5.5300002 58:6.3600001 59:2.49 60:4.5599999 #
-0.00010000000000000000479217360238593 1:56 2:0 3:4 4:0 5:0 6:4 7:0 8:0 9:0 10:4 11:8 12:0 13:16 14:4 15:0 16:0 17:4 18:0 19:0 20:0 21:8 22:4 23:0 24:4 25:12 26:0 27:4 28:8 29:4 30:8 31:4 32:4 33:4 34:8 35:4 36:4 37:8 38:4 39:0 40:8 41:7.8000002 42:1.77 43:2.1300001 44:2.1300001 45:6.0300002 46:12.06 47:4.6100001 48:4.96 49:5.3200002 50:10.64 51:4.2600002 52:2.1300001 53:4.2600002 54:2.1300001 55:6.0300002 56:4.2600002 57:7.4499998 58:6.7399998 59:0.34999999 60:4.96 #
-0.00010000000000000000479217360238593 1:28 2:0 3:0 4:0 5:0 6:4 7:4 8:0 9:0 10:0 11:4 12:0 13:24 14:0 15:16 16:20 17:0 18:0 19:0 20:0 21:4 22:8 23:4 24:8 25:4 26:8 27:4 28:0 29:8 30:20 31:0 32:0 33:4 34:4 35:0 36:16 37:0 38:0 39:0 40:8 41:19.57 42:2.1700001 43:1.09 44:2.1700001 45:2.1700001 46:10.87 47:2.1700001 48:1.09 49:0 50:4.3499999 51:4.3499999 52:0 53:15.22 54:9.7799997 55:1.09 56:10.87 57:6.52 58:5.4299998 59:0 60:1.09 #
-0.00010000000000000000479217360238593 1:36 2:0 3:0 4:8 5:0 6:12 7:0 8:0 9:0 10:4 11:4 12:4 13:12 14:4 15:0 16:8 17:4 18:0 19:0 20:4 21:28 22:4 23:4 24:0 25:8 26:20 27:0 28:8 29:4 30:8 31:0 32:0 33:0 34:0 35:4 36:4 37:0 38:0 39:0 40:8 41:9.0299997 42:3.47 43:4.1700001 44:5.5599999 45:5.5599999 46:13.19 47:0 48:5.5599999 49:6.9400001 50:7.6399999 51:3.47 52:2.0799999 53:4.8600001 54:2.78 55:4.1700001 56:7.6399999 57:4.8600001 58:5.5599999 59:0.69 60:2.78 #
-0.00010000000000000000479217360238593 1:32 2:0 3:4 4:4 5:0 6:28 7:0 8:0 9:0 10:0 11:8 12:0 13:8 14:0 15:4 16:4 17:0 18:4 19:4 20:0 21:4 22:4 23:0 24:4 25:12 26:12 27:0 28:0 29:0 30:16 31:0 32:0 33:0 34:8 35:12 36:20 37:0 38:8 39:0 40:0 41:8.2600002 42:1.47 43:3.8299999 44:2.95 45:4.4200001 46:10.32 47:2.95 48:3.54 49:5.0100002 50:11.21 51:4.1300001 52:2.95 53:7.0799999 54:2.95 55:4.7199998 56:7.6700001 57:3.8299999 58:8.5500002 59:0.88 60:3.24 #
-0.00010000000000000000479217360238593 1:8 2:0 3:4 4:4 5:0 6:8 7:0 8:0 9:4 10:16 11:8 12:8 13:0 14:0 15:8 16:20 17:8 18:4 19:0 20:0 21:4 22:4 23:0 24:4 25:4 26:4 27:4 28:16 29:12 30:4 31:4 32:4 33:4 34:4 35:4 36:16 37:0 38:4 39:0 40:4 41:8.2299995 42:2.53 43:3.1600001 44:4.4299998 45:5.0599999 46:5.6999998 47:0.94999999 48:6.96 49:6.0100002 50:8.8599997 51:4.1100001 52:5.0599999 53:4.1100001 54:2.8499999 55:5.0599999 56:9.8100004 57:6.96 58:5.0599999 59:2.8499999 60:2.22 #
0.00069999999999999999288763374849509 1:4 2:0 3:0 4:0 5:0 6:4 7:0 8:8 9:4 10:8 11:4 12:12 13:4 14:4 15:0 16:16 17:8 18:20 19:4 20:0 21:12 22:0 23:0 24:8 25:4 26:0 27:8 28:4 29:16 30:12 31:0 32:4 33:4 34:4 35:12 36:0 37:4 38:8 39:0 40:0 41:9.2200003 42:2.53 43:4.6999998 44:5.4200001 45:4.1599998 46:7.0500002 47:1.45 48:4.3400002 49:6.6900001 50:9.5799999 51:1.45 52:4.8800001 53:4.8800001 54:3.8 55:4.6999998 56:8.3199997 57:5.9699998 58:7.23 59:0.89999998 60:2.71 #
0.00069999999999999999288763374849509 1:4 2:0 3:8 4:12 5:8 6:4 7:0 8:0 9:0 10:12 11:4 12:0 13:8 14:0 15:20 16:8 17:0 18:4 19:4 20:4 21:4 22:0 23:8 24:8 25:4 26:12 27:0 28:8 29:16 30:4 31:4 32:4 33:12 34:4 35:8 36:0 37:0 38:0 39:4 40:0 41:4.5300002 42:0.60000002 43:5.7399998 44:6.6500001 45:6.04 46:4.5300002 47:1.8099999 48:4.8299999 49:6.6500001 50:10.88 51:2.1099999 52:4.8299999 53:6.6500001 54:1.8099999 55:6.3400002 56:8.7600002 57:5.4400001 58:6.04 59:2.4200001 60:3.3199999 #
0.00061469945447293456407267253638338 1:8 2:0 3:8 4:0 5:0 6:12 7:4 8:8 9:12 10:12 11:4 12:0 13:0 14:0 15:0 16:16 17:0 18:12 19:4 20:0 21:4 22:4 23:4 24:8 25:4 26:4 27:0 28:4 29:4 30:8 31:4 32:8 33:4 34:12 35:8 36:4 37:0 38:8 39:0 40:8 41:3.97 42:1.4400001 43:6.1399999 44:6.8600001 45:4.3299999 46:3.6099999 47:1.08 48:5.0500002 49:9.0299997 50:14.08 51:1.4400001 52:7.5799999 53:1.8099999 54:5.0500002 55:3.6099999 56:9.3900003 57:4.3299999 58:5.7800002 59:1.08 60:4.3299999 #
0.00013554849234067960217497983421708 1:16 2:0 3:4 4:0 5:0 6:20 7:0 8:12 9:8 10:4 11:4 12:8 13:4 14:0 15:8 16:12 17:0 18:0 19:0 20:0 21:12 22:0 23:0 24:8 25:0 26:8 27:0 28:8 29:0 30:16 31:4 32:4 33:12 34:16 35:4 36:8 37:0 38:0 39:0 40:0 41:12.24 42:0 43:4.0799999 44:8.1599998 45:2.04 46:8.1599998 47:0 48:10.2 49:6.1199999 50:10.2 51:2.04 52:0 53:2.04 54:2.04 55:8.1599998 56:6.1199999 57:6.1199999 58:10.2 59:2.04 60:0 #
-0.00010000000000000000479217360238593 1:0 2:0 3:12 4:8 5:8 6:4 7:4 8:4 9:4 10:8 11:4 12:4 13:8 14:4 15:0 16:8 17:0 18:16 19:0 20:4 21:8 22:0 23:4 24:12 25:0 26:0 27:0 28:8 29:8 30:12 31:0 32:4 33:0 34:20 35:12 36:0 37:4 38:0 39:0 40:8 41:8.1499996 42:1.09 43:2.72 44:4.8899999 45:3.8 46:4.3499999 47:2.72 48:6.52 49:8.1499996 50:10.33 51:0 52:7.6100001 53:3.26 54:3.26 55:5.4299998 56:9.2399998 57:4.8899999 58:6.52 59:3.26 60:3.8 #
-0.00010000000000000000479217360238593 1:4 2:0 3:0 4:0 5:4 6:8 7:0 8:4 9:12 10:12 11:4 12:4 13:0 14:16 15:8 16:4 17:8 18:12 19:0 20:0 21:4 22:4 23:0 24:8 25:0 26:8 27:0 28:8 29:12 30:4 31:0 32:0 33:8 34:4 35:8 36:8 37:4 38:16 39:0 40:4 41:8.5600004 42:0.52999997 43:9.0900002 44:8.5600004 45:4.8099999 46:5.3499999 47:1.6 48:5.3499999 49:9.6300001 50:8.0200005 51:1.0700001 52:2.6700001 53:3.21 54:4.8099999 55:4.8099999 56:6.9499998 57:5.3499999 58:7.4899998 59:0 60:2.1400001 #
-0.00010000000000000000479217360238593 1:0 2:4 3:4 4:0 5:8 6:0 7:4 8:8 9:20 10:12 11:8 12:0 13:8 14:4 15:4 16:8 17:0 18:4 19:0 20:4 21:4 22:0 23:0 24:8 25:0 26:8 27:8 28:4 29:12 30:16 31:0 32:8 33:0 34:4 35:8 36:8 37:0 38:0 39:0 40:12 41:3.0799999 42:2.1199999 43:6.3600001 44:5.3899999 45:5.7800002 46:5.7800002 47:0.95999998 48:10.4 49:11.37 50:8.4799995 51:1.54 52:11.18 53:2.3099999 54:2.1199999 55:2.7 56:6.9400001 57:3.6600001 58:4.4299998 59:0.19 60:5.1999998 #
-0.00010000000000000000479217360238593 1:0 2:4 3:4 4:0 5:4 6:0 7:4 8:16 9:4 10:4 11:4 12:8 13:4 14:8 15:12 16:12 17:4 18:0 19:0 20:8 21:0 22:0 23:8 24:0 25:0 26:12 27:4 28:0 29:20 30:20 31:4 32:4 33:0 34:4 35:0 36:0 37:8 38:12 39:0 40:4 41:3.6300001 42:0.91000003 43:3.8499999 44:8.1599998 45:4.54 46:3.8499999 47:3.4000001 48:7.2600002 49:7.2600002 50:11.56 51:2.72 52:5.6700001 53:4.7600002 54:3.6300001 55:3.8499999 56:7.71 57:5.4400001 58:4.54 59:0.44999999 60:6.8000002 #
-0.00010000000000000000479217360238593 1:0 2:0 3:0 4:4 5:16 6:0 7:0 8:4 9:20 10:0 11:4 12:0 13:16 14:8 15:4 16:8 17:4 18:12 19:0 20:0 21:4 22:0 23:12 24:4 25:4 26:0 27:0 28:8 29:20 30:16 31:4 32:4 33:0 34:0 35:8 36:8 37:4 38:4 39:0 40:0 41:4.98 42:2.3299999 43:3.99 44:10.3 45:6.6399999 46:3.99 47:1.99 48:6.3099999 49:10.96 50:11.63 51:2.6600001 52:7.3099999 53:1.33 54:2.6600001 55:3.99 56:5.3200002 57:3.99 58:3.6500001 59:1.33 60:4.6500001 #
0.00069999999999999999288763374849509 1:36 2:0 3:0 4:4 5:0 6:20 7:0 8:4 9:4 10:0 11:8 12:4 13:8 14:0 15:0 16:8 17:0 18:4 19:0 20:0 21:16 22:4 23:4 24:4 25:0 26:4 27:4 28:0 29:12 30:16 31:0 32:0 33:8 34:4 35:0 36:4 37:8 38:4 39:0 40:8 41:11.59 42:2.1400001 43:6.0599999 44:8.1999998 45:3.21 46:6.5999999 47:1.4299999 48:4.46 49:9.8000002 50:9.6300001 51:3.3900001 52:4.2800002 53:3.03 54:5.6999998 55:4.46 56:5.3499999 57:3.21 58:3.03 59:0.70999998 60:3.74 #
0.00050880767468147996418492695624991 1:20 2:0 3:0 4:0 5:0 6:12 7:0 8:0 9:0 10:12 11:4 12:4 13:32 14:0 15:0 16:8 17:0 18:8 19:0 20:0 21:8 22:4 23:0 24:0 25:12 26:16 27:4 28:4 29:8 30:20 31:0 32:8 33:0 34:4 35:4 36:0 37:8 38:0 39:0 40:0 41:7.7199998 42:1.61 43:3.22 44:4.8200002 45:3.54 46:11.25 47:2.8900001 48:2.25 49:4.1799998 50:10.29 51:1.9299999 52:4.1799998 53:7.4000001 54:4.8200002 55:2.5699999 56:8.3599997 57:7.7199998 58:7.4000001 59:0.95999998 60:2.8900001 #
0.00069999999999999999288763374849509 1:28 2:0 3:0 4:4 5:0 6:8 7:0 8:0 9:0 10:20 11:4 12:0 13:4 14:4 15:4 16:4 17:4 18:8 19:8 20:0 21:4 22:4 23:0 24:4 25:0 26:12 27:4 28:0 29:0 30:8 31:0 32:0 33:8 34:4 35:12 36:20 37:12 38:4 39:4 40:0 41:8.4200001 42:2.97 43:3.96 44:6.4400001 45:4.9499998 46:5.9400001 47:2.97 48:3.47 49:2.97 50:13.37 51:0.99000001 52:2.97 53:5.4499998 54:4.9499998 55:10.89 56:5.4499998 57:4.46 58:5.9400001 59:1.49 60:1.98 #
-0.00010000000000000000479217360238593 1:40 2:0 3:0 4:0 5:0 6:12 7:0 8:0 9:0 10:16 11:4 12:0 13:4 14:4 15:8 16:4 17:0 18:4 19:4 20:0 21:8 22:0 23:0 24:0 25:8 26:12 27:0 28:0 29:8 30:12 31:0 32:0 33:4 34:0 35:4 36:8 37:12 38:8 39:8 40:8 41:6.4000001 42:1.2 43:3.5999999 44:7.5999999 45:3.2 46:7.1999998 47:2 48:4.4000001 49:3.5999999 50:8.8000002 51:2.4000001 52:3.5999999 53:8 54:4 55:9.1999998 56:5.5999999 57:6 58:9.1999998 59:2 60:2 #
-0.00010000000000000000479217360238593 1:40 2:4 3:0 4:0 5:0 6:8 7:0 8:0 9:0 10:4 11:4 12:0 13:4 14:4 15:12 16:4 17:0 18:12 19:4 20:0 21:16 22:0 23:4 24:16 25:4 26:4 27:0 28:0 29:12 30:8 31:0 32:0 33:16 34:4 35:4 36:4 37:4 38:0 39:0 40:4 41:6.48 42:0.93000001 43:6.48 44:7.4099998 45:6.48 46:3.24 47:2.3099999 48:4.6300001 49:3.7 50:9.2600002 51:0.46000001 52:4.1700001 53:6.9400001 54:3.24 55:8.8000002 56:6.02 57:4.1700001 58:9.7200003 59:1.39 60:4.1700001 #
-0.00010000000000000000479217360238593 1:36 2:0 3:0 4:0 5:0 6:20 7:0 8:0 9:0 10:8 11:8 12:0 13:8 14:0 15:12 16:0 17:4 18:4 19:0 20:0 21:8 22:0 23:0 24:0 25:0 26:0 27:4 28:0 29:20 30:12 31:4 32:0 33:12 34:0 35:12 36:8 37:0 38:8 39:4 40:8 41:9.4499998 42:2.1800001 43:4.73 44:5.8200002 45:2.9100001 46:9.4499998 47:3.27 48:1.8200001 49:3.27 50:12 51:3.6400001 52:2.1800001 53:8 54:2.55 55:6.1799998 56:8 57:2.9100001 58:6.1799998 59:0.73000002 60:4.73 #
-0.00010000000000000000479217360238593 1:28 2:0 3:0 4:0 5:0 6:12 7:0 8:0 9:0 10:12 11:8 12:0 13:4 14:0 15:16 16:0 17:8 18:12 19:0 20:0 21:8 22:0 23:12 24:4 25:4 26:8 27:8 28:0 29:8 30:8 31:0 32:4 33:12 34:0 35:0 36:16 37:0 38:4 39:0 40:4 41:9.71 42:2.0699999 43:4.5500002 44:4.75 45:3.9300001 46:6.8200002 47:2.27 48:3.0999999 49:3.72 50:11.57 51:1.24 52:2.8900001 53:7.02 54:4.3400002 55:7.23 56:10.12 57:3.9300001 58:7.02 59:2.27 60:1.45 #
-0.00010000000000000000479217360238593 1:28 2:4 3:4 4:0 5:0 6:12 7:0 8:8 9:4 10:8 11:4 12:4 13:4 14:4 15:0 16:4 17:8 18:4 19:0 20:0 21:16 22:0 23:0 24:8 25:8 26:4 27:0 28:0 29:4 30:16 31:8 32:8 33:4 34:4 35:4 36:4 37:0 38:0 39:0 40:12 41:7.1700001 42:3.1900001 43:3.1900001 44:3.1900001 45:6.77 46:9.96 47:0.40000001 48:4.7800002 49:6.77 50:10.36 51:3.1900001 52:2.3900001 53:3.98 54:4.3800001 55:4.3800001 56:8.3699999 57:5.5799999 58:7.1700001 59:0.80000001 60:3.98 #
0.00069999999999999999288763374849509 1:8 2:0 3:8 4:4 5:4 6:0 7:0 8:4 9:0 10:0 11:4 12:20 13:8 14:4 15:8 16:8 17:8 18:4 19:0 20:8 21:0 22:4 23:4 24:8 25:4 26:8 27:0 28:12 29:8 30:8 31:12 32:8 33:0 34:8 35:0 36:4 37:0 38:8 39:0 40:4 41:4.4200001 42:0.44 43:5.5300002 44:5.75 45:6.4200001 46:5.0900002 47:1.33 48:8.4099998 49:7.0799999 50:10.62 51:1.99 52:7.52 53:3.98 54:3.54 55:4.1999998 56:7.7399998 57:5.9699998 58:5.3099999 59:2.21 60:2.4300001 #
0.00069999999999999999288763374849509 1:0 2:0 3:0 4:8 5:12 6:16 7:0 8:0 9:12 10:0 11:4 12:4 13:0 14:8 15:4 16:20 17:8 18:4 19:0 20:0 21:20 22:0 23:8 24:8 25:0 26:4 27:0 28:8 29:8 30:12 31:4 32:4 33:0 34:0 35:8 36:4 37:4 38:4 39:0 40:4 41:7.9299998 42:1.17 43:6.3099999 44:6.6100001 45:4.2600002 46:5.1399999 47:1.62 48:4.5500002 49:6.46 50:14.39 51:3.3800001 52:4.6999998 53:3.6700001 54:3.3800001 55:5.4299998 56:7.9299998 57:4.8499999 58:3.52 59:1.17 60:3.52 #
0.00069999999999999999288763374849509 1:0 2:0 3:4 4:4 5:0 6:4 7:4 8:0 9:4 10:8 11:8 12:12 13:4 14:16 15:4 16:12 17:12 18:0 19:4 20:0 21:4 22:4 23:8 24:4 25:12 26:0 27:4 28:8 29:4 30:8 31:0 32:4 33:4 34:12 35:8 36:8 37:8 38:0 39:0 40:0 41:6.9200001 42:3.3299999 43:3.3299999 44:5.9899998 45:4.79 46:7.0599999 47:2.26 48:2.9300001 49:2.8 50:17.18 51:1.6 52:2 53:6.3899999 54:5.9899998 55:5.9899998 56:7.1900001 57:4.2600002 58:7.0599999 59:1.86 60:1.0700001 #
-0.00010000000000000000479217360238593 1:0 2:0 3:8 4:20 5:4 6:0 7:0 8:0 9:4 10:12 11:4 12:4 13:12 14:12 15:0 16:4 17:12 18:4 19:0 20:0 21:8 22:0 23:0 24:12 25:12 26:8 27:0 28:0 29:0 30:12 31:8 32:4 33:4 34:0 35:8 36:4 37:8 38:12 39:0 40:0 41:5.73 42:1.4299999 43:3.23 44:3.5799999 45:5.73 46:10.04 47:0.36000001 48:5.73 49:6.8099999 50:10.39 51:1.79 52:5.02 53:4.3000002 54:4.3000002 55:5.73 56:5.73 57:7.8899999 58:7.5300002 59:1.08 60:3.5799999 #
-0.00010000000000000000479217360238593 1:0 2:0 3:4 4:4 5:0 6:4 7:12 8:12 9:0 10:4 11:4 12:8 13:16 14:0 15:0 16:20 17:8 18:0 19:4 20:0 21:4 22:0 23:4 24:0 25:4 26:4 27:0 28:4 29:0 30:20 31:8 32:4 33:4 34:8 35:4 36:16 37:8 38:4 39:0 40:4 41:5.9699998 42:0.63 43:4.7199998 44:4.0900002 45:6.29 46:9.4300003 47:1.89 48:5.6599998 49:5.6599998 50:7.5500002 51:1.89 52:4.7199998 53:4.7199998 54:4.7199998 55:5.9699998 56:8.4899998 57:6.5999999 58:5.6599998 59:1.26 60:4.0900002 #
-0.00010000000000000000479217360238593 1:0 2:0 3:8 4:40 5:0 6:12 7:0 8:0 9:4 10:8 11:8 12:0 13:4 14:4 15:4 16:4 17:4 18:0 19:0 20:0 21:8 22:8 23:8 24:8 25:8 26:0 27:12 28:0 29:8 30:20 31:0 32:4 33:0 34:0 35:4 36:4 37:4 38:4 39:0 40:0 41:2.4400001 42:7.3200002 43:7.3200002 44:19.51 45:0 46:0 47:0 48:0 49:4.8800001 50:12.2 51:0 52:0 53:2.4400001 54:7.3200002 55:12.2 56:7.3200002 57:7.3200002 58:9.7600002 59:0 60:0 #
-0.00010000000000000000479217360238593 1:4 2:0 3:8 4:8 5:0 6:0 7:0 8:8 9:0 10:4 11:8 12:12 13:16 14:0 15:4 16:16 17:4 18:4 19:0 20:4 21:20 22:4 23:0 24:4 25:4 26:0 27:4 28:8 29:4 30:4 31:8 32:4 33:4 34:0 35:0 36:4 37:12 38:4 39:4 40:8 41:10.98 42:2.27 43:2.6500001 44:2.6500001 45:4.9200001 46:5.6799998 47:3.03 48:7.9499998 49:5.6799998 50:7.5799999 51:2.27 52:3.79 53:4.5500002 54:4.9200001 55:2.27 56:10.23 57:8.71 58:3.79 59:1.89 60:4.1700001 #
-0.00010000000000000000479217360238593 1:0 2:0 3:0 4:4 5:8 6:0 7:0 8:4 9:4 10:16 11:4 12:4 13:12 14:0 15:4 16:36 17:0 18:0 19:0 20:4 21:28 22:0 23:0 24:4 25:4 26:12 27:0 28:4 29:8 30:4 31:0 32:0 33:12 34:0 35:0 36:0 37:12 38:12 39:0 40:0 41:9.54 42:2.1500001 43:2.77 44:3.6900001 45:6.46 46:11.08 47:0.62 48:6.1500001 49:7.3800001 50:8 51:3.0799999 52:2.77 53:6.1500001 54:2.77 55:2.46 56:8 57:5.23 58:5.54 59:0.92000002 60:5.23 #
0.00069999999999999999288763374849509 1:24 2:0 3:0 4:4 5:0 6:4 7:0 8:16 9:0 10:4 11:8 12:0 13:0 14:4 15:8 16:16 17:4 18:8 19:0 20:0 21:4 22:0 23:16 24:8 25:8 26:8 27:0 28:0 29:28 30:0 31:0 32:8 33:0 34:0 35:0 36:8 37:0 38:0 39:8 40:4 41:10.2 42:0 43:7 44:11.66 45:2.04 46:6.71 47:0.57999998 48:2.6199999 49:12.24 50:7.5799999 51:0.87 52:4.96 53:1.75 54:6.4099998 55:6.71 56:8.1599998 57:2.6199999 58:2.9200001 59:2.3299999 60:2.6199999 #
-0.00010000000000000000479217360238593 1:12 2:0 3:0 4:4 5:8 6:48 7:0 8:0 9:4 10:4 11:4 12:4 13:0 14:0 15:0 16:4 17:8 18:0 19:0 20:0 21:4 22:0 23:0 24:4 25:0 26:4 27:4 28:0 29:4 30:28 31:4 32:8 33:0 34:8 35:0 36:12 37:8 38:0 39:4 40:8 41:10.06 42:1.89 43:3.77 44:3.1400001 45:3.77 46:13.84 47:0.63 48:3.77 49:3.1400001 50:12.58 51:4.4000001 52:5.6599998 53:3.77 54:2.52 55:5.6599998 56:3.1400001 57:9.4300003 58:4.4000001 59:1.26 60:3.1400001 #
-0.00010000000000000000479217360238593 1:20 2:0 3:0 4:0 5:0 6:36 7:0 8:0 9:0 10:20 11:4 12:0 13:0 14:0 15:8 16:12 17:0 18:0 19:0 20:0 21:4 22:0 23:12 24:8 25:0 26:4 27:4 28:4 29:8 30:20 31:4 32:0 33:8 34:8 35:12 36:0 37:0 38:4 39:0 40:0 41:6.98 42:1.66 43:5.6500001 44:5.98 45:3.3199999 46:4.98 47:2.6600001 48:4.98 49:4.6500001 50:11.63 51:1.66 52:2.3299999 53:3.6500001 54:6.3099999 55:7.9699998 56:4.98 57:5.98 58:7.9699998 59:1.66 60:4.98 #
-0.00010000000000000000479217360238593 1:12 2:0 3:8 4:0 5:4 6:20 7:0 8:4 9:8 10:0 11:8 12:0 13:0 14:4 15:0 16:12 17:8 18:4 19:8 20:0 21:8 22:0 23:12 24:0 25:4 26:4 27:0 28:4 29:4 30:4 31:8 32:4 33:8 34:0 35:12 36:24 37:4 38:0 39:0 40:0 41:3.6500001 42:1.83 43:6.3899999 44:8.2200003 45:4.1100001 46:6.3899999 47:3.6500001 48:2.28 49:5.02 50:7.3099999 51:4.5700002 52:4.1100001 53:10.5 54:5.02 55:4.5700002 56:9.1300001 57:1.83 58:7.3099999 59:2.28 60:1.83 #
-0.00010000000000000000479217360238593 1:12 2:0 3:0 4:0 5:4 6:0 7:0 8:0 9:8 10:8 11:4 12:4 13:4 14:4 15:8 16:12 17:20 18:12 19:0 20:0 21:4 22:0 23:8 24:4 25:0 26:12 27:0 28:12 29:0 30:8 31:16 32:0 33:0 34:4 35:12 36:8 37:4 38:0 39:4 40:4 41:8.3500004 42:0.25 43:4.9099998 44:5.9000001 45:4.6700001 46:5.6500001 47:2.21 48:4.4200001 49:7.1300001 50:12.04 51:0.25 52:8.6000004 53:2.95 54:4.1799998 55:2.46 56:10.32 57:5.1599998 58:7.3699999 59:1.47 60:1.72 #
-0.00010000000000000000479217360238593 1:4 2:0 3:8 4:4 5:0 6:8 7:0 8:0 9:8 10:0 11:4 12:4 13:8 14:28 15:4 16:4 17:4 18:0 19:12 20:0 21:4 22:0 23:0 24:8 25:8 26:0 27:0 28:0 29:16 30:4 31:0 32:8 33:0 34:20 35:0 36:20 37:0 38:0 39:8 40:4 41:7.7399998 42:1.29 43:5.1599998 44:5.1599998 45:4.52 46:4.52 47:1.9400001 48:5.8099999 49:9.6800003 50:10.32 51:3.23 52:3.23 53:5.1599998 54:5.8099999 55:4.52 56:10.32 57:4.52 58:2.5799999 59:3.23 60:1.29 #
-0.00010000000000000000479217360238593 1:12 2:0 3:4 4:12 5:4 6:0 7:0 8:0 9:4 10:12 11:12 12:12 13:8 14:8 15:4 16:4 17:0 18:4 19:0 20:0 21:4 22:8 23:4 24:0 25:4 26:0 27:4 28:8 29:4 30:4 31:16 32:4 33:0 34:8 35:8 36:16 37:4 38:0 39:0 40:4 41:3.7 42:7.4099998 43:3.7 44:7.4099998 45:3.7 46:3.7 47:0 48:3.7 49:11.11 50:0 51:7.4099998 52:0 53:3.7 54:0 55:0 56:25.93 57:7.4099998 58:7.4099998 59:3.7 60:0 #
0.00069999999999999999288763374849509 1:8 2:0 3:8 4:8 5:0 6:0 7:12 8:4 9:4 10:8 11:4 12:4 13:20 14:0 15:0 16:8 17:0 18:12 19:0 20:0 21:0 22:0 23:4 24:8 25:8 26:4 27:4 28:8 29:12 30:16 31:0 32:8 33:4 34:4 35:4 36:8 37:4 38:4 39:0 40:0 41:4.3699999 42:1.1900001 43:3.1700001 44:1.98 45:3.5699999 46:7.1399999 47:2.3800001 48:8.7299995 49:6.3499999 50:13.49 51:2.3800001 52:3.97 53:6.3499999 54:1.98 55:6.3499999 56:9.1300001 57:4.3699999 58:7.1399999 59:2.78 60:3.1700001 #
0.00069999999999999999288763374849509 1:8 2:0 3:0 4:4 5:8 6:4 7:0 8:4 9:16 10:12 11:4 12:0 13:0 14:16 15:8 16:8 17:0 18:4 19:4 20:0 21:4 22:0 23:4 24:4 25:4 26:16 27:0 28:4 29:4 30:16 31:4 32:0 33:12 34:0 35:4 36:4 37:4 38:8 39:4 40:4 41:0 42:0 43:0 44:0 45:20 46:20 47:0 48:20 49:0 50:20 51:0 52:0 53:20 54:0 55:0 56:0 57:0 58:0 59:0 60:0 #
0.00069999999999999999288763374849509 1:0 2:0 3:0 4:0 5:0 6:20 7:4 8:0 9:4 10:8 11:4 12:0 13:20 14:0 15:8 16:20 17:8 18:0 19:4 20:0 21:16 22:0 23:4 24:20 25:0 26:8 27:0 28:4 29:0 30:4 31:4 32:0 33:8 34:4 35:12 36:4 37:12 38:0 39:0 40:0 41:9.3800001 42:0.95999998 43:2.6400001 44:6.25 45:3.6099999 46:8.4099998 47:2.6400001 48:2.4000001 49:3.6099999 50:11.54 51:1.92 52:1.4400001 53:9.1300001 54:3.8499999 55:9.1300001 56:7.21 57:5.29 58:5.29 59:2.1600001 60:3.1199999 #
0.00069999999999999999288763374849509 1:0 2:0 3:4 4:12 5:4 6:16 7:0 8:4 9:0 10:12 11:4 12:8 13:4 14:0 15:8 16:4 17:8 18:8 19:0 20:4 21:16 22:0 23:0 24:0 25:12 26:0 27:0 28:0 29:0 30:12 31:12 32:0 33:4 34:8 35:8 36:0 37:4 38:16 39:4 40:4 41:6.3200002 42:0 43:8.4200001 44:3.1600001 45:1.05 46:13.68 47:3.1600001 48:7.3699999 49:3.1600001 50:9.4700003 51:0 52:7.3699999 53:3.1600001 54:8.4200001 55:6.3200002 56:6.3200002 57:1.05 58:8.4200001 59:0 60:3.1600001 #
-0.00010000000000000000479217360238593 1:8 2:4 3:0 4:0 5:0 6:4 7:0 8:0 9:0 10:4 11:4 12:0 13:16 14:0 15:16 16:16 17:4 18:4 19:20 20:0 21:4 22:0 23:4 24:8 25:0 26:16 27:4 28:0 29:8 30:16 31:4 32:0 33:4 34:8 35:16 36:0 37:4 38:4 39:0 40:0 41:6.98 42:1.35 43:5.1799998 44:5.8600001 45:3.3800001 46:8.7799997 47:1.8 48:4.0500002 49:4.0500002 50:10.81 51:0.44999999 52:1.8 53:8.5600004 54:3.8299999 55:7.8800001 56:5.1799998 57:6.98 58:10.14 59:1.13 60:1.8 #
-0.00010000000000000000479217360238593 1:8 2:0 3:0 4:0 5:8 6:4 7:0 8:4 9:4 10:16 11:4 12:8 13:12 14:0 15:4 16:4 17:4 18:20 19:0 20:0 21:0 22:0 23:12 24:4 25:8 26:8 27:4 28:4 29:8 30:12 31:0 32:20 33:0 34:0 35:4 36:0 37:0 38:8 39:4 40:4 41:4.9299998 42:1.41 43:3.52 44:4.9299998 45:5.6300001 46:4.9299998 47:0.69999999 48:8.4499998 49:7.75 50:11.27 51:2.1099999 52:4.23 53:5.6300001 54:2.8199999 55:2.8199999 56:11.27 57:4.9299998 58:2.8199999 59:0.69999999 60:9.1499996 #
-0.00010000000000000000479217360238593 1:4 2:8 3:4 4:0 5:0 6:0 7:0 8:4 9:0 10:16 11:4 12:12 13:12 14:4 15:4 16:16 17:4 18:8 19:0 20:0 21:16 22:0 23:0 24:8 25:4 26:12 27:0 28:4 29:16 30:12 31:8 32:0 33:4 34:4 35:0 36:4 37:0 38:8 39:0 40:0 41:14.55 42:1.24 43:6.1900001 44:2.79 45:2.48 46:9.6000004 47:1.24 48:4.02 49:6.8099999 50:7.7399998 51:3.0999999 52:2.48 53:4.6399999 54:2.79 55:3.0999999 56:7.4299998 57:6.1900001 58:11.15 59:0.31 60:2.1700001 #
-0.00010000000000000000479217360238593 1:4 2:0 3:0 4:0 5:4 6:4 7:0 8:4 9:0 10:16 11:4 12:4 13:8 14:0 15:16 16:8 17:16 18:12 19:0 20:0 21:8 22:4 23:4 24:12 25:0 26:4 27:0 28:4 29:4 30:12 31:4 32:8 33:4 34:0 35:4 36:8 37:0 38:20 39:0 40:0 41:12.63 42:0 43:3.1600001 44:4.21 45:6.3200002 46:2.1099999 47:3.1600001 48:4.21 49:9.4700003 50:4.21 51:2.1099999 52:10.53 53:6.3200002 54:5.2600002 55:0 56:9.4700003 57:3.1600001 58:9.4700003 59:0 60:4.21 #
-0.00010000000000000000479217360238593 1:16 2:4 3:0 4:0 5:0 6:0 7:0 8:12 9:0 10:16 11:4 12:0 13:4 14:4 15:20 16:12 17:4 18:4 19:0 20:0 21:8 22:0 23:4 24:12 25:8 26:8 27:4 28:0 29:0 30:24 31:4 32:4 33:0 34:0 35:4 36:0 37:4 38:8 39:4 40:4 41:17.92 42:1.89 43:3.77 44:2.8299999 45:6.5999999 46:9.4300003 47:4.7199998 48:4.7199998 49:2.8299999 50:9.4300003 51:1.89 52:0.94 53:6.5999999 54:0.94 55:3.77 56:1.89 57:5.6599998 58:8.4899998 59:1.89 60:3.77 #
0.00069999999999999999288763374849509 1:16 2:4 3:0 4:8 5:8 6:16 7:0 8:8 9:8 10:0 11:4 12:0 13:0 14:0 15:0 16:8 17:0 18:16 19:4 20:0 21:8 22:0 23:4 24:12 25:4 26:4 27:0 28:0 29:24 30:0 31:0 32:4 33:0 34:8 35:4 36:12 37:0 38:4 39:0 40:12 41:6.4699998 42:1.62 43:7.8200002 44:5.1199999 45:3.77 46:7.5500002 47:4.3099999 48:7.5500002 49:4.3099999 50:8.3599997 51:2.4300001 52:1.89 53:4.8499999 54:2.4300001 55:7.8200002 56:7.5500002 57:4.5799999 58:8.0900002 59:0.81 60:2.7 #
-0.00010000000000000000479217360238593 1:20 2:0 3:0 4:4 5:8 6:4 7:0 8:0 9:0 10:28 11:4 12:0 13:4 14:0 15:4 16:0 17:12 18:4 19:0 20:8 21:8 22:0 23:8 24:4 25:8 26:4 27:4 28:8 29:16 30:4 31:0 32:0 33:0 34:4 35:4 36:4 37:16 38:8 39:0 40:0 41:6.6199999 42:1.99 43:3.3099999 44:5.3000002 45:1.3200001 46:6.6199999 47:3.3099999 48:5.3000002 49:4.6399999 50:10.6 51:1.99 52:2.6500001 53:3.97 54:6.6199999 55:9.9300003 56:5.96 57:5.3000002 58:8.6099997 59:1.99 60:3.97 #
0.00069999999999999999288763374849509 1:0 2:4 3:0 4:4 5:0 6:20 7:0 8:4 9:8 10:8 11:4 12:4 13:4 14:4 15:8 16:8 17:12 18:8 19:0 20:0 21:4 22:4 23:4 24:0 25:28 26:0 27:4 28:8 29:0 30:20 31:0 32:0 33:0 34:0 35:0 36:4 37:0 38:12 39:4 40:8 41:5.98 42:2.79 43:3.5899999 44:10.76 45:3.5899999 46:7.5700002 47:2.3900001 48:1.99 49:4.7800002 50:12.35 51:2.3900001 52:2.3900001 53:2.3900001 54:5.5799999 55:8.3699999 56:6.3699999 57:4.7800002 58:8.7600002 59:1.2 60:1.99 #
-0.00010000000000000000479217360238593 1:12 2:0 3:8 4:8 5:0 6:16 7:0 8:20 9:12 10:8 11:4 12:4 13:0 14:0 15:0 16:8 17:0 18:0 19:0 20:0 21:20 22:0 23:0 24:4 25:12 26:4 27:0 28:8 29:0 30:16 31:0 32:4 33:4 34:0 35:4 36:4 37:8 38:8 39:0 40:4 41:7.8499999 42:2.48 43:2.48 44:4.5500002 45:6.6100001 46:9.0900002 47:1.65 48:6.6100001 49:8.6800003 50:9.0900002 51:0.41 52:3.3099999 53:3.3099999 54:4.5500002 55:2.8900001 56:8.2600002 57:7.02 58:7.8499999 59:1.65 60:1.65 #
-0.00010000000000000000479217360238593 1:8 2:0 3:0 4:12 5:8 6:24 7:0 8:0 9:8 10:0 11:12 12:0 13:0 14:0 15:0 16:4 17:12 18:4 19:0 20:8 21:24 22:0 23:4 24:4 25:8 26:4 27:0 28:8 29:8 30:4 31:8 32:4 33:4 34:0 35:8 36:4 37:0 38:4 39:4 40:0 41:6.5100002 42:2.6800001 43:4.21 44:3.45 45:4.98 46:11.11 47:2.3 48:5.75 49:5.75 50:9.96 51:2.3 52:2.6800001 53:4.21 54:3.0699999 55:5.3600001 56:6.9000001 57:6.9000001 58:8.0500002 59:0.38 60:3.45 #
-0.00010000000000000000479217360238593 1:12 2:0 3:0 4:12 5:0 6:8 7:0 8:4 9:4 10:12 11:8 12:0 13:4 14:4 15:0 16:0 17:4 18:20 19:4 20:4 21:8 22:4 23:8 24:8 25:12 26:0 27:8 28:0 29:8 30:16 31:0 32:0 33:4 34:4 35:4 36:0 37:8 38:4 39:0 40:4 41:5.1500001 42:1.03 43:20.620001 44:31.959999 45:1.03 46:4.1199999 47:5.1500001 48:1.03 49:6.1900001 50:4.1199999 51:0 52:3.0899999 53:1.03 54:6.1900001 55:2.0599999 56:0 57:2.0599999 58:3.0899999 59:0 60:2.0599999 #
-0.00010000000000000000479217360238593 1:12 2:0 3:4 4:8 5:16 6:20 7:0 8:0 9:0 10:0 11:8 12:0 13:4 14:0 15:4 16:4 17:4 18:8 19:8 20:0 21:12 22:4 23:8 24:4 25:8 26:4 27:0 28:8 29:0 30:8 31:0 32:4 33:8 34:4 35:4 36:8 37:4 38:8 39:0 40:4 41:9.3500004 42:1.22 43:2.03 44:3.25 45:3.25 46:10.57 47:1.22 48:5.2800002 49:3.25 50:11.79 51:1.63 52:1.22 53:4.4699998 54:6.0999999 55:8.1300001 56:7.7199998 57:5.6900001 58:8.1300001 59:1.22 60:4.4699998 #
-0.00010000000000000000479217360238593 1:4 2:4 3:8 4:20 5:8 6:4 7:0 8:0 9:4 10:4 11:12 12:8 13:0 14:8 15:0 16:4 17:0 18:12 19:0 20:0 21:8 22:0 23:0 24:8 25:4 26:8 27:4 28:0 29:12 30:12 31:0 32:4 33:4 34:20 35:4 36:0 37:4 38:8 39:0 40:0 41:11.05 42:6.6300001 43:9.3900003 44:4.4200001 45:3.3099999 46:9.9399996 47:3.3099999 48:1.66 49:9.3900003 50:8.29 51:2.76 52:3.8699999 53:2.76 54:2.76 55:3.3099999 56:4.4200001 57:2.21 58:3.3099999 59:0.55000001 60:6.6300001 #
0.00069999999999999999288763374849509 1:20 2:8 3:0 4:0 5:8 6:0 7:0 8:4 9:8 10:12 11:8 12:0 13:4 14:4 15:12 16:4 17:0 18:8 19:0 20:0 21:0 22:0 23:4 24:0 25:8 26:44 27:0 28:8 29:8 30:0 31:4 32:4 33:0 34:4 35:0 36:16 37:0 38:0 39:0 40:0 41:10 42:1.91 43:5.5300002 44:6.8099999 45:4.04 46:11.49 47:2.3399999 48:2.98 49:7.8699999 50:3.8299999 51:1.0599999 52:3.1900001 53:4.2600002 54:5.1100001 55:6.5999999 56:6.1700001 57:6.3800001 58:6.3800001 59:0.63999999 60:3.4000001 #
0.00069999999999999999288763374849509 1:16 2:0 3:0 4:0 5:0 6:8 7:0 8:0 9:4 10:16 11:4 12:0 13:20 14:0 15:16 16:4 17:4 18:4 19:0 20:4 21:8 22:0 23:0 24:28 25:0 26:4 27:0 28:0 29:0 30:0 31:0 32:0 33:16 34:16 35:0 36:12 37:12 38:4 39:0 40:0 41:12.02 42:0.86000001 43:5.1500001 44:18.030001 45:0.43000001 46:5.5799999 47:0.86000001 48:1.29 49:4.29 50:4.7199998 51:0.86000001 52:1.29 53:6.4400001 54:4.29 55:2.5799999 56:12.02 57:8.5799999 58:8.5799999 59:0 60:2.1500001 #
0.0001072023167704434613856090408035 1:4 2:0 3:4 4:12 5:0 6:0 7:8 8:4 9:12 10:4 11:8 12:8 13:0 14:4 15:0 16:8 17:0 18:16 19:8 20:0 21:8 22:0 23:4 24:0 25:4 26:20 27:0 28:0 29:4 30:20 31:12 32:0 33:0 34:0 35:8 36:4 37:0 38:12 39:0 40:4 41:25 42:0 43:0 44:0 45:0 46:0 47:0 48:0 49:0 50:0 51:25 52:25 53:0 54:0 55:0 56:0 57:0 58:25 59:0 60:0 #
-0.00010000000000000000479217360238593 1:32 2:0 3:0 4:0 5:0 6:4 7:4 8:4 9:0 10:12 11:8 12:0 13:4 14:0 15:12 16:12 17:0 18:8 19:0 20:0 21:8 22:0 23:0 24:12 25:8 26:20 27:0 28:0 29:8 30:0 31:0 32:0 33:4 34:12 35:0 36:20 37:0 38:4 39:4 40:0 41:9.5900002 42:0.2 43:4.4899998 44:10.82 45:3.27 46:6.73 47:1.63 48:4.29 49:9.3900003 50:7.3499999 51:3.6700001 52:2.45 53:7.5500002 54:4.6900001 55:5.5100002 56:5.0999999 57:4.29 58:3.8800001 59:2.24 60:2.8599999 #
-0.00010000000000000000479217360238593 1:4 2:0 3:4 4:4 5:4 6:4 7:0 8:12 9:4 10:12 11:4 12:4 13:0 14:0 15:4 16:16 17:8 18:4 19:8 20:4 21:0 22:0 23:0 24:8 25:16 26:8 27:0 28:4 29:4 30:8 31:0 32:4 33:0 34:8 35:8 36:28 37:0 38:0 39:0 40:4 41:7.3000002 42:0.38999999 43:2.3699999 44:1.1799999 45:8.4799995 46:9.4700003 47:2.76 48:8.8800001 49:1.1799999 50:13.41 51:3.3499999 52:3.1600001 53:5.52 54:2.1700001 55:2.3699999 56:9.0699997 57:4.9299998 58:7.0999999 59:2.5599999 60:4.3400002 #
0.00069999999999999999288763374849509 1:16 2:0 3:0 4:4 5:4 6:4 7:0 8:8 9:8 10:12 11:4 12:8 13:0 14:0 15:4 16:8 17:12 18:8 19:0 20:0 21:16 22:0 23:4 24:4 25:0 26:4 27:0 28:8 29:8 30:16 31:8 32:0 33:4 34:0 35:16 36:4 37:4 38:0 39:0 40:4 41:9.5100002 42:0.68000001 43:6.4499998 44:7.3000002 45:5.4299998 46:4.4099998 47:1.36 48:4.75 49:8.3199997 50:11.04 51:1.1900001 52:6.2800002 53:3.9000001 54:6.4499998 55:3.23 56:6.96 57:4.9200001 58:3.4000001 59:0 60:4.4099998 #
-0.00010000000000000000479217360238593 1:16 2:0 3:0 4:0 5:8 6:0 7:0 8:0 9:4 10:16 11:4 12:0 13:16 14:0 15:8 16:20 17:0 18:4 19:4 20:0 21:0 22:0 23:4 24:12 25:4 26:4 27:4 28:8 29:8 30:16 31:0 32:8 33:0 34:4 35:8 36:0 37:0 38:8 39:4 40:8 41:0 42:0 43:0 44:3.8499999 45:3.8499999 46:11.54 47:3.8499999 48:3.8499999 49:7.6900001 50:11.54 51:0 52:3.8499999 53:11.54 54:3.8499999 55:3.8499999 56:11.54 57:7.6900001 58:3.8499999 59:3.8499999 60:3.8499999 #
-2.0485381157966345722770684645297e-05 1:28 2:0 3:0 4:0 5:0 6:8 7:0 8:0 9:0 10:16 11:4 12:0 13:8 14:0 15:16 16:4 17:0 18:16 19:0 20:0 21:0 22:0 23:4 24:12 25:4 26:4 27:0 28:8 29:16 30:12 31:4 32:0 33:0 34:8 35:4 36:16 37:0 38:4 39:0 40:4 41:11.9 42:1.98 43:4.7600002 44:5.5599999 45:3.1700001 46:8.3299999 47:1.1900001 48:4.3699999 49:3.1700001 50:12.3 51:1.98 52:3.5699999 53:4.7600002 54:5.1599998 55:6.75 56:5.1599998 57:4.7600002 58:7.54 59:1.59 60:1.98 #
0.00069999999999999999288763374849509 1:8 2:0 3:4 4:0 5:0 6:16 7:0 8:4 9:8 10:8 11:4 12:4 13:0 14:8 15:8 16:4 17:8 18:12 19:0 20:4 21:24 22:0 23:0 24:0 25:4 26:12 27:4 28:8 29:4 30:12 31:4 32:0 33:0 34:0 35:4 36:4 37:12 38:8 39:0 40:0 41:5.98 42:3.1600001 43:6.48 44:7.8099999 45:3.3199999 46:4.3200002 47:2.6600001 48:6.1500001 49:5.8099999 50:9.9700003 51:2.6600001 52:3.6500001 53:5.6500001 54:3.8199999 55:5.1500001 56:6.1500001 57:4.98 58:6.98 59:1.16 60:4.1500001 #
0.00069999999999999999288763374849509 1:8 2:0 3:8 4:4 5:12 6:8 7:0 8:4 9:0 10:16 11:4 12:0 13:0 14:4 15:8 16:0 17:8 18:16 19:0 20:0 21:16 22:0 23:0 24:8 25:8 26:4 27:0 28:0 29:4 30:8 31:12 32:8 33:16 34:8 35:0 36:4 37:0 38:0 39:0 40:4 41:5.1900001 42:1.73 43:4.7600002 44:5.6300001 45:6.0599999 46:9.0900002 47:3.46 48:5.1900001 49:7.3600001 50:8.2299995 51:2.5999999 52:2.5999999 53:6.4899998 54:4.7600002 55:5.1900001 56:4.7600002 57:5.6300001 58:7.3600001 59:0.43000001 60:3.46 #
0.00029546804276383073625464326106282 1:4 2:0 3:8 4:8 5:4 6:0 7:0 8:4 9:8 10:16 11:4 12:0 13:12 14:8 15:0 16:0 17:8 18:4 19:4 20:8 21:20 22:0 23:0 24:0 25:8 26:16 27:0 28:0 29:4 30:8 31:0 32:4 33:0 34:0 35:12 36:4 37:0 38:24 39:0 40:0 41:4.7600002 42:1.9 43:4.7600002 44:9.5200005 45:1.9 46:6.6700001 47:0.94999999 48:5.71 49:9.5200005 50:8.5699997 51:1.9 52:3.8099999 53:0.94999999 54:4.7600002 55:7.6199999 56:5.71 57:6.6700001 58:6.6700001 59:0.94999999 60:6.6700001 #
0.00023568111974136960644690685917624 1:12 2:0 3:12 4:4 5:12 6:4 7:0 8:4 9:12 10:8 11:4 12:4 13:8 14:0 15:0 16:0 17:12 18:0 19:0 20:4 21:4 22:0 23:0 24:0 25:8 26:12 27:0 28:0 29:8 30:12 31:0 32:20 33:0 34:4 35:0 36:0 37:16 38:12 39:4 40:0 41:7.1100001 42:0 43:5.7800002 44:2.22 45:7.1100001 46:6.2199998 47:0.44 48:6.6700001 49:11.56 50:6.2199998 51:0.44 52:9.7799997 53:2.6700001 54:2.6700001 55:1.78 56:8.4399996 57:9.3299999 58:8.4399996 59:0 60:3.1099999 #
-0.00010000000000000000479217360238593 1:4 2:0 3:16 4:0 5:4 6:4 7:12 8:0 9:4 10:0 11:4 12:8 13:8 14:4 15:0 16:12 17:16 18:4 19:0 20:0 21:4 22:0 23:4 24:4 25:0 26:4 27:4 28:0 29:12 30:8 31:0 32:4 33:20 34:4 35:0 36:4 37:28 38:0 39:0 40:0 41:3.8099999 42:0.27000001 43:5.4499998 44:4.6300001 45:5.1799998 46:4.9000001 47:2.45 48:7.3600001 49:7.6300001 50:12.26 51:2.1800001 52:4.9000001 53:7.6300001 54:2.72 55:5.4499998 56:9.2600002 57:5.7199998 58:4.0900002 59:1.63 60:2.45 #
-0.00010000000000000000479217360238593 1:0 2:0 3:0 4:8 5:4 6:12 7:4 8:4 9:4 10:4 11:4 12:0 13:4 14:4 15:16 16:12 17:8 18:8 19:0 20:4 21:12 22:0 23:0 24:0 25:20 26:8 27:4 28:4 29:8 30:12 31:8 32:0 33:4 34:4 35:4 36:4 37:4 38:4 39:0 40:0 41:0 42:0 43:0 44:7.6900001 45:7.6900001 46:0 47:0 48:7.6900001 49:7.6900001 50:15.38 51:0 52:15.38 53:7.6900001 54:0 55:7.6900001 56:7.6900001 57:0 58:7.6900001 59:7.6900001 60:0 #
-0.00010000000000000000479217360238593 1:8 2:0 3:8 4:8 5:0 6:4 7:4 8:0 9:0 10:4 11:4 12:20 13:4 14:4 15:8 16:8 17:4 18:0 19:0 20:12 21:24 22:0 23:0 24:0 25:0 26:20 27:0 28:8 29:8 30:8 31:0 32:0 33:4 34:4 35:4 36:0 37:0 38:16 39:0 40:4 41:9.4200001 42:0.72000003 43:2.9000001 44:4.3499999 45:2.9000001 46:13.77 47:0 48:6.52 49:3.6199999 50:7.25 51:0 52:3.6199999 53:2.1700001 54:2.1700001 55:7.25 56:8.6999998 57:9.4200001 58:9.4200001 59:2.1700001 60:3.6199999 #
-0.00010000000000000000479217360238593 1:12 2:0 3:16 4:0 5:4 6:12 7:0 8:0 9:8 10:4 11:4 12:4 13:4 14:4 15:0 16:4 17:16 18:4 19:4 20:0 21:20 22:8 23:0 24:4 25:0 26:4 27:0 28:0 29:12 30:8 31:8 32:0 33:0 34:0 35:4 36:12 37:0 38:12 39:4 40:4 41:5.8099999 42:0.57999998 43:4.0700002 44:4.0700002 45:2.3299999 46:15.7 47:2.3299999 48:6.98 49:5.23 50:15.12 51:1.74 52:6.4000001 53:5.8099999 54:3.49 55:2.3299999 56:8.1400003 57:4.6500001 58:2.3299999 59:0.57999998 60:2.3299999 #
-0.00010000000000000000479217360238593 1:12 2:0 3:8 4:4 5:0 6:4 7:4 8:0 9:0 10:12 11:8 12:4 13:16 14:4 15:0 16:4 17:8 18:4 19:0 20:8 21:20 22:0 23:0 24:8 25:0 26:4 27:0 28:0 29:4 30:4 31:0 32:12 33:4 34:8 35:0 36:0 37:4 38:16 39:12 40:4 41:10.12 42:0 43:7.1399999 44:2.98 45:3.5699999 46:8.9300003 47:4.1700001 48:3.5699999 49:7.1399999 50:8.9300003 51:1.79 52:8.9300003 53:5.9499998 54:1.79 55:2.3800001 56:5.3600001 57:4.7600002 58:6.5500002 59:2.3800001 60:3.5699999 #
0.00044403033704077873866644665667991 1:4 2:0 3:4 4:8 5:4 6:4 7:0 8:4 9:0 10:4 11:4 12:0 13:0 14:0 15:4 16:52 17:4 18:4 19:0 20:0 21:4 22:0 23:8 24:4 25:8 26:8 27:0 28:0 29:16 30:16 31:0 32:0 33:0 34:8 35:8 36:8 37:8 38:0 39:0 40:4 41:6.5900002 42:2.54 43:4.9400001 44:7.3400002 45:4.1900001 46:3.5899999 47:2.6900001 48:4.79 49:4.6399999 50:13.62 51:2.25 52:4.79 53:3.29 54:7.04 55:5.3899999 56:8.5299997 57:4.1900001 58:5.9899998 59:1.35 60:2.25 #
-0.00010000000000000000479217360238593 1:24 2:0 3:0 4:8 5:4 6:12 7:0 8:0 9:0 10:8 11:4 12:0 13:0 14:0 15:16 16:0 17:0 18:12 19:12 20:0 21:0 22:0 23:12 24:16 25:0 26:12 27:0 28:0 29:8 30:16 31:4 32:0 33:4 34:4 35:8 36:0 37:8 38:4 39:4 40:0 41:7.4499998 42:2.01 43:5.1599998 44:4.0100002 45:6.02 46:9.7399998 47:2.29 48:3.4400001 49:2.5799999 50:10.89 51:0.86000001 52:1.72 53:9.46 54:3.1500001 55:8.6000004 56:8.0200005 57:2.8699999 58:9.46 59:0.28999999 60:2.01 #
-0.00010000000000000000479217360238593 1:28 2:4 3:0 4:0 5:0 6:12 7:0 8:0 9:0 10:20 11:8 12:0 13:4 14:0 15:16 16:0 17:4 18:4 19:0 20:0 21:4 22:4 23:12 24:16 25:4 26:4 27:4 28:8 29:4 30:8 31:4 32:4 33:12 34:4 35:0 36:8 37:0 38:0 39:0 40:0 41:6.73 42:0 43:6.73 44:9.6199999 45:4.8099999 46:3.8499999 47:0.95999998 48:2.8800001 49:3.8499999 50:6.73 51:1.92 52:2.8800001 53:7.6900001 54:1.92 55:10.58 56:8.6499996 57:2.8800001 58:8.6499996 59:3.8499999 60:4.8099999 #
-0.00010000000000000000479217360238593 1:0 2:0 3:0 4:0 5:0 6:16 7:0 8:8 9:8 10:16 11:4 12:4 13:8 14:4 15:12 16:8 17:4 18:0 19:4 20:4 21:8 22:0 23:4 24:8 25:0 26:0 27:8 28:4 29:4 30:4 31:0 32:0 33:8 34:0 35:4 36:24 37:8 38:4 39:4 40:8 41:6.3099999 42:1.83 43:5.48 44:7.6399999 45:4.98 46:5.98 47:3.1600001 48:4.6500001 49:4.98 50:12.79 51:1.99 52:1.83 53:6.1500001 54:4.8200002 55:6.98 56:6.1500001 57:5.3200002 58:5.6500001 59:0.82999998 60:2.49 #
-0.00010000000000000000479217360238593 1:16 2:0 3:0 4:0 5:8 6:12 7:0 8:8 9:4 10:8 11:4 12:0 13:0 14:0 15:16 16:16 17:0 18:8 19:0 20:0 21:4 22:0 23:0 24:16 25:0 26:4 27:0 28:4 29:20 30:8 31:4 32:0 33:4 34:8 35:8 36:12 37:4 38:0 39:0 40:4 41:7.8600001 42:1.5700001 43:5.6599998 44:6.9200001 45:5.9699998 46:7.23 47:1.89 48:4.4000001 49:5.6599998 50:8.8100004 51:1.5700001 52:4.4000001 53:5.3499999 54:4.0900002 55:5.3499999 56:7.5500002 57:4.7199998 58:6.5999999 59:1.26 60:3.1400001 #
-0.00010000000000000000479217360238593 1:20 2:4 3:0 4:0 5:4 6:12 7:0 8:0 9:0 10:16 11:4 12:0 13:0 14:0 15:20 16:12 17:4 18:4 19:0 20:0 21:4 22:0 23:0 24:0 25:4 26:8 27:0 28:0 29:8 30:16 31:0 32:4 33:8 34:8 35:12 36:24 37:0 38:0 39:4 40:0 41:6.27 42:0.99000001 43:6.27 44:7.2600002 45:4.29 46:6.27 47:1.98 48:5.2800002 49:4.29 50:10.89 51:0.99000001 52:2.6400001 53:8.9099998 54:5.6100001 55:6.5999999 56:4.6199999 57:5.2800002 58:6.27 59:1.3200001 60:3.96 #
-0.00010000000000000000479217360238593 1:4 2:0 3:0 4:12 5:4 6:8 7:0 8:8 9:4 10:4 11:4 12:0 13:28 14:0 15:0 16:8 17:4 18:12 19:0 20:0 21:24 22:0 23:0 24:0 25:4 26:8 27:0 28:8 29:4 30:12 31:4 32:0 33:4 34:4 35:8 36:4 37:8 38:8 39:0 40:0 41:7.1399999 42:1.79 43:0 44:5.3600001 45:5.3600001 46:5.3600001 47:1.79 48:1.79 49:5.3600001 50:7.1399999 51:3.5699999 52:5.3600001 53:7.1399999 54:3.5699999 55:10.71 56:7.1399999 57:8.9300003 58:7.1399999 59:0 60:5.3600001 #
-0.00010000000000000000479217360238593 1:0 2:0 3:4 4:12 5:0 6:4 7:0 8:4 9:8 10:16 11:4 12:0 13:8 14:4 15:0 16:16 17:0 18:20 19:0 20:0 21:4 22:0 23:4 24:12 25:8 26:8 27:4 28:0 29:4 30:8 31:4 32:4 33:16 34:0 35:8 36:4 37:4 38:4 39:4 40:0 41:6.5599999 42:6.5599999 43:6.5599999 44:8.1999998 45:4.9200001 46:4.0999999 47:3.28 48:1.64 49:9.0200005 50:9.0200005 51:0.81999999 52:2.46 53:5.7399998 54:5.7399998 55:9.8400002 56:2.46 57:3.28 58:4.0999999 59:2.46 60:3.28 #
-0.00010000000000000000479217360238593 1:0 2:0 3:4 4:12 5:0 6:4 7:0 8:0 9:8 10:16 11:4 12:0 13:4 14:0 15:4 16:36 17:8 18:0 19:0 20:0 21:12 22:0 23:0 24:4 25:12 26:8 27:4 28:4 29:8 30:8 31:4 32:4 33:4 34:0 35:4 36:8 37:8 38:4 39:0 40:4 41:9.0299997 42:1.08 43:2.1700001 44:2.8900001 45:5.4200001 46:11.19 47:0.72000003 48:7.2199998 49:7.9400001 50:7.9400001 51:1.8099999 52:5.0500002 53:5.0500002 54:4.3299999 55:2.8900001 56:7.2199998 57:7.2199998 58:7.9400001 59:0.72000003 60:2.1700001 #
-0.00010000000000000000479217360238593 1:0 2:0 3:8 4:0 5:0 6:0 7:0 8:8 9:4 10:8 11:4 12:12 13:8 14:0 15:0 16:20 17:20 18:0 19:0 20:8 21:12 22:0 23:4 24:16 25:0 26:8 27:0 28:0 29:8 30:8 31:0 32:0 33:0 34:8 35:8 36:12 37:4 38:4 39:0 40:8 41:10.07 42:0 43:2.8800001 44:2.8800001 45:7.9099998 46:12.23 47:2.8800001 48:1.4400001 49:3.5999999 50:7.1900001 51:5.7600002 52:2.8800001 53:5.7600002 54:4.3200002 55:7.1900001 56:5.04 57:2.1600001 58:9.3500004 59:0.72000003 60:5.7600002 #
-0.00010000000000000000479217360238593 1:8 2:0 3:0 4:0 5:4 6:8 7:0 8:8 9:16 10:4 11:8 12:0 13:12 14:12 15:0 16:4 17:0 18:12 19:0 20:4 21:0 22:0 23:0 24:12 25:4 26:8 27:8 28:0 29:8 30:20 31:0 32:0 33:4 34:4 35:4 36:4 37:4 38:8 39:0 40:12 41:4.5500002 42:0 43:4.5500002 44:4.5500002 45:0 46:4.5500002 47:9.0900002 48:9.0900002 49:13.64 50:13.64 51:0 52:4.5500002 53:4.5500002 54:0 55:0 56:9.0900002 57:4.5500002 58:4.5500002 59:9.0900002 60:0 #
-0.00010000000000000000479217360238593 1:16 2:0 3:16 4:8 5:0 6:8 7:0 8:4 9:8 10:8 11:20 12:0 13:4 14:0 15:0 16:8 17:0 18:0 19:0 20:0 21:8 22:0 23:4 24:8 25:8 26:4 27:4 28:0 29:8 30:8 31:8 32:8 33:4 34:8 35:8 36:0 37:8 38:4 39:0 40:0 41:2.3299999 42:9.3000002 43:6.98 44:6.98 45:4.6500001 46:0 47:0 48:0 49:4.6500001 50:11.63 51:4.6500001 52:2.3299999 53:0 54:9.3000002 55:11.63 56:9.3000002 57:4.6500001 58:9.3000002 59:0 60:2.3299999 #
-0.00010000000000000000479217360238593 1:28 2:0 3:0 4:0 5:0 6:4 7:0 8:8 9:4 10:4 11:4 12:4 13:0 14:4 15:8 16:16 17:0 18:4 19:4 20:8 21:12 22:0 23:4 24:4 25:4 26:4 27:0 28:4 29:8 30:0 31:0 32:4 33:8 34:8 35:4 36:8 37:20 38:0 39:0 40:8 41:8.3299999 42:0 43:0 44:8.3299999 45:0 46:0 47:0 48:0 49:8.3299999 50:25 51:0 52:8.3299999 53:0 54:8.3299999 55:0 56:8.3299999 57:16.67 58:8.3299999 59:0 60:0 #
-0.00010000000000000000479217360238593 1:20 2:4 3:0 4:0 5:0 6:24 7:0 8:0 9:0 10:16 11:4 12:0 13:8 14:0 15:20 16:0 17:0 18:4 19:0 20:0 21:4 22:0 23:24 24:8 25:12 26:0 27:0 28:0 29:0 30:16 31:4 32:0 33:0 34:0 35:0 36:16 37:4 38:12 39:0 40:0 41:7.0900002 42:1.96 43:5.1300001 44:7.2399998 45:4.6799998 46:6.0300002 47:3.02 48:3.77 49:5.2800002 50:11.76 51:3.6199999 52:3.3199999 53:5.5799999 54:3.6199999 55:6.9400001 56:6.6399999 57:4.0700002 58:5.73 59:0.75 60:3.77 #
-0.00010000000000000000479217360238593 1:8 2:0 3:0 4:0 5:0 6:4 7:8 8:16 9:8 10:8 11:4 12:0 13:20 14:0 15:8 16:8 17:4 18:0 19:0 20:4 21:24 22:0 23:12 24:8 25:0 26:4 27:4 28:12 29:16 30:0 31:0 32:0 33:12 34:0 35:0 36:0 37:4 38:4 39:0 40:0 41:5.4499998 42:0.5 43:4.9499998 44:8.6599998 45:3.22 46:2.23 47:0.99000001 48:5.1999998 49:10.15 50:13.12 51:2.48 52:5.6900001 53:4.21 54:3.96 55:6.1900001 56:8.1700001 57:3.96 58:6.4400001 59:0.74000001 60:3.71 #
0.00062262867922359963531592219609934 1:4 2:0 3:8 4:4 5:0 6:16 7:0 8:4 9:20 10:4 11:4 12:4 13:0 14:0 15:0 16:24 17:4 18:4 19:0 20:0 21:0 22:0 23:4 24:0 25:12 26:4 27:4 28:8 29:4 30:16 31:4 32:4 33:16 34:4 35:0 36:8 37:0 38:12 39:0 40:0 41:4 42:0 43:4 44:4 45:4 46:4 47:4 48:0 49:24 50:4 51:0 52:4 53:0 54:0 55:0 56:8 57:8 58:16 59:8 60:4 #
-0.00010000000000000000479217360238593 1:12 2:4 3:4 4:0 5:0 6:16 7:0 8:16 9:8 10:12 11:4 12:4 13:4 14:4 15:0 16:4 17:4 18:4 19:0 20:0 21:12 22:0 23:4 24:4 25:8 26:12 27:0 28:8 29:0 30:20 31:0 32:0 33:4 34:12 35:0 36:4 37:0 38:8 39:0 40:4 41:12.45 42:2.5599999 43:3.6600001 44:3.3 45:3.6600001 46:8.4200001 47:0.73000002 48:4.0300002 49:5.1300001 50:12.09 51:1.83 52:2.9300001 53:5.1300001 54:6.5900002 55:6.5900002 56:5.4899998 57:5.4899998 58:6.96 59:0 60:2.9300001 #
-0.00010000000000000000479217360238593 1:8 2:4 3:0 4:4 5:8 6:0 7:0 8:20 9:0 10:16 11:4 12:4 13:0 14:0 15:0 16:4 17:4 18:20 19:0 20:4 21:0 22:0 23:4 24:0 25:16 26:4 27:0 28:20 29:0 30:24 31:0 32:0 33:12 34:0 35:0 36:8 37:8 38:0 39:0 40:4 41:5.8400002 42:0.69 43:1.37 44:4.4699998 45:8.9300003 46:6.5300002 47:0 48:12.03 49:2.0599999 50:16.49 51:1.03 52:4.4699998 53:3.78 54:1.37 55:2.75 56:10.31 57:4.4699998 58:5.5 59:1.72 60:6.1900001 #
-0.00010000000000000000479217360238593 1:8 2:0 3:0 4:4 5:4 6:16 7:8 8:4 9:8 10:8 11:4 12:0 13:4 14:0 15:0 16:8 17:0 18:20 19:0 20:4 21:4 22:0 23:8 24:16 25:4 26:4 27:0 28:4 29:8 30:4 31:4 32:4 33:0 34:8 35:8 36:8 37:4 38:8 39:0 40:4 41:7.1399999 42:0 43:0 44:0 45:7.1399999 46:21.43 47:14.29 48:0 49:7.1399999 50:14.29 51:7.1399999 52:0 53:0 54:0 55:0 56:0 57:0 58:7.1399999 59:14.29 60:0 #
-0.00010000000000000000479217360238593 1:12 2:0 3:12 4:0 5:8 6:12 7:0 8:4 9:8 10:4 11:4 12:0 13:8 14:8 15:0 16:8 17:4 18:8 19:0 20:0 21:12 22:0 23:4 24:8 25:0 26:4 27:0 28:0 29:8 30:8 31:0 32:4 33:8 34:4 35:12 36:8 37:0 38:16 39:0 40:4 41:9.3299999 42:0 43:2 44:6.6700001 45:6 46:17.33 47:2 48:4 49:2.6700001 50:8 51:4 52:4 53:3.3299999 54:2 55:8.6700001 56:6.6700001 57:4 58:6 59:1.33 60:2 #
-0.00010000000000000000479217360238593 1:12 2:0 3:4 4:0 5:4 6:4 7:4 8:4 9:8 10:0 11:8 12:0 13:4 14:16 15:4 16:12 17:4 18:12 19:0 20:0 21:8 22:0 23:4 24:0 25:4 26:28 27:0 28:4 29:12 30:12 31:0 32:0 33:0 34:4 35:0 36:8 37:0 38:8 39:0 40:8 41:11.18 42:0.60000002 43:5.4400001 44:2.1099999 45:7.25 46:11.18 47:0.30000001 48:4.23 49:6.9499998 50:8.46 51:2.1099999 52:4.23 53:3.02 54:3.3199999 55:6.04 56:6.3400002 57:5.1399999 58:5.7399998 59:1.21 60:5.1399999 #
0.00069999999999999999288763374849509 1:4 2:0 3:8 4:4 5:0 6:12 7:4 8:4 9:16 10:12 11:4 12:4 13:4 14:0 15:4 16:4 17:4 18:4 19:0 20:8 21:12 22:0 23:8 24:4 25:0 26:8 27:0 28:8 29:16 30:12 31:0 32:0 33:4 34:0 35:0 36:12 37:8 38:8 39:0 40:0 41:7.52 42:0.44 43:6.1900001 44:2.6500001 45:5.75 46:7.52 47:2.21 48:5.75 49:7.0799999 50:8.8500004 51:0.44 52:5.3099999 53:3.0999999 54:3.0999999 55:1.77 56:11.5 57:10.62 58:7.96 59:0.44 60:1.77 #
-0.00010000000000000000479217360238593 1:4 2:12 3:8 4:20 5:0 6:0 7:4 8:0 9:16 10:0 11:4 12:4 13:8 14:8 15:0 16:0 17:8 18:4 19:0 20:0 21:4 22:8 23:0 24:20 25:8 26:8 27:0 28:4 29:20 30:0 31:4 32:4 33:4 34:0 35:0 36:4 37:0 38:4 39:0 40:8 41:0 42:10.53 43:10.53 44:15.79 45:5.2600002 46:5.2600002 47:0 48:5.2600002 49:10.53 50:5.2600002 51:0 52:5.2600002 53:5.2600002 54:5.2600002 55:5.2600002 56:5.2600002 57:5.2600002 58:0 59:0 60:0 #
-0.00010000000000000000479217360238593 1:0 2:4 3:8 4:12 5:4 6:4 7:4 8:8 9:8 10:0 11:4 12:0 13:4 14:4 15:8 16:12 17:8 18:4 19:0 20:4 21:20 22:0 23:0 24:28 25:0 26:4 27:0 28:4 29:12 30:0 31:0 32:0 33:8 34:4 35:0 36:8 37:12 38:0 39:0 40:0 41:5.4299998 42:6.52 43:8.6999998 44:15.22 45:4.3499999 46:7.6100001 47:2.1700001 48:3.26 49:3.26 50:5.4299998 51:3.26 52:5.4299998 53:7.6100001 54:5.4299998 55:2.1700001 56:5.4299998 57:1.09 58:2.1700001 59:1.09 60:4.3499999 #
-0.00010000000000000000479217360238593 1:0 2:0 3:4 4:20 5:4 6:12 7:0 8:0 9:0 10:4 11:4 12:0 13:0 14:0 15:16 16:16 17:4 18:16 19:0 20:0 21:12 22:8 23:4 24:4 25:0 26:4 27:8 28:0 29:8 30:12 31:0 32:0 33:4 34:4 35:8 36:8 37:0 38:12 39:0 40:4 41:7.5700002 42:1.08 43:2.1600001 44:12.43 45:2.1600001 46:5.9499998 47:3.24 48:2.7 49:7.5700002 50:7.0300002 51:2.1600001 52:2.1600001 53:5.9499998 54:6.4899998 55:9.7299995 56:11.35 57:3.78 58:4.3200002 59:0 60:2.1600001 #
-0.00010000000000000000479217360238593 1:8 2:0 3:4 4:0 5:4 6:20 7:0 8:4 9:12 10:12 11:4 12:4 13:0 14:0 15:8 16:4 17:8 18:8 19:0 20:0 21:12 22:0 23:8 24:0 25:4 26:16 27:0 28:4 29:0 30:20 31:0 32:0 33:0 34:0 35:4 36:20 37:4 38:4 39:0 40:4 41:9.2799997 42:1.03 43:5.1500001 44:5.1500001 45:3.6099999 46:5.6700001 47:2.0599999 48:4.1199999 49:6.1900001 50:8.25 51:4.6399999 52:5.1500001 53:5.1500001 54:1.55 55:4.6399999 56:7.73 57:5.6700001 58:13.92 59:0.51999998 60:0.51999998 #
-5.888431695747902176393817619271e-05 1:8 2:0 3:0 4:4 5:4 6:4 7:4 8:16 9:8 10:8 11:8 12:8 13:0 14:0 15:12 16:8 17:8 18:0 19:0 20:0 21:4 22:0 23:12 24:4 25:0 26:12 27:0 28:8 29:12 30:4 31:0 32:0 33:12 34:4 35:4 36:0 37:12 38:4 39:4 40:4 41:5.8499999 42:1.55 43:4.48 44:8.2600002 45:3.79 46:10.5 47:1.89 48:4.9899998 49:9.29 50:8.6099997 51:1.89 52:3.6099999 53:5.1599998 54:2.5799999 55:3.0999999 56:6.54 57:4.3000002 58:8.0900002 59:1.03 60:4.48 #
0.00069999999999999999288763374849509 1:12 2:0 3:4 4:4 5:8 6:4 7:4 8:0 9:12 10:12 11:12 12:0 13:8 14:4 15:8 16:0 17:4 18:4 19:0 20:0 21:8 22:0 23:12 24:4 25:8 26:0 27:0 28:12 29:8 30:8 31:0 32:0 33:4 34:0 35:4 36:12 37:0 38:12 39:0 40:8 41:0 42:0 43:0 44:0 45:25 46:25 47:0 48:0 49:0 50:0 51:0 52:0 53:0 54:0 55:0 56:25 57:0 58:0 59:25 60:0 #
-0.00010000000000000000479217360238593 1:16 2:4 3:4 4:0 5:4 6:16 7:0 8:4 9:8 10:4 11:8 12:0 13:0 14:4 15:12 16:4 17:0 18:12 19:0 20:0 21:0 22:0 23:4 24:4 25:4 26:12 27:4 28:8 29:0 30:24 31:0 32:0 33:4 34:4 35:0 36:4 37:4 38:20 39:0 40:4 41:10.16 42:1.0700001 43:4.2800002 44:5.8800001 45:3.21 46:11.23 47:3.74 48:4.2800002 49:7.4899998 50:10.16 51:2.6700001 52:5.3499999 53:1.0700001 54:3.21 55:5.3499999 56:5.3499999 57:4.8099999 58:9.6300001 59:0 60:1.0700001 #
-0.00010000000000000000479217360238593 1:12 2:0 3:4 4:4 5:0 6:12 7:4 8:8 9:8 10:12 11:8 12:0 13:4 14:4 15:4 16:12 17:4 18:0 19:0 20:0 21:8 22:0 23:4 24:0 25:12 26:4 27:0 28:4 29:8 30:20 31:0 32:4 33:8 34:4 35:4 36:12 37:4 38:4 39:0 40:0 41:7.1999998 42:0.40000001 43:3.5999999 44:4 45:7.5999999 46:9.6000004 47:1.6 48:6.4000001 49:8.3999996 50:10.8 51:0.80000001 52:6 53:4 54:2.8 55:5.5999999 56:6.8000002 57:5.1999998 58:4.8000002 59:1.2 60:3.2 #
-0.00010000000000000000479217360238593 1:12 2:0 3:0 4:0 5:4 6:4 7:4 8:12 9:0 10:12 11:4 12:4 13:8 14:4 15:0 16:12 17:12 18:4 19:0 20:4 21:4 22:0 23:0 24:0 25:8 26:0 27:0 28:12 29:0 30:32 31:8 32:0 33:16 34:0 35:0 36:4 37:16 38:0 39:0 40:0 41:5.3899999 42:0 43:0 44:2.02 45:4.04 46:4.04 47:1.01 48:8.4200001 49:4.04 50:17.85 51:7.4099998 52:6.4000001 53:5.7199998 54:3.03 55:1.35 56:8.0799999 57:12.12 58:2.3599999 59:3.7 60:3.03 #
-0.00010000000000000000479217360238593 1:12 2:0 3:4 4:4 5:8 6:8 7:0 8:12 9:0 10:4 11:4 12:4 13:8 14:4 15:4 16:8 17:8 18:4 19:0 20:4 21:0 22:0 23:4 24:4 25:12 26:16 27:0 28:0 29:12 30:12 31:4 32:4 33:0 34:4 35:4 36:0 37:4 38:16 39:0 40:4 41:8.46 42:0.76999998 43:2.6900001 44:3.8499999 45:5.3800001 46:7.6900001 47:1.54 48:6.1500001 49:9.2299995 50:9.2299995 51:2.3099999 52:3.46 53:5.3800001 54:3.0799999 55:4.23 56:5.3800001 57:6.54 58:10 59:1.15 60:3.46 #
-0.00010000000000000000479217360238593 1:20 2:0 3:4 4:0 5:4 6:16 7:0 8:4 9:12 10:0 11:4 12:0 13:8 14:0 15:4 16:12 17:8 18:4 19:0 20:0 21:4 22:0 23:0 24:4 25:12 26:8 27:4 28:4 29:8 30:16 31:4 32:4 33:4 34:4 35:4 36:4 37:8 38:4 39:0 40:4 41:10.23 42:1.14 43:3.4100001 44:3.4100001 45:5.3000002 46:10.61 47:0.75999999 48:4.9200001 49:4.5500002 50:11.36 51:3.4100001 52:2.6500001 53:3.4100001 54:3.03 55:6.8200002 56:4.9200001 57:8.71 58:6.4400001 59:0.75999999 60:4.1700001 #
0.00069999999999999999288763374849509 1:4 2:0 3:16 4:4 5:0 6:12 7:0 8:4 9:0 10:8 11:4 12:0 13:0 14:4 15:12 16:8 17:8 18:12 19:0 20:4 21:12 22:8 23:4 24:4 25:4 26:4 27:4 28:8 29:8 30:0 31:0 32:0 33:8 34:12 35:8 36:12 37:0 38:0 39:0 40:4 41:4.6500001 42:2.6900001 43:8.5600004 44:7.0900002 45:5.3800001 46:7.8200002 47:3.4200001 48:5.8699999 49:10.27 50:7.8200002 51:0.73000002 52:6.8499999 53:4.1599998 54:1.47 55:2.6900001 56:6.5999999 57:5.8699999 58:4.4000001 59:0.98000002 60:2.6900001 #
0.00069999999999999999288763374849509 1:4 2:0 3:4 4:4 5:4 6:0 7:4 8:0 9:0 10:8 11:8 12:4 13:4 14:12 15:4 16:12 17:8 18:4 19:4 20:12 21:8 22:0 23:4 24:4 25:12 26:8 27:0 28:8 29:4 30:0 31:0 32:8 33:8 34:8 35:0 36:8 37:12 38:4 39:0 40:4 41:3.1600001 42:1.13 43:6.0900002 44:4.29 45:5.4200001 46:3.3900001 47:2.26 48:4.9699998 49:6.3200002 50:12.87 51:0.89999998 52:7.9000001 53:3.3900001 54:2.9300001 55:4.29 56:13.77 57:8.8000002 58:2.9300001 59:1.58 60:3.6099999 #
-0.00010000000000000000479217360238593 1:8 2:0 3:4 4:0 5:12 6:4 7:0 8:0 9:4 10:8 11:4 12:0 13:0 14:12 15:8 16:12 17:0 18:12 19:8 20:4 21:24 22:0 23:4 24:4 25:4 26:0 27:0 28:0 29:20 30:4 31:0 32:0 33:0 34:24 35:0 36:4 37:8 38:4 39:0 40:0 41:7.6900001 42:1.1799999 43:2.96 44:8.8800001 45:3.55 46:2.96 47:2.3699999 48:2.96 49:7.0999999 50:8.2799997 51:2.3699999 52:5.3299999 53:4.1399999 54:2.96 55:7.0999999 56:7.0999999 57:8.2799997 58:9.4700003 59:2.3699999 60:2.96 #
-0.00010000000000000000479217360238593 1:8 2:0 3:0 4:0 5:0 6:20 7:0 8:0 9:0 10:16 11:4 12:0 13:12 14:0 15:8 16:12 17:8 18:8 19:4 20:0 21:4 22:8 23:0 24:8 25:0 26:16 27:0 28:8 29:0 30:4 31:4 32:0 33:20 34:4 35:8 36:12 37:0 38:4 39:0 40:0 41:8.1899996 42:0.57999998 43:4.0900002 44:11.11 45:4.0900002 46:7.02 47:3.51 48:4.6799998 49:1.75 50:12.87 51:0.57999998 52:0 53:4.6799998 54:2.9200001 55:11.7 56:9.3599997 57:3.51 58:4.6799998 59:1.75 60:2.9200001 #
-9.8176278674428968037957154990636e-06 1:0 2:0 3:0 4:0 5:12 6:16 7:4 8:4 9:0 10:20 11:4 12:0 13:16 14:0 15:16 16:0 17:0 18:8 19:0 20:0 21:16 22:0 23:4 24:4 25:0 26:4 27:8 28:0 29:12 30:4 31:0 32:0 33:24 34:4 35:8 36:8 37:4 38:0 39:0 40:0 41:9.1999998 42:2.1900001 43:2.6300001 44:5.8400002 45:4.0900002 46:9.3400002 47:2.1900001 48:2.9200001 49:2.6300001 50:13.72 51:2.48 52:2.1900001 53:3.5 54:4.8200002 55:7.0100002 56:7.1500001 57:5.8400002 58:9.1999998 59:1.3099999 60:1.75 #
-0.00010000000000000000479217360238593 1:4 2:0 3:8 4:0 5:4 6:0 7:0 8:8 9:4 10:8 11:4 12:4 13:16 14:12 15:4 16:8 17:8 18:4 19:0 20:4 21:20 22:0 23:4 24:4 25:4 26:4 27:0 28:0 29:4 30:0 31:0 32:8 33:16 34:4 35:0 36:20 37:8 38:4 39:0 40:0 41:6.77 42:6.02 43:4.5100002 44:8.2700005 45:3.76 46:4.5100002 47:2.26 48:4.5100002 49:8.2700005 50:7.52 51:2.26 52:6.77 53:6.77 54:4.5100002 55:7.52 56:3.76 57:2.26 58:4.5100002 59:3.01 60:2.26 #
-0.00010000000000000000479217360238593 1:4 2:0 3:0 4:0 5:0 6:32 7:8 8:4 9:4 10:8 11:8 12:4 13:8 14:4 15:4 16:0 17:8 18:0 19:0 20:4 21:16 22:0 23:0 24:16 25:4 26:8 27:4 28:4 29:4 30:4 31:4 32:12 33:0 34:4 35:8 36:4 37:0 38:0 39:4 40:4 41:8.7700005 42:0 43:1.75 44:0 45:7.02 46:12.28 47:1.75 48:7.02 49:1.75 50:5.2600002 51:1.75 52:7.02 53:5.2600002 54:5.2600002 55:7.02 56:8.7700005 57:3.51 58:5.2600002 59:3.51 60:7.02 #
0.00069999999999999999288763374849509 1:16 2:4 3:0 4:0 5:4 6:8 7:4 8:0 9:0 10:4 11:4 12:0 13:4 14:0 15:8 16:12 17:8 18:16 19:8 20:0 21:4 22:0 23:0 24:8 25:0 26:4 27:4 28:0 29:4 30:32 31:0 32:8 33:0 34:0 35:8 36:8 37:8 38:8 39:0 40:4 41:6.1300001 42:1.9400001 43:3.23 44:2.5799999 45:4.52 46:4.8400002 47:5.48 48:6.4499998 49:7.0999999 50:14.84 51:2.5799999 52:2.5799999 53:4.8400002 54:5.1599998 55:8.0600004 56:5.1599998 57:5.48 58:3.23 59:2.26 60:3.55 #
-0.00010000000000000000479217360238593 1:8 2:0 3:4 4:0 5:0 6:0 7:0 8:8 9:12 10:16 11:8 12:0 13:4 14:4 15:8 16:12 17:4 18:12 19:0 20:0 21:12 22:0 23:16 24:8 25:4 26:4 27:0 28:16 29:12 30:12 31:0 32:4 33:0 34:0 35:4 36:0 37:4 38:4 39:0 40:0 41:8.9300003 42:0 43:3.5699999 44:5.3600001 45:3.5699999 46:12.5 47:0 48:1.79 49:8.9300003 50:7.1399999 51:0 52:7.1399999 53:7.1399999 54:8.9300003 55:0 56:3.5699999 57:3.5699999 58:16.07 59:0 60:1.79 #
0.00069999999999999999288763374849509 1:0 2:0 3:4 4:8 5:8 6:0 7:4 8:12 9:8 10:16 11:4 12:0 13:4 14:0 15:4 16:20 17:8 18:0 19:0 20:0 21:4 22:0 23:0 24:0 25:4 26:4 27:4 28:0 29:0 30:24 31:0 32:12 33:12 34:0 35:4 36:12 37:4 38:8 39:4 40:4 41:10 42:0 43:0 44:0 45:10 46:10 47:10 48:10 49:0 50:0 51:0 52:10 53:10 54:0 55:0 56:0 57:0 58:10 59:10 60:10 #
-0.00010000000000000000479217360238593 1:20 2:0 3:0 4:4 5:0 6:0 7:0 8:12 9:8 10:4 11:4 12:4 13:4 14:0 15:8 16:24 17:0 18:4 19:0 20:4 21:12 22:0 23:12 24:12 25:4 26:4 27:0 28:4 29:4 30:12 31:0 32:4 33:8 34:0 35:0 36:4 37:0 38:12 39:0 40:8 41:11.11 42:0.31 43:2.1600001 44:7.4099998 45:5.25 46:6.79 47:1.23 48:4.3200002 49:6.48 50:9.8800001 51:0 52:5.5599999 53:4.6300001 54:3.4000001 55:1.85 56:12.35 57:7.4099998 58:7.7199998 59:0 60:2.1600001 #
-0.00010000000000000000479217360238593 1:16 2:0 3:0 4:8 5:0 6:12 7:0 8:4 9:4 10:8 11:4 12:0 13:4 14:4 15:8 16:16 17:0 18:12 19:0 20:0 21:4 22:0 23:0 24:8 25:0 26:12 27:0 28:0 29:0 30:16 31:8 32:4 33:4 34:4 35:4 36:4 37:4 38:8 39:8 40:12 41:6.02 42:1.2 43:2.01 44:4.8200002 45:7.23 46:9.2399998 47:0.80000001 48:7.6300001 49:7.6300001 50:9.6400003 51:2.4100001 52:4.02 53:6.02 54:4.4200001 55:4.02 56:4.02 57:5.6199999 58:8.0299997 59:0.80000001 60:4.4200001 #
-0.00010000000000000000479217360238593 1:16 2:0 3:0 4:0 5:4 6:4 7:0 8:0 9:12 10:20 11:12 12:4 13:4 14:0 15:4 16:16 17:0 18:4 19:0 20:0 21:8 22:0 23:0 24:0 25:4 26:16 27:0 28:4 29:4 30:24 31:0 32:0 33:0 34:0 35:4 36:0 37:16 38:8 39:0 40:12 41:8.1099997 42:0 43:0.68000001 44:4.0500002 45:5.4099998 46:6.0799999 47:3.3800001 48:7.4299998 49:6.0799999 50:14.86 51:1.35 52:4.0500002 53:2.7 54:3.3800001 55:4.73 56:10.14 57:8.1099997 58:2.7 59:2.7 60:4.0500002 #
-0.00010000000000000000479217360238593 1:16 2:0 3:4 4:0 5:4 6:4 7:0 8:4 9:4 10:4 11:8 12:8 13:0 14:12 15:0 16:8 17:12 18:8 19:0 20:4 21:0 22:0 23:0 24:4 25:8 26:16 27:0 28:4 29:0 30:16 31:0 32:0 33:0 34:4 35:4 36:20 37:8 38:12 39:0 40:4 41:8.8800001 42:1.16 43:2.3199999 44:3.0899999 45:7.3400002 46:4.6300001 47:1.54 48:7.7199998 49:8.1099997 50:8.4899998 51:3.0899999 52:6.1799998 53:3.47 54:5.4099998 55:3.8599999 56:4.6300001 57:10.81 58:5.79 59:0.38999999 60:3.0899999 #
-0.00010000000000000000479217360238593 1:8 2:4 3:4 4:12 5:0 6:8 7:0 8:0 9:16 10:12 11:4 12:0 13:12 14:0 15:0 16:4 17:0 18:16 19:0 20:0 21:4 22:4 23:0 24:4 25:8 26:0 27:12 28:0 29:12 30:16 31:0 32:0 33:0 34:0 35:8 36:12 37:0 38:4 39:0 40:16 41:2.27 42:0 43:2.27 44:0 45:6.8200002 46:11.36 47:0 48:11.36 49:6.8200002 50:4.5500002 51:4.5500002 52:4.5500002 53:4.5500002 54:2.27 55:6.8200002 56:11.36 57:2.27 58:4.5500002 59:2.27 60:11.36 #
0.00069999999999999999288763374849509 1:20 2:0 3:0 4:0 5:0 6:8 7:0 8:12 9:0 10:12 11:4 12:4 13:4 14:4 15:4 16:12 17:12 18:0 19:0 20:4 21:20 22:0 23:16 24:8 25:4 26:8 27:0 28:4 29:8 30:0 31:0 32:4 33:0 34:0 35:0 36:12 37:0 38:16 39:0 40:0 41:10.53 42:0 43:3.01 44:10.53 45:3.76 46:2.26 47:0.75 48:6.77 49:8.2700005 50:8.2700005 51:3.01 52:3.01 53:6.77 54:7.52 55:6.02 56:5.2600002 57:4.5100002 58:4.5100002 59:0 60:5.2600002 #
-0.00010000000000000000479217360238593 1:4 2:0 3:4 4:0 5:4 6:12 7:0 8:20 9:4 10:8 11:8 12:0 13:4 14:0 15:8 16:4 17:12 18:8 19:0 20:0 21:8 22:0 23:4 24:16 25:8 26:4 27:4 28:4 29:20 30:4 31:4 32:8 33:0 34:4 35:8 36:0 37:0 38:0 39:0 40:4 41:11.11 42:0 43:0 44:0 45:0 46:11.11 47:0 48:0 49:0 50:0 51:11.11 52:0 53:0 54:0 55:0 56:11.11 57:0 58:11.11 59:33.330002 60:11.11 #
-0.00010000000000000000479217360238593 1:20 2:0 3:0 4:0 5:0 6:12 7:0 8:0 9:0 10:16 11:4 12:0 13:8 14:0 15:12 16:16 17:0 18:8 19:4 20:0 21:8 22:0 23:28 24:12 25:8 26:0 27:4 28:8 29:4 30:12 31:0 32:4 33:4 34:0 35:0 36:4 37:0 38:4 39:0 40:0 41:5.2600002 42:0 43:3.51 44:0 45:5.2600002 46:10.53 47:0 48:7.02 49:5.2600002 50:8.7700005 51:1.75 52:0 53:7.02 54:0 55:8.7700005 56:15.79 57:3.51 58:14.04 59:1.75 60:1.75 #
-0.00010000000000000000479217360238593 1:0 2:4 3:0 4:0 5:4 6:12 7:4 8:4 9:4 10:8 11:4 12:0 13:12 14:0 15:16 16:12 17:12 18:0 19:4 20:0 21:8 22:0 23:12 24:4 25:4 26:0 27:4 28:0 29:0 30:8 31:4 32:4 33:12 34:12 35:12 36:12 37:0 38:4 39:0 40:0 41:6.0100002 42:2.8299999 43:5.6500001 44:4.9499998 45:4.2399998 46:6.71 47:2.8299999 48:3.8900001 49:4.2399998 50:11.31 51:0.70999998 52:2.8299999 53:7.0700002 54:5.3000002 55:8.1300001 56:7.77 57:3.53 58:8.1300001 59:2.1199999 60:1.77 #
-0.00010000000000000000479217360238593 1:4 2:0 3:4 4:0 5:12 6:12 7:0 8:4 9:0 10:16 11:8 12:8 13:0 14:0 15:8 16:8 17:4 18:8 19:0 20:4 21:8 22:0 23:8 24:16 25:4 26:0 27:0 28:8 29:4 30:12 31:0 32:12 33:4 34:0 35:4 36:8 37:4 38:8 39:0 40:0 41:13.04 42:2.1700001 43:2.1700001 44:15.22 45:2.1700001 46:0 47:2.1700001 48:0 49:21.74 50:8.6999998 51:0 52:4.3499999 53:6.52 54:4.3499999 55:0 56:2.1700001 57:2.1700001 58:8.6999998 59:0 60:4.3499999 #
-0.00010000000000000000479217360238593 1:20 2:8 3:0 4:12 5:0 6:8 7:0 8:0 9:0 10:8 11:4 12:0 13:0 14:12 15:8 16:0 17:4 18:8 19:0 20:8 21:16 22:4 23:0 24:8 25:4 26:0 27:0 28:0 29:0 30:8 31:0 32:0 33:20 34:16 35:4 36:8 37:4 38:8 39:0 40:0 41:11.67 42:8.3299999 43:1.67 44:10 45:3.3299999 46:1.67 47:5 48:6.6700001 49:3.3299999 50:3.3299999 51:3.3299999 52:3.3299999 53:5 54:10 55:10 56:6.6700001 57:1.67 58:1.67 59:1.67 60:1.67 #
-0.00010000000000000000479217360238593 1:8 2:0 3:4 4:4 5:0 6:4 7:0 8:0 9:12 10:0 11:4 12:8 13:8 14:16 15:0 16:24 17:8 18:0 19:0 20:0 21:12 22:0 23:4 24:4 25:8 26:20 27:0 28:4 29:4 30:4 31:0 32:0 33:0 34:0 35:12 36:16 37:0 38:8 39:0 40:4 41:4.2600002 42:0 43:4.2600002 44:0 45:10.64 46:10.64 47:0 48:6.3800001 49:6.3800001 50:10.64 51:4.2600002 52:2.1300001 53:2.1300001 54:0 55:4.2600002 56:6.3800001 57:8.5100002 58:14.89 59:4.2600002 60:0 #
-0.00010000000000000000479217360238593 1:20 2:0 3:8 4:8 5:0 6:4 7:0 8:0 9:0 10:0 11:4 12:4 13:12 14:0 15:0 16:24 17:12 18:4 19:0 20:0 21:16 22:8 23:4 24:4 25:16 26:8 27:4 28:8 29:8 30:4 31:0 32:0 33:0 34:0 35:4 36:4 37:8 38:4 39:0 40:0 41:11.38 42:3.25 43:2.4400001 44:4.0700002 45:4.0700002 46:11.38 47:1.63 48:5.6900001 49:3.25 50:4.8800001 51:6.5 52:4.0700002 53:3.25 54:5.6900001 55:5.6900001 56:4.8800001 57:8.1300001 58:8.1300001 59:1.63 60:0 #
-0.00010000000000000000479217360238593 1:28 2:0 3:4 4:0 5:0 6:8 7:0 8:0 9:0 10:0 11:4 12:8 13:12 14:4 15:0 16:24 17:4 18:4 19:0 20:0 21:12 22:0 23:12 24:0 25:8 26:0 27:0 28:0 29:4 30:0 31:4 32:0 33:4 34:0 35:12 36:12 37:4 38:12 39:16 40:0 41:6.3099999 42:2.7 43:6.7600002 44:7.21 45:2.25 46:5.4099998 47:3.1500001 48:4.9499998 49:6.7600002 50:4.5 51:2.7 52:4.0500002 53:8.1099997 54:4.0500002 55:6.7600002 56:7.6599998 57:4.5 58:4.0500002 59:3.5999999 60:4.5 #
-0.00010000000000000000479217360238593 1:8 2:0 3:4 4:12 5:0 6:24 7:28 8:0 9:4 10:4 11:8 12:0 13:4 14:0 15:0 16:0 17:0 18:0 19:0 20:4 21:16 22:0 23:8 24:4 25:12 26:12 27:8 28:0 29:8 30:8 31:0 32:4 33:0 34:4 35:0 36:4 37:0 38:8 39:0 40:4 41:9.2600002 42:0 43:1.85 44:5.5599999 45:5.5599999 46:11.11 47:0 48:5.5599999 49:9.2600002 50:7.4099998 51:1.85 52:3.7 53:5.5599999 54:3.7 55:9.2600002 56:1.85 57:5.5599999 58:3.7 59:7.4099998 60:1.85 #
-0.00010000000000000000479217360238593 1:12 2:0 3:20 4:0 5:4 6:12 7:0 8:0 9:0 10:4 11:4 12:0 13:20 14:4 15:0 16:8 17:8 18:4 19:0 20:0 21:4 22:0 23:8 24:0 25:0 26:8 27:0 28:8 29:0 30:4 31:0 32:0 33:8 34:4 35:16 36:12 37:8 38:20 39:0 40:0 41:9 42:1.67 43:3.77 44:3.3499999 45:5.8600001 46:9.8299999 47:1.46 48:6.0700002 49:0.83999997 50:15.06 51:1.46 52:2.0899999 53:5.8600001 54:1.88 55:6.2800002 56:9 57:4.3899999 58:7.7399998 59:1.88 60:2.51 #
-0.00010000000000000000479217360238593 1:4 2:0 3:4 4:8 5:8 6:8 7:0 8:0 9:0 10:16 11:4 12:0 13:12 14:0 15:4 16:8 17:0 18:12 19:4 20:8 21:8 22:0 23:0 24:8 25:0 26:8 27:0 28:0 29:4 30:24 31:8 32:4 33:12 34:0 35:8 36:0 37:4 38:4 39:4 40:4 41:8.5200005 42:1.14 43:3.4100001 44:6.25 45:3.4100001 46:6.25 47:2.8399999 48:4.5500002 49:9.0900002 50:11.36 51:5.1100001 52:2.8399999 53:5.1100001 54:5.1100001 55:3.98 56:5.6799998 57:5.6799998 58:5.6799998 59:1.7 60:2.27 #
-0.00010000000000000000479217360238593 1:4 2:4 3:0 4:4 5:4 6:24 7:0 8:0 9:0 10:16 11:4 12:0 13:4 14:0 15:16 16:8 17:4 18:4 19:4 20:0 21:12 22:0 23:0 24:12 25:0 26:12 27:4 28:0 29:4 30:8 31:0 32:4 33:4 34:4 35:8 36:12 37:12 38:4 39:0 40:0 41:7.1900001 42:2.1900001 43:3.1199999 44:7.1900001 45:3.4400001 46:6.5599999 47:4.0599999 48:4.0599999 49:5.3099999 50:9.3800001 51:1.5599999 52:3.1199999 53:5.3099999 54:4.0599999 55:4.6900001 56:9.0600004 57:5.9400001 58:8.1199999 59:2.1900001 60:3.4400001 #
-0.00010000000000000000479217360238593 1:8 2:0 3:0 4:0 5:4 6:8 7:0 8:8 9:0 10:16 11:4 12:4 13:4 14:8 15:12 16:16 17:8 18:0 19:0 20:0 21:12 22:4 23:0 24:0 25:4 26:0 27:0 28:8 29:12 30:8 31:8 32:4 33:4 34:4 35:4 36:12 37:8 38:8 39:0 40:0 41:9.3100004 42:2.5799999 43:6.3000002 44:6.4499998 45:3.72 46:7.3099999 47:1.29 48:5.3000002 49:5.5900002 50:7.02 51:2.5799999 52:4.4400001 53:6.02 54:3.01 55:5.5900002 56:6.3000002 57:4.73 58:9.46 59:0.86000001 60:2.1500001 #
-0.00010000000000000000479217360238593 1:4 2:0 3:4 4:4 5:4 6:12 7:0 8:0 9:0 10:28 11:4 12:0 13:0 14:0 15:16 16:12 17:8 18:4 19:0 20:0 21:4 22:0 23:4 24:4 25:4 26:8 27:4 28:0 29:4 30:20 31:0 32:0 33:8 34:4 35:12 36:4 37:12 38:4 39:4 40:0 41:8.1000004 42:2.95 43:4.79 44:4.79 45:4.5999999 46:6.8099999 47:3.5 48:3.1300001 49:3.3099999 50:10.5 51:0.37 52:2.5799999 53:7 54:4.0500002 55:6.4499998 56:7.5500002 57:5.3400002 58:7.1799998 59:2.76 60:4.2399998 #
-0.00010000000000000000479217360238593 1:0 2:8 3:0 4:0 5:4 6:20 7:4 8:4 9:0 10:4 11:4 12:0 13:16 14:0 15:12 16:4 17:0 18:4 19:16 20:0 21:4 22:0 23:4 24:8 25:8 26:8 27:4 28:4 29:8 30:12 31:0 32:4 33:8 34:0 35:0 36:4 37:8 38:8 39:0 40:8 41:9.7299995 42:1.77 43:3.0999999 44:7.52 45:5.3099999 46:6.1900001 47:1.33 48:4.8699999 49:4.4200001 50:5.75 51:1.77 52:3.98 53:7.96 54:4.8699999 55:8.8500004 56:4.4200001 57:5.75 58:6.6399999 59:1.77 60:3.98 #
-0.00010000000000000000479217360238593 1:4 2:4 3:0 4:0 5:0 6:0 7:0 8:16 9:8 10:4 11:16 12:4 13:4 14:8 15:12 16:8 17:12 18:0 19:0 20:0 21:16 22:4 23:0 24:0 25:24 26:12 27:0 28:4 29:8 30:4 31:0 32:0 33:4 34:4 35:0 36:4 37:0 38:12 39:0 40:4 41:3.5699999 42:0 43:3.5699999 44:3.5699999 45:7.1399999 46:7.1399999 47:7.1399999 48:3.5699999 49:14.29 50:3.5699999 51:0 52:3.5699999 53:7.1399999 54:0 55:7.1399999 56:7.1399999 57:3.5699999 58:10.71 59:0 60:7.1399999 #
-0.00010000000000000000479217360238593 1:4 2:0 3:8 4:12 5:4 6:0 7:0 8:12 9:8 10:4 11:4 12:4 13:12 14:4 15:4 16:0 17:4 18:12 19:0 20:4 21:8 22:0 23:4 24:4 25:0 26:8 27:0 28:4 29:24 30:4 31:0 32:16 33:0 34:0 35:0 36:0 37:8 38:12 39:8 40:0 41:7.0999999 42:1.09 43:4.9200001 44:7.0999999 45:4.3699999 46:4.3699999 47:1.64 48:5.46 49:6.0100002 50:8.1999998 51:3.28 52:4.3699999 53:3.28 54:2.73 55:8.7399998 56:7.6500001 57:8.1999998 58:5.46 59:1.64 60:4.3699999 #
-0.00010000000000000000479217360238593 1:8 2:0 3:8 4:0 5:0 6:16 7:4 8:12 9:12 10:4 11:4 12:0 13:4 14:4 15:4 16:4 17:0 18:12 19:0 20:4 21:20 22:0 23:4 24:8 25:8 26:12 27:8 28:0 29:8 30:0 31:8 32:8 33:0 34:0 35:0 36:4 37:0 38:8 39:4 40:0 41:7.5599999 42:0.83999997 43:5.04 44:8.3999996 45:2.52 46:7.5599999 47:2.52 48:10.08 49:5.04 50:9.2399998 51:4.1999998 52:3.3599999 53:4.1999998 54:2.52 55:5.04 56:4.1999998 57:5.8800001 58:8.3999996 59:1.6799999 60:1.6799999 #
-0.00010000000000000000479217360238593 1:8 2:0 3:4 4:0 5:4 6:0 7:0 8:8 9:16 10:8 11:4 12:4 13:0 14:8 15:8 16:12 17:4 18:8 19:4 20:0 21:16 22:0 23:4 24:8 25:4 26:8 27:4 28:8 29:16 30:4 31:8 32:4 33:0 34:0 35:8 36:4 37:0 38:4 39:0 40:0 41:5.1700001 42:0.61000001 43:6.0799999 44:6.0799999 45:4.2600002 46:4.5599999 47:3.3399999 48:5.7800002 49:8.21 50:9.7299995 51:2.1300001 52:4.8600001 53:5.1700001 54:3.95 55:3.95 56:8.8100004 57:4.8600001 58:7.9000001 59:0.91000003 60:3.6500001 #
-0.00010000000000000000479217360238593 1:12 2:0 3:0 4:0 5:0 6:8 7:0 8:4 9:8 10:12 11:16 12:4 13:8 14:4 15:8 16:4 17:4 18:8 19:0 20:0 21:0 22:0 23:12 24:0 25:4 26:16 27:0 28:8 29:24 30:8 31:4 32:4 33:0 34:4 35:4 36:0 37:0 38:12 39:0 40:0 41:4.8899999 42:1.11 43:4 44:6.6700001 45:7.1100001 46:6.6700001 47:2.6700001 48:4 49:5.3299999 50:9.5600004 51:2 52:5.7800002 53:4.4400001 54:3.3299999 55:5.7800002 56:9.3299999 57:5.5599999 58:7.1100001 59:1.78 60:2.8900001 #
-0.00010000000000000000479217360238593 1:24 2:4 3:4 4:0 5:0 6:8 7:4 8:0 9:0 10:16 11:4 12:0 13:4 14:0 15:16 16:4 17:8 18:4 19:0 20:0 21:0 22:0 23:4 24:16 25:0 26:8 27:0 28:8 29:4 30:20 31:0 32:4 33:8 34:4 35:4 36:4 37:8 38:8 39:0 40:0 41:10 42:2 43:8 44:7 45:3 46:4 47:2 48:7 49:6 50:5 51:1 52:3 53:7 54:2 55:8 56:4 57:6 58:8 59:2 60:5 #
-0.00010000000000000000479217360238593 1:16 2:12 3:0 4:0 5:4 6:16 7:0 8:4 9:0 10:12 11:4 12:0 13:4 14:4 15:16 16:4 17:0 18:0 19:4 20:0 21:12 22:0 23:8 24:12 25:0 26:0 27:0 28:8 29:0 30:16 31:0 32:4 33:4 34:8 35:4 36:12 37:4 38:0 39:4 40:4 41:6.4499998 42:0.74000001 43:5.96 44:9.6800003 45:3.97 46:6.6999998 47:1.49 48:4.96 49:10.92 50:9.6800003 51:2.48 52:2.98 53:1.99 54:3.97 55:5.46 56:8.1899996 57:4.96 58:6.1999998 59:0.99000001 60:2.23 #
-0.00010000000000000000479217360238593 1:12 2:0 3:4 4:0 5:4 6:0 7:4 8:4 9:12 10:12 11:8 12:4 13:8 14:0 15:4 16:12 17:4 18:4 19:4 20:0 21:16 22:0 23:0 24:12 25:0 26:4 27:0 28:0 29:4 30:24 31:0 32:0 33:8 34:4 35:12 36:4 37:4 38:4 39:0 40:4 41:5.48 42:0 43:10.96 44:5.48 45:1.37 46:1.37 47:2.74 48:1.37 49:2.74 50:16.440001 51:6.8499999 52:5.48 53:5.48 54:6.8499999 55:12.33 56:4.1100001 57:1.37 58:2.74 59:0 60:6.8499999 #
-0.00010000000000000000479217360238593 1:24 2:0 3:0 4:0 5:0 6:0 7:0 8:8 9:4 10:12 11:4 12:4 13:4 14:0 15:16 16:12 17:12 18:0 19:0 20:0 21:12 22:0 23:0 24:16 25:8 26:4 27:0 28:0 29:12 30:16 31:0 32:0 33:0 34:0 35:4 36:16 37:8 38:4 39:0 40:0 41:10.51 42:0.2 43:4.2399998 44:6.6700001 45:2.6300001 46:9.29 47:1.21 48:5.6599998 49:5.0500002 50:11.72 51:0.40000001 52:3.4300001 53:4.04 54:5.25 55:6.0599999 56:7.27 57:4.4400001 58:8.6899996 59:0.40000001 60:2.8299999 #
-0.00010000000000000000479217360238593 1:4 2:0 3:0 4:0 5:12 6:0 7:0 8:8 9:8 10:16 11:4 12:4 13:12 14:4 15:12 16:8 17:4 18:0 19:0 20:4 21:12 22:0 23:8 24:32 25:0 26:4 27:0 28:0 29:4 30:16 31:0 32:0 33:4 34:4 35:4 36:4 37:4 38:4 39:0 40:0 41:8 42:2 43:4 44:10 45:6 46:8 47:0 48:8 49:6 50:7 51:3 52:4 53:7 54:2 55:5 56:5 57:5 58:6 59:1 60:3 #
-0.00010000000000000000479217360238593 1:12 2:0 3:0 4:12 5:4 6:4 7:0 8:4 9:4 10:0 11:12 12:0 13:8 14:8 15:4 16:8 17:8 18:8 19:0 20:4 21:4 22:4 23:4 24:0 25:0 26:12 27:0 28:0 29:8 30:8 31:4 32:4 33:8 34:8 35:4 36:8 37:0 38:16 39:4 40:4 41:6.0599999 42:9.0900002 43:3.03 44:12.12 45:6.0599999 46:3.03 47:0 48:3.03 49:12.12 50:9.0900002 51:3.03 52:12.12 53:0 54:3.03 55:3.03 56:3.03 57:3.03 58:6.0599999 59:0 60:3.03 #
-0.00010000000000000000479217360238593 1:4 2:0 3:0 4:8 5:8 6:4 7:0 8:16 9:4 10:0 11:4 12:4 13:0 14:4 15:12 16:12 17:12 18:4 19:0 20:4 21:4 22:0 23:8 24:4 25:0 26:4 27:0 28:4 29:8 30:12 31:0 32:0 33:8 34:8 35:0 36:12 37:8 38:20 39:0 40:0 41:8.3500004 42:0.50999999 43:2.53 44:7.8499999 45:3.04 46:7.8499999 47:1.27 48:5.8200002 49:6.5799999 50:9.1099997 51:0.75999999 52:6.8400002 53:2.53 54:3.29 55:3.04 56:10.89 57:8.6099997 58:8.3500004 59:0.25 60:2.53 #
-0.00010000000000000000479217360238593 1:4 2:0 3:0 4:0 5:4 6:8 7:4 8:8 9:8 10:12 11:8 12:8 13:4 14:8 15:0 16:8 17:12 18:0 19:0 20:4 21:0 22:0 23:4 24:16 25:4 26:0 27:0 28:4 29:16 30:16 31:4 32:4 33:4 34:12 35:0 36:12 37:0 38:0 39:0 40:4 41:7.1399999 42:0.88999999 43:9.8199997 44:7.1399999 45:2.6800001 46:2.6800001 47:0.88999999 48:5.3600001 49:11.61 50:11.61 51:0.88999999 52:4.46 53:3.5699999 54:0.88999999 55:7.1399999 56:8.04 57:4.46 58:1.79 59:4.46 60:4.46 #
-0.00010000000000000000479217360238593 1:16 2:0 3:0 4:4 5:4 6:4 7:0 8:8 9:8 10:8 11:4 12:4 13:0 14:0 15:12 16:20 17:0 18:4 19:0 20:4 21:20 22:0 23:4 24:16 25:0 26:0 27:0 28:4 29:4 30:12 31:0 32:4 33:0 34:8 35:4 36:12 37:0 38:12 39:0 40:0 41:10 42:0.91000003 43:0.91000003 44:8.1800003 45:5.4499998 46:7.27 47:1.8200001 48:3.6400001 49:6.3600001 50:10.91 51:0.91000003 52:5.4499998 53:5.4499998 54:5.4499998 55:0.91000003 56:10.91 57:4.5500002 58:10 59:0 60:0.91000003 #
-0.00010000000000000000479217360238593 1:20 2:0 3:12 4:0 5:4 6:12 7:0 8:8 9:12 10:0 11:8 12:0 13:0 14:0 15:4 16:8 17:4 18:4 19:4 20:0 21:0 22:0 23:16 24:16 25:8 26:4 27:4 28:4 29:16 30:4 31:0 32:8 33:4 34:0 35:4 36:0 37:0 38:0 39:4 40:8 41:6.7800002 42:0 43:7.6300001 44:13.56 45:3.3900001 46:2.54 47:0 48:5.9299998 49:12.71 50:7.6300001 51:0.85000002 52:1.6900001 53:4.2399998 54:4.2399998 55:5.0799999 56:5.9299998 57:5.0799999 58:6.7800002 59:0.85000002 60:5.0799999 #
-0.00010000000000000000479217360238593 1:8 2:4 3:0 4:0 5:0 6:16 7:0 8:0 9:12 10:20 11:4 12:0 13:8 14:0 15:4 16:4 17:4 18:16 19:0 20:0 21:4 22:0 23:12 24:0 25:8 26:12 27:0 28:4 29:4 30:8 31:4 32:4 33:8 34:4 35:4 36:12 37:0 38:12 39:0 40:0 41:4.0900002 42:1.23 43:6.1300001 44:4.5 45:3.6800001 46:7.98 47:1.4299999 48:6.3400002 49:9 50:11.04 51:2.45 52:7.3600001 53:4.6999998 54:3.0699999 55:4.5 56:6.9499998 57:6.1300001 58:5.52 59:0.81999999 60:3.0699999 #
-0.00010000000000000000479217360238593 1:8 2:4 3:8 4:4 5:4 6:0 7:0 8:0 9:0 10:24 11:4 12:0 13:8 14:4 15:8 16:4 17:4 18:8 19:8 20:0 21:12 22:4 23:8 24:0 25:0 26:12 27:8 28:0 29:4 30:16 31:0 32:4 33:4 34:4 35:0 36:8 37:4 38:8 39:4 40:0 41:6.2800002 42:1.9299999 43:4.5900002 44:5.8000002 45:3.6199999 46:8.9399996 47:1.9299999 48:7.4899998 49:7.25 50:10.63 51:2.6600001 52:2.6600001 53:6.04 54:4.5900002 55:5.0700002 56:7.25 57:3.6199999 58:7 59:0 60:2.6600001 #
-0.00010000000000000000479217360238593 1:8 2:0 3:4 4:0 5:4 6:12 7:0 8:0 9:4 10:16 11:4 12:4 13:4 14:8 15:8 16:8 17:0 18:8 19:4 20:4 21:4 22:0 23:4 24:0 25:8 26:4 27:0 28:8 29:8 30:20 31:0 32:4 33:4 34:8 35:8 36:12 37:4 38:4 39:0 40:0 41:8.3199997 42:1.88 43:5.04 44:5.8600001 45:3.1700001 46:5.6300001 47:3.4000001 48:4.4499998 49:6.6799998 50:9.2600002 51:2.5799999 52:2.1099999 53:5.8600001 54:5.2800002 55:4.4499998 56:6.4499998 57:6.3299999 58:6.9200001 59:3.05 60:3.28 #
-0.00010000000000000000479217360238593 1:16 2:0 3:0 4:0 5:4 6:20 7:0 8:4 9:8 10:16 11:4 12:0 13:0 14:4 15:0 16:4 17:8 18:12 19:0 20:0 21:4 22:4 23:8 24:8 25:0 26:8 27:0 28:8 29:4 30:12 31:4 32:4 33:8 34:0 35:12 36:4 37:4 38:8 39:0 40:0 41:7.98 42:1.1799999 43:5.9099998 44:7.0900002 45:2.8099999 46:6.5 47:2.22 48:4.8699999 49:5.6100001 50:9.6000004 51:2.8099999 52:3.25 53:4.4299998 54:3.25 55:6.0599999 56:6.6500001 57:5.9099998 58:8.4200001 59:1.33 60:4.1399999 #
-0.00010000000000000000479217360238593 1:8 2:4 3:4 4:0 5:4 6:16 7:0 8:4 9:8 10:16 11:4 12:4 13:12 14:4 15:0 16:4 17:0 18:8 19:0 20:0 21:20 22:4 23:0 24:4 25:16 26:4 27:0 28:0 29:4 30:12 31:4 32:12 33:8 34:0 35:0 36:0 37:4 38:4 39:4 40:0 41:6.3699999 42:1.59 43:3.1900001 44:3.98 45:6.77 46:11.16 47:0.80000001 48:5.98 49:5.98 50:9.1599998 51:3.5899999 52:1.59 53:7.5700002 54:3.98 55:5.5799999 56:4.7800002 57:6.77 58:6.3699999 59:0.80000001 60:3.98 #
-0.00010000000000000000479217360238593 1:32 2:0 3:0 4:0 5:4 6:8 7:0 8:0 9:0 10:4 11:8 12:0 13:0 14:0 15:12 16:4 17:16 18:4 19:4 20:4 21:0 22:0 23:0 24:16 25:12 26:4 27:0 28:4 29:16 30:4 31:0 32:8 33:0 34:4 35:4 36:4 37:8 38:8 39:8 40:0 41:7.5100002 42:1.34 43:6.0100002 44:5.0100002 45:4.1700001 46:6.1799998 47:2.1700001 48:5.1799998 49:6.3400002 50:9.6800003 51:2.6700001 52:5.1799998 53:5.3400002 54:3.3399999 55:4.3400002 56:6.5100002 57:6.6799998 58:7.6799998 59:1 60:3.6700001 #
-0.00010000000000000000479217360238593 1:20 2:0 3:0 4:0 5:4 6:0 7:0 8:0 9:8 10:8 11:4 12:0 13:0 14:4 15:12 16:24 17:8 18:8 19:0 20:0 21:20 22:0 23:4 24:12 25:0 26:8 27:4 28:8 29:4 30:8 31:0 32:4 33:0 34:4 35:0 36:8 37:8 38:8 39:0 40:0 41:8.5 42:0 43:4.5799999 44:5.23 45:5.23 46:5.23 47:2.6099999 48:5.23 49:6.54 50:7.8400002 51:3.27 52:1.96 53:10.46 54:3.9200001 55:0.64999998 56:9.8000002 57:7.8400002 58:9.1499996 59:0.64999998 60:1.3099999 #
-0.00010000000000000000479217360238593 1:20 2:0 3:0 4:8 5:0 6:8 7:0 8:4 9:4 10:8 11:4 12:0 13:8 14:4 15:8 16:8 17:0 18:8 19:0 20:8 21:12 22:0 23:8 24:8 25:0 26:8 27:4 28:4 29:16 30:8 31:0 32:4 33:4 34:0 35:0 36:4 37:12 38:4 39:0 40:4 41:12 42:0 43:3 44:4 45:4 46:8 47:2 48:7 49:7 50:8 51:2 52:1 53:5 54:4 55:10 56:8 57:4 58:7 59:1 60:3 #
-0.00010000000000000000479217360238593 1:12 2:0 3:0 4:4 5:0 6:4 7:4 8:0 9:8 10:12 11:4 12:0 13:0 14:4 15:8 16:8 17:4 18:20 19:4 20:4 21:8 22:0 23:4 24:8 25:8 26:16 27:4 28:0 29:8 30:0 31:0 32:0 33:8 34:4 35:4 36:8 37:4 38:4 39:12 40:0 41:7.6900001 42:1.62 43:5.6700001 44:7.6900001 45:5.2600002 46:8.5 47:2.4300001 48:2.8299999 49:4.8600001 50:8.9099998 51:2.02 52:2.8299999 53:6.48 54:1.62 55:6.8800001 56:6.8800001 57:4.4499998 58:7.6900001 59:1.62 60:4.0500002 #
-0.00010000000000000000479217360238593 1:20 2:0 3:4 4:8 5:0 6:4 7:0 8:4 9:0 10:20 11:4 12:0 13:4 14:0 15:16 16:4 17:4 18:8 19:0 20:0 21:8 22:0 23:12 24:12 25:8 26:4 27:4 28:4 29:0 30:4 31:0 32:0 33:0 34:4 35:0 36:12 37:12 38:8 39:0 40:8 41:8.5299997 42:1.09 43:6.5599999 44:8.4200001 45:2.3 46:7 47:2.3 48:5.9099998 49:7.9899998 50:10.28 51:1.75 52:3.8299999 53:3.8299999 54:3.0599999 55:4.5999999 56:6.7800002 57:5.6900001 58:7.5500002 59:0.44 60:2.0799999 #
-0.00010000000000000000479217360238593 1:8 2:4 3:0 4:4 5:4 6:28 7:4 8:0 9:4 10:12 11:4 12:4 13:0 14:8 15:0 16:0 17:12 18:4 19:0 20:0 21:4 22:0 23:4 24:8 25:0 26:0 27:0 28:12 29:0 30:16 31:0 32:4 33:4 34:8 35:8 36:4 37:12 38:8 39:0 40:8 41:9.5900002 42:2.21 43:0 44:5.54 45:5.9000001 46:7.75 47:1.11 48:6.27 49:5.9000001 50:9.2299995 51:2.21 52:3.3199999 53:4.0599999 54:4.0599999 55:6.27 56:8.4899998 57:6.27 58:6.27 59:0.37 60:5.1700001 #
-0.00010000000000000000479217360238593 1:4 2:8 3:8 4:8 5:0 6:4 7:4 8:0 9:0 10:8 11:4 12:8 13:12 14:12 15:0 16:4 17:8 18:4 19:0 20:4 21:8 22:0 23:0 24:8 25:8 26:0 27:0 28:12 29:0 30:8 31:4 32:8 33:4 34:0 35:8 36:12 37:8 38:8 39:0 40:4 41:6.8099999 42:0.93000001 43:2.79 44:4.3299999 45:6.8099999 46:6.5 47:2.79 48:7.4299998 49:4.9499998 50:10.84 51:2.1700001 52:2.79 53:5.2600002 54:4.3299999 55:4.9499998 56:8.3599997 57:7.4299998 58:5.2600002 59:0.93000001 60:4.3299999 #
-0.00010000000000000000479217360238593 1:8 2:0 3:0 4:0 5:0 6:20 7:0 8:4 9:0 10:28 11:4 12:0 13:16 14:0 15:8 16:8 17:0 18:4 19:0 20:0 21:0 22:0 23:8 24:8 25:4 26:12 27:4 28:12 29:0 30:12 31:0 32:0 33:0 34:4 35:16 36:8 37:4 38:4 39:0 40:4 41:8.29 42:1.38 43:6.9099998 44:4.6999998 45:3.8699999 46:5.52 47:5.25 48:6.6300001 49:4.6999998 50:10.77 51:2.76 52:2.21 53:5.52 54:3.5899999 55:8.0100002 56:5.52 57:5.8000002 58:4.9699998 59:0.28 60:3.3099999 #
-0.00010000000000000000479217360238593 1:8 2:0 3:4 4:16 5:4 6:8 7:0 8:4 9:0 10:12 11:4 12:0 13:8 14:8 15:12 16:4 17:4 18:4 19:0 20:0 21:0 22:4 23:0 24:20 25:4 26:4 27:4 28:12 29:4 30:4 31:0 32:0 33:4 34:8 35:4 36:8 37:8 38:4 39:0 40:8 41:6.9699998 42:1.39 43:1.74 44:4.1799998 45:7.3200002 46:5.23 47:0.69999999 48:6.9699998 49:4.5300002 50:10.8 51:3.48 52:3.8299999 53:6.27 54:4.1799998 55:5.9200001 56:9.7600002 57:5.5700002 58:7.3200002 59:1.74 60:2.0899999 #
-0.00010000000000000000479217360238593 1:12 2:0 3:24 4:0 5:0 6:4 7:0 8:8 9:0 10:8 11:4 12:20 13:0 14:0 15:0 16:16 17:4 18:0 19:0 20:0 21:12 22:4 23:0 24:8 25:12 26:4 27:0 28:8 29:16 30:8 31:0 32:0 33:12 34:0 35:4 36:12 37:0 38:0 39:0 40:0 41:13.12 42:3.1199999 43:5 44:1.25 45:7.5 46:12.5 47:3.1199999 48:3.1199999 49:5.6199999 50:12.5 51:0.62 52:1.88 53:3.1199999 54:4.3800001 55:3.1199999 56:8.75 57:4.3800001 58:6.25 59:0 60:0.62 #
-0.00010000000000000000479217360238593 1:20 2:0 3:0 4:0 5:4 6:4 7:0 8:0 9:4 10:4 11:8 12:4 13:4 14:0 15:16 16:12 17:8 18:12 19:0 20:0 21:8 22:0 23:0 24:8 25:4 26:16 27:0 28:4 29:12 30:16 31:4 32:0 33:4 34:0 35:0 36:4 37:4 38:12 39:0 40:4 41:0 42:0 43:7.6900001 44:7.6900001 45:7.6900001 46:7.6900001 47:2.5599999 48:5.1300001 49:15.38 50:5.1300001 51:0 52:2.5599999 53:2.5599999 54:7.6900001 55:5.1300001 56:2.5599999 57:0 58:15.38 59:0 60:5.1300001 #
-0.00010000000000000000479217360238593 1:16 2:0 3:0 4:0 5:8 6:0 7:0 8:4 9:8 10:0 11:8 12:0 13:0 14:4 15:8 16:28 17:8 18:8 19:0 20:0 21:4 22:0 23:0 24:8 25:8 26:12 27:0 28:0 29:24 30:8 31:0 32:8 33:4 34:0 35:0 36:8 37:4 38:4 39:0 40:8 41:9.4700003 42:0.38 43:6.0599999 44:6.8200002 45:4.9200001 46:6.4400001 47:3.03 48:5.6799998 49:8.71 50:9.0900002 51:2.6500001 52:3.03 53:3.79 54:2.27 55:2.6500001 56:5.6799998 57:7.9499998 58:9.4700003 59:0.38 60:1.52 #
-0.00010000000000000000479217360238593 1:12 2:0 3:0 4:0 5:20 6:8 7:0 8:4 9:8 10:4 11:4 12:4 13:0 14:0 15:4 16:12 17:8 18:8 19:0 20:4 21:12 22:0 23:24 24:4 25:0 26:12 27:4 28:4 29:16 30:4 31:0 32:8 33:0 34:0 35:4 36:0 37:0 38:4 39:4 40:0 41:6.25 42:0 43:6.25 44:6.25 45:18.75 46:0 47:0 48:6.25 49:0 50:0 51:0 52:0 53:0 54:6.25 55:0 56:6.25 57:18.75 58:12.5 59:6.25 60:6.25 #
-0.00010000000000000000479217360238593 1:16 2:0 3:4 4:0 5:0 6:4 7:0 8:8 9:12 10:12 11:4 12:4 13:0 14:0 15:4 16:20 17:4 18:4 19:4 20:0 21:0 22:0 23:8 24:8 25:4 26:12 27:0 28:0 29:16 30:4 31:8 32:8 33:4 34:0 35:4 36:0 37:0 38:16 39:4 40:4 41:5.6500001 42:0 43:8.0600004 44:8.8699999 45:3.23 46:0 47:1.61 48:5.6500001 49:12.1 50:9.6800003 51:0.81 52:3.23 53:3.23 54:7.2600002 55:4.0300002 56:10.48 57:7.2600002 58:6.4499998 59:0 60:2.4200001 #
-0.00010000000000000000479217360238593 1:16 2:0 3:0 4:4 5:8 6:12 7:0 8:0 9:8 10:4 11:4 12:0 13:4 14:8 15:0 16:12 17:4 18:0 19:4 20:12 21:12 22:4 23:0 24:0 25:0 26:8 27:0 28:8 29:8 30:12 31:8 32:4 33:4 34:4 35:0 36:4 37:12 38:4 39:0 40:8 41:6.25 42:0 43:6.25 44:3.1199999 45:4.6900001 46:4.6900001 47:0 48:3.1199999 49:10.94 50:9.3800001 51:1.5599999 52:1.5599999 53:10.94 54:4.6900001 55:3.1199999 56:4.6900001 57:9.3800001 58:9.3800001 59:0 60:6.25 #
-0.00010000000000000000479217360238593 1:4 2:0 3:0 4:12 5:4 6:8 7:0 8:4 9:8 10:8 11:4 12:4 13:12 14:8 15:0 16:4 17:8 18:4 19:0 20:8 21:16 22:0 23:12 24:8 25:8 26:4 27:0 28:4 29:8 30:4 31:4 32:4 33:8 34:4 35:4 36:8 37:0 38:0 39:0 40:4 41:12.1 42:1.27 43:2.55 44:3.1800001 45:5.73 46:15.29 47:0.63999999 48:5.0999999 49:4.46 50:5.73 51:5.73 52:3.8199999 53:3.8199999 54:4.46 55:2.55 56:6.3699999 57:7.6399999 58:5.73 59:0 60:3.8199999 #
-0.00010000000000000000479217360238593 1:4 2:16 3:4 4:4 5:0 6:4 7:0 8:4 9:4 10:4 11:4 12:16 13:0 14:20 15:4 16:4 17:0 18:4 19:0 20:4 21:4 22:4 23:0 24:8 25:0 26:4 27:4 28:0 29:4 30:20 31:0 32:8 33:12 34:4 35:8 36:8 37:12 38:0 39:0 40:0 41:0 42:10 43:10 44:5 45:5 46:0 47:0 48:0 49:15 50:20 51:0 52:10 53:0 54:0 55:5 56:5 57:0 58:5 59:5 60:5 #
-0.00010000000000000000479217360238593 1:12 2:0 3:0 4:0 5:0 6:24 7:0 8:0 9:0 10:24 11:4 12:0 13:12 14:4 15:12 16:0 17:8 18:0 19:0 20:0 21:4 22:0 23:12 24:4 25:0 26:4 27:0 28:4 29:12 30:8 31:0 32:0 33:0 34:8 35:8 36:16 37:16 38:0 39:4 40:0 41:10.31 42:1.75 43:5.25 44:5.6399999 45:4.6700001 46:8.5600004 47:3.5 48:5.4499998 49:4.8600001 50:8.5600004 51:1.95 52:2.3299999 53:4.4699998 54:4.2800002 55:6.23 56:7.3899999 57:3.5 58:6.23 59:1.95 60:3.1099999 #
-0.00010000000000000000479217360238593 1:0 2:4 3:0 4:4 5:0 6:4 7:0 8:0 9:0 10:20 11:4 12:8 13:4 14:0 15:12 16:20 17:4 18:12 19:0 20:4 21:4 22:4 23:8 24:4 25:8 26:4 27:0 28:20 29:8 30:12 31:4 32:0 33:4 34:4 35:12 36:0 37:0 38:4 39:0 40:0 41:4.98 42:1.13 43:6.1100001 44:4.0700002 45:4.52 46:7.2399998 47:1.8099999 48:6.79 49:7.2399998 50:10.63 51:1.13 52:6.1100001 53:3.1700001 54:4.75 55:4.98 56:8.6000004 57:5.4299998 58:6.5599999 59:0.68000001 60:4.0700002 #
-0.00010000000000000000479217360238593 1:8 2:8 3:8 4:12 5:4 6:12 7:0 8:4 9:0 10:0 11:8 12:0 13:8 14:0 15:8 16:0 17:4 18:8 19:4 20:4 21:4 22:0 23:8 24:4 25:0 26:8 27:4 28:0 29:4 30:8 31:0 32:0 33:24 34:12 35:0 36:8 37:4 38:0 39:0 40:12 41:12.3 42:0.81999999 43:1.64 44:1.64 45:4.9200001 46:16.389999 47:0.81999999 48:8.1999998 49:1.64 50:9.8400002 51:2.46 52:3.28 53:4.9200001 54:3.28 55:9.0200005 56:5.7399998 57:4.0999999 58:6.5599999 59:1.64 60:0.81999999 #
-0.00010000000000000000479217360238593 1:0 2:0 3:0 4:0 5:8 6:4 7:0 8:20 9:16 10:12 11:4 12:16 13:4 14:0 15:0 16:4 17:0 18:12 19:0 20:0 21:4 22:0 23:0 24:12 25:4 26:0 27:0 28:8 29:8 30:8 31:0 32:16 33:4 34:12 35:0 36:8 37:8 38:4 39:0 40:4 41:3.3099999 42:0.99000001 43:3.8099999 44:7.4499998 45:2.98 46:4.9699998 47:1.66 48:7.9499998 49:7.2800002 50:9.7700005 51:1.99 52:10.1 53:2.6500001 54:7.1199999 55:2.48 56:11.59 57:5.1300001 58:5.96 59:0.17 60:2.6500001 #
-0.00010000000000000000479217360238593 1:16 2:0 3:0 4:0 5:0 6:8 7:8 8:4 9:4 10:8 11:4 12:0 13:0 14:0 15:12 16:16 17:0 18:12 19:0 20:8 21:12 22:0 23:0 24:12 25:4 26:8 27:8 28:4 29:0 30:12 31:0 32:0 33:0 34:16 35:12 36:0 37:0 38:12 39:0 40:0 41:5.2399998 42:1.5 43:6.23 44:6.23 45:5.7399998 46:5.4899998 47:5.9899998 48:4.2399998 49:4.9899998 50:10.72 51:1.75 52:3.49 53:4.2399998 54:5.4899998 55:5.9899998 56:5.7399998 57:4.4899998 58:6.48 59:2.24 60:3.74 #
-0.00010000000000000000479217360238593 1:12 2:4 3:0 4:4 5:8 6:12 7:0 8:8 9:0 10:8 11:12 12:0 13:8 14:0 15:4 16:0 17:4 18:12 19:4 20:0 21:0 22:0 23:8 24:8 25:0 26:8 27:0 28:4 29:4 30:8 31:4 32:8 33:0 34:0 35:16 36:12 37:0 38:12 39:0 40:8 41:5 42:0 43:0 44:5 45:5 46:10 47:10 48:5 49:10 50:0 51:0 52:5 53:5 54:5 55:10 56:5 57:0 58:5 59:5 60:10 #
-0.00010000000000000000479217360238593 1:4 2:0 3:0 4:4 5:0 6:12 7:0 8:8 9:0 10:4 11:4 12:12 13:12 14:12 15:0 16:20 17:8 18:0 19:0 20:0 21:8 22:0 23:4 24:8 25:8 26:12 27:0 28:8 29:20 30:8 31:0 32:4 33:4 34:0 35:4 36:8 37:4 38:0 39:0 40:0 41:7.6300001 42:0 43:4.2399998 44:3.3900001 45:5.0799999 46:12.71 47:2.54 48:4.2399998 49:10.17 50:10.17 51:3.3900001 52:7.6300001 53:2.54 54:4.2399998 55:0.85000002 56:4.2399998 57:8.4700003 58:5.0799999 59:0 60:3.3900001 #
-0.00010000000000000000479217360238593 1:20 2:0 3:0 4:0 5:8 6:0 7:0 8:4 9:4 10:0 11:8 12:0 13:12 14:0 15:16 16:8 17:16 18:4 19:0 20:0 21:4 22:0 23:4 24:8 25:4 26:12 27:0 28:8 29:8 30:8 31:0 32:8 33:4 34:8 35:8 36:0 37:4 38:12 39:0 40:0 41:5.6199999 42:0 43:7.8699999 44:11.8 45:6.7399998 46:3.3699999 47:2.25 48:2.25 49:11.8 50:9.5500002 51:1.6900001 52:4.4899998 53:3.9300001 54:4.4899998 55:5.0599999 56:7.3000002 57:5.6199999 58:5.0599999 59:0 60:1.12 #
-0.00010000000000000000479217360238593 1:8 2:0 3:0 4:0 5:0 6:12 7:0 8:12 9:4 10:16 11:8 12:4 13:4 14:0 15:0 16:8 17:4 18:16 19:4 20:0 21:12 22:0 23:0 24:12 25:0 26:4 27:0 28:4 29:12 30:12 31:4 32:4 33:4 34:0 35:12 36:8 37:0 38:8 39:0 40:4 41:7.29 42:0 43:5.21 44:7.29 45:2.0799999 46:4.1700001 47:3.1199999 48:7.29 49:10.42 50:13.54 51:2.0799999 52:7.29 53:5.21 54:2.0799999 55:8.3299999 56:4.1700001 57:5.21 58:2.0799999 59:0 60:3.1199999 #
-0.00010000000000000000479217360238593 1:4 2:0 3:0 4:8 5:12 6:0 7:0 8:0 9:16 10:20 11:4 12:0 13:0 14:12 15:4 16:4 17:8 18:4 19:0 20:4 21:12 22:0 23:12 24:8 25:4 26:4 27:0 28:12 29:0 30:12 31:4 32:4 33:8 34:4 35:4 36:0 37:0 38:12 39:0 40:0 41:3.4200001 42:3.8 43:4.5599999 44:5.6999998 45:6.0799999 46:3.8 47:2.6600001 48:6.8400002 49:8.3699999 50:14.83 51:2.28 52:4.5599999 53:1.52 54:3.04 55:3.8 56:11.03 57:5.6999998 58:4.1799998 59:0 60:3.8 #
-0.00010000000000000000479217360238593 1:0 2:0 3:0 4:0 5:4 6:4 7:0 8:4 9:8 10:24 11:4 12:16 13:4 14:4 15:8 16:12 17:4 18:0 19:0 20:4 21:16 22:0 23:4 24:0 25:4 26:8 27:0 28:0 29:12 30:12 31:0 32:8 33:0 34:20 35:4 36:4 37:8 38:0 39:0 40:0 41:6.75 42:0.16 43:6.9200001 44:7.0799999 45:3.29 46:6.75 47:0.66000003 48:10.05 49:8.0699997 50:8.2399998 51:1.8099999 52:6.5900002 53:3.79 54:3.6199999 55:4.2800002 56:6.5900002 57:6.4299998 58:6.9200001 59:0 60:1.98 #
-0.00010000000000000000479217360238593 1:8 2:4 3:8 4:8 5:4 6:12 7:0 8:4 9:8 10:8 11:4 12:0 13:0 14:0 15:8 16:8 17:4 18:8 19:4 20:0 21:8 22:4 23:4 24:8 25:4 26:4 27:8 28:0 29:8 30:8 31:0 32:4 33:4 34:16 35:0 36:4 37:0 38:4 39:0 40:12 41:3.5699999 42:0 43:0 44:0 45:14.29 46:21.43 47:0 48:3.5699999 49:3.5699999 50:14.29 51:10.71 52:0 53:3.5699999 54:0 55:7.1399999 56:7.1399999 57:3.5699999 58:3.5699999 59:3.5699999 60:0 #
-0.00010000000000000000479217360238593 1:12 2:0 3:4 4:0 5:0 6:8 7:4 8:4 9:12 10:28 11:4 12:0 13:8 14:4 15:4 16:4 17:4 18:0 19:0 20:0 21:0 22:0 23:4 24:4 25:12 26:12 27:0 28:12 29:8 30:12 31:0 32:4 33:4 34:0 35:0 36:12 37:12 38:4 39:0 40:0 41:4.8899999 42:0 43:6.52 44:7.0700002 45:1.63 46:5.98 47:1.09 48:5.98 49:8.1499996 50:14.67 51:0.54000002 52:2.72 53:5.98 54:4.3499999 55:5.98 56:7.6100001 57:7.6100001 58:4.3499999 59:1.09 60:3.8 #
-0.00010000000000000000479217360238593 1:4 2:0 3:8 4:8 5:8 6:0 7:0 8:0 9:0 10:12 11:4 12:12 13:8 14:4 15:8 16:4 17:16 18:4 19:0 20:0 21:0 22:8 23:8 24:8 25:8 26:4 27:0 28:4 29:8 30:8 31:0 32:16 33:0 34:12 35:4 36:4 37:4 38:0 39:0 40:4 41:6.1599998 42:2.74 43:5.48 44:9.5900002 45:2.74 46:2.74 47:0.68000001 48:8.2200003 49:9.5900002 50:6.1599998 51:0.68000001 52:8.2200003 53:3.4200001 54:5.48 55:7.5300002 56:4.79 57:8.2200003 58:2.74 59:2.05 60:2.74 #
-0.00010000000000000000479217360238593 1:4 2:0 3:0 4:0 5:8 6:0 7:8 8:4 9:0 10:12 11:4 12:4 13:8 14:8 15:0 16:16 17:12 18:12 19:0 20:0 21:8 22:0 23:4 24:16 25:0 26:4 27:0 28:8 29:12 30:20 31:0 32:0 33:0 34:4 35:4 36:0 37:8 38:8 39:0 40:4 41:6.5 42:0.69 43:4.98 44:6.9200001 45:5.1199999 46:6.9200001 47:2.49 48:6.0900002 49:7.4699998 50:9.6800003 51:2.77 52:4.29 53:4.6999998 54:3.5999999 55:5.6700001 56:7.75 57:5.9499998 58:5.8099999 59:0.69 60:1.9400001 #
-0.00010000000000000000479217360238593 1:16 2:0 3:0 4:0 5:0 6:4 7:0 8:8 9:4 10:8 11:12 12:0 13:0 14:0 15:16 16:16 17:0 18:12 19:0 20:4 21:4 22:0 23:4 24:12 25:0 26:4 27:0 28:8 29:12 30:12 31:0 32:4 33:0 34:4 35:4 36:12 37:12 38:8 39:0 40:0 41:4.8400002 42:1.61 43:6.4499998 44:9.6800003 45:4.0300002 46:5.6500001 47:4.0300002 48:3.23 49:4.8400002 50:11.29 51:0.81 52:6.4499998 53:8.0600004 54:4.0300002 55:3.23 56:5.6500001 57:4.8400002 58:7.2600002 59:1.61 60:2.4200001 #
-0.00010000000000000000479217360238593 1:24 2:0 3:0 4:0 5:4 6:12 7:0 8:0 9:0 10:8 11:4 12:0 13:8 14:0 15:8 16:16 17:4 18:12 19:0 20:0 21:4 22:0 23:8 24:8 25:4 26:8 27:0 28:4 29:4 30:8 31:4 32:4 33:12 34:0 35:4 36:8 37:4 38:12 39:0 40:4 41:9.3800001 42:2.23 43:5.3600001 44:5.3600001 45:2.6800001 46:5.8000002 47:2.6800001 48:4.02 49:6.6999998 50:7.5900002 51:1.34 52:1.79 53:5.8000002 54:2.6800001 55:6.6999998 56:11.16 57:4.02 58:10.71 59:0.88999999 60:3.1199999 #
-0.00010000000000000000479217360238593 1:20 2:0 3:4 4:0 5:0 6:4 7:4 8:8 9:4 10:4 11:4 12:4 13:8 14:0 15:0 16:16 17:12 18:8 19:0 20:0 21:4 22:8 23:4 24:16 25:8 26:0 27:0 28:0 29:12 30:8 31:4 32:4 33:4 34:4 35:4 36:0 37:4 38:4 39:0 40:12 41:1.79 42:10.71 43:10.71 44:5.3600001 45:1.79 46:7.1399999 47:1.79 48:0 49:14.29 50:10.71 51:5.3600001 52:5.3600001 53:5.3600001 54:3.5699999 55:5.3600001 56:0 57:1.79 58:7.1399999 59:0 60:1.79 #
-0.00010000000000000000479217360238593 1:16 2:0 3:0 4:4 5:0 6:16 7:0 8:8 9:12 10:0 11:4 12:8 13:4 14:0 15:0 16:8 17:4 18:0 19:8 20:8 21:4 22:0 23:4 24:8 25:12 26:4 27:4 28:8 29:16 30:8 31:8 32:0 33:8 34:4 35:4 36:0 37:4 38:4 39:0 40:0 41:10.08 42:1.21 43:4.4400001 44:2.8199999 45:4.4400001 46:7.6599998 47:1.21 48:3.6300001 49:5.6500001 50:11.69 51:4.4400001 52:4.8400002 53:4.4400001 54:2.4200001 55:5.6500001 56:5.2399998 57:7.2600002 58:7.6599998 59:0.81 60:4.4400001 #
-0.00010000000000000000479217360238593 1:16 2:0 3:0 4:0 5:0 6:16 7:0 8:4 9:0 10:16 11:4 12:4 13:0 14:8 15:12 16:12 17:4 18:4 19:0 20:0 21:8 22:0 23:4 24:8 25:8 26:16 27:0 28:4 29:0 30:8 31:4 32:0 33:0 34:0 35:0 36:12 37:12 38:12 39:0 40:4 41:13.27 42:2.8399999 43:5.21 44:4.7399998 45:2.3699999 46:9.9499998 47:1.9 48:5.21 49:3.79 50:7.1100001 51:1.9 52:3.3199999 53:4.7399998 54:5.21 55:5.21 56:6.1599998 57:5.21 58:10.9 59:0.47 60:0.47 #
-0.00010000000000000000479217360238593 1:12 2:8 3:0 4:0 5:0 6:4 7:12 8:4 9:0 10:24 11:4 12:0 13:4 14:4 15:16 16:4 17:0 18:4 19:0 20:0 21:12 22:0 23:0 24:0 25:0 26:8 27:4 28:4 29:0 30:20 31:4 32:0 33:0 34:8 35:0 36:16 37:4 38:20 39:0 40:0 41:7.5599999 42:1.6799999 43:0.83999997 44:4.1999998 45:5.04 46:9.2399998 47:5.04 48:5.04 49:4.1999998 50:15.13 51:4.1999998 52:3.3599999 53:5.8800001 54:0 55:3.3599999 56:9.2399998 57:6.7199998 58:4.1999998 59:3.3599999 60:1.6799999 #
-0.00010000000000000000479217360238593 1:16 2:4 3:4 4:0 5:4 6:0 7:0 8:0 9:4 10:12 11:4 12:0 13:0 14:8 15:12 16:16 17:0 18:8 19:8 20:0 21:16 22:0 23:4 24:0 25:8 26:4 27:8 28:0 29:8 30:8 31:0 32:0 33:0 34:20 35:0 36:8 37:4 38:8 39:4 40:0 41:9.1800003 42:0.74000001 43:4.2199998 44:7.4400001 45:4.2199998 46:10.42 47:2.48 48:4.2199998 49:3.97 50:11.66 51:1.99 52:2.23 53:8.1899996 54:2.23 55:6.4499998 56:5.21 57:3.97 58:6.9499998 59:1.24 60:2.98 #
-0.00010000000000000000479217360238593 1:16 2:0 3:0 4:0 5:0 6:4 7:4 8:4 9:4 10:20 11:4 12:0 13:12 14:4 15:12 16:0 17:4 18:8 19:4 20:0 21:12 22:0 23:4 24:0 25:8 26:4 27:4 28:0 29:8 30:20 31:0 32:4 33:4 34:0 35:0 36:12 37:4 38:4 39:4 40:8 41:15 42:0 43:0 44:5 45:0 46:5 47:0 48:5 49:15 50:5 51:0 52:0 53:15 54:5 55:0 56:10 57:15 58:5 59:0 60:0 #
-0.00010000000000000000479217360238593 1:12 2:0 3:4 4:0 5:16 6:8 7:0 8:4 9:0 10:16 11:4 12:4 13:4 14:0 15:0 16:12 17:12 18:4 19:0 20:0 21:8 22:0 23:0 24:8 25:8 26:8 27:4 28:4 29:4 30:12 31:8 32:0 33:4 34:0 35:4 36:12 37:8 38:4 39:0 40:4 41:8.1199999 42:1.71 43:2.1400001 44:3.8499999 45:3.8499999 46:9.8299999 47:0.85000002 48:7.6900001 49:6.4099998 50:7.6900001 51:2.1400001 52:2.99 53:3.8499999 54:4.27 55:5.5599999 56:9.3999996 57:8.1199999 58:5.1300001 59:2.1400001 60:4.27 #
-0.00010000000000000000479217360238593 1:0 2:0 3:4 4:0 5:8 6:0 7:4 8:0 9:12 10:12 11:4 12:4 13:4 14:0 15:8 16:12 17:4 18:12 19:4 20:8 21:0 22:0 23:8 24:4 25:8 26:8 27:0 28:8 29:4 30:12 31:0 32:12 33:0 34:4 35:12 36:8 37:8 38:0 39:4 40:0 41:3.8499999 42:1.1 43:5.4899998 44:4.4000001 45:4.1199999 46:5.77 47:3.3 48:7.4200001 49:6.5900002 50:9.3400002 51:1.1 52:5.77 53:7.4200001 54:3.5699999 55:3.8499999 56:9.6199999 57:7.1399999 58:7.6900001 59:0.55000001 60:1.92 #
-0.00010000000000000000479217360238593 1:4 2:0 3:12 4:0 5:0 6:4 7:0 8:12 9:8 10:4 11:4 12:4 13:16 14:8 15:0 16:8 17:8 18:4 19:0 20:4 21:12 22:0 23:8 24:0 25:8 26:0 27:8 28:4 29:8 30:8 31:8 32:12 33:4 34:0 35:4 36:8 37:0 38:8 39:0 40:0 41:5.6700001 42:0.49000001 43:6.1599998 44:4.9299998 45:4.4299998 46:8.1300001 47:1.97 48:6.9000001 49:7.1399999 50:9.3599997 51:3.2 52:5.4200001 53:3.9400001 54:2.71 55:5.1700001 56:7.3899999 57:6.6500001 58:5.1700001 59:1.23 60:3.9400001 #
-0.00010000000000000000479217360238593 1:4 2:0 3:12 4:8 5:0 6:8 7:0 8:12 9:12 10:4 11:8 12:4 13:8 14:4 15:4 16:4 17:4 18:0 19:0 20:4 21:0 22:4 23:12 24:8 25:8 26:4 27:0 28:0 29:24 30:4 31:0 32:8 33:4 34:0 35:8 36:0 37:0 38:4 39:12 40:0 41:6.4699998 42:3.5999999 43:4.3200002 44:7.1900001 45:2.8800001 46:7.9099998 47:2.1600001 48:2.8800001 49:7.1900001 50:8.6300001 51:2.1600001 52:5.7600002 53:5.7600002 54:5.04 55:5.04 56:8.6300001 57:5.04 58:3.5999999 59:2.1600001 60:3.5999999 #
-0.00010000000000000000479217360238593 1:8 2:0 3:8 4:0 5:4 6:12 7:0 8:0 9:8 10:0 11:4 12:8 13:8 14:4 15:4 16:8 17:4 18:16 19:0 20:4 21:4 22:8 23:0 24:4 25:24 26:4 27:4 28:0 29:0 30:0 31:8 32:8 33:0 34:4 35:8 36:8 37:8 38:4 39:0 40:4 41:9.6300001 42:1.85 43:2.22 44:4.4400001 45:5.9299998 46:9.2600002 47:3.3299999 48:4.0700002 49:6.3000002 50:12.22 51:1.48 52:1.48 53:4.4400001 54:5.5599999 55:5.5599999 56:6.6700001 57:4.0700002 58:6.6700001 59:0.74000001 60:4.0700002 #
-0.00010000000000000000479217360238593 1:8 2:0 3:0 4:0 5:4 6:8 7:0 8:4 9:0 10:20 11:4 12:4 13:8 14:0 15:8 16:16 17:4 18:4 19:8 20:0 21:0 22:0 23:0 24:0 25:4 26:8 27:4 28:16 29:16 30:24 31:0 32:8 33:0 34:4 35:4 36:4 37:0 38:0 39:4 40:4 41:8.1999998 42:0.94 43:4.9200001 44:6.0900002 45:6.0900002 46:9.3699999 47:3.04 48:3.28 49:4.4499998 50:12.65 51:1.41 52:2.5799999 53:4.2199998 54:5.6199999 55:6.5599999 56:5.8499999 57:5.6199999 58:5.6199999 59:0.69999999 60:2.8099999 #
-0.00010000000000000000479217360238593 1:0 2:0 3:4 4:4 5:12 6:4 7:0 8:8 9:0 10:20 11:4 12:8 13:4 14:8 15:4 16:4 17:12 18:0 19:0 20:4 21:16 22:0 23:4 24:0 25:0 26:8 27:4 28:16 29:4 30:12 31:0 32:0 33:0 34:4 35:0 36:4 37:4 38:8 39:4 40:12 41:5.2600002 42:0.47999999 43:0.95999998 44:1.4400001 45:9.0900002 46:6.6999998 47:1.4400001 48:13.4 49:1.91 50:18.18 51:4.7800002 52:5.7399998 53:3.3499999 54:0.95999998 55:1.4400001 56:7.6599998 57:6.6999998 58:5.2600002 59:1.91 60:3.3499999 #
