SVM-light Version V6.02
1 # kernel type
2 # kernel parameter -d 
1 # kernel parameter -g 
1 # kernel parameter -s 
1 # kernel parameter -r 
empty# kernel parameter -u 
40 # highest feature index 
16265 # number of training documents 
6600 # number of support vectors plus 1 
0.71344214 # threshold b, each following line is a SV (starting with alpha*y)
-2.906049203220042086444449731808e-07 1:0 2:0 3:0 4:8 5:4 6:8 7:0 8:4 9:16 10:4 11:8 12:4 13:8 14:0 15:8 16:4 17:4 18:8 19:8 20:4 21:6.1500001 22:2.1500001 23:6.77 24:8 25:5.8499999 26:6.77 27:1.85 28:6.46 29:8.9200001 30:8 31:1.85 32:4.3099999 33:3.6900001 34:3.6900001 35:5.8499999 36:6.46 37:4.6199999 38:4.6199999 39:1.23 40:2.77 #
9.7324240228155092243640320037734e-07 1:0 2:0 3:4 4:4 5:12 6:4 7:0 8:8 9:0 10:20 11:4 12:8 13:4 14:8 15:4 16:4 17:12 18:0 19:0 20:4 21:6.4099998 22:0.43000001 23:1.28 24:1.28 25:8.1199999 26:6.8400002 27:1.71 28:13.68 29:2.1400001 30:17.52 31:4.27 32:5.1300001 33:2.99 34:1.28 35:1.28 36:7.2600002 37:6.4099998 38:5.5599999 39:2.1400001 40:4.27 #
-2.906049203220042086444449731808e-07 1:8 2:4 3:12 4:16 5:4 6:12 7:0 8:0 9:4 10:0 11:8 12:4 13:4 14:4 15:4 16:0 17:8 18:4 19:0 20:4 21:6.0999999 22:3.1300001 23:4.9400001 24:3.46 25:5.77 26:6.9200001 27:3.95 28:6.5900002 29:5.4400001 30:9.7200003 31:3.29 32:4.6100001 33:3.1300001 34:3.6199999 35:3.79 36:5.4400001 37:5.77 38:6.0999999 39:3.6199999 40:4.6100001 #
-2.906049203220042086444449731808e-07 1:4 2:0 3:4 4:12 5:4 6:4 7:0 8:12 9:8 10:8 11:4 12:4 13:4 14:0 15:4 16:16 17:4 18:4 19:4 20:0 21:4.4400001 22:2.22 23:4.4400001 24:8.1499996 25:2.96 26:3.3299999 27:2.5899999 28:5.9299998 29:8.5200005 30:10.74 31:2.5899999 32:3.7 33:2.5899999 34:4.0700002 35:9.6300001 36:12.22 37:2.22 38:5.1900001 39:1.11 40:3.3299999 #
-2.906049203220042086444449731808e-07 1:4 2:0 3:0 4:0 5:16 6:0 7:0 8:12 9:0 10:12 11:4 12:4 13:8 14:4 15:8 16:8 17:8 18:8 19:0 20:4 21:6.73 22:2.0899999 23:8.9700003 24:7.6199999 25:3.4400001 26:6.2800002 27:2.24 28:5.23 29:11.36 30:6.4299998 31:2.24 32:2.8399999 33:3.29 34:3.74 35:3.8900001 36:9.5699997 37:5.0799999 38:6.1300001 39:1.05 40:1.79 #
2.9060492032200418746862129182329e-06 1:12 2:0 3:4 4:28 5:0 6:0 7:0 8:0 9:4 10:4 11:4 12:0 13:12 14:4 15:12 16:8 17:4 18:4 19:0 20:0 21:4.29 22:2.3800001 23:3.5699999 24:3.3299999 25:10 26:6.4299998 27:2.6199999 28:8.1000004 29:4.0500002 30:9.5200005 31:3.5699999 32:3.5699999 33:4.29 34:3.0999999 35:4.0500002 36:6.4299998 37:6.6700001 38:7.1399999 39:2.1400001 40:4.7600002 #
2.9060492032200418746862129182329e-06 1:8 2:0 3:0 4:4 5:0 6:0 7:8 8:0 9:4 10:4 11:4 12:4 13:12 14:0 15:24 16:20 17:0 18:4 19:4 20:0 21:2.77 22:1.02 23:6.5599999 24:7.73 25:3.79 26:5.25 27:4.52 28:4.6599998 29:9.9099998 30:3.79 31:1.17 32:4.6599998 33:6.27 34:5.3899999 35:9.6199999 36:8.8900003 37:4.6599998 38:3.79 39:0.73000002 40:4.8099999 #
-2.906049203220042086444449731808e-07 1:12 2:4 3:4 4:0 5:4 6:4 7:0 8:4 9:12 10:12 11:8 12:0 13:0 14:4 15:0 16:4 17:8 18:20 19:0 20:0 21:5.0799999 22:4.2399998 23:8.4700003 24:5.0799999 25:0.85000002 26:11.86 27:3.3900001 28:12.71 29:11.02 30:5.9299998 31:0 32:3.3900001 33:3.3900001 34:3.3900001 35:0 36:5.0799999 37:3.3900001 38:9.3199997 39:0 40:3.3900001 #
2.9060492032200418746862129182329e-06 1:20 2:0 3:8 4:8 5:0 6:4 7:0 8:0 9:0 10:0 11:4 12:4 13:12 14:0 15:0 16:24 17:12 18:4 19:0 20:0 21:12.16 22:4.0500002 23:2.7 24:4.0500002 25:6.0799999 26:10.81 27:2.03 28:6.0799999 29:4.0500002 30:4.73 31:5.4099998 32:3.3800001 33:2.7 34:4.73 35:5.4099998 36:4.73 37:8.1099997 38:7.4299998 39:1.35 40:0 #
-1.636783726367957345354672230725e-07 1:4 2:0 3:4 4:4 5:0 6:0 7:0 8:0 9:0 10:0 11:4 12:0 13:0 14:4 15:48 16:32 17:0 18:0 19:0 20:0 21:4.79 22:0 23:5.25 24:9.1300001 25:1.83 26:5.25 27:2.05 28:2.51 29:15.53 30:2.97 31:1.14 32:3.4200001 33:4.3400002 34:2.74 35:12.1 36:20.09 37:1.6 38:3.2 39:0.68000001 40:1.37 #
-2.906049203220042086444449731808e-07 1:52 2:4 3:0 4:0 5:0 6:0 7:4 8:0 9:0 10:4 11:4 12:0 13:8 14:0 15:4 16:20 17:0 18:0 19:0 20:0 21:11.79 22:1.14 23:3.4200001 24:8.3699999 25:4.1799998 26:9.5100002 27:2.28 28:7.98 29:4.1799998 30:7.2199998 31:1.52 32:3.4200001 33:6.0799999 34:3.8 35:6.46 36:4.5599999 37:4.9400001 38:6.0799999 39:0.38 40:2.6600001 #
2.9060492032200418746862129182329e-06 1:0 2:4 3:4 4:0 5:32 6:0 7:0 8:4 9:4 10:12 11:4 12:0 13:4 14:8 15:0 16:4 17:8 18:0 19:4 20:8 21:1.5 22:3.76 23:4.5100002 24:3.01 25:3.01 26:9.7700005 27:2.26 28:9.7700005 29:6.77 30:10.53 31:2.26 32:6.02 33:1.5 34:2.26 35:9.0200005 36:12.03 37:3.76 38:4.5100002 39:1.5 40:2.26 #
-2.906049203220042086444449731808e-07 1:20 2:4 3:8 4:8 5:8 6:4 7:0 8:8 9:12 10:0 11:4 12:4 13:0 14:0 15:4 16:12 17:0 18:4 19:0 20:0 21:7.9000001 22:1.16 23:4.8200002 24:8.29 25:3.6600001 26:7.71 27:2.5 28:4.2399998 29:6.7399998 30:9.8299999 31:2.7 32:3.6600001 33:4.6199999 34:1.73 35:4.2399998 36:8.29 37:6.3600001 38:6.5500002 39:1.54 40:3.47 #
2.9060492032200418746862129182329e-06 1:0 2:0 3:0 4:4 5:8 6:4 7:4 8:20 9:12 10:4 11:4 12:8 13:12 14:4 15:0 16:4 17:4 18:4 19:0 20:4 21:2.1800001 22:2.1800001 23:3.49 24:6.5500002 25:3.9300001 26:6.9899998 27:4.8000002 28:6.9899998 29:8.3000002 30:9.1700001 31:0.87 32:7.4200001 33:5.2399998 34:4.8000002 35:5.6799998 36:4.8000002 37:6.1100001 38:5.6799998 39:1.3099999 40:3.49 #
-2.906049203220042086444449731808e-07 1:16 2:0 3:0 4:0 5:4 6:0 7:0 8:0 9:0 10:24 11:4 12:0 13:16 14:4 15:8 16:12 17:4 18:4 19:0 20:4 21:6.3099999 22:1.42 23:4.96 24:6.3099999 25:3.1900001 26:6.1900001 27:2.24 28:4.0700002 29:6.73 30:11.86 31:1.89 32:4.54 33:5.3099999 34:4.7800002 35:5.4299998 36:11.39 37:5.3099999 38:5.6599998 39:0.47 40:1.95 #
-2.906049203220042086444449731808e-07 1:8 2:8 3:0 4:12 5:4 6:8 7:0 8:0 9:8 10:4 11:8 12:0 13:16 14:4 15:4 16:8 17:4 18:0 19:0 20:4 21:7.8699999 22:6.7399998 23:2.25 24:7.8699999 25:2.25 26:4.4899998 27:4.4899998 28:3.3699999 29:7.8699999 30:5.6199999 31:3.3699999 32:2.25 33:5.6199999 34:5.6199999 35:10.11 36:6.7399998 37:7.8699999 38:3.3699999 39:1.12 40:1.12 #
2.9060492032200418746862129182329e-06 1:4 2:0 3:8 4:16 5:4 6:4 7:0 8:8 9:12 10:8 11:12 12:0 13:8 14:0 15:12 16:0 17:0 18:4 19:0 20:0 21:3.8499999 22:0 23:3.8499999 24:0 25:7.6900001 26:0 27:0 28:15.38 29:7.6900001 30:19.23 31:0 32:3.8499999 33:3.8499999 34:0 35:7.6900001 36:11.54 37:3.8499999 38:7.6900001 39:0 40:3.8499999 #
-2.906049203220042086444449731808e-07 1:0 2:4 3:8 4:8 5:0 6:0 7:8 8:8 9:8 10:8 11:4 12:4 13:8 14:0 15:0 16:20 17:0 18:8 19:4 20:0 21:5.4000001 22:1.08 23:6.1199999 24:6.8299999 25:6.8299999 26:3.96 27:1.4400001 28:7.5500002 29:8.2700005 30:8.9899998 31:1.4400001 32:6.8299999 33:4.3200002 34:4.6799998 35:3.96 36:7.5500002 37:4.6799998 38:3.24 39:1.08 40:5.7600002 #
-2.906049203220042086444449731808e-07 1:0 2:4 3:4 4:8 5:4 6:0 7:8 8:4 9:4 10:16 11:4 12:4 13:0 14:8 15:4 16:4 17:4 18:8 19:0 20:12 21:9.7600002 22:2.01 23:5.27 24:7.98 25:2.9400001 26:4.1100001 27:2.4000001 28:5.1100001 29:7.5900002 30:12.86 31:3.25 32:4.1100001 33:3.02 34:6.4299998 35:5.1100001 36:4.6500001 37:3.95 38:4.1799998 39:0.76999998 40:4.4899998 #
-2.906049203220042086444449731808e-07 1:32 2:0 3:0 4:24 5:0 6:8 7:0 8:4 9:4 10:0 11:8 12:0 13:4 14:0 15:0 16:4 17:4 18:8 19:0 20:0 21:7.23 22:0.70999998 23:3.55 24:8.0900002 25:3.4000001 26:18.16 27:1.42 28:5.3899999 29:5.5300002 30:5.96 31:8.6499996 32:4.4000001 33:5.25 34:1.99 35:7.6599998 36:4.4000001 37:1.84 38:5.25 39:0.43000001 40:0.70999998 #
-2.906049203220042086444449731808e-07 1:0 2:4 3:4 4:4 5:8 6:12 7:4 8:0 9:12 10:8 11:4 12:4 13:4 14:4 15:16 16:12 17:0 18:0 19:0 20:0 21:6.4899998 22:3.1800001 23:3.5899999 24:7.3200002 25:3.04 26:8.6999998 27:2.0699999 28:5.6599998 29:6.2199998 30:10.08 31:2.49 32:5.1100001 33:3.73 34:2.49 35:4.1399999 36:9.1199999 37:5.1100001 38:7.1799998 39:1.9299999 40:2.3499999 #
-2.906049203220042086444449731808e-07 1:28 2:0 3:4 4:4 5:0 6:4 7:4 8:0 9:0 10:8 11:4 12:0 13:0 14:0 15:8 16:4 17:4 18:16 19:8 20:4 21:11.05 22:1.52 23:5.9000001 24:6.8600001 25:3.6199999 26:8.3800001 27:4.1900001 28:2.48 29:3.05 30:8.5699997 31:1.9 32:3.6199999 33:3.8099999 34:3.6199999 35:6.8600001 36:5.3299999 37:7.8099999 38:7.8099999 39:1.71 40:1.9 #
2.9060492032200418746862129182329e-06 1:0 2:0 3:0 4:4 5:4 6:0 7:4 8:0 9:0 10:16 11:8 12:8 13:20 14:0 15:0 16:28 17:4 18:4 19:0 20:0 21:8.6999998 22:1.74 23:5.2199998 24:9.5699997 25:6.96 26:3.48 27:1.74 28:2.6099999 29:4.3499999 30:10.43 31:1.74 32:1.74 33:7.8299999 34:7.8299999 35:5.2199998 36:7.8299999 37:1.74 38:5.2199998 39:4.3499999 40:1.74 #
2.9060492032200418746862129182329e-06 1:8 2:0 3:0 4:0 5:0 6:12 7:0 8:0 9:4 10:4 11:4 12:0 13:40 14:0 15:0 16:8 17:0 18:4 19:0 20:16 21:7.75 22:4.8000002 23:4.8000002 24:5.54 25:5.1700001 26:10.33 27:1.85 28:3.3199999 29:2.95 30:10.33 31:1.11 32:1.11 33:11.44 34:5.1700001 35:5.9000001 36:3.6900001 37:5.1700001 38:7.3800001 39:1.48 40:0.74000001 #
-2.906049203220042086444449731808e-07 1:0 2:0 3:0 4:4 5:4 6:4 7:0 8:12 9:24 10:8 11:4 12:0 13:4 14:0 15:12 16:8 17:8 18:4 19:4 20:0 21:5.5799999 22:1.65 23:4.5500002 24:6.4000001 25:3.9300001 26:6.4000001 27:2.8900001 28:6.8200002 29:5.79 30:8.6800003 31:1.86 32:7.23 33:2.6900001 34:3.9300001 35:4.75 36:8.2600002 37:5.3699999 38:5.79 39:2.6900001 40:4.75 #
9.5371830582084807371556333527307e-07 1:44 2:0 3:0 4:0 5:0 6:16 7:4 8:0 9:0 10:12 11:4 12:0 13:4 14:0 15:4 16:4 17:0 18:8 19:0 20:0 21:13.06 22:1.59 23:3.8199999 24:7.0100002 25:1.59 26:10.19 27:0.63999999 28:7.0100002 29:7.3200002 30:11.15 31:2.23 32:2.55 33:5.4099998 34:2.23 35:7.0100002 36:5.73 37:2.55 38:6.3699999 39:0.95999998 40:1.59 #
2.9060492032200418746862129182329e-06 1:4 2:0 3:4 4:0 5:8 6:8 7:0 8:12 9:20 10:12 11:4 12:4 13:4 14:4 15:0 16:8 17:0 18:8 19:0 20:0 21:8.0600004 22:0.73000002 23:6.5900002 24:7.3299999 25:5.8600001 26:7.6900001 27:2.9300001 28:4.7600002 29:7.3299999 30:7.6900001 31:0.37 32:3.6600001 33:7.3299999 34:0.73000002 35:3.6600001 36:6.96 37:6.5900002 38:7.3299999 39:1.47 40:2.9300001 #
-2.906049203220042086444449731808e-07 1:8 2:0 3:0 4:0 5:0 6:0 7:4 8:4 9:12 10:12 11:4 12:0 13:4 14:12 15:16 16:4 17:8 18:4 19:4 20:4 21:5.1100001 22:0.81 23:6.23 24:6.04 25:4.4200001 26:5.1700001 27:1.9299999 28:5.98 29:3.8599999 30:6.5999999 31:1.49 32:5.3499999 33:6.6599998 34:4.3000002 35:6.1599998 36:8.0900002 37:8.7200003 38:7.29 39:1.6799999 40:4.1100001 #
-2.906049203220042086444449731808e-07 1:8 2:0 3:4 4:8 5:4 6:12 7:4 8:8 9:0 10:8 11:4 12:16 13:0 14:0 15:8 16:8 17:4 18:4 19:0 20:0 21:6.23 22:3.02 23:5.8499999 24:5.5700002 25:4.25 26:7.7399998 27:1.89 28:6.04 29:6.04 30:8.5900002 31:2.3599999 32:3.8699999 33:6.1399999 34:2.9300001 35:5.5700002 36:6.23 37:3.78 38:7.46 39:2.6400001 40:3.78 #
2.9060492032200418746862129182329e-06 1:36 2:0 3:0 4:0 5:0 6:12 7:0 8:0 9:0 10:12 11:4 12:0 13:0 14:0 15:4 16:4 17:8 18:20 19:0 20:0 21:9.9399996 22:1.86 23:5.2800002 24:3.73 25:2.48 26:9.3199997 27:3.73 28:4.04 29:4.04 30:12.11 31:0.93000001 32:2.8 33:5.2800002 34:4.9699998 35:5.2800002 36:8.3900003 37:3.4200001 38:9.6300001 39:0.93000001 40:1.86 #
-2.906049203220042086444449731808e-07 1:56 2:0 3:0 4:4 5:0 6:12 7:0 8:0 9:0 10:0 11:4 12:0 13:8 14:0 15:4 16:8 17:4 18:0 19:0 20:0 21:7.8899999 22:2.96 23:1.64 24:2.96 25:5.2600002 26:8.5500002 27:0.99000001 28:7.5700002 29:4.2800002 30:15.13 31:1.97 32:4.2800002 33:2.96 34:2.3 35:1.97 36:8.2200003 37:5.9200001 38:11.18 39:1.3200001 40:2.6300001 #
-2.906049203220042086444449731808e-07 1:36 2:0 3:0 4:0 5:4 6:8 7:0 8:0 9:0 10:24 11:4 12:0 13:0 14:0 15:12 16:0 17:0 18:8 19:4 20:0 21:7.0700002 22:1.9299999 23:6.1100001 24:6.1100001 25:6.4299998 26:6.4299998 27:3.54 28:7.0700002 29:7.7199998 30:10.29 31:1.29 32:4.5 33:3.8599999 34:2.8900001 35:5.1399999 36:5.4699998 37:3.8599999 38:5.79 39:1.29 40:3.22 #
-2.906049203220042086444449731808e-07 1:32 2:0 3:0 4:0 5:4 6:12 7:0 8:0 9:0 10:24 11:4 12:0 13:0 14:0 15:8 16:8 17:0 18:8 19:0 20:0 21:7.6100001 22:1.52 23:3.55 24:4.0599999 25:6.0900002 26:6.5999999 27:1.52 28:6.0900002 29:0 30:16.24 31:3.05 32:1.52 33:2.54 34:5.5799999 35:7.1100001 36:10.15 37:6.0900002 38:6.5999999 39:2.54 40:1.52 #
-2.906049203220042086444449731808e-07 1:40 2:0 3:0 4:0 5:0 6:16 7:0 8:0 9:0 10:0 11:4 12:0 13:4 14:0 15:12 16:8 17:4 18:8 19:4 20:0 21:4.79 22:2.2 23:4.6599998 24:6.8699999 25:4.79 26:3.76 27:2.46 28:5.3099999 29:5.8299999 30:14.9 31:2.8499999 32:5.1799998 33:3.1099999 34:5.3099999 35:5.4400001 36:7.9000001 37:5.5700002 38:5.6999998 39:1.04 40:2.3299999 #
2.9060492032200418746862129182329e-06 1:4 2:0 3:4 4:8 5:4 6:4 7:0 8:4 9:0 10:4 11:4 12:0 13:0 14:0 15:4 16:52 17:4 18:4 19:0 20:0 21:6.4899998 22:2.45 23:5.0500002 24:7.2199998 25:4.3299999 26:3.75 27:2.5999999 28:4.6199999 29:5.0500002 30:13.71 31:2.1600001 32:4.6199999 33:3.1700001 34:7.0700002 35:5.48 36:8.5100002 37:4.3299999 38:5.77 39:1.3 40:2.3099999 #
2.9060492032200418746862129182329e-06 1:0 2:0 3:8 4:40 5:0 6:12 7:0 8:0 9:4 10:8 11:8 12:0 13:4 14:4 15:4 16:4 17:4 18:0 19:0 20:0 21:4.5500002 22:7.5799999 23:7.5799999 24:15.15 25:3.03 26:0 27:4.5500002 28:0 29:6.0599999 30:15.15 31:0 32:1.52 33:1.52 34:4.5500002 35:9.0900002 36:6.0599999 37:6.0599999 38:7.5799999 39:0 40:0 #
2.9060492032200418746862129182329e-06 1:0 2:0 3:4 4:28 5:0 6:8 7:4 8:0 9:4 10:0 11:12 12:8 13:4 14:0 15:12 16:0 17:8 18:8 19:0 20:0 21:8.3000002 22:0.91000003 23:5.6500001 24:6.1999998 25:1.64 26:8.3900003 27:2.3699999 28:3.0999999 29:4.0100002 30:10.39 31:3.28 32:4.3800001 33:4.4699998 34:5.9299998 35:5.4699998 36:12.76 37:6.9299998 38:3.8299999 39:0.36000001 40:1.64 #
-2.906049203220042086444449731808e-07 1:8 2:0 3:0 4:12 5:4 6:0 7:0 8:12 9:12 10:16 11:4 12:8 13:4 14:4 15:0 16:8 17:0 18:4 19:0 20:4 21:6 22:2.4000001 23:2 24:12.8 25:3.2 26:1.2 27:4 28:4.4000001 29:10.8 30:7.1999998 31:3.2 32:3.5999999 33:5.5999999 34:6.8000002 35:5.5999999 36:8.3999996 37:3.5999999 38:4.8000002 39:1.6 40:2.8 #
-2.906049203220042086444449731808e-07 1:0 2:4 3:8 4:0 5:8 6:8 7:0 8:8 9:8 10:4 11:4 12:0 13:4 14:0 15:8 16:20 17:8 18:8 19:0 20:0 21:8.2399998 22:1.91 23:5.0300002 24:6.0300002 25:3.4200001 26:4.02 27:1.61 28:4.6199999 29:7.2399998 30:10.45 31:2.9100001 32:4.1199999 33:4.02 34:4.6199999 35:5.5300002 36:11.96 37:6.4299998 38:6.23 39:0.60000002 40:1.01 #
-2.906049203220042086444449731808e-07 1:4 2:0 3:8 4:0 5:0 6:8 7:0 8:4 9:4 10:12 11:8 12:16 13:12 14:0 15:4 16:8 17:12 18:0 19:0 20:0 21:4.4299998 22:1.9 23:3.5899999 24:2.95 25:5.27 26:5.9099998 27:2.53 28:8.0200005 29:3.8 30:9.2799997 31:2.53 32:3.8 33:4.8499999 34:2.74 35:5.9099998 36:9.2799997 37:9.0699997 38:8.6499996 39:1.9 40:3.5899999 #
-2.8693669679902468759623637706291e-07 1:12 2:4 3:4 4:4 5:0 6:0 7:0 8:8 9:8 10:4 11:8 12:4 13:8 14:4 15:0 16:4 17:8 18:12 19:4 20:4 21:9.3100004 22:1.33 23:6.3800001 24:5.3200002 25:3.72 26:7.1799998 27:2.3900001 28:4.2600002 29:3.99 30:10.11 31:1.33 32:2.3900001 33:4.79 34:6.6500001 35:6.1199999 36:6.9099998 37:7.1799998 38:7.4499998 39:1.0599999 40:2.1300001 #
-2.906049203220042086444449731808e-07 1:12 2:0 3:0 4:12 5:0 6:4 7:0 8:4 9:12 10:12 11:4 12:4 13:8 14:4 15:4 16:4 17:4 18:8 19:0 20:4 21:5.7800002 22:1.77 23:5.3000002 24:10.75 25:2.0899999 26:6.5799999 27:3.53 28:4.3299999 29:9.1499996 30:8.3500004 31:2.4100001 32:1.77 33:6.4200001 34:3.53 35:8.8299999 36:6.7399998 37:4.1700001 38:5.6199999 39:1.12 40:1.77 #
-2.906049203220042086444449731808e-07 1:44 2:0 3:0 4:0 5:0 6:8 7:0 8:0 9:0 10:8 11:0 12:0 13:12 14:0 15:0 16:4 17:4 18:12 19:0 20:8 21:26.879999 22:0 23:1.61 24:0 25:1.61 26:3.76 27:7.5300002 28:1.61 29:1.08 30:4.8400002 31:0 32:1.61 33:7.5300002 34:1.61 35:2.1500001 36:12.9 37:4.3000002 38:13.98 39:0.54000002 40:6.4499998 #
2.9060492032200418746862129182329e-06 1:4 2:12 3:8 4:20 5:0 6:0 7:4 8:0 9:16 10:0 11:4 12:4 13:8 14:8 15:0 16:0 17:8 18:4 19:0 20:0 21:2.27 22:9.0900002 23:4.5500002 24:18.18 25:6.8200002 26:6.8200002 27:0 28:4.5500002 29:15.91 30:2.27 31:2.27 32:4.5500002 33:4.5500002 34:2.27 35:2.27 36:4.5500002 37:2.27 38:2.27 39:0 40:4.5500002 #
2.9060492032200418746862129182329e-06 1:0 2:0 3:4 4:20 5:4 6:12 7:0 8:0 9:0 10:4 11:4 12:0 13:0 14:0 15:16 16:16 17:4 18:16 19:0 20:0 21:8.1000004 22:1.9 23:2.3800001 24:11.43 25:1.9 26:5.71 27:3.8099999 28:2.3800001 29:7.6199999 30:7.6199999 31:1.9 32:1.9 33:5.71 34:6.1900001 35:9.5200005 36:10.95 37:3.3299999 38:5.2399998 39:0 40:2.3800001 #
-2.906049203220042086444449731808e-07 1:0 2:0 3:4 4:0 5:24 6:0 7:4 8:4 9:12 10:4 11:4 12:4 13:0 14:12 15:0 16:12 17:0 18:4 19:4 20:8 21:5 22:1.25 23:0 24:2.5 25:8.75 26:0 27:3.75 28:20 29:3.75 30:15 31:2.5 32:3.75 33:3.75 34:5 35:3.75 36:8.75 37:3.75 38:3.75 39:0 40:5 #
-2.906049203220042086444449731808e-07 1:0 2:0 3:4 4:0 5:32 6:0 7:0 8:8 9:12 10:12 11:8 12:0 13:0 14:0 15:4 16:0 17:4 18:0 19:0 20:16 21:1.17 22:2.3 23:6.0799999 24:7.0900002 25:5.5599999 26:3.3 27:2.1700001 28:10.87 29:11.2 30:7.29 31:1.13 32:10.03 33:3.22 34:2.3 35:2.1300001 36:7.8499999 37:5.4000001 38:4.5500002 39:0.28 40:6.0799999 #
-2.906049203220042086444449731808e-07 1:4 2:8 3:0 4:0 5:40 6:0 7:0 8:0 9:12 10:0 11:4 12:0 13:8 14:4 15:4 16:8 17:0 18:8 19:0 20:0 21:7.04 22:1.01 23:4.27 24:7.29 25:4.77 26:9.0500002 27:2.01 28:6.5300002 29:6.2800002 30:7.29 31:3.27 32:4.77 33:5.5300002 34:4.52 35:5.0300002 36:4.52 37:6.0300002 38:8.29 39:0 40:2.51 #
-2.906049203220042086444449731808e-07 1:48 2:0 3:0 4:0 5:0 6:24 7:0 8:0 9:0 10:0 11:4 12:0 13:4 14:0 15:16 16:4 17:0 18:0 19:0 20:0 21:8.1899996 22:0.70999998 23:3.5599999 24:14.59 25:2.8499999 26:12.1 27:1.42 28:3.5599999 29:3.5599999 30:5.3400002 31:1.78 32:3.9100001 33:9.96 34:1.42 35:8.54 36:7.1199999 37:3.2 38:4.27 39:0.36000001 40:3.5599999 #
2.9060492032200418746862129182329e-06 1:36 2:0 3:0 4:8 5:0 6:12 7:0 8:0 9:0 10:4 11:4 12:4 13:12 14:4 15:0 16:8 17:4 18:0 19:0 20:4 21:11.83 22:3.55 23:4.1399999 24:4.73 25:5.9200001 26:14.2 27:0 28:5.9200001 29:6.5100002 30:7.6900001 31:2.96 32:1.78 33:4.1399999 34:2.3699999 35:4.1399999 36:7.0999999 37:4.1399999 38:4.73 39:0.58999997 40:3.55 #
-2.906049203220042086444449731808e-07 1:4 2:0 3:8 4:0 5:4 6:8 7:4 8:4 9:4 10:8 11:8 12:4 13:0 14:8 15:16 16:12 17:4 18:0 19:0 20:4 21:5.1500001 22:1.29 23:6.5599999 24:5.9499998 25:4.23 26:4.9699998 27:1.96 28:7.3600001 29:6.7399998 30:9.1999998 31:2.8800001 32:6.3200002 33:3.3699999 34:3.3099999 35:4.8400002 36:8.8299999 37:6.4400001 38:5.5799999 39:1.29 40:3.74 #
-2.906049203220042086444449731808e-07 1:12 2:0 3:0 4:4 5:0 6:16 7:0 8:0 9:4 10:12 11:8 12:4 13:0 14:4 15:8 16:0 17:0 18:20 19:8 20:0 21:7.5799999 22:4.29 23:4.5799999 24:7.1500001 25:4.0100002 26:6.7199998 27:3.72 28:4.1500001 29:4.4299998 30:10.01 31:3.1500001 32:5.1500001 33:5.1500001 34:3.29 35:5.4400001 36:5.4400001 37:4.5799999 38:5.29 39:1.72 40:4.1500001 #
-5.0291005574642373279078640981032e-08 1:4 2:0 3:0 4:4 5:0 6:0 7:4 8:0 9:4 10:20 11:4 12:0 13:16 14:12 15:0 16:12 17:12 18:8 19:0 20:0 21:1.0700001 22:0.36000001 23:1.4299999 24:20.540001 25:0.18000001 26:6.79 27:5 28:0.18000001 29:7.8600001 30:15 31:0.88999999 32:0.70999998 33:7.1399999 34:26.25 35:0.54000002 36:0.54000002 37:0.88999999 38:3.9300001 39:0.36000001 40:0.36000001 #
-2.906049203220042086444449731808e-07 1:4 2:0 3:4 4:0 5:0 6:8 7:0 8:0 9:0 10:16 11:8 12:4 13:4 14:4 15:4 16:12 17:8 18:16 19:8 20:0 21:4.8400002 22:2.02 23:4.4400001 24:6.0500002 25:5.2399998 26:7.6599998 27:2.4200001 28:3.6300001 29:3.23 30:10.48 31:2.4200001 32:3.23 33:4.4400001 34:5.6500001 35:6.4499998 36:6.4499998 37:5.6500001 38:10.48 39:2.02 40:3.23 #
-2.906049203220042086444449731808e-07 1:8 2:0 3:0 4:0 5:0 6:0 7:0 8:4 9:8 10:8 11:4 12:4 13:4 14:0 15:4 16:20 17:16 18:20 19:0 20:0 21:3.3800001 22:2.7 23:2.7 24:8.1099997 25:7.4299998 26:6.0799999 27:2.03 28:3.3800001 29:8.1099997 30:12.16 31:2.7 32:6.0799999 33:5.4099998 34:4.0500002 35:2.7 36:7.4299998 37:6.0799999 38:6.7600002 39:0.68000001 40:2.03 #
2.9060492032200418746862129182329e-06 1:36 2:0 3:0 4:4 5:0 6:20 7:0 8:4 9:4 10:0 11:8 12:4 13:8 14:0 15:0 16:8 17:0 18:4 19:0 20:0 21:11.77 22:2.22 23:5.9699998 24:8.0200005 25:3.0699999 26:6.48 27:1.54 28:4.27 29:9.8999996 30:9.8999996 31:3.24 32:4.0999999 33:3.24 34:5.6300001 35:4.27 36:5.29 37:3.4100001 38:3.0699999 39:0.68000001 40:3.9200001 #
-2.906049203220042086444449731808e-07 1:4 2:0 3:4 4:0 5:0 6:8 7:0 8:0 9:4 10:0 11:12 12:8 13:8 14:24 15:8 16:4 17:0 18:4 19:0 20:12 21:8.3000002 22:0.94 23:4.7199998 24:4.7199998 25:2.8299999 26:6.4200001 27:3.5799999 28:6.04 29:7.5500002 30:9.0600004 31:2.45 32:5.8499999 33:4.3400002 34:4.1500001 35:6.04 36:5.6599998 37:5.8499999 38:5.8499999 39:1.13 40:4.5300002 #
-2.5758903770614502389192006573393e-07 1:0 2:0 3:24 4:8 5:8 6:4 7:0 8:4 9:8 10:8 11:4 12:4 13:12 14:0 15:8 16:0 17:8 18:0 19:0 20:0 21:6.54 22:0.98000002 23:5.9400001 24:6.54 25:5.79 26:5.6399999 27:2.03 28:8.1199999 29:5.71 30:9.3199997 31:2.03 32:6.0900002 33:3.1600001 34:3.53 35:4.21 36:7.29 37:6.1700001 38:5.6399999 39:1.35 40:3.9100001 #
-2.906049203220042086444449731808e-07 1:40 2:0 3:0 4:0 5:0 6:32 7:0 8:0 9:0 10:0 11:4 12:0 13:8 14:0 15:0 16:4 17:4 18:8 19:0 20:0 21:7.6700001 22:1.76 23:3.8299999 24:4.1500001 25:4.9499998 26:8.79 27:3.3499999 28:5.27 29:3.04 30:7.5100002 31:3.1900001 32:3.99 33:5.27 34:4.6300001 35:4.4699998 36:9.7399998 37:6.5500002 38:6.8699999 39:1.12 40:3.8299999 #
2.9060492032200418746862129182329e-06 1:0 2:4 3:0 4:8 5:4 6:0 7:0 8:0 9:0 10:28 11:8 12:8 13:8 14:4 15:4 16:12 17:8 18:4 19:0 20:0 21:3.4100001 22:0.68000001 23:7.27 24:6.5900002 25:3.6400001 26:3.1800001 27:2.27 28:7.0500002 29:9.3199997 30:8.1800003 31:1.8200001 32:9.5500002 33:4.3200002 34:1.8200001 35:6.1399999 36:10.23 37:6.8200002 38:4.77 39:0.68000001 40:2.27 #
1.6107704646603582205937818527808e-06 1:0 2:0 3:0 4:0 5:4 6:0 7:0 8:8 9:0 10:20 11:12 12:4 13:12 14:8 15:0 16:0 17:24 18:4 19:4 20:0 21:0 22:2.3299999 23:0 24:2.3299999 25:0 26:0 27:4.6500001 28:2.3299999 29:16.280001 30:11.63 31:6.98 32:9.3000002 33:18.6 34:2.3299999 35:0 36:9.3000002 37:4.6500001 38:0 39:4.6500001 40:4.6500001 #
-2.906049203220042086444449731808e-07 1:0 2:4 3:0 4:0 5:4 6:4 7:12 8:0 9:0 10:16 11:4 12:0 13:8 14:0 15:8 16:32 17:8 18:0 19:0 20:0 21:7.0599999 22:2.3499999 23:1.1799999 24:5.8800001 25:5.8800001 26:9.4099998 27:0 28:10.59 29:7.0599999 30:12.94 31:1.1799999 32:4.71 33:7.0599999 34:7.0599999 35:3.53 36:2.3499999 37:3.53 38:7.0599999 39:1.1799999 40:0 #
-2.906049203220042086444449731808e-07 1:4 2:4 3:0 4:0 5:0 6:12 7:0 8:0 9:0 10:40 11:4 12:0 13:4 14:4 15:20 16:4 17:0 18:0 19:0 20:4 21:5.6500001 22:4.7600002 23:2.6800001 24:2.0799999 25:5.3600001 26:5.6500001 27:5.0599999 28:5.0599999 29:2.98 30:10.12 31:1.49 32:3.8699999 33:6.25 34:1.49 35:7.4400001 36:6.5500002 37:5.0599999 38:8.9300003 39:3.8699999 40:5.6500001 #
2.6524458656889402232369710998849e-06 1:32 2:0 3:4 4:4 5:0 6:28 7:0 8:0 9:0 10:0 11:8 12:0 13:8 14:0 15:4 16:4 17:0 18:4 19:4 20:0 21:7.9699998 22:1.65 23:3.5699999 24:3.02 25:4.9499998 26:10.44 27:2.75 28:3.3 29:4.6700001 30:11.54 31:3.8499999 32:2.75 33:6.5900002 34:3.3 35:5.2199998 36:8.5200005 37:3.5699999 38:8.5200005 39:0.81999999 40:3.02 #
-2.906049203220042086444449731808e-07 1:8 2:4 3:0 4:4 5:0 6:0 7:4 8:4 9:0 10:12 11:8 12:0 13:8 14:0 15:12 16:8 17:16 18:8 19:4 20:0 21:9.3299999 22:1.33 23:2.6700001 24:6.6700001 25:1.33 26:6 27:2.6700001 28:3.3299999 29:6 30:8.6700001 31:2.6700001 32:1.33 33:2.6700001 34:8 35:11.33 36:10.67 37:8.6700001 38:4.6700001 39:0.67000002 40:1.33 #
2.9060492032200418746862129182329e-06 1:0 2:0 3:0 4:0 5:8 6:0 7:4 8:0 9:4 10:24 11:8 12:0 13:8 14:12 15:12 16:12 17:4 18:4 19:0 20:0 21:5.5799999 22:1.12 23:7.4299998 24:4.46 25:4.0900002 26:7.0599999 27:2.97 28:4.0900002 29:6.3200002 30:10.41 31:2.5999999 32:2.5999999 33:6.6900001 34:3.3499999 35:3.3499999 36:10.04 37:7.4299998 38:7.4299998 39:0 40:2.97 #
-2.906049203220042086444449731808e-07 1:4 2:0 3:12 4:8 5:8 6:0 7:0 8:4 9:12 10:8 11:4 12:4 13:8 14:0 15:0 16:4 17:8 18:4 19:0 20:12 21:8.04 22:0.81999999 23:7.23 24:6.0599999 25:5.5900002 26:5.71 27:1.98 28:3.8499999 29:6.6399999 30:10.37 31:2.3299999 32:4.4299998 33:4.4299998 34:3.5 35:4.4299998 36:7.8099999 37:5.0100002 38:7.23 39:1.17 40:3.3800001 #
-2.906049203220042086444449731808e-07 1:0 2:0 3:0 4:4 5:12 6:8 7:0 8:20 9:4 10:8 11:16 12:0 13:0 14:12 15:0 16:4 17:4 18:8 19:0 20:0 21:2.04 22:0 23:20.41 24:2.04 25:4.0799999 26:8.1599998 27:2.04 28:0 29:6.1199999 30:20.41 31:2.04 32:2.04 33:0 34:2.04 35:8.1599998 36:8.1599998 37:0 38:8.1599998 39:4.0799999 40:0 #
-2.906049203220042086444449731808e-07 1:4 2:0 3:0 4:0 5:0 6:20 7:0 8:0 9:8 10:4 11:20 12:12 13:8 14:0 15:8 16:4 17:12 18:0 19:0 20:0 21:5.3600001 22:0 23:5.9899998 24:8.8299999 25:2.8399999 26:7.8899999 27:1.89 28:5.9899998 29:10.41 30:7.5700002 31:3.79 32:3.79 33:6.3099999 34:5.6799998 35:5.3600001 36:6.3099999 37:3.47 38:6.3099999 39:0.63 40:1.58 #
2.9060492032200418746862129182329e-06 1:44 2:0 3:8 4:0 5:0 6:0 7:0 8:0 9:0 10:0 11:4 12:4 13:8 14:0 15:0 16:16 17:16 18:0 19:0 20:0 21:9.1499996 22:0.94999999 23:2.21 24:4.4200001 25:5.0500002 26:5.0500002 27:1.89 28:5.6799998 29:4.0999999 30:13.56 31:2.21 32:4.4200001 33:7.2600002 34:5.0500002 35:5.6799998 36:5.9899998 37:5.6799998 38:8.5200005 39:0.94999999 40:2.21 #
2.9060492032200418746862129182329e-06 1:28 2:0 3:0 4:0 5:0 6:4 7:4 8:0 9:0 10:0 11:4 12:0 13:24 14:0 15:16 16:20 17:0 18:0 19:0 20:0 21:16.24 22:3.4200001 23:1.71 24:3.4200001 25:2.5599999 26:10.26 27:2.5599999 28:0.85000002 29:1.71 30:7.6900001 31:3.4200001 32:0 33:12.82 34:8.5500002 35:0.85000002 36:11.97 37:5.1300001 38:4.27 39:0 40:2.5599999 #
-2.906049203220042086444449731808e-07 1:4 2:0 3:0 4:16 5:4 6:8 7:0 8:8 9:8 10:8 11:4 12:4 13:0 14:4 15:8 16:4 17:8 18:8 19:0 20:4 21:7.0500002 22:0.63999999 23:5.77 24:3.8499999 25:5.77 26:7.0500002 27:4.4899998 28:5.1300001 29:8.3299999 30:9.6199999 31:3.21 32:3.8499999 33:5.1300001 34:1.92 35:4.4899998 36:5.1300001 37:5.77 38:8.9700003 39:0.63999999 40:3.21 #
-2.906049203220042086444449731808e-07 1:40 2:4 3:0 4:0 5:0 6:8 7:0 8:0 9:0 10:0 11:4 12:0 13:24 14:4 15:0 16:12 17:0 18:4 19:0 20:0 21:19.870001 22:0.66000003 23:2.6500001 24:3.3099999 25:1.99 26:11.26 27:0 28:2.6500001 29:0.66000003 30:15.89 31:1.3200001 32:0.66000003 33:6.6199999 34:3.3099999 35:13.25 36:5.96 37:1.99 38:3.97 39:1.99 40:1.99 #
8.3585565927998430312559699495445e-07 1:0 2:0 3:0 4:4 5:16 6:0 7:0 8:0 9:16 10:12 11:4 12:0 13:8 14:4 15:8 16:4 17:12 18:4 19:0 20:8 21:6.9200001 22:0.63 23:8.1800003 24:6.9200001 25:0.63 26:2.52 27:3.1400001 28:3.77 29:8.1800003 30:13.84 31:2.52 32:4.4000001 33:3.1400001 34:11.32 35:4.4000001 36:5.0300002 37:5.0300002 38:3.1400001 39:1.89 40:4.4000001 #
2.9060492032200418746862129182329e-06 1:0 2:8 3:0 4:4 5:4 6:4 7:0 8:8 9:8 10:24 11:4 12:4 13:0 14:4 15:0 16:4 17:12 18:8 19:0 20:4 21:5.4299998 22:1.27 23:6.52 24:10.87 25:5.25 26:3.0799999 27:2.1700001 28:6.1599998 29:9.96 30:5.8000002 31:1.63 32:4.71 33:1.27 34:4.3499999 35:4.8899999 36:7.79 37:7.9699998 38:6.6999998 39:1.09 40:3.0799999 #
-2.906049203220042086444449731808e-07 1:8 2:0 3:8 4:8 5:0 6:12 7:8 8:0 9:4 10:0 11:4 12:4 13:8 14:0 15:4 16:16 17:0 18:8 19:0 20:8 21:7.79 22:0.88 23:3.8900001 24:4.4200001 25:6.3699999 26:7.0799999 27:1.24 28:6.02 29:6.3699999 30:11.15 31:3.01 32:3.3599999 33:3.01 34:2.3 35:4.0700002 36:8.5 37:6.73 38:9.0299997 39:1.77 40:3.01 #
-2.906049203220042086444449731808e-07 1:12 2:0 3:8 4:8 5:4 6:0 7:0 8:8 9:8 10:8 11:4 12:0 13:0 14:4 15:12 16:0 17:16 18:8 19:0 20:0 21:5.6599998 22:0 23:1.89 24:0 25:3.77 26:5.6599998 27:0 28:5.6599998 29:20.75 30:13.21 31:0 32:7.5500002 33:5.6599998 34:3.77 35:5.6599998 36:7.5500002 37:5.6599998 38:5.6599998 39:0 40:1.89 #
-2.906049203220042086444449731808e-07 1:4 2:0 3:8 4:0 5:0 6:0 7:12 8:12 9:8 10:20 11:4 12:4 13:4 14:0 15:0 16:12 17:0 18:0 19:4 20:8 21:3.54 22:1.61 23:5.79 24:7.7199998 25:5.79 26:6.1100001 27:1.61 28:6.4299998 29:6.4299998 30:9 31:1.9299999 32:5.1399999 33:6.1100001 34:2.8900001 35:4.1799998 36:6.75 37:5.4699998 38:6.4299998 39:2.5699999 40:4.5 #
-2.906049203220042086444449731808e-07 1:12 2:4 3:0 4:4 5:0 6:12 7:0 8:0 9:0 10:4 11:8 12:0 13:8 14:0 15:8 16:8 17:4 18:8 19:0 20:20 21:13.55 22:0.69999999 23:2.8 24:2.8 25:1.64 26:13.08 27:9.3500004 28:1.17 29:1.17 30:6.54 31:1.17 32:3.97 33:6.0700002 34:4.6700001 35:2.0999999 36:15.42 37:4.4400001 38:4.6700001 39:0.69999999 40:3.97 #
-2.906049203220042086444449731808e-07 1:0 2:0 3:8 4:52 5:0 6:8 7:0 8:0 9:0 10:0 11:4 12:0 13:12 14:0 15:8 16:0 17:0 18:8 19:0 20:0 21:4.8400002 22:0.54000002 23:4.3000002 24:10.75 25:3.23 26:7.5300002 27:0.54000002 28:2.1500001 29:8.0600004 30:13.98 31:2.1500001 32:3.76 33:5.3800001 34:5.3800001 35:8.6000004 36:5.3800001 37:3.76 38:8.0600004 39:0 40:1.61 #
-2.906049203220042086444449731808e-07 1:4 2:0 3:4 4:8 5:0 6:8 7:0 8:8 9:8 10:8 11:4 12:4 13:8 14:12 15:8 16:8 17:4 18:0 19:0 20:4 21:5.1799998 22:2.3199999 23:4.1799998 24:6.73 25:5.2600002 26:4.7199998 27:2.55 28:5.6500001 29:7.8899999 30:12.37 31:1.86 32:4.25 33:4.1799998 34:4.5599999 35:4.8699999 36:9.0500002 37:4.4899998 38:5.2600002 39:1.86 40:2.78 #
-2.906049203220042086444449731808e-07 1:8 2:4 3:0 4:0 5:8 6:16 7:4 8:4 9:8 10:12 11:4 12:8 13:0 14:0 15:4 16:16 17:0 18:4 19:0 20:0 21:3.6400001 22:0.75 23:5.02 24:6.02 25:4.3899999 26:4.3899999 27:3.1400001 28:6.27 29:5.52 30:8.5299997 31:1.51 32:7.7800002 33:5.02 34:4.6399999 35:3.76 36:14.68 37:7.9000001 38:4.1399999 39:0.38 40:2.51 #
-2.906049203220042086444449731808e-07 1:0 2:0 3:0 4:12 5:0 6:4 7:8 8:12 9:8 10:12 11:8 12:8 13:12 14:4 15:12 16:0 17:0 18:0 19:0 20:0 21:4.2399998 22:2.1199999 23:6.5900002 24:6.1199999 25:4.2399998 26:6.3499999 27:2.1199999 28:3.76 29:7.0599999 30:8.71 31:3.29 32:6.5900002 33:5.4099998 34:4.71 35:4.71 36:5.8800001 37:6.3499999 38:7.5300002 39:0.70999998 40:3.53 #
-2.906049203220042086444449731808e-07 1:8 2:0 3:0 4:8 5:4 6:8 7:0 8:0 9:0 10:12 11:4 12:8 13:4 14:0 15:8 16:24 17:4 18:8 19:0 20:0 21:9.2200003 22:3.3499999 23:2.51 24:4.75 25:6.98 26:5.5900002 27:2.23 28:7.8200002 29:3.9100001 30:7.54 31:4.4699998 32:3.6300001 33:5.5900002 34:2.23 35:3.6300001 36:5.5900002 37:8.6599998 38:5.3099999 39:1.96 40:5.0300002 #
-1.4212509625503597039458333894935e-07 1:12 2:0 3:12 4:4 5:4 6:8 7:0 8:4 9:12 10:12 11:4 12:4 13:0 14:0 15:0 16:8 17:8 18:0 19:4 20:4 21:6.1399999 22:0.88 23:5.2600002 24:9.0600004 25:4.6799998 26:7.5999999 27:4.0900002 28:3.8 29:9.6499996 30:8.4799995 31:0.88 32:3.51 33:4.0900002 34:4.9699998 35:2.9200001 36:5.5599999 37:5.8499999 38:6.73 39:2.05 40:3.8 #
-2.906049203220042086444449731808e-07 1:48 2:0 3:0 4:4 5:0 6:0 7:0 8:4 9:4 10:4 11:4 12:0 13:0 14:4 15:12 16:4 17:8 18:4 19:0 20:0 21:6.3200002 22:0.97000003 23:6.9699998 24:6.3200002 25:4.0500002 26:4.54 27:1.78 28:5.3499999 29:6.9699998 30:11.18 31:3.0799999 32:5.3499999 33:4.54 34:4.54 35:4.54 36:6.8099999 37:5.5100002 38:6.8099999 39:0.64999998 40:3.73 #
2.9060492032200418746862129182329e-06 1:0 2:0 3:4 4:12 5:0 6:4 7:0 8:0 9:8 10:16 11:4 12:0 13:4 14:0 15:4 16:36 17:8 18:0 19:0 20:0 21:9.2700005 22:0.99000001 23:1.99 24:2.98 25:5.96 26:10.93 27:0.99000001 28:6.9499998 29:7.9499998 30:7.9499998 31:1.99 32:4.9699998 33:4.9699998 34:3.97 35:2.98 36:7.2800002 37:7.2800002 38:7.6199999 39:0.66000003 40:2.3199999 #
-2.906049203220042086444449731808e-07 1:4 2:0 3:0 4:16 5:4 6:8 7:0 8:0 9:12 10:12 11:4 12:4 13:0 14:4 15:20 16:8 17:4 18:0 19:0 20:0 21:9.6199999 22:0 23:4.23 24:2.3099999 25:3.8499999 26:3.8499999 27:1.54 28:5.3800001 29:5.77 30:15.38 31:1.54 32:5 33:7.3099999 34:4.6199999 35:1.92 36:10.38 37:6.9200001 38:5 39:1.92 40:3.46 #
2.9060492032200418746862129182329e-06 1:0 2:0 3:8 4:8 5:4 6:4 7:0 8:8 9:0 10:4 11:8 12:8 13:8 14:0 15:0 16:28 17:8 18:4 19:0 20:0 21:3.49 22:1.3099999 23:5.23 24:3.49 25:6.0999999 26:7.4099998 27:4.1399999 28:5.0100002 29:6.9699998 30:12.64 31:1.74 32:5.6599998 33:4.1399999 34:4.3600001 35:3.7 36:8.71 37:7.1900001 38:4.5799999 39:1.53 40:2.6099999 #
-2.906049203220042086444449731808e-07 1:4 2:0 3:0 4:0 5:24 6:4 7:0 8:0 9:8 10:32 11:8 12:0 13:0 14:8 15:4 16:0 17:0 18:0 19:4 20:4 21:6.0700002 22:2.1800001 23:6.3899999 24:4.8299999 25:4.6700001 26:5.4499998 27:2.02 28:5.7600002 29:5.9200001 30:8.5699997 31:3.27 32:4.3600001 33:4.98 34:3.1199999 35:7.79 36:7.9400001 37:5.3000002 38:5.9200001 39:2.6500001 40:2.8 #
-2.906049203220042086444449731808e-07 1:12 2:0 3:0 4:0 5:8 6:0 7:4 8:0 9:0 10:20 11:8 12:0 13:0 14:0 15:4 16:16 17:16 18:12 19:0 20:0 21:4.4699998 22:0.76999998 23:5.5500002 24:6.1599998 25:4.6199999 26:5.6999998 27:4.0100002 28:9.0900002 29:5.8600001 30:7.2399998 31:0.92000002 32:5.5500002 33:6.0100002 34:2.77 35:4.1599998 36:6.9299998 37:6.6300001 38:7.8600001 39:1.6900001 40:4.0100002 #
-2.906049203220042086444449731808e-07 1:24 2:0 3:0 4:4 5:4 6:16 7:4 8:4 9:4 10:8 11:4 12:4 13:0 14:4 15:4 16:0 17:4 18:12 19:0 20:0 21:8.3000002 22:1.66 23:6.2199998 24:4.98 25:3.3199999 26:8.3000002 27:1.66 28:8.71 29:6.6399999 30:9.96 31:2.9000001 32:6.6399999 33:2.9000001 34:6.2199998 35:2.0699999 36:4.1500001 37:4.98 38:6.2199998 39:0.82999998 40:3.3199999 #
2.9060492032200418746862129182329e-06 1:16 2:0 3:0 4:0 5:4 6:0 7:0 8:8 9:0 10:8 11:4 12:0 13:0 14:0 15:8 16:44 17:4 18:0 19:0 20:4 21:6.7399998 22:1.14 23:5.4899998 24:5.2800002 25:4.6599998 26:8.5 27:2.0699999 28:5.1799998 29:5.5999999 30:7.8800001 31:2.9000001 32:4.9699998 33:5.9099998 34:2.5899999 35:4.6599998 36:8.0799999 37:6.0100002 38:8.5 39:1.04 40:2.8 #
-2.906049203220042086444449731808e-07 1:12 2:0 3:4 4:20 5:4 6:0 7:0 8:0 9:8 10:0 11:4 12:4 13:8 14:0 15:4 16:24 17:8 18:0 19:0 20:0 21:6.6700001 22:3.3299999 23:4.29 24:2.3800001 25:8.1000004 26:17.139999 27:3.8099999 28:3.8099999 29:3.3299999 30:6.1900001 31:2.8599999 32:6.1900001 33:8.1000004 34:3.3299999 35:3.3299999 36:6.1900001 37:2.3800001 38:5.2399998 39:1.9 40:1.4299999 #
-2.906049203220042086444449731808e-07 1:16 2:0 3:4 4:0 5:0 6:4 7:0 8:0 9:0 10:4 11:4 12:12 13:8 14:0 15:4 16:28 17:16 18:0 19:0 20:0 21:6.5 22:2.28 23:5.0999999 24:6.8499999 25:5.27 26:7.5599999 27:2.46 28:5.8000002 29:7.3800001 30:9.3100004 31:2.99 32:4.5700002 33:3.6900001 34:4.2199998 35:4.75 36:5.27 37:5.4499998 38:5.6199999 39:1.58 40:3.3399999 #
-2.906049203220042086444449731808e-07 1:44 2:4 3:0 4:0 5:0 6:8 7:0 8:0 9:0 10:4 11:4 12:0 13:4 14:0 15:12 16:0 17:0 18:20 19:0 20:0 21:6.3800001 22:0.43000001 23:7.25 24:12.46 25:2.46 26:4.7800002 27:1.16 28:3.1900001 29:12.61 30:6.6700001 31:2.03 32:4.0599999 33:3.3299999 34:5.0700002 35:7.0999999 36:10.87 37:3.9100001 38:4.3499999 39:0.57999998 40:1.3 #
-2.906049203220042086444449731808e-07 1:4 2:0 3:8 4:0 5:4 6:4 7:0 8:16 9:8 10:4 11:12 12:8 13:0 14:8 15:8 16:4 17:8 18:4 19:0 20:0 21:5.4099998 22:2.3 23:5.1100001 24:6.9099998 25:5.71 26:5.6100001 27:2.9000001 28:5.5100002 29:7.0100002 30:14.91 31:2 32:4.5 33:2.4000001 34:4.9000001 35:3.8 36:7.5100002 37:5.5100002 38:4.8000002 39:1.1 40:2.0999999 #
-2.906049203220042086444449731808e-07 1:8 2:0 3:0 4:0 5:0 6:0 7:0 8:4 9:0 10:8 11:4 12:0 13:4 14:0 15:8 16:36 17:28 18:0 19:0 20:0 21:4.9899998 22:1.1900001 23:0.23999999 24:1.66 25:0.94999999 26:7.1300001 27:3.8 28:5.6999998 29:4.2800002 30:6.6500001 31:1.4299999 32:6.6500001 33:13.06 34:13.54 35:3.3299999 36:9.5 37:7.1300001 38:5.46 39:0.23999999 40:3.0899999 #
2.9060492032200418746862129182329e-06 1:8 2:8 3:0 4:0 5:8 6:0 7:0 8:4 9:8 10:4 11:4 12:0 13:4 14:8 15:8 16:28 17:8 18:0 19:0 20:0 21:6.6900001 22:2.01 23:6.6900001 24:5.02 25:3.01 26:6.6900001 27:3.6800001 28:6.3499999 29:7.3600001 30:10.03 31:2.6800001 32:3.6800001 33:4.6799998 34:1.67 35:5.6900001 36:9.0299997 37:6.02 38:5.6900001 39:0.33000001 40:3.01 #
2.9060492032200418746862129182329e-06 1:8 2:0 3:4 4:4 5:0 6:4 7:0 8:0 9:12 10:0 11:4 12:8 13:8 14:16 15:0 16:24 17:8 18:0 19:0 20:0 21:6.9400001 22:0 23:4.1700001 24:1.39 25:9.7200003 26:13.89 27:0 28:5.5599999 29:5.5599999 30:8.3299999 31:2.78 32:1.39 33:1.39 34:0 35:6.9400001 36:9.7200003 37:5.5599999 38:12.5 39:2.78 40:1.39 #
-2.906049203220042086444449731808e-07 1:0 2:0 3:8 4:0 5:0 6:0 7:12 8:4 9:8 10:4 11:4 12:28 13:0 14:0 15:16 16:4 17:4 18:4 19:0 20:4 21:8.3500004 22:1.3099999 23:2.78 24:4.5799999 25:7.3600001 26:7.3600001 27:0.64999998 28:8.0200005 29:4.75 30:9.6599998 31:2.78 32:4.0900002 33:3.9300001 34:3.4400001 35:3.9300001 36:6.71 37:7.6900001 38:7.04 39:1.47 40:4.0900002 #
2.9060492032200418746862129182329e-06 1:4 2:8 3:4 4:0 5:0 6:0 7:0 8:4 9:0 10:32 11:4 12:4 13:8 14:0 15:8 16:0 17:0 18:16 19:4 20:4 21:7.9699998 22:2.99 23:3.99 24:3.99 25:5.3200002 26:4.98 27:1 28:9.3000002 29:4.6500001 30:11.96 31:1 32:6.3099999 33:3.6500001 34:4.3200002 35:6.6399999 36:7.6399999 37:4.6500001 38:5.6500001 39:0.66000003 40:3.3199999 #
-2.906049203220042086444449731808e-07 1:4 2:0 3:0 4:8 5:8 6:0 7:0 8:4 9:12 10:20 11:4 12:0 13:0 14:20 15:8 16:8 17:0 18:0 19:0 20:4 21:4.48 22:2.02 23:6.5 24:6.1700001 25:4.1500001 26:5.9400001 27:4.04 28:5.8299999 29:5.3800001 30:10.09 31:2.47 32:4.1500001 33:4.1500001 34:4.2600002 35:4.1500001 36:9.1899996 37:5.7199998 38:5.8299999 39:1.6799999 40:3.8099999 #
-2.906049203220042086444449731808e-07 1:4 2:0 3:8 4:8 5:0 6:16 7:4 8:8 9:16 10:0 11:4 12:0 13:4 14:8 15:4 16:4 17:0 18:12 19:0 20:0 21:7.77 22:1.9400001 23:7.77 24:1.9400001 25:1.9400001 26:6.8000002 27:2.9100001 28:9.71 29:13.59 30:4.8499999 31:4.8499999 32:4.8499999 33:1.9400001 34:0.97000003 35:3.8800001 36:9.71 37:3.8800001 38:7.77 39:0.97000003 40:1.9400001 #
-2.906049203220042086444449731808e-07 1:28 2:0 3:0 4:0 5:0 6:4 7:0 8:0 9:4 10:4 11:4 12:0 13:4 14:0 15:16 16:12 17:4 18:20 19:0 20:0 21:15.52 22:0 23:9.1999998 24:8.0500002 25:4.02 26:4.02 27:0 28:2.8699999 29:8.6199999 30:13.22 31:0 32:1.15 33:1.72 34:4.02 35:9.1999998 36:5.1700001 37:4.5999999 38:6.9000001 39:0.56999999 40:1.15 #
-2.906049203220042086444449731808e-07 1:36 2:0 3:0 4:0 5:0 6:16 7:0 8:4 9:0 10:4 11:4 12:0 13:8 14:0 15:16 16:8 17:0 18:4 19:0 20:0 21:7.8800001 22:1.9299999 23:5.79 24:6.0900002 25:4.3099999 26:7.1300001 27:3.8599999 28:2.6700001 29:5.3499999 30:11.89 31:1.63 32:2.3800001 33:6.6900001 34:2.23 35:6.0900002 36:7.5799999 37:4.0100002 38:7.2800002 39:2.0799999 40:3.1199999 #
2.9060492032200418746862129182329e-06 1:32 2:0 3:0 4:0 5:0 6:20 7:0 8:0 9:0 10:8 11:4 12:0 13:4 14:4 15:4 16:0 17:0 18:20 19:0 20:4 21:9.5699997 22:1.98 23:3.6300001 24:8.9099998 25:5.6100001 26:6.5999999 27:0.99000001 28:4.6199999 29:6.27 30:8.9099998 31:1.3200001 32:3.6300001 33:3.96 34:6.5999999 35:6.5999999 36:5.6100001 37:5.2800002 38:5.6100001 39:0.99000001 40:3.3 #
-2.906049203220042086444449731808e-07 1:0 2:0 3:0 4:0 5:4 6:4 7:0 8:8 9:8 10:12 11:12 12:4 13:4 14:0 15:0 16:32 17:4 18:4 19:4 20:0 21:4.4099998 22:1.61 23:7.8499999 24:6.6700001 25:5.1599998 26:5.6999998 27:2.3699999 28:4.6199999 29:7.3099999 30:9.46 31:2.04 32:4.0900002 33:5.0500002 34:3.55 35:4.52 36:8.0600004 37:3.98 38:6.77 39:2.5799999 40:4.1900001 #
-2.906049203220042086444449731808e-07 1:0 2:0 3:4 4:0 5:12 6:4 7:4 8:8 9:0 10:8 11:8 12:16 13:12 14:4 15:4 16:8 17:0 18:0 19:0 20:8 21:5.6900001 22:7.3200002 23:2.4400001 24:6.5 25:5.6900001 26:4.0700002 27:4.8800001 28:6.5 29:8.9399996 30:14.63 31:0.81 32:2.4400001 33:6.5 34:4.8800001 35:4.8800001 36:1.63 37:0.81 38:8.1300001 39:0.81 40:2.4400001 #
-2.906049203220042086444449731808e-07 1:4 2:0 3:8 4:4 5:8 6:0 7:0 8:12 9:4 10:12 11:4 12:12 13:8 14:4 15:4 16:12 17:0 18:0 19:0 20:4 21:3.1500001 22:0.94999999 23:3.47 24:3.1500001 25:8.8299999 26:3.1500001 27:1.26 28:11.36 29:5.3600001 30:12.93 31:2.21 32:5.6799998 33:5.3600001 34:3.79 35:4.4200001 36:5.6799998 37:7.2600002 38:7.2600002 39:1.89 40:2.8399999 #
-2.906049203220042086444449731808e-07 1:0 2:0 3:4 4:4 5:12 6:0 7:0 8:4 9:8 10:8 11:4 12:0 13:8 14:4 15:8 16:8 17:8 18:0 19:16 20:4 21:5.0300002 22:1.96 23:3.3499999 24:6.6999998 25:8.3800001 26:3.6300001 27:3.6300001 28:7.54 29:6.1500001 30:11.45 31:2.23 32:4.1900001 33:3.3499999 34:3.9100001 35:4.1900001 36:5.8699999 37:5.0300002 38:4.4699998 39:3.3499999 40:5.5900002 #
-2.906049203220042086444449731808e-07 1:4 2:0 3:4 4:4 5:0 6:8 7:4 8:4 9:8 10:12 11:16 12:8 13:0 14:8 15:0 16:16 17:4 18:0 19:0 20:0 21:4.79 22:1.03 23:4.1100001 24:9.9300003 25:5.48 26:5.1399999 27:1.37 28:6.5100002 29:8.5600004 30:9.5900002 31:2.05 32:5.48 33:3.0799999 34:5.1399999 35:2.4000001 36:7.1900001 37:5.8200002 38:7.1900001 39:1.37 40:3.77 #
-2.906049203220042086444449731808e-07 1:4 2:0 3:0 4:0 5:4 6:12 7:4 8:4 9:0 10:12 11:4 12:12 13:8 14:0 15:0 16:16 17:8 18:8 19:0 20:4 21:6.25 22:0.94 23:5.4200001 24:4.9499998 25:6.8400002 26:5.3099999 27:1.89 28:10.14 29:5.1900001 30:12.26 31:1.89 32:4.5999999 33:4.1300001 34:1.1799999 35:3.54 36:7.9000001 37:7.1900001 38:6.7199998 39:0.82999998 40:2.8299999 #
-2.906049203220042086444449731808e-07 1:4 2:0 3:12 4:8 5:4 6:0 7:4 8:12 9:4 10:4 11:4 12:0 13:4 14:0 15:12 16:24 17:4 18:0 19:0 20:0 21:6.5100002 22:1.6799999 23:6.7199998 24:4.1999998 25:3.99 26:5.25 27:2.3099999 28:10.08 29:6.9299998 30:9.8699999 31:2.3099999 32:6.7199998 33:4.4099998 34:2.73 35:4.4099998 36:6.0900002 37:4.4099998 38:7.3499999 39:1.05 40:2.9400001 #
-2.906049203220042086444449731808e-07 1:0 2:0 3:8 4:24 5:12 6:4 7:0 8:4 9:8 10:4 11:4 12:0 13:8 14:4 15:0 16:4 17:0 18:4 19:4 20:8 21:10.53 22:1.05 23:8.4200001 24:4.21 25:6.3200002 26:9.4700003 27:5.2600002 28:5.2600002 29:11.58 30:7.3699999 31:2.1099999 32:7.3699999 33:2.1099999 34:2.1099999 35:1.05 36:4.21 37:2.1099999 38:5.2600002 39:1.05 40:3.1600001 #
2.9060492032200418746862129182329e-06 1:0 2:4 3:0 4:4 5:0 6:0 7:0 8:8 9:20 10:16 11:4 12:20 13:0 14:0 15:4 16:12 17:4 18:4 19:0 20:0 21:5.3499999 22:0.73000002 23:4.3800001 24:5.5999999 25:4.6199999 26:7.3000002 27:2.0699999 28:7.1799998 29:8.3900003 30:8.7600002 31:1.58 32:6.0799999 33:4.6199999 34:3.77 35:1.95 36:10.46 37:7.0599999 38:6.6900001 39:0.73000002 40:2.6800001 #
-2.906049203220042086444449731808e-07 1:4 2:8 3:0 4:0 5:4 6:4 7:4 8:0 9:0 10:20 11:4 12:4 13:4 14:0 15:4 16:4 17:12 18:16 19:4 20:4 21:10.98 22:2.9400001 23:3.1400001 24:5.29 25:3.3299999 26:9.6099997 27:3.53 28:1.5700001 29:2.1600001 30:17.059999 31:0.2 32:0.2 33:8.6300001 34:3.3299999 35:10.2 36:5.6900001 37:2.3499999 38:6.27 39:1.37 40:2.1600001 #
-2.906049203220042086444449731808e-07 1:12 2:0 3:0 4:0 5:0 6:4 7:0 8:0 9:0 10:16 11:8 12:0 13:4 14:0 15:16 16:20 17:12 18:4 19:4 20:0 21:5.29 22:2.1199999 23:3.1700001 24:6.3499999 25:5.5599999 26:4.7600002 27:4.5 28:2.6500001 29:2.6500001 30:14.81 31:2.3800001 32:2.3800001 33:6.8800001 34:5.0300002 35:5.8200002 36:7.1399999 37:3.1700001 38:7.6700001 39:1.59 40:6.0799999 #
-2.906049203220042086444449731808e-07 1:8 2:0 3:0 4:8 5:4 6:8 7:8 8:0 9:8 10:4 11:12 12:4 13:4 14:4 15:12 16:4 17:0 18:8 19:4 20:0 21:2.97 22:0.27000001 23:5.9499998 24:2.1600001 25:5.9499998 26:1.08 27:17.030001 28:1.62 29:4.0500002 30:4.3200002 31:0.27000001 32:1.89 33:2.97 34:35.950001 35:2.7 36:2.97 37:2.7 38:1.08 39:1.35 40:2.7 #
-2.906049203220042086444449731808e-07 1:32 2:0 3:0 4:0 5:4 6:0 7:0 8:0 9:4 10:16 11:8 12:0 13:4 14:4 15:4 16:12 17:4 18:8 19:0 20:0 21:9.5200005 22:0 23:1.59 24:0.79000002 25:0.79000002 26:28.57 27:0.79000002 28:0.79000002 29:1.59 30:11.9 31:24.6 32:6.3499999 33:5.5599999 34:0 35:3.1700001 36:3.97 37:0 38:0 39:0 40:0 #
-2.906049203220042086444449731808e-07 1:44 2:0 3:0 4:0 5:0 6:8 7:0 8:0 9:4 10:0 11:8 12:0 13:4 14:0 15:8 16:0 17:12 18:8 19:4 20:0 21:9.5100002 22:1.55 23:4.27 24:5.8299999 25:2.52 26:9.3199997 27:2.72 28:4.4699998 29:4.0799999 30:12.23 31:2.3299999 32:2.72 33:6.8000002 34:2.72 35:6.9899998 36:8.7399998 37:4.6599998 38:5.6300001 39:1.55 40:1.36 #
-2.906049203220042086444449731808e-07 1:32 2:0 3:0 4:0 5:0 6:4 7:0 8:4 9:0 10:16 11:8 12:0 13:12 14:0 15:12 16:0 17:4 18:4 19:4 20:0 21:5.5599999 22:6.1500001 23:5.3600001 24:6.3499999 25:4.7600002 26:8.5299997 27:2.3800001 28:3.1700001 29:3.5699999 30:7.54 31:0.40000001 32:4.5599999 33:6.9400001 34:4.3699999 35:5.9499998 36:5.9499998 37:7.1399999 38:6.75 39:1.1900001 40:3.3699999 #
2.9060492032200418746862129182329e-06 1:0 2:0 3:12 4:12 5:0 6:4 7:4 8:0 9:8 10:4 11:4 12:0 13:8 14:8 15:4 16:8 17:12 18:8 19:4 20:0 21:12.9 22:6.4499998 23:4.8400002 24:8.0600004 25:3.23 26:3.23 27:6.4499998 28:1.61 29:1.61 30:3.23 31:3.23 32:0 33:1.61 34:22.58 35:9.6800003 36:6.4499998 37:0 38:3.23 39:1.61 40:0 #
2.9060492032200418746862129182329e-06 1:4 2:4 3:8 4:20 5:8 6:4 7:0 8:0 9:4 10:4 11:12 12:8 13:0 14:8 15:0 16:4 17:0 18:12 19:0 20:0 21:10.68 22:5.8299999 23:8.25 24:4.8499999 25:3.4000001 26:9.71 27:3.4000001 28:1.46 29:9.71 30:8.7399998 31:2.4300001 32:3.8800001 33:2.9100001 34:4.8499999 35:3.4000001 36:3.8800001 37:2.4300001 38:3.8800001 39:0.49000001 40:5.8299999 #
2.9060492032200418746862129182329e-06 1:0 2:0 3:12 4:8 5:8 6:4 7:4 8:4 9:4 10:8 11:4 12:4 13:8 14:4 15:0 16:8 17:0 18:16 19:0 20:4 21:8.1300001 22:0.95999998 23:2.8699999 24:5.7399998 25:3.3499999 26:3.8299999 27:2.3900001 28:6.6999998 29:8.1300001 30:10.53 31:0 32:7.1799998 33:2.8699999 34:5.2600002 35:6.2199998 36:8.1300001 37:4.7800002 38:5.7399998 39:2.8699999 40:4.3099999 #
-2.906049203220042086444449731808e-07 1:0 2:0 3:24 4:24 5:8 6:0 7:0 8:0 9:0 10:4 11:12 12:4 13:12 14:8 15:0 16:0 17:4 18:0 19:0 20:0 21:6.8699999 22:0.89999998 23:6.5100002 24:11.93 25:3.0699999 26:7.5900002 27:1.08 28:5.6100001 29:14.29 30:7.5900002 31:1.99 32:2.71 33:3.98 34:1.99 35:2.71 36:4.6999998 37:5.0599999 38:6.6900001 39:1.08 40:3.6199999 #
-2.906049203220042086444449731808e-07 1:0 2:8 3:0 4:20 5:4 6:4 7:0 8:4 9:0 10:12 11:8 12:0 13:20 14:4 15:4 16:8 17:0 18:0 19:4 20:0 21:5.3800001 22:1.7 23:6.52 24:7.6500001 25:3.1199999 26:4.25 27:2.27 28:5.9499998 29:7.9299998 30:11.33 31:2.27 32:3.6800001 33:2.8299999 34:6.8000002 35:4.8200002 36:7.3699999 37:4.25 38:6.8000002 39:0.85000002 40:4.25 #
-2.906049203220042086444449731808e-07 1:8 2:0 3:0 4:8 5:0 6:0 7:0 8:4 9:8 10:4 11:4 12:0 13:8 14:4 15:20 16:16 17:12 18:4 19:0 20:0 21:5.8299999 22:0.5 23:6.6700001 24:11.17 25:2.3299999 26:3 27:1.5 28:4.5 29:13.83 30:7.5 31:3 32:4.6700001 33:4.5 34:5.1700001 35:5.8299999 36:7.1700001 37:4.6700001 38:4.8299999 39:1 40:2.3299999 #
2.9060492032200418746862129182329e-06 1:0 2:0 3:0 4:0 5:4 6:16 7:4 8:4 9:4 10:8 11:4 12:4 13:0 14:8 15:8 16:12 17:0 18:24 19:0 20:0 21:5.52 22:1.1 23:5.52 24:6.6300001 25:1.1 26:7.1799998 27:2.21 28:8.29 29:6.6300001 30:4.9699998 31:4.4200001 32:2.76 33:3.3099999 34:4.9699998 35:6.0799999 36:8.29 37:7.73 38:9.9399996 39:1.1 40:2.21 #
2.9060492032200418746862129182329e-06 1:0 2:0 3:4 4:4 5:0 6:12 7:4 8:0 9:0 10:8 11:12 12:28 13:0 14:0 15:16 16:8 17:4 18:0 19:0 20:0 21:8.46 22:2.04 23:3.9200001 24:5.3299999 25:5.96 26:7.8400002 27:1.41 28:7.8400002 29:5.6399999 30:8.6199999 31:2.51 32:3.45 33:3.76 34:3.29 35:3.6099999 36:8.3100004 37:4.0799999 38:7.8400002 39:2.04 40:4.0799999 #
2.9060492032200418746862129182329e-06 1:0 2:0 3:0 4:0 5:8 6:0 7:0 8:4 9:0 10:24 11:24 12:8 13:4 14:0 15:0 16:16 17:8 18:4 19:0 20:0 21:7.5700002 22:0.69 23:1.89 24:1.89 25:7.23 26:4.8200002 27:1.72 28:10.84 29:4.1300001 30:14.46 31:5.6799998 32:5.5100002 33:4.48 34:2.9300001 35:1.38 36:7.9200001 37:8.4300003 38:2.24 39:2.0699999 40:4.1300001 #
-2.906049203220042086444449731808e-07 1:8 2:4 3:0 4:12 5:4 6:8 7:0 8:12 9:8 10:8 11:8 12:4 13:4 14:0 15:4 16:8 17:0 18:0 19:8 20:0 21:7.4699998 22:2.27 23:4.5500002 24:8.1199999 25:4.2199998 26:4.5500002 27:2.9200001 28:3.5699999 29:5.52 30:13.96 31:1.95 32:3.5699999 33:2.27 34:7.1399999 35:8.4399996 36:6.1700001 37:3.9000001 38:5.1900001 39:1.95 40:2.27 #
-2.906049203220042086444449731808e-07 1:8 2:8 3:0 4:0 5:0 6:16 7:0 8:0 9:4 10:8 11:8 12:4 13:0 14:8 15:4 16:4 17:4 18:24 19:0 20:0 21:12.5 22:0 23:5.21 24:17.709999 25:2.0799999 26:3.1199999 27:0 28:2.0799999 29:15.62 30:0 31:1.04 32:1.04 33:6.25 34:3.1199999 35:0 36:4.1700001 37:11.46 38:12.5 39:1.04 40:1.04 #
-2.906049203220042086444449731808e-07 1:36 2:0 3:0 4:4 5:0 6:28 7:0 8:0 9:0 10:0 11:4 12:4 13:12 14:4 15:0 16:0 17:4 18:4 19:0 20:0 21:6.8000002 22:1.8200001 23:6.9699998 24:6.9699998 25:3.8099999 26:9.4499998 27:2.49 28:3.48 29:7.6300001 30:7.1300001 31:1.99 32:3.3199999 33:6.9699998 34:3.3199999 35:3.6500001 36:7.46 37:5.8000002 38:4.8099999 39:1.66 40:4.48 #
2.9060492032200418746862129182329e-06 1:20 2:8 3:0 4:0 5:0 6:4 7:8 8:4 9:4 10:32 11:4 12:0 13:0 14:0 15:4 16:0 17:0 18:8 19:0 20:4 21:7.1799998 22:1.75 23:6.4099998 24:6.5999999 25:5.4400001 26:4.0799999 27:0.97000003 28:6.5999999 29:5.0500002 30:12.43 31:2.3299999 32:3.6900001 33:5.8299999 34:3.1099999 35:7.3800001 36:5.4400001 37:4.8499999 38:6.21 39:0.97000003 40:3.6900001 #
2.7987241816348257130006495912999e-06 1:4 2:0 3:8 4:4 5:0 6:16 7:0 8:4 9:20 10:4 11:4 12:4 13:0 14:0 15:0 16:24 17:4 18:4 19:0 20:0 21:2 22:0 23:4 24:2 25:8 26:4 27:4 28:4 29:14 30:10 31:2 32:4 33:8 34:2 35:0 36:8 37:4 38:14 39:4 40:2 #
-2.906049203220042086444449731808e-07 1:0 2:0 3:0 4:4 5:0 6:0 7:4 8:4 9:20 10:24 11:8 12:8 13:4 14:4 15:16 16:4 17:0 18:0 19:0 20:0 21:5.27 22:0.93000001 23:4.6500001 24:7.29 25:4.5 26:6.98 27:2.02 28:4.5 29:10.85 30:10.23 31:2.48 32:5.5799999 33:3.8800001 34:4.5 35:4.1900001 36:7.5999999 37:6.0500002 38:5.8899999 39:0.31 40:2.3299999 #
-2.906049203220042086444449731808e-07 1:4 2:0 3:0 4:0 5:0 6:0 7:4 8:0 9:0 10:28 11:4 12:4 13:24 14:0 15:8 16:16 17:0 18:4 19:0 20:4 21:8.4799995 22:0.28999999 23:3.22 24:4.3899999 25:6.1399999 26:7.3099999 27:3.22 28:8.1899996 29:3.22 30:11.99 31:2.05 32:2.6300001 33:4.3899999 34:2.6300001 35:5.5599999 36:8.7700005 37:4.0900002 38:8.1899996 39:2.6300001 40:2.6300001 #
-2.906049203220042086444449731808e-07 1:8 2:0 3:0 4:0 5:0 6:0 7:0 8:8 9:0 10:20 11:4 12:0 13:12 14:0 15:0 16:36 17:4 18:8 19:0 20:0 21:10.26 22:0.85000002 23:1.71 24:6.8400002 25:1.71 26:5.98 27:0.85000002 28:4.27 29:13.68 30:11.11 31:3.4200001 32:3.4200001 33:5.1300001 34:5.98 35:5.98 36:6.8400002 37:2.5599999 38:8.5500002 39:0.85000002 40:0 #
1.8406632211515501857865533680281e-06 1:12 2:0 3:0 4:4 5:8 6:48 7:0 8:0 9:4 10:4 11:4 12:4 13:0 14:0 15:0 16:4 17:8 18:0 19:0 20:0 21:9.2399998 22:1.63 23:3.26 24:3.26 25:3.26 26:12.5 27:1.09 28:3.26 29:3.26 30:14.67 31:4.3499999 32:5.98 33:3.26 34:3.26 35:4.8899999 36:4.3499999 37:9.2399998 38:3.8 39:1.63 40:3.8 #
2.9060492032200418746862129182329e-06 1:0 2:0 3:0 4:8 5:0 6:0 7:4 8:0 9:4 10:28 11:12 12:0 13:4 14:8 15:8 16:20 17:0 18:0 19:0 20:4 21:4.8000002 22:2.21 23:6.27 24:4.4299998 25:3.3199999 26:5.54 27:4.0599999 28:5.1700001 29:6.6399999 30:8.4899998 31:4.4299998 32:4.0599999 33:6.27 34:7.3800001 35:4.0599999 36:4.8000002 37:5.9000001 38:6.27 39:2.21 40:3.6900001 #
-2.906049203220042086444449731808e-07 1:28 2:0 3:4 4:4 5:0 6:44 7:0 8:0 9:0 10:8 11:4 12:0 13:4 14:0 15:0 16:4 17:0 18:0 19:0 20:0 21:8.71 22:1.8 23:2.7 24:5.8600001 25:3.1500001 26:7.5100002 27:3.75 28:3.9000001 29:5.5599999 30:11.26 31:2.4000001 32:4.3499999 33:6.6100001 34:7.3600001 35:3.1500001 36:9.1599998 37:4.0500002 38:5.5599999 39:0.15000001 40:3 #
-2.906049203220042086444449731808e-07 1:8 2:8 3:0 4:4 5:0 6:4 7:4 8:8 9:0 10:8 11:8 12:8 13:0 14:4 15:8 16:4 17:16 18:8 19:0 20:0 21:6.23 22:2.6600001 23:5.21 24:6.23 25:4.5999999 26:6.9499998 27:1.12 28:9.6000004 29:6.1300001 30:8.9899998 31:2.45 32:4.9000001 33:2.96 34:2.1500001 35:2.3499999 36:8.2700005 37:7.3499999 38:8.2700005 39:0.92000002 40:2.6600001 #
2.9060492032200418746862129182329e-06 1:4 2:0 3:0 4:4 5:0 6:0 7:0 8:8 9:8 10:24 11:4 12:0 13:4 14:0 15:12 16:24 17:4 18:4 19:0 20:0 21:5.1399999 22:3.8599999 23:4.5 24:6.4299998 25:4.1799998 26:9.6499996 27:4.1799998 28:6.1100001 29:4.1799998 30:7.4000001 31:2.5699999 32:5.1399999 33:2.5699999 34:2.25 35:5.1399999 36:10.29 37:4.8200002 38:8.6800003 39:0.31999999 40:2.5699999 #
-2.906049203220042086444449731808e-07 1:12 2:0 3:4 4:8 5:0 6:4 7:4 8:4 9:4 10:0 11:4 12:4 13:4 14:0 15:8 16:28 17:4 18:4 19:0 20:4 21:8.3299999 22:1.1900001 23:3.5699999 24:3.5699999 25:8.9300003 26:2.98 27:2.3800001 28:11.31 29:5.9499998 30:13.1 31:2.3800001 32:3.5699999 33:2.98 34:3.5699999 35:3.5699999 36:4.1700001 37:5.9499998 38:5.9499998 39:2.3800001 40:4.1700001 #
-2.906049203220042086444449731808e-07 1:16 2:0 3:0 4:4 5:0 6:0 7:0 8:8 9:0 10:4 11:8 12:16 13:4 14:4 15:16 16:16 17:0 18:4 19:0 20:0 21:4.7199998 22:1.89 23:5.9000001 24:8.96 25:4.9499998 26:4.25 27:1.1799999 28:7.5500002 29:6.1300001 30:10.85 31:3.3 32:4.7199998 33:3.0699999 34:1.65 35:7.5500002 36:9.1999998 37:3.3 38:5.1900001 39:0.47 40:5.1900001 #
-2.906049203220042086444449731808e-07 1:12 2:0 3:0 4:0 5:4 6:0 7:4 8:8 9:4 10:12 11:4 12:16 13:8 14:0 15:4 16:16 17:8 18:0 19:0 20:0 21:1.09 22:2.03 23:4.2199998 24:4.3800001 25:5.7800002 26:3.1199999 27:0.77999997 28:9.0600004 29:7.3400002 30:8.2799997 31:0.16 32:22.030001 33:3.28 34:2.8099999 35:1.72 36:11.09 37:7.3400002 38:2.8099999 39:0.47 40:2.1900001 #
2.9060492032200418746862129182329e-06 1:28 2:0 3:4 4:8 5:0 6:24 7:4 8:0 9:0 10:8 11:4 12:0 13:12 14:0 15:4 16:0 17:4 18:0 19:0 20:0 21:6.5 22:2 23:6.5 24:6.5 25:6 26:5 27:2.5 28:5.5 29:8 30:8.5 31:0.5 32:5.5 33:2.5 34:5.5 35:4.5 36:8 37:3.5 38:9 39:2 40:2 #
-2.906049203220042086444449731808e-07 1:4 2:0 3:0 4:0 5:8 6:0 7:0 8:8 9:0 10:24 11:4 12:0 13:4 14:4 15:12 16:0 17:0 18:16 19:0 20:16 21:3.25 22:1.63 23:7.0500002 24:6.8699999 25:5.0599999 26:8.1400003 27:3.25 28:6.6900001 29:6.5100002 30:8.5 31:1.08 32:4.6999998 33:4.8800001 34:3.4400001 35:3.8 36:6.3299999 37:4.8800001 38:6.3299999 39:1.8099999 40:5.79 #
4.3315260162247842102125131025225e-08 1:0 2:0 3:0 4:4 5:8 6:0 7:0 8:4 9:4 10:16 11:4 12:4 13:12 14:0 15:4 16:36 17:0 18:0 19:0 20:4 21:10.86 22:2 23:2.5699999 24:3.71 25:6.29 26:11.14 27:0.56999999 28:6 29:7.4299998 30:7.71 31:2.8599999 32:2.5699999 33:6.5700002 34:2.5699999 35:2.29 36:7.4299998 37:5.71 38:6 39:0.86000001 40:4.8600001 #
-2.906049203220042086444449731808e-07 1:12 2:4 3:4 4:0 5:0 6:8 7:0 8:0 9:8 10:4 11:8 12:4 13:0 14:0 15:12 16:12 17:12 18:12 19:0 20:0 21:4.4400001 22:1.62 23:6.1500001 24:6.1500001 25:3.1600001 26:5.7199998 27:4.1799998 28:3.9300001 29:6.0599999 30:6.1500001 31:1.79 32:3.5 33:8.6300001 34:4.0999999 35:7 36:13.41 37:4.8699999 38:4.7800002 39:0.85000002 40:3.5 #
-2.906049203220042086444449731808e-07 1:16 2:4 3:0 4:8 5:0 6:4 7:0 8:4 9:0 10:8 11:8 12:8 13:0 14:0 15:8 16:12 17:8 18:4 19:0 20:8 21:5.8400002 22:2.9200001 23:7.79 24:5.52 25:2.9200001 26:5.1900001 27:3.9000001 28:4.8699999 29:5.8400002 30:11.69 31:2.4400001 32:4.5500002 33:4.2199998 34:3.5699999 35:5.8400002 36:7.79 37:5.3600001 38:5.3600001 39:0.81 40:3.5699999 #
-2.906049203220042086444449731808e-07 1:4 2:0 3:0 4:0 5:0 6:4 7:0 8:0 9:0 10:40 11:4 12:0 13:16 14:0 15:12 16:12 17:0 18:4 19:4 20:0 21:5.96 22:2.98 23:4.0799999 24:5.02 25:9.25 26:6.5799999 27:2.8199999 28:7.9899998 29:5.6399999 30:8.9300003 31:2.98 32:2.6600001 33:4.5500002 34:2.51 35:2.98 36:6.27 37:5.8000002 38:6.27 39:2.1900001 40:4.5500002 #
-2.906049203220042086444449731808e-07 1:28 2:0 3:4 4:0 5:0 6:4 7:4 8:4 9:8 10:8 11:0 12:0 13:8 14:0 15:12 16:0 17:8 18:12 19:0 20:0 21:14.89 22:0 23:1.0599999 24:1.0599999 25:3.1900001 26:4.2600002 27:0 28:2.1300001 29:25.530001 30:4.2600002 31:2.1300001 32:7.4499998 33:5.3200002 34:1.0599999 35:9.5699997 36:4.2600002 37:3.1900001 38:8.5100002 39:0 40:2.1300001 #
-2.906049203220042086444449731808e-07 1:12 2:4 3:8 4:8 5:4 6:8 7:0 8:0 9:8 10:12 11:4 12:4 13:12 14:4 15:4 16:0 17:4 18:0 19:0 20:4 21:8.1700001 22:1.51 23:5.4499998 24:6.3499999 25:3.9300001 26:4.3899999 27:2.27 28:3.78 29:6.6599998 30:12.41 31:2.72 32:3.1800001 33:3.9300001 34:6.1999998 35:4.54 36:8.1700001 37:5.5999999 38:6.8099999 39:0.91000003 40:3.03 #
-2.906049203220042086444449731808e-07 1:36 2:0 3:0 4:8 5:4 6:4 7:0 8:0 9:12 10:0 11:0 12:4 13:32 14:0 15:0 16:0 17:0 18:0 19:0 20:0 21:8.7200003 22:1.38 23:8.7200003 24:7.3400002 25:5.5 26:7.8000002 27:0.92000002 28:7.8000002 29:10.55 30:3.21 31:1.83 32:3.21 33:4.5900002 34:3.21 35:4.1300001 36:4.5900002 37:4.5900002 38:8.2600002 39:1.38 40:2.29 #
2.9060492032200418746862129182329e-06 1:8 2:4 3:12 4:4 5:0 6:28 7:0 8:0 9:0 10:4 11:8 12:4 13:0 14:4 15:20 16:0 17:0 18:4 19:0 20:0 21:9.8999996 22:1.28 23:2.5599999 24:3.8299999 25:3.8299999 26:7.0300002 27:3.1900001 28:4.4699998 29:3.1900001 30:8.6300001 31:5.4299998 32:5.75 33:3.8299999 34:5.1100001 35:5.4299998 36:7.9899998 37:7.0300002 38:5.1100001 39:0.95999998 40:5.4299998 #
-2.906049203220042086444449731808e-07 1:8 2:0 3:4 4:0 5:8 6:12 7:0 8:0 9:0 10:8 11:8 12:8 13:8 14:8 15:8 16:12 17:0 18:4 19:0 20:4 21:10.85 22:0.47 23:4.0100002 24:4.48 25:2.3599999 26:10.14 27:4.7199998 28:4.7199998 29:3.77 30:6.5999999 31:1.1799999 32:4.0100002 33:5.9000001 34:4.48 35:6.3699999 36:11.56 37:5.4200001 38:4.25 39:0.94 40:3.77 #
2.9060492032200418746862129182329e-06 1:4 2:0 3:12 4:4 5:8 6:28 7:4 8:0 9:0 10:4 11:4 12:0 13:8 14:4 15:16 16:0 17:0 18:0 19:0 20:4 21:4.5799999 22:1.27 23:2.04 24:5.3400002 25:4.5799999 26:8.9099998 27:3.8199999 28:8.6499996 29:3.3099999 30:10.69 31:1.53 32:3.5599999 33:6.1100001 34:4.5799999 35:3.8199999 36:7.8899999 37:7.3800001 38:6.8699999 39:1.02 40:4.0700002 #
2.9060492032200418746862129182329e-06 1:28 2:0 3:0 4:0 5:4 6:0 7:0 8:8 9:4 10:12 11:4 12:0 13:12 14:0 15:0 16:24 17:0 18:4 19:0 20:0 21:7.0500002 22:3.21 23:9.29 24:4.4899998 25:2.24 26:10.26 27:1.28 28:3.21 29:4.8099999 30:3.8499999 31:1.28 32:5.4499998 33:3.53 34:3.53 35:0.95999998 36:13.14 37:8.3299999 38:7.3699999 39:1.92 40:4.8099999 #
-2.906049203220042086444449731808e-07 1:16 2:0 3:8 4:0 5:4 6:44 7:0 8:0 9:0 10:0 11:8 12:4 13:12 14:0 15:4 16:0 17:0 18:0 19:0 20:0 21:7.8400002 22:1.87 23:3.73 24:3.73 25:3.73 26:11.94 27:1.49 28:6.3400002 29:8.96 30:7.0900002 31:1.87 32:1.12 33:4.8499999 34:2.24 35:8.5799999 36:5.2199998 37:7.8400002 38:7.8400002 39:1.12 40:2.6099999 #
-1.3117867268945373121014422168606e-07 1:16 2:0 3:12 4:4 5:0 6:40 7:0 8:0 9:0 10:0 11:4 12:0 13:8 14:4 15:4 16:0 17:0 18:8 19:0 20:0 21:5.1700001 22:2.21 23:4.6100001 24:5.7199998 25:5.7199998 26:4.4299998 27:2.03 28:7.0100002 29:5.7199998 30:12.55 31:2.77 32:4.2399998 33:4.2399998 34:3.51 35:6.27 36:7.5599999 37:4.98 38:6.6399999 39:0.55000001 40:4.0599999 #
-2.2684159193582120323583813277513e-07 1:12 2:0 3:0 4:8 5:4 6:0 7:4 8:4 9:4 10:4 11:8 12:4 13:8 14:8 15:12 16:8 17:8 18:4 19:0 20:0 21:6.8000002 22:1.88 23:5.3099999 24:7.1500001 25:2.3 26:14.24 27:2.4100001 28:2.3399999 29:4.25 30:6.8699999 31:1.5599999 32:1.95 33:6.02 34:4.96 35:6.98 36:9.9499998 37:5.3099999 38:6.1999998 39:1.7 40:1.84 #
2.9060492032200418746862129182329e-06 1:12 2:0 3:0 4:0 5:8 6:0 7:0 8:8 9:0 10:32 11:8 12:8 13:4 14:0 15:0 16:0 17:12 18:4 19:4 20:0 21:8.8900003 22:1.11 23:2.22 24:6.6700001 25:7.7800002 26:3.3299999 27:0 28:4.4400001 29:3.3299999 30:20 31:4.4400001 32:3.3299999 33:5.5599999 34:3.3299999 35:1.11 36:6.6700001 37:7.7800002 38:3.3299999 39:3.3299999 40:3.3299999 #
2.9060492032200418746862129182329e-06 1:20 2:0 3:0 4:4 5:0 6:0 7:0 8:8 9:4 10:12 11:4 12:0 13:20 14:4 15:0 16:12 17:12 18:0 19:0 20:0 21:6.9099998 22:1.1 23:5.25 24:4.1399999 25:5.8000002 26:8.29 27:1.1 28:3.8699999 29:4.9699998 30:10.77 31:1.38 32:6.0799999 33:4.1399999 34:7.46 35:2.76 36:9.3900003 37:6.3499999 38:6.3499999 39:0.82999998 40:3.04 #
-2.906049203220042086444449731808e-07 1:20 2:0 3:0 4:0 5:4 6:0 7:0 8:0 9:0 10:12 11:8 12:0 13:4 14:8 15:8 16:36 17:0 18:0 19:0 20:0 21:8.7600002 22:0.51999998 23:2.5799999 24:2.0599999 25:7.2199998 26:11.86 27:0.51999998 28:4.6399999 29:5.1500001 30:10.31 31:0.51999998 32:2.0599999 33:7.73 34:2.5799999 35:3.0899999 36:8.7600002 37:7.2199998 38:9.2799997 39:1.55 40:3.6099999 #
-2.906049203220042086444449731808e-07 1:8 2:0 3:0 4:0 5:0 6:8 7:8 8:12 9:4 10:0 11:4 12:8 13:4 14:12 15:0 16:16 17:8 18:8 19:0 20:0 21:8 22:0 23:5.5999999 24:7.1999998 25:0.80000001 26:6.4000001 27:1.6 28:1.6 29:11.2 30:10.4 31:1.6 32:7.1999998 33:4 34:8.8000002 35:6.4000001 36:8.8000002 37:4 38:5.5999999 39:0 40:0.80000001 #
2.9060492032200418746862129182329e-06 1:8 2:0 3:0 4:4 5:4 6:20 7:0 8:4 9:8 10:8 11:4 12:4 13:28 14:0 15:0 16:4 17:0 18:0 19:4 20:0 21:11.66 22:0.81999999 23:4.4299998 24:9.5200005 25:2.46 26:6.0799999 27:1.8099999 28:2.6300001 29:5.5799999 30:10.67 31:2.79 32:2.6300001 33:3.1199999 34:7.0599999 35:9.6899996 36:5.0900002 37:5.25 38:5.25 39:1.3099999 40:2.1300001 #
-2.906049203220042086444449731808e-07 1:16 2:0 3:0 4:0 5:0 6:24 7:4 8:0 9:0 10:20 11:4 12:0 13:4 14:0 15:16 16:4 17:0 18:8 19:0 20:0 21:7.0599999 22:2.96 23:4.3299999 24:5.2399998 25:4.0999999 26:12.3 27:2.28 28:2.73 29:3.1900001 30:7.7399998 31:1.37 32:2.96 33:5.0100002 34:4.0999999 35:7.0599999 36:7.7399998 37:4.5599999 38:10.48 39:1.8200001 40:2.96 #
-2.906049203220042086444449731808e-07 1:4 2:0 3:4 4:0 5:4 6:0 7:4 8:8 9:12 10:0 11:12 12:0 13:12 14:0 15:12 16:20 17:8 18:0 19:0 20:0 21:8.1899996 22:0.57999998 23:6.73 24:3.8 25:4.6799998 26:6.1399999 27:1.46 28:9.0600004 29:2.6300001 30:6.1399999 31:0.88 32:9.6499996 33:3.8 34:3.8 35:4.3899999 36:9.3599997 37:7.3099999 38:3.8 39:2.05 40:5.5599999 #
-2.906049203220042086444449731808e-07 1:12 2:12 3:0 4:4 5:4 6:16 7:0 8:0 9:0 10:20 11:8 12:0 13:16 14:0 15:4 16:0 17:4 18:0 19:0 20:0 21:11.85 22:2.02 23:2.8900001 24:5.4899998 25:4.0500002 26:10.69 27:1.45 28:3.76 29:2.8900001 30:18.209999 31:1.73 32:2.3099999 33:4.3400002 34:4.0500002 35:3.1800001 36:7.5100002 37:4.6199999 38:5.7800002 39:2.3099999 40:0.87 #
-2.906049203220042086444449731808e-07 1:16 2:4 3:0 4:4 5:0 6:24 7:0 8:4 9:0 10:20 11:4 12:0 13:4 14:4 15:8 16:0 17:0 18:8 19:0 20:0 21:10.49 22:2.6199999 23:0.75 24:2.25 25:7.4899998 26:8.6099997 27:5.2399998 28:1.87 29:1.87 30:16.85 31:0.37 32:2.6199999 33:4.8699999 34:2.25 35:5.9899998 36:5.6199999 37:4.8699999 38:8.2399998 39:3.75 40:3.3699999 #
-2.906049203220042086444449731808e-07 1:0 2:0 3:8 4:4 5:12 6:0 7:0 8:8 9:0 10:8 11:8 12:8 13:0 14:4 15:8 16:8 17:16 18:4 19:0 20:4 21:8.1599998 22:0 23:3.0599999 24:9.1800003 25:4.0799999 26:3.0599999 27:3.0599999 28:9.1800003 29:7.1399999 30:6.1199999 31:4.0799999 32:5.0999999 33:2.04 34:6.1199999 35:3.0599999 36:7.1399999 37:4.0799999 38:7.1399999 39:2.04 40:6.1199999 #
-1.0104811764233379719709650379489e-07 1:8 2:4 3:0 4:16 5:4 6:4 7:0 8:0 9:8 10:20 11:4 12:0 13:0 14:4 15:0 16:12 17:12 18:0 19:0 20:4 21:9.4099998 22:0.99000001 23:3.47 24:5.4499998 25:5.4499998 26:8.4200001 27:0.99000001 28:9.8999996 29:6.4400001 30:7.4299998 31:0.99000001 32:4.46 33:2.97 34:4.9499998 35:4.9499998 36:7.9200001 37:3.96 38:8.4200001 39:0 40:3.47 #
-2.906049203220042086444449731808e-07 1:32 2:0 3:0 4:4 5:0 6:12 7:0 8:0 9:0 10:16 11:4 12:0 13:0 14:8 15:4 16:0 17:4 18:0 19:16 20:0 21:4.5900002 22:1.41 23:3.53 24:5.3000002 25:4.9499998 26:10.25 27:2.1199999 28:2.1199999 29:3.53 30:12.01 31:1.0599999 32:2.1199999 33:8.1300001 34:5.3000002 35:7.77 36:11.31 37:5.6500001 38:7.77 39:0.34999999 40:0.70999998 #
2.9060492032200418746862129182329e-06 1:16 2:0 3:0 4:0 5:0 6:16 7:0 8:0 9:0 10:48 11:4 12:0 13:4 14:0 15:8 16:4 17:0 18:0 19:0 20:0 21:5.75 22:0.88 23:2.6500001 24:5.75 25:7.0799999 26:7.0799999 27:1.33 28:1.33 29:3.54 30:14.16 31:1.77 32:3.98 33:4.4200001 34:2.21 35:6.6399999 36:10.62 37:3.54 38:11.95 39:2.21 40:3.0999999 #
6.3912237316206524930471948725552e-07 1:20 2:4 3:0 4:0 5:0 6:12 7:0 8:0 9:0 10:28 11:4 12:0 13:8 14:4 15:20 16:0 17:0 18:0 19:0 20:0 21:3.3299999 22:5.3299999 23:4 24:6.6700001 25:4.6700001 26:10 27:2.6700001 28:1.33 29:10 30:6.6700001 31:2 32:2 33:6.6700001 34:2.6700001 35:4 36:12.67 37:6.6700001 38:4 39:1.33 40:3.3299999 #
-2.906049203220042086444449731808e-07 1:20 2:0 3:4 4:4 5:4 6:16 7:0 8:0 9:0 10:4 11:0 12:4 13:4 14:0 15:0 16:8 17:20 18:4 19:0 20:8 21:36 22:0 23:1.14 24:0 25:0.56999999 26:13.14 27:0.56999999 28:4.5700002 29:1.14 30:8.5699997 31:0 32:1.71 33:7.4299998 34:0.56999999 35:5.1399999 36:6.29 37:1.71 38:2.8599999 39:0 40:8.5699997 #
-2.906049203220042086444449731808e-07 1:28 2:4 3:4 4:0 5:0 6:8 7:0 8:0 9:0 10:8 11:4 12:0 13:4 14:8 15:16 16:0 17:12 18:4 19:0 20:0 21:10.18 22:2.6099999 23:3.3900001 24:2.8699999 25:7.3099999 26:6.0100002 27:1.83 28:7.0500002 29:3.3900001 30:12.27 31:2.0899999 32:2.6099999 33:3.1300001 34:4.96 35:5.7399998 36:8.0900002 37:5.48 38:6.79 39:1.3099999 40:2.8699999 #
-2.906049203220042086444449731808e-07 1:16 2:0 3:0 4:0 5:0 6:12 7:4 8:4 9:4 10:20 11:4 12:0 13:0 14:8 15:8 16:0 17:12 18:0 19:8 20:0 21:6.7399998 22:3.1600001 23:3.79 24:4 25:5.6799998 26:8.21 27:0.41999999 28:10.74 29:3.1600001 30:12 31:2.53 32:3.1600001 33:4.21 34:2.53 35:3.3699999 36:9.0500002 37:6.1100001 38:5.4699998 39:1.89 40:3.79 #
2.9060492032200418746862129182329e-06 1:4 2:4 3:4 4:4 5:8 6:0 7:4 8:4 9:0 10:0 11:8 12:4 13:0 14:0 15:12 16:24 17:8 18:8 19:0 20:4 21:3.8699999 22:0.30000001 23:3.8699999 24:6.25 25:3.5699999 26:4.7600002 27:0.88999999 28:2.3800001 29:11.61 30:9.2299995 31:2.6800001 32:8.6300001 33:5.3600001 34:7.4400001 35:5.9499998 36:8.9300003 37:4.7600002 38:6.8499999 39:0.30000001 40:2.3800001 #
2.9060492032200418746862129182329e-06 1:0 2:0 3:20 4:4 5:0 6:8 7:4 8:0 9:4 10:0 11:4 12:0 13:4 14:4 15:0 16:12 17:8 18:20 19:8 20:0 21:8.2399998 22:0.22 23:7.3800001 24:13.45 25:2.3900001 26:9.1099997 27:2.5999999 28:2.8199999 29:7.3800001 30:4.77 31:1.3 32:1.52 33:7.5900002 34:4.9899998 35:5.8600001 36:6.7199998 37:2.8199999 38:5.6399999 39:0.87 40:4.3400002 #
-2.906049203220042086444449731808e-07 1:12 2:0 3:8 4:4 5:0 6:16 7:0 8:4 9:8 10:16 11:4 12:4 13:0 14:0 15:8 16:4 17:0 18:4 19:0 20:8 21:5.8499999 22:2.3399999 23:5.8499999 24:8.1899996 25:3.22 26:4.9699998 27:3.22 28:6.73 29:8.7700005 30:9.3599997 31:3.22 32:2.3399999 33:7.02 34:4.3899999 35:5.2600002 36:7.5999999 37:3.8 38:4.0900002 39:0.88 40:2.9200001 #
-2.906049203220042086444449731808e-07 1:0 2:0 3:0 4:4 5:4 6:0 7:0 8:0 9:8 10:4 11:8 12:4 13:4 14:0 15:8 16:40 17:8 18:8 19:0 20:0 21:7.3299999 22:0.19 23:3.71 24:4.8499999 25:6.6599998 26:8.2799997 27:0.86000001 28:3.04 29:8.6599998 30:3.9000001 31:0.94999999 32:9.4200001 33:7.23 34:2.95 35:2.6600001 36:14.37 37:11.04 38:3.3299999 39:0.1 40:0.47999999 #
-2.906049203220042086444449731808e-07 1:36 2:0 3:0 4:0 5:0 6:0 7:0 8:0 9:0 10:20 11:4 12:0 13:4 14:4 15:4 16:8 17:0 18:20 19:0 20:0 21:11.94 22:0 23:10.45 24:8.96 25:4.48 26:4.48 27:0 28:1.49 29:5.9699998 30:8.96 31:1.49 32:1.49 33:4.48 34:5.9699998 35:14.93 36:2.99 37:0 38:5.9699998 39:1.49 40:4.48 #
-2.906049203220042086444449731808e-07 1:12 2:0 3:8 4:8 5:0 6:4 7:0 8:0 9:4 10:16 11:4 12:4 13:0 14:16 15:8 16:4 17:4 18:4 19:4 20:0 21:10.47 22:0.67000002 23:4.23 24:8.0200005 25:3.79 26:6.6799998 27:1.78 28:4.9000001 29:4.6799998 30:12.25 31:1.78 32:3.5599999 33:4.6799998 34:5.79 35:6.0100002 36:6.9000001 37:3.5599999 38:7.1300001 39:0.44999999 40:2.6700001 #
-2.906049203220042086444449731808e-07 1:4 2:0 3:8 4:16 5:0 6:0 7:0 8:8 9:4 10:8 11:4 12:0 13:16 14:4 15:4 16:16 17:0 18:8 19:0 20:0 21:3.76 22:10.53 23:8.2700005 24:4.5100002 25:3.01 26:8.2700005 27:2.26 28:6.02 29:6.77 30:11.28 31:2.26 32:2.26 33:0 34:4.5100002 35:9.0200005 36:3.01 37:2.26 38:3.76 39:1.5 40:6.77 #
-2.906049203220042086444449731808e-07 1:8 2:4 3:4 4:0 5:12 6:4 7:0 8:4 9:4 10:20 11:4 12:0 13:0 14:8 15:4 16:16 17:4 18:0 19:4 20:0 21:5 22:0.52999997 23:4.7399998 24:9.4700003 25:7.3699999 26:5.5300002 27:1.3200001 28:7.6300001 29:8.4200001 30:9.4700003 31:2.6300001 32:3.6800001 33:2.3699999 34:6.5799999 35:2.1099999 36:7.8899999 37:5.79 38:6.0500002 39:0.79000002 40:2.6300001 #
-2.906049203220042086444449731808e-07 1:0 2:0 3:4 4:4 5:4 6:4 7:0 8:4 9:0 10:0 11:4 12:0 13:8 14:4 15:24 16:32 17:4 18:4 19:0 20:0 21:7.79 22:1.05 23:2.53 24:2.74 25:7.79 26:6.3200002 27:2.53 28:7.3699999 29:5.0500002 30:12 31:3.3699999 32:4.21 33:3.3699999 34:2.95 35:2.1099999 36:9.0500002 37:5.8899999 38:6.7399998 39:1.47 40:5.6799998 #
-2.906049203220042086444449731808e-07 1:0 2:12 3:0 4:0 5:8 6:0 7:0 8:8 9:4 10:16 11:4 12:8 13:4 14:0 15:16 16:16 17:0 18:0 19:0 20:4 21:17.57 22:5.8600001 23:1.54 24:18.370001 25:0.28999999 26:2.1199999 27:0.22 28:1.9 29:34.990002 30:3.6600001 31:0.58999997 32:1.3200001 33:0.22 34:2.3399999 35:4.4699998 36:1.54 37:1.54 38:1.1 39:0.15000001 40:0.22 #
-2.906049203220042086444449731808e-07 1:0 2:4 3:0 4:0 5:8 6:12 7:0 8:4 9:8 10:16 11:8 12:4 13:0 14:8 15:8 16:4 17:8 18:8 19:0 20:0 21:7.9000001 22:0 23:5.8099999 24:19.370001 25:1.04 26:3.28 27:4.9200001 28:1.04 29:5.8099999 30:7.5999999 31:1.1900001 32:4.77 33:3.8699999 34:13.26 35:6.4099998 36:3.28 37:2.53 38:4.77 39:0.30000001 40:2.8299999 #
-2.906049203220042086444449731808e-07 1:20 2:0 3:0 4:0 5:4 6:20 7:0 8:8 9:0 10:12 11:4 12:0 13:0 14:4 15:0 16:4 17:4 18:16 19:0 20:4 21:4.9200001 22:0 23:4.9200001 24:2.73 25:1.64 26:30.6 27:4.9200001 28:1.09 29:3.8299999 30:10.38 31:0 32:1.09 33:2.1900001 34:2.1900001 35:4.9200001 36:1.64 37:2.73 38:18.030001 39:0 40:2.1900001 #
2.7912645911703843293815655718371e-06 1:8 2:0 3:0 4:0 5:0 6:4 7:0 8:4 9:0 10:0 11:8 12:0 13:8 14:4 15:24 16:28 17:12 18:0 19:0 20:0 21:13.74 22:3.05 23:3.8199999 24:3.05 25:3.05 26:9.9200001 27:2.29 28:3.05 29:0.75999999 30:3.8199999 31:3.05 32:5.3400002 33:5.3400002 34:16.030001 35:3.8199999 36:6.1100001 37:7.6300001 38:3.05 39:0 40:3.05 #
-2.906049203220042086444449731808e-07 1:16 2:4 3:12 4:0 5:8 6:0 7:0 8:16 9:0 10:4 11:12 12:0 13:8 14:4 15:0 16:8 17:0 18:4 19:4 20:0 21:5.1700001 22:2.2 23:5.4499998 24:7.0799999 25:4.4000001 26:4.7800002 27:2.3 28:5.8400002 29:7.75 30:12.25 31:2.5799999 32:4.8800001 33:4.6900001 34:4.1100001 35:4.6900001 36:6.0300002 37:3.8299999 38:6.8899999 39:1.53 40:3.54 #
-2.906049203220042086444449731808e-07 1:8 2:0 3:0 4:4 5:12 6:0 7:12 8:0 9:0 10:8 11:4 12:8 13:4 14:0 15:0 16:12 17:12 18:12 19:0 20:4 21:6.2600002 22:1.66 23:6.3899999 24:6.5100002 25:5.75 26:6 27:1.79 28:5.2399998 29:6.2600002 30:10.22 31:2.4300001 32:5.2399998 33:3.0699999 34:3.96 35:5.3600001 36:7.54 37:4.3400002 38:6 39:2.8099999 40:3.1900001 #
-2.906049203220042086444449731808e-07 1:32 2:0 3:4 4:0 5:0 6:16 7:0 8:0 9:0 10:20 11:4 12:0 13:0 14:4 15:8 16:8 17:0 18:4 19:0 20:0 21:6.4400001 22:4.4099998 23:4.4099998 24:3.73 25:6.7800002 26:3.73 27:4.0700002 28:2.71 29:2.71 30:14.58 31:2.03 32:2.71 33:4.0700002 34:3.05 35:4.75 36:7.1199999 37:4.0700002 38:10.51 39:4.0700002 40:4.0700002 #
-2.906049203220042086444449731808e-07 1:4 2:0 3:4 4:8 5:4 6:8 7:0 8:0 9:16 10:8 11:8 12:8 13:0 14:8 15:4 16:4 17:8 18:8 19:0 20:0 21:9.8999996 22:0.2 23:5.3499999 24:5.7399998 25:2.77 26:4.3600001 27:2.5699999 28:5.1500001 29:8.3199997 30:9.8999996 31:1.98 32:4.1599998 33:4.3600001 34:3.5599999 35:6.5300002 36:7.3299999 37:7.7199998 38:6.3400002 39:0.58999997 40:3.1700001 #
-2.906049203220042086444449731808e-07 1:8 2:4 3:0 4:0 5:8 6:12 7:0 8:4 9:0 10:20 11:4 12:0 13:0 14:0 15:8 16:8 17:0 18:16 19:0 20:8 21:5.7600002 22:1.4400001 23:3.5999999 24:4.6799998 25:3.96 26:6.1199999 27:2.52 28:7.1900001 29:10.43 30:8.9899998 31:3.24 32:5.04 33:5.4000001 34:3.24 35:3.24 36:6.1199999 37:6.4699998 38:8.2700005 39:1.08 40:3.24 #
-2.906049203220042086444449731808e-07 1:0 2:8 3:0 4:8 5:4 6:8 7:0 8:0 9:8 10:8 11:4 12:4 13:16 14:4 15:4 16:8 17:0 18:8 19:8 20:0 21:3.25 22:6.0999999 23:5.0799999 24:10.37 25:4.27 26:5.6900001 27:6.3000002 28:2.8499999 29:5.0799999 30:8.54 31:1.63 32:3.46 33:5.4899998 34:5.8899999 35:5.6900001 36:7.7199998 37:4.0700002 38:4.4699998 39:1.22 40:2.8499999 #
-2.906049203220042086444449731808e-07 1:4 2:4 3:8 4:16 5:4 6:4 7:0 8:8 9:8 10:8 11:8 12:0 13:0 14:4 15:4 16:8 17:4 18:4 19:4 20:0 21:3.3900001 22:1.3099999 23:3.6600001 24:6.0100002 25:6.27 26:2.6099999 27:3.1300001 28:10.18 29:11.49 30:14.1 31:0 32:6.0100002 33:2.6099999 34:3.9200001 35:4.96 36:7.3099999 37:3.1300001 38:4.6999998 39:1.5700001 40:3.6600001 #
2.9060492032200418746862129182329e-06 1:0 2:0 3:4 4:8 5:8 6:4 7:0 8:16 9:4 10:24 11:4 12:0 13:0 14:0 15:4 16:4 17:16 18:4 19:0 20:0 21:8.6300001 22:1.2 23:6 24:4.0799999 25:3.3599999 26:6.2399998 27:6 28:9.8299999 29:2.6400001 30:9.3500004 31:1.2 32:5.2800002 33:4.0799999 34:3.1199999 35:4.0799999 36:11.99 37:3.1199999 38:6.4699998 39:1.2 40:2.1600001 #
2.9060492032200418746862129182329e-06 1:0 2:0 3:4 4:12 5:12 6:4 7:0 8:0 9:4 10:20 11:4 12:0 13:8 14:4 15:0 16:4 17:4 18:16 19:4 20:0 21:5.04 22:1.6799999 23:4.6199999 24:5.04 25:3.3599999 26:4.6199999 27:4.1999998 28:4.1999998 29:6.3000002 30:14.29 31:1.6799999 32:1.6799999 33:10.08 34:6.3000002 35:7.98 36:5.46 37:3.78 38:7.5599999 39:0 40:2.0999999 #
6.5013885718192653702092540651813e-07 1:0 2:0 3:0 4:4 5:12 6:4 7:0 8:4 9:4 10:12 11:12 12:4 13:4 14:0 15:4 16:8 17:4 18:16 19:4 20:4 21:5.8800001 22:0 23:1.96 24:19.610001 25:3.9200001 26:1.96 27:0 28:1.96 29:11.76 30:7.8400002 31:0 32:0 33:1.96 34:17.65 35:11.76 36:3.9200001 37:0 38:3.9200001 39:3.9200001 40:1.96 #
2.9060492032200418746862129182329e-06 1:4 2:4 3:4 4:0 5:20 6:4 7:4 8:8 9:0 10:16 11:4 12:4 13:12 14:0 15:8 16:4 17:4 18:0 19:0 20:0 21:7.1399999 22:5.3600001 23:2.6800001 24:4.46 25:4.46 26:5.3600001 27:1.79 28:1.79 29:9.8199997 30:6.25 31:0 32:0.88999999 33:8.9300003 34:7.1399999 35:8.04 36:7.1399999 37:7.1399999 38:6.25 39:2.6800001 40:2.6800001 #
-2.906049203220042086444449731808e-07 1:4 2:0 3:4 4:8 5:0 6:0 7:4 8:0 9:4 10:4 11:4 12:8 13:36 14:4 15:8 16:4 17:0 18:0 19:0 20:8 21:8.9499998 22:2.3299999 23:3.5 24:1.95 25:8.3699999 26:7.5900002 27:1.75 28:7.98 29:2.9200001 30:8.75 31:3.1099999 32:4.8600001 33:3.1099999 34:2.72 35:3.7 36:8.5600004 37:4.8600001 38:7.3899999 39:2.1400001 40:5.4499998 #
-2.906049203220042086444449731808e-07 1:12 2:0 3:0 4:4 5:4 6:0 7:0 8:8 9:4 10:16 11:4 12:0 13:4 14:0 15:4 16:12 17:4 18:16 19:0 20:8 21:8.4200001 22:2.3599999 23:6.0599999 24:6.4000001 25:4.04 26:8.75 27:1.6799999 28:6.4000001 29:7.0700002 30:7.4099998 31:1.35 32:6.0599999 33:2.3599999 34:5.7199998 35:5.0500002 36:5.7199998 37:3.03 38:5.0500002 39:1.35 40:5.7199998 #
-2.906049203220042086444449731808e-07 1:8 2:0 3:16 4:28 5:0 6:12 7:0 8:0 9:0 10:4 11:4 12:0 13:12 14:0 15:4 16:12 17:0 18:0 19:0 20:0 21:6.1399999 22:1.97 23:5.48 24:7.8899999 25:5.6999998 26:6.5799999 27:1.75 28:6.3600001 29:7.46 30:8.1099997 31:1.1 32:3.51 33:6.8000002 34:4.1700001 35:6.3600001 36:6.8000002 37:2.4100001 38:6.1399999 39:2.1900001 40:3.0699999 #
-2.906049203220042086444449731808e-07 1:28 2:0 3:0 4:0 5:0 6:4 7:0 8:4 9:0 10:0 11:4 12:0 13:8 14:0 15:0 16:36 17:4 18:12 19:0 20:0 21:12.34 22:2.55 23:3.4000001 24:3.8299999 25:5.1100001 26:13.62 27:2.55 28:3.4000001 29:3.4000001 30:7.6599998 31:2.1300001 32:5.1100001 33:5.96 34:5.5300002 35:4.2600002 36:7.6599998 37:2.98 38:5.1100001 39:0 40:3.4000001 #
-2.906049203220042086444449731808e-07 1:48 2:0 3:0 4:0 5:0 6:0 7:0 8:4 9:0 10:0 11:12 12:0 13:0 14:0 15:0 16:16 17:20 18:0 19:0 20:0 21:9.4799995 22:1.27 23:4.6300001 24:4.48 25:2.76 26:6.9499998 27:2.99 28:4.0300002 29:3.5799999 30:6.5700002 31:2.6099999 32:6.0500002 33:7.6900001 34:4.0300002 35:5.1500001 36:10.38 37:7.0900002 38:5.3800001 39:0.81999999 40:4.0300002 #
-2.906049203220042086444449731808e-07 1:36 2:4 3:0 4:0 5:0 6:0 7:0 8:4 9:0 10:8 11:4 12:0 13:4 14:0 15:4 16:16 17:8 18:12 19:0 20:0 21:10.98 22:2.3699999 23:7.7199998 24:2.3699999 25:5.6399999 26:7.7199998 27:1.78 28:2.0799999 29:3.26 30:10.09 31:0.58999997 32:3.5599999 33:6.23 34:4.1500001 35:7.4200001 36:7.4200001 37:6.8200002 38:8.3100004 39:0.30000001 40:1.1900001 #
-2.906049203220042086444449731808e-07 1:8 2:4 3:0 4:4 5:4 6:4 7:0 8:8 9:8 10:16 11:4 12:0 13:4 14:0 15:4 16:8 17:8 18:8 19:8 20:0 21:13.86 22:2.3099999 23:3.6300001 24:5.6100001 25:2.97 26:6.9299998 27:4.6199999 28:0.99000001 29:0.33000001 30:11.55 31:0.99000001 32:3.3 33:8.5799999 34:2.3099999 35:9.8999996 36:7.5900002 37:5.6100001 38:5.6100001 39:0.99000001 40:2.3099999 #
2.9060492032200418746862129182329e-06 1:0 2:0 3:0 4:0 5:0 6:4 7:0 8:8 9:16 10:12 11:4 12:0 13:24 14:4 15:12 16:4 17:0 18:8 19:0 20:4 21:7.1399999 22:5.71 23:2.8599999 24:4.29 25:0 26:5.71 27:4.29 28:2.8599999 29:8.5699997 30:11.43 31:2.8599999 32:10 33:2.8599999 34:2.8599999 35:4.29 36:11.43 37:2.8599999 38:4.29 39:1.4299999 40:4.29 #
-2.906049203220042086444449731808e-07 1:8 2:0 3:0 4:0 5:4 6:4 7:4 8:0 9:4 10:24 11:4 12:0 13:4 14:4 15:0 16:20 17:8 18:12 19:0 20:0 21:5.4899998 22:0.89999998 23:5.6900001 24:6.79 25:5.4899998 26:3.8900001 27:2.79 28:5.8899999 29:7.8800001 30:11.98 31:1.5 32:7.29 33:4.5900002 34:3.5899999 35:3.3900001 36:7.6799998 37:5.5900002 38:4.1900001 39:1 40:4.3899999 #
-2.906049203220042086444449731808e-07 1:28 2:0 3:4 4:0 5:0 6:24 7:0 8:0 9:0 10:0 11:4 12:4 13:8 14:0 15:24 16:0 17:0 18:0 19:0 20:4 21:7.2600002 22:0.43000001 23:3.8499999 24:10.26 25:3.4200001 26:4.27 27:2.5599999 28:1.71 29:11.97 30:11.97 31:1.71 32:2.99 33:4.6999998 34:10.26 35:9.3999996 36:5.5599999 37:1.71 38:4.27 39:0 40:1.71 #
-2.906049203220042086444449731808e-07 1:8 2:0 3:0 4:8 5:0 6:16 7:4 8:0 9:0 10:16 11:4 12:0 13:8 14:8 15:24 16:4 17:0 18:0 19:0 20:0 21:7.0700002 22:1.6900001 23:5.6799998 24:9.0600004 25:3.6900001 26:5.6799998 27:2.76 28:2.76 29:4.3000002 30:12.14 31:2 32:4.3000002 33:6.6100001 34:4.3000002 35:7.9899998 36:7.5300002 37:3.53 38:5.0700002 39:0.92000002 40:2.9200001 #
2.9060492032200418746862129182329e-06 1:24 2:12 3:0 4:0 5:0 6:4 7:0 8:0 9:0 10:12 11:4 12:0 13:8 14:0 15:0 16:16 17:4 18:16 19:0 20:0 21:14.98 22:1.36 23:4.4699998 24:5.8400002 25:2.1400001 26:7.3899999 27:0.97000003 28:4.2800002 29:4.6700001 30:7.3899999 31:1.95 32:1.36 33:6.6100001 34:3.3099999 35:5.0599999 36:5.25 37:9.1400003 38:8.1700001 39:2.3299999 40:3.3099999 #
-2.906049203220042086444449731808e-07 1:4 2:0 3:4 4:8 5:4 6:4 7:4 8:8 9:8 10:4 11:16 12:0 13:4 14:4 15:12 16:4 17:8 18:0 19:0 20:4 21:5.4099998 22:2.7 23:8.1099997 24:9.46 25:6.7600002 26:2.7 27:0 28:1.35 29:13.51 30:14.86 31:1.35 32:5.4099998 33:0 34:6.7600002 35:2.7 36:2.7 37:4.0500002 38:10.81 39:0 40:1.35 #
-2.906049203220042086444449731808e-07 1:12 2:0 3:0 4:4 5:0 6:0 7:4 8:0 9:4 10:8 11:4 12:0 13:12 14:0 15:20 16:20 17:12 18:0 19:0 20:0 21:4.6799998 22:3.4000001 23:2.1300001 24:11.28 25:2.3399999 26:8.7200003 27:3.1900001 28:2.1300001 29:5.96 30:11.06 31:1.0599999 32:2.3399999 33:5.5300002 34:7.6599998 35:6.1700001 36:8.5100002 37:5.1100001 38:5.1100001 39:1.7 40:1.91 #
-1.3579016594594282742457539911451e-07 1:24 2:0 3:8 4:0 5:8 6:4 7:0 8:4 9:4 10:4 11:4 12:0 13:0 14:0 15:0 16:20 17:12 18:8 19:0 20:0 21:12.99 22:0 23:1.3 24:1.3 25:1.3 26:6.4899998 27:1.3 28:5.1900001 29:3.9000001 30:3.9000001 31:3.9000001 32:1.3 33:2.5999999 34:2.5999999 35:0 36:14.29 37:24.68 38:9.0900002 39:0 40:3.9000001 #
1.3268853175055380071850619216889e-16 1:16 2:0 3:0 4:8 5:0 6:0 7:0 8:4 9:4 10:12 11:4 12:0 13:4 14:4 15:36 16:0 17:0 18:8 19:0 20:0 21:6.2199998 22:0.51999998 23:5.1799998 24:9.3299999 25:2.5899999 26:4.6599998 27:3.1099999 28:2.5899999 29:5.6999998 30:10.88 31:1.55 32:1.55 33:9.3299999 34:3.1099999 35:11.4 36:4.1500001 37:6.7399998 38:4.6599998 39:3.6300001 40:3.1099999 #
-2.906049203220042086444449731808e-07 1:4 2:0 3:4 4:8 5:0 6:16 7:4 8:4 9:16 10:8 11:8 12:4 13:16 14:0 15:0 16:0 17:4 18:4 19:0 20:0 21:6.7199998 22:3.3599999 23:4.1999998 24:2.52 25:1.6799999 26:4.1999998 27:3.3599999 28:6.7199998 29:9.2399998 30:10.08 31:1.6799999 32:5.8800001 33:3.3599999 34:3.3599999 35:9.2399998 36:6.7199998 37:10.08 38:1.6799999 39:0.83999997 40:5.04 #
-2.906049203220042086444449731808e-07 1:16 2:4 3:0 4:0 5:0 6:8 7:0 8:4 9:4 10:12 11:4 12:0 13:4 14:0 15:12 16:0 17:0 18:28 19:4 20:0 21:7.1399999 22:3.5699999 23:2.6800001 24:8.04 25:6.25 26:6.25 27:0 28:3.5699999 29:1.79 30:8.9300003 31:0 32:3.5699999 33:8.9300003 34:7.1399999 35:16.07 36:2.6800001 37:5.3600001 38:5.3600001 39:0.88999999 40:1.79 #
-2.906049203220042086444449731808e-07 1:8 2:0 3:8 4:4 5:0 6:4 7:0 8:8 9:0 10:12 11:8 12:0 13:4 14:0 15:8 16:20 17:4 18:8 19:0 20:4 21:5.6700001 22:3.9000001 23:3.55 24:3.55 25:6.7399998 26:6.0300002 27:1.42 28:6.0300002 29:4.6100001 30:12.41 31:3.1900001 32:5.6700001 33:2.8399999 34:5.3200002 35:4.6100001 36:7.0900002 37:6.3800001 38:4.2600002 39:1.0599999 40:5.6700001 #
-2.906049203220042086444449731808e-07 1:4 2:12 3:8 4:12 5:4 6:4 7:0 8:0 9:12 10:8 11:8 12:0 13:12 14:0 15:0 16:8 17:4 18:4 19:0 20:0 21:9.5100002 22:2.1099999 23:5.2800002 24:5.2800002 25:4.23 26:7.04 27:2.1099999 28:5.2800002 29:3.52 30:11.97 31:2.1099999 32:4.5799999 33:6.3400002 34:5.2800002 35:6.6900001 36:5.9899998 37:5.6300001 38:3.52 39:0.69999999 40:2.8199999 #
-2.906049203220042086444449731808e-07 1:16 2:0 3:4 4:0 5:4 6:4 7:0 8:0 9:4 10:8 11:8 12:8 13:8 14:4 15:12 16:4 17:12 18:4 19:0 20:0 21:4 22:2.22 23:7.1100001 24:7.5599999 25:3.1099999 26:7.5599999 27:1.78 28:7.1100001 29:5.3299999 30:10.22 31:2.6700001 32:6.2199998 33:2.6700001 34:4 35:3.1099999 36:10.67 37:6.2199998 38:4.8899999 39:0.44 40:3.1099999 #
-2.906049203220042086444449731808e-07 1:0 2:0 3:0 4:0 5:0 6:0 7:4 8:12 9:0 10:8 11:4 12:8 13:20 14:0 15:0 16:40 17:0 18:0 19:0 20:4 21:5.5799999 22:0.43000001 23:6.4400001 24:8.5799999 25:5.1500001 26:7.73 27:1.72 28:4.7199998 29:6.0100002 30:11.16 31:1.72 32:4.7199998 33:4.29 34:4.29 35:4.29 36:8.5799999 37:3.4300001 38:7.3000002 39:1.72 40:2.1500001 #
2.9060492032200418746862129182329e-06 1:8 2:4 3:0 4:4 5:4 6:28 7:4 8:0 9:4 10:12 11:4 12:4 13:0 14:8 15:0 16:0 17:12 18:4 19:0 20:0 21:9.1199999 22:2.03 23:0.34 24:5.7399998 25:5.4099998 26:7.0900002 27:1.01 28:6.7600002 29:5.4099998 30:9.8000002 31:2.03 32:3.3800001 33:4.0500002 34:4.3899999 35:6.4200001 36:8.1099997 37:6.7600002 38:6.4200001 39:0.34 40:5.4099998 #
-2.906049203220042086444449731808e-07 1:32 2:0 3:4 4:4 5:4 6:32 7:0 8:0 9:0 10:8 11:4 12:0 13:8 14:0 15:4 16:0 17:0 18:0 19:0 20:0 21:17.34 22:2.02 23:1.73 24:6.9400001 25:2.5999999 26:6.0700002 27:2.8900001 28:0.57999998 29:2.3099999 30:17.629999 31:0.87 32:1.16 33:9.25 34:8.3800001 35:5.7800002 36:5.1999998 37:2.5999999 38:4.3400002 39:0.87 40:1.45 #
-2.906049203220042086444449731808e-07 1:8 2:4 3:12 4:0 5:0 6:8 7:0 8:16 9:8 10:0 11:8 12:8 13:0 14:0 15:12 16:0 17:12 18:4 19:0 20:0 21:2.75 22:0.92000002 23:0.92000002 24:6.4200001 25:2.75 26:9.1700001 27:2.75 28:12.84 29:5.5 30:11.01 31:1.83 32:6.4200001 33:2.75 34:1.83 35:12.84 36:4.5900002 37:5.5 38:3.6700001 39:0.92000002 40:4.5900002 #
-2.906049203220042086444449731808e-07 1:16 2:0 3:0 4:0 5:0 6:4 7:0 8:0 9:0 10:8 11:4 12:0 13:32 14:12 15:20 16:0 17:0 18:4 19:0 20:0 21:12.16 22:4.0500002 23:2.03 24:1.35 25:4.73 26:9.46 27:4.0500002 28:2.03 29:2.7 30:18.92 31:2.03 32:1.35 33:3.3800001 34:4.0500002 35:4.0500002 36:4.73 37:3.3800001 38:8.1099997 39:2.03 40:5.4099998 #
2.9060492032200418746862129182329e-06 1:4 2:0 3:8 4:0 5:8 6:8 7:4 8:8 9:4 10:12 11:4 12:4 13:0 14:0 15:4 16:28 17:0 18:0 19:0 20:4 21:5.1900001 22:2.22 23:5.6799998 24:4.6900001 25:7.4099998 26:3.46 27:3.7 28:5.6799998 29:8.6400003 30:10.12 31:2.22 32:4.9400001 33:4.1999998 34:3.7 35:5.4299998 36:6.6700001 37:3.46 38:5.6799998 39:0.99000001 40:5.9299998 #
-2.906049203220042086444449731808e-07 1:8 2:0 3:4 4:16 5:8 6:4 7:4 8:0 9:0 10:16 11:4 12:0 13:0 14:0 15:12 16:0 17:12 18:8 19:0 20:4 21:7.3299999 22:2.49 23:5.3899999 24:6.3600001 25:3.8699999 26:5.8099999 27:2.0699999 28:3.5999999 29:5.9499998 30:10.65 31:1.9400001 32:3.3199999 33:5.1199999 34:6.3600001 35:5.1199999 36:10.37 37:4.5599999 38:5.9499998 39:1.52 40:2.21 #
-2.906049203220042086444449731808e-07 1:16 2:0 3:8 4:0 5:0 6:4 7:0 8:8 9:4 10:12 11:16 12:0 13:4 14:0 15:0 16:0 17:4 18:12 19:0 20:12 21:7.8800001 22:0.31999999 23:3.54 24:2.8900001 25:4.98 26:10.45 27:1.45 28:5.79 29:4.3400002 30:8.3599997 31:4.6599998 32:4.8200002 33:5.9499998 34:2.8900001 35:4.02 36:11.74 37:4.6599998 38:7.23 39:1.45 40:2.5699999 #
-2.906049203220042086444449731808e-07 1:8 2:0 3:4 4:4 5:0 6:0 7:4 8:20 9:8 10:0 11:4 12:0 13:0 14:4 15:0 16:28 17:8 18:4 19:0 20:4 21:13.02 22:3.55 23:0.58999997 24:4.73 25:6.5100002 26:5.3299999 27:2.3699999 28:5.3299999 29:3.55 30:9.4700003 31:4.1399999 32:1.1799999 33:1.78 34:5.9200001 35:3.55 36:7.0999999 37:6.5100002 38:7.6900001 39:5.3299999 40:2.3699999 #
2.9060492032200418746862129182329e-06 1:8 2:0 3:0 4:8 5:0 6:8 7:0 8:0 9:0 10:20 11:4 12:0 13:32 14:0 15:12 16:4 17:0 18:0 19:4 20:0 21:11.5 22:0.98000002 23:2.95 24:4.77 25:4.3499999 26:10.38 27:0.83999997 28:5.0500002 29:3.79 30:12.06 31:1.96 32:3.23 33:5.0500002 34:2.6600001 35:7.4299998 36:8.2700005 37:4.0700002 38:7.0100002 39:1.4 40:2.24 #
-2.906049203220042086444449731808e-07 1:24 2:0 3:0 4:0 5:0 6:12 7:0 8:0 9:0 10:20 11:4 12:0 13:16 14:0 15:12 16:8 17:0 18:4 19:0 20:0 21:6.2600002 22:1.04 23:5.2199998 24:5.5700002 25:6.0900002 26:6.4299998 27:2.78 28:6.7800002 29:6.7800002 30:11.83 31:1.74 32:3.1300001 33:3.8299999 34:3.8299999 35:3.1300001 36:8.6999998 37:4.8699999 38:6.96 39:1.5700001 40:3.48 #
-2.906049203220042086444449731808e-07 1:20 2:0 3:0 4:0 5:0 6:12 7:0 8:0 9:0 10:12 11:4 12:0 13:24 14:0 15:8 16:12 17:0 18:4 19:0 20:4 21:11.43 22:3.3 23:2.4200001 24:2.8599999 25:4.6199999 26:7.6900001 27:3.0799999 28:3.96 29:1.76 30:15.6 31:2.4200001 32:1.98 33:5.0500002 34:2.4200001 35:4.6199999 36:6.5900002 37:5.4899998 38:8.1300001 39:2.4200001 40:4.1799998 #
-2.906049203220042086444449731808e-07 1:24 2:0 3:0 4:4 5:0 6:12 7:4 8:0 9:0 10:12 11:8 12:0 13:24 14:0 15:4 16:4 17:4 18:0 19:0 20:0 21:7.1999998 22:2.1400001 23:5.0500002 24:4.4400001 25:4.9000001 26:6.4299998 27:1.84 28:5.8200002 29:6.5799999 30:6.5799999 31:2.1400001 32:5.8200002 33:4.5900002 34:3.98 35:5.0500002 36:8.5799999 37:7.1999998 38:7.96 39:0.92000002 40:2.76 #
2.9060492032200418746862129182329e-06 1:0 2:0 3:4 4:0 5:8 6:0 7:8 8:4 9:8 10:0 11:4 12:4 13:0 14:0 15:8 16:16 17:28 18:4 19:0 20:4 21:7.8899999 22:1.58 23:4.21 24:11.05 25:2.1099999 26:6.3200002 27:0 28:7.3699999 29:5.2600002 30:7.3699999 31:2.6300001 32:4.21 33:4.21 34:4.7399998 35:10.53 36:5.79 37:5.2600002 38:4.21 39:2.1099999 40:3.1600001 #
-2.906049203220042086444449731808e-07 1:8 2:0 3:12 4:4 5:4 6:0 7:0 8:8 9:0 10:4 11:4 12:4 13:20 14:0 15:4 16:4 17:0 18:8 19:4 20:12 21:6.0900002 22:0 23:6.0900002 24:6.0900002 25:5.2199998 26:6.0900002 27:6.0900002 28:6.96 29:6.0900002 30:6.96 31:0.87 32:4.3499999 33:6.96 34:6.0900002 35:7.8299999 36:4.3499999 37:4.3499999 38:6.96 39:0 40:2.6099999 #
-2.906049203220042086444449731808e-07 1:0 2:0 3:4 4:0 5:8 6:0 7:8 8:0 9:0 10:16 11:4 12:0 13:0 14:0 15:12 16:40 17:4 18:4 19:0 20:0 21:7.02 22:0.88 23:6.6700001 24:5.0900002 25:5.0900002 26:7.7199998 27:2.8099999 28:5.4400001 29:4.5599999 30:8.25 31:2.6300001 32:5.2600002 33:7.8899999 34:0.88 35:5.96 36:6.1399999 37:6.1399999 38:8.0699997 39:0.34999999 40:3.1600001 #
-2.906049203220042086444449731808e-07 1:16 2:4 3:0 4:0 5:0 6:0 7:0 8:0 9:8 10:12 11:12 12:12 13:0 14:0 15:0 16:0 17:32 18:4 19:0 20:0 21:13.22 22:0 23:2.3 24:2.8699999 25:2.8699999 26:8.0500002 27:0 28:7.4699998 29:4.02 30:17.24 31:1.72 32:5.75 33:8.0500002 34:4.5999999 35:2.8699999 36:8.6199999 37:4.5999999 38:4.5999999 39:1.15 40:0 #
-2.906049203220042086444449731808e-07 1:28 2:0 3:0 4:0 5:0 6:12 7:0 8:0 9:0 10:8 11:4 12:8 13:4 14:0 15:8 16:12 17:4 18:8 19:0 20:4 21:7.54 22:1.33 23:7.7600002 24:4.21 25:4.4299998 26:9.3100004 27:0.67000002 28:6.21 29:7.3200002 30:6.21 31:3.77 32:5.54 33:4.8800001 34:5.3200002 35:3.99 36:5.54 37:4.8800001 38:6.4299998 39:0.88999999 40:3.77 #
-2.906049203220042086444449731808e-07 1:32 2:0 3:0 4:0 5:0 6:4 7:4 8:8 9:4 10:12 11:4 12:0 13:4 14:4 15:0 16:4 17:0 18:8 19:0 20:12 21:5.2399998 22:0 23:10.47 24:5.2399998 25:4.1900001 26:6.8099999 27:3.1400001 28:10.99 29:13.09 30:12.04 31:2.0899999 32:3.6600001 33:4.1900001 34:3.1400001 35:2.0899999 36:3.1400001 37:4.71 38:5.2399998 39:0 40:0.51999998 #
-2.906049203220042086444449731808e-07 1:12 2:0 3:8 4:8 5:8 6:4 7:4 8:0 9:8 10:16 11:4 12:4 13:0 14:0 15:12 16:4 17:4 18:4 19:0 20:0 21:4.4099998 22:1.4 23:7.02 24:8.7299995 25:4.5100002 26:4.71 27:1.4 28:6.6199999 29:9.7299995 30:14.04 31:2.4100001 32:5.9200001 33:2.8099999 34:3.01 35:2.8099999 36:8.5299997 37:4.3099999 38:4.8099999 39:1.1 40:1.71 #
-2.906049203220042086444449731808e-07 1:40 2:8 3:4 4:0 5:0 6:8 7:0 8:0 9:0 10:12 11:4 12:0 13:0 14:0 15:12 16:4 17:0 18:8 19:0 20:0 21:8.1000004 22:1.9400001 23:5.1799998 24:7.1300001 25:3.6700001 26:7.9899998 27:2.05 28:2.8099999 29:3.3499999 30:12.63 31:1.1900001 32:3.02 33:7.3400002 34:2.9200001 35:7.6700001 36:7.8800001 37:4.8600001 38:6.8000002 39:0.97000003 40:2.48 #
1.0488194211732022051788981720222e-06 1:4 2:4 3:0 4:4 5:12 6:0 7:0 8:28 9:0 10:12 11:8 12:0 13:0 14:0 15:0 16:4 17:12 18:0 19:0 20:12 21:5.6199999 22:0 23:3.1199999 24:2.5 25:4.3800001 26:5 27:0.62 28:18.120001 29:3.1199999 30:19.379999 31:3.75 32:7.5 33:1.88 34:0.62 35:0.62 36:6.25 37:6.8800001 38:5.6199999 39:0.62 40:4.3800001 #
-2.906049203220042086444449731808e-07 1:8 2:0 3:8 4:16 5:4 6:8 7:0 8:0 9:4 10:4 11:4 12:8 13:4 14:4 15:4 16:20 17:4 18:0 19:0 20:0 21:10.51 22:1.5599999 23:2.72 24:3.1099999 25:10.51 26:10.89 27:1.17 28:7.3899999 29:3.1099999 30:10.89 31:1.95 32:5.4499998 33:3.5 34:2.3299999 35:2.3299999 36:5.4499998 37:5.4499998 38:5.8400002 39:1.95 40:3.8900001 #
-2.906049203220042086444449731808e-07 1:16 2:0 3:0 4:0 5:4 6:8 7:0 8:4 9:4 10:8 11:4 12:0 13:8 14:12 15:8 16:4 17:4 18:12 19:0 20:4 21:9.1199999 22:1.99 23:4.5599999 24:6.5500002 25:3.4200001 26:8.8299999 27:0.85000002 28:1.14 29:1.14 30:11.97 31:0 32:0.28 33:10.26 34:5.1300001 35:12.54 36:8.2600002 37:5.98 38:4.8400002 39:1.99 40:1.14 #
-2.906049203220042086444449731808e-07 1:8 2:0 3:0 4:0 5:8 6:28 7:0 8:0 9:0 10:4 11:4 12:0 13:0 14:0 15:0 16:20 17:24 18:4 19:0 20:0 21:10.1 22:0.34999999 23:2.0899999 24:3.48 25:5.23 26:12.72 27:0.69999999 28:3.1400001 29:5.0500002 30:9.7600002 31:1.22 32:4.8800001 33:5.0500002 34:6.27 35:2.0899999 36:10.8 37:12.72 38:3.1400001 39:0.17 40:1.05 #
4.8359939360176220690191225409782e-07 1:8 2:12 3:0 4:4 5:8 6:0 7:0 8:0 9:8 10:8 11:4 12:4 13:0 14:0 15:12 16:4 17:8 18:16 19:4 20:0 21:7.8200002 22:1.08 23:5.3899999 24:4.3099999 25:4.04 26:8.3599997 27:2.4300001 28:4.5799999 29:7.8200002 30:7.5500002 31:2.96 32:3.5 33:5.3899999 34:2.4300001 35:3.77 36:6.4699998 37:5.9299998 38:11.59 39:2.4300001 40:2.1600001 #
-2.906049203220042086444449731808e-07 1:8 2:0 3:4 4:4 5:8 6:16 7:0 8:8 9:0 10:12 11:8 12:0 13:0 14:4 15:4 16:8 17:4 18:8 19:4 20:0 21:5.3899999 22:1.95 23:5.3899999 24:7.4299998 25:6.3200002 26:2.79 27:2.3199999 28:6.5100002 29:6.6900001 30:11.8 31:1.95 32:6.4099998 33:4.0900002 34:4.0900002 35:4.46 36:10.04 37:3.8099999 38:4.1799998 39:0.64999998 40:3.72 #
1.5319003337265405414834148686842e-06 1:4 2:0 3:0 4:8 5:4 6:12 7:0 8:0 9:0 10:0 11:4 12:16 13:0 14:24 15:4 16:12 17:4 18:0 19:0 20:8 21:5.1700001 22:0 23:1.72 24:4.02 25:6.9000001 26:30.459999 27:2.8699999 28:1.72 29:2.8699999 30:2.3 31:0 32:11.49 33:8.0500002 34:9.1999998 35:3.45 36:5.1700001 37:0.56999999 38:1.72 39:0.56999999 40:1.72 #
-2.906049203220042086444449731808e-07 1:4 2:0 3:0 4:0 5:8 6:4 7:0 8:20 9:0 10:12 11:4 12:4 13:4 14:0 15:20 16:8 17:0 18:4 19:8 20:0 21:5.1599998 22:3.72 23:4.5799999 24:4.5799999 25:4.5799999 26:4.8699999 27:2.8699999 28:9.1700001 29:5.73 30:9.46 31:1.72 32:3.4400001 33:4.0100002 34:3.1500001 35:4.0100002 36:9.7399998 37:5.4400001 38:6.02 39:2.29 40:5.4400001 #
-2.906049203220042086444449731808e-07 1:8 2:0 3:0 4:0 5:0 6:8 7:0 8:16 9:16 10:0 11:4 12:4 13:8 14:0 15:20 16:16 17:0 18:0 19:0 20:0 21:10.62 22:1.77 23:2.6500001 24:1.77 25:3.54 26:11.5 27:1.77 28:5.3099999 29:4.4200001 30:3.54 31:2.6500001 32:3.54 33:6.1900001 34:3.54 35:12.39 36:4.4200001 37:7.96 38:11.5 39:0.88 40:0 #
-2.906049203220042086444449731808e-07 1:12 2:0 3:0 4:0 5:0 6:0 7:4 8:0 9:4 10:4 11:4 12:8 13:0 14:4 15:24 16:20 17:4 18:8 19:4 20:0 21:6.3299999 22:0.86000001 23:3.54 24:8.4799995 25:2.9000001 26:7.6199999 27:1.29 28:3.3299999 29:3.3299999 30:7.9400001 31:1.9299999 32:2.6800001 33:12.02 34:3 35:5.3600001 36:11.7 37:7.6199999 38:6.6500001 39:1.0700001 40:2.3599999 #
2.9060492032200418746862129182329e-06 1:32 2:0 3:8 4:8 5:0 6:12 7:0 8:0 9:4 10:8 11:4 12:0 13:12 14:4 15:0 16:4 17:0 18:4 19:0 20:0 21:5.98 22:0 23:4.27 24:12.82 25:5.1300001 26:7.6900001 27:0 28:3.4200001 29:3.4200001 30:14.53 31:4.27 32:0.85000002 33:5.98 34:7.6900001 35:5.1300001 36:5.98 37:5.98 38:4.27 39:1.71 40:0.85000002 #
2.9060492032200418746862129182329e-06 1:0 2:0 3:4 4:12 5:0 6:4 7:0 8:4 9:8 10:16 11:4 12:0 13:8 14:4 15:0 16:16 17:0 18:20 19:0 20:0 21:6.1199999 22:5.4400001 23:6.1199999 24:8.8400002 25:5.4400001 26:4.7600002 27:3.4000001 28:1.36 29:8.1599998 30:8.8400002 31:1.36 32:2.72 33:7.48 34:4.7600002 35:9.5200005 36:2.72 37:3.4000001 38:4.0799999 39:2.72 40:2.72 #
-2.906049203220042086444449731808e-07 1:32 2:0 3:0 4:4 5:0 6:24 7:0 8:0 9:0 10:4 11:4 12:0 13:12 14:0 15:0 16:8 17:4 18:8 19:0 20:0 21:12.13 22:0.81 23:1.62 24:1.35 25:5.1199999 26:9.4300003 27:1.62 28:3.77 29:3.77 30:16.440001 31:0.54000002 32:2.7 33:4.8499999 34:4.8499999 35:3.77 36:7.5500002 37:5.3899999 38:9.9700003 39:1.35 40:2.96 #
-2.906049203220042086444449731808e-07 1:8 2:0 3:8 4:0 5:12 6:4 7:0 8:0 9:4 10:20 11:4 12:0 13:4 14:12 15:8 16:8 17:4 18:4 19:0 20:0 21:8.7799997 22:1.87 23:6.3800001 24:4.5599999 25:3.5999999 26:7.25 27:3.1199999 28:4.5599999 29:4.27 30:8.21 31:3.1700001 32:3.0699999 33:6.7199998 34:4.0799999 35:5.0900002 36:7.5300002 37:7.1500001 38:6.9099998 39:1.2 40:2.5 #
2.9060492032200418746862129182329e-06 1:0 2:0 3:8 4:0 5:4 6:0 7:8 8:4 9:20 10:8 11:4 12:8 13:0 14:0 15:0 16:12 17:12 18:8 19:4 20:0 21:3.45 22:2.3 23:6.9000001 24:3.45 25:2.3 26:5.75 27:0 28:6.9000001 29:3.45 30:8.0500002 31:2.3 32:4.5999999 33:14.94 34:4.5999999 35:6.9000001 36:3.45 37:11.49 38:6.9000001 39:0 40:2.3 #
-2.906049203220042086444449731808e-07 1:8 2:0 3:0 4:0 5:0 6:8 7:0 8:12 9:4 10:20 11:4 12:0 13:4 14:4 15:4 16:8 17:0 18:24 19:0 20:0 21:9.2600002 22:0 23:4.6300001 24:0.93000001 25:3.7 26:12.5 27:4.6300001 28:2.3099999 29:4.1700001 30:10.19 31:0 32:6.9400001 33:6.9400001 34:5.5599999 35:4.6300001 36:6.48 37:9.2600002 38:3.7 39:0.93000001 40:3.24 #
-2.906049203220042086444449731808e-07 1:0 2:4 3:0 4:0 5:12 6:0 7:0 8:0 9:16 10:20 11:8 12:4 13:4 14:4 15:0 16:16 17:4 18:8 19:0 20:0 21:0 22:0 23:0 24:7.4099998 25:7.4099998 26:0 27:0 28:3.7 29:7.4099998 30:22.219999 31:3.7 32:3.7 33:3.7 34:11.11 35:3.7 36:3.7 37:7.4099998 38:7.4099998 39:7.4099998 40:0 #
2.9060492032200418746862129182329e-06 1:28 2:8 3:0 4:0 5:0 6:4 7:0 8:4 9:4 10:4 11:4 12:0 13:0 14:0 15:4 16:4 17:8 18:28 19:0 20:0 21:7.5500002 22:0.41999999 23:6.29 24:7.3400002 25:3.98 26:8.8100004 27:2.52 28:6.0799999 29:6.71 30:10.9 31:3.5599999 32:2.52 33:3.5599999 34:1.6799999 35:4.4000001 36:8.3900003 37:4.6100001 38:7.9699998 39:0.83999997 40:1.89 #
-2.906049203220042086444449731808e-07 1:8 2:0 3:4 4:0 5:8 6:4 7:4 8:0 9:8 10:12 11:8 12:0 13:8 14:0 15:8 16:12 17:12 18:4 19:0 20:0 21:5 22:1.5 23:3.5 24:5.5 25:4 26:6.5 27:2.5 28:2.5 29:4 30:10.5 31:0.5 32:2.5 33:11.5 34:6 35:5.5 36:12.5 37:5 38:6.5 39:0.5 40:4 #
-2.906049203220042086444449731808e-07 1:8 2:0 3:8 4:0 5:4 6:0 7:4 8:0 9:4 10:8 11:12 12:0 13:0 14:8 15:8 16:24 17:8 18:4 19:0 20:0 21:10.58 22:0.56 23:6.04 24:8.6400003 25:2.5999999 26:3.0599999 27:2.5999999 28:4.6399999 29:5.48 30:11.05 31:1.58 32:4.7399998 33:3.1600001 34:9.1000004 35:5.48 36:7.4299998 37:5.1100001 38:4.8299999 39:0.56 40:2.79 #
-2.906049203220042086444449731808e-07 1:0 2:0 3:0 4:0 5:4 6:20 7:4 8:0 9:4 10:36 11:4 12:0 13:8 14:0 15:12 16:0 17:4 18:4 19:0 20:0 21:5.5 22:1.42 23:4.25 24:6.7399998 25:5.0799999 26:3.8299999 27:2.1600001 28:5.0799999 29:4.75 30:8.0799999 31:2 32:4.5 33:6.9099998 34:3.25 35:3.9100001 36:9.6599998 37:7.5799999 38:8.9099998 39:2 40:4.4099998 #
-2.906049203220042086444449731808e-07 1:0 2:0 3:0 4:0 5:0 6:20 7:0 8:0 9:0 10:36 11:4 12:0 13:24 14:4 15:8 16:0 17:4 18:0 19:0 20:0 21:4.73 22:0.94999999 23:6.25 24:3.22 25:4.1700001 26:6.25 27:1.7 28:5.6799998 29:7.9499998 30:9.4700003 31:3.22 32:5.3000002 33:5.3000002 34:3.5999999 35:3.5999999 36:7.1999998 37:6.25 38:5.6799998 39:2.27 40:7.1999998 #
-2.906049203220042086444449731808e-07 1:12 2:4 3:0 4:0 5:0 6:8 7:0 8:4 9:0 10:24 11:4 12:0 13:0 14:0 15:8 16:20 17:8 18:4 19:4 20:0 21:6.4200001 22:2.1400001 23:2.1400001 24:2.4100001 25:5.8800001 26:4.8099999 27:2.4100001 28:8.0200005 29:5.0799999 30:12.83 31:2.9400001 32:4.5500002 33:4.5500002 34:1.87 35:4.5500002 36:9.0900002 37:5.0799999 38:8.8199997 39:1.34 40:5.0799999 #
2.9060492032200418746862129182329e-06 1:8 2:0 3:0 4:12 5:0 6:4 7:0 8:4 9:20 10:8 11:16 12:0 13:4 14:8 15:4 16:0 17:4 18:8 19:0 20:0 21:15.38 22:1.28 23:2.5599999 24:6.4099998 25:2.5599999 26:7.6900001 27:1.28 28:0 29:3.8499999 30:16.67 31:1.28 32:1.28 33:1.28 34:11.54 35:7.6900001 36:5.1300001 37:3.8499999 38:8.9700003 39:0 40:1.28 #
2.9060492032200418746862129182329e-06 1:12 2:0 3:0 4:12 5:0 6:8 7:0 8:4 9:4 10:12 11:8 12:0 13:4 14:4 15:0 16:0 17:4 18:20 19:4 20:4 21:5.7399998 22:1.64 23:18.030001 24:27.049999 25:3.28 26:3.28 27:5.7399998 28:0.81999999 29:6.5599999 30:6.5599999 31:0 32:2.46 33:1.64 34:5.7399998 35:2.46 36:0 37:3.28 38:3.28 39:0 40:2.46 #
-2.7530850668662801695494939634157e-07 1:0 2:0 3:0 4:4 5:0 6:4 7:0 8:8 9:8 10:4 11:44 12:0 13:0 14:0 15:0 16:8 17:0 18:20 19:0 20:0 21:7.2199998 22:3.8900001 23:5 24:6.1100001 25:2.78 26:7.2199998 27:0 28:7.7800002 29:7.7800002 30:9.4399996 31:0.56 32:6.1100001 33:4.4400001 34:2.22 35:4.4400001 36:11.11 37:5.5599999 38:5.5599999 39:1.11 40:1.67 #
-2.906049203220042086444449731808e-07 1:32 2:4 3:0 4:0 5:0 6:8 7:0 8:4 9:8 10:4 11:4 12:4 13:0 14:0 15:0 16:0 17:4 18:28 19:0 20:0 21:8.8800001 22:0.85000002 23:5.5 24:6.98 25:3.1700001 26:8.6700001 27:2.75 28:4.6500001 29:6.3400002 30:10.99 31:4.4400001 32:2.96 33:2.96 34:3.1700001 35:5.0700002 36:7.4000001 37:5.0700002 38:7.1900001 39:0.85000002 40:2.1099999 #
-5.2023367116506255049008383695153e-08 1:12 2:8 3:8 4:8 5:0 6:8 7:4 8:4 9:8 10:8 11:8 12:0 13:0 14:4 15:4 16:4 17:4 18:4 19:0 20:4 21:3.6099999 22:2.4100001 23:6.02 24:6.4299998 25:4.4200001 26:3.21 27:2.8099999 28:5.2199998 29:11.24 30:8.8400002 31:1.61 32:8.4300003 33:3.21 34:2.8099999 35:5.6199999 36:11.65 37:4.4200001 38:4.02 39:1.2 40:2.8099999 #
-2.906049203220042086444449731808e-07 1:16 2:0 3:0 4:0 5:4 6:8 7:0 8:4 9:0 10:0 11:12 12:8 13:8 14:4 15:4 16:0 17:4 18:24 19:4 20:0 21:10.03 22:0.31999999 23:6.6300001 24:4.3699999 25:4.6900001 26:9.2200003 27:1.46 28:4.3699999 29:3.4000001 30:6.8000002 31:3.8800001 32:4.21 33:5.8299999 34:4.6900001 35:5.02 36:6.96 37:6.1500001 38:6.3099999 39:1.46 40:4.21 #
2.9060492032200418746862129182329e-06 1:4 2:4 3:0 4:0 5:0 6:20 7:0 8:4 9:0 10:32 11:4 12:4 13:0 14:0 15:4 16:8 17:8 18:4 19:0 20:4 21:6.9099998 22:1.64 23:5.5900002 24:6.25 25:6.25 26:3.95 27:2.3 28:5.5900002 29:8.5500002 30:6.25 31:0.66000003 32:6.25 33:9.54 34:4.2800002 35:5.2600002 36:5.9200001 37:4.2800002 38:5.9200001 39:0.66000003 40:3.95 #
1.5953191626606201051455542760937e-06 1:8 2:4 3:0 4:0 5:0 6:12 7:4 8:0 9:0 10:32 11:8 12:0 13:8 14:0 15:16 16:8 17:0 18:0 19:0 20:0 21:4.9200001 22:2.73 23:4.9200001 24:3.8299999 25:6.0100002 26:14.21 27:3.28 28:3.8299999 29:8.7399998 30:5.46 31:1.64 32:4.3699999 33:4.3699999 34:2.1900001 35:2.73 36:10.93 37:5.46 38:8.1999998 39:0.55000001 40:1.64 #
2.9060492032200418746862129182329e-06 1:4 2:0 3:4 4:4 5:4 6:12 7:0 8:0 9:0 10:28 11:4 12:0 13:0 14:0 15:16 16:12 17:8 18:4 19:0 20:0 21:7.9200001 22:2.8199999 23:4.75 24:4.75 25:4.5799999 26:6.8699999 27:3.52 28:2.99 29:3.3499999 30:10.92 31:0.34999999 32:2.46 33:7.04 34:4.0500002 35:6.6900001 36:7.3899999 37:5.6300001 38:7.04 39:2.8199999 40:4.0500002 #
-2.906049203220042086444449731808e-07 1:8 2:4 3:0 4:0 5:0 6:8 7:4 8:0 9:0 10:24 11:4 12:4 13:4 14:0 15:24 16:8 17:8 18:0 19:0 20:0 21:12.5 22:1.5599999 23:3.1199999 24:10.16 25:0 26:6.25 27:0.77999997 28:3.1199999 29:14.84 30:9.3800001 31:0.77999997 32:2.3399999 33:8.5900002 34:1.5599999 35:3.1199999 36:6.25 37:6.25 38:8.5900002 39:0 40:0.77999997 #
-2.3728397175663083780016316542971e-07 1:8 2:0 3:0 4:8 5:8 6:12 7:0 8:4 9:0 10:12 11:4 12:0 13:8 14:0 15:16 16:12 17:0 18:4 19:4 20:0 21:15.23 22:1.16 23:3.6400001 24:6.6199999 25:1.3200001 26:12.91 27:0.66000003 28:0.99000001 29:1.99 30:6.29 31:0.66000003 32:0.17 33:12.42 34:3.1500001 35:12.09 36:12.09 37:2.6500001 38:3.3099999 39:0.99000001 40:1.66 #
-2.906049203220042086444449731808e-07 1:0 2:0 3:4 4:0 5:4 6:12 7:0 8:0 9:8 10:8 11:4 12:0 13:8 14:0 15:16 16:16 17:0 18:8 19:4 20:8 21:9.2600002 22:0 23:0 24:7.4099998 25:11.11 26:5.5599999 27:1.85 28:1.85 29:3.7 30:11.11 31:1.85 32:11.11 33:1.85 34:7.4099998 35:7.4099998 36:1.85 37:7.4099998 38:3.7 39:1.85 40:3.7 #
-2.906049203220042086444449731808e-07 1:16 2:0 3:0 4:0 5:4 6:12 7:0 8:0 9:0 10:16 11:4 12:0 13:8 14:0 15:24 16:4 17:0 18:0 19:12 20:0 21:15.95 22:1.23 23:4.29 24:5.52 25:3.6800001 26:15.34 27:1.23 28:1.23 29:0.61000001 30:12.27 31:2.45 32:0.61000001 33:7.3600001 34:2.45 35:6.1300001 36:7.3600001 37:1.84 38:6.1300001 39:2.45 40:1.84 #
