SVM-light Version V6.02
2 # kernel type
3 # kernel parameter -d 
0.001 # kernel parameter -g 
1 # kernel parameter -s 
1 # kernel parameter -r 
empty# kernel parameter -u 
40 # highest feature index 
569 # number of training documents 
445 # number of support vectors plus 1 
-1.0879463 # threshold b, each following line is a SV (starting with alpha*y)
-5.1282179341740992128961806884035 1:4 2:0 3:0 4:0 5:4 6:0 7:4 8:4 9:4 10:20 11:4 12:12 13:8 14:4 15:8 16:8 17:4 18:8 19:0 20:4 21:1.85 22:0 23:7.4099998 24:8.3299999 25:1.85 26:3.7 27:4.6300001 28:4.6300001 29:10.19 30:12.96 31:2.78 32:5.5599999 33:3.7 34:7.4099998 35:5.5599999 36:6.48 37:3.7 38:3.7 39:1.85 40:3.7 #
-2.3525483531497468625559577048989 1:28 2:0 3:0 4:0 5:0 6:4 7:4 8:0 9:0 10:0 11:4 12:0 13:24 14:0 15:16 16:20 17:0 18:0 19:0 20:0 21:16.24 22:3.4200001 23:1.71 24:3.4200001 25:2.5599999 26:10.26 27:2.5599999 28:0.85000002 29:1.71 30:7.6900001 31:3.4200001 32:0 33:12.82 34:8.5500002 35:0.85000002 36:11.97 37:5.1300001 38:4.27 39:0 40:2.5599999 #
-1.5362893054951172189248609356582 1:20 2:8 3:0 4:12 5:0 6:8 7:0 8:0 9:0 10:8 11:4 12:0 13:0 14:12 15:8 16:0 17:4 18:8 19:0 20:8 21:12.94 22:7.0599999 23:1.1799999 24:9.4099998 25:3.53 26:1.1799999 27:3.53 28:4.71 29:2.3499999 30:4.71 31:2.3499999 32:2.3499999 33:9.4099998 34:11.76 35:8.2399998 36:7.0599999 37:2.3499999 38:3.53 39:1.1799999 40:1.1799999 #
-3.3687007228335956732223621656885 1:4 2:4 3:12 4:4 5:0 6:0 7:0 8:4 9:0 10:8 11:4 12:4 13:12 14:4 15:12 16:16 17:8 18:4 19:0 20:0 21:5 22:5 23:5 24:6.6700001 25:5 26:3.3299999 27:0 28:3.3299999 29:5 30:5 31:5 32:10 33:5 34:1.67 35:15 36:3.3299999 37:3.3299999 38:5 39:1.67 40:6.6700001 #
-2.4324151609322255396250511694234 1:4 2:16 3:4 4:4 5:0 6:4 7:0 8:4 9:4 10:4 11:4 12:16 13:0 14:20 15:4 16:4 17:0 18:4 19:0 20:4 21:2.22 22:6.6700001 23:4.4400001 24:6.6700001 25:2.22 26:2.22 27:2.22 28:0 29:8.8900003 30:20 31:0 32:8.8900003 33:6.6700001 34:2.22 35:6.6700001 36:6.6700001 37:6.6700001 38:2.22 39:2.22 40:2.22 #
3.489324075043255035666334151756 1:36 2:0 3:0 4:4 5:4 6:0 7:8 8:0 9:4 10:8 11:8 12:0 13:0 14:0 15:12 16:8 17:0 18:0 19:8 20:0 21:8.9399996 22:0.69 23:4.2600002 24:4.54 25:3.99 26:8.25 27:2.48 28:6.0500002 29:5.6399999 30:10.73 31:2.3399999 32:4.54 33:3.1600001 34:3.99 35:5.0900002 36:6.8800001 37:5.9099998 38:8.25 39:1.1 40:3.1600001 #
5 1:20 2:0 3:0 4:0 5:4 6:12 7:0 8:4 9:8 10:12 11:8 12:0 13:4 14:0 15:8 16:8 17:8 18:4 19:0 20:0 21:9.4200001 22:0.91000003 23:4.5599999 24:8.21 25:3.95 26:7.29 27:3.95 28:5.4699998 29:6.6900001 30:6.9899998 31:3.3399999 32:3.3399999 33:4.5599999 34:1.52 35:5.7800002 36:4.5599999 37:6.3800001 38:6.0799999 39:3.3399999 40:3.6500001 #
1.0830474923812696275149392022286 1:8 2:4 3:0 4:4 5:8 6:0 7:0 8:20 9:0 10:16 11:4 12:4 13:0 14:0 15:0 16:4 17:4 18:20 19:0 20:4 21:5.3800001 22:0.63 23:1.58 24:4.1100001 25:9.4899998 26:6.3299999 27:0 28:12.66 29:1.9 30:17.09 31:0.94999999 32:4.1100001 33:4.4299998 34:1.27 35:2.53 36:10.13 37:4.75 38:5.0599999 39:1.58 40:6.0100002 #
1.5422665859193165349694254473434 1:12 2:0 3:4 4:24 5:0 6:0 7:4 8:0 9:4 10:4 11:4 12:0 13:12 14:4 15:8 16:8 17:4 18:8 19:0 20:0 21:3.8099999 22:2.3800001 23:3.8099999 24:3.5699999 25:10 26:6.1900001 27:2.6199999 28:8.8100004 29:3.5699999 30:9.7600002 31:3.3299999 32:3.5699999 33:4.29 34:2.8599999 35:4.29 36:6.9000001 37:6.1900001 38:7.1399999 39:2.1400001 40:4.7600002 #
5 1:16 2:4 3:0 4:0 5:0 6:12 7:0 8:0 9:0 10:24 11:4 12:0 13:4 14:0 15:12 16:4 17:4 18:12 19:4 20:0 21:14.18 22:2.99 23:3.73 24:1.49 25:2.24 26:7.46 27:7.46 28:2.99 29:3.73 30:15.67 31:1.49 32:1.49 33:4.48 34:2.99 35:2.24 36:8.21 37:2.99 38:7.46 39:2.99 40:3.73 #
-0.02567646121278110982188991329167 1:32 2:0 3:0 4:4 5:0 6:12 7:4 8:0 9:0 10:12 11:4 12:0 13:0 14:0 15:16 16:0 17:0 18:8 19:8 20:0 21:9.2600002 22:3.27 23:4.9000001 24:6.54 25:6.27 26:7.6300001 27:2.1800001 28:7.9000001 29:4.3600001 30:6.8099999 31:0.81999999 32:2.45 33:6.8099999 34:4.0900002 35:4.6300001 36:5.4499998 37:4.9000001 38:7.3600001 39:1.09 40:3.27 #
-2.735765458789101156611422993592 1:20 2:4 3:0 4:8 5:4 6:16 7:0 8:8 9:4 10:12 11:4 12:0 13:0 14:0 15:0 16:12 17:0 18:8 19:0 20:0 21:5.29 22:1.38 23:7.3600001 24:5.52 25:5.29 26:5.52 27:2.99 28:8.0500002 29:8.2799997 30:10.34 31:3.45 32:3.9100001 33:3.45 34:2.76 35:5.98 36:7.3600001 37:5.29 38:3.22 39:0.69 40:3.9100001 #
0.46646145504092606515200714056846 1:20 2:0 3:0 4:4 5:0 6:8 7:0 8:4 9:4 10:4 11:4 12:4 13:4 14:0 15:12 16:12 17:0 18:4 19:8 20:8 21:3.49 22:0 23:8.1400003 24:13.95 25:2.3299999 26:2.3299999 27:1.16 28:5.8099999 29:11.63 30:10.47 31:2.3299999 32:4.6500001 33:3.49 34:3.49 35:11.63 36:2.3299999 37:2.3299999 38:3.49 39:2.3299999 40:4.6500001 #
5 1:4 2:0 3:8 4:0 5:4 6:0 7:0 8:8 9:4 10:8 11:4 12:4 13:16 14:12 15:4 16:8 17:8 18:4 19:0 20:4 21:8.8599997 22:5.0599999 23:4.4299998 24:7.5900002 25:3.8 26:4.4299998 27:1.9 28:3.8 29:7.5900002 30:6.3299999 31:1.9 32:6.96 33:8.2299995 34:4.4299998 35:6.3299999 36:6.3299999 37:3.1600001 38:4.4299998 39:2.53 40:1.9 #
5 1:8 2:8 3:0 4:0 5:0 6:4 7:0 8:4 9:0 10:12 11:4 12:12 13:4 14:4 15:24 16:4 17:0 18:12 19:0 20:0 21:6.6100001 22:1.59 23:9.5200005 24:15.61 25:2.3800001 26:6.0799999 27:1.59 28:2.1199999 29:9.79 30:3.4400001 31:1.59 32:7.4099998 33:4.23 34:5.0300002 35:1.85 36:11.64 37:4.5 38:3.4400001 39:0.25999999 40:1.3200001 #
2.6363991869849190408103822846897 1:0 2:4 3:0 4:0 5:8 6:4 7:0 8:8 9:0 10:12 11:4 12:8 13:8 14:4 15:20 16:12 17:4 18:4 19:0 20:0 21:4.4899998 22:1.12 23:5.3899999 24:5.1700001 25:4.4899998 26:1.5700001 27:1.12 28:8.0900002 29:9.8900003 30:12.36 31:2.7 32:8.3100004 33:2.7 34:2.47 35:3.5999999 36:10.56 37:6.52 38:4.4899998 39:1.35 40:3.5999999 #
-3.8242243630871843862450987217017 1:4 2:0 3:0 4:0 5:12 6:4 7:0 8:4 9:4 10:8 11:4 12:8 13:4 14:4 15:20 16:8 17:12 18:4 19:0 20:0 21:8.1400003 22:0.87 23:4.3600001 24:5.52 25:2.9100001 26:7.8499999 27:2.03 28:8.1400003 29:5.52 30:9.3000002 31:0.87 32:5.52 33:5.52 34:1.74 35:3.78 36:9.0100002 37:7.8499999 38:8.1400003 39:0.28999999 40:2.6199999 #
-7.6397803045859600246103582321666 1:4 2:0 3:0 4:0 5:12 6:0 7:0 8:8 9:8 10:16 11:4 12:4 13:12 14:4 15:12 16:8 17:4 18:0 19:0 20:4 21:8.8000002 22:1.6 23:4.8000002 24:14.4 25:4.8000002 26:7.1999998 27:0 28:6.4000001 29:5.5999999 30:8.8000002 31:2.4000001 32:3.2 33:6.4000001 34:2.4000001 35:4.8000002 36:4.8000002 37:4.8000002 38:5.5999999 39:0.80000001 40:2.4000001 #
-0.50624680869247873360450284963008 1:8 2:0 3:0 4:0 5:4 6:0 7:4 8:0 9:0 10:16 11:8 12:0 13:12 14:4 15:20 16:4 17:8 18:12 19:0 20:0 21:10.04 22:0.55000001 23:6.75 24:7.8499999 25:1.64 26:10.22 27:0.36000001 28:7.8499999 29:9.6700001 30:8.0299997 31:2.9200001 32:3.6500001 33:2.9200001 34:2.9200001 35:3.0999999 36:4.3800001 37:5.8400002 38:9.8500004 39:0.18000001 40:1.28 #
4.8581231274533527297876389638986 1:40 2:4 3:0 4:0 5:0 6:8 7:0 8:0 9:0 10:4 11:4 12:0 13:4 14:4 15:12 16:4 17:0 18:12 19:4 20:0 21:7.4699998 22:0.82999998 23:6.2199998 24:8.3000002 25:6.2199998 26:3.3199999 27:2.0699999 28:4.1500001 29:4.5599999 30:9.1300001 31:0.41 32:3.73 33:7.8800001 34:3.3199999 35:8.3000002 36:5.8099999 37:4.1500001 38:8.71 39:1.24 40:4.1500001 #
-0.66002765663567020126833995163906 1:16 2:0 3:0 4:8 5:0 6:8 7:0 8:0 9:4 10:8 11:4 12:4 13:24 14:0 15:4 16:4 17:0 18:16 19:0 20:0 21:7.8699999 22:1.85 23:6.9400001 24:6.9400001 25:3.7 26:6.02 27:2.3099999 28:6.02 29:9.2600002 30:10.65 31:3.7 32:2.3099999 33:6.02 34:2.3099999 35:5.5599999 36:6.48 37:5.5599999 38:4.6300001 39:0 40:1.85 #
1.8396786146165338138303013693076 1:32 2:0 3:4 4:4 5:0 6:28 7:0 8:0 9:0 10:0 11:8 12:0 13:8 14:0 15:4 16:4 17:0 18:4 19:4 20:0 21:7.9699998 22:1.65 23:3.5699999 24:3.02 25:4.9499998 26:10.44 27:2.75 28:3.3 29:4.6700001 30:11.54 31:3.8499999 32:2.75 33:6.5900002 34:3.3 35:5.2199998 36:8.5200005 37:3.5699999 38:8.5200005 39:0.81999999 40:3.02 #
-8.9493721767812477452253006049432 1:28 2:0 3:0 4:0 5:0 6:12 7:0 8:0 9:0 10:12 11:8 12:0 13:4 14:0 15:16 16:0 17:8 18:12 19:0 20:0 21:9.6300001 22:1.96 23:4.9099998 24:4.7199998 25:3.9300001 26:6.8800001 27:2.55 28:2.95 29:3.9300001 30:11.39 31:1.1799999 32:2.95 33:7.27 34:4.1300001 35:6.8800001 36:10.41 37:3.73 38:6.8800001 39:2.1600001 40:1.5700001 #
-2.6531786783087074610421041143127 1:32 2:0 3:8 4:8 5:0 6:12 7:0 8:0 9:4 10:8 11:4 12:0 13:12 14:4 15:0 16:4 17:0 18:4 19:0 20:0 21:5.98 22:0 23:4.27 24:12.82 25:5.1300001 26:7.6900001 27:0 28:3.4200001 29:3.4200001 30:14.53 31:4.27 32:0.85000002 33:5.98 34:7.6900001 35:5.1300001 36:5.98 37:5.98 38:4.27 39:1.71 40:0.85000002 #
-5.800700948026014103220404649619 1:28 2:0 3:0 4:4 5:0 6:8 7:0 8:0 9:0 10:20 11:4 12:0 13:4 14:4 15:4 16:4 17:4 18:8 19:8 20:0 21:7.9299998 22:3.0799999 23:3.52 24:6.1700001 25:4.4099998 26:6.6100001 27:3.0799999 28:3.0799999 29:2.6400001 30:12.78 31:0.88 32:2.6400001 33:5.73 34:4.8499999 35:11.01 36:7.0500002 37:5.29 38:5.73 39:1.76 40:1.76 #
3.9940705148750819120095911785029 1:4 2:4 3:0 4:0 5:8 6:0 7:8 8:8 9:0 10:20 11:4 12:0 13:8 14:4 15:16 16:8 17:4 18:4 19:0 20:0 21:4.04 22:1.12 23:6.0500002 24:10.76 25:4.9299998 26:5.1599998 27:1.35 28:5.1599998 29:13.45 30:9.4200001 31:2.47 32:5.8299999 33:2.02 34:3.1400001 35:7.1700001 36:5.6100001 37:3.1400001 38:4.9299998 39:1.12 40:3.1400001 #
5 1:0 2:0 3:0 4:0 5:8 6:4 7:4 8:0 9:4 10:20 11:4 12:4 13:12 14:0 15:16 16:16 17:4 18:0 19:0 20:4 21:3.74 22:0.47 23:5.1399999 24:4.21 25:3.27 26:7.0100002 27:2.8 28:7.0100002 29:11.21 30:8.8800001 31:1.4 32:4.6700001 33:4.6700001 34:2.3399999 35:6.0700002 36:8.8800001 37:6.54 38:6.54 39:1.4 40:3.74 #
5 1:0 2:4 3:0 4:0 5:12 6:0 7:0 8:4 9:4 10:20 11:4 12:4 13:8 14:0 15:16 16:16 17:4 18:4 19:0 20:0 21:6.7199998 22:0.40000001 23:5.5300002 24:3.95 25:5.1399999 26:3.1600001 27:1.98 28:6.7199998 29:9.4899998 30:11.46 31:1.98 32:6.3200002 33:5.5300002 34:4.7399998 35:4.3499999 36:6.7199998 37:5.1399999 38:6.7199998 39:1.1900001 40:2.77 #
-4.9588501998825478267463040538132 1:0 2:0 3:0 4:0 5:4 6:4 7:4 8:12 9:16 10:12 11:4 12:0 13:8 14:4 15:4 16:12 17:12 18:4 19:0 20:0 21:3.73 22:0.93000001 23:5.2800002 24:6.21 25:6.52 26:4.9699998 27:0.93000001 28:5.5900002 29:11.49 30:8.0699997 31:1.24 32:8.3900003 33:4.3499999 34:2.1700001 35:5.2800002 36:8.3900003 37:6.21 38:5.9000001 39:1.24 40:3.1099999 #
-4.090230337638054436411039205268 1:4 2:0 3:0 4:0 5:8 6:0 7:8 8:8 9:12 10:8 11:8 12:0 13:8 14:4 15:4 16:16 17:4 18:0 19:0 20:8 21:5.0700002 22:0.56 23:5.9200001 24:5.3499999 25:2.54 26:6.7600002 27:0.85000002 28:6.48 29:9.5799999 30:8.4499998 31:1.13 32:6.7600002 33:3.3800001 34:3.6600001 35:2.54 36:10.42 37:7.6100001 38:8.1700001 39:1.6900001 40:3.0999999 #
-10 1:0 2:4 3:0 4:0 5:0 6:8 7:0 8:12 9:8 10:12 11:8 12:0 13:12 14:0 15:8 16:16 17:4 18:4 19:0 20:4 21:5.2800002 22:1.96 23:5.48 24:6.8499999 25:5.0900002 26:5.0900002 27:3.1300001 28:6.2600002 29:9.5900002 30:12.13 31:1.96 32:5.0900002 33:4.5 34:2.9400001 35:5.2800002 36:6.8499999 37:4.5 38:3.3299999 39:0.98000002 40:3.72 #
5 1:32 2:4 3:0 4:0 5:0 6:4 7:0 8:0 9:0 10:8 11:4 12:0 13:4 14:4 15:16 16:8 17:4 18:12 19:0 20:0 21:10.33 22:2.4200001 23:5.0500002 24:6.8099999 25:3.3 26:7.25 27:2.8599999 28:4.4000001 29:3.3 30:9.8900003 31:1.98 32:3.3 33:4.4000001 34:4.4000001 35:5.9299998 36:6.8099999 37:5.71 38:7.0300002 39:1.3200001 40:3.52 #
5 1:28 2:4 3:0 4:0 5:0 6:12 7:0 8:0 9:0 10:20 11:8 12:0 13:4 14:0 15:16 16:0 17:4 18:4 19:0 20:0 21:6.1999998 22:0.77999997 23:7.75 24:10.85 25:4.6500001 26:3.8800001 27:1.55 28:3.8800001 29:3.8800001 30:6.98 31:2.3299999 32:3.0999999 33:8.5299997 34:2.3299999 35:8.5299997 36:8.5299997 37:2.3299999 38:6.98 39:3.0999999 40:3.8800001 #
1.0785408278805286297341581303044 1:24 2:0 3:0 4:0 5:0 6:12 7:0 8:0 9:4 10:12 11:4 12:4 13:4 14:4 15:12 16:0 17:0 18:16 19:4 20:0 21:4.9699998 22:0.62 23:8.6999998 24:6.8299999 25:3.1099999 26:6.21 27:3.1099999 28:1.86 29:4.9699998 30:6.21 31:4.3499999 32:4.9699998 33:12.42 34:2.48 35:5.5900002 36:1.86 37:4.3499999 38:4.9699998 39:3.73 40:8.6999998 #
-1.3237091481700140604971238644794 1:28 2:0 3:0 4:0 5:0 6:8 7:0 8:0 9:0 10:20 11:4 12:0 13:4 14:4 15:20 16:4 17:4 18:4 19:0 20:0 21:10.3 22:1.62 23:5.6599998 24:5.4499998 25:4.4400001 26:9.29 27:1.41 28:4.4400001 29:6.0599999 30:7.27 31:1.8200001 32:4.04 33:4.8499999 34:4.8499999 35:4.2399998 36:4.6500001 37:5.0500002 38:9.29 39:1.41 40:3.8399999 #
-10 1:32 2:0 3:0 4:0 5:0 6:4 7:0 8:0 9:4 10:16 11:4 12:0 13:0 14:4 15:12 16:8 17:4 18:12 19:0 20:0 21:3.6400001 22:1.8200001 23:6.6700001 24:6.6700001 25:3.9400001 26:6.3600001 27:3.3299999 28:5.4499998 29:8.1800003 30:10 31:1.21 32:3.3299999 33:4.5500002 34:4.5500002 35:5.4499998 36:6.3600001 37:4.8499999 38:6.3600001 39:1.52 40:5.7600002 #
-0.96695235035998550188196531962603 1:32 2:4 3:0 4:0 5:0 6:4 7:0 8:0 9:0 10:16 11:4 12:0 13:8 14:4 15:20 16:4 17:0 18:0 19:4 20:0 21:13.95 22:1.29 23:4.1300001 24:6.46 25:3.3599999 26:8.79 27:1.55 28:6.7199998 29:5.6799998 30:10.08 31:3.8800001 32:2.5799999 33:3.8800001 34:4.1300001 35:4.1300001 36:6.1999998 37:5.6799998 38:3.8800001 39:1.29 40:2.3299999 #
3.756695549607311335194026469253 1:8 2:0 3:8 4:8 5:4 6:0 7:0 8:4 9:4 10:12 11:4 12:0 13:12 14:0 15:4 16:16 17:8 18:0 19:0 20:8 21:6.73 22:0 23:4.8099999 24:5.77 25:4.8099999 26:4.8099999 27:0 28:5.77 29:6.73 30:9.6199999 31:0 32:3.8499999 33:4.8099999 34:3.8499999 35:12.5 36:6.73 37:5.77 38:3.8499999 39:1.92 40:7.6900001 #
3.3672592802035543613214940705802 1:4 2:0 3:4 4:0 5:4 6:0 7:0 8:8 9:4 10:8 11:4 12:8 13:8 14:4 15:4 16:24 17:0 18:8 19:0 20:8 21:2.8499999 22:1.22 23:3.25 24:2.4400001 25:5.4899998 26:5.2800002 27:2.03 28:11.59 29:9.1499996 30:9.1499996 31:6.5 32:9.7600002 33:2.4400001 34:1.63 35:2.4400001 36:5.2800002 37:4.4699998 38:4.27 39:2.24 40:8.54 #
3.3430902546409466680188415921293 1:0 2:0 3:8 4:0 5:0 6:0 7:0 8:8 9:4 10:8 11:4 12:12 13:8 14:0 15:0 16:20 17:20 18:0 19:0 20:8 21:10.37 22:0 23:3.05 24:4.8800001 25:6.71 26:11.59 27:2.4400001 28:1.22 29:4.27 30:7.3200002 31:4.8800001 32:2.4400001 33:4.8800001 34:4.8800001 35:7.3200002 36:6.0999999 37:2.4400001 38:8.54 39:0.61000001 40:6.0999999 #
-6.1415461140388662997224855644163 1:4 2:0 3:12 4:0 5:4 6:0 7:4 8:8 9:4 10:8 11:4 12:12 13:8 14:0 15:4 16:12 17:4 18:4 19:0 20:8 21:10.08 22:0.77999997 23:4.6500001 24:3.0999999 25:6.1999998 26:8.1400003 27:0.77999997 28:3.0999999 29:6.98 30:11.24 31:1.16 32:6.5900002 33:4.2600002 34:4.2600002 35:1.55 36:8.1400003 37:9.3000002 38:6.5900002 39:0.77999997 40:2.3299999 #
-5.4763431205045378646900644525886 1:4 2:0 3:20 4:12 5:0 6:0 7:0 8:0 9:0 10:8 11:4 12:4 13:12 14:4 15:4 16:8 17:8 18:4 19:0 20:8 21:10 22:0.76999998 23:1.54 24:4.6199999 25:5.3800001 26:11.54 27:2.3099999 28:6.9200001 29:8.46 30:6.9200001 31:1.54 32:4.6199999 33:1.54 34:5.3800001 35:4.6199999 36:6.1500001 37:3.0799999 38:9.2299995 39:3.0799999 40:2.3099999 #
-6.0356102267530928884298191405833 1:0 2:0 3:4 4:8 5:8 6:0 7:4 8:12 9:8 10:16 11:4 12:0 13:4 14:0 15:4 16:20 17:8 18:0 19:0 20:0 21:5.71 22:0 23:0 24:0 25:5.71 26:5.71 27:5.71 28:2.8599999 29:0 30:17.139999 31:0 32:11.43 33:11.43 34:0 35:2.8599999 36:8.5699997 37:2.8599999 38:8.5699997 39:5.71 40:5.71 #
5 1:32 2:0 3:0 4:0 5:0 6:4 7:4 8:4 9:0 10:12 11:8 12:0 13:4 14:0 15:12 16:12 17:0 18:8 19:0 20:0 21:9.5100002 22:0.19 23:4.27 24:10.87 25:3.5 26:7.3800001 27:1.55 28:4.0799999 29:9.3199997 30:6.9899998 31:3.5 32:2.3299999 33:7.3800001 34:5.0500002 35:5.2399998 36:5.8299999 37:4.0799999 38:3.8800001 39:2.3299999 40:2.72 #
5 1:24 2:4 3:4 4:0 5:0 6:8 7:4 8:0 9:0 10:16 11:4 12:0 13:4 14:0 15:16 16:4 17:8 18:4 19:0 20:0 21:8 22:1.6 23:7.1999998 24:8.8000002 25:2.4000001 26:4.8000002 27:1.6 28:7.1999998 29:5.5999999 30:8 31:0.80000001 32:3.2 33:7.1999998 34:2.4000001 35:7.1999998 36:4 37:6.4000001 38:8 39:1.6 40:4 #
-10 1:32 2:4 3:0 4:0 5:0 6:16 7:0 8:0 9:4 10:8 11:4 12:0 13:0 14:0 15:12 16:8 17:0 18:8 19:4 20:0 21:6.3600001 22:0.98000002 23:4.4000001 24:8.5600004 25:8.0699997 26:6.5999999 27:3.1800001 28:4.8899999 29:9.0500002 30:8.8000002 31:3.4200001 32:2.6900001 33:1.96 34:4.8899999 35:5.3800001 36:6.3600001 37:5.6199999 38:5.1300001 39:1.47 40:2.2 #
1.7575292291414488232703661196865 1:4 2:12 3:0 4:0 5:4 6:8 7:0 8:0 9:8 10:16 11:4 12:8 13:4 14:0 15:0 16:12 17:8 18:12 19:0 20:0 21:11.59 22:1.04 23:3.49 24:3.96 25:3.3900001 26:10.93 27:1.6 28:6.6900001 29:5.5599999 30:10.74 31:3.3 32:3.5799999 33:5 34:3.2 35:2.26 36:5.9400001 37:6.5 38:7.6300001 39:0.38 40:3.2 #
-3.9038526612377908442397256294498 1:28 2:0 3:0 4:4 5:4 6:4 7:0 8:0 9:0 10:12 11:4 12:0 13:0 14:0 15:16 16:16 17:0 18:8 19:4 20:0 21:8.4099998 22:2.8 23:4.7399998 24:7.3299999 25:2.5899999 26:6.6799998 27:2.8 28:6.0300002 29:4.0900002 30:10.56 31:2.5899999 32:4.7399998 33:3.23 34:3.23 35:6.4699998 36:6.25 37:7.1100001 38:6.0300002 39:1.29 40:3.02 #
5 1:0 2:4 3:4 4:0 5:8 6:0 7:4 8:8 9:20 10:12 11:8 12:0 13:8 14:4 15:4 16:8 17:0 18:4 19:0 20:4 21:3.1199999 22:2.02 23:6.0700002 24:5.5100002 25:5.5100002 26:5.8800001 27:1.29 28:10.11 29:11.4 30:8.8199997 31:1.47 32:11.03 33:2.21 34:2.21 35:2.9400001 36:6.9899998 37:3.49 38:4.23 39:0.18000001 40:5.5100002 #
4.3908266534024296134930409607477 1:0 2:0 3:4 4:8 5:0 6:0 7:4 8:16 9:12 10:4 11:4 12:20 13:4 14:4 15:4 16:8 17:4 18:4 19:0 20:0 21:8.2399998 22:2.3499999 23:1.76 24:4.1199999 25:4.71 26:8.8199997 27:1.1799999 28:7.0599999 29:4.1199999 30:16.469999 31:1.76 32:4.71 33:5.29 34:2.3499999 35:5.29 36:5.8800001 37:6.4699998 38:4.71 39:0.58999997 40:4.1199999 #
3.9795106322844837620777980191633 1:12 2:0 3:8 4:8 5:0 6:16 7:0 8:20 9:12 10:8 11:4 12:4 13:0 14:0 15:0 16:8 17:0 18:0 19:0 20:0 21:8.9899998 22:2.25 23:2.25 24:4.4899998 25:7.1199999 26:8.6099997 27:1.5 28:6.7399998 29:7.8699999 30:9.7399998 31:0.37 32:3.3699999 33:3.3699999 34:4.1199999 35:3 36:7.8699999 37:7.1199999 38:7.8699999 39:1.5 40:1.87 #
-1.8804241605926932390246975046466 1:4 2:0 3:12 4:8 5:0 6:8 7:0 8:12 9:12 10:4 11:8 12:4 13:8 14:4 15:4 16:4 17:4 18:0 19:0 20:4 21:5.4899998 22:3.6600001 23:5.4899998 24:7.3200002 25:3.6600001 26:7.3200002 27:1.83 28:2.4400001 29:9.7600002 30:7.9299998 31:1.83 32:6.0999999 33:5.4899998 34:4.27 35:5.4899998 36:7.3200002 37:4.27 38:3.6600001 39:3.6600001 40:3.05 #
-1.4173850808629193664955892018043 1:12 2:0 3:12 4:4 5:12 6:4 7:0 8:4 9:12 10:8 11:4 12:4 13:8 14:0 15:0 16:0 17:12 18:0 19:0 20:4 21:6.8000002 22:0 23:5.1999998 24:2 25:7.1999998 26:6.8000002 27:0.40000001 28:6 29:11.2 30:6.8000002 31:0.40000001 32:10.8 33:2.4000001 34:2.8 35:1.6 36:7.5999999 37:10 38:8.8000002 39:0.40000001 40:2.8 #
-9.5429618711091777072397235315293 1:8 2:0 3:12 4:8 5:4 6:4 7:0 8:4 9:12 10:4 11:4 12:4 13:8 14:4 15:0 16:4 17:8 18:8 19:0 20:4 21:7.7199998 22:0.34999999 23:5.96 24:5.2600002 25:5.2600002 26:7.7199998 27:2.1099999 28:4.5599999 29:5.6100001 30:10.88 31:1.4 32:5.6100001 33:3.8599999 34:3.51 35:4.21 36:7.3699999 37:5.6100001 38:7.02 39:0.34999999 40:5.6100001 #
5 1:20 2:4 3:0 4:0 5:4 6:12 7:0 8:0 9:0 10:16 11:4 12:0 13:0 14:0 15:20 16:12 17:4 18:4 19:0 20:0 21:6.0999999 22:0.91000003 23:5.79 24:6.71 25:4.27 26:6.4000001 27:1.83 28:4.8800001 29:4.5700002 30:11.28 31:0.91000003 32:2.74 33:8.8400002 34:5.79 35:7.0100002 36:6.0999999 37:4.8800001 38:5.79 39:1.52 40:3.6600001 #
5 1:20 2:0 3:4 4:0 5:4 6:4 7:0 8:0 9:0 10:12 11:4 12:0 13:4 14:8 15:16 16:12 17:4 18:8 19:0 20:0 21:8.75 22:0.28999999 23:7 24:6.1199999 25:4.96 26:5.54 27:0.87 28:3.5 29:9.04 30:12.83 31:0 32:5.25 33:3.21 34:2.04 35:3.5 36:8.4499998 37:5.25 38:9.04 39:0 40:4.3699999 #
-1.4631761364554183302288947743364 1:4 2:4 3:0 4:0 5:4 6:4 7:0 8:4 9:0 10:16 11:4 12:0 13:4 14:8 15:12 16:20 17:0 18:16 19:0 20:0 21:10.18 22:2.4000001 23:4.1900001 24:3.5899999 25:2.4000001 26:7.1900001 27:2.4000001 28:4.79 29:8.9799995 30:7.1900001 31:2.99 32:5.3899999 33:5.3899999 34:2.4000001 35:4.1900001 36:7.1900001 37:7.1900001 38:9.5799999 39:0 40:2.4000001 #
-2.7734111978681004195834702841239 1:12 2:0 3:0 4:0 5:0 6:24 7:0 8:0 9:0 10:20 11:4 12:0 13:4 14:4 15:16 16:8 17:4 18:4 19:0 20:0 21:10.69 22:2.26 23:5.5700002 24:5.7199998 25:2.71 26:8.7299995 27:2.71 28:5.4200001 29:4.6700001 30:7.0799999 31:2.26 32:1.8099999 33:5.7199998 34:2.71 35:5.5700002 36:5.7199998 37:5.7199998 38:9.1899996 39:1.96 40:3.77 #
0.30762811547991542049373947520507 1:12 2:0 3:0 4:0 5:4 6:4 7:4 8:8 9:0 10:12 11:4 12:8 13:8 14:0 15:20 16:4 17:4 18:4 19:0 20:4 21:9.7600002 22:0.81 23:7.3200002 24:13.01 25:6.5 26:0.81 27:0.81 28:2.4400001 29:7.3200002 30:9.7600002 31:0 32:4.0700002 33:4.0700002 34:3.25 35:7.3200002 36:4.8800001 37:4.8800001 38:7.3200002 39:0 40:5.6900001 #
5 1:4 2:8 3:12 4:8 5:4 6:0 7:0 8:4 9:12 10:16 11:4 12:4 13:0 14:4 15:8 16:0 17:4 18:4 19:0 20:4 21:5.1199999 22:3.4100001 23:7.04 24:3.2 25:6.6100001 26:7.04 27:1.71 28:6.4000001 29:8.7399998 30:8.96 31:1.28 32:7.04 33:2.77 34:3.6199999 35:4.9000001 36:8.7399998 37:5.54 38:4.2600002 39:0.85000002 40:2.77 #
5 1:0 2:0 3:4 4:0 5:16 6:4 7:4 8:0 9:12 10:12 11:8 12:0 13:8 14:4 15:8 16:4 17:12 18:0 19:0 20:4 21:7.48 22:1.1799999 23:5.1199999 24:5.9099998 25:5.9099998 26:4.7199998 27:0.79000002 28:3.9400001 29:9.4499998 30:8.6599998 31:1.97 32:4.3299999 33:3.54 34:5.5100002 35:5.1199999 36:8.6599998 37:5.1199999 38:7.0900002 39:2.3599999 40:3.1500001 #
5 1:8 2:0 3:0 4:8 5:12 6:0 7:8 8:4 9:16 10:8 11:8 12:0 13:8 14:0 15:0 16:12 17:4 18:4 19:0 20:0 21:4.21 22:3.1600001 23:5.2600002 24:10.53 25:6.3200002 26:8.4200001 27:5.2600002 28:7.3699999 29:6.3200002 30:8.4200001 31:1.05 32:3.1600001 33:2.1099999 34:1.05 35:4.21 36:8.4200001 37:4.21 38:8.4200001 39:0 40:2.1099999 #
-6.5984826072842164279563803575002 1:12 2:0 3:4 4:4 5:8 6:4 7:4 8:0 9:12 10:12 11:12 12:0 13:8 14:4 15:8 16:0 17:4 18:4 19:0 20:0 21:6.9000001 22:0 23:10.34 24:3.45 25:10.34 26:3.45 27:0 28:10.34 29:6.9000001 30:6.9000001 31:0 32:0 33:3.45 34:0 35:3.45 36:13.79 37:0 38:10.34 39:3.45 40:6.9000001 #
-5.953092222024265467439363419544 1:4 2:0 3:8 4:16 5:4 6:4 7:0 8:8 9:12 10:8 11:12 12:0 13:8 14:0 15:12 16:0 17:0 18:4 19:0 20:0 21:3.8499999 22:0 23:3.8499999 24:0 25:7.6900001 26:0 27:0 28:15.38 29:7.6900001 30:19.23 31:0 32:3.8499999 33:3.8499999 34:0 35:7.6900001 36:11.54 37:3.8499999 38:7.6900001 39:0 40:3.8499999 #
-9.0362022701942485980453056981787 1:4 2:0 3:8 4:8 5:4 6:0 7:0 8:4 9:8 10:16 11:4 12:0 13:12 14:8 15:0 16:0 17:8 18:4 19:4 20:8 21:7.6900001 22:1.54 23:3.8499999 24:7.6900001 25:3.0799999 26:8.46 27:0.76999998 28:4.6199999 29:8.46 30:8.46 31:1.54 32:3.8499999 33:0.76999998 34:3.8499999 35:8.46 36:5.3800001 37:5.3800001 38:10 39:0.76999998 40:5.3800001 #
5 1:20 2:0 3:0 4:0 5:0 6:16 7:0 8:0 9:0 10:16 11:4 12:4 13:4 14:4 15:16 16:8 17:0 18:8 19:0 20:0 21:7.6900001 22:3.8499999 23:3.8499999 24:7.6900001 25:0.95999998 26:8.6499996 27:3.8499999 28:4.8099999 29:5.77 30:6.73 31:1.92 32:3.8499999 33:6.73 34:3.8499999 35:4.8099999 36:6.73 37:6.73 38:7.6900001 39:1.92 40:1.92 #
4.6914694721524687892610927519854 1:20 2:0 3:0 4:0 5:0 6:36 7:0 8:0 9:0 10:20 11:4 12:0 13:0 14:0 15:8 16:12 17:0 18:0 19:0 20:0 21:6.75 22:1.53 23:6.1300001 24:6.1300001 25:3.0699999 26:4.9099998 27:2.76 28:4.9099998 29:4.9099998 30:12.27 31:1.84 32:2.1500001 33:3.99 34:6.4400001 35:8.2799997 36:4.5999999 37:5.52 38:7.6700001 39:1.53 40:4.5999999 #
5 1:8 2:4 3:0 4:4 5:0 6:20 7:4 8:4 9:0 10:12 11:4 12:0 13:0 14:0 15:20 16:8 17:0 18:8 19:0 20:4 21:7.29 22:2.01 23:6.5300002 24:5.7800002 25:4.77 26:5.0300002 27:2.76 28:6.0300002 29:5.7800002 30:5.7800002 31:3.27 32:4.27 33:7.29 34:2.76 35:6.0300002 36:5.7800002 37:5.7800002 38:6.5300002 39:2.76 40:3.77 #
-1.583743149628038082710190792568 1:8 2:8 3:0 4:0 5:0 6:20 7:12 8:0 9:0 10:12 11:4 12:0 13:0 14:4 15:20 16:4 17:0 18:4 19:4 20:0 21:5.4299998 22:1.58 23:6.0300002 24:6.23 25:5.3400002 26:5.6300001 27:3.3599999 28:4.1500001 29:6.3200002 30:10.28 31:2.3699999 32:3.46 33:6.52 34:5.5300002 35:4.4499998 36:7.1100001 37:6.7199998 38:5.4299998 39:1.09 40:2.96 #
-10 1:4 2:4 3:0 4:4 5:4 6:8 7:0 8:0 9:0 10:28 11:4 12:4 13:0 14:0 15:20 16:12 17:4 18:4 19:0 20:0 21:9.0900002 22:1.23 23:3.6900001 24:7.3699999 25:4.1799998 26:8.8500004 27:2.21 28:7.6199999 29:7.1300001 30:8.6000004 31:2.46 32:3.6900001 33:3.4400001 34:4.9099998 35:2.46 36:6.6300001 37:6.3899999 38:5.1599998 39:0.74000001 40:4.1799998 #
-7.454308696631179564917601965135 1:12 2:4 3:0 4:0 5:0 6:20 7:0 8:4 9:0 10:16 11:4 12:0 13:4 14:0 15:20 16:4 17:0 18:12 19:0 20:0 21:6.9000001 22:1.42 23:4.46 24:7.71 25:4.0599999 26:6.9000001 27:3.04 28:3.45 29:3.25 30:12.37 31:2.03 32:2.6400001 33:6.4899998 34:6.6900001 35:7.9099998 36:5.8800001 37:5.27 38:5.6799998 39:0.61000001 40:3.25 #
5 1:4 2:0 3:8 4:12 5:4 6:0 7:0 8:12 9:8 10:4 11:4 12:4 13:12 14:4 15:4 16:0 17:4 18:12 19:0 20:4 21:7.21 22:0.95999998 23:4.8099999 24:6.73 25:3.8499999 26:4.8099999 27:1.4400001 28:5.29 29:8.1700001 30:7.6900001 31:2.8800001 32:5.77 33:2.8800001 34:2.4000001 35:7.6900001 36:6.73 37:8.1700001 38:6.25 39:2.4000001 40:3.8499999 #
1.2779810758542540227722383860964 1:8 2:8 3:8 4:12 5:4 6:12 7:0 8:4 9:0 10:0 11:8 12:0 13:8 14:0 15:8 16:0 17:4 18:8 19:4 20:4 21:10.88 22:0.68000001 23:2.72 24:2.04 25:4.0799999 26:14.97 27:1.36 28:6.8000002 29:2.04 30:9.5200005 31:2.04 32:2.72 33:8.1599998 34:4.7600002 35:7.48 36:6.1199999 37:4.0799999 38:5.4400001 39:1.36 40:2.72 #
5 1:12 2:4 3:8 4:8 5:4 6:0 7:0 8:0 9:0 10:12 11:4 12:0 13:8 14:8 15:12 16:0 17:8 18:4 19:4 20:4 21:5.9699998 22:0.66000003 23:5.5300002 24:6.4200001 25:4.1999998 26:10.4 27:0.88 28:7.3000002 29:7.7399998 30:9.96 31:3.54 32:3.54 33:3.0999999 34:4.8699999 35:3.76 36:5.3099999 37:5.75 38:5.75 39:1.77 40:3.54 #
-2.4526015228933863987492713931715 1:8 2:0 3:4 4:0 5:12 6:0 7:0 8:4 9:4 10:4 11:8 12:0 13:12 14:4 15:4 16:12 17:8 18:12 19:0 20:4 21:4.9299998 22:2.6300001 23:4.2800002 24:6.9099998 25:3.6199999 26:3.95 27:2.6300001 28:5.5900002 29:6.9099998 30:13.16 31:1.97 32:4.9299998 33:2.6300001 34:6.5799999 35:3.6199999 36:7.5700002 37:6.5799999 38:7.2399998 39:0.66000003 40:3.6199999 #
0.4062572571969234047628560801968 1:0 2:0 3:8 4:4 5:0 6:4 7:4 8:4 9:0 10:16 11:8 12:4 13:8 14:12 15:4 16:8 17:8 18:8 19:0 20:0 21:6.4499998 22:1.79 23:2.51 24:2.51 25:4.6599998 26:9.6800003 27:2.1500001 28:6.4499998 29:4.6599998 30:12.54 31:3.9400001 32:1.08 33:5.02 34:3.9400001 35:5.3800001 36:7.8899999 37:6.8099999 38:6.8099999 39:1.08 40:4.6599998 #
-7.1372869623472334765779123699758 1:12 2:0 3:8 4:4 5:8 6:0 7:0 8:8 9:8 10:0 11:4 12:12 13:8 14:12 15:4 16:4 17:4 18:0 19:0 20:4 21:4.9200001 22:6.5599999 23:6.5599999 24:4.9200001 25:3.28 26:6.5599999 27:1.64 28:3.28 29:6.5599999 30:3.28 31:1.64 32:3.28 33:3.28 34:3.28 35:9.8400002 36:6.5599999 37:6.5599999 38:6.5599999 39:6.5599999 40:4.9200001 #
3.9741791271693545084531251632143 1:4 2:4 3:0 4:4 5:0 6:12 7:4 8:0 9:0 10:20 11:12 12:0 13:0 14:4 15:20 16:8 17:0 18:8 19:0 20:0 21:9.0200005 22:1.46 23:2.4400001 24:4.8800001 25:4.3899999 26:5.1199999 27:2.4400001 28:5.3699999 29:4.1500001 30:11.95 31:2.6800001 32:2.4400001 33:9.0200005 34:5.1199999 35:5.3699999 36:7.0700002 37:5.8499999 38:6.5900002 39:2.4400001 40:2.2 #
3.9851454009475233419834694359452 1:8 2:8 3:0 4:0 5:4 6:16 7:0 8:0 9:0 10:20 11:4 12:0 13:0 14:0 15:28 16:0 17:8 18:0 19:4 20:0 21:13.53 22:1.1799999 23:4.71 24:10.88 25:2.0599999 26:4.71 27:2.3499999 28:6.4699998 29:4.71 30:13.53 31:2.9400001 32:2.6500001 33:2.3499999 34:5.8800001 35:7.0599999 36:5 37:4.4099998 38:1.47 39:0.28999999 40:3.8199999 #
5 1:12 2:0 3:0 4:4 5:0 6:8 7:0 8:0 9:0 10:24 11:4 12:0 13:8 14:4 15:20 16:4 17:0 18:8 19:0 20:4 21:18.18 22:0 23:4.1999998 24:6.9899998 25:4.1999998 26:6.29 27:1.4 28:2.8 29:2.8 30:9.79 31:1.4 32:3.5 33:4.1999998 34:6.29 35:2.8 36:6.9899998 37:6.9899998 38:10.49 39:0 40:0.69999999 #
-6.0929236480104194129125971812755 1:16 2:0 3:0 4:4 5:0 6:8 7:0 8:0 9:0 10:16 11:4 12:0 13:8 14:4 15:28 16:8 17:0 18:4 19:0 20:0 21:7.4299998 22:1.61 23:4.6199999 24:6.4299998 25:3.21 26:7.0300002 27:2.8099999 28:3.01 29:4.4200001 30:14.06 31:2.21 32:3.4100001 33:5.6199999 34:6.6300001 35:7.0300002 36:5.8200002 37:3.6099999 38:7.23 39:1 40:2.8099999 #
-2.3033416389552776593063754262403 1:8 2:4 3:4 4:0 5:4 6:12 7:0 8:0 9:0 10:16 11:4 12:0 13:8 14:0 15:20 16:8 17:0 18:4 19:4 20:4 21:9.0299997 22:0.63 23:5.8800001 24:6.3000002 25:2.52 26:7.1399999 27:1.05 28:7.3499999 29:7.77 30:8.6099997 31:1.05 32:2.73 33:8.6099997 34:3.3599999 35:4.6199999 36:7.3499999 37:6.0900002 38:7.77 39:1.47 40:0.63 #
5 1:8 2:0 3:8 4:8 5:4 6:0 7:0 8:8 9:8 10:12 11:4 12:8 13:4 14:8 15:0 16:8 17:4 18:8 19:0 20:0 21:6.6399999 22:1.66 23:1.66 24:3.99 25:4.6500001 26:9.9700003 27:0.66000003 28:4.3200002 29:4.3200002 30:10.63 31:0.33000001 32:4.98 33:3.3199999 34:4.3200002 35:6.3099999 36:9.3000002 37:5.6500001 38:10.3 39:1.99 40:4.98 #
5 1:0 2:0 3:12 4:8 5:8 6:4 7:4 8:4 9:4 10:8 11:4 12:4 13:8 14:4 15:0 16:8 17:0 18:16 19:0 20:4 21:8.1300001 22:0.95999998 23:2.8699999 24:5.7399998 25:3.3499999 26:3.8299999 27:2.3900001 28:6.6999998 29:8.1300001 30:10.53 31:0 32:7.1799998 33:2.8699999 34:5.2600002 35:6.2199998 36:8.1300001 37:4.7800002 38:5.7399998 39:2.8699999 40:4.3099999 #
5 1:4 2:0 3:0 4:4 5:16 6:4 7:0 8:4 9:12 10:4 11:8 12:4 13:4 14:0 15:12 16:4 17:8 18:8 19:0 20:4 21:5.5100002 22:1.65 23:5.3299999 24:6.25 25:4.5999999 26:4.4099998 27:3.3099999 28:6.8000002 29:7.7199998 30:10.85 31:2.3900001 32:4.5999999 33:3.6800001 34:2.5699999 35:5.1500001 36:6.6199999 37:6.9899998 38:5.3299999 39:1.84 40:4.4099998 #
-2.7954539615006650521422670863103 1:0 2:0 3:4 4:0 5:16 6:0 7:0 8:12 9:16 10:8 11:4 12:4 13:4 14:4 15:12 16:12 17:0 18:4 19:0 20:0 21:7.5999999 22:1.9 23:4.75 24:7.8400002 25:2.3800001 26:5.23 27:0.94999999 28:7.5999999 29:9.0299997 30:9.5 31:2.1400001 32:6.1799998 33:4.2800002 34:4.9899998 35:4.2800002 36:6.6500001 37:5.23 38:4.9899998 39:0.94999999 40:3.5599999 #
-4.3213013743042303360653022537008 1:0 2:0 3:0 4:0 5:8 6:4 7:0 8:20 9:16 10:12 11:4 12:16 13:4 14:0 15:0 16:4 17:0 18:12 19:0 20:0 21:3.3399999 22:0.94999999 23:3.6600001 24:7.6300001 25:3.02 26:4.77 27:1.59 28:7.9499998 29:7.3099999 30:9.6999998 31:1.91 32:10.33 33:2.7 34:7.3099999 35:2.3800001 36:11.45 37:5.25 38:5.8800001 39:0.16 40:2.7 #
-1.2224391505689897741149252397008 1:0 2:0 3:0 4:4 5:16 6:0 7:0 8:0 9:16 10:12 11:4 12:0 13:8 14:4 15:8 16:4 17:12 18:4 19:0 20:8 21:6.9200001 22:0.63 23:8.1800003 24:6.9200001 25:0.63 26:2.52 27:3.1400001 28:3.77 29:8.1800003 30:13.84 31:2.52 32:4.4000001 33:3.1400001 34:11.32 35:4.4000001 36:5.0300002 37:5.0300002 38:3.1400001 39:1.89 40:4.4000001 #
5 1:20 2:0 3:0 4:0 5:0 6:12 7:0 8:0 9:0 10:16 11:4 12:0 13:8 14:0 15:12 16:16 17:0 18:8 19:4 20:0 21:6.0999999 22:0 23:10.98 24:3.6600001 25:6.0999999 26:7.3200002 27:1.22 28:7.3200002 29:4.8800001 30:9.7600002 31:1.22 32:1.22 33:6.0999999 34:0 35:6.0999999 36:12.2 37:2.4400001 38:10.98 39:1.22 40:1.22 #
5 1:16 2:4 3:0 4:4 5:0 6:8 7:0 8:0 9:0 10:16 11:4 12:4 13:12 14:0 15:20 16:0 17:0 18:4 19:8 20:0 21:7.5 22:0.94 23:5.6199999 24:7.8099999 25:4.6900001 26:7.8099999 27:1.88 28:4.6900001 29:4.6900001 30:9.6899996 31:2.5 32:5 33:5.3099999 34:3.4400001 35:6.5599999 36:6.25 37:5.3099999 38:5 39:1.25 40:4.0599999 #
5 1:16 2:12 3:0 4:0 5:4 6:16 7:0 8:4 9:0 10:12 11:4 12:0 13:4 14:4 15:16 16:4 17:0 18:0 19:4 20:0 21:6.7800002 22:0.69999999 23:6.0700002 24:9.8100004 25:3.74 26:6.3099999 27:1.4 28:5.1399999 29:10.28 30:10.05 31:2.3399999 32:3.04 33:2.0999999 34:4.21 35:5.3699999 36:8.4099998 37:4.9099998 38:5.8400002 39:1.17 40:2.3399999 #
-8.4901003215594403883414997835644 1:24 2:4 3:0 4:4 5:0 6:4 7:0 8:0 9:0 10:8 11:4 12:4 13:4 14:4 15:16 16:0 17:4 18:8 19:12 20:0 21:9.9700003 22:1.29 23:4.3400002 24:5.79 25:2.4100001 26:7.4000001 27:1.13 28:6.4299998 29:5.9499998 30:7.5599999 31:2.0899999 32:2.5699999 33:10.93 34:3.22 35:4.02 36:6.4299998 37:7.4000001 38:8.5200005 39:0.80000001 40:1.77 #
-2.432011323472598629535923464573 1:24 2:4 3:0 4:0 5:0 6:8 7:4 8:0 9:0 10:12 11:4 12:0 13:12 14:0 15:16 16:4 17:0 18:4 19:4 20:4 21:10.22 22:1.49 23:5.3899999 24:5.9499998 25:4.2800002 26:10.22 27:1.86 28:7.0599999 29:5.1999998 30:7.9899998 31:2.04 32:3.9000001 33:4.46 34:3.9000001 35:5.5799999 36:5.1999998 37:3.72 38:7.0599999 39:0.56 40:3.9000001 #
-4.4140681911235741807786325807683 1:24 2:0 3:0 4:0 5:0 6:0 7:4 8:0 9:0 10:8 11:8 12:0 13:12 14:0 15:12 16:12 17:0 18:20 19:0 20:0 21:5.9200001 22:0.28 23:4.79 24:6.1999998 25:5.9200001 26:7.3200002 27:4.23 28:7.8899999 29:5.6300001 30:7.04 31:1.13 32:2.25 33:7.04 34:2.8199999 35:7.3200002 36:5.9200001 37:4.79 38:9.0100002 39:1.6900001 40:2.8199999 #
5 1:4 2:0 3:12 4:0 5:0 6:4 7:0 8:12 9:8 10:4 11:4 12:4 13:16 14:8 15:0 16:8 17:8 18:4 19:0 20:4 21:6.0300002 22:0.46000001 23:6.2600002 24:4.6399999 25:4.6399999 26:7.6599998 27:2.3199999 28:6.73 29:7.1900001 30:9.2799997 31:3.48 32:5.8000002 33:3.9400001 34:2.55 35:5.0999999 36:7.4200001 37:6.2600002 38:5.3400002 39:1.16 40:3.71 #
1.2217946772313386105679455795325 1:0 2:0 3:0 4:4 5:16 6:0 7:0 8:4 9:20 10:0 11:4 12:0 13:16 14:8 15:4 16:8 17:4 18:12 19:0 20:0 21:4.9099998 22:2.1500001 23:4.5999999 24:9.8199997 25:6.4400001 26:3.6800001 27:1.84 28:6.4400001 29:11.66 30:11.96 31:2.76 32:7.0599999 33:1.23 34:2.45 35:4.29 36:5.52 37:3.99 38:3.6800001 39:1.23 40:4.29 #
5 1:4 2:0 3:16 4:0 5:4 6:4 7:12 8:0 9:4 10:0 11:4 12:8 13:8 14:4 15:0 16:12 17:16 18:4 19:0 20:0 21:3.8299999 22:0.25999999 23:5.3600001 24:4.5900002 25:4.8499999 26:4.8499999 27:2.55 28:6.8899999 29:7.9099998 30:11.99 31:2.04 32:4.8499999 33:8.4200001 34:2.8099999 35:5.0999999 36:8.9300003 37:7.1399999 38:3.8299999 39:1.53 40:2.3 #
-5.1958468834140507652818996575661 1:8 2:0 3:8 4:8 5:0 6:0 7:12 8:4 9:4 10:8 11:4 12:4 13:20 14:0 15:0 16:8 17:0 18:12 19:0 20:0 21:3.97 22:1.08 23:3.25 24:2.53 25:3.97 26:6.8600001 27:2.53 28:8.6599998 29:6.8600001 30:13.72 31:2.1700001 32:4.3299999 33:6.1399999 34:2.1700001 35:6.1399999 36:9.0299997 37:4.3299999 38:6.8600001 39:2.53 40:2.8900001 #
-0.20440390042175854423689429495425 1:16 2:0 3:16 4:8 5:0 6:8 7:0 8:4 9:8 10:8 11:20 12:0 13:4 14:0 15:0 16:8 17:0 18:0 19:0 20:0 21:4.4099998 22:5.8800001 23:5.8800001 24:7.3499999 25:5.8800001 26:1.47 27:1.47 28:0 29:5.8800001 30:10.29 31:5.8800001 32:4.4099998 33:1.47 34:8.8199997 35:10.29 36:5.8800001 37:5.8800001 38:7.3499999 39:0 40:1.47 #
-1.8188222070414159503570772358216 1:0 2:4 3:0 4:0 5:4 6:0 7:8 8:8 9:4 10:4 11:4 12:4 13:8 14:4 15:8 16:12 17:8 18:12 19:0 20:8 21:3.45 22:1.27 23:5.6399999 24:6.3600001 25:5.0900002 26:5.0900002 27:2.3599999 28:7.6399999 29:8.5500002 30:9.6400003 31:1.45 32:6 33:4.73 34:4.5500002 35:4.73 36:8.1800003 37:3.8199999 38:5.27 39:2 40:4.1799998 #
5 1:20 2:0 3:0 4:4 5:8 6:4 7:0 8:0 9:4 10:4 11:4 12:4 13:4 14:0 15:16 16:16 17:4 18:4 19:4 20:0 21:11.26 22:1.15 23:4.5999999 24:5.0599999 25:3.45 26:11.72 27:1.61 28:5.0599999 29:5.98 30:9.6599998 31:1.38 32:3.9100001 33:5.98 34:2.53 35:5.0599999 36:6.9000001 37:4.8299999 38:7.1300001 39:0.92000002 40:1.84 #
5 1:24 2:0 3:0 4:0 5:0 6:4 7:4 8:0 9:4 10:12 11:4 12:0 13:4 14:8 15:8 16:4 17:4 18:8 19:8 20:4 21:7.2800002 22:2.6500001 23:4.6399999 24:1.3200001 25:3.97 26:9.9300003 27:1.99 28:3.3099999 29:3.97 30:15.89 31:1.99 32:3.3099999 33:4.6399999 34:5.96 35:5.3000002 36:3.3099999 37:3.3099999 38:9.2700005 39:3.3099999 40:4.6399999 #
-1.2030168419907703025728551438078 1:8 2:0 3:0 4:0 5:4 6:8 7:0 8:4 9:0 10:20 11:4 12:4 13:8 14:0 15:8 16:16 17:4 18:4 19:8 20:0 21:7.7399998 22:0.88 23:4.6500001 24:5.75 25:5.9699998 26:9.29 27:3.0999999 28:3.98 29:5.0900002 30:13.27 31:1.33 32:2.8800001 33:3.98 34:5.5300002 35:6.4200001 36:5.75 37:5.3099999 38:5.3099999 39:0.88 40:2.8800001 #
-3.1298383773137170571487786219222 1:16 2:4 3:0 4:0 5:0 6:12 7:0 8:4 9:0 10:12 11:4 12:0 13:4 14:4 15:16 16:12 17:8 18:4 19:0 20:0 21:7.77 22:1.73 23:5.1799998 24:6.04 25:4.3200002 26:7.5999999 27:2.76 28:6.3899999 29:5.6999998 30:10.19 31:2.4200001 32:3.97 33:5.5300002 34:3.97 35:5.1799998 36:4.8400002 37:4.8400002 38:7.0799999 39:0.51999998 40:3.97 #
-3.2913229164716062413731378910597 1:24 2:0 3:0 4:0 5:4 6:20 7:0 8:0 9:0 10:20 11:4 12:0 13:8 14:0 15:16 16:4 17:0 18:0 19:0 20:0 21:5.5999999 22:0.97000003 23:5.5999999 24:5.3499999 25:4.6199999 26:5.8400002 27:2.6800001 28:5.1100001 29:4.8699999 30:9.25 31:2.9200001 32:4.8699999 33:6.0799999 34:3.8900001 35:6.5700002 36:9 37:3.8900001 38:6.8099999 39:0.73000002 40:5.3499999 #
5 1:8 2:0 3:0 4:0 5:0 6:4 7:8 8:16 9:8 10:8 11:4 12:0 13:20 14:0 15:8 16:8 17:4 18:0 19:0 20:4 21:6.5300002 22:0.47 23:5.3600001 24:8.6199999 25:3.03 26:2.3299999 27:1.17 28:5.5900002 29:10.49 30:12.35 31:2.3299999 32:5.3600001 33:4.6599998 34:3.73 35:5.8299999 36:7.6900001 37:3.96 38:6.29 39:0.69999999 40:3.5 #
0.31818082998189822774293133988976 1:0 2:4 3:4 4:0 5:4 6:8 7:8 8:8 9:0 10:12 11:8 12:4 13:4 14:4 15:4 16:0 17:0 18:24 19:4 20:0 21:3.03 22:0 23:6.0599999 24:12.12 25:6.0599999 26:0 27:0 28:0 29:12.12 30:12.12 31:3.03 32:3.03 33:3.03 34:3.03 35:12.12 36:9.0900002 37:6.0599999 38:3.03 39:3.03 40:3.03 #
-6.5324821624949045428820681991056 1:4 2:4 3:8 4:4 5:8 6:4 7:4 8:8 9:0 10:16 11:4 12:0 13:8 14:4 15:0 16:8 17:4 18:8 19:4 20:0 21:8.3599997 22:1.74 23:4.8800001 24:7.6700001 25:4.1799998 26:3.48 27:2.0899999 28:3.8299999 29:6.9699998 30:12.54 31:2.0899999 32:3.8299999 33:5.5700002 34:3.8299999 35:4.5300002 36:6.6199999 37:6.6199999 38:6.27 39:1.39 40:3.48 #
-3.5916596283563091418500334839337 1:4 2:0 3:4 4:0 5:4 6:0 7:0 8:8 9:12 10:8 11:4 12:0 13:8 14:12 15:12 16:4 17:0 18:20 19:0 20:0 21:7.6300001 22:1.27 23:6.3600001 24:8.8999996 25:1.6900001 26:5.5100002 27:0.41999999 28:10.17 29:11.86 30:9.75 31:2.1199999 32:5.9299998 33:4.6599998 34:2.54 35:2.54 36:5.5100002 37:5.0799999 38:7.1999998 39:0.41999999 40:0.41999999 #
-3.4454353301300990608524443814531 1:8 2:8 3:4 4:8 5:0 6:4 7:0 8:0 9:12 10:8 11:4 12:4 13:24 14:4 15:0 16:8 17:0 18:4 19:0 20:0 21:10.53 22:10.53 23:2.6300001 24:15.79 25:2.6300001 26:7.8899999 27:7.8899999 28:10.53 29:13.16 30:5.2600002 31:2.6300001 32:0 33:2.6300001 34:0 35:5.2600002 36:0 37:2.6300001 38:0 39:0 40:0 #
5 1:8 2:0 3:0 4:0 5:0 6:8 7:0 8:0 9:0 10:12 11:8 12:0 13:4 14:8 15:20 16:20 17:8 18:4 19:0 20:0 21:9.9799995 22:1.11 23:3.96 24:6.6599998 25:4.75 26:9.8299999 27:1.4299999 28:5.5500002 29:6.3400002 30:9.6700001 31:2.8499999 32:3.49 33:3.49 34:4.75 35:4.75 36:7.29 37:4.4400001 38:7.29 39:0.47999999 40:1.9 #
-7.2239621167693641723417385946959 1:16 2:4 3:0 4:0 5:4 6:0 7:0 8:0 9:0 10:16 11:4 12:4 13:8 14:4 15:24 16:8 17:4 18:4 19:0 20:0 21:8.8800001 22:0.91000003 23:4.8899999 24:7.0700002 25:2.72 26:7.79 27:1.8099999 28:3.6199999 29:3.99 30:10.33 31:2.72 32:4.1700001 33:5.0700002 34:3.4400001 35:6.3400002 36:8.8800001 37:7.4299998 38:6.3400002 39:0.72000003 40:2.9000001 #
5 1:4 2:4 3:0 4:0 5:8 6:4 7:4 8:12 9:4 10:12 11:4 12:0 13:4 14:0 15:4 16:12 17:12 18:4 19:4 20:4 21:4.2399998 22:1.21 23:7.27 24:3.6400001 25:4.2399998 26:8.4799995 27:3.03 28:6.6700001 29:5.4499998 30:7.27 31:3.6400001 32:7.8800001 33:4.8499999 34:1.21 35:4.2399998 36:4.8499999 37:6.6700001 38:9.0900002 39:2.4200001 40:3.6400001 #
1.5899063098614172329092752988799 1:12 2:0 3:0 4:12 5:0 6:8 7:0 8:4 9:4 10:12 11:8 12:0 13:4 14:4 15:0 16:0 17:4 18:20 19:4 20:4 21:5.7399998 22:1.64 23:18.030001 24:27.049999 25:3.28 26:3.28 27:5.7399998 28:0.81999999 29:6.5599999 30:6.5599999 31:0 32:2.46 33:1.64 34:5.7399998 35:2.46 36:0 37:3.28 38:3.28 39:0 40:2.46 #
5 1:4 2:0 3:0 4:8 5:12 6:0 7:0 8:0 9:16 10:20 11:4 12:0 13:0 14:12 15:4 16:4 17:8 18:4 19:0 20:4 21:4.1700001 22:3.47 23:5.21 24:5.9000001 25:5.9000001 26:3.8199999 27:2.4300001 28:7.29 29:7.6399999 30:14.58 31:2.4300001 32:4.5100002 33:2.0799999 34:3.1199999 35:3.8199999 36:10.07 37:5.21 38:4.8600001 39:0 40:3.47 #
-4.1695933251186998447224141273182 1:4 2:0 3:0 4:4 5:16 6:8 7:4 8:0 9:8 10:12 11:4 12:0 13:0 14:4 15:4 16:12 17:8 18:4 19:0 20:8 21:3.4300001 22:1.71 23:3.8499999 24:6.8499999 25:5.5700002 26:4.71 27:2.78 28:6.6399999 29:6.8499999 30:10.28 31:1.5 32:5.1399999 33:5.3499999 34:4.71 35:4.71 36:8.7799997 37:7.0700002 38:4.5 39:1.71 40:3.8499999 #
-7.3104793303294401951575309794862 1:4 2:4 3:0 4:0 5:16 6:8 7:4 8:0 9:4 10:12 11:4 12:0 13:0 14:0 15:0 16:8 17:16 18:8 19:0 20:12 21:9.5600004 22:1.47 23:1.47 24:3.6800001 25:5.8800001 26:6.6199999 27:1.47 28:5.1500001 29:9.5600004 30:15.44 31:1.47 32:3.6800001 33:5.1500001 34:3.6800001 35:2.21 36:8.8199997 37:4.4099998 38:6.6199999 39:1.47 40:2.21 #
-3.6531016368205699862414803646971 1:0 2:0 3:8 4:8 5:4 6:4 7:0 8:8 9:0 10:4 11:8 12:8 13:8 14:0 15:0 16:28 17:8 18:4 19:0 20:0 21:3.49 22:1.3099999 23:5.23 24:3.49 25:6.0999999 26:7.4099998 27:4.1399999 28:5.0100002 29:6.9699998 30:12.64 31:1.74 32:5.6599998 33:4.1399999 34:4.3600001 35:3.7 36:8.71 37:7.1900001 38:4.5799999 39:1.53 40:2.6099999 #
5 1:12 2:4 3:0 4:0 5:0 6:4 7:0 8:4 9:0 10:12 11:4 12:0 13:20 14:0 15:20 16:8 17:4 18:4 19:0 20:4 21:7 22:1.54 23:5.04 24:11.34 25:2.8 26:4.3400002 27:1.6799999 28:4.1999998 29:9.3800001 30:12.46 31:1.8200001 32:2.3800001 33:4.9000001 34:5.04 35:5.5999999 36:6.3000002 37:4.7600002 38:7.5599999 39:0.83999997 40:0.98000002 #
-4.8158609230438171877608510840219 1:20 2:0 3:0 4:0 5:0 6:16 7:0 8:0 9:0 10:12 11:4 12:0 13:12 14:0 15:16 16:4 17:8 18:0 19:8 20:0 21:6.3800001 22:1.72 23:5.1700001 24:7.0900002 25:3.24 26:5.8800001 27:2.3299999 28:5.4699998 29:7.1900001 30:9.4200001 31:2.3299999 32:3.4400001 33:6.0799999 34:3.55 35:4.3600001 36:7.8000002 37:5.27 38:7.4000001 39:2.23 40:3.6500001 #
-2.2604664641806642144672423455631 1:16 2:0 3:0 4:0 5:0 6:8 7:0 8:0 9:4 10:16 11:4 12:0 13:20 14:0 15:16 16:4 17:4 18:4 19:0 20:4 21:11.63 22:0.77999997 23:4.6500001 24:18.99 25:0.38999999 26:5.4299998 27:0.77999997 28:1.16 29:3.8800001 30:4.2600002 31:0.77999997 32:1.16 33:7.3600001 34:5.4299998 35:2.3299999 36:12.02 37:8.9099998 38:8.1400003 39:0 40:1.9400001 #
5 1:4 2:0 3:0 4:0 5:8 6:0 7:8 8:4 9:0 10:12 11:4 12:4 13:8 14:8 15:0 16:16 17:12 18:12 19:0 20:0 21:6.5500002 22:0.67000002 23:4.9499998 24:7.2199998 25:4.9499998 26:6.8200002 27:2.4100001 28:6.1500001 29:7.6199999 30:10.03 31:2.6700001 32:4.1399999 33:4.5500002 34:3.6099999 35:5.6100001 36:7.4899998 37:6.02 38:5.8800001 39:0.67000002 40:2.01 #
5 1:4 2:0 3:0 4:4 5:8 6:4 7:0 8:4 9:8 10:12 11:4 12:0 13:4 14:0 15:8 16:24 17:4 18:12 19:0 20:0 21:11.06 22:1.4400001 23:4.8099999 24:6.73 25:2.8800001 26:5.77 27:5.77 28:6.73 29:5.29 30:8.6499996 31:1.4400001 32:3.8499999 33:4.3299999 34:4.8099999 35:5.29 36:4.3299999 37:7.21 38:4.8099999 39:1.4400001 40:3.3699999 #
5 1:8 2:0 3:8 4:0 5:0 6:0 7:4 8:12 9:8 10:8 11:4 12:0 13:4 14:4 15:8 16:16 17:0 18:12 19:0 20:4 21:3.02 22:1.01 23:3.77 24:5.7800002 25:4.77 26:4.52 27:0.75 28:6.7800002 29:9.5500002 30:14.07 31:1.51 32:6.5300002 33:4.52 34:3.52 35:4.02 36:7.29 37:7.04 38:4.77 39:2.26 40:4.52 #
-1.3800292019223716621922903868835 1:4 2:0 3:0 4:0 5:0 6:4 7:0 8:8 9:4 10:8 11:4 12:12 13:4 14:4 15:0 16:16 17:8 18:20 19:4 20:0 21:9.3400002 22:2.4200001 23:4.5 24:5.54 25:4.1500001 26:6.75 27:1.73 28:4.3299999 29:7.0900002 30:9.6899996 31:1.38 32:4.8400002 33:4.8400002 34:3.8099999 35:5.02 36:7.96 37:5.8800001 38:7.27 39:0.87 40:2.5999999 #
-2.6440115762620446382413774699671 1:0 2:0 3:4 4:12 5:0 6:4 7:0 8:4 9:8 10:16 11:4 12:0 13:8 14:4 15:0 16:16 17:0 18:20 19:0 20:0 21:6.1199999 22:5.4400001 23:6.1199999 24:8.8400002 25:5.4400001 26:4.7600002 27:3.4000001 28:1.36 29:8.1599998 30:8.8400002 31:1.36 32:2.72 33:7.48 34:4.7600002 35:9.5200005 36:2.72 37:3.4000001 38:4.0799999 39:2.72 40:2.72 #
-5.9436477342493923003985401010141 1:4 2:0 3:0 4:0 5:4 6:4 7:0 8:4 9:8 10:12 11:8 12:4 13:0 14:8 15:8 16:24 17:4 18:4 19:4 20:0 21:8.6000004 22:0.37 23:5.98 24:5.4200001 25:4.3000002 26:5.98 27:1.3099999 28:4.6700001 29:9.1599998 30:10.47 31:1.5 32:3.9300001 33:3.9300001 34:3.1800001 35:4.3000002 36:6.9200001 37:5.79 38:8.04 39:1.12 40:5.0500002 #
2.9503209341782934416187345050275 1:4 2:0 3:12 4:4 5:8 6:28 7:4 8:0 9:0 10:4 11:4 12:0 13:8 14:4 15:16 16:0 17:0 18:0 19:0 20:4 21:4.5799999 22:1.27 23:2.04 24:5.3400002 25:4.5799999 26:8.9099998 27:3.8199999 28:8.6499996 29:3.3099999 30:10.69 31:1.53 32:3.5599999 33:6.1100001 34:4.5799999 35:3.8199999 36:7.8899999 37:7.3800001 38:6.8699999 39:1.02 40:4.0700002 #
-1.8890957193060291530173344654031 1:20 2:4 3:0 4:0 5:0 6:24 7:0 8:0 9:0 10:16 11:4 12:0 13:8 14:0 15:20 16:0 17:0 18:4 19:0 20:0 21:6.98 22:1.89 23:5.8099999 24:7.27 25:4.9400001 26:5.8099999 27:2.9100001 28:3.6300001 29:5.0900002 30:11.92 31:3.6300001 32:3.2 33:5.3800001 34:3.49 35:6.6900001 36:6.98 37:4.0700002 38:5.96 39:0.73000002 40:3.6300001 #
-0.25792932035780280486392257444095 1:12 2:4 3:0 4:4 5:4 6:8 7:8 8:8 9:0 10:16 11:4 12:0 13:4 14:4 15:20 16:0 17:0 18:4 19:0 20:0 21:5.4099998 22:2.25 23:5.8600001 24:5.8600001 25:7.21 26:6.7600002 27:1.35 28:4.0500002 29:6.7600002 30:11.26 31:2.7 32:2.25 33:5.4099998 34:5.4099998 35:3.5999999 36:11.71 37:4.0500002 38:4.5 39:0.89999998 40:2.7 #
5 1:4 2:0 3:0 4:0 5:4 6:4 7:0 8:0 9:12 10:16 11:4 12:4 13:8 14:0 15:8 16:20 17:4 18:0 19:4 20:8 21:2.9100001 22:0.49000001 23:4.8499999 24:3.72 25:4.6900001 26:2.0999999 27:2.75 28:6.96 29:7.4400001 30:12.78 31:1.29 32:7.2800002 33:6.1500001 34:6.6300001 35:2.4300001 36:12.46 37:7.4400001 38:3.5599999 39:1.29 40:2.75 #
5 1:4 2:4 3:4 4:0 5:4 6:4 7:0 8:12 9:8 10:12 11:4 12:0 13:8 14:4 15:4 16:16 17:4 18:4 19:0 20:4 21:11.76 22:0 23:5.8800001 24:11.76 25:1.96 26:1.96 27:2.9400001 28:7.8400002 29:6.8600001 30:12.75 31:0.98000002 32:4.9000001 33:5.8800001 34:3.9200001 35:5.8800001 36:1.96 37:2.9400001 38:3.9200001 39:0.98000002 40:4.9000001 #
5 1:12 2:0 3:0 4:0 5:4 6:0 7:0 8:0 9:8 10:8 11:4 12:4 13:4 14:4 15:8 16:12 17:20 18:12 19:0 20:0 21:8.1000004 22:0.23 23:5.0900002 24:5.79 25:4.4000001 26:6.02 27:2.0799999 28:4.8600001 29:6.71 30:11.81 31:1.16 32:8.1000004 33:2.78 34:4.1700001 35:3.01 36:10.19 37:5.0900002 38:6.9400001 39:1.62 40:1.85 #
-10 1:16 2:0 3:0 4:0 5:4 6:0 7:0 8:4 9:4 10:12 11:4 12:4 13:0 14:0 15:12 16:24 17:12 18:4 19:0 20:0 21:8.6099997 22:0.47999999 23:4.3099999 24:6.6999998 25:3.8299999 26:7.1799998 27:2.8699999 28:7.1799998 29:9.0900002 30:7.6599998 31:0 32:7.6599998 33:3.3499999 34:5.2600002 35:1.4400001 36:5.7399998 37:5.2600002 38:5.7399998 39:2.8699999 40:4.7800002 #
-6.0727525078051156626202100596856 1:16 2:0 3:0 4:0 5:8 6:0 7:0 8:4 9:8 10:0 11:8 12:0 13:0 14:4 15:8 16:28 17:8 18:8 19:0 20:0 21:9 22:0.34999999 23:5.54 24:6.9200001 25:5.1900001 26:6.9200001 27:2.77 28:5.1900001 29:10.03 30:9 31:2.4200001 32:3.46 33:3.8099999 34:2.0799999 35:2.4200001 36:5.8800001 37:7.6100001 38:9 39:0.34999999 40:2.0799999 #
-0.86929723440185657779011307866313 1:4 2:4 3:0 4:0 5:4 6:0 7:0 8:12 9:12 10:16 11:4 12:0 13:8 14:0 15:8 16:20 17:4 18:4 19:0 20:0 21:5.0999999 22:0.88999999 23:4.21 24:5.3200002 25:3.55 26:5.9899998 27:2 28:8.8699999 29:7.54 30:11.09 31:1.55 32:8.1999998 33:5.0999999 34:4.4299998 35:2.8800001 36:7.7600002 37:5.0999999 38:5.54 39:0.67000002 40:4.21 #
5 1:0 2:0 3:0 4:0 5:12 6:16 7:4 8:4 9:0 10:20 11:4 12:0 13:16 14:0 15:16 16:0 17:0 18:8 19:0 20:0 21:9.4399996 22:2.1099999 23:2.6800001 24:5.77 25:3.9400001 26:9.1499996 27:2.3900001 28:2.8199999 29:2.96 30:13.38 31:2.3900001 32:2.1099999 33:4.23 34:4.79 35:7.04 36:7.1799998 37:5.77 38:8.8699999 39:1.27 40:1.6900001 #
-4.5960201595479270864075260760728 1:0 2:4 3:0 4:0 5:4 6:24 7:8 8:0 9:0 10:12 11:4 12:0 13:12 14:4 15:16 16:4 17:4 18:0 19:0 20:4 21:9.6199999 22:0 23:5.77 24:5.1300001 25:3.8499999 26:7.0500002 27:1.92 28:1.92 29:3.8499999 30:8.9700003 31:3.21 32:2.5599999 33:4.4899998 34:6.4099998 35:8.3299999 36:5.77 37:4.4899998 38:10.9 39:2.5599999 40:3.21 #
-1.3624771205475219026936883892631 1:12 2:0 3:0 4:12 5:4 6:4 7:0 8:4 9:4 10:0 11:12 12:0 13:8 14:8 15:4 16:8 17:8 18:8 19:0 20:4 21:5.1700001 22:6.9000001 23:3.45 24:6.9000001 25:3.45 26:6.9000001 27:0 28:1.72 29:10.34 30:8.6199999 31:3.45 32:8.6199999 33:3.45 34:5.1700001 35:3.45 36:5.1700001 37:1.72 38:10.34 39:1.72 40:3.45 #
4.7515500480093955104621272766963 1:16 2:4 3:0 4:0 5:8 6:0 7:4 8:0 9:4 10:16 11:4 12:0 13:8 14:0 15:12 16:8 17:8 18:8 19:0 20:0 21:9.6899996 22:0.62 23:1.88 24:2.8099999 25:3.1199999 26:11.25 27:0.94 28:6.5599999 29:4.6900001 30:10.94 31:5.9400001 32:2.5 33:5 34:2.1900001 35:4.3800001 36:6.8800001 37:6.25 38:8.1199999 39:1.88 40:4.3800001 #
5 1:16 2:0 3:4 4:0 5:0 6:4 7:0 8:8 9:12 10:12 11:4 12:4 13:0 14:0 15:4 16:20 17:4 18:4 19:4 20:0 21:4.6999998 22:0 23:8.0500002 24:8.7200003 25:3.3599999 26:2.01 27:1.34 28:4.6999998 29:12.75 30:8.7200003 31:2.01 32:4.0300002 33:3.3599999 34:6.04 35:4.0300002 36:8.7200003 37:6.04 38:8.0500002 39:0.67000002 40:2.6800001 #
5 1:4 2:4 3:0 4:0 5:8 6:0 7:0 8:4 9:4 10:20 11:4 12:0 13:4 14:4 15:16 16:16 17:8 18:0 19:0 20:4 21:4.6199999 22:2.3099999 23:7.6900001 24:6.9200001 25:0.76999998 26:10 27:3.0799999 28:4.6199999 29:6.9200001 30:8.46 31:1.54 32:3.8499999 33:7.6900001 34:3.0799999 35:3.0799999 36:4.6199999 37:7.6900001 38:8.46 39:1.54 40:3.0799999 #
5 1:16 2:0 3:0 4:0 5:8 6:0 7:0 8:4 9:4 10:12 11:4 12:0 13:0 14:0 15:16 16:16 17:16 18:4 19:0 20:0 21:8.4899998 22:0.27000001 23:3.1800001 24:3.1800001 25:4.5100002 26:4.77 27:2.3900001 28:7.6900001 29:6.0999999 30:10.08 31:2.6500001 32:5.8400002 33:5.3099999 34:6.3699999 35:4.2399998 36:9.2799997 37:6.6300001 38:5.04 39:2.1199999 40:1.86 #
-8.55231301428248436025114642689 1:8 2:0 3:0 4:0 5:12 6:0 7:0 8:4 9:12 10:16 11:4 12:0 13:4 14:0 15:8 16:12 17:4 18:12 19:0 20:4 21:4.3499999 22:1.12 23:6.3200002 24:5.7600002 25:4.3499999 26:4.9200001 27:2.25 28:6.7399998 29:9.1300001 30:10.81 31:2.6700001 32:5.48 33:4.4899998 34:2.95 35:4.4899998 36:7.8699999 37:5.1999998 38:6.04 39:1.12 40:3.9300001 #
-4.1952002765863829480963431706186 1:12 2:4 3:0 4:4 5:0 6:0 7:0 8:8 9:20 10:16 11:4 12:4 13:4 14:0 15:8 16:8 17:4 18:0 19:0 20:4 21:7.4200001 22:1.24 23:6.3600001 24:6.71 25:2.6500001 26:6.71 27:1.59 28:5.6500001 29:8.8299999 30:9.7200003 31:1.59 32:4.5900002 33:5.8299999 34:3.3599999 35:4.2399998 36:6.0100002 37:5.1199999 38:8.1300001 39:1.0599999 40:3.1800001 #
-3.8816761282520033660148328635842 1:12 2:0 3:0 4:0 5:0 6:4 7:0 8:4 9:4 10:16 11:4 12:4 13:0 14:4 15:12 16:24 17:4 18:4 19:0 20:4 21:6.8600001 22:1.37 23:5.6399999 24:7.4699998 25:3.96 26:5.9499998 27:1.6799999 28:5.3400002 29:7.1599998 30:8.2299995 31:3.51 32:3.51 33:4.27 34:4.27 35:7.4699998 36:7.3200002 37:5.3400002 38:6.4000001 39:0.15000001 40:4.1199999 #
3.8114577275309104997802478465019 1:0 2:8 3:0 4:0 5:4 6:20 7:4 8:4 9:0 10:4 11:4 12:0 13:16 14:0 15:12 16:4 17:0 18:4 19:16 20:0 21:9.1599998 22:1.59 23:3.1900001 24:7.5700002 25:5.5799999 26:6.3699999 27:1.59 28:4.7800002 29:4.7800002 30:6.3699999 31:1.59 32:3.98 33:7.9699998 34:4.3800001 35:7.9699998 36:4.3800001 37:5.98 38:6.77 39:1.59 40:4.3800001 #
5 1:0 2:4 3:4 4:0 5:4 6:16 7:0 8:0 9:0 10:16 11:4 12:0 13:8 14:12 15:16 16:4 17:4 18:8 19:0 20:0 21:11.08 22:1.5 23:4.1900001 24:6.5900002 25:2.4000001 26:5.9899998 27:1.5 28:4.4899998 29:6.29 30:14.07 31:2.0999999 32:2.0999999 33:3.8900001 34:4.79 35:8.0799999 36:8.0799999 37:4.4899998 38:5.3899999 39:0.89999998 40:2.0999999 #
-4.2650862878466497818408242892474 1:16 2:4 3:0 4:0 5:0 6:12 7:4 8:12 9:4 10:12 11:4 12:0 13:0 14:0 15:8 16:12 17:4 18:8 19:0 20:0 21:10.54 22:1.1900001 23:4.9699998 24:6.5599999 25:3.1800001 26:9.3400002 27:0.60000002 28:6.1599998 29:6.1599998 30:8.9499998 31:2.1900001 32:3.3800001 33:4.1700001 34:3.3800001 35:4.5700002 36:6.3600001 37:5.77 38:8.75 39:0.99000001 40:2.78 #
-3.3601495191092358716389298933791 1:4 2:0 3:0 4:4 5:0 6:16 7:4 8:4 9:0 10:4 11:4 12:0 13:20 14:12 15:8 16:4 17:4 18:0 19:12 20:0 21:16.67 22:0 23:0 24:4.1700001 25:0 26:10.42 27:2.0799999 28:0 29:0 30:10.42 31:0 32:0 33:4.1700001 34:4.1700001 35:4.1700001 36:10.42 37:2.0799999 38:2.0799999 39:29.17 40:0 #
-10 1:4 2:4 3:0 4:4 5:4 6:24 7:0 8:0 9:0 10:16 11:4 12:0 13:4 14:0 15:16 16:8 17:4 18:4 19:4 20:0 21:7.54 22:2.03 23:2.9000001 24:7.54 25:3.1900001 26:6.96 27:4.0599999 28:3.77 29:5.2199998 30:9.2799997 31:1.45 32:3.1900001 33:5.2199998 34:4.0599999 35:4.9299998 36:9.2799997 37:6.3800001 38:7.8299999 39:2.03 40:3.1900001 #
-6.1841576255524630667537167028058 1:8 2:0 3:4 4:8 5:4 6:20 7:4 8:12 9:4 10:0 11:8 12:4 13:0 14:4 15:0 16:8 17:0 18:12 19:0 20:0 21:6.5700002 22:1.79 23:4.3800001 24:7.5700002 25:3.1900001 26:7.3699999 27:2.3900001 28:6.77 29:7.3699999 30:7.9699998 31:2.1900001 32:3.5899999 33:4.98 34:2.99 35:5.3800001 36:4.3800001 37:6.1799998 38:7.5700002 39:2.3900001 40:4.98 #
5 1:16 2:0 3:0 4:4 5:4 6:4 7:0 8:8 9:8 10:8 11:4 12:4 13:0 14:0 15:12 16:20 17:0 18:4 19:0 20:4 21:11.85 22:0.74000001 23:1.48 24:9.6300001 25:4.4400001 26:5.9299998 27:1.48 28:3.7 29:5.9299998 30:11.11 31:0.74000001 32:5.1900001 33:4.4400001 34:5.9299998 35:1.48 36:11.11 37:3.7 38:10.37 39:0 40:0.74000001 #
5 1:20 2:0 3:0 4:0 5:4 6:0 7:0 8:0 9:8 10:8 11:4 12:0 13:0 14:4 15:12 16:24 17:8 18:8 19:0 20:0 21:10.11 22:0 23:4.4899998 24:6.1799998 25:4.4899998 26:5.6199999 27:2.8099999 28:5.6199999 29:6.1799998 30:7.8699999 31:2.8099999 32:2.25 33:8.9899998 34:3.9300001 35:0.56 36:9.5500002 37:7.8699999 38:8.9899998 39:0.56 40:1.12 #
-10 1:20 2:0 3:0 4:0 5:8 6:4 7:0 8:4 9:4 10:4 11:4 12:4 13:0 14:4 15:12 16:20 17:4 18:0 19:0 20:8 21:6.0599999 22:1.01 23:6.6700001 24:8.4799995 25:2.8299999 26:6.6700001 27:1.62 28:7.27 29:9.8999996 30:10.91 31:1.21 32:3.8399999 33:3.03 34:4.6500001 35:4.6500001 36:5.8600001 37:5.0500002 38:8.0799999 39:0.2 40:2.02 #
-6.7401671833450258475295413518324 1:32 2:0 3:0 4:0 5:0 6:4 7:0 8:8 9:0 10:4 11:4 12:0 13:0 14:4 15:8 16:24 17:4 18:8 19:0 20:0 21:16.33 22:0 23:0 24:4.0799999 25:6.1199999 26:4.0799999 27:4.0799999 28:2.04 29:8.1599998 30:8.1599998 31:2.04 32:6.1199999 33:6.1199999 34:0 35:8.1599998 36:14.29 37:6.1199999 38:0 39:0 40:4.0799999 #
-10 1:20 2:0 3:0 4:0 5:0 6:8 7:0 8:12 9:0 10:12 11:4 12:4 13:4 14:4 15:4 16:12 17:12 18:0 19:0 20:4 21:12.03 22:0 23:5.0599999 24:10.13 25:3.8 26:3.1600001 27:0.63 28:6.3299999 29:8.2299995 30:6.96 31:2.53 32:3.1600001 33:5.6999998 34:6.3299999 35:5.0599999 36:6.3299999 37:3.8 38:6.3299999 39:0 40:4.4299998 #
5 1:8 2:4 3:0 4:0 5:0 6:16 7:0 8:0 9:12 10:20 11:4 12:0 13:8 14:0 15:4 16:4 17:4 18:16 19:0 20:0 21:4.0900002 22:1.17 23:6.4200001 24:4.2800002 25:3.8900001 26:8.1700001 27:1.36 28:6.23 29:8.75 30:10.89 31:2.53 32:7.1999998 33:4.8600001 34:3.1099999 35:4.4699998 36:7.1999998 37:5.8400002 38:5.8400002 39:0.77999997 40:2.9200001 #
0.42826881790075788103422382846475 1:8 2:4 3:4 4:0 5:4 6:16 7:0 8:4 9:8 10:16 11:4 12:4 13:12 14:4 15:0 16:4 17:0 18:8 19:0 20:0 21:7.6100001 22:1.8099999 23:2.9000001 24:3.99 25:7.6100001 26:10.51 27:0.72000003 28:5.4299998 29:5.8000002 30:9.4200001 31:3.6199999 32:2.54 33:7.6100001 34:3.6199999 35:5.0700002 36:4.3499999 37:6.52 38:6.1599998 39:1.09 40:3.6199999 #
-5.4032388235515425023436364426743 1:16 2:0 3:0 4:0 5:4 6:0 7:4 8:4 9:4 10:16 11:8 12:4 13:0 14:8 15:12 16:12 17:4 18:4 19:0 20:0 21:8.4899998 22:0.82999998 23:5.9899998 24:7.6500001 25:4.3299999 26:7.8200002 27:1.66 28:6.8200002 29:4.3299999 30:8.9899998 31:3.3299999 32:4.3299999 33:4.6599998 34:3 35:6.8200002 36:5.4899998 37:4.1599998 38:7.1500001 39:1.16 40:3 #
4.6592800427827292253368796082214 1:20 2:0 3:0 4:4 5:0 6:0 7:0 8:12 9:8 10:4 11:4 12:4 13:4 14:0 15:8 16:24 17:0 18:4 19:0 20:4 21:11.17 22:0.28999999 23:2.8699999 24:7.7399998 25:5.1599998 26:6.5900002 27:1.15 28:4.3000002 29:6.3000002 30:10.03 31:0 32:5.4400001 33:4.8699999 34:3.1500001 35:1.72 36:11.75 37:6.8800001 38:8.0200005 39:0 40:2.5799999 #
-2.1057454731828881833166633441579 1:8 2:0 3:4 4:0 5:4 6:20 7:0 8:4 9:12 10:12 11:4 12:4 13:0 14:0 15:8 16:4 17:8 18:8 19:0 20:0 21:9.5900002 22:0.91000003 23:5.48 24:4.5700002 25:3.6500001 26:6.8499999 27:1.83 28:4.1100001 29:5.48 30:9.5900002 31:4.1100001 32:4.5700002 33:4.5700002 34:1.37 35:4.5700002 36:9.1300001 37:5.48 38:12.79 39:0.46000001 40:0.91000003 #
-3.4556749527027474933049688843312 1:12 2:16 3:4 4:4 5:0 6:4 7:0 8:4 9:4 10:4 11:8 12:0 13:24 14:0 15:4 16:0 17:0 18:8 19:0 20:4 21:6.6700001 22:2.5899999 23:5.5599999 24:4.4400001 25:6.3000002 26:11.85 27:1.11 28:4.0700002 29:8.1499996 30:8.1499996 31:0.37 32:5.5599999 33:1.48 34:2.5899999 35:2.22 36:8.5200005 37:10.37 38:5.1900001 39:1.48 40:3.3299999 #
-0.6176454687967486423261220807035 1:8 2:0 3:8 4:4 5:12 6:8 7:0 8:4 9:0 10:16 11:4 12:0 13:0 14:4 15:8 16:0 17:8 18:16 19:0 20:0 21:6.25 22:1.5599999 23:4.3000002 24:5.8600001 25:6.25 26:8.5900002 27:3.1199999 28:4.6900001 29:7.0300002 30:8.1999998 31:3.52 32:3.1199999 33:7.4200001 34:5.0799999 35:4.6900001 36:4.6900001 37:5.0799999 38:6.6399999 39:0.38999999 40:3.52 #
5 1:16 2:0 3:0 4:0 5:4 6:8 7:0 8:4 9:4 10:8 11:12 12:0 13:0 14:8 15:12 16:20 17:4 18:0 19:0 20:0 21:8.2200003 22:0.91000003 23:3.6500001 24:8.2200003 25:4.1100001 26:4.5700002 27:1.37 28:5.48 29:8.2200003 30:10.05 31:2.74 32:4.1100001 33:4.1100001 34:4.5700002 35:5.9400001 36:6.8499999 37:6.8499999 38:7.7600002 39:0 40:2.28 #
5 1:20 2:0 3:0 4:0 5:8 6:0 7:0 8:4 9:0 10:12 11:4 12:0 13:4 14:8 15:8 16:20 17:8 18:4 19:0 20:0 21:6.98 22:1.16 23:4.0700002 24:2.9100001 25:5.8099999 26:5.8099999 27:1.74 28:5.8099999 29:6.98 30:11.63 31:1.16 32:5.23 33:4.0700002 34:6.4000001 35:4.0700002 36:11.63 37:4.6500001 38:4.0700002 39:1.74 40:4.0700002 #
5 1:24 2:0 3:0 4:0 5:0 6:0 7:0 8:8 9:4 10:12 11:4 12:4 13:4 14:0 15:16 16:12 17:12 18:0 19:0 20:0 21:10.58 22:0.19 23:4.04 24:7.1199999 25:2.8800001 26:9.04 27:1.15 28:5.3800001 29:5.3800001 30:11.92 31:0.38 32:3.27 33:3.8499999 34:5 35:5.96 36:7.6900001 37:4.6199999 38:8.46 39:0.38 40:2.6900001 #
-3.8111136287383953202834163676016 1:12 2:0 3:0 4:0 5:0 6:0 7:0 8:0 9:0 10:16 11:4 12:0 13:0 14:4 15:20 16:20 17:16 18:8 19:0 20:0 21:8.0699997 22:1.4 23:5.4299998 24:6.52 25:3.4200001 26:6.6799998 27:2.6400001 28:5.75 29:5.5900002 30:9.4700003 31:1.71 32:4.3499999 33:6.0599999 34:3.8800001 35:6.21 36:5.5900002 37:6.3699999 38:6.9899998 39:0.77999997 40:3.1099999 #
5 1:8 2:0 3:0 4:4 5:4 6:16 7:8 8:4 9:8 10:8 11:4 12:0 13:4 14:0 15:0 16:8 17:0 18:20 19:0 20:4 21:5.1300001 22:0 23:5.1300001 24:10.26 25:5.1300001 26:10.26 27:5.1300001 28:2.5599999 29:7.6900001 30:7.6900001 31:5.1300001 32:2.5599999 33:0 34:5.1300001 35:5.1300001 36:5.1300001 37:2.5599999 38:7.6900001 39:5.1300001 40:2.5599999 #
-8.3789503745168474324600538238883 1:20 2:0 3:0 4:4 5:4 6:4 7:8 8:4 9:8 10:8 11:8 12:0 13:0 14:0 15:16 16:12 17:0 18:0 19:4 20:0 21:8.0600004 22:0.89999998 23:5.6700001 24:5.6700001 25:2.6900001 26:4.7800002 27:2.99 28:5.3699999 29:8.96 30:10.75 31:1.79 32:1.49 33:4.48 34:5.9699998 35:3.8800001 36:7.46 37:5.3699999 38:10.15 39:0.89999998 40:2.6900001 #
-2.6143279089316919794327986892313 1:16 2:4 3:4 4:0 5:4 6:0 7:0 8:0 9:4 10:12 11:4 12:0 13:0 14:8 15:12 16:16 17:0 18:8 19:8 20:0 21:9.5799999 22:0.69999999 23:4.21 24:7.0100002 25:4.4400001 26:10.05 27:2.8 28:3.97 29:4.21 30:11.45 31:1.87 32:2.0999999 33:7.71 34:3.27 35:6.0700002 36:5.3699999 37:3.97 38:7.0100002 39:1.4 40:2.8 #
-3.8989987807447570311580875568325 1:4 2:8 3:0 4:0 5:8 6:4 7:4 8:0 9:8 10:12 11:4 12:0 13:12 14:0 15:12 16:16 17:0 18:8 19:0 20:0 21:5.3099999 22:1.55 23:4.1999998 24:8.4099998 25:6.8600001 26:7.0799999 27:3.54 28:5.5300002 29:5.3099999 30:10.4 31:1.77 32:3.76 33:4.6500001 34:4.4200001 35:5.75 36:7.0799999 37:3.76 38:7.3000002 39:0.66000003 40:2.6500001 #
-2.2631230789247389623142225900665 1:8 2:0 3:8 4:0 5:0 6:12 7:4 8:8 9:12 10:12 11:4 12:0 13:0 14:0 15:0 16:16 17:0 18:12 19:4 20:0 21:3.97 22:1.66 23:5.96 24:6.9499998 25:4.3000002 26:3.6400001 27:0.99000001 28:4.9699998 29:8.6099997 30:13.58 31:1.66 32:7.6199999 33:1.99 34:5.6300001 35:3.97 36:8.9399996 37:3.97 38:5.96 39:0.99000001 40:4.6399999 #
5 1:8 2:0 3:0 4:0 5:0 6:8 7:0 8:8 9:4 10:12 11:8 12:4 13:0 14:0 15:16 16:8 17:20 18:4 19:0 20:0 21:4.27 22:1.9400001 23:5.8299999 24:9.5100002 25:3.5 26:3.6900001 27:1.17 28:5.8299999 29:10.1 30:13.01 31:0.38999999 32:9.71 33:2.52 34:3.3 35:3.6900001 36:9.8999996 37:4.8499999 38:4.27 39:0.97000003 40:1.55 #
5 1:4 2:4 3:8 4:0 5:8 6:0 7:0 8:4 9:0 10:20 11:8 12:4 13:8 14:4 15:4 16:0 17:12 18:4 19:0 20:8 21:6.1900001 22:1.33 23:5.3099999 24:7.0799999 25:4.4200001 26:5.3099999 27:2.21 28:11.06 29:3.54 30:10.62 31:2.6500001 32:3.0999999 33:4.8699999 34:3.54 35:1.77 36:5.75 37:5.75 38:7.96 39:2.21 40:5.3099999 #
5 1:4 2:4 3:0 4:0 5:0 6:20 7:0 8:4 9:0 10:32 11:4 12:4 13:0 14:0 15:4 16:8 17:8 18:4 19:0 20:4 21:6.9099998 22:1.64 23:5.5900002 24:6.25 25:6.25 26:3.95 27:2.3 28:5.5900002 29:8.5500002 30:6.25 31:0.66000003 32:6.25 33:9.54 34:4.2800002 35:5.2600002 36:5.9200001 37:4.2800002 38:5.9200001 39:0.66000003 40:3.95 #
-2.6120377015500464423780613287818 1:4 2:0 3:0 4:0 5:12 6:0 7:0 8:0 9:4 10:20 11:4 12:4 13:8 14:8 15:16 16:4 17:16 18:0 19:0 20:0 21:2.5 22:2.5 23:8.75 24:6.25 25:4.3800001 26:5.6199999 27:1.25 28:10 29:8.75 30:10 31:0 32:8.1199999 33:3.75 34:0.62 35:3.75 36:11.88 37:5.6199999 38:3.1199999 39:0 40:3.1199999 #
-6.3041982581301398980144767847378 1:8 2:0 3:0 4:0 5:0 6:0 7:0 8:4 9:8 10:16 11:4 12:0 13:8 14:16 15:16 16:4 17:12 18:0 19:0 20:4 21:7.25 22:0.88999999 23:7.8899999 24:8.3999996 25:2.54 26:5.3400002 27:1.4 28:7.5100002 29:8.7799997 30:11.2 31:1.91 32:3.8199999 33:3.4400001 34:2.9300001 35:7.1199999 36:5.73 37:5.0900002 38:6.7399998 39:0.25 40:1.78 #
5 1:16 2:0 3:0 4:0 5:8 6:12 7:0 8:8 9:4 10:8 11:4 12:0 13:0 14:0 15:16 16:16 17:0 18:8 19:0 20:0 21:7.5799999 22:1.46 23:5.25 24:7.5799999 25:5.54 26:7 27:1.75 28:4.3699999 29:6.71 30:8.75 31:1.75 32:4.0799999 33:5.25 34:4.3699999 35:5.54 36:7.8699999 37:4.6599998 38:6.1199999 39:1.17 40:3.21 #
0.093734125555657077377702535159187 1:16 2:0 3:0 4:8 5:0 6:12 7:0 8:4 9:4 10:8 11:4 12:0 13:4 14:4 15:8 16:16 17:0 18:12 19:0 20:0 21:5.8400002 22:1.09 23:1.8200001 24:5.1100001 25:6.5700002 26:9.4899998 27:0.73000002 28:6.9299998 29:6.9299998 30:10.22 31:2.9200001 32:4.0100002 33:5.8400002 34:4.3800001 35:4.0100002 36:4.0100002 37:5.4699998 38:8.0299997 39:1.46 40:5.1100001 #
-10 1:20 2:4 3:0 4:0 5:0 6:8 7:0 8:8 9:8 10:12 11:4 12:4 13:4 14:0 15:8 16:12 17:4 18:0 19:0 20:4 21:7.1399999 22:0.31 23:5.1199999 24:6.8299999 25:3.1099999 26:8.2299995 27:2.1700001 28:5.4299998 29:8.2299995 30:7.3000002 31:4.04 32:3.73 33:4.3499999 34:5.9000001 35:5.75 36:5.2800002 37:6.21 38:5.5900002 39:1.86 40:3.4200001 #
-1.7047040087384306428219815643388 1:12 2:8 3:0 4:4 5:0 6:8 7:0 8:0 9:0 10:20 11:4 12:0 13:4 14:4 15:12 16:8 17:8 18:4 19:0 20:4 21:6.8899999 22:3.5599999 23:5.1100001 24:5.5599999 25:4 26:6.8899999 27:2.4400001 28:4 29:5.3299999 30:12.22 31:2.4400001 32:2.4400001 33:6 34:5.5599999 35:6.2199998 36:5.1100001 37:5.7800002 38:6 39:0.88999999 40:3.5599999 #
5 1:0 2:8 3:0 4:0 5:0 6:4 7:8 8:4 9:12 10:16 11:4 12:8 13:4 14:4 15:8 16:4 17:12 18:4 19:0 20:0 21:5.6700001 22:1.83 23:5.48 24:5.6700001 25:2.5599999 26:4.75 27:1.1 28:7.5 29:8.5900002 30:10.97 31:1.83 32:8.04 33:4.1999998 34:2.01 35:4.3899999 36:8.4099998 37:5.6700001 38:6.2199998 39:0.37 40:4.75 #
5 1:4 2:0 3:4 4:0 5:0 6:0 7:4 8:4 9:8 10:24 11:4 12:0 13:4 14:16 15:12 16:4 17:4 18:8 19:0 20:0 21:5.6300001 22:0.68000001 23:4.73 24:11.04 25:5.1799998 26:6.3099999 27:1.8 28:4.73 29:10.36 30:5.4099998 31:2.03 32:1.58 33:3.8299999 34:5.8600001 35:5.8600001 36:9.0100002 37:6.3099999 38:6.0799999 39:1.35 40:2.25 #
-9.1703045261048856673369300551713 1:0 2:0 3:0 4:0 5:4 6:4 7:4 8:0 9:8 10:16 11:12 12:4 13:4 14:0 15:12 16:4 17:12 18:8 19:0 20:8 21:2.9300001 22:1.35 23:7.21 24:7.6599998 25:4.0500002 26:4.0500002 27:2.9300001 28:7.8800001 29:8.5600004 30:8.7799997 31:2.25 32:5.8600001 33:4.2800002 34:2.7 35:5.6300001 36:6.98 37:5.6300001 38:6.0799999 39:2.25 40:2.9300001 #
-1.7134578236059998523899139399873 1:4 2:0 3:4 4:0 5:8 6:4 7:4 8:0 9:12 10:12 11:4 12:4 13:0 14:12 15:12 16:0 17:8 18:12 19:0 20:0 21:6.3299999 22:1.27 23:5.0599999 24:10.13 25:1.27 26:2.53 27:2.53 28:7.5900002 29:11.39 30:11.39 31:1.27 32:6.3299999 33:3.8 34:3.8 35:5.0599999 36:6.3299999 37:6.3299999 38:6.3299999 39:0 40:1.27 #
-0.83530156208173833576324796013068 1:16 2:0 3:0 4:0 5:8 6:4 7:0 8:8 9:0 10:4 11:8 12:4 13:8 14:4 15:16 16:8 17:8 18:4 19:0 20:0 21:6.8600001 22:0.56999999 23:6.29 24:8.29 25:4.29 26:5.71 27:3.1400001 28:7.4299998 29:5.4299998 30:6 31:2 32:4.5700002 33:4.5700002 34:2.8599999 35:7.4299998 36:5.1399999 37:6.29 38:7.71 39:0.86000001 40:4.5700002 #
5 1:28 2:0 3:0 4:0 5:4 6:8 7:8 8:4 9:4 10:16 11:4 12:4 13:0 14:0 15:12 16:4 17:0 18:0 19:4 20:0 21:7.5900002 22:2.23 23:4.02 24:7.5900002 25:3.1199999 26:8.04 27:1.79 28:6.25 29:7.1399999 30:7.5900002 31:2.23 32:5.3600001 33:9.3800001 34:3.5699999 35:3.5699999 36:2.6800001 37:6.6999998 38:7.1399999 39:0.44999999 40:3.5699999 #
3.1720199209908250814748953416711 1:24 2:4 3:0 4:0 5:4 6:4 7:0 8:8 9:0 10:0 11:8 12:8 13:4 14:0 15:4 16:12 17:4 18:4 19:4 20:8 21:6.6700001 22:2.22 23:4.4400001 24:8.8900003 25:2.22 26:2.22 27:4.4400001 28:2.22 29:13.33 30:8.8900003 31:0 32:4.4400001 33:8.8900003 34:2.22 35:6.6700001 36:6.6700001 37:4.4400001 38:8.8900003 39:2.22 40:0 #
-4.8683307545384382208908391476143 1:36 2:0 3:0 4:4 5:0 6:20 7:0 8:4 9:4 10:0 11:8 12:4 13:8 14:0 15:0 16:8 17:0 18:4 19:0 20:0 21:11.77 22:2.22 23:5.9699998 24:8.0200005 25:3.0699999 26:6.48 27:1.54 28:4.27 29:9.8999996 30:9.8999996 31:3.24 32:4.0999999 33:3.24 34:5.6300001 35:4.27 36:5.29 37:3.4100001 38:3.0699999 39:0.68000001 40:3.9200001 #
-4.6492869272890509080298215849325 1:28 2:0 3:4 4:4 5:4 6:4 7:0 8:4 9:0 10:8 11:8 12:0 13:0 14:4 15:16 16:8 17:8 18:0 19:0 20:0 21:4.4699998 22:2.8499999 23:4.0700002 24:5.2800002 25:3.6600001 26:4.8800001 27:5.8899999 28:3.25 29:4.8800001 30:11.59 31:2.24 32:3.25 33:6.9099998 34:5.4899998 35:5.2800002 36:9.7600002 37:5.6900001 38:6.3000002 39:1.83 40:2.4400001 #
5 1:4 2:0 3:0 4:0 5:8 6:0 7:4 8:4 9:0 10:12 11:4 12:8 13:8 14:4 15:24 16:4 17:4 18:8 19:0 20:4 21:3.8699999 22:0.76999998 23:6.96 24:6.1900001 25:3.0899999 26:4.9000001 27:1.8 28:7.9899998 29:8.25 30:16.24 31:3.6099999 32:4.9000001 33:2.0599999 34:2.5799999 35:4.6399999 36:9.0200005 37:5.4099998 38:4.6399999 39:0.25999999 40:2.8399999 #
5 1:4 2:4 3:0 4:0 5:0 6:4 7:0 8:8 9:8 10:12 11:4 12:0 13:8 14:4 15:24 16:4 17:8 18:4 19:4 20:0 21:6.7600002 22:1.96 23:8.0100002 24:6.0500002 25:3.3800001 26:6.23 27:2.8499999 28:5.8699999 29:8.54 30:8.3599997 31:2.49 32:5.3400002 33:4.6300001 34:1.96 35:3.2 36:7.1199999 37:6.4099998 38:7.1199999 39:1.0700001 40:2.6700001 #
-0.24499091070866885200274509770679 1:0 2:12 3:0 4:0 5:0 6:0 7:8 8:16 9:4 10:12 11:4 12:12 13:0 14:0 15:12 16:8 17:4 18:0 19:0 20:8 21:5.0599999 22:0.72000003 23:6.27 24:10.12 25:3.1300001 26:3.1300001 27:1.45 28:6.02 29:8.6700001 30:10.84 31:1.9299999 32:8.9200001 33:2.1700001 34:3.1300001 35:6.02 36:6.75 37:4.3400002 38:6.75 39:0.47999999 40:4.0999999 #
-5.9311129113821161595865305571351 1:0 2:4 3:4 4:0 5:4 6:0 7:4 8:16 9:4 10:4 11:4 12:8 13:4 14:8 15:12 16:12 17:4 18:0 19:0 20:8 21:3.4300001 22:0.86000001 23:4.0799999 24:7.73 25:4.29 26:4.29 27:3.4300001 28:6.8699999 29:7.9400001 30:12.02 31:2.79 32:5.5799999 33:4.5100002 34:3.6500001 35:3.6500001 36:7.3000002 37:5.5799999 38:4.9400001 39:0.43000001 40:6.6500001 #
-8.0202354840360587928671520785429 1:8 2:8 3:0 4:4 5:8 6:4 7:0 8:8 9:0 10:12 11:4 12:4 13:12 14:4 15:8 16:4 17:8 18:0 19:0 20:4 21:7.4099998 22:1.36 23:5.46 24:6.6300001 25:3.9000001 26:5.46 27:4.0900002 28:3.7 29:4.48 30:9.9399996 31:1.75 32:5.0700002 33:5.46 34:5.0700002 35:5.6500001 36:6.4299998 37:4.8699999 38:7.21 39:1.36 40:4.6799998 #
3.3503997944652539331400475930423 1:36 2:0 3:0 4:8 5:0 6:12 7:0 8:0 9:0 10:4 11:4 12:4 13:12 14:4 15:0 16:8 17:4 18:0 19:0 20:4 21:11.83 22:3.55 23:4.1399999 24:4.73 25:5.9200001 26:14.2 27:0 28:5.9200001 29:6.5100002 30:7.6900001 31:2.96 32:1.78 33:4.1399999 34:2.3699999 35:4.1399999 36:7.0999999 37:4.1399999 38:4.73 39:0.58999997 40:3.55 #
4.5852053550397195991195076203439 1:24 2:0 3:0 4:0 5:0 6:8 7:4 8:0 9:0 10:16 11:8 12:0 13:0 14:0 15:12 16:16 17:4 18:8 19:0 20:0 21:6.0999999 22:0 23:4.8800001 24:8.54 25:7.3200002 26:7.9299998 27:3.6600001 28:9.1499996 29:6.71 30:9.7600002 31:1.22 32:1.83 33:7.3200002 34:0.61000001 35:8.54 36:2.4400001 37:4.8800001 38:3.6600001 39:1.83 40:3.6600001 #
4.9803320868840303958791082550306 1:28 2:4 3:4 4:0 5:0 6:12 7:0 8:8 9:4 10:8 11:4 12:4 13:4 14:4 15:0 16:4 17:8 18:4 19:0 20:0 21:7.9699998 22:2.9000001 23:2.9000001 24:3.6199999 25:6.8800001 26:9.4200001 27:0.36000001 28:4.3499999 29:6.52 30:10.87 31:3.6199999 32:2.9000001 33:3.99 34:4.3499999 35:4.3499999 36:7.9699998 37:5.0700002 38:6.52 39:0.72000003 40:4.71 #
-6.824297064877809404492836620193 1:24 2:0 3:4 4:0 5:8 6:12 7:0 8:0 9:4 10:0 11:12 12:0 13:12 14:12 15:4 16:8 17:0 18:0 19:0 20:0 21:16.67 22:0 23:2.78 24:2.78 25:11.11 26:5.5599999 27:0 28:5.5599999 29:2.78 30:13.89 31:5.5599999 32:2.78 33:8.3299999 34:5.5599999 35:0 36:5.5599999 37:2.78 38:5.5599999 39:0 40:2.78 #
2.1124413356353839432699714961927 1:4 2:0 3:0 4:0 5:8 6:8 7:0 8:8 9:0 10:8 11:8 12:4 13:4 14:0 15:12 16:20 17:4 18:12 19:0 20:0 21:8.4099998 22:0.93000001 23:0.93000001 24:1.87 25:7.79 26:8.7200003 27:1.87 28:4.98 29:4.6700001 30:12.15 31:2.8 32:4.3600001 33:4.6700001 34:4.6700001 35:4.6700001 36:9.6599998 37:3.74 38:4.98 39:3.4300001 40:4.6700001 #
-0.7266315511521315162468681592145 1:28 2:8 3:0 4:0 5:0 6:4 7:0 8:4 9:4 10:4 11:4 12:0 13:0 14:0 15:4 16:4 17:8 18:28 19:0 20:0 21:7.5500002 22:0.41999999 23:6.29 24:7.3400002 25:3.98 26:8.8100004 27:2.52 28:6.0799999 29:6.71 30:10.9 31:3.5599999 32:2.52 33:3.5599999 34:1.6799999 35:4.4000001 36:8.3900003 37:4.6100001 38:7.9699998 39:0.83999997 40:1.89 #
5 1:0 2:8 3:0 4:0 5:8 6:4 7:4 8:0 9:4 10:12 11:4 12:4 13:8 14:12 15:4 16:4 17:8 18:8 19:4 20:4 21:8.3100004 22:1.4299999 23:5.3200002 24:6.4899998 25:2.73 26:7.1399999 27:3.6400001 28:6.0999999 29:4.8099999 30:11.56 31:1.95 32:3.3800001 33:3.6400001 34:4.4200001 35:6.0999999 36:7.6599998 37:4.6799998 38:8.8299999 39:0.51999998 40:1.3 #
5 1:8 2:0 3:0 4:0 5:4 6:4 7:0 8:4 9:4 10:20 11:8 12:8 13:4 14:0 15:12 16:8 17:4 18:4 19:0 20:8 21:5.0999999 22:0.23 23:4.6399999 24:10.44 25:4.1799998 26:2.78 27:1.62 28:5.8000002 29:9.7399998 30:10.67 31:1.62 32:6.2600002 33:1.86 34:5.8000002 35:6.0300002 36:8.5799999 37:6.0300002 38:3.48 39:1.86 40:3.25 #
5 1:8 2:0 3:0 4:4 5:4 6:4 7:4 8:16 9:8 10:8 11:8 12:8 13:0 14:0 15:12 16:8 17:8 18:0 19:0 20:0 21:5.7800002 22:1.49 23:4.79 24:8.0900002 25:3.6300001 26:10.56 27:1.8200001 28:5.1199999 29:9.4099998 30:8.4200001 31:1.8200001 32:3.47 33:5.4499998 34:2.6400001 35:3.1400001 36:6.27 37:4.6199999 38:7.9200001 39:1.16 40:4.46 #
0.56591808080336214459293842082843 1:12 2:0 3:0 4:4 5:0 6:4 7:4 8:4 9:12 10:16 11:8 12:4 13:4 14:0 15:8 16:4 17:12 18:0 19:0 20:4 21:6.4000001 22:0.57999998 23:3.49 24:2.3299999 25:6.4000001 26:4.0700002 27:1.74 28:5.8099999 29:7.5599999 30:9.8800001 31:2.9100001 32:5.8099999 33:5.8099999 34:3.49 35:4.0700002 36:5.8099999 37:3.49 38:10.47 39:4.0700002 40:5.8099999 #
1.7290256909845831412297911811038 1:8 2:0 3:0 4:12 5:8 6:24 7:0 8:0 9:8 10:0 11:12 12:0 13:0 14:0 15:0 16:4 17:12 18:4 19:0 20:8 21:8.04 22:2.45 23:4.1999998 24:3.5 25:5.2399998 26:10.49 27:2.0999999 28:5.9400001 29:5.9400001 30:9.4399996 31:2.8 32:2.8 33:4.1999998 34:2.8 35:5.5900002 36:6.6399999 37:6.29 38:7.6900001 39:0.69999999 40:3.1500001 #
1.8147612326114086478412446012953 1:16 2:0 3:4 4:8 5:4 6:8 7:0 8:0 9:12 10:12 11:4 12:4 13:0 14:4 15:4 16:4 17:4 18:8 19:4 20:0 21:6.5700002 22:0.34999999 23:1.38 24:4.5 25:5.54 26:8.3000002 27:2.4200001 28:8.6499996 29:5.1900001 30:9.3400002 31:3.46 32:3.1099999 33:3.1099999 34:2.4200001 35:6.23 36:10.03 37:8.3000002 38:4.8400002 39:1.38 40:4.8400002 #
4.5244118187196784575121455418412 1:36 2:0 3:0 4:0 5:0 6:20 7:0 8:0 9:0 10:8 11:8 12:0 13:8 14:0 15:12 16:0 17:4 18:4 19:0 20:0 21:9.3299999 22:2 23:4.3299999 24:5.3299999 25:2.6700001 26:8.6700001 27:3.3299999 28:1.67 29:4.6700001 30:12 31:3.6700001 32:2 33:8.3299999 34:2.3299999 35:6.6700001 36:8 37:2.6700001 38:6.3299999 39:1 40:5 #
5 1:24 2:12 3:0 4:4 5:4 6:12 7:4 8:0 9:0 10:4 11:4 12:0 13:4 14:0 15:8 16:8 17:4 18:0 19:4 20:4 21:6.4899998 22:1.91 23:3.8199999 24:2.6700001 25:6.1100001 26:8.7799997 27:2.29 28:2.6700001 29:4.96 30:13.74 31:4.1999998 32:2.6700001 33:3.8199999 34:5.73 35:5.73 36:6.4899998 37:7.6300001 38:6.4899998 39:0 40:3.8199999 #
3.4744026277083914777676909579895 1:8 2:0 3:0 4:4 5:8 6:8 7:0 8:0 9:8 10:8 11:4 12:0 13:0 14:8 15:16 16:16 17:0 18:4 19:0 20:8 21:4.3000002 22:1.08 23:5.3800001 24:12.9 25:7.5300002 26:4.3000002 27:1.08 28:6.4499998 29:9.6800003 30:9.6800003 31:0 32:3.23 33:3.23 34:4.3000002 35:6.4499998 36:6.4499998 37:2.1500001 38:5.3800001 39:3.23 40:3.23 #
-10 1:16 2:0 3:0 4:0 5:4 6:16 7:4 8:8 9:4 10:4 11:16 12:4 13:4 14:0 15:8 16:8 17:4 18:0 19:0 20:0 21:7.9000001 22:1.48 23:5.1900001 24:5.9299998 25:3.95 26:7.4099998 27:3.21 28:4.4400001 29:6.6700001 30:8.6400003 31:3.21 32:2.96 33:5.6799998 34:4.1999998 35:4.4400001 36:7.9000001 37:4.9400001 38:6.4200001 39:1.73 40:3.7 #
-1.0793269942718728415798068454023 1:16 2:4 3:4 4:0 5:4 6:16 7:0 8:4 9:8 10:4 11:8 12:0 13:0 14:4 15:12 16:4 17:0 18:12 19:0 20:0 21:8.96 22:0.94 23:4.25 24:5.6599998 25:3.3 26:11.32 27:3.77 28:4.7199998 29:6.5999999 30:11.79 31:2.3599999 32:4.7199998 33:1.42 34:3.3 35:4.7199998 36:5.1900001 37:4.7199998 38:10.85 39:0 40:1.42 #
3.1075051448579236179625695513096 1:0 2:0 3:4 4:12 5:0 6:4 7:0 8:0 9:8 10:16 11:4 12:0 13:4 14:0 15:4 16:36 17:8 18:0 19:0 20:0 21:9.2700005 22:0.99000001 23:1.99 24:2.98 25:5.96 26:10.93 27:0.99000001 28:6.9499998 29:7.9499998 30:7.9499998 31:1.99 32:4.9699998 33:4.9699998 34:3.97 35:2.98 36:7.2800002 37:7.2800002 38:7.6199999 39:0.66000003 40:2.3199999 #
5 1:4 2:4 3:0 4:0 5:8 6:4 7:4 8:8 9:12 10:12 11:4 12:0 13:8 14:4 15:8 16:16 17:0 18:0 19:0 20:4 21:8.3599997 22:0.73000002 23:6.1799998 24:5.6399999 25:5.8200002 26:6.9099998 27:1.45 28:5.8200002 29:7.0900002 30:7.4499998 31:2 32:5.6399999 33:5.0900002 34:4 35:3.45 36:6.73 37:5.0900002 38:6.3600001 39:1.09 40:5.0900002 #
3.0512276883733138177490218367893 1:4 2:0 3:8 4:8 5:0 6:0 7:0 8:8 9:0 10:4 11:8 12:12 13:16 14:0 15:4 16:16 17:4 18:4 19:0 20:4 21:11.76 22:2.4200001 23:2.4200001 24:2.77 25:4.8400002 26:5.1900001 27:3.1099999 28:7.96 29:5.54 30:7.27 31:2.77 32:3.8099999 33:4.5 34:4.5 35:2.0799999 36:9.6899996 37:9 38:3.8099999 39:2.0799999 40:4.5 #
0.28121907637521359468735226982972 1:8 2:0 3:4 4:0 5:4 6:0 7:0 8:24 9:4 10:16 11:8 12:4 13:0 14:0 15:4 16:16 17:4 18:4 19:0 20:0 21:3.5999999 22:0 23:1.8 24:1.58 25:5.8600001 26:4.0500002 27:1.13 28:17.34 29:2.9300001 30:19.139999 31:2.25 32:8.7799997 33:1.58 34:1.58 35:0.44999999 36:10.36 37:3.5999999 38:4.73 39:0.23 40:9.0100002 #
-3.4491614608395240182403540529776 1:4 2:8 3:4 4:0 5:0 6:0 7:0 8:4 9:0 10:16 11:4 12:12 13:12 14:4 15:4 16:16 17:4 18:8 19:0 20:0 21:14.66 22:1.15 23:5.75 24:3.1600001 25:2.5899999 26:9.7700005 27:1.15 28:4.02 29:7.4699998 30:8.0500002 31:3.45 32:2.3 33:4.5999999 34:2.8699999 35:2.8699999 36:7.1799998 37:5.75 38:10.92 39:0.28999999 40:2.01 #
-1.3143817758380267335382995952386 1:4 2:0 3:0 4:4 5:4 6:4 7:4 8:0 9:8 10:20 11:4 12:4 13:4 14:8 15:8 16:16 17:0 18:4 19:0 20:4 21:9.3800001 22:1.1 23:5.52 24:7.4499998 25:3.72 26:7.8600001 27:1.9299999 28:7.1700001 29:6.48 30:8.1400003 31:3.1700001 32:3.3099999 33:4.8299999 34:4.4099998 35:5.52 36:5.0999999 37:5.0999999 38:6.3400002 39:0.97000003 40:2.48 #
5 1:12 2:0 3:8 4:0 5:4 6:20 7:0 8:4 9:8 10:0 11:8 12:0 13:0 14:4 15:0 16:12 17:8 18:4 19:8 20:0 21:4.0999999 22:1.64 23:6.9699998 24:7.3800001 25:4.0999999 26:6.1500001 27:3.28 28:2.46 29:4.9200001 30:6.9699998 31:4.9200001 32:4.0999999 33:10.25 34:4.5100002 35:5.3299999 36:10.66 37:2.05 38:6.5599999 39:2.05 40:1.64 #
3.7780548439751342471026873681694 1:20 2:0 3:12 4:0 5:4 6:12 7:0 8:8 9:12 10:0 11:8 12:0 13:0 14:0 15:4 16:8 17:4 18:4 19:4 20:0 21:5.5900002 22:0 23:9.0900002 24:13.99 25:4.1999998 26:2.8 27:0.69999999 28:5.5900002 29:13.29 30:6.9899998 31:0.69999999 32:2.8 33:4.1999998 34:3.5 35:4.9000001 36:4.9000001 37:4.1999998 38:5.5900002 39:1.4 40:5.5900002 #
5 1:16 2:0 3:0 4:0 5:4 6:20 7:0 8:4 9:8 10:16 11:4 12:0 13:0 14:4 15:0 16:4 17:8 18:12 19:0 20:0 21:7.8299999 22:1.28 23:5.98 24:7.1199999 25:2.71 26:6.5500002 27:2.1400001 28:4.9899998 29:5.5599999 30:9.6899996 31:2.8499999 32:3.28 33:4.5599999 34:3.1300001 35:6.27 36:6.5500002 37:5.8400002 38:8.3999996 39:1.28 40:3.99 #
-5.8703632055408654366601695073768 1:12 2:4 3:0 4:4 5:8 6:12 7:0 8:0 9:20 10:4 11:4 12:0 13:4 14:4 15:4 16:8 17:12 18:0 19:0 20:0 21:5.6799998 22:1.14 23:5.6799998 24:5.6799998 25:2.27 26:10.23 27:3.4100001 28:5.6799998 29:13.64 30:4.5500002 31:3.4100001 32:7.9499998 33:4.5500002 34:2.27 35:2.27 36:4.5500002 37:6.8200002 38:3.4100001 39:1.14 40:5.6799998 #
-2.6121933401956747289318627736066 1:16 2:4 3:0 4:8 5:8 6:16 7:0 8:8 9:8 10:0 11:4 12:0 13:0 14:0 15:0 16:8 17:0 18:16 19:4 20:0 21:6.5700002 22:1.52 23:7.5799999 24:5.5599999 25:3.79 26:7.3200002 27:4.04 28:7.0700002 29:5.5599999 30:7.8299999 31:2.27 32:2.02 33:4.5500002 34:2.78 35:7.5799999 36:7.8299999 37:4.29 38:7.8299999 39:0.75999999 40:3.28 #
-4.7528730172921482832748552027624 1:8 2:0 3:8 4:0 5:0 6:16 7:4 8:12 9:12 10:4 11:4 12:0 13:4 14:4 15:4 16:4 17:0 18:12 19:0 20:4 21:9.7200003 22:0.69 23:4.8600001 24:8.3299999 25:3.47 26:8.3299999 27:3.47 28:8.3299999 29:5.5599999 30:7.6399999 31:4.8600001 32:4.1700001 33:3.47 34:2.0799999 35:4.1700001 36:4.1700001 37:4.8600001 38:8.3299999 39:2.0799999 40:1.39 #
5 1:8 2:4 3:0 4:0 5:4 6:4 7:0 8:0 9:4 10:12 11:4 12:4 13:0 14:4 15:20 16:20 17:4 18:4 19:0 20:4 21:10.65 22:0.63 23:3.97 24:7.0999999 25:3.1300001 26:6.6799998 27:1.88 28:4.1799998 29:4.5900002 30:9.6000004 31:3.1300001 32:3.76 33:5.4299998 34:3.1300001 35:3.55 36:10.02 37:5.6399999 38:8.1400003 39:0.63 40:4.1799998 #
5 1:12 2:0 3:0 4:0 5:0 6:0 7:0 8:4 9:0 10:16 11:4 12:12 13:4 14:0 15:16 16:16 17:4 18:12 19:0 20:0 21:4.21 22:0.22 23:6.8699999 24:9.3100004 25:4.8800001 26:5.3200002 27:1.77 28:4.8800001 29:11.31 30:9.5299997 31:2.8800001 32:3.77 33:5.54 34:4.4299998 35:3.77 36:7.3200002 37:4.6599998 38:3.3299999 39:1.33 40:4.6599998 #
-3.6069947437812208690388615650591 1:0 2:0 3:0 4:0 5:8 6:0 7:0 8:4 9:0 10:20 11:4 12:4 13:4 14:8 15:20 16:12 17:12 18:4 19:0 20:0 21:8.8599997 22:2 23:5.1399999 24:5.71 25:2.8599999 26:11.14 27:2.5699999 28:6 29:9.1400003 30:8 31:1.14 32:3.1400001 33:4.29 34:2.29 35:1.71 36:6.5700002 37:4.5700002 38:10 39:1.4299999 40:3.4300001 #
5 1:12 2:4 3:4 4:0 5:0 6:16 7:0 8:16 9:8 10:12 11:4 12:4 13:4 14:4 15:0 16:4 17:4 18:4 19:0 20:0 21:12.42 22:2.3499999 23:3.6900001 24:3.3599999 25:4.0300002 26:8.7200003 27:0.67000002 28:4.3600001 29:4.6999998 30:12.75 31:1.6799999 32:2.6800001 33:5.0300002 34:7.0500002 35:6.04 36:5.3699999 37:5.0300002 38:7.0500002 39:0 40:3.02 #
-3.0376390944139153305059153353795 1:12 2:0 3:0 4:0 5:4 6:4 7:4 8:0 9:4 10:20 11:4 12:0 13:4 14:0 15:12 16:12 17:12 18:4 19:0 20:4 21:8.9300003 22:0.30000001 23:7.4400001 24:5.9499998 25:5.6500001 26:8.6300001 27:2.0799999 28:2.6800001 29:7.4400001 30:7.7399998 31:1.49 32:6.8499999 33:5.0599999 34:3.27 35:3.27 36:6.8499999 37:5.0599999 38:4.1700001 39:2.6800001 40:4.46 #
-4.9077832461203261260607177973725 1:12 2:4 3:0 4:0 5:8 6:8 7:0 8:12 9:0 10:8 11:4 12:0 13:0 14:0 15:20 16:20 17:0 18:4 19:0 20:0 21:8.2700005 22:1.49 23:4.4699998 24:6.23 25:4.0700002 26:9.4899998 27:0.81 28:5.0100002 29:8.9399996 30:9.6199999 31:2.4400001 32:3.25 33:4.1999998 34:4.8800001 35:3.9300001 36:5.96 37:5.4200001 38:8.9399996 39:0.14 40:2.4400001 #
-0.48560819324207615821364925068337 1:0 2:4 3:0 4:0 5:0 6:0 7:0 8:0 9:0 10:16 11:4 12:4 13:8 14:0 15:20 16:16 17:12 18:4 19:4 20:8 21:4.6900001 22:1.64 23:5.4000001 24:4.23 25:5.6300001 26:6.3400002 27:2.1099999 28:5.6300001 29:7.98 30:10.09 31:2.1099999 32:7.75 33:4.6900001 34:5.6300001 35:3.05 36:6.5700002 37:3.29 38:6.5700002 39:1.88 40:4.6900001 #
5 1:12 2:0 3:0 4:4 5:0 6:8 7:0 8:8 9:16 10:4 11:4 12:4 13:16 14:0 15:4 16:12 17:4 18:0 19:0 20:4 21:4.6399999 22:0.88 23:6.4000001 24:9.2700005 25:3.3099999 26:4.8600001 27:1.1 28:8.8299999 29:8.3900003 30:7.5100002 31:1.1 32:4.1900001 33:7.5100002 34:4.1900001 35:4.8600001 36:6.8400002 37:4.8600001 38:6.6199999 39:1.55 40:3.0899999 #
0.53389625616183444822837600440835 1:4 2:0 3:0 4:12 5:4 6:8 7:0 8:4 9:8 10:8 11:4 12:4 13:12 14:8 15:0 16:4 17:8 18:4 19:0 20:8 21:12.64 22:1.1 23:3.8499999 24:3.8499999 25:6.04 26:13.74 27:0.55000001 28:4.9499998 29:4.9499998 30:5.4899998 31:5.4899998 32:3.8499999 33:4.4000001 34:4.4000001 35:2.75 36:6.5900002 37:6.5900002 38:4.9499998 39:0 40:3.8499999 #
5 1:8 2:0 3:0 4:4 5:8 6:4 7:0 8:0 9:12 10:4 11:4 12:4 13:4 14:20 15:8 16:8 17:4 18:4 19:0 20:4 21:9.4700003 22:0.34999999 23:5.96 24:4.5599999 25:3.8599999 26:7.3699999 27:1.05 28:7.3699999 29:4.9099998 30:9.8199997 31:1.05 32:4.9099998 33:3.51 34:4.9099998 35:8.7700005 36:5.6100001 37:4.5599999 38:9.4700003 39:0.34999999 40:2.1099999 #
-5.0799782309199610352834497462027 1:12 2:0 3:12 4:4 5:4 6:20 7:0 8:8 9:12 10:4 11:4 12:4 13:0 14:0 15:4 16:4 17:4 18:4 19:0 20:0 21:8.8999996 22:1.83 23:5.9400001 24:5.25 25:2.51 26:5.25 27:1.37 28:3.8800001 29:4.1100001 30:14.61 31:2.05 32:2.74 33:7.3099999 34:3.4200001 35:7.3099999 36:7.3099999 37:5.48 38:5.9400001 39:1.6 40:3.2 #
-2.6966337154425858990691722283373 1:16 2:0 3:4 4:8 5:0 6:8 7:0 8:4 9:0 10:0 11:4 12:8 13:12 14:0 15:0 16:16 17:8 18:12 19:0 20:0 21:10.2 22:0 23:10.2 24:0 25:6.1199999 26:8.1599998 27:0 28:4.0799999 29:0 30:16.33 31:2.04 32:8.1599998 33:4.0799999 34:2.04 35:12.24 36:2.04 37:2.04 38:6.1199999 39:4.0799999 40:2.04 #
-5.9966533298242472582728623820003 1:8 2:0 3:0 4:4 5:8 6:4 7:0 8:4 9:16 10:12 11:4 12:0 13:0 14:16 15:8 16:8 17:0 18:4 19:4 20:0 21:3.3299999 22:0 23:3.3299999 24:3.3299999 25:6.6700001 26:16.67 27:0 28:6.6700001 29:3.3299999 30:16.67 31:3.3299999 32:0 33:13.33 34:0 35:3.3299999 36:3.3299999 37:3.3299999 38:6.6700001 39:3.3299999 40:3.3299999 #
5 1:4 2:0 3:0 4:0 5:4 6:4 7:4 8:4 9:0 10:4 11:4 12:0 13:0 14:4 15:20 16:20 17:20 18:0 19:0 20:8 21:7.8800001 22:0.25 23:4.9299998 24:10.1 25:4.4299998 26:6.6500001 27:0.74000001 28:5.6700001 29:10.59 30:6.6500001 31:1.23 32:2.96 33:2.46 34:4.1900001 35:6.6500001 36:7.1399999 37:6.4000001 38:7.1399999 39:1.23 40:2.71 #
5 1:8 2:0 3:0 4:0 5:4 6:0 7:0 8:12 9:0 10:12 11:4 12:4 13:0 14:8 15:16 16:20 17:0 18:8 19:4 20:0 21:4.8200002 22:0 23:8.4300003 24:8.4300003 25:8.4300003 26:6.02 27:0 28:2.4100001 29:10.84 30:6.02 31:2.4100001 32:3.6099999 33:7.23 34:7.23 35:4.8200002 36:2.4100001 37:6.02 38:7.23 39:0 40:3.6099999 #
-8.191086045306969154466969484929 1:12 2:0 3:0 4:0 5:8 6:0 7:0 8:0 9:0 10:8 11:4 12:4 13:12 14:0 15:20 16:16 17:8 18:8 19:0 20:0 21:10.85 22:0.28999999 23:4.9899998 24:8.8000002 25:5.2800002 26:6.7399998 27:1.17 28:5.8699999 29:5.5700002 30:7.6199999 31:2.05 32:2.9300001 33:4.9899998 34:2.9300001 35:4.1100001 36:6.7399998 37:6.1599998 38:9.0900002 39:0.28999999 40:3.52 #
-2.9052558659742682145576964103384 1:20 2:0 3:0 4:0 5:8 6:0 7:0 8:4 9:4 10:0 11:8 12:0 13:12 14:0 15:16 16:8 17:16 18:4 19:0 20:0 21:5.4200001 22:0 23:7.3899999 24:11.33 25:6.4000001 26:4.4299998 27:1.97 28:2.96 29:11.33 30:9.3599997 31:1.48 32:4.9299998 33:3.9400001 34:4.9299998 35:5.4200001 36:6.4000001 37:5.4200001 38:5.9099998 39:0 40:0.99000001 #
-6.8351046057837931968492739542853 1:4 2:0 3:0 4:0 5:0 6:8 7:0 8:4 9:0 10:12 11:4 12:0 13:4 14:8 15:12 16:24 17:0 18:16 19:0 20:4 21:8.75 22:0.52999997 23:5.3099999 24:4.5100002 25:4.77 26:8.4899998 27:2.1199999 28:5.04 29:6.0999999 30:9.0200005 31:3.71 32:3.71 33:6.3699999 34:2.6500001 35:5.04 36:6.6300001 37:5.04 38:8.2200003 39:0.52999997 40:3.45 #
5 1:8 2:4 3:8 4:8 5:4 6:12 7:0 8:4 9:8 10:8 11:4 12:0 13:0 14:0 15:8 16:8 17:4 18:8 19:4 20:0 21:5.6599998 22:1.89 23:1.89 24:3.77 25:9.4300003 26:13.21 27:3.77 28:1.89 29:5.6599998 30:11.32 31:5.6599998 32:1.89 33:3.77 34:7.5500002 35:3.77 36:5.6599998 37:1.89 38:3.77 39:1.89 40:5.6599998 #
5 1:4 2:8 3:8 4:12 5:0 6:0 7:0 8:0 9:12 10:8 11:4 12:0 13:8 14:4 15:4 16:8 17:4 18:16 19:0 20:0 21:6.8200002 22:9.0900002 23:9.0900002 24:6.8200002 25:4.5500002 26:6.8200002 27:9.0900002 28:2.27 29:13.64 30:4.5500002 31:0 32:0 33:0 34:4.5500002 35:2.27 36:2.27 37:4.5500002 38:4.5500002 39:2.27 40:6.8200002 #
3.0828990235459752256019783089869 1:24 2:0 3:0 4:8 5:8 6:0 7:0 8:4 9:8 10:8 11:4 12:4 13:4 14:0 15:4 16:4 17:0 18:16 19:4 20:0 21:5.0799999 22:0 23:6.7800002 24:1.6900001 25:0 26:5.0799999 27:1.6900001 28:3.3900001 29:3.3900001 30:13.56 31:3.3900001 32:5.0799999 33:16.950001 34:3.3900001 35:5.0799999 36:6.7800002 37:5.0799999 38:5.0799999 39:1.6900001 40:6.7800002 #
-0.029770528122547545990528305992484 1:0 2:4 3:16 4:20 5:4 6:4 7:0 8:0 9:4 10:0 11:8 12:0 13:0 14:4 15:0 16:12 17:4 18:16 19:4 20:0 21:5.6799998 22:2.27 23:1.14 24:5.6799998 25:7.9499998 26:7.9499998 27:2.27 28:3.4100001 29:5.6799998 30:12.5 31:2.27 32:6.8200002 33:4.5500002 34:1.14 35:5.6799998 36:11.36 37:2.27 38:6.8200002 39:2.27 40:2.27 #
-1.206070247706138687249222130049 1:4 2:4 3:8 4:20 5:8 6:4 7:0 8:0 9:4 10:4 11:12 12:8 13:0 14:8 15:0 16:4 17:0 18:12 19:0 20:0 21:10.68 22:5.8299999 23:8.25 24:4.8499999 25:3.4000001 26:9.71 27:3.4000001 28:1.46 29:9.71 30:8.7399998 31:2.4300001 32:3.8800001 33:2.9100001 34:4.8499999 35:3.4000001 36:3.8800001 37:2.4300001 38:3.8800001 39:0.49000001 40:5.8299999 #
4.7989344141794854081695120839868 1:12 2:0 3:0 4:4 5:0 6:20 7:0 8:0 9:0 10:8 11:4 12:0 13:4 14:0 15:20 16:20 17:0 18:4 19:4 20:0 21:9.5799999 22:4.79 23:4.79 24:5.9899998 25:1.8 26:3.5899999 27:3.5899999 28:5.9899998 29:4.79 30:13.17 31:0 32:2.4000001 33:4.1900001 34:3.5899999 35:3.5899999 36:4.1900001 37:7.1900001 38:7.1900001 39:1.2 40:8.3800001 #
5 1:16 2:0 3:0 4:0 5:0 6:8 7:0 8:0 9:0 10:16 11:4 12:0 13:12 14:0 15:20 16:16 17:0 18:8 19:0 20:0 21:5.8099999 22:0 23:2.3299999 24:8.1400003 25:5.8099999 26:9.3000002 27:8.1400003 28:1.16 29:3.49 30:8.1400003 31:3.49 32:4.6500001 33:10.47 34:0 35:5.8099999 36:5.8099999 37:4.6500001 38:6.98 39:2.3299999 40:3.49 #
0.57664438653320793104484209834482 1:28 2:0 3:4 4:0 5:0 6:8 7:0 8:0 9:0 10:0 11:4 12:8 13:12 14:4 15:0 16:24 17:4 18:4 19:0 20:0 21:6.8800001 22:2.4300001 23:7.29 24:6.48 25:2.8299999 26:4.8600001 27:2.8299999 28:4.4499998 29:6.48 30:4.0500002 31:2.8299999 32:3.6400001 33:7.6900001 34:3.6400001 35:7.29 36:8.1000004 37:4.4499998 38:4.8600001 39:4.8600001 40:4.0500002 #
-5.7886298679892167484695164603181 1:20 2:0 3:0 4:0 5:0 6:4 7:0 8:8 9:4 10:16 11:8 12:8 13:0 14:0 15:12 16:16 17:0 18:4 19:0 20:0 21:9.0900002 22:1.14 23:7.3899999 24:5.1100001 25:5.6799998 26:10.23 27:1.7 28:5.6799998 29:10.23 30:6.25 31:0 32:1.7 33:3.98 34:2.27 35:2.27 36:11.36 37:3.4100001 38:8.5200005 39:1.7 40:2.27 #
-6.081224707217343095067008107435 1:20 2:4 3:0 4:0 5:0 6:12 7:0 8:0 9:4 10:20 11:4 12:0 13:0 14:0 15:8 16:16 17:4 18:0 19:4 20:4 21:8.6899996 22:1.41 23:5.0500002 24:7.27 25:3.8399999 26:10.3 27:2.02 28:6.6700001 29:7.4699998 30:8.0799999 31:2.8299999 32:3.8399999 33:4.2399998 34:2.6300001 35:4.2399998 36:5.4499998 37:5.25 38:7.8800001 39:0.61000001 40:2.22 #
5 1:12 2:0 3:0 4:0 5:20 6:8 7:0 8:4 9:8 10:4 11:4 12:4 13:0 14:0 15:4 16:12 17:8 18:8 19:0 20:4 21:9.7600002 22:0 23:17.07 24:4.8800001 25:7.3200002 26:7.3200002 27:2.4400001 28:4.8800001 29:9.7600002 30:2.4400001 31:0 32:4.8800001 33:0 34:2.4400001 35:2.4400001 36:2.4400001 37:7.3200002 38:7.3200002 39:4.8800001 40:2.4400001 #
-4.1106108362622562069077503110748 1:0 2:0 3:0 4:8 5:12 6:16 7:0 8:0 9:12 10:0 11:4 12:4 13:0 14:8 15:4 16:20 17:8 18:4 19:0 20:0 21:8.3599997 22:1.13 23:6.3699999 24:6.6599998 25:4.1100001 26:5.0999999 27:1.5599999 28:4.6700001 29:6.52 30:14.31 31:3.4000001 32:4.6700001 33:3.54 34:3.26 35:5.52 36:7.79 37:4.8200002 38:3.54 39:1.13 40:3.54 #
-7.7341283180156423782136698719114 1:8 2:0 3:4 4:0 5:12 6:4 7:0 8:0 9:4 10:8 11:4 12:0 13:0 14:12 15:8 16:12 17:0 18:12 19:8 20:4 21:9.79 22:1.03 23:3.0899999 24:8.25 25:3.6099999 26:2.5799999 27:2.0599999 28:2.5799999 29:8.7600002 30:7.73 31:2.0599999 32:4.6399999 33:3.6099999 34:5.6700001 35:6.1900001 36:6.6999998 37:8.25 38:8.7600002 39:2.0599999 40:2.5799999 #
5 1:16 2:4 3:0 4:0 5:0 6:8 7:0 8:0 9:4 10:12 11:4 12:0 13:4 14:8 15:12 16:12 17:0 18:4 19:12 20:0 21:8.71 22:2.0899999 23:5.23 24:4.5300002 25:2.79 26:8.8900003 27:4.1799998 28:4.1799998 29:4.3600001 30:8.1899996 31:2.26 32:3.48 33:6.4499998 34:5.9200001 35:6.0999999 36:5.5700002 37:4.6999998 38:7.1399999 39:1.92 40:3.3099999 #
-0.42022946817548234577088805963285 1:8 2:4 3:0 4:0 5:0 6:4 7:0 8:0 9:0 10:4 11:4 12:0 13:16 14:0 15:16 16:16 17:4 18:4 19:20 20:0 21:6.8200002 22:1.28 23:5.1199999 24:5.9699998 25:3.2 26:9.1700001 27:1.92 28:3.8399999 29:4.2600002 30:11.09 31:0.63999999 32:1.71 33:8.3199997 34:4.0500002 35:8.3199997 36:4.9000001 37:6.8200002 38:9.8100004 39:1.0700001 40:1.71 #
0.34318362143638103667342420521891 1:8 2:0 3:4 4:0 5:0 6:0 7:0 8:4 9:12 10:4 11:12 12:4 13:8 14:4 15:12 16:4 17:12 18:4 19:4 20:4 21:6.6700001 22:0 23:6.6700001 24:6.6700001 25:6.6700001 26:6.6700001 27:3.3299999 28:3.3299999 29:11.67 30:13.33 31:1.67 32:3.3299999 33:8.3299999 34:1.67 35:0 36:1.67 37:5 38:5 39:0 40:8.3299999 #
1.7015281282592980005574645474553 1:4 2:0 3:4 4:0 5:12 6:12 7:0 8:4 9:0 10:16 11:8 12:8 13:0 14:0 15:8 16:8 17:4 18:8 19:0 20:4 21:11.27 22:1.41 23:4.23 24:15.49 25:2.8199999 26:0 27:1.41 28:2.8199999 29:15.49 30:9.8599997 31:0 32:7.04 33:5.6300001 34:2.8199999 35:1.41 36:4.23 37:2.8199999 38:8.4499998 39:0 40:2.8199999 #
-3.3997923522562922826750764215831 1:4 2:0 3:0 4:0 5:4 6:8 7:4 8:8 9:8 10:12 11:8 12:8 13:4 14:8 15:0 16:8 17:12 18:0 19:0 20:4 21:5.8400002 22:0.73000002 23:8.7600002 24:8.7600002 25:2.9200001 26:2.1900001 27:0.73000002 28:5.1100001 29:12.41 30:12.41 31:1.46 32:4.3800001 33:3.6500001 34:2.9200001 35:5.8400002 36:8.7600002 37:3.6500001 38:1.46 39:3.6500001 40:4.3800001 #
-3.686204643972384342731629658374 1:8 2:0 3:0 4:0 5:16 6:4 7:4 8:4 9:0 10:16 11:8 12:24 13:0 14:0 15:12 16:0 17:0 18:4 19:0 20:0 21:7.29 22:0.91000003 23:5.1700001 24:6.0799999 25:3.3399999 26:6.3800001 27:2.4300001 28:4.5599999 29:7.9000001 30:13.68 31:3.04 32:3.04 33:4.2600002 34:5.1700001 35:3.6500001 36:6.6900001 37:7.29 38:4.2600002 39:1.52 40:3.3399999 #
5 1:16 2:4 3:0 4:0 5:8 6:4 7:0 8:0 9:0 10:8 11:4 12:0 13:4 14:8 15:8 16:16 17:4 18:16 19:0 20:0 21:7.98 22:0.52999997 23:2.1300001 24:6.9099998 25:1.6 26:4.79 27:0.52999997 28:5.8499999 29:10.64 30:12.23 31:4.2600002 32:3.1900001 33:4.2600002 34:3.1900001 35:4.79 36:9.04 37:6.9099998 38:8.5100002 39:0 40:2.6600001 #
-6.0847207769310616143343395378906 1:24 2:4 3:0 4:0 5:4 6:0 7:0 8:0 9:4 10:4 11:4 12:0 13:12 14:8 15:16 16:8 17:4 18:8 19:0 20:0 21:11.85 22:1.11 23:6.48 24:7.4099998 25:3.1500001 26:7.96 27:2.22 28:5.7399998 29:6.48 30:8.6999998 31:1.11 32:3.1500001 33:4.2600002 34:3.3299999 35:7.2199998 36:4.4400001 37:3.52 38:8.6999998 39:1.48 40:1.67 #
-3.6408778859605384070619038539007 1:12 2:8 3:0 4:0 5:0 6:4 7:0 8:0 9:0 10:16 11:4 12:0 13:16 14:0 15:20 16:4 17:0 18:12 19:4 20:0 21:13.21 22:2.26 23:4.9099998 24:7.5500002 25:4.9099998 26:8.3000002 27:0.75 28:6.4200001 29:9.0600004 30:7.9200001 31:3.02 32:4.1500001 33:2.6400001 34:4.5300002 35:2.6400001 36:4.5300002 37:5.2800002 38:5.6599998 39:0.38 40:1.89 #
5 1:0 2:0 3:0 4:0 5:16 6:20 7:0 8:8 9:12 10:8 11:4 12:4 13:4 14:0 15:8 16:8 17:4 18:4 19:0 20:0 21:6.5599999 22:1.5599999 23:4.0599999 24:5.3099999 25:5 26:5 27:2.5 28:7.1900001 29:5.3099999 30:9.0600004 31:3.4400001 32:5.6199999 33:5 34:3.75 35:5.6199999 36:9.6899996 37:4.0599999 38:4.6900001 39:1.5599999 40:5 #
5 1:8 2:4 3:0 4:0 5:16 6:4 7:4 8:4 9:0 10:8 11:4 12:12 13:0 14:4 15:8 16:16 17:0 18:4 19:4 20:0 21:5.6100001 22:2.2 23:3.21 24:5.8099999 25:5.4099998 26:4.6100001 27:3.4100001 28:6.4099998 29:7.4099998 30:12.63 31:2.4000001 32:4.6100001 33:5.21 34:4.6100001 35:4.8099999 36:7.0100002 37:4.21 38:6.21 39:2.4000001 40:1.8 #
-8.1465223909486059739037955296226 1:4 2:4 3:0 4:0 5:4 6:4 7:0 8:4 9:4 10:8 11:8 12:4 13:0 14:12 15:8 16:24 17:12 18:0 19:0 20:0 21:8.8100004 22:0 23:4.1900001 24:8.5900002 25:3.74 26:7.4899998 27:2.8599999 28:5.29 29:8.3699999 30:12.11 31:0.66000003 32:2.6400001 33:5.0700002 34:2.6400001 35:4.1900001 36:6.6100001 37:5.0700002 38:5.9499998 39:1.3200001 40:4.4099998 #
-3.3650907421091886817521299235523 1:8 2:0 3:0 4:0 5:8 6:8 7:0 8:4 9:8 10:8 11:8 12:8 13:0 14:0 15:12 16:16 17:4 18:4 19:0 20:4 21:4.75 22:0.58999997 23:5.7399998 24:7.7199998 25:3.5599999 26:7.9200001 27:2.1800001 28:5.1500001 29:7.3299999 30:10.5 31:2.1800001 32:5.9400001 33:3.96 34:2.97 35:3.3699999 36:8.3199997 37:3.1700001 38:8.9099998 39:0.58999997 40:5.1500001 #
-0.23599558718234181498019097489305 1:8 2:0 3:0 4:0 5:0 6:20 7:0 8:0 9:0 10:16 11:4 12:0 13:12 14:0 15:8 16:12 17:8 18:8 19:4 20:0 21:7.6500001 22:1.53 23:3.5699999 24:10.71 25:3.5699999 26:8.1599998 27:3.0599999 28:5.0999999 29:1.53 30:11.73 31:1.02 32:0 33:6.6300001 34:3.0599999 35:11.22 36:9.6899996 37:3.0599999 38:4.5900002 39:1.53 40:2.55 #
2.4533949233743910234295526606729 1:16 2:4 3:0 4:0 5:0 6:0 7:0 8:12 9:0 10:16 11:4 12:0 13:4 14:4 15:20 16:12 17:4 18:4 19:0 20:0 21:16.030001 22:1.53 23:3.8199999 24:4.5799999 25:6.8699999 26:9.1599998 27:4.5799999 28:3.8199999 29:2.29 30:12.21 31:2.29 32:1.53 33:5.3400002 34:0.75999999 35:3.8199999 36:1.53 37:5.3400002 38:8.3999996 39:2.29 40:3.8199999 #
-1.7974391669564189211172333671129 1:12 2:4 3:0 4:0 5:0 6:4 7:0 8:0 9:0 10:32 11:4 12:0 13:16 14:4 15:12 16:8 17:0 18:0 19:4 20:0 21:5.8200002 22:2.49 23:5.6100001 24:7.6900001 25:3.95 26:7.9000001 27:1.66 28:6.0300002 29:8.3199997 30:10.19 31:2.9100001 32:1.87 33:3.74 34:4.9899998 35:5.6100001 36:4.9899998 37:4.1599998 38:8.3199997 39:0.62 40:3.1199999 #
-8.6191588350476440183456361410208 1:12 2:8 3:0 4:4 5:4 6:4 7:0 8:8 9:0 10:16 11:4 12:8 13:8 14:4 15:12 16:4 17:0 18:4 19:0 20:0 21:5.79 22:1.08 23:5.79 24:6.1500001 25:5.2399998 26:6.3299999 27:2.53 28:4.8800001 29:7.23 30:11.93 31:1.99 32:3.0699999 33:2.3499999 34:6.6900001 35:5.0599999 36:7.23 37:4.8800001 38:7.7800002 39:0.72000003 40:3.25 #
5 1:4 2:0 3:0 4:0 5:8 6:20 7:0 8:4 9:8 10:8 11:4 12:0 13:0 14:0 15:8 16:24 17:0 18:8 19:0 20:4 21:8.7600002 22:0.50999999 23:4.5700002 24:8.5 25:5.0799999 26:9.2600002 27:1.52 28:5.1999998 29:7.23 30:8.3800001 31:1.65 32:4.1900001 33:4.5700002 34:4.6999998 35:5.8400002 36:5.8400002 37:4.4400001 38:6.5999999 39:0.38 40:2.79 #
5 1:8 2:4 3:0 4:0 5:8 6:4 7:0 8:4 9:8 10:12 11:4 12:8 13:0 14:4 15:12 16:16 17:0 18:4 19:0 20:4 21:4.71 22:2.1700001 23:7.6100001 24:7.25 25:6.52 26:6.52 27:1.45 28:6.1599998 29:6.8800001 30:9.4200001 31:0 32:3.6199999 33:5.8000002 34:3.6199999 35:7.25 36:6.8800001 37:4.3499999 38:2.9000001 39:1.09 40:5.8000002 #
5 1:8 2:0 3:0 4:4 5:4 6:12 7:4 8:0 9:0 10:0 11:4 12:4 13:0 14:8 15:8 16:20 17:8 18:8 19:4 20:4 21:7.9299998 22:1.38 23:2.76 24:4.48 25:4.48 26:8.6199999 27:2.4100001 28:5.52 29:6.21 30:12.41 31:1.72 32:3.45 33:3.45 34:3.0999999 35:5.1700001 36:4.48 37:5.8600001 38:8.2799997 39:1.72 40:6.5500002 #
-3.0777775759868850613543145300355 1:12 2:0 3:0 4:4 5:4 6:12 7:0 8:8 9:4 10:4 11:4 12:12 13:0 14:0 15:0 16:24 17:0 18:12 19:0 20:0 21:13 22:1.17 23:6.1700001 24:8 25:4.6700001 26:3.6700001 27:2 28:4.1700001 29:11 30:7.5 31:1.83 32:3.8299999 33:2.1700001 34:4.3299999 35:3.6700001 36:8.5 37:4.1700001 38:5.5 39:0.33000001 40:4.3299999 #
1.4226735502927434495745728781912 1:12 2:0 3:4 4:0 5:4 6:4 7:4 8:4 9:8 10:0 11:8 12:0 13:4 14:16 15:4 16:12 17:4 18:12 19:0 20:0 21:10.96 22:0.56 23:5.3400002 24:1.97 25:7.02 26:12.36 27:0.28 28:4.21 29:7.3000002 30:8.71 31:1.97 32:3.9300001 33:2.8099999 34:3.3699999 35:5.6199999 36:6.46 37:4.7800002 38:5.9000001 39:1.12 40:5.3400002 #
5 1:4 2:4 3:0 4:0 5:0 6:8 7:0 8:4 9:4 10:28 11:8 12:8 13:8 14:0 15:20 16:4 17:0 18:0 19:0 20:0 21:6.1500001 22:1.34 23:5.48 24:4.4099998 25:4.8099999 26:6.02 27:1.6 28:7.75 29:6.8200002 30:10.96 31:1.47 32:4.2800002 33:4.4099998 34:4.0100002 35:4.5500002 36:10.56 37:6.8200002 38:6.02 39:0.13 40:2.4100001 #
0.179130464947566098166120696078 1:16 2:0 3:4 4:0 5:4 6:4 7:0 8:4 9:4 10:4 11:8 12:8 13:0 14:12 15:0 16:8 17:12 18:8 19:0 20:4 21:8.1000004 22:1.0599999 23:2.1099999 24:3.1700001 25:7.3899999 26:5.6300001 27:1.41 28:7.3899999 29:7.3899999 30:9.1499996 31:2.8199999 32:5.6300001 33:3.1700001 34:5.2800002 35:3.8699999 36:5.9899998 37:10.56 38:6.3400002 39:0.34999999 40:3.1700001 #
3.3098630241463888879138721677009 1:8 2:0 3:0 4:8 5:0 6:8 7:0 8:0 9:0 10:20 11:4 12:0 13:32 14:0 15:12 16:4 17:0 18:0 19:4 20:0 21:11.5 22:0.98000002 23:2.95 24:4.77 25:4.3499999 26:10.38 27:0.83999997 28:5.0500002 29:3.79 30:12.06 31:1.96 32:3.23 33:5.0500002 34:2.6600001 35:7.4299998 36:8.2700005 37:4.0700002 38:7.0100002 39:1.4 40:2.24 #
-3.5103917835766456079227282316424 1:8 2:0 3:0 4:0 5:0 6:20 7:0 8:4 9:0 10:28 11:4 12:0 13:16 14:0 15:8 16:8 17:0 18:4 19:0 20:0 21:7.75 22:1.29 23:6.98 24:4.9099998 25:3.8800001 26:5.9400001 27:5.1700001 28:6.98 29:4.3899999 30:10.85 31:2.5799999 32:2.0699999 33:5.1700001 34:3.6199999 35:8.5299997 36:5.6799998 37:5.6799998 38:4.9099998 39:0.25999999 40:3.3599999 #
-9.7635394295879276427285731188022 1:4 2:0 3:8 4:12 5:8 6:4 7:0 8:0 9:0 10:12 11:4 12:0 13:8 14:0 15:20 16:8 17:0 18:4 19:4 20:4 21:4.4899998 22:0.56 23:5.9000001 24:6.7399998 25:5.9000001 26:5.0599999 27:1.6900001 28:5.0599999 29:7.3000002 30:10.39 31:2.25 32:4.7800002 33:7.02 34:1.97 35:6.46 36:8.1499996 37:5.0599999 38:5.6199999 39:2.53 40:3.0899999 #
3.6432949875337103939898497628747 1:20 2:0 3:0 4:0 5:4 6:4 7:0 8:0 9:4 10:4 11:8 12:4 13:4 14:0 15:16 16:12 17:8 18:12 19:0 20:0 21:3.1199999 22:0 23:4.6900001 24:7.8099999 25:6.25 26:10.94 27:1.5599999 28:4.6900001 29:14.06 30:9.3800001 31:1.5599999 32:1.5599999 33:3.1199999 34:4.6900001 35:3.1199999 36:3.1199999 37:1.5599999 38:14.06 39:0 40:4.6900001 #
3.2252879790579305208098048751708 1:4 2:0 3:0 4:4 5:0 6:12 7:0 8:8 9:0 10:4 11:4 12:12 13:12 14:12 15:0 16:20 17:8 18:0 19:0 20:0 21:7.6900001 22:0 23:4.1999998 24:4.1999998 25:5.5900002 26:12.59 27:2.0999999 28:4.9000001 29:11.89 30:9.79 31:2.8 32:6.9899998 33:2.8 34:3.5 35:1.4 36:4.9000001 37:7.6900001 38:4.1999998 39:0 40:2.8 #
4.0303539235409839847079638275318 1:8 2:0 3:8 4:4 5:4 6:4 7:0 8:8 9:20 10:0 11:4 12:4 13:0 14:12 15:0 16:20 17:4 18:0 19:0 20:0 21:8.0299997 22:1 23:2.3399999 24:3.6800001 25:4.3499999 26:10.37 27:1.67 28:9.3599997 29:6.3499999 30:9.3599997 31:2.6800001 32:4.6799998 33:3.6800001 34:4.6799998 35:3.3399999 36:5.6900001 37:5.6900001 38:8.6999998 39:0.67000002 40:3.6800001 #
-3.3074653967338281113086395635037 1:12 2:0 3:8 4:4 5:4 6:0 7:0 8:8 9:8 10:8 11:4 12:0 13:0 14:0 15:0 16:0 17:28 18:12 19:4 20:0 21:4.27 22:1.1799999 23:6.4000001 24:6.1599998 25:2.6099999 26:6.4000001 27:1.1799999 28:6.1599998 29:8.7700005 30:9.9499998 31:0.94999999 32:4.27 33:4.7399998 34:4.7399998 35:5.6900001 36:7.8200002 37:4.7399998 38:9.4799995 39:1.66 40:2.8399999 #
-1.2717281653349972181388238823274 1:20 2:0 3:4 4:0 5:0 6:4 7:4 8:8 9:4 10:4 11:4 12:4 13:8 14:0 15:0 16:16 17:12 18:8 19:0 20:0 21:2.47 22:9.8800001 23:8.6400003 24:8.6400003 25:3.7 26:4.9400001 27:1.23 28:0 29:13.58 30:9.8800001 31:4.9400001 32:4.9400001 33:4.9400001 34:3.7 35:4.9400001 36:0 37:2.47 38:6.1700001 39:0 40:4.9400001 #
-3.3163057918728666706442709255498 1:8 2:0 3:0 4:0 5:0 6:0 7:0 8:4 9:4 10:8 11:4 12:0 13:0 14:4 15:20 16:8 17:28 18:4 19:0 20:8 21:6.6799998 22:0.63 23:7.5799999 24:9.21 25:3.25 26:4.96 27:1.71 28:6.4099998 29:9.5699997 30:8.3900003 31:1.99 32:4.1500001 33:4.8699999 34:3.52 35:4.1500001 36:8.0299997 37:5.6900001 38:6.1399999 39:0.63 40:2.4400001 #
5 1:8 2:4 3:8 4:4 5:4 6:0 7:0 8:0 9:0 10:24 11:4 12:0 13:8 14:4 15:8 16:4 17:4 18:8 19:8 20:0 21:6.6100001 22:2.05 23:4.7800002 24:5.4699998 25:3.4200001 26:9.1099997 27:2.28 28:7.0599999 29:7.0599999 30:10.93 31:2.51 32:2.73 33:5.9200001 34:4.5599999 35:4.7800002 36:7.29 37:3.6400001 38:7.0599999 39:0.23 40:2.51 #
3.7293608159356743669832212617621 1:8 2:0 3:8 4:8 5:0 6:8 7:0 8:0 9:0 10:8 11:4 12:0 13:8 14:4 15:16 16:4 17:4 18:4 19:4 20:12 21:12.77 22:0.70999998 23:4.2600002 24:2.8399999 25:2.8399999 26:6.3800001 27:0.70999998 28:5.6700001 29:4.2600002 30:9.9300003 31:0 32:1.42 33:6.3800001 34:0.70999998 35:5.6700001 36:9.9300003 37:7.0900002 38:12.77 39:2.8399999 40:2.8399999 #
5 1:8 2:0 3:4 4:16 5:4 6:8 7:0 8:4 9:0 10:12 11:4 12:0 13:8 14:8 15:12 16:4 17:4 18:4 19:0 20:0 21:6.4099998 22:1.6 23:1.6 24:5.4499998 25:7.0500002 26:5.1300001 27:0.95999998 28:7.3699999 29:4.4899998 30:10.26 31:3.21 32:3.53 33:6.0900002 34:4.4899998 35:5.77 36:9.6199999 37:5.77 38:7.0500002 39:1.6 40:2.5599999 #
