SVM-light Version V6.02
0 # kernel type
3 # kernel parameter -d 
1 # kernel parameter -g 
1 # kernel parameter -s 
1 # kernel parameter -r 
empty# kernel parameter -u 
40 # highest feature index 
569 # number of training documents 
449 # number of support vectors plus 1 
-0.3206067 # threshold b, each following line is a SV (starting with alpha*y)
-0.00010000000000000000479217360238593 1:12 2:0 3:4 4:4 5:0 6:12 7:4 8:8 9:8 10:12 11:8 12:0 13:4 14:4 15:4 16:12 17:4 18:0 19:0 20:0 21:7.27 22:0.36000001 23:3.6400001 24:3.6400001 25:8 26:9.0900002 27:1.45 28:6.1799998 29:8.3599997 30:11.64 31:0.73000002 32:5.8200002 33:4.3600001 34:2.9100001 35:5.4499998 36:7.27 37:5.0900002 38:4.73 39:1.09 40:2.9100001 #
-0.00010000000000000000479217360238593 1:20 2:0 3:0 4:0 5:4 6:12 7:0 8:4 9:8 10:12 11:8 12:0 13:4 14:0 15:8 16:8 17:8 18:4 19:0 20:0 21:9.4200001 22:0.91000003 23:4.5599999 24:8.21 25:3.95 26:7.29 27:3.95 28:5.4699998 29:6.6900001 30:6.9899998 31:3.3399999 32:3.3399999 33:4.5599999 34:1.52 35:5.7800002 36:4.5599999 37:6.3800001 38:6.0799999 39:3.3399999 40:3.6500001 #
-0.00010000000000000000479217360238593 1:16 2:0 3:4 4:0 5:4 6:4 7:0 8:4 9:4 10:4 11:8 12:8 13:0 14:12 15:0 16:8 17:12 18:8 19:0 20:4 21:8.1000004 22:1.0599999 23:2.1099999 24:3.1700001 25:7.3899999 26:5.6300001 27:1.41 28:7.3899999 29:7.3899999 30:9.1499996 31:2.8199999 32:5.6300001 33:3.1700001 34:5.2800002 35:3.8699999 36:5.9899998 37:10.56 38:6.3400002 39:0.34999999 40:3.1700001 #
-0.00010000000000000000479217360238593 1:12 2:0 3:4 4:24 5:0 6:0 7:4 8:0 9:4 10:4 11:4 12:0 13:12 14:4 15:8 16:8 17:4 18:8 19:0 20:0 21:3.8099999 22:2.3800001 23:3.8099999 24:3.5699999 25:10 26:6.1900001 27:2.6199999 28:8.8100004 29:3.5699999 30:9.7600002 31:3.3299999 32:3.5699999 33:4.29 34:2.8599999 35:4.29 36:6.9000001 37:6.1900001 38:7.1399999 39:2.1400001 40:4.7600002 #
-0.00010000000000000000479217360238593 1:4 2:4 3:0 4:0 5:4 6:4 7:0 8:4 9:4 10:8 11:8 12:4 13:0 14:12 15:8 16:24 17:12 18:0 19:0 20:0 21:8.8100004 22:0 23:4.1900001 24:8.5900002 25:3.74 26:7.4899998 27:2.8599999 28:5.29 29:8.3699999 30:12.11 31:0.66000003 32:2.6400001 33:5.0700002 34:2.6400001 35:4.1900001 36:6.6100001 37:5.0700002 38:5.9499998 39:1.3200001 40:4.4099998 #
0.0018899999999999999699545893960817 1:4 2:0 3:0 4:0 5:4 6:0 7:4 8:4 9:4 10:20 11:4 12:12 13:8 14:4 15:8 16:8 17:4 18:8 19:0 20:4 21:1.85 22:0 23:7.4099998 24:8.3299999 25:1.85 26:3.7 27:4.6300001 28:4.6300001 29:10.19 30:12.96 31:2.78 32:5.5599999 33:3.7 34:7.4099998 35:5.5599999 36:6.48 37:3.7 38:3.7 39:1.85 40:3.7 #
0.0011672319760429039625648783840006 1:28 2:0 3:0 4:0 5:0 6:4 7:4 8:0 9:0 10:0 11:4 12:0 13:24 14:0 15:16 16:20 17:0 18:0 19:0 20:0 21:16.24 22:3.4200001 23:1.71 24:3.4200001 25:2.5599999 26:10.26 27:2.5599999 28:0.85000002 29:1.71 30:7.6900001 31:3.4200001 32:0 33:12.82 34:8.5500002 35:0.85000002 36:11.97 37:5.1300001 38:4.27 39:0 40:2.5599999 #
0.00073538306958086108178207496166578 1:20 2:8 3:0 4:12 5:0 6:8 7:0 8:0 9:0 10:8 11:4 12:0 13:0 14:12 15:8 16:0 17:4 18:8 19:0 20:8 21:12.94 22:7.0599999 23:1.1799999 24:9.4099998 25:3.53 26:1.1799999 27:3.53 28:4.71 29:2.3499999 30:4.71 31:2.3499999 32:2.3499999 33:9.4099998 34:11.76 35:8.2399998 36:7.0599999 37:2.3499999 38:3.53 39:1.1799999 40:1.1799999 #
-0.00010000000000000000479217360238593 1:8 2:8 3:0 4:0 5:0 6:4 7:0 8:4 9:0 10:12 11:4 12:12 13:4 14:4 15:24 16:4 17:0 18:12 19:0 20:0 21:6.6100001 22:1.59 23:9.5200005 24:15.61 25:2.3800001 26:6.0799999 27:1.59 28:2.1199999 29:9.79 30:3.4400001 31:1.59 32:7.4099998 33:4.23 34:5.0300002 35:1.85 36:11.64 37:4.5 38:3.4400001 39:0.25999999 40:1.3200001 #
-0.00010000000000000000479217360238593 1:4 2:0 3:8 4:0 5:4 6:0 7:0 8:8 9:4 10:8 11:4 12:4 13:16 14:12 15:4 16:8 17:8 18:4 19:0 20:4 21:8.8599997 22:5.0599999 23:4.4299998 24:7.5900002 25:3.8 26:4.4299998 27:1.9 28:3.8 29:7.5900002 30:6.3299999 31:1.9 32:6.96 33:8.2299995 34:4.4299998 35:6.3299999 36:6.3299999 37:3.1600001 38:4.4299998 39:2.53 40:1.9 #
-0.00010000000000000000479217360238593 1:4 2:0 3:8 4:4 5:0 6:8 7:0 8:0 9:8 10:0 11:4 12:4 13:8 14:28 15:4 16:4 17:4 18:0 19:12 20:0 21:7.2199998 22:1.11 23:4.4400001 24:5.5599999 25:5 26:3.8900001 27:1.67 28:5 29:10.56 30:9.4399996 31:2.78 32:3.8900001 33:4.4400001 34:7.7800002 35:3.8900001 36:11.67 37:3.8900001 38:2.22 39:3.8900001 40:1.67 #
-0.00010000000000000000479217360238593 1:8 2:0 3:0 4:0 5:4 6:8 7:0 8:4 9:4 10:16 11:8 12:0 13:12 14:4 15:4 16:8 17:0 18:12 19:0 20:8 21:13.04 22:0 23:4.3499999 24:21.74 25:0 26:2.1700001 27:0 28:4.3499999 29:15.22 30:8.6999998 31:0 32:2.1700001 33:2.1700001 34:4.3499999 35:15.22 36:0 37:2.1700001 38:0 39:0 40:4.3499999 #
-0.00010000000000000000479217360238593 1:0 2:4 3:0 4:0 5:4 6:0 7:8 8:8 9:4 10:4 11:4 12:4 13:8 14:4 15:8 16:12 17:8 18:12 19:0 20:8 21:3.45 22:1.27 23:5.6399999 24:6.3600001 25:5.0900002 26:5.0900002 27:2.3599999 28:7.6399999 29:8.5500002 30:9.6400003 31:1.45 32:6 33:4.73 34:4.5500002 35:4.73 36:8.1800003 37:3.8199999 38:5.27 39:2 40:4.1799998 #
0.00090594995474815431107940000288181 1:16 2:0 3:16 4:8 5:0 6:8 7:0 8:4 9:8 10:8 11:20 12:0 13:4 14:0 15:0 16:8 17:0 18:0 19:0 20:0 21:4.4099998 22:5.8800001 23:5.8800001 24:7.3499999 25:5.8800001 26:1.47 27:1.47 28:0 29:5.8800001 30:10.29 31:5.8800001 32:4.4099998 33:1.47 34:8.8199997 35:10.29 36:5.8800001 37:5.8800001 38:7.3499999 39:0 40:1.47 #
0.0018899999999999999699545893960817 1:20 2:0 3:0 4:0 5:16 6:4 7:0 8:4 9:4 10:4 11:4 12:0 13:4 14:4 15:12 16:12 17:8 18:4 19:0 20:0 21:8.7200003 22:1.03 23:3.0799999 24:6.6700001 25:6.6700001 26:7.6900001 27:2.05 28:8.21 29:8.21 30:6.6700001 31:1.03 32:4.6199999 33:4.6199999 34:2.05 35:4.0999999 36:8.7200003 37:5.6399999 38:8.21 39:1.03 40:1.03 #
-0.00010000000000000000479217360238593 1:12 2:4 3:0 4:0 5:0 6:4 7:0 8:4 9:0 10:12 11:4 12:0 13:20 14:0 15:20 16:8 17:4 18:4 19:0 20:4 21:7 22:1.54 23:5.04 24:11.34 25:2.8 26:4.3400002 27:1.6799999 28:4.1999998 29:9.3800001 30:12.46 31:1.8200001 32:2.3800001 33:4.9000001 34:5.04 35:5.5999999 36:6.3000002 37:4.7600002 38:7.5599999 39:0.83999997 40:0.98000002 #
0.0018899999999999999699545893960817 1:8 2:0 3:8 4:0 5:0 6:16 7:4 8:12 9:12 10:4 11:4 12:0 13:4 14:4 15:4 16:4 17:0 18:12 19:0 20:4 21:9.7200003 22:0.69 23:4.8600001 24:8.3299999 25:3.47 26:8.3299999 27:3.47 28:8.3299999 29:5.5599999 30:7.6399999 31:4.8600001 32:4.1700001 33:3.47 34:2.0799999 35:4.1700001 36:4.1700001 37:4.8600001 38:8.3299999 39:2.0799999 40:1.39 #
-0.00010000000000000000479217360238593 1:32 2:0 3:4 4:4 5:0 6:28 7:0 8:0 9:0 10:0 11:8 12:0 13:8 14:0 15:4 16:4 17:0 18:4 19:4 20:0 21:7.9699998 22:1.65 23:3.5699999 24:3.02 25:4.9499998 26:10.44 27:2.75 28:3.3 29:4.6700001 30:11.54 31:3.8499999 32:2.75 33:6.5900002 34:3.3 35:5.2199998 36:8.5200005 37:3.5699999 38:8.5200005 39:0.81999999 40:3.02 #
-0.00010000000000000000479217360238593 1:36 2:0 3:0 4:4 5:0 6:20 7:0 8:4 9:4 10:0 11:8 12:4 13:8 14:0 15:0 16:8 17:0 18:4 19:0 20:0 21:11.77 22:2.22 23:5.9699998 24:8.0200005 25:3.0699999 26:6.48 27:1.54 28:4.27 29:9.8999996 30:9.8999996 31:3.24 32:4.0999999 33:3.24 34:5.6300001 35:4.27 36:5.29 37:3.4100001 38:3.0699999 39:0.68000001 40:3.9200001 #
-0.00010000000000000000479217360238593 1:12 2:0 3:0 4:4 5:8 6:48 7:0 8:0 9:4 10:4 11:4 12:4 13:0 14:0 15:0 16:4 17:8 18:0 19:0 20:0 21:9.2399998 22:1.63 23:3.26 24:3.26 25:3.26 26:12.5 27:1.09 28:3.26 29:3.26 30:14.67 31:4.3499999 32:5.98 33:3.26 34:3.26 35:4.8899999 36:4.3499999 37:9.2399998 38:3.8 39:1.63 40:3.8 #
-0.00010000000000000000479217360238593 1:20 2:0 3:4 4:0 5:4 6:16 7:0 8:4 9:12 10:0 11:4 12:0 13:8 14:0 15:4 16:12 17:8 18:4 19:0 20:0 21:9.6899996 22:1.04 23:3.1099999 24:3.46 25:5.8800001 26:10.38 27:1.04 28:4.8400002 29:4.8400002 30:11.76 31:3.46 32:2.77 33:3.46 34:3.1099999 35:6.5700002 36:4.8400002 37:8.6499996 38:6.23 39:0.69 40:4.1500001 #
-0.00010000000000000000479217360238593 1:56 2:0 3:4 4:0 5:0 6:4 7:0 8:0 9:0 10:4 11:8 12:0 13:16 14:4 15:0 16:0 17:4 18:0 19:0 20:0 21:7.8200002 22:1.95 23:1.95 24:2.28 25:6.5100002 26:11.07 27:4.5599999 28:5.21 29:5.21 30:10.42 31:4.23 32:2.28 33:4.23 34:2.6099999 35:5.8600001 36:4.23 37:7.4899998 38:6.5100002 39:0.33000001 40:5.21 #
0.0018899999999999999699545893960817 1:4 2:0 3:8 4:8 5:8 6:0 7:0 8:0 9:0 10:12 11:4 12:12 13:8 14:4 15:8 16:4 17:16 18:4 19:0 20:0 21:5.2600002 22:3.51 23:5.8499999 24:9.3599997 25:3.51 26:2.9200001 27:0.57999998 28:7.5999999 29:9.3599997 30:6.4299998 31:0.57999998 32:9.3599997 33:2.9200001 34:6.4299998 35:7.02 36:4.6799998 37:7.5999999 38:2.3399999 39:1.75 40:2.9200001 #
0.0010485321959325670689022746984165 1:4 2:16 3:4 4:4 5:0 6:4 7:0 8:4 9:4 10:4 11:4 12:16 13:0 14:20 15:4 16:4 17:0 18:4 19:0 20:4 21:2.22 22:6.6700001 23:4.4400001 24:6.6700001 25:2.22 26:2.22 27:2.22 28:0 29:8.8900003 30:20 31:0 32:8.8900003 33:6.6700001 34:2.22 35:6.6700001 36:6.6700001 37:6.6700001 38:2.22 39:2.22 40:2.22 #
-0.00010000000000000000479217360238593 1:0 2:4 3:0 4:4 5:0 6:20 7:0 8:4 9:8 10:8 11:4 12:4 13:4 14:4 15:8 16:8 17:12 18:8 19:0 20:0 21:5.8000002 22:2.9000001 23:3.6199999 24:9.7799997 25:5.8000002 26:6.8800001 27:2.54 28:2.54 29:4.3499999 30:13.04 31:2.1700001 32:2.1700001 33:2.1700001 34:5.0700002 35:7.6100001 36:6.1599998 37:4.3499999 38:9.0600004 39:1.45 40:2.54 #
0.00056062396956179044813645129252677 1:4 2:4 3:12 4:4 5:0 6:0 7:0 8:4 9:0 10:8 11:4 12:4 13:12 14:4 15:12 16:16 17:8 18:4 19:0 20:0 21:5 22:5 23:5 24:6.6700001 25:5 26:3.3299999 27:0 28:3.3299999 29:5 30:5 31:5 32:10 33:5 34:1.67 35:15 36:3.3299999 37:3.3299999 38:5 39:1.67 40:6.6700001 #
-0.00010000000000000000479217360238593 1:12 2:0 3:0 4:4 5:0 6:4 7:4 8:4 9:12 10:16 11:8 12:4 13:4 14:0 15:8 16:4 17:12 18:0 19:0 20:4 21:6.4000001 22:0.57999998 23:3.49 24:2.3299999 25:6.4000001 26:4.0700002 27:1.74 28:5.8099999 29:7.5599999 30:9.8800001 31:2.9100001 32:5.8099999 33:5.8099999 34:3.49 35:4.0700002 36:5.8099999 37:3.49 38:10.47 39:4.0700002 40:5.8099999 #
-0.00010000000000000000479217360238593 1:0 2:0 3:4 4:0 5:16 6:0 7:0 8:12 9:16 10:8 11:4 12:4 13:4 14:4 15:12 16:12 17:0 18:4 19:0 20:0 21:7.5999999 22:1.9 23:4.75 24:7.8400002 25:2.3800001 26:5.23 27:0.94999999 28:7.5999999 29:9.0299997 30:9.5 31:2.1400001 32:6.1799998 33:4.2800002 34:4.9899998 35:4.2800002 36:6.6500001 37:5.23 38:4.9899998 39:0.94999999 40:3.5599999 #
-0.00010000000000000000479217360238593 1:0 2:4 3:4 4:0 5:4 6:0 7:4 8:16 9:4 10:4 11:4 12:8 13:4 14:8 15:12 16:12 17:4 18:0 19:0 20:8 21:3.4300001 22:0.86000001 23:4.0799999 24:7.73 25:4.29 26:4.29 27:3.4300001 28:6.8699999 29:7.9400001 30:12.02 31:2.79 32:5.5799999 33:4.5100002 34:3.6500001 35:3.6500001 36:7.3000002 37:5.5799999 38:4.9400001 39:0.43000001 40:6.6500001 #
-0.00010000000000000000479217360238593 1:0 2:4 3:0 4:0 5:12 6:0 7:0 8:4 9:4 10:20 11:4 12:4 13:8 14:0 15:16 16:16 17:4 18:4 19:0 20:0 21:6.7199998 22:0.40000001 23:5.5300002 24:3.95 25:5.1399999 26:3.1600001 27:1.98 28:6.7199998 29:9.4899998 30:11.46 31:1.98 32:6.3200002 33:5.5300002 34:4.7399998 35:4.3499999 36:6.7199998 37:5.1399999 38:6.7199998 39:1.1900001 40:2.77 #
-0.00010000000000000000479217360238593 1:0 2:0 3:4 4:0 5:8 6:0 7:4 8:0 9:12 10:12 11:4 12:4 13:4 14:0 15:8 16:12 17:4 18:12 19:4 20:8 21:3.5999999 22:1.03 23:5.6599998 24:4.3699999 25:4.3699999 26:5.9099998 27:3.0799999 28:7.46 29:6.4299998 30:9.5100002 31:1.03 32:6.1700001 33:6.9400001 34:3.5999999 35:4.3699999 36:9.5100002 37:7.1999998 38:7.1999998 39:0.76999998 40:1.8 #
0.0018899999999999999699545893960817 1:32 2:4 3:0 4:0 5:0 6:16 7:0 8:0 9:4 10:8 11:4 12:0 13:0 14:0 15:12 16:8 17:0 18:8 19:4 20:0 21:6.3600001 22:0.98000002 23:4.4000001 24:8.5600004 25:8.0699997 26:6.5999999 27:3.1800001 28:4.8899999 29:9.0500002 30:8.8000002 31:3.4200001 32:2.6900001 33:1.96 34:4.8899999 35:5.3800001 36:6.3600001 37:5.6199999 38:5.1300001 39:1.47 40:2.2 #
0.0018899999999999999699545893960817 1:8 2:8 3:0 4:0 5:0 6:24 7:0 8:0 9:0 10:16 11:4 12:0 13:8 14:4 15:12 16:8 17:0 18:4 19:4 20:0 21:7.6900001 22:2.8 23:4.9000001 24:7.23 25:4.6599998 26:10.72 27:3.26 28:2.8 29:5.1300001 30:8.1599998 31:1.86 32:1.86 33:5.5900002 34:3.96 35:7.6900001 36:6.7600002 37:4.4299998 38:6.0599999 39:2.3299999 40:2.0999999 #
0.0018302410409272024116589250297693 1:16 2:0 3:0 4:8 5:0 6:8 7:0 8:0 9:4 10:8 11:4 12:4 13:24 14:0 15:4 16:4 17:0 18:16 19:0 20:0 21:7.8699999 22:1.85 23:6.9400001 24:6.9400001 25:3.7 26:6.02 27:2.3099999 28:6.02 29:9.2600002 30:10.65 31:3.7 32:2.3099999 33:6.02 34:2.3099999 35:5.5599999 36:6.48 37:5.5599999 38:4.6300001 39:0 40:1.85 #
-0.00010000000000000000479217360238593 1:0 2:0 3:4 4:20 5:4 6:12 7:0 8:0 9:0 10:4 11:4 12:0 13:0 14:0 15:16 16:16 17:4 18:16 19:0 20:0 21:8.1000004 22:1.9 23:2.3800001 24:11.43 25:1.9 26:5.71 27:3.8099999 28:2.3800001 29:7.6199999 30:7.6199999 31:1.9 32:1.9 33:5.71 34:6.1900001 35:9.5200005 36:10.95 37:3.3299999 38:5.2399998 39:0 40:2.3800001 #
-0.00010000000000000000479217360238593 1:16 2:0 3:0 4:0 5:0 6:0 7:0 8:0 9:0 10:12 11:8 12:4 13:0 14:4 15:16 16:20 17:4 18:16 19:0 20:0 21:7.5799999 22:0.94999999 23:8.5299997 24:8.5299997 25:5.6900001 26:4.27 27:2.8399999 28:2.8399999 29:5.6900001 30:8.5299997 31:0.94999999 32:3.79 33:6.1599998 34:5.21 35:3.79 36:6.6399999 37:3.79 38:10.43 39:0 40:3.79 #
-0.00010000000000000000479217360238593 1:4 2:8 3:8 4:12 5:0 6:0 7:0 8:0 9:12 10:8 11:4 12:0 13:8 14:4 15:4 16:8 17:4 18:16 19:0 20:0 21:6.8200002 22:9.0900002 23:9.0900002 24:6.8200002 25:4.5500002 26:6.8200002 27:9.0900002 28:2.27 29:13.64 30:4.5500002 31:0 32:0 33:0 34:4.5500002 35:2.27 36:2.27 37:4.5500002 38:4.5500002 39:2.27 40:6.8200002 #
-0.00010000000000000000479217360238593 1:12 2:0 3:0 4:12 5:0 6:8 7:0 8:4 9:4 10:12 11:8 12:0 13:4 14:4 15:0 16:0 17:4 18:20 19:4 20:4 21:5.7399998 22:1.64 23:18.030001 24:27.049999 25:3.28 26:3.28 27:5.7399998 28:0.81999999 29:6.5599999 30:6.5599999 31:0 32:2.46 33:1.64 34:5.7399998 35:2.46 36:0 37:3.28 38:3.28 39:0 40:2.46 #
-0.00010000000000000000479217360238593 1:8 2:4 3:0 4:0 5:4 6:4 7:0 8:0 9:0 10:4 11:4 12:4 13:4 14:4 15:28 16:12 17:4 18:16 19:0 20:0 21:16.15 22:0 23:5.5900002 24:8.0699997 25:3.73 26:6.21 27:8.0699997 28:2.48 29:6.8299999 30:6.8299999 31:0.62 32:3.73 33:4.3499999 34:4.3499999 35:3.1099999 36:4.3499999 37:3.1099999 38:4.9699998 39:1.24 40:6.21 #
0.0018899999999999999699545893960817 1:12 2:4 3:0 4:4 5:0 6:0 7:0 8:8 9:20 10:16 11:4 12:4 13:4 14:0 15:8 16:8 17:4 18:0 19:0 20:4 21:7.4200001 22:1.24 23:6.3600001 24:6.71 25:2.6500001 26:6.71 27:1.59 28:5.6500001 29:8.8299999 30:9.7200003 31:1.59 32:4.5900002 33:5.8299999 34:3.3599999 35:4.2399998 36:6.0100002 37:5.1199999 38:8.1300001 39:1.0599999 40:3.1800001 #
0.0018899999999999999699545893960817 1:4 2:0 3:12 4:8 5:0 6:8 7:0 8:12 9:12 10:4 11:8 12:4 13:8 14:4 15:4 16:4 17:4 18:0 19:0 20:4 21:5.4899998 22:3.6600001 23:5.4899998 24:7.3200002 25:3.6600001 26:7.3200002 27:1.83 28:2.4400001 29:9.7600002 30:7.9299998 31:1.83 32:6.0999999 33:5.4899998 34:4.27 35:5.4899998 36:7.3200002 37:4.27 38:3.6600001 39:3.6600001 40:3.05 #
-0.00010000000000000000479217360238593 1:40 2:0 3:0 4:0 5:0 6:12 7:0 8:0 9:0 10:16 11:4 12:0 13:4 14:4 15:8 16:4 17:0 18:4 19:4 20:0 21:6.5500002 22:1.09 23:3.27 24:6.9099998 25:3.6400001 26:7.6399999 27:1.8200001 28:4 29:4 30:9.0900002 31:2.1800001 32:3.27 33:7.6399999 34:3.6400001 35:8.7299995 36:5.8200002 37:6.5500002 38:9.0900002 39:2.55 40:2.55 #
-0.00010000000000000000479217360238593 1:36 2:0 3:0 4:0 5:0 6:4 7:4 8:0 9:8 10:8 11:4 12:0 13:20 14:0 15:8 16:4 17:4 18:0 19:0 20:0 21:6.29 22:2.0999999 23:3.8499999 24:3.8499999 25:4.5500002 26:11.54 27:2.0999999 28:5.5900002 29:6.29 30:9.79 31:2.0999999 32:3.5 33:4.1999998 34:3.8499999 35:6.9899998 36:3.8499999 37:5.9400001 38:9.0900002 39:1.05 40:3.5 #
-0.00010000000000000000479217360238593 1:32 2:0 3:8 4:8 5:0 6:12 7:0 8:0 9:4 10:8 11:4 12:0 13:12 14:4 15:0 16:4 17:0 18:4 19:0 20:0 21:5.98 22:0 23:4.27 24:12.82 25:5.1300001 26:7.6900001 27:0 28:3.4200001 29:3.4200001 30:14.53 31:4.27 32:0.85000002 33:5.98 34:7.6900001 35:5.1300001 36:5.98 37:5.98 38:4.27 39:1.71 40:0.85000002 #
-0.00010000000000000000479217360238593 1:28 2:0 3:4 4:0 5:0 6:8 7:0 8:0 9:0 10:0 11:4 12:8 13:12 14:4 15:0 16:24 17:4 18:4 19:0 20:0 21:6.8800001 22:2.4300001 23:7.29 24:6.48 25:2.8299999 26:4.8600001 27:2.8299999 28:4.4499998 29:6.48 30:4.0500002 31:2.8299999 32:3.6400001 33:7.6900001 34:3.6400001 35:7.29 36:8.1000004 37:4.4499998 38:4.8600001 39:4.8600001 40:4.0500002 #
-0.00010000000000000000479217360238593 1:28 2:4 3:4 4:0 5:0 6:12 7:0 8:8 9:4 10:8 11:4 12:4 13:4 14:4 15:0 16:4 17:8 18:4 19:0 20:0 21:7.9699998 22:2.9000001 23:2.9000001 24:3.6199999 25:6.8800001 26:9.4200001 27:0.36000001 28:4.3499999 29:6.52 30:10.87 31:3.6199999 32:2.9000001 33:3.99 34:4.3499999 35:4.3499999 36:7.9699998 37:5.0700002 38:6.52 39:0.72000003 40:4.71 #
0.00046370278470505232014386987060561 1:4 2:4 3:8 4:20 5:8 6:4 7:0 8:0 9:4 10:4 11:12 12:8 13:0 14:8 15:0 16:4 17:0 18:12 19:0 20:0 21:10.68 22:5.8299999 23:8.25 24:4.8499999 25:3.4000001 26:9.71 27:3.4000001 28:1.46 29:9.71 30:8.7399998 31:2.4300001 32:3.8800001 33:2.9100001 34:4.8499999 35:3.4000001 36:3.8800001 37:2.4300001 38:3.8800001 39:0.49000001 40:5.8299999 #
0.0018899999999999999699545893960817 1:4 2:0 3:0 4:0 5:4 6:4 7:0 8:4 9:8 10:12 11:8 12:4 13:0 14:8 15:8 16:24 17:4 18:4 19:4 20:0 21:8.6000004 22:0.37 23:5.98 24:5.4200001 25:4.3000002 26:5.98 27:1.3099999 28:4.6700001 29:9.1599998 30:10.47 31:1.5 32:3.9300001 33:3.9300001 34:3.1800001 35:4.3000002 36:6.9200001 37:5.79 38:8.04 39:1.12 40:5.0500002 #
0.0018899999999999999699545893960817 1:4 2:4 3:0 4:4 5:0 6:4 7:0 8:4 9:16 10:8 11:4 12:0 13:4 14:4 15:8 16:12 17:12 18:12 19:0 20:0 21:5.3000002 22:0.37 23:6.5799999 24:5.48 25:3.6600001 26:5.8499999 27:1.83 28:6.7600002 29:6.9499998 30:8.96 31:1.28 32:6.5799999 33:5.8499999 34:2.9300001 35:5.1199999 36:10.6 37:6.0300002 38:5.48 39:0.37 40:4.02 #
-0.00010000000000000000479217360238593 1:0 2:0 3:0 4:0 5:8 6:4 7:0 8:20 9:16 10:12 11:4 12:16 13:4 14:0 15:0 16:4 17:0 18:12 19:0 20:0 21:3.3399999 22:0.94999999 23:3.6600001 24:7.6300001 25:3.02 26:4.77 27:1.59 28:7.9499998 29:7.3099999 30:9.6999998 31:1.91 32:10.33 33:2.7 34:7.3099999 35:2.3800001 36:11.45 37:5.25 38:5.8800001 39:0.16 40:2.7 #
-0.00010000000000000000479217360238593 1:0 2:4 3:4 4:0 5:8 6:0 7:4 8:8 9:20 10:12 11:8 12:0 13:8 14:4 15:4 16:8 17:0 18:4 19:0 20:4 21:3.1199999 22:2.02 23:6.0700002 24:5.5100002 25:5.5100002 26:5.8800001 27:1.29 28:10.11 29:11.4 30:8.8199997 31:1.47 32:11.03 33:2.21 34:2.21 35:2.9400001 36:6.9899998 37:3.49 38:4.23 39:0.18000001 40:5.5100002 #
0.00027400269803183000677515579468491 1:12 2:0 3:0 4:12 5:4 6:4 7:0 8:4 9:4 10:0 11:12 12:0 13:8 14:8 15:4 16:8 17:8 18:8 19:0 20:4 21:5.1700001 22:6.9000001 23:3.45 24:6.9000001 25:3.45 26:6.9000001 27:0 28:1.72 29:10.34 30:8.6199999 31:3.45 32:8.6199999 33:3.45 34:5.1700001 35:3.45 36:5.1700001 37:1.72 38:10.34 39:1.72 40:3.45 #
-0.00010000000000000000479217360238593 1:0 2:8 3:4 4:0 5:12 6:8 7:4 8:4 9:8 10:12 11:4 12:8 13:0 14:0 15:8 16:12 17:4 18:4 19:0 20:0 21:5.75 22:3.01 23:6.0300002 24:5.75 25:4.1100001 26:6.8499999 27:2.1900001 28:6.8499999 29:7.1199999 30:10.14 31:2.74 32:4.3800001 33:4.3800001 34:1.92 35:6.8499999 36:6.5799999 37:6.5799999 38:7.1199999 39:0.27000001 40:1.37 #
-0.00010000000000000000479217360238593 1:4 2:8 3:12 4:8 5:4 6:0 7:0 8:4 9:12 10:16 11:4 12:4 13:0 14:4 15:8 16:0 17:4 18:4 19:0 20:4 21:5.1199999 22:3.4100001 23:7.04 24:3.2 25:6.6100001 26:7.04 27:1.71 28:6.4000001 29:8.7399998 30:8.96 31:1.28 32:7.04 33:2.77 34:3.6199999 35:4.9000001 36:8.7399998 37:5.54 38:4.2600002 39:0.85000002 40:2.77 #
0.0018899999999999999699545893960817 1:20 2:0 3:4 4:0 5:0 6:4 7:4 8:8 9:4 10:4 11:4 12:4 13:8 14:0 15:0 16:16 17:12 18:8 19:0 20:0 21:2.47 22:9.8800001 23:8.6400003 24:8.6400003 25:3.7 26:4.9400001 27:1.23 28:0 29:13.58 30:9.8800001 31:4.9400001 32:4.9400001 33:4.9400001 34:3.7 35:4.9400001 36:0 37:2.47 38:6.1700001 39:0 40:4.9400001 #
-0.00010000000000000000479217360238593 1:4 2:4 3:4 4:0 5:8 6:12 7:0 8:0 9:4 10:0 11:12 12:0 13:12 14:8 15:4 16:8 17:0 18:16 19:0 20:4 21:9.2600002 22:5.5599999 23:0 24:1.85 25:7.4099998 26:25.93 27:0 28:7.4099998 29:1.85 30:5.5599999 31:12.96 32:0 33:0 34:1.85 35:7.4099998 36:3.7 37:7.4099998 38:1.85 39:0 40:0 #
-0.00010000000000000000479217360238593 1:28 2:8 3:0 4:0 5:0 6:4 7:0 8:4 9:4 10:4 11:4 12:0 13:0 14:0 15:4 16:4 17:8 18:28 19:0 20:0 21:7.5500002 22:0.41999999 23:6.29 24:7.3400002 25:3.98 26:8.8100004 27:2.52 28:6.0799999 29:6.71 30:10.9 31:3.5599999 32:2.52 33:3.5599999 34:1.6799999 35:4.4000001 36:8.3900003 37:4.6100001 38:7.9699998 39:0.83999997 40:1.89 #
-0.00010000000000000000479217360238593 1:8 2:0 3:8 4:0 5:4 6:12 7:0 8:0 9:8 10:0 11:4 12:8 13:8 14:4 15:4 16:8 17:4 18:16 19:0 20:4 21:9.1499996 22:2.3699999 23:2.03 24:4.4099998 25:7.46 26:8.8100004 27:3.3900001 28:3.73 29:5.7600002 30:11.19 31:2.03 32:2.03 33:4.0700002 34:5.4200001 35:5.7600002 36:6.7800002 37:4.4099998 38:6.4400001 39:0.68000001 40:4.0700002 #
-0.00010000000000000000479217360238593 1:24 2:0 3:0 4:0 5:0 6:0 7:4 8:0 9:0 10:8 11:8 12:0 13:12 14:0 15:12 16:12 17:0 18:20 19:0 20:0 21:5.9200001 22:0.28 23:4.79 24:6.1999998 25:5.9200001 26:7.3200002 27:4.23 28:7.8899999 29:5.6300001 30:7.04 31:1.13 32:2.25 33:7.04 34:2.8199999 35:7.3200002 36:5.9200001 37:4.79 38:9.0100002 39:1.6900001 40:2.8199999 #
-0.00010000000000000000479217360238593 1:0 2:4 3:16 4:20 5:4 6:4 7:0 8:0 9:4 10:0 11:8 12:0 13:0 14:4 15:0 16:12 17:4 18:16 19:4 20:0 21:5.6799998 22:2.27 23:1.14 24:5.6799998 25:7.9499998 26:7.9499998 27:2.27 28:3.4100001 29:5.6799998 30:12.5 31:2.27 32:6.8200002 33:4.5500002 34:1.14 35:5.6799998 36:11.36 37:2.27 38:6.8200002 39:2.27 40:2.27 #
-0.00010000000000000000479217360238593 1:0 2:0 3:4 4:12 5:0 6:4 7:0 8:0 9:8 10:20 11:4 12:0 13:4 14:8 15:20 16:4 17:4 18:0 19:4 20:4 21:1.9400001 22:0 23:2.9100001 24:6.8000002 25:5.8299999 26:2.9100001 27:5.8299999 28:8.7399998 29:7.77 30:6.8000002 31:0.97000003 32:1.9400001 33:11.65 34:3.8800001 35:4.8499999 36:2.9100001 37:6.8000002 38:8.7399998 39:2.9100001 40:5.8299999 #
-0.00010000000000000000479217360238593 1:8 2:0 3:0 4:0 5:8 6:4 7:0 8:4 9:4 10:16 11:4 12:8 13:12 14:0 15:4 16:4 17:4 18:20 19:0 20:0 21:4.1900001 22:1.2 23:4.79 24:4.79 25:5.9899998 26:5.3899999 27:1.2 28:7.7800002 29:7.7800002 30:11.38 31:1.8 32:6.5900002 33:4.79 34:2.4000001 35:2.99 36:9.5799999 37:4.1900001 38:3.5899999 39:1.2 40:8.3800001 #
-0.00010000000000000000479217360238593 1:8 2:0 3:0 4:0 5:4 6:8 7:4 8:4 9:4 10:16 11:4 12:0 13:0 14:20 15:8 16:12 17:0 18:4 19:0 20:4 21:9.7700005 22:0 23:9.3000002 24:11.63 25:4.6500001 26:3.26 27:0.47 28:6.0500002 29:13.49 30:9.3000002 31:4.1900001 32:2.3299999 33:3.72 34:4.1900001 35:5.5799999 36:3.26 37:3.26 38:4.1900001 39:0 40:1.4 #
-0.00010000000000000000479217360238593 1:8 2:0 3:0 4:0 5:0 6:0 7:0 8:4 9:8 10:16 11:4 12:0 13:8 14:16 15:16 16:4 17:12 18:0 19:0 20:4 21:7.25 22:0.88999999 23:7.8899999 24:8.3999996 25:2.54 26:5.3400002 27:1.4 28:7.5100002 29:8.7799997 30:11.2 31:1.91 32:3.8199999 33:3.4400001 34:2.9300001 35:7.1199999 36:5.73 37:5.0900002 38:6.7399998 39:0.25 40:1.78 #
-0.00010000000000000000479217360238593 1:4 2:0 3:0 4:0 5:4 6:4 7:4 8:4 9:0 10:4 11:4 12:0 13:0 14:4 15:20 16:20 17:20 18:0 19:0 20:8 21:7.8800001 22:0.25 23:4.9299998 24:10.1 25:4.4299998 26:6.6500001 27:0.74000001 28:5.6700001 29:10.59 30:6.6500001 31:1.23 32:2.96 33:2.46 34:4.1900001 35:6.6500001 36:7.1399999 37:6.4000001 38:7.1399999 39:1.23 40:2.71 #
0.0018899999999999999699545893960817 1:24 2:4 3:0 4:0 5:4 6:0 7:0 8:0 9:4 10:4 11:4 12:0 13:12 14:8 15:16 16:8 17:4 18:8 19:0 20:0 21:11.85 22:1.11 23:6.48 24:7.4099998 25:3.1500001 26:7.96 27:2.22 28:5.7399998 29:6.48 30:8.6999998 31:1.11 32:3.1500001 33:4.2600002 34:3.3299999 35:7.2199998 36:4.4400001 37:3.52 38:8.6999998 39:1.48 40:1.67 #
-0.00010000000000000000479217360238593 1:20 2:0 3:12 4:0 5:4 6:12 7:0 8:8 9:12 10:0 11:8 12:0 13:0 14:0 15:4 16:8 17:4 18:4 19:4 20:0 21:5.5900002 22:0 23:9.0900002 24:13.99 25:4.1999998 26:2.8 27:0.69999999 28:5.5900002 29:13.29 30:6.9899998 31:0.69999999 32:2.8 33:4.1999998 34:3.5 35:4.9000001 36:4.9000001 37:4.1999998 38:5.5900002 39:1.4 40:5.5900002 #
-0.00010000000000000000479217360238593 1:12 2:0 3:0 4:4 5:0 6:8 7:0 8:8 9:16 10:4 11:4 12:4 13:16 14:0 15:4 16:12 17:4 18:0 19:0 20:4 21:4.6399999 22:0.88 23:6.4000001 24:9.2700005 25:3.3099999 26:4.8600001 27:1.1 28:8.8299999 29:8.3900003 30:7.5100002 31:1.1 32:4.1900001 33:7.5100002 34:4.1900001 35:4.8600001 36:6.8400002 37:4.8600001 38:6.6199999 39:1.55 40:3.0899999 #
-0.00010000000000000000479217360238593 1:24 2:4 3:0 4:0 5:4 6:4 7:0 8:8 9:0 10:0 11:8 12:8 13:4 14:0 15:4 16:12 17:4 18:4 19:4 20:8 21:6.6700001 22:2.22 23:4.4400001 24:8.8900003 25:2.22 26:2.22 27:4.4400001 28:2.22 29:13.33 30:8.8900003 31:0 32:4.4400001 33:8.8900003 34:2.22 35:6.6700001 36:6.6700001 37:4.4400001 38:8.8900003 39:2.22 40:0 #
-0.00010000000000000000479217360238593 1:16 2:0 3:4 4:4 5:4 6:4 7:0 8:12 9:12 10:8 11:4 12:4 13:4 14:8 15:4 16:0 17:4 18:4 19:4 20:0 21:11.03 22:0.74000001 23:6.6199999 24:11.76 25:2.9400001 26:0.74000001 27:0.74000001 28:4.4099998 29:12.5 30:8.0900002 31:2.21 32:5.1500001 33:7.3499999 34:2.21 35:1.47 36:5.1500001 37:3.6800001 38:5.8800001 39:2.9400001 40:4.4099998 #
-0.00010000000000000000479217360238593 1:16 2:4 3:0 4:0 5:8 6:4 7:0 8:0 9:8 10:8 11:4 12:4 13:20 14:4 15:8 16:8 17:0 18:0 19:0 20:4 21:8.6499996 22:0 23:7.6900001 24:8.6499996 25:5.77 26:1.92 27:6.73 28:3.8499999 29:9.6199999 30:4.8099999 31:2.8800001 32:4.8099999 33:4.8099999 34:0.95999998 35:3.8499999 36:4.8099999 37:4.8099999 38:8.6499996 39:4.8099999 40:1.92 #
-0.00010000000000000000479217360238593 1:4 2:0 3:4 4:0 5:0 6:8 7:4 8:0 9:4 10:20 11:4 12:0 13:0 14:8 15:24 16:12 17:0 18:4 19:0 20:4 21:10 22:1.11 23:6.6700001 24:5.5599999 25:2.22 26:13.33 27:3.3299999 28:1.11 29:0 30:6.6700001 31:1.11 32:1.11 33:11.11 34:4.4400001 35:16.67 36:4.4400001 37:4.4400001 38:4.4400001 39:0 40:2.22 #
-1.4086568038886449882179929815607e-05 1:0 2:4 3:0 4:4 5:0 6:4 7:0 8:0 9:0 10:20 11:4 12:8 13:4 14:0 15:12 16:20 17:4 18:12 19:0 20:4 21:4.9299998 22:1.28 23:6.21 24:4.0700002 25:4.71 26:7.0700002 27:1.71 28:7.4899998 29:7.2800002 30:10.71 31:1.28 32:5.7800002 33:3.21 34:4.71 35:5.3499999 36:8.1400003 37:5.1399999 38:6.4200001 39:0.63999999 40:3.8499999 #
-0.00010000000000000000479217360238593 1:4 2:0 3:4 4:8 5:4 6:4 7:0 8:4 9:0 10:4 11:4 12:0 13:0 14:0 15:4 16:52 17:4 18:4 19:0 20:0 21:6.4899998 22:2.45 23:5.0500002 24:7.2199998 25:4.3299999 26:3.75 27:2.5999999 28:4.6199999 29:5.0500002 30:13.71 31:2.1600001 32:4.6199999 33:3.1700001 34:7.0700002 35:5.48 36:8.5100002 37:4.3299999 38:5.77 39:1.3 40:2.3099999 #
-0.00010000000000000000479217360238593 1:0 2:4 3:4 4:0 5:4 6:16 7:0 8:0 9:0 10:16 11:4 12:0 13:8 14:12 15:16 16:4 17:4 18:8 19:0 20:0 21:11.08 22:1.5 23:4.1900001 24:6.5900002 25:2.4000001 26:5.9899998 27:1.5 28:4.4899998 29:6.29 30:14.07 31:2.0999999 32:2.0999999 33:3.8900001 34:4.79 35:8.0799999 36:8.0799999 37:4.4899998 38:5.3899999 39:0.89999998 40:2.0999999 #
-0.00010000000000000000479217360238593 1:4 2:4 3:0 4:0 5:4 6:4 7:0 8:4 9:0 10:16 11:4 12:0 13:4 14:8 15:12 16:20 17:0 18:16 19:0 20:0 21:10.18 22:2.4000001 23:4.1900001 24:3.5899999 25:2.4000001 26:7.1900001 27:2.4000001 28:4.79 29:8.9799995 30:7.1900001 31:2.99 32:5.3899999 33:5.3899999 34:2.4000001 35:4.1900001 36:7.1900001 37:7.1900001 38:9.5799999 39:0 40:2.4000001 #
-0.00010000000000000000479217360238593 1:40 2:4 3:0 4:0 5:0 6:8 7:0 8:0 9:0 10:4 11:4 12:0 13:4 14:4 15:12 16:4 17:0 18:12 19:4 20:0 21:7.4699998 22:0.82999998 23:6.2199998 24:8.3000002 25:6.2199998 26:3.3199999 27:2.0699999 28:4.1500001 29:4.5599999 30:9.1300001 31:0.41 32:3.73 33:7.8800001 34:3.3199999 35:8.3000002 36:5.8099999 37:4.1500001 38:8.71 39:1.24 40:4.1500001 #
-0.00010000000000000000479217360238593 1:24 2:4 3:0 4:0 5:4 6:8 7:0 8:0 9:8 10:8 11:8 12:0 13:0 14:4 15:12 16:12 17:4 18:4 19:0 20:0 21:8.0200005 22:3.0899999 23:4.9400001 24:11.73 25:3.7 26:3.0899999 27:1.23 28:2.47 29:11.11 30:6.1700001 31:4.3200002 32:5.5599999 33:4.9400001 34:6.1700001 35:2.47 36:4.3200002 37:3.7 38:7.4099998 39:1.85 40:3.7 #
-0.00010000000000000000479217360238593 1:16 2:0 3:0 4:4 5:0 6:16 7:0 8:8 9:12 10:0 11:4 12:8 13:4 14:0 15:0 16:8 17:4 18:0 19:8 20:8 21:9.5200005 22:1.1 23:4.4000001 24:3.3 25:5.1300001 26:7.3299999 27:1.47 28:4.0300002 29:6.5900002 30:11.36 31:4.7600002 32:4.4000001 33:4.7600002 34:2.5599999 35:5.4899998 36:4.7600002 37:6.96 38:7.3299999 39:0.73000002 40:4.0300002 #
-0.00010000000000000000479217360238593 1:16 2:0 3:4 4:0 5:0 6:20 7:0 8:12 9:8 10:4 11:4 12:8 13:4 14:0 15:8 16:12 17:0 18:0 19:0 20:0 21:12.16 22:0 23:2.7 24:8.1099997 25:1.35 26:8.1099997 27:0 28:9.46 29:4.0500002 30:12.16 31:2.7 32:1.35 33:5.4099998 34:6.7600002 35:6.7600002 36:6.7600002 37:4.0500002 38:6.7600002 39:1.35 40:0 #
-0.00010000000000000000479217360238593 1:24 2:0 3:0 4:4 5:0 6:4 7:0 8:16 9:0 10:4 11:8 12:0 13:0 14:4 15:8 16:16 17:4 18:8 19:0 20:0 21:9.7799997 22:0 23:7.6100001 24:11.41 25:2.45 26:6.79 27:0.54000002 28:2.45 29:13.32 30:7.0700002 31:0.81999999 32:5.1599998 33:1.63 34:5.98 35:6.25 36:8.1499996 37:2.45 38:2.72 39:2.72 40:2.72 #
-0.00010000000000000000479217360238593 1:12 2:0 3:0 4:0 5:4 6:0 7:0 8:4 9:8 10:12 11:4 12:8 13:4 14:0 15:12 16:12 17:12 18:8 19:0 20:0 21:10.36 22:1.1799999 23:5.6199999 24:5.3299999 25:2.96 26:7.4000001 27:1.1799999 28:6.8000002 29:5.6199999 30:9.1700001 31:0.88999999 32:2.3699999 33:4.4400001 34:3.55 35:3.55 36:12.13 37:5.3299999 38:9.4700003 39:0.30000001 40:2.3699999 #
-0.00010000000000000000479217360238593 1:0 2:0 3:0 4:0 5:8 6:4 7:4 8:0 9:4 10:20 11:4 12:4 13:12 14:0 15:16 16:16 17:4 18:0 19:0 20:4 21:3.74 22:0.47 23:5.1399999 24:4.21 25:3.27 26:7.0100002 27:2.8 28:7.0100002 29:11.21 30:8.8800001 31:1.4 32:4.6700001 33:4.6700001 34:2.3399999 35:6.0700002 36:8.8800001 37:6.54 38:6.54 39:1.4 40:3.74 #
-0.00010000000000000000479217360238593 1:0 2:0 3:0 4:8 5:12 6:16 7:0 8:0 9:12 10:0 11:4 12:4 13:0 14:8 15:4 16:20 17:8 18:4 19:0 20:0 21:8.3599997 22:1.13 23:6.3699999 24:6.6599998 25:4.1100001 26:5.0999999 27:1.5599999 28:4.6700001 29:6.52 30:14.31 31:3.4000001 32:4.6700001 33:3.54 34:3.26 35:5.52 36:7.79 37:4.8200002 38:3.54 39:1.13 40:3.54 #
-0.00010000000000000000479217360238593 1:0 2:0 3:0 4:4 5:16 6:0 7:0 8:0 9:16 10:12 11:4 12:0 13:8 14:4 15:8 16:4 17:12 18:4 19:0 20:8 21:6.9200001 22:0.63 23:8.1800003 24:6.9200001 25:0.63 26:2.52 27:3.1400001 28:3.77 29:8.1800003 30:13.84 31:2.52 32:4.4000001 33:3.1400001 34:11.32 35:4.4000001 36:5.0300002 37:5.0300002 38:3.1400001 39:1.89 40:4.4000001 #
-0.00010000000000000000479217360238593 1:16 2:4 3:0 4:0 5:0 6:12 7:0 8:4 9:0 10:12 11:4 12:0 13:4 14:4 15:16 16:12 17:8 18:4 19:0 20:0 21:7.77 22:1.73 23:5.1799998 24:6.04 25:4.3200002 26:7.5999999 27:2.76 28:6.3899999 29:5.6999998 30:10.19 31:2.4200001 32:3.97 33:5.5300002 34:3.97 35:5.1799998 36:4.8400002 37:4.8400002 38:7.0799999 39:0.51999998 40:3.97 #
-0.00010000000000000000479217360238593 1:36 2:0 3:0 4:8 5:0 6:12 7:0 8:0 9:0 10:4 11:4 12:4 13:12 14:4 15:0 16:8 17:4 18:0 19:0 20:4 21:11.83 22:3.55 23:4.1399999 24:4.73 25:5.9200001 26:14.2 27:0 28:5.9200001 29:6.5100002 30:7.6900001 31:2.96 32:1.78 33:4.1399999 34:2.3699999 35:4.1399999 36:7.0999999 37:4.1399999 38:4.73 39:0.58999997 40:3.55 #
-0.00010000000000000000479217360238593 1:20 2:0 3:0 4:0 5:0 6:12 7:0 8:0 9:0 10:12 11:4 12:4 13:32 14:0 15:0 16:8 17:0 18:8 19:0 20:0 21:7.7399998 22:1.79 23:2.98 24:4.46 25:4.1700001 26:11.61 27:2.98 28:2.3800001 29:4.46 30:11.01 31:1.79 32:4.46 33:6.8499999 34:4.7600002 35:2.6800001 36:7.7399998 37:7.7399998 38:6.8499999 39:0.88999999 40:2.6800001 #
-0.00010000000000000000479217360238593 1:24 2:0 3:4 4:0 5:8 6:12 7:0 8:0 9:4 10:0 11:12 12:0 13:12 14:12 15:4 16:8 17:0 18:0 19:0 20:0 21:16.67 22:0 23:2.78 24:2.78 25:11.11 26:5.5599999 27:0 28:5.5599999 29:2.78 30:13.89 31:5.5599999 32:2.78 33:8.3299999 34:5.5599999 35:0 36:5.5599999 37:2.78 38:5.5599999 39:0 40:2.78 #
-0.00010000000000000000479217360238593 1:36 2:0 3:0 4:0 5:0 6:20 7:0 8:0 9:0 10:8 11:8 12:0 13:8 14:0 15:12 16:0 17:4 18:4 19:0 20:0 21:9.3299999 22:2 23:4.3299999 24:5.3299999 25:2.6700001 26:8.6700001 27:3.3299999 28:1.67 29:4.6700001 30:12 31:3.6700001 32:2 33:8.3299999 34:2.3299999 35:6.6700001 36:8 37:2.6700001 38:6.3299999 39:1 40:5 #
-0.00010000000000000000479217360238593 1:8 2:4 3:12 4:4 5:0 6:28 7:0 8:0 9:0 10:4 11:8 12:4 13:0 14:4 15:20 16:0 17:0 18:4 19:0 20:0 21:9.8999996 22:1.28 23:2.5599999 24:3.8299999 25:3.8299999 26:7.0300002 27:3.1900001 28:4.4699998 29:3.1900001 30:8.6300001 31:5.4299998 32:5.75 33:3.8299999 34:5.1100001 35:5.4299998 36:7.9899998 37:7.0300002 38:5.1100001 39:0.95999998 40:5.4299998 #
-0.00010000000000000000479217360238593 1:4 2:0 3:8 4:4 5:0 6:16 7:0 8:4 9:20 10:4 11:4 12:4 13:0 14:0 15:0 16:24 17:4 18:4 19:0 20:0 21:2 22:0 23:4 24:2 25:8 26:4 27:4 28:4 29:14 30:10 31:2 32:4 33:8 34:2 35:0 36:8 37:4 38:14 39:4 40:2 #
-0.00010000000000000000479217360238593 1:0 2:0 3:0 4:0 5:4 6:4 7:4 8:12 9:16 10:12 11:4 12:0 13:8 14:4 15:4 16:12 17:12 18:4 19:0 20:0 21:3.73 22:0.93000001 23:5.2800002 24:6.21 25:6.52 26:4.9699998 27:0.93000001 28:5.5900002 29:11.49 30:8.0699997 31:1.24 32:8.3900003 33:4.3499999 34:2.1700001 35:5.2800002 36:8.3900003 37:6.21 38:5.9000001 39:1.24 40:3.1099999 #
-0.00010000000000000000479217360238593 1:4 2:0 3:24 4:4 5:4 6:4 7:4 8:0 9:16 10:0 11:4 12:4 13:4 14:12 15:0 16:12 17:4 18:0 19:0 20:0 21:4.0999999 22:0.72000003 23:6.5100002 24:7.1100001 25:3.73 26:3.8599999 27:1.9299999 28:7.23 29:8.9200001 30:13.13 31:1.9299999 32:6.02 33:3.98 34:4.0999999 35:4.5799999 36:8.3100004 37:5.3000002 38:4.8200002 39:0.60000002 40:3.1300001 #
-0.00010000000000000000479217360238593 1:4 2:0 3:0 4:0 5:0 6:4 7:0 8:8 9:4 10:8 11:4 12:12 13:4 14:4 15:0 16:16 17:8 18:20 19:4 20:0 21:9.3400002 22:2.4200001 23:4.5 24:5.54 25:4.1500001 26:6.75 27:1.73 28:4.3299999 29:7.0900002 30:9.6899996 31:1.38 32:4.8400002 33:4.8400002 34:3.8099999 35:5.02 36:7.96 37:5.8800001 38:7.27 39:0.87 40:2.5999999 #
-0.00010000000000000000479217360238593 1:4 2:0 3:4 4:0 5:0 6:0 7:4 8:4 9:8 10:24 11:4 12:0 13:4 14:16 15:12 16:4 17:4 18:8 19:0 20:0 21:5.6300001 22:0.68000001 23:4.73 24:11.04 25:5.1799998 26:6.3099999 27:1.8 28:4.73 29:10.36 30:5.4099998 31:2.03 32:1.58 33:3.8299999 34:5.8600001 35:5.8600001 36:9.0100002 37:6.3099999 38:6.0799999 39:1.35 40:2.25 #
-0.00010000000000000000479217360238593 1:8 2:0 3:0 4:0 5:4 6:0 7:0 8:12 9:0 10:12 11:4 12:4 13:0 14:8 15:16 16:20 17:0 18:8 19:4 20:0 21:4.8200002 22:0 23:8.4300003 24:8.4300003 25:8.4300003 26:6.02 27:0 28:2.4100001 29:10.84 30:6.02 31:2.4100001 32:3.6099999 33:7.23 34:7.23 35:4.8200002 36:2.4100001 37:6.02 38:7.23 39:0 40:3.6099999 #
-0.00010000000000000000479217360238593 1:12 2:0 3:8 4:8 5:0 6:16 7:0 8:20 9:12 10:8 11:4 12:4 13:0 14:0 15:0 16:8 17:0 18:0 19:0 20:0 21:8.9899998 22:2.25 23:2.25 24:4.4899998 25:7.1199999 26:8.6099997 27:1.5 28:6.7399998 29:7.8699999 30:9.7399998 31:0.37 32:3.3699999 33:3.3699999 34:4.1199999 35:3 36:7.8699999 37:7.1199999 38:7.8699999 39:1.5 40:1.87 #
-0.00010000000000000000479217360238593 1:12 2:0 3:0 4:4 5:20 6:4 7:4 8:0 9:4 10:0 11:4 12:8 13:4 14:0 15:8 16:12 17:8 18:4 19:4 20:0 21:10.74 22:0.82999998 23:1.65 24:1.65 25:4.96 26:7.4400001 27:2.48 28:8.2600002 29:7.4400001 30:9.0900002 31:0.82999998 32:6.6100001 33:4.96 34:2.48 35:4.1300001 36:5.79 37:8.2600002 38:6.6100001 39:3.3099999 40:2.48 #
-0.00010000000000000000479217360238593 1:8 2:0 3:0 4:4 5:8 6:8 7:0 8:0 9:8 10:8 11:4 12:0 13:0 14:8 15:16 16:16 17:0 18:4 19:0 20:8 21:4.3000002 22:1.08 23:5.3800001 24:12.9 25:7.5300002 26:4.3000002 27:1.08 28:6.4499998 29:9.6800003 30:9.6800003 31:0 32:3.23 33:3.23 34:4.3000002 35:6.4499998 36:6.4499998 37:2.1500001 38:5.3800001 39:3.23 40:3.23 #
-0.00010000000000000000479217360238593 1:4 2:4 3:0 4:0 5:8 6:0 7:0 8:4 9:4 10:20 11:4 12:0 13:4 14:4 15:16 16:16 17:8 18:0 19:0 20:4 21:4.6199999 22:2.3099999 23:7.6900001 24:6.9200001 25:0.76999998 26:10 27:3.0799999 28:4.6199999 29:6.9200001 30:8.46 31:1.54 32:3.8499999 33:7.6900001 34:3.0799999 35:3.0799999 36:4.6199999 37:7.6900001 38:8.46 39:1.54 40:3.0799999 #
-0.00010000000000000000479217360238593 1:12 2:16 3:4 4:4 5:0 6:4 7:0 8:4 9:4 10:4 11:8 12:0 13:24 14:0 15:4 16:0 17:0 18:8 19:0 20:4 21:6.6700001 22:2.5899999 23:5.5599999 24:4.4400001 25:6.3000002 26:11.85 27:1.11 28:4.0700002 29:8.1499996 30:8.1499996 31:0.37 32:5.5599999 33:1.48 34:2.5899999 35:2.22 36:8.5200005 37:10.37 38:5.1900001 39:1.48 40:3.3299999 #
-0.00010000000000000000479217360238593 1:16 2:4 3:4 4:0 5:4 6:12 7:0 8:0 9:8 10:8 11:8 12:0 13:12 14:0 15:0 16:4 17:8 18:12 19:0 20:0 21:8.0100002 22:2.4400001 23:4.1799998 24:3.1400001 25:4.8800001 26:7.3200002 27:1.05 28:3.8299999 29:4.5300002 30:8.71 31:3.8299999 32:3.1400001 33:5.23 34:4.8800001 35:6.27 36:5.9200001 37:8.0100002 38:9.7600002 39:0.69999999 40:4.1799998 #
-0.00010000000000000000479217360238593 1:16 2:4 3:0 4:8 5:8 6:16 7:0 8:8 9:8 10:0 11:4 12:0 13:0 14:0 15:0 16:8 17:0 18:16 19:4 20:0 21:6.5700002 22:1.52 23:7.5799999 24:5.5599999 25:3.79 26:7.3200002 27:4.04 28:7.0700002 29:5.5599999 30:7.8299999 31:2.27 32:2.02 33:4.5500002 34:2.78 35:7.5799999 36:7.8299999 37:4.29 38:7.8299999 39:0.75999999 40:3.28 #
-0.00010000000000000000479217360238593 1:4 2:8 3:4 4:0 5:0 6:0 7:0 8:4 9:0 10:16 11:4 12:12 13:12 14:4 15:4 16:16 17:4 18:8 19:0 20:0 21:14.66 22:1.15 23:5.75 24:3.1600001 25:2.5899999 26:9.7700005 27:1.15 28:4.02 29:7.4699998 30:8.0500002 31:3.45 32:2.3 33:4.5999999 34:2.8699999 35:2.8699999 36:7.1799998 37:5.75 38:10.92 39:0.28999999 40:2.01 #
-0.00010000000000000000479217360238593 1:4 2:0 3:0 4:0 5:4 6:8 7:0 8:4 9:12 10:12 11:4 12:4 13:0 14:16 15:8 16:4 17:8 18:12 19:0 20:0 21:8.0200005 22:0.94 23:8.0200005 24:8.4899998 25:4.25 26:5.6599998 27:1.42 28:5.6599998 29:9.9099998 30:7.5500002 31:0.94 32:2.3599999 33:3.77 34:4.7199998 35:5.1900001 36:7.0799999 37:5.1900001 38:8.4899998 39:0 40:2.3599999 #
-0.00010000000000000000479217360238593 1:8 2:0 3:0 4:0 5:0 6:4 7:0 8:12 9:8 10:16 11:4 12:8 13:8 14:4 15:8 16:16 17:4 18:0 19:0 20:0 21:4.9499998 22:2.28 23:6.6900001 24:5.8899999 25:5.3499999 26:5.0900002 27:2.28 28:6.4299998 29:8.3000002 30:10.17 31:2.6800001 32:5.7600002 33:3.3499999 34:4.4200001 35:3.8800001 36:7.9000001 37:5.2199998 38:4.4200001 39:1.0700001 40:3.8800001 #
-0.00010000000000000000479217360238593 1:0 2:0 3:0 4:4 5:4 6:4 7:8 8:8 9:8 10:12 11:8 12:4 13:0 14:4 15:16 16:16 17:0 18:4 19:0 20:0 21:3.23 22:1.8099999 23:5.29 24:6.9699998 25:6.0599999 26:2.71 27:2.3199999 28:7.48 29:8.6499996 30:11.23 31:2.3199999 32:5.4200001 33:1.8099999 34:4.2600002 35:5.0300002 36:8.2600002 37:5.8099999 38:5.1599998 39:1.42 40:4.77 #
-0.00010000000000000000479217360238593 1:20 2:0 3:0 4:4 5:0 6:8 7:0 8:4 9:4 10:4 11:4 12:4 13:4 14:0 15:12 16:12 17:0 18:4 19:8 20:8 21:3.49 22:0 23:8.1400003 24:13.95 25:2.3299999 26:2.3299999 27:1.16 28:5.8099999 29:11.63 30:10.47 31:2.3299999 32:4.6500001 33:3.49 34:3.49 35:11.63 36:2.3299999 37:2.3299999 38:3.49 39:2.3299999 40:4.6500001 #
-0.00010000000000000000479217360238593 1:8 2:0 3:0 4:0 5:0 6:8 7:0 8:0 9:0 10:12 11:8 12:0 13:4 14:8 15:20 16:20 17:8 18:4 19:0 20:0 21:9.9799995 22:1.11 23:3.96 24:6.6599998 25:4.75 26:9.8299999 27:1.4299999 28:5.5500002 29:6.3400002 30:9.6700001 31:2.8499999 32:3.49 33:3.49 34:4.75 35:4.75 36:7.29 37:4.4400001 38:7.29 39:0.47999999 40:1.9 #
-0.00010000000000000000479217360238593 1:8 2:0 3:0 4:0 5:0 6:8 7:0 8:4 9:0 10:16 11:4 12:4 13:0 14:4 15:16 16:16 17:8 18:12 19:0 20:0 21:8.0699997 22:2.5899999 23:7.7800002 24:6.0500002 25:4.6100001 26:6.9200001 27:3.1700001 28:5.7600002 29:6.0500002 30:8.3599997 31:1.4400001 32:4.0300002 33:4.9000001 34:2.3099999 35:5.48 36:7.7800002 37:6.6300001 38:5.1900001 39:1.4400001 40:1.4400001 #
-0.00010000000000000000479217360238593 1:0 2:0 3:0 4:4 5:16 6:0 7:0 8:4 9:20 10:0 11:4 12:0 13:16 14:8 15:4 16:8 17:4 18:12 19:0 20:0 21:4.9099998 22:2.1500001 23:4.5999999 24:9.8199997 25:6.4400001 26:3.6800001 27:1.84 28:6.4400001 29:11.66 30:11.96 31:2.76 32:7.0599999 33:1.23 34:2.45 35:4.29 36:5.52 37:3.99 38:3.6800001 39:1.23 40:4.29 #
-0.00010000000000000000479217360238593 1:4 2:0 3:0 4:4 5:0 6:16 7:4 8:4 9:0 10:4 11:4 12:0 13:20 14:12 15:8 16:4 17:4 18:0 19:12 20:0 21:16.67 22:0 23:0 24:4.1700001 25:0 26:10.42 27:2.0799999 28:0 29:0 30:10.42 31:0 32:0 33:4.1700001 34:4.1700001 35:4.1700001 36:10.42 37:2.0799999 38:2.0799999 39:29.17 40:0 #
-0.00010000000000000000479217360238593 1:4 2:0 3:0 4:12 5:4 6:8 7:0 8:8 9:4 10:4 11:4 12:0 13:28 14:0 15:0 16:8 17:4 18:12 19:0 20:0 21:12.35 22:1.23 23:0 24:3.7 25:4.9400001 26:6.1700001 27:1.23 28:3.7 29:4.9400001 30:8.6400003 31:3.7 32:3.7 33:6.1700001 34:3.7 35:9.8800001 36:6.1700001 37:8.6400003 38:7.4099998 39:0 40:3.7 #
-0.00010000000000000000479217360238593 1:4 2:0 3:0 4:0 5:0 6:32 7:8 8:4 9:4 10:8 11:8 12:4 13:8 14:4 15:4 16:0 17:8 18:0 19:0 20:4 21:10.98 22:0 23:1.22 24:4.8800001 25:6.0999999 26:10.98 27:2.4400001 28:6.0999999 29:2.4400001 30:4.8800001 31:2.4400001 32:8.54 33:3.6600001 34:4.8800001 35:7.3200002 36:7.3200002 37:2.4400001 38:3.6600001 39:3.6600001 40:6.0999999 #
-0.00010000000000000000479217360238593 1:8 2:0 3:4 4:8 5:4 6:20 7:4 8:12 9:4 10:0 11:8 12:4 13:0 14:4 15:0 16:8 17:0 18:12 19:0 20:0 21:6.5700002 22:1.79 23:4.3800001 24:7.5700002 25:3.1900001 26:7.3699999 27:2.3900001 28:6.77 29:7.3699999 30:7.9699998 31:2.1900001 32:3.5899999 33:4.98 34:2.99 35:5.3800001 36:4.3800001 37:6.1799998 38:7.5700002 39:2.3900001 40:4.98 #
-0.00010000000000000000479217360238593 1:16 2:0 3:4 4:0 5:0 6:4 7:0 8:8 9:12 10:12 11:4 12:4 13:0 14:0 15:4 16:20 17:4 18:4 19:4 20:0 21:4.6999998 22:0 23:8.0500002 24:8.7200003 25:3.3599999 26:2.01 27:1.34 28:4.6999998 29:12.75 30:8.7200003 31:2.01 32:4.0300002 33:3.3599999 34:6.04 35:4.0300002 36:8.7200003 37:6.04 38:8.0500002 39:0.67000002 40:2.6800001 #
-0.00010000000000000000479217360238593 1:20 2:0 3:0 4:0 5:4 6:0 7:0 8:0 9:8 10:8 11:4 12:0 13:0 14:4 15:12 16:24 17:8 18:8 19:0 20:0 21:10.11 22:0 23:4.4899998 24:6.1799998 25:4.4899998 26:5.6199999 27:2.8099999 28:5.6199999 29:6.1799998 30:7.8699999 31:2.8099999 32:2.25 33:8.9899998 34:3.9300001 35:0.56 36:9.5500002 37:7.8699999 38:8.9899998 39:0.56 40:1.12 #
-0.00010000000000000000479217360238593 1:20 2:8 3:0 4:0 5:8 6:0 7:0 8:4 9:8 10:12 11:8 12:0 13:4 14:4 15:12 16:4 17:0 18:8 19:0 20:0 21:9.4899998 22:1.8200001 23:5.4499998 24:6.46 25:4.2399998 26:13.13 27:2.22 28:3.23 29:7.8800001 30:3.6400001 31:1.21 32:3.23 33:4.04 34:5.0500002 35:6.2600002 36:6.6700001 37:6.0599999 38:6.0599999 39:0.61000001 40:3.23 #
-0.00010000000000000000479217360238593 1:28 2:0 3:0 4:0 5:12 6:0 7:0 8:0 9:4 10:4 11:4 12:4 13:8 14:0 15:12 16:16 17:4 18:4 19:0 20:0 21:7.4899998 22:0.52999997 23:5.3499999 24:5.8800001 25:2.6700001 26:6.9499998 27:1.6 28:5.3499999 29:11.76 30:14.44 31:0 32:6.4200001 33:3.21 34:2.6700001 35:2.1400001 36:8.5600004 37:4.2800002 38:9.0900002 39:0 40:1.6 #
-0.00010000000000000000479217360238593 1:16 2:0 3:0 4:0 5:8 6:0 7:0 8:4 9:8 10:0 11:8 12:0 13:0 14:4 15:8 16:28 17:8 18:8 19:0 20:0 21:9 22:0.34999999 23:5.54 24:6.9200001 25:5.1900001 26:6.9200001 27:2.77 28:5.1900001 29:10.03 30:9 31:2.4200001 32:3.46 33:3.8099999 34:2.0799999 35:2.4200001 36:5.8800001 37:7.6100001 38:9 39:0.34999999 40:2.0799999 #
-0.00010000000000000000479217360238593 1:0 2:8 3:0 4:0 5:0 6:4 7:8 8:4 9:12 10:16 11:4 12:8 13:4 14:4 15:8 16:4 17:12 18:4 19:0 20:0 21:5.6700001 22:1.83 23:5.48 24:5.6700001 25:2.5599999 26:4.75 27:1.1 28:7.5 29:8.5900002 30:10.97 31:1.83 32:8.04 33:4.1999998 34:2.01 35:4.3899999 36:8.4099998 37:5.6700001 38:6.2199998 39:0.37 40:4.75 #
-0.00010000000000000000479217360238593 1:4 2:0 3:4 4:0 5:4 6:0 7:0 8:8 9:12 10:8 11:4 12:0 13:8 14:12 15:12 16:4 17:0 18:20 19:0 20:0 21:7.6300001 22:1.27 23:6.3600001 24:8.8999996 25:1.6900001 26:5.5100002 27:0.41999999 28:10.17 29:11.86 30:9.75 31:2.1199999 32:5.9299998 33:4.6599998 34:2.54 35:2.54 36:5.5100002 37:5.0799999 38:7.1999998 39:0.41999999 40:0.41999999 #
-0.00010000000000000000479217360238593 1:8 2:4 3:0 4:4 5:8 6:4 7:0 8:0 9:8 10:8 11:4 12:0 13:8 14:8 15:12 16:12 17:0 18:12 19:0 20:0 21:8.1300001 22:2.28 23:5.3699999 24:5.1999998 25:3.9000001 26:6.8299999 27:3.74 28:3.9000001 29:5.8499999 30:8.29 31:3.5799999 32:3.25 33:5.6900001 34:4.7199998 35:5.5300002 36:8.46 37:4.8800001 38:7.6399999 39:0.33000001 40:2.4400001 #
-0.00010000000000000000479217360238593 1:8 2:0 3:0 4:0 5:4 6:4 7:0 8:12 9:12 10:4 11:4 12:4 13:12 14:0 15:4 16:16 17:4 18:12 19:0 20:0 21:14.47 22:0 23:2.6300001 24:3.95 25:6.5799999 26:7.8899999 27:7.8899999 28:5.2600002 29:9.21 30:6.5799999 31:1.3200001 32:5.2600002 33:5.2600002 34:1.3200001 35:5.2600002 36:3.95 37:1.3200001 38:2.6300001 39:1.3200001 40:7.8899999 #
-0.00010000000000000000479217360238593 1:12 2:0 3:0 4:4 5:4 6:12 7:0 8:8 9:4 10:4 11:4 12:12 13:0 14:0 15:0 16:24 17:0 18:12 19:0 20:0 21:13 22:1.17 23:6.1700001 24:8 25:4.6700001 26:3.6700001 27:2 28:4.1700001 29:11 30:7.5 31:1.83 32:3.8299999 33:2.1700001 34:4.3299999 35:3.6700001 36:8.5 37:4.1700001 38:5.5 39:0.33000001 40:4.3299999 #
-0.00010000000000000000479217360238593 1:8 2:0 3:4 4:0 5:4 6:0 7:0 8:8 9:16 10:8 11:4 12:4 13:0 14:8 15:8 16:12 17:4 18:8 19:4 20:0 21:5.9299998 22:0.56 23:5.9299998 24:6.21 25:4.2399998 26:4.8000002 27:3.3900001 28:5.9299998 29:8.7600002 30:9.3199997 31:2.54 32:4.8000002 33:4.8000002 34:3.6700001 35:4.2399998 36:8.4700003 37:4.52 38:7.6300001 39:0.85000002 40:3.3900001 #
-0.00010000000000000000479217360238593 1:12 2:0 3:8 4:0 5:4 6:20 7:0 8:4 9:8 10:0 11:8 12:0 13:0 14:4 15:0 16:12 17:8 18:4 19:8 20:0 21:4.0999999 22:1.64 23:6.9699998 24:7.3800001 25:4.0999999 26:6.1500001 27:3.28 28:2.46 29:4.9200001 30:6.9699998 31:4.9200001 32:4.0999999 33:10.25 34:4.5100002 35:5.3299999 36:10.66 37:2.05 38:6.5599999 39:2.05 40:1.64 #
-0.00010000000000000000479217360238593 1:12 2:0 3:4 4:0 5:8 6:8 7:0 8:0 9:8 10:12 11:4 12:4 13:12 14:4 15:8 16:8 17:8 18:0 19:0 20:0 21:16.219999 22:0 23:2.7 24:10.81 25:5.4099998 26:8.1099997 27:0 28:8.1099997 29:8.1099997 30:5.4099998 31:0 32:0 33:2.7 34:8.1099997 35:2.7 36:0 37:5.4099998 38:8.1099997 39:8.1099997 40:0 #
-0.00010000000000000000479217360238593 1:20 2:0 3:8 4:8 5:0 6:4 7:0 8:0 9:0 10:0 11:4 12:4 13:12 14:0 15:0 16:24 17:12 18:4 19:0 20:0 21:12.16 22:4.0500002 23:2.7 24:4.0500002 25:6.0799999 26:10.81 27:2.03 28:6.0799999 29:4.0500002 30:4.73 31:5.4099998 32:3.3800001 33:2.7 34:4.73 35:5.4099998 36:4.73 37:8.1099997 38:7.4299998 39:1.35 40:0 #
-0.00010000000000000000479217360238593 1:20 2:0 3:4 4:0 5:8 6:12 7:0 8:8 9:4 10:12 11:4 12:8 13:0 14:0 15:0 16:8 17:4 18:8 19:0 20:0 21:12.88 22:1.23 23:8.5900002 24:7.98 25:3.6800001 26:7.3600001 27:1.23 28:4.29 29:3.0699999 30:7.3600001 31:3.6800001 32:3.0699999 33:6.75 34:9.8199997 35:6.1300001 36:3.0699999 37:2.45 38:4.9099998 39:0 40:2.45 #
-0.00010000000000000000479217360238593 1:12 2:0 3:12 4:0 5:8 6:12 7:0 8:4 9:8 10:4 11:4 12:0 13:8 14:8 15:0 16:8 17:4 18:8 19:0 20:0 21:9.71 22:0 23:2.29 24:6.8600001 25:5.1399999 26:15.43 27:1.71 28:3.4300001 29:3.4300001 30:8 31:3.4300001 32:4 33:4 34:2.29 35:9.1400003 36:6.8600001 37:3.4300001 38:7.4299998 39:1.14 40:2.29 #
0.0017647459933109316265742450013931 1:0 2:0 3:4 4:12 5:0 6:4 7:0 8:4 9:8 10:16 11:4 12:0 13:8 14:4 15:0 16:16 17:0 18:20 19:0 20:0 21:6.1199999 22:5.4400001 23:6.1199999 24:8.8400002 25:5.4400001 26:4.7600002 27:3.4000001 28:1.36 29:8.1599998 30:8.8400002 31:1.36 32:2.72 33:7.48 34:4.7600002 35:9.5200005 36:2.72 37:3.4000001 38:4.0799999 39:2.72 40:2.72 #
-0.00010000000000000000479217360238593 1:4 2:8 3:0 4:0 5:4 6:0 7:0 8:0 9:8 10:16 11:4 12:4 13:4 14:0 15:20 16:12 17:4 18:4 19:8 20:0 21:3.6300001 22:1.27 23:5.6300001 24:6.3499999 25:5.2600002 26:5.0799999 27:1.63 28:6.5300002 29:8.3500004 30:12.34 31:2 32:6.1700001 33:4.7199998 34:4.9000001 35:4.54 36:7.4400001 37:5.0799999 38:5.0799999 39:0.36000001 40:3.6300001 #
-0.00010000000000000000479217360238593 1:4 2:0 3:0 4:0 5:4 6:4 7:0 8:0 9:12 10:16 11:4 12:4 13:8 14:0 15:8 16:20 17:4 18:0 19:4 20:8 21:2.9100001 22:0.49000001 23:4.8499999 24:3.72 25:4.6900001 26:2.0999999 27:2.75 28:6.96 29:7.4400001 30:12.78 31:1.29 32:7.2800002 33:6.1500001 34:6.6300001 35:2.4300001 36:12.46 37:7.4400001 38:3.5599999 39:1.29 40:2.75 #
-0.00010000000000000000479217360238593 1:4 2:4 3:0 4:0 5:4 6:0 7:0 8:12 9:12 10:16 11:4 12:0 13:8 14:0 15:8 16:20 17:4 18:4 19:0 20:0 21:5.0999999 22:0.88999999 23:4.21 24:5.3200002 25:3.55 26:5.9899998 27:2 28:8.8699999 29:7.54 30:11.09 31:1.55 32:8.1999998 33:5.0999999 34:4.4299998 35:2.8800001 36:7.7600002 37:5.0999999 38:5.54 39:0.67000002 40:4.21 #
0.00099056014736569747425320997535891 1:12 2:0 3:4 4:12 5:4 6:0 7:0 8:0 9:4 10:12 11:12 12:12 13:8 14:8 15:4 16:4 17:0 18:4 19:0 20:0 21:3.8499999 22:7.6900001 23:3.8499999 24:3.8499999 25:3.8499999 26:1.92 27:1.92 28:5.77 29:7.6900001 30:1.92 31:11.54 32:1.92 33:1.92 34:3.8499999 35:3.8499999 36:21.15 37:5.77 38:3.8499999 39:1.92 40:1.92 #
-0.00010000000000000000479217360238593 1:8 2:4 3:0 4:0 5:8 6:4 7:0 8:4 9:8 10:12 11:4 12:8 13:0 14:4 15:12 16:16 17:0 18:4 19:0 20:4 21:4.71 22:2.1700001 23:7.6100001 24:7.25 25:6.52 26:6.52 27:1.45 28:6.1599998 29:6.8800001 30:9.4200001 31:0 32:3.6199999 33:5.8000002 34:3.6199999 35:7.25 36:6.8800001 37:4.3499999 38:2.9000001 39:1.09 40:5.8000002 #
-0.00010000000000000000479217360238593 1:24 2:0 3:0 4:0 5:0 6:12 7:0 8:0 9:4 10:12 11:4 12:4 13:4 14:4 15:12 16:0 17:0 18:16 19:4 20:0 21:4.9699998 22:0.62 23:8.6999998 24:6.8299999 25:3.1099999 26:6.21 27:3.1099999 28:1.86 29:4.9699998 30:6.21 31:4.3499999 32:4.9699998 33:12.42 34:2.48 35:5.5900002 36:1.86 37:4.3499999 38:4.9699998 39:3.73 40:8.6999998 #
-0.00010000000000000000479217360238593 1:16 2:0 3:0 4:0 5:4 6:0 7:0 8:8 9:4 10:12 11:4 12:4 13:4 14:16 15:12 16:8 17:0 18:8 19:0 20:0 21:10.91 22:1.8200001 23:3.6400001 24:5.4499998 25:3.6400001 26:7.27 27:3.6400001 28:3.6400001 29:5.4499998 30:1.8200001 31:1.8200001 32:3.6400001 33:7.27 34:5.4499998 35:5.4499998 36:3.6400001 37:5.4499998 38:10.91 39:5.4499998 40:3.6400001 #
-0.00010000000000000000479217360238593 1:20 2:0 3:0 4:0 5:0 6:16 7:0 8:0 9:0 10:16 11:4 12:4 13:4 14:4 15:16 16:8 17:0 18:8 19:0 20:0 21:7.6900001 22:3.8499999 23:3.8499999 24:7.6900001 25:0.95999998 26:8.6499996 27:3.8499999 28:4.8099999 29:5.77 30:6.73 31:1.92 32:3.8499999 33:6.73 34:3.8499999 35:4.8099999 36:6.73 37:6.73 38:7.6900001 39:1.92 40:1.92 #
-0.00010000000000000000479217360238593 1:8 2:4 3:4 4:0 5:0 6:16 7:0 8:8 9:8 10:8 11:4 12:0 13:0 14:8 15:4 16:12 17:0 18:16 19:0 20:0 21:5.8600001 22:1.95 23:4.9899998 24:4.1199999 25:7.1599998 26:4.1199999 27:3.6900001 28:6.7199998 29:5.6399999 30:9.9799995 31:4.3400002 32:4.77 33:5.4200001 34:3.25 35:5.8600001 36:7.8099999 37:4.1199999 38:5.21 39:1.3 40:3.6900001 #
-0.00010000000000000000479217360238593 1:24 2:0 3:0 4:0 5:4 6:12 7:0 8:0 9:0 10:8 11:4 12:0 13:8 14:0 15:8 16:16 17:4 18:12 19:0 20:0 21:8.8400002 22:2.01 23:5.6199999 24:5.6199999 25:2.8099999 26:6.02 27:2.4100001 28:4.02 29:6.4299998 30:7.6300001 31:1.61 32:2.01 33:6.4299998 34:2.4100001 35:6.4299998 36:10.84 37:4.02 38:10.84 39:0.80000001 40:3.21 #
-0.00010000000000000000479217360238593 1:4 2:0 3:0 4:0 5:8 6:4 7:4 8:12 9:16 10:12 11:4 12:4 13:4 14:4 15:4 16:12 17:0 18:4 19:0 20:4 21:3.03 22:1.3 23:6.9299998 24:12.99 25:2.5999999 26:6.0599999 27:2.1600001 28:8.6599998 29:8.6599998 30:9.96 31:2.5999999 32:3.9000001 33:3.03 34:3.9000001 35:2.5999999 36:6.9299998 37:6.4899998 38:4.7600002 39:0.87 40:2.5999999 #
-0.00010000000000000000479217360238593 1:4 2:0 3:4 4:0 5:8 6:4 7:4 8:0 9:12 10:12 11:4 12:4 13:0 14:12 15:12 16:0 17:8 18:12 19:0 20:0 21:6.3299999 22:1.27 23:5.0599999 24:10.13 25:1.27 26:2.53 27:2.53 28:7.5900002 29:11.39 30:11.39 31:1.27 32:6.3299999 33:3.8 34:3.8 35:5.0599999 36:6.3299999 37:6.3299999 38:6.3299999 39:0 40:1.27 #
-0.00010000000000000000479217360238593 1:8 2:0 3:0 4:8 5:12 6:0 7:8 8:4 9:16 10:8 11:8 12:0 13:8 14:0 15:0 16:12 17:4 18:4 19:0 20:0 21:4.21 22:3.1600001 23:5.2600002 24:10.53 25:6.3200002 26:8.4200001 27:5.2600002 28:7.3699999 29:6.3200002 30:8.4200001 31:1.05 32:3.1600001 33:2.1099999 34:1.05 35:4.21 36:8.4200001 37:4.21 38:8.4200001 39:0 40:2.1099999 #
-0.00010000000000000000479217360238593 1:8 2:0 3:8 4:4 5:4 6:4 7:0 8:8 9:20 10:0 11:4 12:4 13:0 14:12 15:0 16:20 17:4 18:0 19:0 20:0 21:8.0299997 22:1 23:2.3399999 24:3.6800001 25:4.3499999 26:10.37 27:1.67 28:9.3599997 29:6.3499999 30:9.3599997 31:2.6800001 32:4.6799998 33:3.6800001 34:4.6799998 35:3.3399999 36:5.6900001 37:5.6900001 38:8.6999998 39:0.67000002 40:3.6800001 #
-0.00010000000000000000479217360238593 1:4 2:0 3:0 4:0 5:12 6:0 7:0 8:8 9:8 10:16 11:4 12:4 13:12 14:4 15:12 16:8 17:4 18:0 19:0 20:4 21:8.8000002 22:1.6 23:4.8000002 24:14.4 25:4.8000002 26:7.1999998 27:0 28:6.4000001 29:5.5999999 30:8.8000002 31:2.4000001 32:3.2 33:6.4000001 34:2.4000001 35:4.8000002 36:4.8000002 37:4.8000002 38:5.5999999 39:0.80000001 40:2.4000001 #
-0.00010000000000000000479217360238593 1:12 2:8 3:0 4:0 5:0 6:4 7:0 8:0 9:0 10:16 11:4 12:0 13:16 14:0 15:20 16:4 17:0 18:12 19:4 20:0 21:13.21 22:2.26 23:4.9099998 24:7.5500002 25:4.9099998 26:8.3000002 27:0.75 28:6.4200001 29:9.0600004 30:7.9200001 31:3.02 32:4.1500001 33:2.6400001 34:4.5300002 35:2.6400001 36:4.5300002 37:5.2800002 38:5.6599998 39:0.38 40:1.89 #
-0.00010000000000000000479217360238593 1:0 2:8 3:0 4:0 5:4 6:20 7:4 8:4 9:0 10:4 11:4 12:0 13:16 14:0 15:12 16:4 17:0 18:4 19:16 20:0 21:9.1599998 22:1.59 23:3.1900001 24:7.5700002 25:5.5799999 26:6.3699999 27:1.59 28:4.7800002 29:4.7800002 30:6.3699999 31:1.59 32:3.98 33:7.9699998 34:4.3800001 35:7.9699998 36:4.3800001 37:5.98 38:6.77 39:1.59 40:4.3800001 #
-0.00010000000000000000479217360238593 1:20 2:0 3:0 4:0 5:0 6:0 7:0 8:0 9:4 10:20 11:4 12:0 13:16 14:0 15:20 16:12 17:0 18:4 19:0 20:0 21:8.8900003 22:1.73 23:3.21 24:8.8900003 25:3.95 26:8.6400003 27:3.21 28:6.6700001 29:6.6700001 30:7.6500001 31:2.72 32:3.21 33:2.72 34:4.1999998 35:4.9400001 36:6.6700001 37:4.9400001 38:6.1700001 39:1.98 40:2.96 #
-0.00010000000000000000479217360238593 1:20 2:4 3:0 4:0 5:0 6:8 7:0 8:0 9:0 10:16 11:4 12:4 13:4 14:0 15:16 16:8 17:4 18:8 19:4 20:0 21:8.5 22:1.9 23:5.2600002 24:6.2600002 25:3.6900001 26:9.5100002 27:3.6900001 28:3.1300001 29:3.02 30:9.3999996 31:2.1300001 32:3.02 33:5.1500001 34:4.1399999 35:6.71 36:5.48 37:5.3699999 38:8.1700001 39:1.6799999 40:3.8 #
-0.00010000000000000000479217360238593 1:16 2:4 3:0 4:0 5:0 6:8 7:0 8:0 9:4 10:12 11:4 12:0 13:4 14:8 15:12 16:12 17:0 18:4 19:12 20:0 21:8.71 22:2.0899999 23:5.23 24:4.5300002 25:2.79 26:8.8900003 27:4.1799998 28:4.1799998 29:4.3600001 30:8.1899996 31:2.26 32:3.48 33:6.4499998 34:5.9200001 35:6.0999999 36:5.5700002 37:4.6999998 38:7.1399999 39:1.92 40:3.3099999 #
-0.00010000000000000000479217360238593 1:12 2:0 3:0 4:0 5:4 6:8 7:0 8:16 9:4 10:8 11:4 12:12 13:4 14:4 15:0 16:12 17:0 18:4 19:0 20:8 21:5.6199999 22:1.12 23:8.9899998 24:5.6199999 25:3.3699999 26:10.11 27:1.12 28:4.4899998 29:12.36 30:5.6199999 31:0 32:7.8699999 33:4.4899998 34:2.25 35:10.11 36:4.4899998 37:2.25 38:6.7399998 39:0 40:3.3699999 #
-0.00010000000000000000479217360238593 1:8 2:0 3:4 4:0 5:0 6:8 7:4 8:8 9:8 10:16 11:4 12:0 13:4 14:8 15:0 16:8 17:4 18:16 19:0 20:0 21:6.6700001 22:3.3299999 23:10 24:10 25:10 26:6.6700001 27:0 28:3.3299999 29:20 30:3.3299999 31:0 32:0 33:0 34:3.3299999 35:6.6700001 36:0 37:0 38:6.6700001 39:0 40:10 #
-0.00010000000000000000479217360238593 1:8 2:4 3:0 4:0 5:0 6:16 7:0 8:0 9:12 10:20 11:4 12:0 13:8 14:0 15:4 16:4 17:4 18:16 19:0 20:0 21:4.0900002 22:1.17 23:6.4200001 24:4.2800002 25:3.8900001 26:8.1700001 27:1.36 28:6.23 29:8.75 30:10.89 31:2.53 32:7.1999998 33:4.8600001 34:3.1099999 35:4.4699998 36:7.1999998 37:5.8400002 38:5.8400002 39:0.77999997 40:2.9200001 #
-0.00010000000000000000479217360238593 1:8 2:4 3:4 4:12 5:0 6:8 7:0 8:0 9:16 10:12 11:4 12:0 13:12 14:0 15:0 16:4 17:0 18:16 19:0 20:0 21:2.9000001 22:1.45 23:1.45 24:1.45 25:7.25 26:7.25 27:4.3499999 28:7.25 29:8.6999998 30:8.6999998 31:2.9000001 32:2.9000001 33:2.9000001 34:1.45 35:7.25 36:11.59 37:1.45 38:4.3499999 39:1.45 40:13.04 #
-0.00010000000000000000479217360238593 1:8 2:0 3:0 4:4 5:4 6:16 7:8 8:4 9:8 10:8 11:4 12:0 13:4 14:0 15:0 16:8 17:0 18:20 19:0 20:4 21:5.1300001 22:0 23:5.1300001 24:10.26 25:5.1300001 26:10.26 27:5.1300001 28:2.5599999 29:7.6900001 30:7.6900001 31:5.1300001 32:2.5599999 33:0 34:5.1300001 35:5.1300001 36:5.1300001 37:2.5599999 38:7.6900001 39:5.1300001 40:2.5599999 #
-0.00010000000000000000479217360238593 1:16 2:12 3:0 4:0 5:4 6:8 7:0 8:0 9:4 10:16 11:4 12:0 13:0 14:8 15:8 16:8 17:4 18:8 19:0 20:0 21:12.41 22:0.55000001 23:4.23 24:10.37 25:1.91 26:3.96 27:2.1800001 28:4.6399999 29:7.6399999 30:9.8199997 31:1.5 32:2.5899999 33:4.3699999 34:6.6799998 35:5.3200002 36:8.0500002 37:5.0500002 38:6 39:0.68000001 40:2.05 #
-0.00010000000000000000479217360238593 1:20 2:4 3:0 4:0 5:0 6:8 7:0 8:8 9:8 10:12 11:4 12:4 13:4 14:0 15:8 16:12 17:4 18:0 19:0 20:4 21:7.1399999 22:0.31 23:5.1199999 24:6.8299999 25:3.1099999 26:8.2299995 27:2.1700001 28:5.4299998 29:8.2299995 30:7.3000002 31:4.04 32:3.73 33:4.3499999 34:5.9000001 35:5.75 36:5.2800002 37:6.21 38:5.5900002 39:1.86 40:3.4200001 #
-0.00010000000000000000479217360238593 1:12 2:4 3:0 4:0 5:8 6:4 7:0 8:0 9:4 10:8 11:4 12:8 13:0 14:8 15:12 16:12 17:4 18:8 19:0 20:4 21:8.21 22:0.36000001 23:5.1100001 24:10.95 25:4.0100002 26:2.55 27:1.09 28:5.1100001 29:11.68 30:9.8500004 31:1.8200001 32:4.0100002 33:5.29 34:3.47 35:3.8299999 36:8.0299997 37:5.8400002 38:5.29 39:0.36000001 40:3.0999999 #
-0.00010000000000000000479217360238593 1:8 2:4 3:0 4:0 5:4 6:0 7:4 8:4 9:8 10:8 11:4 12:8 13:0 14:4 15:16 16:8 17:4 18:4 19:8 20:4 21:4.1199999 22:0.92000002 23:6.4099998 24:7.0900002 25:6.8600001 26:5.0300002 27:2.52 28:6.4099998 29:8.9200001 30:9.1499996 31:2.97 32:6.1799998 33:5.2600002 34:4.1199999 35:4.3499999 36:5.9499998 37:4.3499999 38:4.3499999 39:1.83 40:3.2 #
-0.00010000000000000000479217360238593 1:8 2:0 3:0 4:4 5:8 6:4 7:0 8:0 9:12 10:4 11:4 12:4 13:4 14:20 15:8 16:8 17:4 18:4 19:0 20:4 21:9.4700003 22:0.34999999 23:5.96 24:4.5599999 25:3.8599999 26:7.3699999 27:1.05 28:7.3699999 29:4.9099998 30:9.8199997 31:1.05 32:4.9099998 33:3.51 34:4.9099998 35:8.7700005 36:5.6100001 37:4.5599999 38:9.4700003 39:0.34999999 40:2.1099999 #
-0.00010000000000000000479217360238593 1:8 2:0 3:4 4:0 5:4 6:20 7:0 8:4 9:12 10:12 11:4 12:4 13:0 14:0 15:8 16:4 17:8 18:8 19:0 20:0 21:9.5900002 22:0.91000003 23:5.48 24:4.5700002 25:3.6500001 26:6.8499999 27:1.83 28:4.1100001 29:5.48 30:9.5900002 31:4.1100001 32:4.5700002 33:4.5700002 34:1.37 35:4.5700002 36:9.1300001 37:5.48 38:12.79 39:0.46000001 40:0.91000003 #
-0.00010000000000000000479217360238593 1:12 2:0 3:0 4:0 5:0 6:8 7:0 8:0 9:12 10:16 11:8 12:0 13:8 14:0 15:8 16:4 17:8 18:16 19:0 20:0 21:6.4000001 22:0 23:5.23 24:7.5599999 25:4.6500001 26:5.23 27:1.74 28:10.47 29:6.4000001 30:9.3000002 31:0 32:6.4000001 33:4.0700002 34:0.57999998 35:6.98 36:8.1400003 37:7.5599999 38:5.23 39:1.16 40:2.9100001 #
-0.00010000000000000000479217360238593 1:8 2:0 3:0 4:0 5:4 6:8 7:0 8:4 9:12 10:12 11:4 12:0 13:12 14:0 15:12 16:16 17:4 18:4 19:0 20:0 21:5.4099998 22:1.38 23:5.8699999 24:6.4400001 25:5.1799998 26:5.1799998 27:1.84 28:6.79 29:8.8599997 30:7.8299999 31:2.6500001 32:5.4099998 33:5.8699999 34:3.9100001 35:3.6800001 36:6.3299999 37:5.1799998 38:6.9000001 39:2.1900001 40:3.1099999 #
-0.00010000000000000000479217360238593 1:0 2:0 3:0 4:0 5:16 6:20 7:0 8:8 9:12 10:8 11:4 12:4 13:4 14:0 15:8 16:8 17:4 18:4 19:0 20:0 21:6.5599999 22:1.5599999 23:4.0599999 24:5.3099999 25:5 26:5 27:2.5 28:7.1900001 29:5.3099999 30:9.0600004 31:3.4400001 32:5.6199999 33:5 34:3.75 35:5.6199999 36:9.6899996 37:4.0599999 38:4.6900001 39:1.5599999 40:5 #
-0.00010000000000000000479217360238593 1:8 2:0 3:0 4:0 5:4 6:0 7:0 8:4 9:8 10:8 11:4 12:4 13:8 14:0 15:12 16:12 17:12 18:16 19:0 20:0 21:7.8800001 22:0.41 23:5.3899999 24:13.28 25:6.6399999 26:2.9000001 27:1.24 28:4.1500001 29:4.5599999 30:7.8800001 31:1.66 32:8.3000002 33:3.73 34:3.3199999 35:3.3199999 36:9.96 37:4.5599999 38:6.6399999 39:0.82999998 40:3.3199999 #
-0.00010000000000000000479217360238593 1:12 2:0 3:0 4:0 5:0 6:0 7:0 8:4 9:0 10:16 11:4 12:12 13:4 14:0 15:16 16:16 17:4 18:12 19:0 20:0 21:4.21 22:0.22 23:6.8699999 24:9.3100004 25:4.8800001 26:5.3200002 27:1.77 28:4.8800001 29:11.31 30:9.5299997 31:2.8800001 32:3.77 33:5.54 34:4.4299998 35:3.77 36:7.3200002 37:4.6599998 38:3.3299999 39:1.33 40:4.6599998 #
-0.00010000000000000000479217360238593 1:24 2:0 3:0 4:4 5:0 6:4 7:0 8:8 9:0 10:4 11:4 12:0 13:0 14:0 15:4 16:20 17:12 18:12 19:4 20:0 21:6.02 22:3.6099999 23:8.4300003 24:4.8200002 25:4.8200002 26:6.02 27:6.02 28:7.23 29:14.46 30:4.8200002 31:2.4100001 32:6.02 33:3.6099999 34:1.2 35:4.8200002 36:1.2 37:3.6099999 38:4.8200002 39:1.2 40:4.8200002 #
-0.00010000000000000000479217360238593 1:8 2:4 3:4 4:0 5:4 6:16 7:0 8:4 9:8 10:16 11:4 12:4 13:12 14:4 15:0 16:4 17:0 18:8 19:0 20:0 21:7.6100001 22:1.8099999 23:2.9000001 24:3.99 25:7.6100001 26:10.51 27:0.72000003 28:5.4299998 29:5.8000002 30:9.4200001 31:3.6199999 32:2.54 33:7.6100001 34:3.6199999 35:5.0700002 36:4.3499999 37:6.52 38:6.1599998 39:1.09 40:3.6199999 #
-0.00010000000000000000479217360238593 1:20 2:0 3:0 4:0 5:4 6:8 7:0 8:0 9:0 10:16 11:4 12:0 13:0 14:0 15:16 16:16 17:12 18:4 19:0 20:0 21:5.96 22:0.66000003 23:7.2800002 24:7.2800002 25:4.6399999 26:5.3000002 27:0.66000003 28:2.6500001 29:10.6 30:9.2700005 31:3.97 32:0.66000003 33:6.6199999 34:4.6399999 35:5.3000002 36:5.96 37:3.97 38:4.6399999 39:5.3000002 40:4.6399999 #
-0.00010000000000000000479217360238593 1:8 2:0 3:4 4:4 5:0 6:4 7:0 8:0 9:12 10:0 11:4 12:8 13:8 14:16 15:0 16:24 17:8 18:0 19:0 20:0 21:6.9400001 22:0 23:4.1700001 24:1.39 25:9.7200003 26:13.89 27:0 28:5.5599999 29:5.5599999 30:8.3299999 31:2.78 32:1.39 33:1.39 34:0 35:6.9400001 36:9.7200003 37:5.5599999 38:12.5 39:2.78 40:1.39 #
-0.00010000000000000000479217360238593 1:8 2:0 3:4 4:0 5:4 6:12 7:0 8:0 9:4 10:16 11:4 12:4 13:4 14:8 15:8 16:8 17:0 18:8 19:4 20:4 21:8.1999998 22:1.8200001 23:5.0100002 24:5.6900001 25:3.3 26:5.5799999 27:3.3 28:4.5599999 29:6.7199998 30:9.5699997 31:2.51 32:2.1600001 33:5.8099999 34:5.3499999 35:4.5599999 36:6.6100001 37:6.2600002 38:6.8299999 39:2.96 40:3.1900001 #
-0.00010000000000000000479217360238593 1:12 2:0 3:0 4:0 5:12 6:0 7:0 8:8 9:4 10:8 11:4 12:0 13:8 14:0 15:20 16:8 17:4 18:12 19:0 20:0 21:7.3499999 22:2.04 23:7.3499999 24:6.1199999 25:2.45 26:7.3499999 27:2.04 28:6.9400001 29:7.7600002 30:6.9400001 31:3.6700001 32:4.0799999 33:2.8599999 34:4.4899998 35:4.0799999 36:11.02 37:4.9000001 38:6.9400001 39:0.41 40:1.22 #
-0.00010000000000000000479217360238593 1:4 2:8 3:0 4:0 5:8 6:4 7:4 8:0 9:8 10:12 11:4 12:0 13:12 14:0 15:12 16:16 17:0 18:8 19:0 20:0 21:5.3099999 22:1.55 23:4.1999998 24:8.4099998 25:6.8600001 26:7.0799999 27:3.54 28:5.5300002 29:5.3099999 30:10.4 31:1.77 32:3.76 33:4.6500001 34:4.4200001 35:5.75 36:7.0799999 37:3.76 38:7.3000002 39:0.66000003 40:2.6500001 #
-0.00010000000000000000479217360238593 1:8 2:0 3:4 4:0 5:0 6:0 7:0 8:8 9:12 10:16 11:8 12:0 13:4 14:4 15:8 16:12 17:4 18:12 19:0 20:0 21:9.8800001 22:0 23:7.4099998 24:6.1700001 25:3.7 26:9.8800001 27:0 28:6.1700001 29:9.8800001 30:8.6400003 31:0 32:6.1700001 33:4.9400001 34:6.1700001 35:1.23 36:2.47 37:3.7 38:12.35 39:0 40:1.23 #
-0.00010000000000000000479217360238593 1:16 2:0 3:0 4:0 5:0 6:8 7:0 8:0 9:4 10:24 11:4 12:0 13:12 14:0 15:16 16:4 17:4 18:0 19:8 20:0 21:9.8500004 22:1.49 23:5.3899999 24:5.5799999 25:5.1999998 26:7.9899998 27:2.4200001 28:5.02 29:6.5100002 30:7.6199999 31:1.3 32:2.97 33:5.9499998 34:4.0900002 35:4.0900002 36:7.4299998 37:4.8299999 38:7.6199999 39:1.49 40:3.1600001 #
-0.00010000000000000000479217360238593 1:12 2:0 3:0 4:0 5:4 6:4 7:0 8:8 9:8 10:12 11:16 12:4 13:0 14:4 15:12 16:16 17:0 18:0 19:0 20:0 21:7.3800001 22:0.81999999 23:3.6900001 24:6.9699998 25:5.7399998 26:7.3800001 27:0.81999999 28:5.3299999 29:8.6099997 30:5.3299999 31:0.81999999 32:4.0999999 33:6.5599999 34:4.0999999 35:6.1500001 36:8.6099997 37:6.1500001 38:6.5599999 39:0.41 40:4.5100002 #
-0.00010000000000000000479217360238593 1:8 2:0 3:8 4:0 5:0 6:12 7:4 8:8 9:12 10:12 11:4 12:0 13:0 14:0 15:0 16:16 17:0 18:12 19:4 20:0 21:3.97 22:1.66 23:5.96 24:6.9499998 25:4.3000002 26:3.6400001 27:0.99000001 28:4.9699998 29:8.6099997 30:13.58 31:1.66 32:7.6199999 33:1.99 34:5.6300001 35:3.97 36:8.9399996 37:3.97 38:5.96 39:0.99000001 40:4.6399999 #
-0.00010000000000000000479217360238593 1:4 2:0 3:0 4:0 5:4 6:12 7:0 8:4 9:8 10:12 11:4 12:0 13:4 14:0 15:4 16:16 17:4 18:16 19:4 20:4 21:2.47 22:0 23:11.11 24:4.9400001 25:1.23 26:6.1700001 27:2.47 28:4.9400001 29:6.1700001 30:4.9400001 31:1.23 32:7.4099998 33:1.23 34:4.9400001 35:7.4099998 36:6.1700001 37:6.1700001 38:8.6400003 39:6.1700001 40:6.1700001 #
-0.00010000000000000000479217360238593 1:28 2:0 3:0 4:0 5:4 6:4 7:0 8:0 9:4 10:16 11:4 12:4 13:8 14:0 15:4 16:12 17:4 18:8 19:0 20:0 21:7.79 22:0.43000001 23:2.5999999 24:7.3600001 25:3.46 26:5.1900001 27:3.03 28:6.0599999 29:8.2299995 30:9.5200005 31:2.5999999 32:3.03 33:4.3299999 34:8.2299995 35:4.3299999 36:3.46 37:5.1900001 38:9.0900002 39:0.43000001 40:5.6300001 #
-0.00010000000000000000479217360238593 1:8 2:0 3:4 4:4 5:0 6:8 7:0 8:0 9:4 10:16 11:8 12:8 13:0 14:0 15:8 16:20 17:8 18:4 19:0 20:0 21:7.9200001 22:2.6400001 23:2.9300001 24:4.4000001 25:4.9899998 26:5.5700002 27:1.17 28:7.6199999 29:6.4499998 30:8.5 31:4.1100001 32:4.9899998 33:4.1100001 34:2.9300001 35:4.9899998 36:10.26 37:6.4499998 38:4.9899998 39:2.6400001 40:2.3499999 #
-0.00010000000000000000479217360238593 1:16 2:0 3:0 4:0 5:8 6:12 7:0 8:8 9:4 10:8 11:4 12:0 13:0 14:0 15:16 16:16 17:0 18:8 19:0 20:0 21:7.5799999 22:1.46 23:5.25 24:7.5799999 25:5.54 26:7 27:1.75 28:4.3699999 29:6.71 30:8.75 31:1.75 32:4.0799999 33:5.25 34:4.3699999 35:5.54 36:7.8699999 37:4.6599998 38:6.1199999 39:1.17 40:3.21 #
-0.00010000000000000000479217360238593 1:12 2:0 3:0 4:4 5:4 6:0 7:0 8:8 9:8 10:8 11:4 12:12 13:8 14:0 15:0 16:12 17:12 18:8 19:0 20:0 21:6.9200001 22:1.04 23:1.73 24:5.1900001 25:4.5 26:12.46 27:1.04 28:5.8800001 29:7.96 30:7.6100001 31:2.77 32:5.1900001 33:3.1099999 34:3.1099999 35:4.8400002 36:6.23 37:7.27 38:7.96 39:2.4200001 40:2.77 #
-0.00010000000000000000479217360238593 1:4 2:4 3:0 4:0 5:8 6:4 7:4 8:8 9:12 10:12 11:4 12:0 13:8 14:4 15:8 16:16 17:0 18:0 19:0 20:4 21:8.3599997 22:0.73000002 23:6.1799998 24:5.6399999 25:5.8200002 26:6.9099998 27:1.45 28:5.8200002 29:7.0900002 30:7.4499998 31:2 32:5.6399999 33:5.0900002 34:4 35:3.45 36:6.73 37:5.0900002 38:6.3600001 39:1.09 40:5.0900002 #
-0.00010000000000000000479217360238593 1:4 2:0 3:0 4:4 5:4 6:4 7:4 8:0 9:8 10:20 11:4 12:4 13:4 14:8 15:8 16:16 17:0 18:4 19:0 20:4 21:9.3800001 22:1.1 23:5.52 24:7.4499998 25:3.72 26:7.8600001 27:1.9299999 28:7.1700001 29:6.48 30:8.1400003 31:3.1700001 32:3.3099999 33:4.8299999 34:4.4099998 35:5.52 36:5.0999999 37:5.0999999 38:6.3400002 39:0.97000003 40:2.48 #
-0.00010000000000000000479217360238593 1:4 2:12 3:0 4:0 5:4 6:8 7:0 8:0 9:8 10:16 11:4 12:8 13:4 14:0 15:0 16:12 17:8 18:12 19:0 20:0 21:11.59 22:1.04 23:3.49 24:3.96 25:3.3900001 26:10.93 27:1.6 28:6.6900001 29:5.5599999 30:10.74 31:3.3 32:3.5799999 33:5 34:3.2 35:2.26 36:5.9400001 37:6.5 38:7.6300001 39:0.38 40:3.2 #
-0.00010000000000000000479217360238593 1:12 2:0 3:0 4:0 5:0 6:8 7:4 8:4 9:8 10:20 11:8 12:0 13:8 14:4 15:12 16:8 17:0 18:4 19:0 20:0 21:19.610001 22:0 23:3.9200001 24:7.8400002 25:9.8000002 26:7.8400002 27:0 28:3.9200001 29:11.76 30:1.96 31:3.9200001 32:1.96 33:1.96 34:1.96 35:5.8800001 36:3.9200001 37:0 38:5.8800001 39:0 40:7.8400002 #
-0.00010000000000000000479217360238593 1:12 2:0 3:0 4:0 5:0 6:4 7:0 8:4 9:4 10:16 11:4 12:4 13:0 14:4 15:12 16:24 17:4 18:4 19:0 20:4 21:6.8600001 22:1.37 23:5.6399999 24:7.4699998 25:3.96 26:5.9499998 27:1.6799999 28:5.3400002 29:7.1599998 30:8.2299995 31:3.51 32:3.51 33:4.27 34:4.27 35:7.4699998 36:7.3200002 37:5.3400002 38:6.4000001 39:0.15000001 40:4.1199999 #
-0.00010000000000000000479217360238593 1:8 2:0 3:0 4:0 5:12 6:0 7:0 8:4 9:12 10:16 11:4 12:0 13:4 14:0 15:8 16:12 17:4 18:12 19:0 20:4 21:4.3499999 22:1.12 23:6.3200002 24:5.7600002 25:4.3499999 26:4.9200001 27:2.25 28:6.7399998 29:9.1300001 30:10.81 31:2.6700001 32:5.48 33:4.4899998 34:2.95 35:4.4899998 36:7.8699999 37:5.1999998 38:6.04 39:1.12 40:3.9300001 #
-0.00010000000000000000479217360238593 1:12 2:4 3:0 4:0 5:4 6:4 7:4 8:0 9:0 10:20 11:8 12:0 13:4 14:8 15:8 16:16 17:0 18:4 19:0 20:4 21:6.9499998 22:2.3199999 23:5.8899999 24:6.1100001 25:6.1100001 26:7.1599998 27:3.1600001 28:6.5300002 29:6.3200002 30:9.2600002 31:2.74 32:4.6300001 33:5.2600002 34:4 35:5.8899999 36:5.8899999 37:3.5799999 38:4.8400002 39:1.05 40:2.3199999 #
-0.00010000000000000000479217360238593 1:4 2:0 3:0 4:4 5:8 6:4 7:0 8:4 9:8 10:12 11:4 12:0 13:4 14:0 15:8 16:24 17:4 18:12 19:0 20:0 21:11.06 22:1.4400001 23:4.8099999 24:6.73 25:2.8800001 26:5.77 27:5.77 28:6.73 29:5.29 30:8.6499996 31:1.4400001 32:3.8499999 33:4.3299999 34:4.8099999 35:5.29 36:4.3299999 37:7.21 38:4.8099999 39:1.4400001 40:3.3699999 #
-0.00010000000000000000479217360238593 1:16 2:0 3:0 4:4 5:4 6:4 7:0 8:8 9:8 10:8 11:4 12:4 13:0 14:0 15:12 16:20 17:0 18:4 19:0 20:4 21:11.85 22:0.74000001 23:1.48 24:9.6300001 25:4.4400001 26:5.9299998 27:1.48 28:3.7 29:5.9299998 30:11.11 31:0.74000001 32:5.1900001 33:4.4400001 34:5.9299998 35:1.48 36:11.11 37:3.7 38:10.37 39:0 40:0.74000001 #
-0.00010000000000000000479217360238593 1:4 2:0 3:0 4:0 5:8 6:20 7:0 8:4 9:8 10:8 11:4 12:0 13:0 14:0 15:8 16:24 17:0 18:8 19:0 20:4 21:8.7600002 22:0.50999999 23:4.5700002 24:8.5 25:5.0799999 26:9.2600002 27:1.52 28:5.1999998 29:7.23 30:8.3800001 31:1.65 32:4.1900001 33:4.5700002 34:4.6999998 35:5.8400002 36:5.8400002 37:4.4400001 38:6.5999999 39:0.38 40:2.79 #
-0.00010000000000000000479217360238593 1:12 2:0 3:0 4:0 5:20 6:8 7:0 8:4 9:8 10:4 11:4 12:4 13:0 14:0 15:4 16:12 17:8 18:8 19:0 20:4 21:9.7600002 22:0 23:17.07 24:4.8800001 25:7.3200002 26:7.3200002 27:2.4400001 28:4.8800001 29:9.7600002 30:2.4400001 31:0 32:4.8800001 33:0 34:2.4400001 35:2.4400001 36:2.4400001 37:7.3200002 38:7.3200002 39:4.8800001 40:2.4400001 #
-0.00010000000000000000479217360238593 1:20 2:0 3:4 4:0 5:4 6:4 7:0 8:0 9:0 10:12 11:4 12:0 13:4 14:8 15:16 16:12 17:4 18:8 19:0 20:0 21:8.75 22:0.28999999 23:7 24:6.1199999 25:4.96 26:5.54 27:0.87 28:3.5 29:9.04 30:12.83 31:0 32:5.25 33:3.21 34:2.04 35:3.5 36:8.4499998 37:5.25 38:9.04 39:0 40:4.3699999 #
-0.00010000000000000000479217360238593 1:4 2:0 3:4 4:0 5:4 6:0 7:0 8:8 9:4 10:8 11:4 12:8 13:8 14:4 15:4 16:24 17:0 18:8 19:0 20:8 21:2.8499999 22:1.22 23:3.25 24:2.4400001 25:5.4899998 26:5.2800002 27:2.03 28:11.59 29:9.1499996 30:9.1499996 31:6.5 32:9.7600002 33:2.4400001 34:1.63 35:2.4400001 36:5.2800002 37:4.4699998 38:4.27 39:2.24 40:8.54 #
-0.00010000000000000000479217360238593 1:0 2:0 3:0 4:4 5:8 6:0 7:0 8:4 9:4 10:16 11:4 12:4 13:12 14:0 15:4 16:36 17:0 18:0 19:0 20:4 21:10.86 22:2 23:2.5699999 24:3.71 25:6.29 26:11.14 27:0.56999999 28:6 29:7.4299998 30:7.71 31:2.8599999 32:2.5699999 33:6.5700002 34:2.5699999 35:2.29 36:7.4299998 37:5.71 38:6 39:0.86000001 40:4.8600001 #
-0.00010000000000000000479217360238593 1:0 2:0 3:8 4:40 5:0 6:12 7:0 8:0 9:4 10:8 11:8 12:0 13:4 14:4 15:4 16:4 17:4 18:0 19:0 20:0 21:4.5500002 22:7.5799999 23:7.5799999 24:15.15 25:3.03 26:0 27:4.5500002 28:0 29:6.0599999 30:15.15 31:0 32:1.52 33:1.52 34:4.5500002 35:9.0900002 36:6.0599999 37:6.0599999 38:7.5799999 39:0 40:0 #
-0.00010000000000000000479217360238593 1:8 2:8 3:8 4:12 5:4 6:12 7:0 8:4 9:0 10:0 11:8 12:0 13:8 14:0 15:8 16:0 17:4 18:8 19:4 20:4 21:10.88 22:0.68000001 23:2.72 24:2.04 25:4.0799999 26:14.97 27:1.36 28:6.8000002 29:2.04 30:9.5200005 31:2.04 32:2.72 33:8.1599998 34:4.7600002 35:7.48 36:6.1199999 37:4.0799999 38:5.4400001 39:1.36 40:2.72 #
-0.00010000000000000000479217360238593 1:20 2:4 3:0 4:0 5:0 6:24 7:0 8:0 9:0 10:16 11:4 12:0 13:8 14:0 15:20 16:0 17:0 18:4 19:0 20:0 21:6.98 22:1.89 23:5.8099999 24:7.27 25:4.9400001 26:5.8099999 27:2.9100001 28:3.6300001 29:5.0900002 30:11.92 31:3.6300001 32:3.2 33:5.3800001 34:3.49 35:6.6900001 36:6.98 37:4.0700002 38:5.96 39:0.73000002 40:3.6300001 #
-0.00010000000000000000479217360238593 1:16 2:0 3:0 4:0 5:0 6:8 7:0 8:0 9:4 10:16 11:4 12:0 13:20 14:0 15:16 16:4 17:4 18:4 19:0 20:4 21:11.63 22:0.77999997 23:4.6500001 24:18.99 25:0.38999999 26:5.4299998 27:0.77999997 28:1.16 29:3.8800001 30:4.2600002 31:0.77999997 32:1.16 33:7.3600001 34:5.4299998 35:2.3299999 36:12.02 37:8.9099998 38:8.1400003 39:0 40:1.9400001 #
-0.00010000000000000000479217360238593 1:8 2:0 3:4 4:12 5:0 6:24 7:28 8:0 9:4 10:4 11:8 12:0 13:4 14:0 15:0 16:0 17:0 18:0 19:0 20:4 21:11.39 22:0 23:3.8 24:5.0599999 25:7.5900002 26:11.39 27:2.53 28:3.8 29:8.8599997 30:7.5900002 31:1.27 32:3.8 33:3.8 34:3.8 35:6.3299999 36:2.53 37:3.8 38:5.0599999 39:5.0599999 40:2.53 #
-0.00010000000000000000479217360238593 1:16 2:0 3:8 4:0 5:0 6:0 7:0 8:4 9:0 10:12 11:4 12:4 13:12 14:8 15:8 16:4 17:20 18:0 19:0 20:0 21:6.1199999 22:8.1599998 23:4.0799999 24:10.2 25:6.1199999 26:2.04 27:2.04 28:2.04 29:8.1599998 30:6.1199999 31:0 32:4.0799999 33:4.0799999 34:4.0799999 35:4.0799999 36:6.1199999 37:8.1599998 38:6.1199999 39:2.04 40:6.1199999 #
-0.00010000000000000000479217360238593 1:4 2:0 3:8 4:12 5:4 6:0 7:0 8:12 9:8 10:4 11:4 12:4 13:12 14:4 15:4 16:0 17:4 18:12 19:0 20:4 21:7.21 22:0.95999998 23:4.8099999 24:6.73 25:3.8499999 26:4.8099999 27:1.4400001 28:5.29 29:8.1700001 30:7.6900001 31:2.8800001 32:5.77 33:2.8800001 34:2.4000001 35:7.6900001 36:6.73 37:8.1700001 38:6.25 39:2.4000001 40:3.8499999 #
-0.00010000000000000000479217360238593 1:12 2:0 3:8 4:4 5:4 6:0 7:0 8:8 9:8 10:8 11:4 12:0 13:0 14:0 15:0 16:0 17:28 18:12 19:4 20:0 21:4.27 22:1.1799999 23:6.4000001 24:6.1599998 25:2.6099999 26:6.4000001 27:1.1799999 28:6.1599998 29:8.7700005 30:9.9499998 31:0.94999999 32:4.27 33:4.7399998 34:4.7399998 35:5.6900001 36:7.8200002 37:4.7399998 38:9.4799995 39:1.66 40:2.8399999 #
-0.00010000000000000000479217360238593 1:0 2:0 3:8 4:20 5:4 6:0 7:0 8:0 9:4 10:12 11:4 12:4 13:12 14:12 15:0 16:4 17:12 18:4 19:0 20:0 21:5.9200001 22:1.3200001 23:2.96 24:4.2800002 25:6.25 26:9.8699999 27:0.33000001 28:5.2600002 29:6.25 30:10.53 31:2.3 32:4.9299998 33:4.2800002 34:3.95 35:5.9200001 36:5.5900002 37:7.8899999 38:7.8899999 39:0.99000001 40:3.29 #
-0.00010000000000000000479217360238593 1:12 2:0 3:12 4:4 5:4 6:0 7:0 8:8 9:16 10:12 11:4 12:0 13:0 14:8 15:0 16:0 17:4 18:4 19:0 20:12 21:5.04 22:2.3499999 23:6.8299999 24:6.8299999 25:4.3699999 26:8.8500004 27:2.02 28:6.0500002 29:6.7199998 30:9.7399998 31:3.8099999 32:3.5799999 33:2.5799999 34:2.8 35:6.1599998 36:5.9400001 37:6.3800001 38:7.6100001 39:0.44999999 40:1.9 #
-0.00010000000000000000479217360238593 1:16 2:4 3:0 4:4 5:0 6:8 7:0 8:0 9:0 10:16 11:4 12:4 13:12 14:0 15:20 16:0 17:0 18:4 19:8 20:0 21:7.5 22:0.94 23:5.6199999 24:7.8099999 25:4.6900001 26:7.8099999 27:1.88 28:4.6900001 29:4.6900001 30:9.6899996 31:2.5 32:5 33:5.3099999 34:3.4400001 35:6.5599999 36:6.25 37:5.3099999 38:5 39:1.25 40:4.0599999 #
-0.00010000000000000000479217360238593 1:28 2:0 3:0 4:0 5:0 6:12 7:0 8:0 9:0 10:12 11:8 12:0 13:4 14:0 15:16 16:0 17:8 18:12 19:0 20:0 21:9.6300001 22:1.96 23:4.9099998 24:4.7199998 25:3.9300001 26:6.8800001 27:2.55 28:2.95 29:3.9300001 30:11.39 31:1.1799999 32:2.95 33:7.27 34:4.1300001 35:6.8800001 36:10.41 37:3.73 38:6.8800001 39:2.1600001 40:1.5700001 #
-0.00010000000000000000479217360238593 1:28 2:4 3:0 4:0 5:0 6:12 7:0 8:0 9:0 10:20 11:8 12:0 13:4 14:0 15:16 16:0 17:4 18:4 19:0 20:0 21:6.1999998 22:0.77999997 23:7.75 24:10.85 25:4.6500001 26:3.8800001 27:1.55 28:3.8800001 29:3.8800001 30:6.98 31:2.3299999 32:3.0999999 33:8.5299997 34:2.3299999 35:8.5299997 36:8.5299997 37:2.3299999 38:6.98 39:3.0999999 40:3.8800001 #
-0.00010000000000000000479217360238593 1:28 2:8 3:4 4:0 5:4 6:8 7:0 8:0 9:0 10:12 11:4 12:0 13:8 14:0 15:16 16:4 17:0 18:4 19:0 20:0 21:7.98 22:3.6800001 23:9.1999998 24:6.1300001 25:2.45 26:7.98 27:2.45 28:4.9099998 29:4.29 30:9.8199997 31:2.45 32:3.6800001 33:3.6800001 34:1.23 35:6.1300001 36:7.98 37:7.98 38:6.75 39:0.61000001 40:0.61000001 #
-0.00010000000000000000479217360238593 1:4 2:8 3:8 4:8 5:0 6:4 7:4 8:0 9:0 10:8 11:4 12:8 13:12 14:12 15:0 16:4 17:8 18:4 19:0 20:4 21:6.9000001 22:0.86000001 23:2.5899999 24:4.5999999 25:6.9000001 26:6.0300002 27:2.5899999 28:7.7600002 29:4.5999999 30:10.63 31:2.3 32:3.1600001 33:5.1700001 34:4.02 35:5.1700001 36:8.6199999 37:7.4699998 38:5.46 39:0.86000001 40:4.3099999 #
-0.00010000000000000000479217360238593 1:8 2:12 3:4 4:4 5:4 6:4 7:0 8:4 9:4 10:4 11:12 12:0 13:4 14:16 15:4 16:8 17:4 18:4 19:0 20:0 21:4.7399998 22:4.21 23:7.3699999 24:6.3200002 25:2.1099999 26:5.79 27:3.1600001 28:6.8400002 29:7.8899999 30:14.74 31:2.1099999 32:3.6800001 33:3.1600001 34:3.6800001 35:6.3200002 36:4.7399998 37:2.6300001 38:4.21 39:2.6300001 40:3.6800001 #
-0.00010000000000000000479217360238593 1:0 2:0 3:4 4:8 5:0 6:0 7:4 8:16 9:12 10:4 11:4 12:20 13:4 14:4 15:4 16:8 17:4 18:4 19:0 20:0 21:8.2399998 22:2.3499999 23:1.76 24:4.1199999 25:4.71 26:8.8199997 27:1.1799999 28:7.0599999 29:4.1199999 30:16.469999 31:1.76 32:4.71 33:5.29 34:2.3499999 35:5.29 36:5.8800001 37:6.4699998 38:4.71 39:0.58999997 40:4.1199999 #
-0.00010000000000000000479217360238593 1:8 2:0 3:12 4:8 5:4 6:4 7:0 8:4 9:12 10:4 11:4 12:4 13:8 14:4 15:0 16:4 17:8 18:8 19:0 20:4 21:7.7199998 22:0.34999999 23:5.96 24:5.2600002 25:5.2600002 26:7.7199998 27:2.1099999 28:4.5599999 29:5.6100001 30:10.88 31:1.4 32:5.6100001 33:3.8599999 34:3.51 35:4.21 36:7.3699999 37:5.6100001 38:7.02 39:0.34999999 40:5.6100001 #
-0.00010000000000000000479217360238593 1:8 2:0 3:0 4:0 5:4 6:8 7:0 8:8 9:16 10:4 11:8 12:0 13:12 14:12 15:0 16:4 17:0 18:12 19:0 20:4 21:2.1300001 22:0 23:2.1300001 24:8.5100002 25:2.1300001 26:6.3800001 27:8.5100002 28:4.2600002 29:10.64 30:17.02 31:0 32:2.1300001 33:4.2600002 34:2.1300001 35:2.1300001 36:6.3800001 37:4.2600002 38:6.3800001 39:4.2600002 40:6.3800001 #
-0.00010000000000000000479217360238593 1:24 2:4 3:0 4:4 5:0 6:4 7:0 8:0 9:0 10:8 11:4 12:4 13:4 14:4 15:16 16:0 17:4 18:8 19:12 20:0 21:9.9700003 22:1.29 23:4.3400002 24:5.79 25:2.4100001 26:7.4000001 27:1.13 28:6.4299998 29:5.9499998 30:7.5599999 31:2.0899999 32:2.5699999 33:10.93 34:3.22 35:4.02 36:6.4299998 37:7.4000001 38:8.5200005 39:0.80000001 40:1.77 #
-0.00010000000000000000479217360238593 1:32 2:4 3:0 4:0 5:0 6:4 7:0 8:0 9:0 10:16 11:4 12:0 13:8 14:4 15:20 16:4 17:0 18:0 19:4 20:0 21:13.95 22:1.29 23:4.1300001 24:6.46 25:3.3599999 26:8.79 27:1.55 28:6.7199998 29:5.6799998 30:10.08 31:3.8800001 32:2.5799999 33:3.8800001 34:4.1300001 35:4.1300001 36:6.1999998 37:5.6799998 38:3.8800001 39:1.29 40:2.3299999 #
-0.00010000000000000000479217360238593 1:32 2:4 3:0 4:0 5:0 6:4 7:0 8:0 9:0 10:8 11:4 12:0 13:4 14:4 15:16 16:8 17:4 18:12 19:0 20:0 21:10.33 22:2.4200001 23:5.0500002 24:6.8099999 25:3.3 26:7.25 27:2.8599999 28:4.4000001 29:3.3 30:9.8900003 31:1.98 32:3.3 33:4.4000001 34:4.4000001 35:5.9299998 36:6.8099999 37:5.71 38:7.0300002 39:1.3200001 40:3.52 #
-0.00010000000000000000479217360238593 1:20 2:0 3:0 4:8 5:0 6:4 7:0 8:4 9:4 10:12 11:4 12:0 13:4 14:0 15:20 16:4 17:4 18:8 19:4 20:0 21:8.8999996 22:2.74 23:4.79 24:7.3600001 25:3.77 26:6.1599998 27:3.5999999 28:3.77 29:5.1399999 30:9.5900002 31:1.03 32:2.74 33:6.3400002 34:3.4200001 35:4.6199999 36:8.8999996 37:4.2800002 38:7.71 39:1.03 40:4.1100001 #
-0.00010000000000000000479217360238593 1:16 2:0 3:0 4:4 5:0 6:8 7:0 8:0 9:0 10:16 11:4 12:0 13:8 14:4 15:28 16:8 17:0 18:4 19:0 20:0 21:7.4299998 22:1.61 23:4.6199999 24:6.4299998 25:3.21 26:7.0300002 27:2.8099999 28:3.01 29:4.4200001 30:14.06 31:2.21 32:3.4100001 33:5.6199999 34:6.6300001 35:7.0300002 36:5.8200002 37:3.6099999 38:7.23 39:1 40:2.8099999 #
-0.00010000000000000000479217360238593 1:8 2:4 3:4 4:0 5:0 6:8 7:0 8:4 9:12 10:4 11:4 12:8 13:8 14:0 15:8 16:4 17:4 18:8 19:4 20:8 21:5.21 22:1.0599999 23:5 24:5.1100001 25:4.5700002 26:2.98 27:2.77 28:7.77 29:8.8299999 30:12.13 31:3.72 32:5.6399999 33:2.77 34:4.2600002 35:4.3600001 36:7.4499998 37:5.6399999 38:4.2600002 39:1.38 40:5.1100001 #
-0.00010000000000000000479217360238593 1:4 2:0 3:12 4:0 5:0 6:4 7:0 8:12 9:8 10:4 11:4 12:4 13:16 14:8 15:0 16:8 17:8 18:4 19:0 20:4 21:6.0300002 22:0.46000001 23:6.2600002 24:4.6399999 25:4.6399999 26:7.6599998 27:2.3199999 28:6.73 29:7.1900001 30:9.2799997 31:3.48 32:5.8000002 33:3.9400001 34:2.55 35:5.0999999 36:7.4200001 37:6.2600002 38:5.3400002 39:1.16 40:3.71 #
-0.00010000000000000000479217360238593 1:4 2:0 3:8 4:8 5:4 6:0 7:0 8:4 9:8 10:16 11:4 12:0 13:12 14:8 15:0 16:0 17:8 18:4 19:4 20:8 21:7.6900001 22:1.54 23:3.8499999 24:7.6900001 25:3.0799999 26:8.46 27:0.76999998 28:4.6199999 29:8.46 30:8.46 31:1.54 32:3.8499999 33:0.76999998 34:3.8499999 35:8.46 36:5.3800001 37:5.3800001 38:10 39:0.76999998 40:5.3800001 #
-0.00010000000000000000479217360238593 1:4 2:0 3:20 4:12 5:0 6:0 7:0 8:0 9:0 10:8 11:4 12:4 13:12 14:4 15:4 16:8 17:8 18:4 19:0 20:8 21:10 22:0.76999998 23:1.54 24:4.6199999 25:5.3800001 26:11.54 27:2.3099999 28:6.9200001 29:8.46 30:6.9200001 31:1.54 32:4.6199999 33:1.54 34:5.3800001 35:4.6199999 36:6.1500001 37:3.0799999 38:9.2299995 39:3.0799999 40:2.3099999 #
-0.00010000000000000000479217360238593 1:8 2:0 3:4 4:0 5:0 6:0 7:0 8:4 9:12 10:4 11:12 12:4 13:8 14:4 15:12 16:4 17:12 18:4 19:4 20:4 21:6.6700001 22:0 23:6.6700001 24:6.6700001 25:6.6700001 26:6.6700001 27:3.3299999 28:3.3299999 29:11.67 30:13.33 31:1.67 32:3.3299999 33:8.3299999 34:1.67 35:0 36:1.67 37:5 38:5 39:0 40:8.3299999 #
-0.00010000000000000000479217360238593 1:20 2:0 3:0 4:0 5:8 6:0 7:0 8:4 9:4 10:0 11:8 12:0 13:12 14:0 15:16 16:8 17:16 18:4 19:0 20:0 21:5.4200001 22:0 23:7.3899999 24:11.33 25:6.4000001 26:4.4299998 27:1.97 28:2.96 29:11.33 30:9.3599997 31:1.48 32:4.9299998 33:3.9400001 34:4.9299998 35:5.4200001 36:6.4000001 37:5.4200001 38:5.9099998 39:0 40:0.99000001 #
-0.00010000000000000000479217360238593 1:32 2:0 3:0 4:0 5:0 6:4 7:0 8:0 9:4 10:16 11:4 12:0 13:0 14:4 15:12 16:8 17:4 18:12 19:0 20:0 21:3.6400001 22:1.8200001 23:6.6700001 24:6.6700001 25:3.9400001 26:6.3600001 27:3.3299999 28:5.4499998 29:8.1800003 30:10 31:1.21 32:3.3299999 33:4.5500002 34:4.5500002 35:5.4499998 36:6.3600001 37:4.8499999 38:6.3600001 39:1.52 40:5.7600002 #
-0.00010000000000000000479217360238593 1:12 2:4 3:0 4:0 5:4 6:4 7:0 8:4 9:4 10:8 11:8 12:4 13:0 14:4 15:16 16:4 17:8 18:8 19:4 20:4 21:6.3499999 22:1.3099999 23:5.25 24:6.1300001 25:4.3800001 26:6.7800002 27:2.1900001 28:7.6599998 29:8.75 30:8.75 31:2.4100001 32:3.9400001 33:6.1300001 34:3.28 35:2.8399999 36:6.5599999 37:5.9099998 38:7.8800001 39:0.66000003 40:2.8399999 #
-0.00010000000000000000479217360238593 1:16 2:0 3:4 4:0 5:4 6:4 7:4 8:4 9:4 10:8 11:4 12:8 13:0 14:0 15:20 16:4 17:12 18:0 19:0 20:4 21:8.1599998 22:2.04 23:8.1599998 24:6.1199999 25:2.04 26:4.0799999 27:3.0599999 28:3.0599999 29:11.22 30:10.2 31:2.04 32:4.0799999 33:6.1199999 34:4.0799999 35:7.1399999 36:4.0799999 37:7.1399999 38:6.1199999 39:0 40:1.02 #
-0.00010000000000000000479217360238593 1:28 2:0 3:0 4:0 5:0 6:8 7:0 8:0 9:0 10:16 11:4 12:0 13:8 14:0 15:16 16:4 17:0 18:16 19:0 20:0 21:10.83 22:1.8099999 23:4.6900001 24:6.1399999 25:3.25 26:7.9400001 27:1.08 28:4.6900001 29:4.3299999 30:12.27 31:2.1700001 32:3.25 33:4.3299999 34:5.4200001 35:6.5 36:6.1399999 37:4.3299999 38:7.2199998 39:1.4400001 40:2.1700001 #
-0.00010000000000000000479217360238593 1:4 2:0 3:0 4:12 5:4 6:8 7:0 8:4 9:8 10:8 11:4 12:4 13:12 14:8 15:0 16:4 17:8 18:4 19:0 20:8 21:12.64 22:1.1 23:3.8499999 24:3.8499999 25:6.04 26:13.74 27:0.55000001 28:4.9499998 29:4.9499998 30:5.4899998 31:5.4899998 32:3.8499999 33:4.4000001 34:4.4000001 35:2.75 36:6.5900002 37:6.5900002 38:4.9499998 39:0 40:3.8499999 #
-0.00010000000000000000479217360238593 1:8 2:8 3:0 4:0 5:0 6:0 7:4 8:4 9:12 10:12 11:4 12:4 13:0 14:0 15:4 16:16 17:12 18:4 19:0 20:8 21:8.8299999 22:0 23:7.5300002 24:7.79 25:4.1599998 26:3.9000001 27:0.77999997 28:5.9699998 29:10.91 30:9.6099997 31:1.8200001 32:4.9400001 33:5.9699998 34:4.1599998 35:1.8200001 36:8.0500002 37:5.1900001 38:5.9699998 39:0.25999999 40:2.3399999 #
-0.00010000000000000000479217360238593 1:4 2:4 3:0 4:0 5:0 6:4 7:0 8:8 9:8 10:12 11:4 12:0 13:8 14:4 15:24 16:4 17:8 18:4 19:4 20:0 21:6.7600002 22:1.96 23:8.0100002 24:6.0500002 25:3.3800001 26:6.23 27:2.8499999 28:5.8699999 29:8.54 30:8.3599997 31:2.49 32:5.3400002 33:4.6300001 34:1.96 35:3.2 36:7.1199999 37:6.4099998 38:7.1199999 39:1.0700001 40:2.6700001 #
-0.00010000000000000000479217360238593 1:8 2:4 3:4 4:0 5:4 6:0 7:0 8:12 9:12 10:4 11:4 12:8 13:8 14:0 15:8 16:8 17:8 18:4 19:0 20:4 21:3.8499999 22:2.3699999 23:7.4000001 24:4.73 25:5.9200001 26:3.8499999 27:0.88999999 28:5.0300002 29:8.5799999 30:12.72 31:2.3699999 32:5.0300002 33:3.25 34:2.96 35:4.73 36:9.1700001 37:6.5100002 38:7.4000001 39:1.1799999 40:2.0699999 #
-0.00010000000000000000479217360238593 1:0 2:0 3:4 4:4 5:0 6:4 7:4 8:0 9:4 10:8 11:8 12:12 13:4 14:16 15:4 16:12 17:12 18:0 19:4 20:0 21:6.8299999 22:3.3499999 23:3.48 24:5.9299998 25:5.0300002 26:6.8299999 27:2.3199999 28:3.0899999 29:2.8399999 30:16.879999 31:1.55 32:2.0599999 33:6.3099999 34:6.1900001 35:6.0599999 36:7.2199998 37:4.3800001 38:6.8299999 39:1.8 40:1.03 #
-0.00010000000000000000479217360238593 1:32 2:0 3:0 4:0 5:0 6:4 7:4 8:4 9:0 10:12 11:8 12:0 13:4 14:0 15:12 16:12 17:0 18:8 19:0 20:0 21:9.5100002 22:0.19 23:4.27 24:10.87 25:3.5 26:7.3800001 27:1.55 28:4.0799999 29:9.3199997 30:6.9899998 31:3.5 32:2.3299999 33:7.3800001 34:5.0500002 35:5.2399998 36:5.8299999 37:4.0799999 38:3.8800001 39:2.3299999 40:2.72 #
-0.00010000000000000000479217360238593 1:24 2:4 3:4 4:0 5:0 6:8 7:4 8:0 9:0 10:16 11:4 12:0 13:4 14:0 15:16 16:4 17:8 18:4 19:0 20:0 21:8 22:1.6 23:7.1999998 24:8.8000002 25:2.4000001 26:4.8000002 27:1.6 28:7.1999998 29:5.5999999 30:8 31:0.80000001 32:3.2 33:7.1999998 34:2.4000001 35:7.1999998 36:4 37:6.4000001 38:8 39:1.6 40:4 #
-0.00010000000000000000479217360238593 1:16 2:0 3:12 4:4 5:4 6:12 7:0 8:4 9:4 10:4 11:4 12:0 13:12 14:4 15:8 16:12 17:0 18:0 19:0 20:0 21:13.58 22:0 23:2.47 24:8.6400003 25:2.47 26:6.1700001 27:1.23 28:4.9400001 29:3.7 30:12.35 31:1.23 32:1.23 33:2.47 34:6.1700001 35:12.35 36:6.1700001 37:6.1700001 38:3.7 39:1.23 40:3.7 #
-0.00010000000000000000479217360238593 1:28 2:0 3:0 4:4 5:0 6:8 7:0 8:0 9:0 10:20 11:4 12:0 13:4 14:4 15:4 16:4 17:4 18:8 19:8 20:0 21:7.9299998 22:3.0799999 23:3.52 24:6.1700001 25:4.4099998 26:6.6100001 27:3.0799999 28:3.0799999 29:2.6400001 30:12.78 31:0.88 32:2.6400001 33:5.73 34:4.8499999 35:11.01 36:7.0500002 37:5.29 38:5.73 39:1.76 40:1.76 #
-0.00010000000000000000479217360238593 1:16 2:12 3:0 4:0 5:4 6:16 7:0 8:4 9:0 10:12 11:4 12:0 13:4 14:4 15:16 16:4 17:0 18:0 19:4 20:0 21:6.7800002 22:0.69999999 23:6.0700002 24:9.8100004 25:3.74 26:6.3099999 27:1.4 28:5.1399999 29:10.28 30:10.05 31:2.3399999 32:3.04 33:2.0999999 34:4.21 35:5.3699999 36:8.4099998 37:4.9099998 38:5.8400002 39:1.17 40:2.3399999 #
-0.00010000000000000000479217360238593 1:4 2:0 3:12 4:12 5:4 6:0 7:0 8:8 9:4 10:8 11:4 12:4 13:4 14:12 15:4 16:4 17:4 18:12 19:0 20:0 21:10.24 22:0 23:11.02 24:8.6599998 25:6.3000002 26:3.9400001 27:0 28:4.7199998 29:4.7199998 30:11.02 31:0.79000002 32:7.0900002 33:2.3599999 34:3.9400001 35:2.3599999 36:7.8699999 37:8.6599998 38:5.5100002 39:0.79000002 40:0 #
-0.00010000000000000000479217360238593 1:12 2:0 3:0 4:0 5:4 6:0 7:0 8:0 9:8 10:8 11:4 12:4 13:4 14:4 15:8 16:12 17:20 18:12 19:0 20:0 21:8.1000004 22:0.23 23:5.0900002 24:5.79 25:4.4000001 26:6.02 27:2.0799999 28:4.8600001 29:6.71 30:11.81 31:1.16 32:8.1000004 33:2.78 34:4.1700001 35:3.01 36:10.19 37:5.0900002 38:6.9400001 39:1.62 40:1.85 #
-0.00010000000000000000479217360238593 1:0 2:4 3:4 4:8 5:0 6:12 7:0 8:12 9:8 10:8 11:4 12:0 13:0 14:0 15:4 16:12 17:8 18:16 19:0 20:0 21:4.5500002 22:2.51 23:7.6900001 24:5.3400002 25:5.8099999 26:3.9200001 27:2.04 28:6.75 29:7.54 30:12.56 31:1.1 32:4.8699999 33:4.71 34:3.45 35:3.6099999 36:8.1599998 37:5.6500001 38:5.3400002 39:1.1 40:3.3 #
-0.00010000000000000000479217360238593 1:4 2:0 3:16 4:0 5:4 6:4 7:12 8:0 9:4 10:0 11:4 12:8 13:8 14:4 15:0 16:12 17:16 18:4 19:0 20:0 21:3.8299999 22:0.25999999 23:5.3600001 24:4.5900002 25:4.8499999 26:4.8499999 27:2.55 28:6.8899999 29:7.9099998 30:11.99 31:2.04 32:4.8499999 33:8.4200001 34:2.8099999 35:5.0999999 36:8.9300003 37:7.1399999 38:3.8299999 39:1.53 40:2.3 #
-0.00010000000000000000479217360238593 1:8 2:0 3:0 4:0 5:0 6:0 7:0 8:4 9:4 10:8 11:4 12:0 13:0 14:4 15:20 16:8 17:28 18:4 19:0 20:8 21:6.6799998 22:0.63 23:7.5799999 24:9.21 25:3.25 26:4.96 27:1.71 28:6.4099998 29:9.5699997 30:8.3900003 31:1.99 32:4.1500001 33:4.8699999 34:3.52 35:4.1500001 36:8.0299997 37:5.6900001 38:6.1399999 39:0.63 40:2.4400001 #
-0.00010000000000000000479217360238593 1:8 2:0 3:0 4:8 5:0 6:8 7:0 8:0 9:0 10:20 11:4 12:0 13:32 14:0 15:12 16:4 17:0 18:0 19:4 20:0 21:11.5 22:0.98000002 23:2.95 24:4.77 25:4.3499999 26:10.38 27:0.83999997 28:5.0500002 29:3.79 30:12.06 31:1.96 32:3.23 33:5.0500002 34:2.6600001 35:7.4299998 36:8.2700005 37:4.0700002 38:7.0100002 39:1.4 40:2.24 #
-0.00010000000000000000479217360238593 1:24 2:0 3:0 4:12 5:4 6:0 7:0 8:4 9:0 10:8 11:4 12:4 13:8 14:4 15:0 16:8 17:4 18:8 19:4 20:4 21:7.1399999 22:2.52 23:3.78 24:7.1399999 25:3.3599999 26:5.8800001 27:2.52 28:3.78 29:7.1399999 30:12.18 31:2.52 32:4.6199999 33:3.78 34:7.98 35:3.3599999 36:5.04 37:4.1999998 38:7.1399999 39:1.6799999 40:4.1999998 #
-0.00010000000000000000479217360238593 1:20 2:0 3:0 4:4 5:0 6:0 7:0 8:8 9:4 10:12 11:4 12:0 13:20 14:4 15:0 16:12 17:12 18:0 19:0 20:0 21:6.9099998 22:1.1 23:5.25 24:4.1399999 25:5.8000002 26:8.29 27:1.1 28:3.8699999 29:4.9699998 30:10.77 31:1.38 32:6.0799999 33:4.1399999 34:7.46 35:2.76 36:9.3900003 37:6.3499999 38:6.3499999 39:0.82999998 40:3.04 #
-0.00010000000000000000479217360238593 1:24 2:0 3:0 4:8 5:8 6:0 7:0 8:4 9:8 10:8 11:4 12:4 13:4 14:0 15:4 16:4 17:0 18:16 19:4 20:0 21:5.0799999 22:0 23:6.7800002 24:1.6900001 25:0 26:5.0799999 27:1.6900001 28:3.3900001 29:3.3900001 30:13.56 31:3.3900001 32:5.0799999 33:16.950001 34:3.3900001 35:5.0799999 36:6.7800002 37:5.0799999 38:5.0799999 39:1.6900001 40:6.7800002 #
-0.00010000000000000000479217360238593 1:16 2:0 3:4 4:8 5:0 6:8 7:0 8:4 9:0 10:0 11:4 12:8 13:12 14:0 15:0 16:16 17:8 18:12 19:0 20:0 21:10.2 22:0 23:10.2 24:0 25:6.1199999 26:8.1599998 27:0 28:4.0799999 29:0 30:16.33 31:2.04 32:8.1599998 33:4.0799999 34:2.04 35:12.24 36:2.04 37:2.04 38:6.1199999 39:4.0799999 40:2.04 #
-0.00010000000000000000479217360238593 1:12 2:0 3:4 4:0 5:4 6:0 7:4 8:4 9:12 10:12 11:8 12:4 13:8 14:0 15:4 16:12 17:4 18:4 19:4 20:0 21:8.1599998 22:0 23:8.1599998 24:7.1399999 25:1.02 26:2.04 27:2.04 28:1.02 29:3.0599999 30:18.370001 31:5.0999999 32:4.0799999 33:6.1199999 34:6.1199999 35:12.24 36:4.0799999 37:2.04 38:3.0599999 39:0 40:6.1199999 #
-0.00010000000000000000479217360238593 1:12 2:0 3:0 4:4 5:4 6:0 7:0 8:4 9:12 10:8 11:4 12:4 13:4 14:12 15:8 16:8 17:4 18:4 19:0 20:8 21:6.6700001 22:0.94999999 23:3.8099999 24:5.71 25:7.6199999 26:6.6700001 27:1.9 28:5.71 29:11.43 30:9.5200005 31:1.9 32:2.8599999 33:4.7600002 34:2.8599999 35:0.94999999 36:4.7600002 37:9.5200005 38:3.8099999 39:1.9 40:6.6700001 #
-0.00010000000000000000479217360238593 1:4 2:0 3:16 4:4 5:0 6:12 7:0 8:4 9:0 10:8 11:4 12:0 13:0 14:4 15:12 16:8 17:8 18:12 19:0 20:4 21:5.0700002 22:3 23:8.29 24:6.9099998 25:5.3000002 26:7.5999999 27:3.46 28:5.9899998 29:10.14 30:7.3699999 31:0.69 32:6.4499998 33:4.3800001 34:2.0699999 35:3 36:6.9099998 37:5.5300002 38:4.1500001 39:0.92000002 40:2.76 #
-0.00010000000000000000479217360238593 1:8 2:0 3:4 4:0 5:0 6:16 7:0 8:4 9:8 10:8 11:4 12:4 13:0 14:8 15:8 16:4 17:8 18:12 19:0 20:4 21:6.6999998 22:3.03 23:6.2199998 24:7.5 25:3.3499999 26:4.6300001 27:2.71 28:6.2199998 29:5.7399998 30:10.05 31:2.71 32:3.51 33:5.4200001 34:3.6700001 35:5.0999999 36:6.0599999 37:5.2600002 38:7.02 39:1.12 40:3.99 #
-0.00010000000000000000479217360238593 1:12 2:0 3:12 4:4 5:4 6:20 7:0 8:8 9:12 10:4 11:4 12:4 13:0 14:0 15:4 16:4 17:4 18:4 19:0 20:0 21:8.8999996 22:1.83 23:5.9400001 24:5.25 25:2.51 26:5.25 27:1.37 28:3.8800001 29:4.1100001 30:14.61 31:2.05 32:2.74 33:7.3099999 34:3.4200001 35:7.3099999 36:7.3099999 37:5.48 38:5.9400001 39:1.6 40:3.2 #
-0.00010000000000000000479217360238593 1:24 2:4 3:0 4:0 5:4 6:0 7:4 8:4 9:4 10:4 11:4 12:4 13:4 14:4 15:16 16:4 17:8 18:4 19:4 20:0 21:5.2600002 22:0.66000003 23:4.2800002 24:6.9099998 25:4.2800002 26:4.9299998 27:2.96 28:4.9299998 29:4.2800002 30:9.54 31:2.96 32:5.2600002 33:4.9299998 34:1.64 35:8.2200003 36:6.9099998 37:7.2399998 38:10.2 39:1.64 40:2.96 #
-0.00010000000000000000479217360238593 1:20 2:0 3:0 4:0 5:0 6:0 7:0 8:4 9:0 10:8 11:16 12:4 13:4 14:0 15:12 16:16 17:12 18:4 19:0 20:0 21:9.3299999 22:0 23:3.6300001 24:7.77 25:3.1099999 26:4.6599998 27:2.0699999 28:3.1099999 29:7.25 30:6.2199998 31:2.0699999 32:4.1500001 33:8.29 34:5.1799998 35:6.7399998 36:8.29 37:5.6999998 38:6.7399998 39:2.5899999 40:3.1099999 #
-0.00010000000000000000479217360238593 1:20 2:0 3:0 4:0 5:4 6:4 7:0 8:0 9:4 10:4 11:8 12:4 13:4 14:0 15:16 16:12 17:8 18:12 19:0 20:0 21:3.1199999 22:0 23:4.6900001 24:7.8099999 25:6.25 26:10.94 27:1.5599999 28:4.6900001 29:14.06 30:9.3800001 31:1.5599999 32:1.5599999 33:3.1199999 34:4.6900001 35:3.1199999 36:3.1199999 37:1.5599999 38:14.06 39:0 40:4.6900001 #
-0.00010000000000000000479217360238593 1:28 2:0 3:4 4:4 5:4 6:4 7:0 8:4 9:0 10:8 11:8 12:0 13:0 14:4 15:16 16:8 17:8 18:0 19:0 20:0 21:4.4699998 22:2.8499999 23:4.0700002 24:5.2800002 25:3.6600001 26:4.8800001 27:5.8899999 28:3.25 29:4.8800001 30:11.59 31:2.24 32:3.25 33:6.9099998 34:5.4899998 35:5.2800002 36:9.7600002 37:5.6900001 38:6.3000002 39:1.83 40:2.4400001 #
-0.00010000000000000000479217360238593 1:24 2:0 3:0 4:0 5:0 6:4 7:0 8:8 9:0 10:8 11:4 12:0 13:0 14:4 15:16 16:4 17:20 18:8 19:0 20:0 21:6.71 22:1.34 23:8.7200003 24:9.3999996 25:4.0300002 26:5.3699999 27:2.6800001 28:6.71 29:8.7200003 30:6.04 31:0.67000002 32:4.0300002 33:7.3800001 34:2.6800001 35:4.6999998 36:1.34 37:2.01 38:8.0500002 39:3.3599999 40:6.04 #
-0.00010000000000000000479217360238593 1:4 2:0 3:8 4:8 5:0 6:0 7:0 8:8 9:0 10:4 11:8 12:12 13:16 14:0 15:4 16:16 17:4 18:4 19:0 20:4 21:11.76 22:2.4200001 23:2.4200001 24:2.77 25:4.8400002 26:5.1900001 27:3.1099999 28:7.96 29:5.54 30:7.27 31:2.77 32:3.8099999 33:4.5 34:4.5 35:2.0799999 36:9.6899996 37:9 38:3.8099999 39:2.0799999 40:4.5 #
-0.00010000000000000000479217360238593 1:8 2:0 3:8 4:8 5:0 6:0 7:12 8:4 9:4 10:8 11:4 12:4 13:20 14:0 15:0 16:8 17:0 18:12 19:0 20:0 21:3.97 22:1.08 23:3.25 24:2.53 25:3.97 26:6.8600001 27:2.53 28:8.6599998 29:6.8600001 30:13.72 31:2.1700001 32:4.3299999 33:6.1399999 34:2.1700001 35:6.1399999 36:9.0299997 37:4.3299999 38:6.8600001 39:2.53 40:2.8900001 #
-0.00010000000000000000479217360238593 1:0 2:0 3:0 4:0 5:0 6:20 7:4 8:0 9:4 10:8 11:4 12:0 13:20 14:0 15:8 16:20 17:8 18:0 19:4 20:0 21:9.75 22:0.91000003 23:2.72 24:7.0300002 25:3.4000001 26:8.3900003 27:2.49 28:2.49 29:3.4000001 30:11.11 31:2.04 32:1.36 33:9.0699997 34:3.8499999 35:9.3000002 36:7.0300002 37:5.6700001 38:4.9899998 39:2.04 40:2.95 #
-0.00010000000000000000479217360238593 1:8 2:0 3:0 4:0 5:0 6:4 7:8 8:16 9:8 10:8 11:4 12:0 13:20 14:0 15:8 16:8 17:4 18:0 19:0 20:4 21:6.5300002 22:0.47 23:5.3600001 24:8.6199999 25:3.03 26:2.3299999 27:1.17 28:5.5900002 29:10.49 30:12.35 31:2.3299999 32:5.3600001 33:4.6599998 34:3.73 35:5.8299999 36:7.6900001 37:3.96 38:6.29 39:0.69999999 40:3.5 #
-0.00010000000000000000479217360238593 1:12 2:0 3:4 4:16 5:12 6:0 7:4 8:4 9:4 10:4 11:8 12:4 13:0 14:4 15:8 16:8 17:4 18:0 19:0 20:4 21:9.7299995 22:1.62 23:4.8600001 24:7.0300002 25:3.24 26:10.81 27:2.7 28:4.3200002 29:7.5700002 30:9.1899996 31:3.24 32:5.4099998 33:5.9499998 34:4.8600001 35:2.1600001 36:6.4899998 37:3.24 38:2.7 39:2.1600001 40:2.7 #
-0.00010000000000000000479217360238593 1:20 2:0 3:0 4:8 5:0 6:8 7:0 8:4 9:4 10:8 11:4 12:0 13:8 14:4 15:8 16:8 17:0 18:8 19:0 20:8 21:12 22:0 23:4 24:4.8000002 25:3.2 26:8 27:2.4000001 28:6.4000001 29:8.8000002 30:8 31:1.6 32:1.6 33:4.8000002 34:3.2 35:8 36:7.1999998 37:5.5999999 38:6.4000001 39:0.80000001 40:3.2 #
-0.00010000000000000000479217360238593 1:12 2:0 3:4 4:0 5:4 6:4 7:4 8:4 9:8 10:0 11:8 12:0 13:4 14:16 15:4 16:12 17:4 18:12 19:0 20:0 21:10.96 22:0.56 23:5.3400002 24:1.97 25:7.02 26:12.36 27:0.28 28:4.21 29:7.3000002 30:8.71 31:1.97 32:3.9300001 33:2.8099999 34:3.3699999 35:5.6199999 36:6.46 37:4.7800002 38:5.9000001 39:1.12 40:5.3400002 #
-0.00010000000000000000479217360238593 1:24 2:4 3:0 4:0 5:0 6:8 7:4 8:0 9:0 10:12 11:4 12:0 13:12 14:0 15:16 16:4 17:0 18:4 19:4 20:4 21:10.22 22:1.49 23:5.3899999 24:5.9499998 25:4.2800002 26:10.22 27:1.86 28:7.0599999 29:5.1999998 30:7.9899998 31:2.04 32:3.9000001 33:4.46 34:3.9000001 35:5.5799999 36:5.1999998 37:3.72 38:7.0599999 39:0.56 40:3.9000001 #
-0.00010000000000000000479217360238593 1:20 2:0 3:0 4:4 5:4 6:12 7:4 8:4 9:12 10:8 11:8 12:4 13:4 14:4 15:0 16:8 17:4 18:0 19:0 20:0 21:7.7399998 22:1.01 23:1.6799999 24:5.7199998 25:3.7 26:8.4200001 27:2.02 28:8.0799999 29:8.4200001 30:8.4200001 31:2.02 32:4.04 33:5.3899999 34:4.04 35:4.71 36:5.0500002 37:6.73 38:8.0799999 39:0.34 40:4.3800001 #
-0.00010000000000000000479217360238593 1:32 2:0 3:0 4:0 5:0 6:4 7:0 8:8 9:0 10:4 11:4 12:0 13:0 14:4 15:8 16:24 17:4 18:8 19:0 20:0 21:16.33 22:0 23:0 24:4.0799999 25:6.1199999 26:4.0799999 27:4.0799999 28:2.04 29:8.1599998 30:8.1599998 31:2.04 32:6.1199999 33:6.1199999 34:0 35:8.1599998 36:14.29 37:6.1199999 38:0 39:0 40:4.0799999 #
-0.00010000000000000000479217360238593 1:8 2:0 3:4 4:4 5:8 6:8 7:0 8:0 9:4 10:8 11:8 12:0 13:16 14:8 15:12 16:4 17:8 18:0 19:0 20:0 21:4.21 22:1.05 23:7.3699999 24:5.2600002 25:8.4200001 26:6.3200002 27:4.21 28:4.21 29:5.2600002 30:11.58 31:2.1099999 32:1.05 33:5.2600002 34:2.1099999 35:8.4200001 36:4.21 37:3.1600001 38:7.3699999 39:0 40:8.4200001 #
-0.00010000000000000000479217360238593 1:12 2:4 3:8 4:8 5:4 6:0 7:0 8:0 9:0 10:12 11:4 12:0 13:8 14:8 15:12 16:0 17:8 18:4 19:4 20:4 21:5.9699998 22:0.66000003 23:5.5300002 24:6.4200001 25:4.1999998 26:10.4 27:0.88 28:7.3000002 29:7.7399998 30:9.96 31:3.54 32:3.54 33:3.0999999 34:4.8699999 35:3.76 36:5.3099999 37:5.75 38:5.75 39:1.77 40:3.54 #
-0.00010000000000000000479217360238593 1:4 2:0 3:0 4:16 5:4 6:0 7:0 8:0 9:4 10:20 11:4 12:0 13:12 14:4 15:12 16:8 17:4 18:4 19:4 20:0 21:7.3800001 22:1.01 23:3.3599999 24:5.6999998 25:3.3599999 26:10.74 27:2.3499999 28:4.6999998 29:5.0300002 30:11.07 31:4.6999998 32:2.01 33:4.3600001 34:3.6900001 35:6.04 36:5.6999998 37:5.6999998 38:7.3800001 39:2.3499999 40:3.3599999 #
-0.00010000000000000000479217360238593 1:4 2:0 3:8 4:8 5:0 6:8 7:0 8:4 9:12 10:8 11:4 12:0 13:4 14:4 15:4 16:16 17:8 18:4 19:0 20:4 21:13.24 22:0 23:0 24:2.9400001 25:5.8800001 26:11.76 27:2.9400001 28:5.8800001 29:7.3499999 30:4.4099998 31:7.3499999 32:1.47 33:5.8800001 34:1.47 35:4.4099998 36:4.4099998 37:2.9400001 38:10.29 39:1.47 40:5.8800001 #
-0.00010000000000000000479217360238593 1:8 2:0 3:8 4:4 5:4 6:0 7:0 8:4 9:0 10:0 11:4 12:20 13:8 14:4 15:8 16:8 17:8 18:4 19:0 20:8 21:4.1900001 22:0.63 23:5.4499998 24:5.8699999 25:6.29 26:5.2399998 27:1.26 28:8.6000004 29:7.1300001 30:10.48 31:2.52 32:7.5500002 33:3.77 34:3.77 35:3.98 36:7.5500002 37:5.6599998 38:5.4499998 39:2.0999999 40:2.52 #
-0.00010000000000000000479217360238593 1:20 2:0 3:0 4:4 5:0 6:0 7:0 8:12 9:8 10:4 11:4 12:4 13:4 14:0 15:8 16:24 17:0 18:4 19:0 20:4 21:11.17 22:0.28999999 23:2.8699999 24:7.7399998 25:5.1599998 26:6.5900002 27:1.15 28:4.3000002 29:6.3000002 30:10.03 31:0 32:5.4400001 33:4.8699999 34:3.1500001 35:1.72 36:11.75 37:6.8800001 38:8.0200005 39:0 40:2.5799999 #
-0.00010000000000000000479217360238593 1:12 2:0 3:12 4:4 5:0 6:4 7:16 8:0 9:4 10:0 11:4 12:16 13:4 14:0 15:0 16:20 17:4 18:0 19:0 20:0 21:11.01 22:4.5900002 23:2.75 24:2.75 25:3.6700001 26:5.5 27:1.83 28:2.75 29:10.09 30:14.68 31:0 32:6.4200001 33:1.83 34:2.75 35:2.75 36:7.3400002 37:4.5900002 38:8.2600002 39:0 40:6.4200001 #
