SVM-light Version V6.02
1 # kernel type
2 # kernel parameter -d 
1 # kernel parameter -g 
1 # kernel parameter -s 
1 # kernel parameter -r 
empty# kernel parameter -u 
40 # highest feature index 
16432 # number of training documents 
7485 # number of support vectors plus 1 
0.75747423 # threshold b, each following line is a SV (starting with alpha*y)
-2.8774378486509324769540411372015e-07 1:12 2:0 3:12 4:4 5:4 6:4 7:4 8:16 9:8 10:4 11:4 12:4 13:0 14:8 15:0 16:8 17:0 18:4 19:0 20:4 21:7.73 22:1.03 23:5.1500001 24:5.6700001 25:6.6999998 26:6.1900001 27:2.5799999 28:1.55 29:8.7600002 30:6.6999998 31:2.0599999 32:5.1500001 33:7.73 34:4.6399999 35:1.55 36:8.7600002 37:7.73 38:5.1500001 39:1.55 40:3.6099999 #
-2.8774378486509324769540411372015e-07 1:16 2:4 3:0 4:0 5:8 6:16 7:0 8:4 9:4 10:8 11:4 12:0 13:4 14:4 15:4 16:8 17:12 18:4 19:0 20:0 21:7.4899998 22:0.44 23:3.0799999 24:6.1700001 25:6.1700001 26:11.45 27:1.76 28:6.1700001 29:4.8499999 30:10.13 31:1.3200001 32:6.1700001 33:7.4899998 34:3.0799999 35:3.0799999 36:6.6100001 37:3.0799999 38:6.1700001 39:2.6400001 40:2.6400001 #
-2.8774378486509324769540411372015e-07 1:40 2:0 3:0 4:0 5:0 6:32 7:0 8:0 9:0 10:0 11:4 12:0 13:8 14:0 15:0 16:4 17:4 18:8 19:0 20:0 21:7.6700001 22:1.76 23:3.8299999 24:4.1500001 25:4.9499998 26:8.79 27:3.3499999 28:5.27 29:3.04 30:7.5100002 31:3.1900001 32:3.99 33:5.27 34:4.6300001 35:4.4699998 36:9.7399998 37:6.5500002 38:6.8699999 39:1.12 40:3.8299999 #
-2.8774378486509324769540411372015e-07 1:52 2:4 3:4 4:0 5:0 6:12 7:0 8:0 9:0 10:0 11:4 12:0 13:0 14:0 15:0 16:12 17:12 18:0 19:0 20:0 21:9.3800001 22:1.8099999 23:4.2800002 24:5.5900002 25:4.2800002 26:9.8699999 27:1.8099999 28:3.95 29:5.0999999 30:10.86 31:1.3200001 32:2.47 33:8.3900003 34:5.2600002 35:7.5700002 36:8.7200003 37:4.1100001 38:3.45 39:0.49000001 40:1.3200001 #
-2.8774378486509324769540411372015e-07 1:4 2:0 3:4 4:4 5:4 6:0 7:4 8:12 9:4 10:8 11:4 12:0 13:8 14:8 15:4 16:8 17:8 18:16 19:0 20:0 21:11 22:1.5 23:5.2399998 24:8.2299995 25:1.0700001 26:4.9099998 27:1.71 28:5.3400002 29:5.3400002 30:10.47 31:2.3499999 32:4.27 33:5.1300001 34:6.9400001 35:7.3699999 36:6.3000002 37:4.3800001 38:6.4099998 39:0.63999999 40:1.39 #
2.877437848650932371074922730414e-06 1:12 2:0 3:8 4:20 5:0 6:0 7:0 8:0 9:4 10:8 11:4 12:0 13:16 14:0 15:12 16:8 17:4 18:4 19:0 20:0 21:9.3599997 22:1.14 23:5.48 24:12.56 25:2.74 26:5.25 27:0.68000001 28:3.4200001 29:7.3099999 30:8.2200003 31:2.74 32:3.2 33:3.8800001 34:5.71 35:7.5300002 36:10.05 37:3.8800001 38:4.79 39:0.46000001 40:1.6 #
-2.8774378486509324769540411372015e-07 1:0 2:4 3:4 4:4 5:8 6:4 7:4 8:0 9:4 10:12 11:4 12:4 13:12 14:12 15:4 16:4 17:0 18:12 19:0 20:4 21:5.9200001 22:3.27 23:4.3899999 24:7.9699998 25:3.5799999 26:4.29 27:2.76 28:5.8200002 29:6.4400001 30:13.59 31:2.04 32:3.27 33:4.8000002 34:3.98 35:4.29 36:7.8699999 37:4.4899998 38:6.6399999 39:0.81999999 40:3.78 #
1.3149022809453147234365691375935e-06 1:8 2:4 3:0 4:0 5:16 6:4 7:0 8:16 9:4 10:4 11:4 12:0 13:8 14:0 15:12 16:4 17:12 18:4 19:0 20:0 21:5.9499998 22:1.59 23:7.1399999 24:5.5599999 25:2.3800001 26:4.3699999 27:1.1900001 28:5.5599999 29:6.3499999 30:9.5200005 31:3.1700001 32:3.5699999 33:7.54 34:4.3699999 35:6.75 36:8.3299999 37:5.5599999 38:7.1399999 39:1.1900001 40:2.78 #
1.7008395424841885519324103520633e-06 1:4 2:0 3:0 4:4 5:0 6:0 7:0 8:12 9:12 10:8 11:8 12:0 13:8 14:12 15:0 16:4 17:4 18:4 19:8 20:12 21:20 22:0 23:2.8599999 24:0 25:0 26:8.5699997 27:8.5699997 28:5.71 29:11.43 30:5.71 31:2.8599999 32:0 33:2.8599999 34:0 35:5.71 36:11.43 37:2.8599999 38:5.71 39:0 40:5.71 #
1.2003788942706192619414452132931e-06 1:20 2:0 3:4 4:0 5:4 6:0 7:0 8:12 9:0 10:0 11:8 12:8 13:8 14:0 15:12 16:8 17:12 18:0 19:0 20:4 21:6 22:0.75 23:5 24:5.5 25:4.75 26:6.5 27:2 28:7.25 29:6.25 30:10.75 31:3.25 32:4.75 33:7.25 34:4.5 35:3.25 36:8.5 37:3.75 38:5.75 39:1.5 40:2.75 #
-2.8774378486509324769540411372015e-07 1:4 2:0 3:0 4:12 5:0 6:8 7:4 8:28 9:4 10:4 11:4 12:0 13:4 14:0 15:0 16:0 17:12 18:12 19:4 20:0 21:6.4200001 22:1.71 23:2.3599999 24:3.6400001 25:9.6400003 26:4.5 27:2.3599999 28:7.0700002 29:3.8499999 30:12.85 31:3.21 32:4.9299998 33:5.3499999 34:2.3599999 35:6 36:5.1399999 37:4.71 38:7.0700002 39:1.71 40:5.1399999 #
-2.8774378486509324769540411372015e-07 1:0 2:0 3:4 4:4 5:12 6:20 7:0 8:8 9:8 10:16 11:8 12:0 13:0 14:0 15:0 16:4 17:4 18:12 19:0 20:0 21:6.0900002 22:0 23:6.52 24:1.3 25:10 26:13.04 27:1.74 28:3.04 29:7.3899999 30:8.2600002 31:0.43000001 32:6.96 33:5.2199998 34:4.7800002 35:3.04 36:4.7800002 37:3.9100001 38:3.04 39:4.3499999 40:6.0900002 #
2.877437848650932371074922730414e-06 1:0 2:0 3:0 4:0 5:0 6:20 7:4 8:0 9:4 10:8 11:4 12:0 13:20 14:0 15:8 16:20 17:8 18:0 19:4 20:0 21:9.75 22:0.91000003 23:2.72 24:7.0300002 25:3.4000001 26:8.3900003 27:2.49 28:2.49 29:3.4000001 30:11.11 31:2.04 32:1.36 33:9.0699997 34:3.8499999 35:9.3000002 36:7.0300002 37:5.6700001 38:4.9899998 39:2.04 40:2.95 #
2.8291017385013968117634178267572e-06 1:12 2:0 3:0 4:4 5:8 6:48 7:0 8:0 9:4 10:4 11:4 12:4 13:0 14:0 15:0 16:4 17:8 18:0 19:0 20:0 21:9.2399998 22:1.63 23:3.26 24:3.26 25:3.26 26:12.5 27:1.09 28:3.26 29:3.26 30:14.67 31:4.3499999 32:5.98 33:3.26 34:3.26 35:4.8899999 36:4.3499999 37:9.2399998 38:3.8 39:1.63 40:3.8 #
2.1160570386492005269215340573785e-06 1:32 2:0 3:4 4:4 5:0 6:28 7:0 8:0 9:0 10:0 11:8 12:0 13:8 14:0 15:4 16:4 17:0 18:4 19:4 20:0 21:7.9699998 22:1.65 23:3.5699999 24:3.02 25:4.9499998 26:10.44 27:2.75 28:3.3 29:4.6700001 30:11.54 31:3.8499999 32:2.75 33:6.5900002 34:3.3 35:5.2199998 36:8.5200005 37:3.5699999 38:8.5200005 39:0.81999999 40:3.02 #
2.7063198550997503652199710488802e-06 1:40 2:0 3:0 4:0 5:0 6:12 7:0 8:0 9:0 10:16 11:4 12:0 13:4 14:4 15:8 16:4 17:0 18:4 19:4 20:0 21:6.5500002 22:1.09 23:3.27 24:6.9099998 25:3.6400001 26:7.6399999 27:1.8200001 28:4 29:4 30:9.0900002 31:2.1800001 32:3.27 33:7.6399999 34:3.6400001 35:8.7299995 36:5.8200002 37:6.5500002 38:9.0900002 39:2.55 40:2.55 #
-2.8774378486509324769540411372015e-07 1:8 2:8 3:12 4:0 5:4 6:0 7:0 8:8 9:8 10:16 11:4 12:4 13:4 14:4 15:8 16:8 17:0 18:4 19:0 20:0 21:10.24 22:2.1700001 23:3.3499999 24:6.0999999 25:2.76 26:9.8400002 27:1.5700001 28:4.3299999 29:4.7199998 30:12.01 31:2.3599999 32:3.54 33:4.9200001 34:5.1199999 35:3.9400001 36:5.9099998 37:6.8899999 38:8.46 39:1.1799999 40:0.58999997 #
-1.5627428381643693384474291807607e-08 1:4 2:0 3:0 4:0 5:4 6:4 7:4 8:4 9:0 10:8 11:8 12:20 13:0 14:36 15:0 16:4 17:4 18:0 19:0 20:0 21:3.53 22:0.94 23:5.5300002 24:7.7600002 25:3.76 26:2.8199999 27:1.29 28:7.6500001 29:11.18 30:8.8199997 31:2.24 32:8.2399998 33:2.9400001 34:7.1799998 35:4.1199999 36:7.4099998 37:4.4699998 38:4 39:1.29 40:4.8200002 #
-2.8774378486509324769540411372015e-07 1:24 2:0 3:0 4:0 5:0 6:8 7:0 8:0 9:0 10:36 11:4 12:0 13:12 14:0 15:8 16:0 17:0 18:4 19:4 20:0 21:5.5 22:2.3 23:4.79 24:4.79 25:7.98 26:6.9099998 27:1.95 28:8.3299999 29:5.3200002 30:7.0900002 31:4.2600002 32:3.01 33:3.3699999 34:2.3 35:3.72 36:6.21 37:4.79 38:7.8000002 39:2.1300001 40:7.4499998 #
2.877437848650932371074922730414e-06 1:8 2:0 3:4 4:0 5:4 6:0 7:0 8:8 9:16 10:8 11:4 12:4 13:0 14:8 15:8 16:12 17:4 18:8 19:4 20:0 21:5.9299998 22:0.56 23:5.9299998 24:6.21 25:4.2399998 26:4.8000002 27:3.3900001 28:5.9299998 29:8.7600002 30:9.3199997 31:2.54 32:4.8000002 33:4.8000002 34:3.6700001 35:4.2399998 36:8.4700003 37:4.52 38:7.6300001 39:0.85000002 40:3.3900001 #
-2.8774378486509324769540411372015e-07 1:8 2:0 3:12 4:0 5:0 6:8 7:0 8:0 9:12 10:16 11:4 12:0 13:0 14:0 15:8 16:20 17:12 18:0 19:0 20:0 21:4.3800001 22:3.1199999 23:8.1199999 24:8.1199999 25:4.3800001 26:4.3800001 27:3.75 28:3.75 29:7.5 30:10.62 31:0.62 32:4.3800001 33:6.25 34:1.88 35:5.6199999 36:3.75 37:6.8800001 38:7.5 39:1.88 40:3.1199999 #
-2.8774378486509324769540411372015e-07 1:12 2:0 3:12 4:4 5:4 6:8 7:0 8:4 9:0 10:12 11:4 12:8 13:4 14:8 15:0 16:4 17:4 18:12 19:0 20:0 21:4.79 22:0 23:5.1399999 24:9.25 25:1.71 26:5.8200002 27:3.4200001 28:4.1100001 29:12.33 30:10.27 31:3.77 32:3.0799999 33:4.4499998 34:3.77 35:8.2200003 36:7.8800001 37:4.79 38:4.79 39:0 40:2.4000001 #
-2.8774378486509324769540411372015e-07 1:24 2:0 3:0 4:0 5:8 6:8 7:0 8:12 9:0 10:12 11:4 12:0 13:4 14:0 15:4 16:8 17:0 18:4 19:0 20:12 21:27.52 22:2.01 23:3.3599999 24:3.3599999 25:0 26:7.3800001 27:2.01 28:1.34 29:0 30:4.0300002 31:0 32:6.71 33:4.0300002 34:5.3699999 35:6.71 36:4.0300002 37:4.6999998 38:10.07 39:1.34 40:6.04 #
-2.8774378486509324769540411372015e-07 1:8 2:0 3:0 4:8 5:4 6:24 7:0 8:0 9:8 10:4 11:8 12:0 13:8 14:4 15:8 16:8 17:0 18:8 19:0 20:0 21:5.9699998 22:1.59 23:5.3099999 24:7.96 25:4.3800001 26:6.23 27:1.59 28:4.9099998 29:4.1100001 30:10.61 31:2.6500001 32:5.6999998 33:3.8499999 34:5.4400001 35:7.1599998 36:5.4400001 37:3.8499999 38:7.4299998 39:2.1199999 40:3.71 #
2.877437848650932371074922730414e-06 1:16 2:0 3:0 4:0 5:0 6:16 7:0 8:0 9:0 10:48 11:4 12:0 13:4 14:0 15:8 16:4 17:0 18:0 19:0 20:0 21:5.75 22:0.88 23:2.6500001 24:5.75 25:7.0799999 26:7.0799999 27:1.33 28:1.33 29:3.54 30:14.16 31:1.77 32:3.98 33:4.4200001 34:2.21 35:6.6399999 36:10.62 37:3.54 38:11.95 39:2.21 40:3.0999999 #
-1.1191233574468182769600169135238e-08 1:24 2:0 3:0 4:0 5:0 6:0 7:0 8:0 9:0 10:16 11:4 12:4 13:0 14:8 15:8 16:4 17:4 18:28 19:0 20:0 21:19.23 22:3.8499999 23:3.8499999 24:3.8499999 25:3.8499999 26:5.77 27:0 28:3.8499999 29:3.8499999 30:9.6199999 31:0 32:3.8499999 33:5.77 34:5.77 35:3.8499999 36:11.54 37:3.8499999 38:3.8499999 39:3.8499999 40:0 #
2.877437848650932371074922730414e-06 1:20 2:8 3:0 4:0 5:0 6:4 7:8 8:4 9:4 10:32 11:4 12:0 13:0 14:0 15:4 16:0 17:0 18:8 19:0 20:4 21:7.1799998 22:1.75 23:6.4099998 24:6.5999999 25:5.4400001 26:4.0799999 27:0.97000003 28:6.5999999 29:5.0500002 30:12.43 31:2.3299999 32:3.6900001 33:5.8299999 34:3.1099999 35:7.3800001 36:5.4400001 37:4.8499999 38:6.21 39:0.97000003 40:3.6900001 #
-2.8774378486509324769540411372015e-07 1:32 2:0 3:0 4:4 5:0 6:8 7:0 8:0 9:0 10:16 11:4 12:0 13:8 14:4 15:16 16:4 17:0 18:0 19:0 20:4 21:10.59 22:0 23:1.76 24:2.9400001 25:11.76 26:6.4699998 27:1.1799999 28:3.53 29:5.29 30:17.059999 31:3.53 32:4.1199999 33:5.8800001 34:1.1799999 35:6.4699998 36:4.1199999 37:2.3499999 38:4.71 39:2.9400001 40:4.1199999 #
-2.8774378486509324769540411372015e-07 1:4 2:0 3:0 4:4 5:8 6:8 7:0 8:4 9:8 10:20 11:8 12:0 13:12 14:0 15:12 16:8 17:4 18:0 19:0 20:0 21:6.6700001 22:1.67 23:0.82999998 24:4.1700001 25:7.5 26:5.8299999 27:0 28:5.8299999 29:2.5 30:24.17 31:4.1700001 32:4.1700001 33:3.3299999 34:1.67 35:3.3299999 36:5 37:5 38:6.6700001 39:0.82999998 40:6.6700001 #
-2.8774378486509324769540411372015e-07 1:24 2:4 3:0 4:4 5:0 6:0 7:0 8:0 9:0 10:8 11:4 12:0 13:8 14:0 15:16 16:4 17:0 18:20 19:4 20:4 21:7.2800002 22:2.6500001 23:2.6500001 24:3.97 25:4.6399999 26:7.2800002 27:1.3200001 28:8.6099997 29:4.6399999 30:17.219999 31:1.99 32:3.3099999 33:2.6500001 34:3.3099999 35:4.6399999 36:6.6199999 37:1.99 38:7.2800002 39:1.99 40:5.96 #
3.6930904048881977698321203880394e-08 1:20 2:0 3:0 4:0 5:0 6:4 7:0 8:0 9:12 10:8 11:4 12:0 13:4 14:0 15:12 16:20 17:0 18:16 19:0 20:0 21:34.130001 22:0 23:0 24:0.79000002 25:0.79000002 26:4.7600002 27:1.59 28:3.1700001 29:19.84 30:0.79000002 31:1.59 32:0 33:11.11 34:1.59 35:6.3499999 36:8.7299995 37:1.59 38:3.1700001 39:0 40:0 #
1.3557649575822200013958725856034e-06 1:4 2:0 3:0 4:8 5:4 6:12 7:0 8:0 9:0 10:0 11:4 12:16 13:0 14:24 15:4 16:12 17:4 18:0 19:0 20:8 21:5.1700001 22:0 23:1.72 24:4.02 25:6.9000001 26:30.459999 27:2.8699999 28:1.72 29:2.8699999 30:2.3 31:0 32:11.49 33:8.0500002 34:9.1999998 35:3.45 36:5.1700001 37:0.56999999 38:1.72 39:0.56999999 40:1.72 #
2.877437848650932371074922730414e-06 1:28 2:0 3:0 4:0 5:0 6:0 7:0 8:4 9:0 10:8 11:8 12:4 13:0 14:4 15:4 16:12 17:8 18:16 19:0 20:4 21:12.5 22:1.79 23:0 24:0 25:3.5699999 26:8.9300003 27:0 28:5.3600001 29:0 30:1.79 31:3.5699999 32:10.71 33:1.79 34:1.79 35:0 36:17.860001 37:23.209999 38:5.3600001 39:0 40:1.79 #
-2.8774378486509324769540411372015e-07 1:24 2:0 3:12 4:4 5:0 6:4 7:0 8:0 9:4 10:0 11:8 12:0 13:4 14:0 15:0 16:16 17:0 18:24 19:0 20:0 21:6.25 22:0 23:6.25 24:5.3600001 25:5.8000002 26:8.04 27:4.46 28:5.8000002 29:6.25 30:8.9300003 31:1.79 32:4.02 33:5.8000002 34:3.5699999 35:6.6999998 36:4.02 37:5.3600001 38:5.8000002 39:2.23 40:3.5699999 #
-2.8774378486509324769540411372015e-07 1:0 2:16 3:0 4:16 5:4 6:4 7:4 8:0 9:8 10:4 11:4 12:0 13:8 14:8 15:4 16:12 17:4 18:4 19:0 20:0 21:6.4099998 22:2.47 23:5.3499999 24:7.6599998 25:4.23 26:4.8200002 27:3.1300001 28:4.6500001 29:5.9099998 30:12.29 31:2.1800001 32:3.1300001 33:4.5300002 34:5.4000001 35:5.4400001 36:7.3299999 37:4.79 38:6.46 39:1.33 40:2.49 #
-2.8774378486509324769540411372015e-07 1:12 2:0 3:12 4:4 5:8 6:16 7:0 8:0 9:0 10:4 11:4 12:4 13:8 14:0 15:0 16:12 17:4 18:12 19:0 20:0 21:10.8 22:0.94 23:3.29 24:5.1599998 25:5.6300001 26:4.23 27:1.88 28:8.9200001 29:5.1599998 30:6.5700002 31:0.47 32:3.76 33:5.1599998 34:3.76 35:9.3900003 36:9.8599997 37:8.4499998 38:6.0999999 39:0 40:0.47 #
2.1236063171218806585075974946442e-06 1:8 2:0 3:0 4:8 5:0 6:8 7:0 8:0 9:0 10:20 11:4 12:0 13:32 14:0 15:12 16:4 17:0 18:0 19:4 20:0 21:11.5 22:0.98000002 23:2.95 24:4.77 25:4.3499999 26:10.38 27:0.83999997 28:5.0500002 29:3.79 30:12.06 31:1.96 32:3.23 33:5.0500002 34:2.6600001 35:7.4299998 36:8.2700005 37:4.0700002 38:7.0100002 39:1.4 40:2.24 #
2.877437848650932371074922730414e-06 1:12 2:0 3:0 4:0 5:8 6:0 7:0 8:8 9:0 10:32 11:8 12:8 13:4 14:0 15:0 16:0 17:12 18:4 19:4 20:0 21:8.8900003 22:1.11 23:2.22 24:6.6700001 25:7.7800002 26:3.3299999 27:0 28:4.4400001 29:3.3299999 30:20 31:4.4400001 32:3.3299999 33:5.5599999 34:3.3299999 35:1.11 36:6.6700001 37:7.7800002 38:3.3299999 39:3.3299999 40:3.3299999 #
2.877437848650932371074922730414e-06 1:12 2:0 3:12 4:0 5:8 6:12 7:0 8:4 9:8 10:4 11:4 12:0 13:8 14:8 15:0 16:8 17:4 18:8 19:0 20:0 21:9.71 22:0 23:2.29 24:6.8600001 25:5.1399999 26:15.43 27:1.71 28:3.4300001 29:3.4300001 30:8 31:3.4300001 32:4 33:4 34:2.29 35:9.1400003 36:6.8600001 37:3.4300001 38:7.4299998 39:1.14 40:2.29 #
-2.8774378486509324769540411372015e-07 1:16 2:0 3:0 4:0 5:0 6:4 7:0 8:0 9:4 10:24 11:4 12:4 13:4 14:4 15:8 16:16 17:0 18:4 19:0 20:8 21:6.04 22:3.1500001 23:9.9700003 24:2.6199999 25:3.1500001 26:10.76 27:0.79000002 28:4.9899998 29:4.1999998 30:5.25 31:0.79000002 32:6.3000002 33:3.9400001 34:1.3099999 35:1.3099999 36:13.91 37:9.1899996 38:8.3999996 39:0.51999998 40:3.4100001 #
-2.8774378486509324769540411372015e-07 1:16 2:0 3:0 4:0 5:4 6:12 7:0 8:0 9:0 10:16 11:4 12:0 13:8 14:0 15:24 16:4 17:0 18:0 19:12 20:0 21:15.95 22:1.23 23:4.29 24:5.52 25:3.6800001 26:15.34 27:1.23 28:1.23 29:0.61000001 30:12.27 31:2.45 32:0.61000001 33:7.3600001 34:2.45 35:6.1300001 36:7.3600001 37:1.84 38:6.1300001 39:2.45 40:1.84 #
2.877437848650932371074922730414e-06 1:0 2:0 3:0 4:4 5:4 6:0 7:4 8:0 9:0 10:16 11:8 12:8 13:20 14:0 15:0 16:28 17:4 18:4 19:0 20:0 21:8.6999998 22:1.74 23:5.2199998 24:9.5699997 25:6.96 26:3.48 27:1.74 28:2.6099999 29:4.3499999 30:10.43 31:1.74 32:1.74 33:7.8299999 34:7.8299999 35:5.2199998 36:7.8299999 37:1.74 38:5.2199998 39:4.3499999 40:1.74 #
2.877437848650932371074922730414e-06 1:44 2:0 3:8 4:0 5:0 6:0 7:0 8:0 9:0 10:0 11:4 12:4 13:8 14:0 15:0 16:16 17:16 18:0 19:0 20:0 21:9.1499996 22:0.94999999 23:2.21 24:4.4200001 25:5.0500002 26:5.0500002 27:1.89 28:5.6799998 29:4.0999999 30:13.56 31:2.21 32:4.4200001 33:7.2600002 34:5.0500002 35:5.6799998 36:5.9899998 37:5.6799998 38:8.5200005 39:0.94999999 40:2.21 #
2.877437848650932371074922730414e-06 1:0 2:0 3:4 4:12 5:0 6:4 7:0 8:0 9:8 10:16 11:4 12:0 13:4 14:0 15:4 16:36 17:8 18:0 19:0 20:0 21:9.2700005 22:0.99000001 23:1.99 24:2.98 25:5.96 26:10.93 27:0.99000001 28:6.9499998 29:7.9499998 30:7.9499998 31:1.99 32:4.9699998 33:4.9699998 34:3.97 35:2.98 36:7.2800002 37:7.2800002 38:7.6199999 39:0.66000003 40:2.3199999 #
-2.8774378486509324769540411372015e-07 1:4 2:0 3:0 4:0 5:8 6:12 7:0 8:4 9:4 10:4 11:4 12:8 13:8 14:8 15:12 16:16 17:8 18:0 19:0 20:0 21:8.1300001 22:1.22 23:4.6799998 24:10.8 25:2.9000001 26:5.46 27:2.23 28:2.3399999 29:4.9000001 30:13.14 31:1.11 32:2 33:9.0200005 34:6.2399998 35:6.0100002 36:6.5700002 37:4.3400002 38:6.0100002 39:1.11 40:1.78 #
-7.159789896403898579407918539852e-09 1:4 2:0 3:8 4:0 5:12 6:8 7:8 8:8 9:0 10:12 11:4 12:0 13:8 14:0 15:4 16:12 17:4 18:8 19:0 20:0 21:7.4000001 22:1.52 23:6.1999998 24:6.4200001 25:5.0100002 26:3.5899999 27:2.9400001 28:6.75 29:5.4400001 30:8.2700005 31:2.0699999 32:5.3299999 33:5.2199998 34:3.9200001 35:5.1100001 36:10.01 37:4.6799998 38:5.6599998 39:1.52 40:2.9400001 #
1.1255152068140172538714301186946e-06 1:20 2:4 3:0 4:0 5:0 6:12 7:0 8:0 9:0 10:28 11:4 12:0 13:8 14:4 15:20 16:0 17:0 18:0 19:0 20:0 21:3.3299999 22:5.3299999 23:4 24:6.6700001 25:4.6700001 26:10 27:2.6700001 28:1.33 29:10 30:6.6700001 31:2 32:2 33:6.6700001 34:2.6700001 35:4 36:12.67 37:6.6700001 38:4 39:1.33 40:3.3299999 #
-2.8774378486509324769540411372015e-07 1:0 2:8 3:0 4:4 5:24 6:0 7:0 8:8 9:4 10:12 11:4 12:8 13:0 14:4 15:4 16:16 17:0 18:4 19:0 20:0 21:3.1199999 22:4.6900001 23:0 24:0 25:10.94 26:1.5599999 27:3.1199999 28:10.94 29:6.25 30:20.309999 31:1.5599999 32:1.5599999 33:7.8099999 34:0 35:3.1199999 36:17.190001 37:1.5599999 38:1.5599999 39:0 40:4.6900001 #
-2.8774378486509324769540411372015e-07 1:28 2:0 3:4 4:0 5:0 6:4 7:4 8:4 9:8 10:8 11:0 12:0 13:8 14:0 15:12 16:0 17:8 18:12 19:0 20:0 21:14.89 22:0 23:1.0599999 24:1.0599999 25:3.1900001 26:4.2600002 27:0 28:2.1300001 29:25.530001 30:4.2600002 31:2.1300001 32:7.4499998 33:5.3200002 34:1.0599999 35:9.5699997 36:4.2600002 37:3.1900001 38:8.5100002 39:0 40:2.1300001 #
-2.8774378486509324769540411372015e-07 1:44 2:0 3:0 4:4 5:0 6:4 7:0 8:0 9:0 10:8 11:4 12:0 13:0 14:0 15:20 16:0 17:12 18:4 19:0 20:0 21:6.48 22:6.27 23:4.6300001 24:4.5599999 25:4.1999998 26:7.4099998 27:2.99 28:3.8499999 29:4.4200001 30:7.8299999 31:2.0699999 32:6.1999998 33:5.3400002 34:3.7 35:4.4899998 36:8.5500002 37:5.4099998 38:5.6999998 39:2.21 40:3.7 #
2.877437848650932371074922730414e-06 1:4 2:0 3:4 4:4 5:0 6:8 7:4 8:4 9:8 10:0 11:8 12:4 13:4 14:4 15:8 16:28 17:0 18:4 19:4 20:0 21:1.25 22:3.75 23:3.75 24:2.5 25:5 26:3.75 27:7.5 28:2.5 29:0 30:17.5 31:2.5 32:2.5 33:7.5 34:5 35:13.75 36:8.75 37:3.75 38:1.25 39:1.25 40:6.25 #
-2.8774378486509324769540411372015e-07 1:4 2:0 3:4 4:24 5:0 6:8 7:0 8:4 9:4 10:12 11:4 12:0 13:0 14:4 15:12 16:12 17:4 18:0 19:4 20:0 21:6.9000001 22:1.29 23:6.4699998 24:4.3099999 25:2.1600001 26:6.9000001 27:2.1600001 28:6.9000001 29:6.4699998 30:11.21 31:2.1600001 32:2.1600001 33:1.72 34:3.8800001 35:7.3299999 36:12.5 37:4.7399998 38:7.3299999 39:0.86000001 40:2.5899999 #
-2.8774378486509324769540411372015e-07 1:20 2:4 3:0 4:4 5:0 6:20 7:0 8:0 9:0 10:8 11:8 12:0 13:4 14:0 15:4 16:4 17:12 18:12 19:0 20:0 21:3.9000001 22:3.3900001 23:5.3800001 24:7.8099999 25:4.3400002 26:6.2600002 27:2.72 28:4.9299998 29:5.0799999 30:9.5 31:2.28 32:5.3800001 33:6.1900001 34:2.8 35:5.6700001 36:7.73 37:5.1500001 38:6.1900001 39:1.47 40:3.8299999 #
2.877437848650932371074922730414e-06 1:16 2:0 3:0 4:8 5:0 6:0 7:0 8:4 9:8 10:16 11:8 12:0 13:8 14:4 15:12 16:0 17:12 18:0 19:0 20:4 21:8 22:1 23:5 24:9 25:2 26:6 27:4 28:7 29:7 30:10 31:2 32:3 33:5 34:3 35:8 36:5 37:3 38:8 39:0 40:4 #
-2.8774378486509324769540411372015e-07 1:4 2:0 3:4 4:0 5:4 6:4 7:8 8:0 9:12 10:4 11:4 12:0 13:16 14:4 15:8 16:16 17:0 18:4 19:0 20:8 21:8.54 22:5.0300002 23:3.52 24:6.2800002 25:4.02 26:10.55 27:5.0300002 28:1.26 29:6.2800002 30:8.04 31:0.75 32:0.5 33:6.5300002 34:3.77 35:7.29 36:11.31 37:4.27 38:4.02 39:0.5 40:2.51 #
-2.8774378486509324769540411372015e-07 1:16 2:0 3:8 4:8 5:4 6:4 7:0 8:4 9:0 10:8 11:4 12:8 13:8 14:4 15:4 16:0 17:8 18:4 19:0 20:8 21:9.96 22:1.48 23:3.8099999 24:7.6300001 25:3.8099999 26:5.5100002 27:2.1199999 28:5.7199998 29:4.6599998 30:11.02 31:2.3299999 32:3.3900001 33:5.3000002 34:6.1399999 35:4.4499998 36:8.0500002 37:5.0799999 38:5.0799999 39:1.27 40:3.1800001 #
2.877437848650932371074922730414e-06 1:36 2:0 3:0 4:0 5:0 6:12 7:0 8:0 9:0 10:12 11:4 12:0 13:0 14:0 15:4 16:4 17:8 18:20 19:0 20:0 21:9.9399996 22:1.86 23:5.2800002 24:3.73 25:2.48 26:9.3199997 27:3.73 28:4.04 29:4.04 30:12.11 31:0.93000001 32:2.8 33:5.2800002 34:4.9699998 35:5.2800002 36:8.3900003 37:3.4200001 38:9.6300001 39:0.93000001 40:1.86 #
2.877437848650932371074922730414e-06 1:4 2:0 3:4 4:8 5:4 6:4 7:0 8:4 9:0 10:4 11:4 12:0 13:0 14:0 15:4 16:52 17:4 18:4 19:0 20:0 21:6.4899998 22:2.45 23:5.0500002 24:7.2199998 25:4.3299999 26:3.75 27:2.5999999 28:4.6199999 29:5.0500002 30:13.71 31:2.1600001 32:4.6199999 33:3.1700001 34:7.0700002 35:5.48 36:8.5100002 37:4.3299999 38:5.77 39:1.3 40:2.3099999 #
-2.8774378486509324769540411372015e-07 1:0 2:4 3:4 4:12 5:8 6:4 7:0 8:4 9:4 10:8 11:8 12:4 13:8 14:8 15:8 16:4 17:4 18:0 19:8 20:0 21:5.1500001 22:2.0599999 23:6 24:6.3499999 25:3.5999999 26:3.5999999 27:3.4300001 28:6.1700001 29:7.3800001 30:8.3999996 31:1.72 32:4.6300001 33:3.5999999 34:3.95 35:4.6300001 36:11.66 37:6.8600001 38:6.3499999 39:0.69 40:3.77 #
1.2677176447305650722137447886095e-06 1:4 2:0 3:0 4:12 5:4 6:8 7:0 8:8 9:4 10:4 11:4 12:0 13:28 14:0 15:0 16:8 17:4 18:12 19:0 20:0 21:12.35 22:1.23 23:0 24:3.7 25:4.9400001 26:6.1700001 27:1.23 28:3.7 29:4.9400001 30:8.6400003 31:3.7 32:3.7 33:6.1700001 34:3.7 35:9.8800001 36:6.1700001 37:8.6400003 38:7.4099998 39:0 40:3.7 #
-2.8774378486509324769540411372015e-07 1:4 2:8 3:0 4:0 5:0 6:0 7:0 8:4 9:4 10:28 11:8 12:0 13:0 14:0 15:8 16:24 17:4 18:8 19:0 20:0 21:11.46 22:2.0799999 23:5.21 24:10.42 25:5.21 26:8.3299999 27:2.0799999 28:0 29:5.21 30:16.67 31:1.04 32:3.1199999 33:5.21 34:4.1700001 35:7.29 36:7.29 37:3.1199999 38:0 39:1.04 40:1.04 #
-2.8774378486509324769540411372015e-07 1:0 2:4 3:0 4:0 5:4 6:4 7:12 8:0 9:0 10:16 11:4 12:0 13:8 14:0 15:8 16:32 17:8 18:0 19:0 20:0 21:7.0599999 22:2.3499999 23:1.1799999 24:5.8800001 25:5.8800001 26:9.4099998 27:0 28:10.59 29:7.0599999 30:12.94 31:1.1799999 32:4.71 33:7.0599999 34:7.0599999 35:3.53 36:2.3499999 37:3.53 38:7.0599999 39:1.1799999 40:0 #
-2.8774378486509324769540411372015e-07 1:16 2:0 3:0 4:8 5:0 6:4 7:4 8:0 9:4 10:0 11:4 12:8 13:8 14:8 15:8 16:0 17:8 18:12 19:0 20:8 21:5.7800002 22:1.9299999 23:5.6300001 24:6.0700002 25:3.5599999 26:8 27:2.22 28:6.96 29:9.04 30:9.3299999 31:1.78 32:5.1900001 33:3.4100001 34:3.26 35:2.6700001 36:6.3699999 37:6.0700002 38:7.5599999 39:1.48 40:3.7 #
2.877437848650932371074922730414e-06 1:28 2:0 3:4 4:8 5:0 6:24 7:4 8:0 9:0 10:8 11:4 12:0 13:12 14:0 15:4 16:0 17:4 18:0 19:0 20:0 21:6.5 22:2 23:6.5 24:6.5 25:6 26:5 27:2.5 28:5.5 29:8 30:8.5 31:0.5 32:5.5 33:2.5 34:5.5 35:4.5 36:8 37:3.5 38:9 39:2 40:2 #
-2.8774378486509324769540411372015e-07 1:40 2:0 3:0 4:0 5:0 6:32 7:0 8:0 9:4 10:0 11:4 12:0 13:4 14:0 15:12 16:4 17:0 18:0 19:0 20:0 21:8.5900002 22:0.94999999 23:5.9699998 24:10.02 25:2.3900001 26:5.25 27:1.1900001 28:4.0599999 29:3.8199999 30:10.98 31:3.8199999 32:3.8199999 33:3.5799999 34:3.0999999 35:5.4899998 36:8.1099997 37:7.4000001 38:8.3500004 39:0.72000003 40:2.3900001 #
-2.8774378486509324769540411372015e-07 1:36 2:0 3:0 4:0 5:0 6:32 7:4 8:0 9:0 10:0 11:4 12:0 13:4 14:0 15:4 16:12 17:0 18:4 19:0 20:0 21:7.79 22:1.5599999 23:2.3399999 24:1.3 25:4.4200001 26:4.4200001 27:3.1199999 28:5.1900001 29:3.9000001 30:14.29 31:2.0799999 32:4.4200001 33:7.5300002 34:2.5999999 35:4.4200001 36:9.6099997 37:4.9400001 38:9.6099997 39:2.0799999 40:4.4200001 #
2.877437848650932371074922730414e-06 1:8 2:0 3:0 4:0 5:4 6:0 7:4 8:0 9:0 10:24 11:8 12:0 13:4 14:0 15:4 16:28 17:8 18:8 19:0 20:0 21:5.6700001 22:0.70999998 23:6.3800001 24:11.35 25:4.2600002 26:1.42 27:1.42 28:4.96 29:7.0900002 30:12.06 31:2.8399999 32:4.96 33:6.3800001 34:3.55 35:9.2200003 36:5.6700001 37:4.2600002 38:1.42 39:2.1300001 40:4.2600002 #
-2.8774378486509324769540411372015e-07 1:16 2:4 3:4 4:12 5:8 6:8 7:0 8:4 9:4 10:12 11:8 12:0 13:0 14:0 15:8 16:4 17:4 18:0 19:0 20:4 21:6.6799998 22:1.76 23:4.3899999 24:5.0999999 25:5.4499998 26:6.5 27:2.8099999 28:5.0999999 29:6.5 30:8.2600002 31:1.05 32:6.8499999 33:5.27 34:2.8099999 35:6.1500001 36:10.9 37:5.8000002 38:3.51 39:0.52999997 40:4.5700002 #
-2.2117192743642357825395797221724e-07 1:0 2:0 3:16 4:12 5:0 6:0 7:12 8:0 9:0 10:4 11:8 12:4 13:4 14:0 15:0 16:8 17:8 18:4 19:0 20:20 21:10.03 22:3.1300001 23:2.51 24:2.8199999 25:5.02 26:7.21 27:3.76 28:3.76 29:1.88 30:15.05 31:2.51 32:0.94 33:5.96 34:2.51 35:5.02 36:7.21 37:4.6999998 38:10.03 39:3.1300001 40:2.8199999 #
2.877437848650932371074922730414e-06 1:16 2:0 3:4 4:0 5:16 6:4 7:4 8:0 9:4 10:4 11:4 12:4 13:0 14:4 15:20 16:0 17:4 18:8 19:0 20:4 21:8.3299999 22:2.4300001 23:7.9899998 24:7.6399999 25:3.8199999 26:7.9899998 27:1.74 28:2.78 29:8.3299999 30:10.07 31:2.4300001 32:3.1199999 33:4.5100002 34:3.47 35:2.78 36:7.29 37:3.8199999 38:6.5999999 39:1.39 40:3.47 #
2.877437848650932371074922730414e-06 1:32 2:0 3:0 4:0 5:0 6:20 7:0 8:0 9:0 10:8 11:4 12:0 13:4 14:4 15:4 16:0 17:0 18:20 19:0 20:4 21:9.5699997 22:1.98 23:3.6300001 24:8.9099998 25:5.6100001 26:6.5999999 27:0.99000001 28:4.6199999 29:6.27 30:8.9099998 31:1.3200001 32:3.6300001 33:3.96 34:6.5999999 35:6.5999999 36:5.6100001 37:5.2800002 38:5.6100001 39:0.99000001 40:3.3 #
-2.8774378486509324769540411372015e-07 1:12 2:0 3:4 4:4 5:8 6:0 7:4 8:4 9:8 10:12 11:4 12:0 13:4 14:0 15:4 16:12 17:8 18:8 19:4 20:0 21:8.3299999 22:0.56 23:4.6500001 24:5.9299998 25:3.29 26:4.25 27:1.6799999 28:4.73 29:6.4099998 30:8.5699997 31:1.52 32:8.0100002 33:8.8100004 34:4.5700002 35:2.0799999 36:11.06 37:7.3699999 38:4.73 39:1.4400001 40:2 #
-2.8774378486509324769540411372015e-07 1:8 2:0 3:0 4:0 5:0 6:0 7:4 8:0 9:4 10:8 11:16 12:4 13:4 14:48 15:4 16:0 17:0 18:0 19:0 20:0 21:8.71 22:1 23:4.23 24:4.48 25:4.48 26:8.21 27:2.99 28:2.99 29:3.48 30:7.96 31:1.74 32:5.4699998 33:6.7199998 34:6.9699998 35:4.73 36:8.71 37:6.2199998 38:6.2199998 39:1.24 40:3.48 #
-2.8774378486509324769540411372015e-07 1:4 2:0 3:0 4:8 5:0 6:12 7:4 8:8 9:8 10:12 11:8 12:0 13:12 14:8 15:0 16:8 17:0 18:8 19:0 20:0 21:5.2600002 22:5.79 23:4.21 24:6.3200002 25:5.79 26:4.7399998 27:3.6800001 28:4.7399998 29:6.3200002 30:7.8899999 31:1.05 32:7.8899999 33:3.6800001 34:3.6800001 35:5.79 36:6.8400002 37:5.2600002 38:5.2600002 39:4.21 40:1.58 #
2.877437848650932371074922730414e-06 1:0 2:8 3:4 4:12 5:0 6:0 7:16 8:4 9:4 10:20 11:4 12:8 13:8 14:0 15:0 16:4 17:4 18:4 19:0 20:0 21:1.85 22:3.7 23:3.7 24:12.96 25:5.5599999 26:3.7 27:3.7 28:3.7 29:14.81 30:7.4099998 31:1.85 32:11.11 33:3.7 34:0 35:9.2600002 36:3.7 37:1.85 38:3.7 39:0 40:3.7 #
-2.8774378486509324769540411372015e-07 1:4 2:0 3:0 4:4 5:0 6:0 7:8 8:0 9:0 10:20 11:4 12:0 13:4 14:0 15:4 16:40 17:8 18:4 19:0 20:0 21:9.2399998 22:0.87 23:6.0900002 24:7.9299998 25:3.7 26:7.6100001 27:1.3 28:7.2800002 29:6.0900002 30:9.6700001 31:2.1700001 32:2.28 33:4.2399998 34:2.8299999 35:6.7399998 36:8.6999998 37:4.8899999 38:6.0900002 39:0.43000001 40:1.85 #
-2.8774378486509324769540411372015e-07 1:8 2:0 3:0 4:0 5:12 6:4 7:0 8:8 9:0 10:4 11:12 12:0 13:0 14:0 15:0 16:16 17:4 18:24 19:4 20:4 21:10.42 22:2.0799999 23:2.0799999 24:4.1700001 25:6.25 26:0 27:2.0799999 28:4.1700001 29:2.0799999 30:14.58 31:6.25 32:4.1700001 33:8.3299999 34:4.1700001 35:8.3299999 36:4.1700001 37:6.25 38:6.25 39:4.1700001 40:0 #
-2.8774378486509324769540411372015e-07 1:4 2:0 3:4 4:0 5:0 6:0 7:0 8:16 9:8 10:24 11:16 12:8 13:0 14:0 15:0 16:0 17:0 18:12 19:0 20:8 21:3.23 22:0 23:0 24:3.23 25:0 26:0 27:3.23 28:9.6800003 29:29.030001 30:16.129999 31:0 32:12.9 33:3.23 34:0 35:0 36:6.4499998 37:3.23 38:3.23 39:3.23 40:3.23 #
-2.8774378486509324769540411372015e-07 1:8 2:4 3:0 4:0 5:4 6:12 7:0 8:4 9:0 10:32 11:8 12:4 13:0 14:0 15:0 16:0 17:16 18:4 19:4 20:0 21:4.7600002 22:1.1900001 23:1.1900001 24:2.3800001 25:2.3800001 26:4.7600002 27:32.139999 28:0 29:1.1900001 30:9.5200005 31:1.1900001 32:1.1900001 33:3.5699999 34:2.3800001 35:16.67 36:3.5699999 37:2.3800001 38:8.3299999 39:1.1900001 40:0 #
-2.8774378486509324769540411372015e-07 1:8 2:4 3:8 4:8 5:4 6:4 7:4 8:4 9:4 10:12 11:4 12:0 13:0 14:12 15:12 16:4 17:0 18:0 19:4 20:4 21:4.8800001 22:1.54 23:5.7800002 24:6.8699999 25:3.3399999 26:5.1500001 27:2.8 28:5.7800002 29:7.23 30:9.21 31:2.6199999 32:4.6100001 33:4.6999998 34:6.0500002 35:4.79 36:9.3000002 37:4.6999998 38:6.6799998 39:1.08 40:2.8900001 #
-2.8774378486509324769540411372015e-07 1:8 2:4 3:4 4:8 5:4 6:0 7:8 8:0 9:4 10:4 11:4 12:4 13:8 14:4 15:4 16:16 17:8 18:4 19:0 20:4 21:5.5799999 22:1.2 23:5.1799998 24:3.5899999 25:5.5799999 26:5.5799999 27:4.3800001 28:6.77 29:3.5899999 30:11.55 31:1.99 32:4.7800002 33:4.3800001 34:2.79 35:6.77 36:6.77 37:5.5799999 38:6.3699999 39:1.99 40:5.5799999 #
-2.8774378486509324769540411372015e-07 1:36 2:0 3:0 4:4 5:0 6:36 7:0 8:0 9:8 10:4 11:4 12:0 13:0 14:4 15:0 16:4 17:0 18:0 19:0 20:0 21:6.1900001 22:2.6500001 23:5.8000002 24:8.25 25:3.6300001 26:3.4400001 27:2.75 28:5.0100002 29:5.8000002 30:13.75 31:3.24 32:3.24 33:4.6199999 34:5.4000001 35:5.3000002 36:8.25 37:4.3200002 38:5.1100001 39:1.08 40:2.1600001 #
-2.8774378486509324769540411372015e-07 1:32 2:0 3:4 4:4 5:4 6:32 7:0 8:0 9:0 10:8 11:4 12:0 13:8 14:0 15:4 16:0 17:0 18:0 19:0 20:0 21:17.34 22:2.02 23:1.73 24:6.9400001 25:2.5999999 26:6.0700002 27:2.8900001 28:0.57999998 29:2.3099999 30:17.629999 31:0.87 32:1.16 33:9.25 34:8.3800001 35:5.7800002 36:5.1999998 37:2.5999999 38:4.3400002 39:0.87 40:1.45 #
2.4080383652683737139162632734379e-06 1:0 2:4 3:4 4:0 5:4 6:0 7:0 8:8 9:4 10:20 11:0 12:4 13:12 14:4 15:8 16:16 17:0 18:12 19:0 20:0 21:2.5599999 22:2.5599999 23:0 24:1.28 25:8.9700003 26:2.5599999 27:0 28:6.4099998 29:3.8499999 30:19.23 31:1.28 32:10.26 33:3.8499999 34:1.28 35:0 36:17.950001 37:7.6900001 38:5.1300001 39:2.5599999 40:2.5599999 #
1.846061844779240950173448444771e-06 1:0 2:0 3:0 4:0 5:8 6:0 7:0 8:4 9:0 10:24 11:24 12:8 13:4 14:0 15:0 16:16 17:8 18:4 19:0 20:0 21:7.5700002 22:0.69 23:1.89 24:1.89 25:7.23 26:4.8200002 27:1.72 28:10.84 29:4.1300001 30:14.46 31:5.6799998 32:5.5100002 33:4.48 34:2.9300001 35:1.38 36:7.9200001 37:8.4300003 38:2.24 39:2.0699999 40:4.1300001 #
2.877437848650932371074922730414e-06 1:0 2:0 3:8 4:0 5:4 6:0 7:4 8:4 9:0 10:28 11:8 12:4 13:4 14:16 15:0 16:8 17:0 18:0 19:8 20:4 21:4.23 22:0 23:6.3400002 24:5.6300001 25:4.23 26:4.23 27:2.8199999 28:4.9299998 29:7.04 30:13.38 31:2.8199999 32:2.8199999 33:7.04 34:4.23 35:5.6300001 36:9.8599997 37:7.75 38:5.6300001 39:0.69999999 40:0.69999999 #
2.877437848650932371074922730414e-06 1:4 2:0 3:0 4:4 5:0 6:0 7:0 8:8 9:8 10:24 11:4 12:0 13:4 14:0 15:12 16:24 17:4 18:4 19:0 20:0 21:5.1399999 22:3.8599999 23:4.5 24:6.4299998 25:4.1799998 26:9.6499996 27:4.1799998 28:6.1100001 29:4.1799998 30:7.4000001 31:2.5699999 32:5.1399999 33:2.5699999 34:2.25 35:5.1399999 36:10.29 37:4.8200002 38:8.6800003 39:0.31999999 40:2.5699999 #
-2.8774378486509324769540411372015e-07 1:4 2:0 3:0 4:12 5:4 6:4 7:0 8:0 9:4 10:12 11:4 12:4 13:8 14:8 15:12 16:24 17:0 18:0 19:0 20:0 21:4.6300001 22:0.57999998 23:0.57999998 24:5.4099998 25:3.47 26:27.799999 27:1.54 28:2.7 29:14.67 30:5.5999999 31:6.1799998 32:0.57999998 33:2.1199999 34:0.38999999 35:2.1199999 36:16.99 37:1.35 38:2.9000001 39:0.38999999 40:0 #
-2.8774378398152364014040793631366e-07 1:16 2:0 3:4 4:8 5:4 6:8 7:4 8:16 9:4 10:0 11:4 12:4 13:4 14:0 15:0 16:16 17:0 18:8 19:0 20:0 21:4.3800001 22:0.81 23:7.46 24:6.48 25:3.0799999 26:3.24 27:2.1099999 28:5.8299999 29:9.3999996 30:9.8900003 31:2.76 32:9.8900003 33:3.73 34:4.21 35:4.21 36:7.6199999 37:6.1599998 38:5.8299999 39:0.49000001 40:2.4300001 #
-2.8774378486509324769540411372015e-07 1:44 2:0 3:0 4:4 5:0 6:16 7:0 8:0 9:0 10:8 11:8 12:0 13:0 14:0 15:0 16:4 17:0 18:16 19:0 20:0 21:8.6599998 22:1.03 23:5.98 24:7.6300001 25:3.71 26:4.9499998 27:2.27 28:5.1500001 29:5.77 30:10.1 31:4.1199999 32:3.0899999 33:5.5700002 34:3.0899999 35:6.1900001 36:6.1900001 37:5.3600001 38:6.5999999 39:1.4400001 40:3.0899999 #
-2.8774378486509324769540411372015e-07 1:0 2:0 3:0 4:4 5:4 6:0 7:12 8:16 9:8 10:16 11:8 12:4 13:0 14:0 15:4 16:8 17:16 18:0 19:0 20:0 21:0 22:0 23:5.3299999 24:2.6700001 25:16 26:0 27:0 28:9.3299999 29:5.3299999 30:9.3299999 31:5.3299999 32:10.67 33:4 34:1.33 35:5.3299999 36:12 37:4 38:8 39:0 40:1.33 #
-2.8774378486509324769540411372015e-07 1:8 2:0 3:4 4:8 5:0 6:8 7:0 8:4 9:0 10:12 11:4 12:4 13:8 14:4 15:8 16:16 17:4 18:4 19:4 20:0 21:7.1700001 22:4.7800002 23:5.3800001 24:6.5700002 25:2.5899999 26:8.3699999 27:2.1900001 28:5.3800001 29:6.5700002 30:12.75 31:1.79 32:3.98 33:1.39 34:1.59 35:7.1700001 36:8.3699999 37:4.3800001 38:8.3699999 39:1 40:0.2 #
-2.8774378486509324769540411372015e-07 1:52 2:4 3:0 4:0 5:0 6:0 7:4 8:0 9:0 10:4 11:4 12:0 13:8 14:0 15:4 16:20 17:0 18:0 19:0 20:0 21:11.79 22:1.14 23:3.4200001 24:8.3699999 25:4.1799998 26:9.5100002 27:2.28 28:7.98 29:4.1799998 30:7.2199998 31:1.52 32:3.4200001 33:6.0799999 34:3.8 35:6.46 36:4.5599999 37:4.9400001 38:6.0799999 39:0.38 40:2.6600001 #
-2.8774378486509324769540411372015e-07 1:52 2:0 3:16 4:0 5:4 6:4 7:0 8:0 9:0 10:0 11:4 12:0 13:0 14:0 15:0 16:12 17:4 18:0 19:4 20:0 21:5.04 22:0.83999997 23:10.5 24:14.29 25:2.0999999 26:7.1399999 27:0 28:3.78 29:15.55 30:7.98 31:1.6799999 32:2.52 33:2.52 34:4.1999998 35:3.3599999 36:4.6199999 37:3.78 38:5.8800001 39:0.83999997 40:3.3599999 #
2.877437848650932371074922730414e-06 1:0 2:0 3:4 4:8 5:8 6:4 7:0 8:16 9:4 10:24 11:4 12:0 13:0 14:0 15:4 16:4 17:16 18:4 19:0 20:0 21:8.6300001 22:1.2 23:6 24:4.0799999 25:3.3599999 26:6.2399998 27:6 28:9.8299999 29:2.6400001 30:9.3500004 31:1.2 32:5.2800002 33:4.0799999 34:3.1199999 35:4.0799999 36:11.99 37:3.1199999 38:6.4699998 39:1.2 40:2.1600001 #
2.877437848650932371074922730414e-06 1:4 2:0 3:0 4:0 5:20 6:0 7:0 8:20 9:0 10:24 11:8 12:4 13:0 14:0 15:0 16:12 17:4 18:4 19:0 20:0 21:2.7 22:1.72 23:4.4099998 24:3.9200001 25:5.3899999 26:6.1300001 27:1.47 28:8.8199997 29:11.03 30:11.76 31:1.23 32:8.5799999 33:2.9400001 34:1.96 35:3.6800001 36:9.3100004 37:4.6599998 38:6.1300001 39:1.23 40:2.9400001 #
3.1629888016921389642444918666175e-07 1:0 2:0 3:4 4:8 5:8 6:0 7:4 8:12 9:8 10:16 11:4 12:0 13:4 14:0 15:4 16:20 17:8 18:0 19:0 20:0 21:5.71 22:0 23:0 24:0 25:5.71 26:5.71 27:5.71 28:2.8599999 29:0 30:17.139999 31:0 32:11.43 33:11.43 34:0 35:2.8599999 36:8.5699997 37:2.8599999 38:8.5699997 39:5.71 40:5.71 #
-2.8774378486509324769540411372015e-07 1:0 2:0 3:4 4:4 5:4 6:20 7:0 8:0 9:0 10:8 11:4 12:12 13:4 14:0 15:0 16:8 17:28 18:0 19:0 20:4 21:9.9200001 22:2.53 23:3.8 24:2.53 25:4.8499999 26:11.6 27:2.1099999 28:6.96 29:3.1600001 30:9.6999998 31:3.1600001 32:3.5899999 33:3.8 34:1.48 35:2.74 36:7.3800001 37:6.1199999 38:7.5900002 39:3.5899999 40:3.3800001 #
-2.8774378486509324769540411372015e-07 1:4 2:0 3:4 4:4 5:8 6:24 7:0 8:0 9:0 10:16 11:4 12:12 13:4 14:4 15:8 16:4 17:4 18:0 19:0 20:0 21:6.9699998 22:0.69999999 23:5.9200001 24:5.23 25:2.0899999 26:5.9200001 27:3.1400001 28:4.5300002 29:7.3200002 30:9.7600002 31:5.9200001 32:5.23 33:3.8299999 34:5.9200001 35:2.79 36:6.9699998 37:4.5300002 38:9.4099998 39:1.05 40:2.79 #
2.877437848650932371074922730414e-06 1:8 2:0 3:0 4:12 5:0 6:4 7:0 8:4 9:20 10:8 11:16 12:0 13:4 14:8 15:4 16:0 17:4 18:8 19:0 20:0 21:15.38 22:1.28 23:2.5599999 24:6.4099998 25:2.5599999 26:7.6900001 27:1.28 28:0 29:3.8499999 30:16.67 31:1.28 32:1.28 33:1.28 34:11.54 35:7.6900001 36:5.1300001 37:3.8499999 38:8.9700003 39:0 40:1.28 #
2.877437848650932371074922730414e-06 1:36 2:0 3:0 4:8 5:0 6:12 7:0 8:0 9:0 10:4 11:4 12:4 13:12 14:4 15:0 16:8 17:4 18:0 19:0 20:4 21:11.83 22:3.55 23:4.1399999 24:4.73 25:5.9200001 26:14.2 27:0 28:5.9200001 29:6.5100002 30:7.6900001 31:2.96 32:1.78 33:4.1399999 34:2.3699999 35:4.1399999 36:7.0999999 37:4.1399999 38:4.73 39:0.58999997 40:3.55 #
2.877437848650932371074922730414e-06 1:36 2:0 3:0 4:4 5:0 6:20 7:0 8:4 9:4 10:0 11:8 12:4 13:8 14:0 15:0 16:8 17:0 18:4 19:0 20:0 21:11.77 22:2.22 23:5.9699998 24:8.0200005 25:3.0699999 26:6.48 27:1.54 28:4.27 29:9.8999996 30:9.8999996 31:3.24 32:4.0999999 33:3.24 34:5.6300001 35:4.27 36:5.29 37:3.4100001 38:3.0699999 39:0.68000001 40:3.9200001 #
-2.8774378486509324769540411372015e-07 1:12 2:0 3:0 4:0 5:8 6:12 7:4 8:12 9:0 10:12 11:8 12:0 13:4 14:0 15:4 16:8 17:4 18:0 19:12 20:0 21:6.6599998 22:2.5 23:3.49 24:9.1499996 25:3.49 26:6.8200002 27:1.66 28:3.3299999 29:2.6600001 30:10.48 31:1.33 32:3.99 33:7.4899998 34:2.8299999 35:5.6599998 36:8.6499996 37:5.3200002 38:9.6499996 39:1.16 40:3.6600001 #
-2.8774378486509324769540411372015e-07 1:16 2:8 3:4 4:0 5:12 6:0 7:4 8:8 9:0 10:8 11:8 12:4 13:0 14:4 15:4 16:8 17:4 18:8 19:0 20:0 21:6.2399998 22:1.38 23:7.5300002 24:5.5999999 25:4.5 26:8.4499998 27:3.49 28:4.4099998 29:7.9899998 30:7.1599998 31:2.3 32:5.79 33:4.3200002 34:2.2 35:2.75 36:5.6900001 37:6.6100001 38:6.8899999 39:1.65 40:5.0500002 #
2.877437848650932371074922730414e-06 1:0 2:0 3:8 4:0 5:4 6:4 7:0 8:8 9:0 10:32 11:8 12:8 13:0 14:0 15:0 16:8 17:8 18:4 19:0 20:8 21:6.98 22:2.79 23:4.6500001 24:2.3299999 25:4.1900001 26:4.6500001 27:2.3299999 28:4.6500001 29:5.1199999 30:10.7 31:2.3299999 32:4.1900001 33:5.1199999 34:3.72 35:5.5799999 36:12.09 37:9.3000002 38:4.1900001 39:1.4 40:3.72 #
2.877437848650932371074922730414e-06 1:4 2:4 3:0 4:4 5:8 6:4 7:4 8:4 9:8 10:20 11:8 12:0 13:4 14:4 15:8 16:12 17:0 18:4 19:0 20:0 21:5.1300001 22:1.28 23:4.6999998 24:8.5500002 25:2.99 26:3.8499999 27:1.71 28:8.5500002 29:9.3999996 30:8.5500002 31:2.5599999 32:6.4099998 33:5.1300001 34:5.1300001 35:6.4099998 36:8.5500002 37:3.4200001 38:5.98 39:1.28 40:0.43000001 #
2.877437848650932371074922730414e-06 1:8 2:0 3:0 4:0 5:4 6:8 7:0 8:8 9:0 10:16 11:4 12:4 13:4 14:8 15:12 16:16 17:8 18:0 19:0 20:0 21:9.4099998 22:2.6300001 23:6.0900002 24:6.2199998 25:3.73 26:7.0500002 27:1.24 28:5.3899999 29:5.8099999 30:7.0500002 31:2.77 32:4.4299998 33:5.9499998 34:3.04 35:5.5300002 36:6.5 37:4.8400002 38:9.4099998 39:0.82999998 40:2.0699999 #
-2.8774378486509324769540411372015e-07 1:32 2:0 3:0 4:0 5:0 6:0 7:0 8:0 9:4 10:8 11:4 12:0 13:8 14:0 15:20 16:8 17:0 18:16 19:0 20:0 21:8.5699997 22:0 23:7.6199999 24:4.7600002 25:2.8599999 26:10.48 27:0 28:4.7600002 29:7.6199999 30:6.6700001 31:1.9 32:3.8099999 33:2.8599999 34:3.8099999 35:7.6199999 36:7.6199999 37:7.6199999 38:5.71 39:0.94999999 40:4.7600002 #
-2.8774378486509324769540411372015e-07 1:28 2:0 3:4 4:0 5:0 6:12 7:0 8:0 9:0 10:4 11:4 12:0 13:12 14:0 15:12 16:4 17:0 18:12 19:8 20:0 21:8.0200005 22:4.0100002 23:4.9400001 24:4.3200002 25:3.0899999 26:12.65 27:5.25 28:2.47 29:1.54 30:9.5699997 31:0.93000001 32:0.93000001 33:6.79 34:3.4000001 35:8.9499998 36:6.48 37:6.48 38:5.5599999 39:2.1600001 40:2.47 #
-2.8774378486509324769540411372015e-07 1:0 2:0 3:8 4:8 5:4 6:4 7:0 8:16 9:12 10:12 11:4 12:8 13:0 14:0 15:0 16:8 17:4 18:12 19:0 20:0 21:1.28 22:1.28 23:5.1300001 24:3.8499999 25:8.9700003 26:7.6900001 27:0 28:7.6900001 29:10.26 30:17.950001 31:3.8499999 32:7.6900001 33:2.5599999 34:3.8499999 35:3.8499999 36:6.4099998 37:1.28 38:1.28 39:0 40:5.1300001 #
2.877437848650932371074922730414e-06 1:0 2:4 3:0 4:8 5:4 6:0 7:0 8:4 9:24 10:8 11:4 12:8 13:0 14:24 15:0 16:0 17:8 18:0 19:0 20:4 21:4.8800001 22:0 23:2.4400001 24:6.71 25:3.05 26:4.8800001 27:1.83 28:9.1499996 29:10.37 30:11.59 31:1.83 32:9.7600002 33:2.4400001 34:6.71 35:2.4400001 36:4.27 37:6.0999999 38:6.71 39:0 40:4.8800001 #
-2.8774378486509324769540411372015e-07 1:4 2:0 3:4 4:4 5:4 6:12 7:0 8:4 9:0 10:16 11:4 12:4 13:0 14:8 15:8 16:8 17:4 18:12 19:0 20:4 21:6.3800001 22:2.0599999 23:5.1399999 24:8.4399996 25:2.8800001 26:7 27:2.8800001 28:4.73 29:6.79 30:10.08 31:2.0599999 32:4.5300002 33:6.79 34:3.9100001 35:5.9699998 36:7.6100001 37:4.3200002 38:3.9100001 39:1.65 40:2.8800001 #
-2.8774378486509324769540411372015e-07 1:16 2:0 3:8 4:8 5:0 6:8 7:0 8:0 9:0 10:12 11:4 12:0 13:4 14:4 15:4 16:12 17:8 18:12 19:0 20:0 21:6.0700002 22:1.21 23:2.8299999 24:7.6900001 25:4.4499998 26:8.9099998 27:1.21 28:6.48 29:5.2600002 30:9.3100004 31:1.21 32:4.0500002 33:6.48 34:5.6700001 35:6.48 36:5.6700001 37:4.8600001 38:7.29 39:2.4300001 40:2.4300001 #
2.877437848650932371074922730414e-06 1:8 2:0 3:8 4:0 5:4 6:0 7:4 8:4 9:4 10:12 11:8 12:0 13:12 14:0 15:16 16:8 17:4 18:4 19:0 20:4 21:3.5599999 22:0.40000001 23:7.5100002 24:9.0900002 25:3.1600001 26:5.9299998 27:1.98 28:3.5599999 29:7.1100001 30:5.9299998 31:3.1600001 32:1.98 33:7.1100001 34:5.1399999 35:7.1100001 36:6.7199998 37:5.5300002 38:7.9099998 39:1.98 40:5.1399999 #
-2.8774378486509324769540411372015e-07 1:8 2:0 3:8 4:8 5:0 6:8 7:0 8:4 9:8 10:8 11:12 12:0 13:16 14:4 15:0 16:0 17:8 18:8 19:0 20:0 21:8.8500004 22:0.88 23:1.77 24:6.6399999 25:4.8699999 26:10.18 27:1.77 28:1.33 29:3.98 30:9.29 31:1.33 32:4.8699999 33:11.95 34:3.54 35:7.96 36:8.4099998 37:3.98 38:4.8699999 39:0.88 40:2.6500001 #
-2.8774378486509324769540411372015e-07 1:12 2:0 3:8 4:4 5:0 6:8 7:0 8:4 9:4 10:4 11:8 12:4 13:0 14:8 15:8 16:8 17:4 18:12 19:0 20:4 21:9.8400002 22:0.88999999 23:7.3800001 24:6.4899998 25:4.0300002 26:6.2600002 27:1.12 28:4.6999998 29:5.5900002 30:8.5 31:2.6800001 32:3.5799999 33:5.8200002 34:2.9100001 35:6.9400001 36:9.8400002 37:5.5900002 38:5.3699999 39:1.34 40:1.12 #
-2.8774378486509324769540411372015e-07 1:36 2:0 3:0 4:0 5:4 6:8 7:0 8:0 9:0 10:24 11:4 12:0 13:0 14:0 15:12 16:0 17:0 18:8 19:4 20:0 21:7.0700002 22:1.9299999 23:6.1100001 24:6.1100001 25:6.4299998 26:6.4299998 27:3.54 28:7.0700002 29:7.7199998 30:10.29 31:1.29 32:4.5 33:3.8599999 34:2.8900001 35:5.1399999 36:5.4699998 37:3.8599999 38:5.79 39:1.29 40:3.22 #
-2.8774378486509324769540411372015e-07 1:32 2:0 3:8 4:12 5:0 6:4 7:0 8:0 9:0 10:4 11:12 12:0 13:8 14:0 15:12 16:0 17:4 18:4 19:0 20:0 21:4.1799998 22:2.3 23:2.3 24:4.5900002 25:7.0999999 26:6.4699998 27:2.3 28:9.8100004 29:4.5900002 30:12.32 31:2.0899999 32:3.97 33:4.5900002 34:3.76 35:2.3 36:7.9299998 37:5.4299998 38:9.3900003 39:1.25 40:3.3399999 #
-2.8774378486509324769540411372015e-07 1:0 2:0 3:0 4:8 5:4 6:4 7:0 8:0 9:0 10:20 11:4 12:0 13:8 14:4 15:4 16:40 17:4 18:0 19:0 20:0 21:4.5799999 22:5.3400002 23:0.75999999 24:4.5799999 25:4.5799999 26:6.8699999 27:0.75999999 28:3.8199999 29:8.3999996 30:8.3999996 31:0.75999999 32:4.5799999 33:9.1599998 34:0 35:7.6300001 36:9.1599998 37:9.1599998 38:6.1100001 39:0.75999999 40:4.5799999 #
3.2894153493310646205785270981825e-07 1:4 2:4 3:0 4:4 5:12 6:0 7:0 8:28 9:0 10:12 11:8 12:0 13:0 14:0 15:0 16:4 17:12 18:0 19:0 20:12 21:5.6199999 22:0 23:3.1199999 24:2.5 25:4.3800001 26:5 27:0.62 28:18.120001 29:3.1199999 30:19.379999 31:3.75 32:7.5 33:1.88 34:0.62 35:0.62 36:6.25 37:6.8800001 38:5.6199999 39:0.62 40:4.3800001 #
-2.8774378486509324769540411372015e-07 1:4 2:0 3:0 4:4 5:12 6:0 7:0 8:20 9:0 10:12 11:4 12:0 13:0 14:4 15:0 16:20 17:12 18:0 19:0 20:8 21:5.1100001 22:4.3800001 23:2.1900001 24:2.9200001 25:2.1900001 26:4.3800001 27:3.6500001 28:4.3800001 29:9.4899998 30:10.22 31:0 32:4.3800001 33:9.4899998 34:2.1900001 35:9.4899998 36:6.5700002 37:7.3000002 38:8.0299997 39:1.46 40:2.1900001 #
-2.8774378486509324769540411372015e-07 1:0 2:0 3:0 4:0 5:4 6:0 7:0 8:12 9:20 10:0 11:4 12:8 13:12 14:0 15:0 16:16 17:24 18:0 19:0 20:0 21:2.1099999 22:0.60000002 23:6.02 24:7.8299999 25:7.8299999 26:4.2199998 27:0.60000002 28:3.9200001 29:11.75 30:6.6300001 31:1.51 32:11.14 33:2.1099999 34:5.4200001 35:3.01 36:9.6400003 37:8.1300001 38:3.01 39:2.4100001 40:2.1099999 #
2.877437848650932371074922730414e-06 1:4 2:0 3:16 4:4 5:0 6:12 7:0 8:4 9:0 10:8 11:4 12:0 13:0 14:4 15:12 16:8 17:8 18:12 19:0 20:4 21:5.0700002 22:3 23:8.29 24:6.9099998 25:5.3000002 26:7.5999999 27:3.46 28:5.9899998 29:10.14 30:7.3699999 31:0.69 32:6.4499998 33:4.3800001 34:2.0699999 35:3 36:6.9099998 37:5.5300002 38:4.1500001 39:0.92000002 40:2.76 #
-2.8774378486509324769540411372015e-07 1:44 2:0 3:0 4:0 5:0 6:8 7:0 8:0 9:4 10:0 11:8 12:0 13:4 14:0 15:8 16:0 17:12 18:8 19:4 20:0 21:9.5100002 22:1.55 23:4.27 24:5.8299999 25:2.52 26:9.3199997 27:2.72 28:4.4699998 29:4.0799999 30:12.23 31:2.3299999 32:2.72 33:6.8000002 34:2.72 35:6.9899998 36:8.7399998 37:4.6599998 38:5.6300001 39:1.55 40:1.36 #
-2.8774378486509324769540411372015e-07 1:40 2:0 3:0 4:0 5:4 6:8 7:0 8:0 9:0 10:16 11:4 12:0 13:0 14:0 15:8 16:0 17:4 18:12 19:4 20:0 21:7.0700002 22:1.9299999 23:3.54 24:7.7199998 25:3.8599999 26:9.3199997 27:1.9299999 28:4.1799998 29:4.1799998 30:13.5 31:2.25 32:4.1799998 33:4.1799998 34:2.8900001 35:8.3599997 36:6.75 37:3.54 38:7.7199998 39:0.63999999 40:2.25 #
1.563188903082737967885525176559e-06 1:0 2:0 3:0 4:0 5:4 6:0 7:0 8:8 9:0 10:20 11:12 12:4 13:12 14:8 15:0 16:0 17:24 18:4 19:4 20:0 21:0 22:2.3299999 23:0 24:2.3299999 25:0 26:0 27:4.6500001 28:2.3299999 29:16.280001 30:11.63 31:6.98 32:9.3000002 33:18.6 34:2.3299999 35:0 36:9.3000002 37:4.6500001 38:0 39:4.6500001 40:4.6500001 #
2.877437848650932371074922730414e-06 1:0 2:0 3:4 4:0 5:32 6:0 7:0 8:0 9:4 10:4 11:8 12:8 13:8 14:4 15:0 16:16 17:8 18:0 19:0 20:4 21:5.9499998 22:3.5699999 23:4.7600002 24:2.3800001 25:5.9499998 26:3.5699999 27:7.1399999 28:2.3800001 29:3.5699999 30:5.9499998 31:1.1900001 32:7.1399999 33:7.1399999 34:3.5699999 35:8.3299999 36:13.1 37:7.1399999 38:2.3800001 39:1.1900001 40:3.5699999 #
2.877437848650932371074922730414e-06 1:0 2:4 3:16 4:20 5:4 6:4 7:0 8:0 9:4 10:0 11:8 12:0 13:0 14:4 15:0 16:12 17:4 18:16 19:4 20:0 21:5.6799998 22:2.27 23:1.14 24:5.6799998 25:7.9499998 26:7.9499998 27:2.27 28:3.4100001 29:5.6799998 30:12.5 31:2.27 32:6.8200002 33:4.5500002 34:1.14 35:5.6799998 36:11.36 37:2.27 38:6.8200002 39:2.27 40:2.27 #
-2.8774378486509324769540411372015e-07 1:16 2:0 3:4 4:4 5:8 6:12 7:0 8:0 9:4 10:8 11:4 12:0 13:8 14:8 15:8 16:8 17:0 18:4 19:0 20:4 21:4.5300002 22:3.4000001 23:5.9499998 24:8.2200003 25:5.3800001 26:5.0999999 27:2.55 28:4.5300002 29:6.23 30:8.7799997 31:1.7 32:5.6700001 33:4.25 34:5.6700001 35:5.3800001 36:6.23 37:4.5300002 38:6.52 39:1.7 40:3.6800001 #
-2.8774378486509324769540411372015e-07 1:0 2:4 3:0 4:4 5:8 6:0 7:0 8:8 9:12 10:12 11:8 12:32 13:0 14:4 15:0 16:8 17:0 18:0 19:0 20:0 21:3.03 22:3.03 23:3.03 24:6.0599999 25:3.03 26:0 27:3.03 28:6.0599999 29:9.0900002 30:3.03 31:6.0599999 32:6.0599999 33:9.0900002 34:3.03 35:9.0900002 36:0 37:3.03 38:15.15 39:0 40:9.0900002 #
2.877437848650932371074922730414e-06 1:0 2:0 3:0 4:4 5:4 6:12 7:8 8:16 9:8 10:8 11:4 12:8 13:0 14:4 15:0 16:20 17:0 18:0 19:0 20:4 21:6.5100002 22:1.8200001 23:6.77 24:8.1999998 25:4.8200002 26:7.29 27:2.21 28:6.6399999 29:7.1599998 30:7.4200001 31:2.0799999 32:3.52 33:2.47 34:3.6500001 35:7.29 36:7.4200001 37:4.6900001 38:6.77 39:1.04 40:2.21 #
-2.8774378486509324769540411372015e-07 1:8 2:0 3:0 4:0 5:0 6:4 7:8 8:0 9:4 10:32 11:4 12:0 13:0 14:0 15:20 16:4 17:0 18:8 19:0 20:8 21:6.5900002 22:2.9300001 23:4.0300002 24:6.5900002 25:3.6600001 26:6.23 27:0.37 28:4.0300002 29:7.3299999 30:6.23 31:1.47 32:4.7600002 33:3.6600001 34:5.1300001 35:5.1300001 36:10.62 37:7.3299999 38:9.1599998 39:0.73000002 40:4.0300002 #
-2.8774378486509324769540411372015e-07 1:12 2:12 3:0 4:0 5:4 6:0 7:0 8:8 9:0 10:8 11:4 12:12 13:0 14:8 15:20 16:0 17:8 18:0 19:0 20:4 21:5.6599998 22:1.4 23:8.4300003 24:7.1300001 25:3.8699999 26:6.9699998 27:1.95 28:5.6999998 29:5.3400002 30:6.3200002 31:2.05 32:5.7600002 33:5.79 34:3.6099999 35:5.3699999 36:5.5700002 37:6.4099998 38:8.1700001 39:0.88 40:3.6099999 #
-2.8774378486509324769540411372015e-07 1:12 2:8 3:4 4:0 5:0 6:8 7:0 8:4 9:0 10:32 11:4 12:0 13:4 14:0 15:12 16:4 17:8 18:0 19:0 20:0 21:6.7800002 22:0.69999999 23:3.5 24:5.1399999 25:3.74 26:5.8400002 27:1.64 28:5.1399999 29:7.71 30:13.32 31:4.9099998 32:4.9099998 33:6.0700002 34:4.4400001 35:2.0999999 36:6.54 37:6.7800002 38:8.1800003 39:0.47 40:2.0999999 #
2.877437848650932371074922730414e-06 1:0 2:0 3:4 4:0 5:8 6:0 7:8 8:4 9:8 10:0 11:4 12:4 13:0 14:0 15:8 16:16 17:28 18:4 19:0 20:4 21:7.8899999 22:1.58 23:4.21 24:11.05 25:2.1099999 26:6.3200002 27:0 28:7.3699999 29:5.2600002 30:7.3699999 31:2.6300001 32:4.21 33:4.21 34:4.7399998 35:10.53 36:5.79 37:5.2600002 38:4.21 39:2.1099999 40:3.1600001 #
-2.8774378486509324769540411372015e-07 1:0 2:4 3:0 4:8 5:0 6:12 7:0 8:8 9:8 10:8 11:4 12:8 13:0 14:4 15:4 16:12 17:0 18:12 19:4 20:4 21:3.0899999 22:1.77 23:5.7399998 24:8.3900003 25:5.4499998 26:2.6500001 27:1.91 28:7.6599998 29:10.9 30:9.8699999 31:2.0599999 32:6.77 33:2.3599999 34:4.5700002 35:4.1199999 36:7.9499998 37:4.5700002 38:4.8600001 39:1.62 40:3.6800001 #
-2.8774378486509324769540411372015e-07 1:8 2:4 3:8 4:4 5:0 6:4 7:0 8:12 9:12 10:12 11:4 12:4 13:0 14:0 15:4 16:4 17:4 18:12 19:0 20:4 21:4.7600002 22:1.1900001 23:7.1399999 24:9.5200005 25:4.7600002 26:3.5699999 27:1.1900001 28:9.5200005 29:13.1 30:9.5200005 31:1.1900001 32:9.5200005 33:2.3800001 34:1.1900001 35:2.3800001 36:5.9499998 37:4.7600002 38:5.9499998 39:1.1900001 40:1.1900001 #
-2.8774378486509324769540411372015e-07 1:4 2:8 3:4 4:4 5:0 6:0 7:0 8:8 9:16 10:8 11:4 12:4 13:12 14:8 15:4 16:16 17:0 18:0 19:0 20:0 21:7.6599998 22:1.8200001 23:4.3800001 24:4.0100002 25:3.6500001 26:3.6500001 27:2.1900001 28:5.8400002 29:3.6500001 30:15.69 31:2.55 32:4.7399998 33:5.8400002 34:4.3800001 35:6.1999998 36:7.3000002 37:4.0100002 38:6.1999998 39:1.46 40:4.7399998 #
-2.8774378486509324769540411372015e-07 1:0 2:0 3:0 4:4 5:32 6:4 7:0 8:4 9:8 10:8 11:4 12:4 13:0 14:4 15:0 16:4 17:12 18:4 19:0 20:8 21:2.8099999 22:1.5599999 23:4.3800001 24:5.9400001 25:5.9400001 26:2.8099999 27:2.5 28:8.1199999 29:10 30:7.1900001 31:1.5599999 32:9.0600004 33:5.3099999 34:5.6199999 35:4.3800001 36:7.8099999 37:4.6900001 38:4.3800001 39:1.5599999 40:4.3800001 #
-2.8774378486509324769540411372015e-07 1:32 2:0 3:0 4:4 5:0 6:12 7:0 8:0 9:0 10:16 11:4 12:0 13:0 14:8 15:4 16:0 17:4 18:0 19:16 20:0 21:4.5900002 22:1.41 23:3.53 24:5.3000002 25:4.9499998 26:10.25 27:2.1199999 28:2.1199999 29:3.53 30:12.01 31:1.0599999 32:2.1199999 33:8.1300001 34:5.3000002 35:7.77 36:11.31 37:5.6500001 38:7.77 39:0.34999999 40:0.70999998 #
-2.8774378486509324769540411372015e-07 1:12 2:0 3:0 4:4 5:4 6:16 7:4 8:0 9:8 10:12 11:4 12:4 13:4 14:0 15:0 16:4 17:4 18:12 19:8 20:0 21:7.29 22:2.76 23:3.02 24:2.76 25:9.3000002 26:4.02 27:2.01 28:5.0300002 29:3.27 30:17.59 31:2.01 32:2.26 33:3.77 34:2.51 35:6.0300002 36:4.77 37:5.0300002 38:6.7800002 39:2.26 40:7.54 #
2.877437848650932371074922730414e-06 1:8 2:0 3:0 4:0 5:0 6:12 7:0 8:0 9:4 10:4 11:4 12:0 13:40 14:0 15:0 16:8 17:0 18:4 19:0 20:16 21:7.75 22:4.8000002 23:4.8000002 24:5.54 25:5.1700001 26:10.33 27:1.85 28:3.3199999 29:2.95 30:10.33 31:1.11 32:1.11 33:11.44 34:5.1700001 35:5.9000001 36:3.6900001 37:5.1700001 38:7.3800001 39:1.48 40:0.74000001 #
2.877437848650932371074922730414e-06 1:28 2:0 3:0 4:0 5:4 6:0 7:0 8:8 9:4 10:12 11:4 12:0 13:12 14:0 15:0 16:24 17:0 18:4 19:0 20:0 21:7.0500002 22:3.21 23:9.29 24:4.4899998 25:2.24 26:10.26 27:1.28 28:3.21 29:4.8099999 30:3.8499999 31:1.28 32:5.4499998 33:3.53 34:3.53 35:0.95999998 36:13.14 37:8.3299999 38:7.3699999 39:1.92 40:4.8099999 #
2.877437848650932371074922730414e-06 1:16 2:4 3:4 4:16 5:4 6:4 7:0 8:0 9:0 10:8 11:4 12:0 13:24 14:0 15:0 16:12 17:0 18:4 19:0 20:0 21:12.14 22:1.8099999 23:4.6500001 24:10.59 25:1.55 26:6.46 27:1.8099999 28:2.8399999 29:5.9400001 30:12.66 31:1.8099999 32:2.8399999 33:7.2399998 34:4.1300001 35:4.3899999 36:5.1700001 37:4.1300001 38:6.7199998 39:1.03 40:2.0699999 #
-2.8774378486509324769540411372015e-07 1:20 2:0 3:0 4:0 5:0 6:4 7:8 8:4 9:4 10:4 11:4 12:4 13:8 14:12 15:4 16:4 17:16 18:4 19:0 20:0 21:9.6400003 22:1.09 23:5.27 24:6.3600001 25:3.0899999 26:3.45 27:2.1800001 28:4.5500002 29:6.73 30:11.27 31:3.27 32:4.9099998 33:6.3600001 34:4.9099998 35:6 36:5.0900002 37:5.6399999 38:6.1799998 39:0.73000002 40:3.27 #
2.877437848650932371074922730414e-06 1:4 2:4 3:4 4:4 5:0 6:0 7:0 8:8 9:12 10:16 11:8 12:4 13:4 14:0 15:8 16:4 17:8 18:4 19:0 20:8 21:4.27 22:1.71 23:7.6900001 24:5.98 25:6.8400002 26:3.4200001 27:3.4200001 28:4.27 29:4.27 30:11.11 31:1.71 32:4.27 33:2.5599999 34:1.71 35:6.8400002 36:5.1300001 37:6.8400002 38:10.26 39:1.71 40:5.98 #
-2.8774378486509324769540411372015e-07 1:12 2:0 3:0 4:0 5:4 6:8 7:0 8:0 9:0 10:28 11:8 12:0 13:4 14:12 15:4 16:8 17:4 18:4 19:4 20:0 21:4.1500001 22:2.97 23:5.6399999 24:9.79 25:5.9299998 26:7.4200001 27:1.48 28:4.75 29:8.0100002 30:10.98 31:1.1900001 32:4.75 33:3.26 34:3.8599999 35:5.9299998 36:6.5300002 37:2.97 38:5.6399999 39:2.0799999 40:2.6700001 #
2.0268330993639405337828924419386e-06 1:8 2:4 3:4 4:4 5:12 6:8 7:0 8:4 9:20 10:4 11:4 12:0 13:0 14:0 15:24 16:0 17:0 18:4 19:0 20:0 21:7.8400002 22:1.96 23:3.27 24:3.27 25:18.299999 26:7.8400002 27:2.6099999 28:2.6099999 29:3.9200001 30:12.42 31:0.64999998 32:7.1900001 33:3.27 34:1.96 35:6.54 36:5.8800001 37:3.9200001 38:2.6099999 39:0 40:3.9200001 #
3.048137128205525861549809660267e-07 1:12 2:0 3:0 4:0 5:4 6:0 7:0 8:4 9:8 10:12 11:4 12:8 13:4 14:0 15:12 16:12 17:12 18:8 19:0 20:0 21:10.36 22:1.1799999 23:5.6199999 24:5.3299999 25:2.96 26:7.4000001 27:1.1799999 28:6.8000002 29:5.6199999 30:9.1700001 31:0.88999999 32:2.3699999 33:4.4400001 34:3.55 35:3.55 36:12.13 37:5.3299999 38:9.4700003 39:0.30000001 40:2.3699999 #
-2.8774378486509324769540411372015e-07 1:0 2:0 3:0 4:4 5:8 6:8 7:0 8:4 9:12 10:16 11:4 12:8 13:0 14:0 15:4 16:16 17:0 18:12 19:0 20:4 21:3.6500001 22:1.0700001 23:6.4400001 24:4.9400001 25:4.7199998 26:5.79 27:3.22 28:7.3000002 29:6.2199998 30:8.5799999 31:2.5799999 32:6.2199998 33:4.29 34:2.1500001 35:5.1500001 36:10.52 37:5.79 38:7.3000002 39:1.5 40:2.5799999 #
-2.8774378486509324769540411372015e-07 1:0 2:0 3:4 4:36 5:0 6:0 7:0 8:4 9:16 10:0 11:4 12:0 13:4 14:4 15:0 16:16 17:4 18:8 19:0 20:0 21:7.7600002 22:1.77 23:3.95 24:8.0299997 25:7.21 26:5.8499999 27:0.68000001 28:5.3099999 29:7.21 30:10.75 31:4.3499999 32:5.4400001 33:4.2199998 34:1.9 35:5.1700001 36:4.7600002 37:3.6700001 38:5.71 39:2.72 40:3.54 #
2.877437848650932371074922730414e-06 1:20 2:0 3:0 4:0 5:0 6:12 7:0 8:0 9:0 10:12 11:4 12:4 13:32 14:0 15:0 16:8 17:0 18:8 19:0 20:0 21:7.7399998 22:1.79 23:2.98 24:4.46 25:4.1700001 26:11.61 27:2.98 28:2.3800001 29:4.46 30:11.01 31:1.79 32:4.46 33:6.8499999 34:4.7600002 35:2.6800001 36:7.7399998 37:7.7399998 38:6.8499999 39:0.88999999 40:2.6800001 #
-2.8774378486509324769540411372015e-07 1:36 2:0 3:0 4:0 5:0 6:0 7:0 8:0 9:0 10:0 11:4 12:0 13:20 14:0 15:24 16:12 17:4 18:0 19:0 20:0 21:13.61 22:2.72 23:2.04 24:4.0799999 25:4.0799999 26:10.2 27:1.36 28:3.4000001 29:2.72 30:2.72 31:2.04 32:4.7600002 33:10.2 34:6.1199999 35:1.36 36:14.97 37:4.7600002 38:5.4400001 39:0.68000001 40:2.72 #
-2.8774378486509324769540411372015e-07 1:40 2:0 3:0 4:0 5:0 6:0 7:0 8:4 9:0 10:0 11:0 12:0 13:20 14:0 15:4 16:0 17:0 18:16 19:0 20:16 21:31.43 22:0 23:4.5700002 24:2.29 25:1.14 26:5.1399999 27:2.29 28:2.8599999 29:1.14 30:1.14 31:0 32:1.71 33:12 34:2.29 35:4 36:4.5700002 37:4 38:12.57 39:0 40:6.8600001 #
-2.8774378486509324769540411372015e-07 1:12 2:0 3:4 4:4 5:4 6:4 7:4 8:0 9:0 10:12 11:4 12:4 13:4 14:4 15:12 16:16 17:8 18:0 19:0 20:4 21:3.9400001 22:1.7 23:5.6399999 24:6.8000002 25:4.02 26:5.8000002 27:2.55 28:4.6399999 29:5.1799998 30:8.5 31:1.62 32:5.8699999 33:6.1799998 34:4.71 35:5.9499998 36:10.82 37:6.7199998 38:4.6399999 39:1.47 40:3.25 #
-2.8774378486509324769540411372015e-07 1:28 2:0 3:0 4:0 5:0 6:0 7:0 8:4 9:4 10:0 11:8 12:0 13:8 14:0 15:12 16:20 17:0 18:16 19:0 20:0 21:13.75 22:2.5 23:5 24:3.75 25:5.6199999 26:2.5 27:0 28:3.75 29:5.6199999 30:5.6199999 31:4.3800001 32:5 33:7.5 34:6.25 35:5 36:3.75 37:3.75 38:9.3800001 39:2.5 40:4.3800001 #
2.877437848650932371074922730414e-06 1:0 2:0 3:8 4:40 5:0 6:12 7:0 8:0 9:4 10:8 11:8 12:0 13:4 14:4 15:4 16:4 17:4 18:0 19:0 20:0 21:4.5500002 22:7.5799999 23:7.5799999 24:15.15 25:3.03 26:0 27:4.5500002 28:0 29:6.0599999 30:15.15 31:0 32:1.52 33:1.52 34:4.5500002 35:9.0900002 36:6.0599999 37:6.0599999 38:7.5799999 39:0 40:0 #
2.8604368072883363357443529256807e-06 1:0 2:0 3:8 4:24 5:0 6:4 7:0 8:0 9:12 10:8 11:4 12:0 13:0 14:4 15:12 16:4 17:0 18:20 19:0 20:0 21:3.5699999 22:1.1900001 23:1.1900001 24:1.1900001 25:8.3299999 26:7.1399999 27:1.1900001 28:2.3800001 29:7.1399999 30:15.48 31:2.3800001 32:5.9499998 33:5.9499998 34:2.3800001 35:5.9499998 36:13.1 37:8.3299999 38:2.3800001 39:2.3800001 40:2.3800001 #
2.877437848650932371074922730414e-06 1:0 2:0 3:4 4:28 5:0 6:8 7:4 8:0 9:4 10:0 11:12 12:8 13:4 14:0 15:12 16:0 17:8 18:8 19:0 20:0 21:8.3000002 22:0.91000003 23:5.6500001 24:6.1999998 25:1.64 26:8.3900003 27:2.3699999 28:3.0999999 29:4.0100002 30:10.39 31:3.28 32:4.3800001 33:4.4699998 34:5.9299998 35:5.4699998 36:12.76 37:6.9299998 38:3.8299999 39:0.36000001 40:1.64 #
-2.8774378486509324769540411372015e-07 1:4 2:0 3:4 4:8 5:16 6:16 7:12 8:4 9:4 10:4 11:8 12:8 13:0 14:0 15:4 16:4 17:0 18:0 19:0 20:4 21:5.5599999 22:1.85 23:1.85 24:7.4099998 25:7.4099998 26:16.67 27:3.7 28:1.85 29:3.7 30:9.2600002 31:1.85 32:9.2600002 33:3.7 34:3.7 35:3.7 36:0 37:9.2600002 38:1.85 39:1.85 40:5.5599999 #
-2.8774378486509324769540411372015e-07 1:0 2:4 3:4 4:0 5:16 6:0 7:8 8:4 9:0 10:16 11:4 12:4 13:0 14:0 15:8 16:8 17:8 18:8 19:0 20:8 21:0 22:2.1300001 23:4.2600002 24:0 25:14.89 26:6.3800001 27:8.5100002 28:0 29:2.1300001 30:25.530001 31:4.2600002 32:4.2600002 33:4.2600002 34:0 35:2.1300001 36:12.77 37:0 38:6.3800001 39:0 40:2.1300001 #
2.877437848650932371074922730414e-06 1:4 2:4 3:0 4:8 5:4 6:4 7:8 8:8 9:16 10:16 11:4 12:0 13:4 14:0 15:0 16:8 17:8 18:0 19:0 20:4 21:2.5799999 22:4.52 23:7.0999999 24:3.8699999 25:7.7399998 26:7.0999999 27:1.9400001 28:6.4499998 29:7.7399998 30:10.97 31:1.9400001 32:5.1599998 33:5.8099999 34:3.23 35:3.8699999 36:5.8099999 37:6.4499998 38:5.8099999 39:0 40:1.9400001 #
2.877437848650932371074922730414e-06 1:28 2:0 3:0 4:0 5:0 6:4 7:4 8:0 9:0 10:0 11:4 12:0 13:24 14:0 15:16 16:20 17:0 18:0 19:0 20:0 21:16.24 22:3.4200001 23:1.71 24:3.4200001 25:2.5599999 26:10.26 27:2.5599999 28:0.85000002 29:1.71 30:7.6900001 31:3.4200001 32:0 33:12.82 34:8.5500002 35:0.85000002 36:11.97 37:5.1300001 38:4.27 39:0 40:2.5599999 #
-2.8774378486509324769540411372015e-07 1:16 2:0 3:4 4:8 5:0 6:0 7:0 8:4 9:4 10:12 11:4 12:8 13:0 14:0 15:0 16:12 17:12 18:12 19:0 20:4 21:9.5200005 22:1.79 23:4.1700001 24:8.9300003 25:3.5699999 26:4.7600002 27:1.1900001 28:5.9499998 29:7.1399999 30:17.26 31:2.98 32:5.9499998 33:4.1700001 34:5.3600001 35:5.3600001 36:2.98 37:4.7600002 38:2.3800001 39:1.1900001 40:0.60000002 #
-2.8774378486509324769540411372015e-07 1:12 2:0 3:4 4:0 5:0 6:8 7:0 8:0 9:4 10:16 11:8 12:0 13:4 14:8 15:4 16:16 17:8 18:8 19:0 20:0 21:6.54 22:2.26 23:3.74 24:7.71 25:3.74 26:7.3200002 27:2.96 28:4.0500002 29:4.4400001 30:10.9 31:1.64 32:2.8 33:5.8400002 34:5.6900001 35:5.8400002 36:10.36 37:4.8299999 38:6.3099999 39:1.09 40:1.95 #
2.877437848650932371074922730414e-06 1:0 2:12 3:4 4:4 5:32 6:8 7:0 8:0 9:0 10:12 11:4 12:0 13:0 14:0 15:0 16:12 17:4 18:4 19:0 20:4 21:3.3699999 22:1.01 23:2.02 24:3.3699999 25:9.7600002 26:8.75 27:4.71 28:6.73 29:6.0599999 30:10.1 31:2.3599999 32:4.04 33:5.0500002 34:1.6799999 35:8.0799999 36:8.4200001 37:7.0700002 38:3.7 39:1.6799999 40:2.02 #
-2.8774378486509324769540411372015e-07 1:12 2:0 3:8 4:8 5:0 6:0 7:4 8:8 9:12 10:12 11:8 12:4 13:0 14:0 15:8 16:8 17:0 18:8 19:0 20:0 21:5.5 22:1.73 23:4.25 24:6.29 25:5.1900001 26:7.3899999 27:3.3 28:3.77 29:6.29 30:9.9099998 31:2.2 32:5.6599998 33:5.1900001 34:6.4499998 35:4.0900002 36:6.5999999 37:5.1900001 38:5.5 39:2.04 40:3.46 #
-2.8774378486509324769540411372015e-07 1:4 2:4 3:0 4:0 5:8 6:12 7:4 8:4 9:0 10:16 11:12 12:4 13:0 14:0 15:0 16:4 17:4 18:16 19:8 20:0 21:8.1099997 22:3.5999999 23:2.25 24:3.5999999 25:5.6300001 26:6.7600002 27:2.48 28:3.1500001 29:0.44999999 30:17.790001 31:2.9300001 32:2.7 33:6.7600002 34:2.48 35:2.9300001 36:8.7799997 37:5.4099998 38:9.9099998 39:1.58 40:2.7 #
-2.8774378486509324769540411372015e-07 1:0 2:0 3:4 4:12 5:4 6:8 7:0 8:0 9:12 10:16 11:4 12:0 13:0 14:8 15:8 16:4 17:8 18:12 19:0 20:0 21:10.1 22:0 23:2.02 24:3.03 25:3.03 26:6.0599999 27:0 28:9.0900002 29:19.190001 30:11.11 31:0 32:4.04 33:1.01 34:6.0599999 35:11.11 36:2.02 37:6.0599999 38:5.0500002 39:0 40:1.01 #
-2.8774378486509324769540411372015e-07 1:8 2:0 3:0 4:0 5:0 6:12 7:0 8:4 9:16 10:4 11:4 12:0 13:0 14:4 15:16 16:4 17:12 18:8 19:0 20:8 21:16.67 22:5.1300001 23:0 24:6.4099998 25:2.5599999 26:6.4099998 27:1.28 28:5.1300001 29:17.950001 30:5.1300001 31:1.28 32:2.5599999 33:5.1300001 34:3.8499999 35:2.5599999 36:0 37:7.6900001 38:6.4099998 39:2.5599999 40:1.28 #
-2.8774378486509324769540411372015e-07 1:4 2:0 3:0 4:0 5:0 6:24 7:0 8:4 9:4 10:12 11:4 12:4 13:0 14:0 15:16 16:16 17:0 18:12 19:0 20:0 21:6.3299999 22:1.23 23:5.8600001 24:4.9400001 25:3.8599999 26:3.8599999 27:3.0899999 28:4.48 29:8.0200005 30:11.42 31:2.78 32:7.8699999 33:4.6300001 34:2.78 35:6.02 36:7.4099998 37:3.8599999 38:5.5599999 39:2.01 40:4.0100002 #
-2.8774378486509324769540411372015e-07 1:8 2:0 3:8 4:4 5:4 6:0 7:0 8:4 9:12 10:8 11:4 12:0 13:4 14:8 15:8 16:12 17:8 18:4 19:4 20:0 21:9.7600002 22:1.84 23:5.8899999 24:7.3699999 25:4.79 26:4.9699998 27:2.03 28:2.03 29:5.1599998 30:10.5 31:1.1 32:3.5 33:6.2600002 34:5.52 35:6.8099999 36:7.73 37:6.0799999 38:5.71 39:1.1 40:1.84 #
1.1260652493704750010919575509138e-06 1:36 2:0 3:0 4:4 5:4 6:0 7:8 8:0 9:4 10:8 11:8 12:0 13:0 14:0 15:12 16:8 17:0 18:0 19:8 20:0 21:8.9399996 22:0.69 23:4.2600002 24:4.54 25:3.99 26:8.25 27:2.48 28:6.0500002 29:5.6399999 30:10.73 31:2.3399999 32:4.54 33:3.1600001 34:3.99 35:5.0900002 36:6.8800001 37:5.9099998 38:8.25 39:1.1 40:3.1600001 #
-2.8774378486509324769540411372015e-07 1:0 2:4 3:4 4:0 5:4 6:8 7:0 8:4 9:8 10:20 11:4 12:4 13:8 14:0 15:12 16:4 17:4 18:8 19:0 20:4 21:5.4699998 22:0.77999997 23:9.3800001 24:11.33 25:2.73 26:7.0300002 27:3.1199999 28:3.1199999 29:4.6900001 30:8.9799995 31:2.73 32:5.4699998 33:2.73 34:10.55 35:4.6900001 36:3.1199999 37:5.4699998 38:5.4699998 39:1.17 40:1.95 #
2.877437848650932371074922730414e-06 1:0 2:0 3:0 4:0 5:4 6:16 7:4 8:4 9:4 10:8 11:4 12:4 13:0 14:8 15:8 16:12 17:0 18:24 19:0 20:0 21:5.52 22:1.1 23:5.52 24:6.6300001 25:1.1 26:7.1799998 27:2.21 28:8.29 29:6.6300001 30:4.9699998 31:4.4200001 32:2.76 33:3.3099999 34:4.9699998 35:6.0799999 36:8.29 37:7.73 38:9.9399996 39:1.1 40:2.21 #
2.877437848650932371074922730414e-06 1:4 2:4 3:0 4:0 5:0 6:20 7:0 8:4 9:0 10:32 11:4 12:4 13:0 14:0 15:4 16:8 17:8 18:4 19:0 20:4 21:6.9099998 22:1.64 23:5.5900002 24:6.25 25:6.25 26:3.95 27:2.3 28:5.5900002 29:8.5500002 30:6.25 31:0.66000003 32:6.25 33:9.54 34:4.2800002 35:5.2600002 36:5.9200001 37:4.2800002 38:5.9200001 39:0.66000003 40:3.95 #
-2.8774378486509324769540411372015e-07 1:8 2:0 3:0 4:0 5:4 6:0 7:0 8:0 9:4 10:20 11:8 12:0 13:8 14:0 15:4 16:32 17:8 18:0 19:0 20:4 21:10.85 22:0.74000001 23:1.29 24:1.65 25:5.6999998 26:9.1899996 27:1.1 28:6.6199999 29:4.23 30:14.34 31:2.21 32:2.3900001 33:7.9000001 34:1.84 35:1.29 36:10.11 37:5.1500001 38:7.54 39:3.49 40:2.3900001 #
-2.8774378486509324769540411372015e-07 1:0 2:0 3:0 4:0 5:8 6:0 7:0 8:12 9:4 10:28 11:4 12:4 13:20 14:0 15:8 16:12 17:0 18:0 19:0 20:0 21:7.9200001 22:0.89999998 23:8.3699999 24:7.3200002 25:3.8900001 26:5.0799999 27:3.1400001 28:4.1900001 29:5.23 30:9.1199999 31:2.54 32:4.1900001 33:7.9200001 34:2.54 35:5.98 36:7.1700001 37:5.0799999 38:3.74 39:2.8399999 40:2.8399999 #
-2.8774378486509324769540411372015e-07 1:12 2:0 3:0 4:0 5:8 6:4 7:8 8:0 9:0 10:24 11:4 12:0 13:12 14:0 15:16 16:8 17:4 18:0 19:0 20:0 21:5.6300001 22:0.69999999 23:5.9899998 24:8.1000004 25:4.23 26:8.4499998 27:1.0599999 28:6.3400002 29:6.6900001 30:10.92 31:2.8199999 32:1.41 33:4.23 34:3.8699999 35:5.9899998 36:8.8000002 37:4.9299998 38:7.3899999 39:0.69999999 40:1.76 #
-2.8774378486509324769540411372015e-07 1:8 2:4 3:4 4:4 5:12 6:12 7:4 8:4 9:0 10:4 11:4 12:4 13:8 14:4 15:4 16:8 17:4 18:0 19:0 20:8 21:9.7600002 22:0.76999998 23:4.1999998 24:7.6199999 25:3.6800001 26:7.71 27:1.71 28:6.25 29:5.1399999 30:12.76 31:1.2 32:3.5999999 33:3.6800001 34:4.3699999 35:3.8499999 36:9.1599998 37:4.79 38:8.0500002 39:0.43000001 40:1.28 #
4.5377482313604616211232640424905e-08 1:8 2:4 3:0 4:0 5:4 6:16 7:0 8:0 9:0 10:20 11:4 12:4 13:4 14:0 15:8 16:4 17:12 18:12 19:0 20:0 21:2.9200001 22:2.3399999 23:1.17 24:6.4299998 25:2.3399999 26:7.5999999 27:4.0900002 28:5.2600002 29:7.02 30:8.7700005 31:1.75 32:4.6799998 33:11.11 34:2.3399999 35:10.53 36:5.8499999 37:4.6799998 38:5.2600002 39:2.3399999 40:3.51 #
-2.8774378486509324769540411372015e-07 1:0 2:0 3:16 4:0 5:4 6:0 7:8 8:4 9:4 10:8 11:4 12:4 13:12 14:0 15:8 16:20 17:4 18:4 19:0 20:0 21:8.3999996 22:2.4200001 23:3.55 24:4.1999998 25:5.4899998 26:5.4899998 27:1.9400001 28:7.4299998 29:3.55 30:11.95 31:1.45 32:5.0100002 33:4.52 34:2.26 35:4.52 36:11.31 37:4.1999998 38:5.4899998 39:1.62 40:5.1700001 #
-2.8774378486509324769540411372015e-07 1:4 2:0 3:0 4:0 5:12 6:12 7:0 8:4 9:0 10:24 11:4 12:4 13:8 14:0 15:8 16:12 17:0 18:0 19:8 20:0 21:9.04 22:0.23 23:1.2 24:9.5500002 25:1.2 26:9.3800001 27:1.03 28:2.8599999 29:0.92000002 30:1.66 31:1.95 32:1.14 33:1.2 34:0.23 35:0.50999999 36:18.59 37:34.040001 38:4.5799999 39:0.059999999 40:0.63 #
-2.8774378486509324769540411372015e-07 1:8 2:0 3:0 4:0 5:0 6:0 7:0 8:16 9:0 10:20 11:4 12:4 13:8 14:0 15:8 16:16 17:16 18:0 19:0 20:0 21:3.9100001 22:1.95 23:7.4200001 24:3.1199999 25:5.0799999 26:7.4200001 27:1.17 28:4.3000002 29:3.52 30:9.3800001 31:0.38999999 32:4.3000002 33:10.16 34:1.95 35:6.25 36:10.16 37:8.9799995 38:7.4200001 39:0.38999999 40:2.73 #
-2.8774378486509324769540411372015e-07 1:4 2:0 3:0 4:0 5:12 6:0 7:0 8:16 9:8 10:12 11:4 12:4 13:4 14:0 15:0 16:12 17:12 18:0 19:0 20:12 21:0 22:0 23:0 24:0 25:8.5100002 26:4.2600002 27:2.1300001 28:19.15 29:6.3800001 30:10.64 31:0 32:2.1300001 33:4.2600002 34:2.1300001 35:4.2600002 36:10.64 37:8.5100002 38:6.3800001 39:0 40:10.64 #
2.877437848650932371074922730414e-06 1:32 2:0 3:8 4:8 5:0 6:12 7:0 8:0 9:4 10:8 11:4 12:0 13:12 14:4 15:0 16:4 17:0 18:4 19:0 20:0 21:5.98 22:0 23:4.27 24:12.82 25:5.1300001 26:7.6900001 27:0 28:3.4200001 29:3.4200001 30:14.53 31:4.27 32:0.85000002 33:5.98 34:7.6900001 35:5.1300001 36:5.98 37:5.98 38:4.27 39:1.71 40:0.85000002 #
-2.8774378486509324769540411372015e-07 1:40 2:0 3:0 4:0 5:0 6:32 7:8 8:0 9:0 10:0 11:4 12:0 13:8 14:4 15:0 16:0 17:0 18:4 19:0 20:0 21:7.4499998 22:2.9300001 23:5.8600001 24:7.5300002 25:2.8499999 26:5.52 27:2.51 28:5.27 29:7.2800002 30:9.71 31:1.59 32:3.9300001 33:4.9400001 34:4.27 35:4.77 36:8.1199999 37:5.27 38:6.7800002 39:1.42 40:2.01 #
-2.8774378486509324769540411372015e-07 1:8 2:4 3:12 4:8 5:0 6:8 7:12 8:4 9:0 10:8 11:8 12:0 13:0 14:4 15:4 16:4 17:4 18:4 19:4 20:4 21:7.3400002 22:0.92000002 23:2.75 24:7.3400002 25:3.6700001 26:16.51 27:1.83 28:7.3400002 29:5.5 30:6.4200001 31:3.6700001 32:2.75 33:5.5 34:6.4200001 35:1.83 36:2.75 37:6.4200001 38:7.3400002 39:0.92000002 40:2.75 #
-2.8774378486509324769540411372015e-07 1:4 2:0 3:12 4:8 5:8 6:4 7:0 8:0 9:12 10:0 11:12 12:8 13:0 14:0 15:4 16:8 17:4 18:8 19:4 20:4 21:4.6700001 22:0 23:4.6700001 24:10.28 25:5.6100001 26:8.4099998 27:0.93000001 28:6.54 29:10.28 30:9.3500004 31:0 32:8.4099998 33:0 34:1.87 35:5.6100001 36:2.8 37:8.4099998 38:8.4099998 39:0.93000001 40:2.8 #
-2.8774378486509324769540411372015e-07 1:4 2:0 3:4 4:12 5:4 6:8 7:0 8:0 9:0 10:8 11:4 12:0 13:4 14:4 15:12 16:28 17:4 18:4 19:0 20:0 21:6.1700001 22:0.82999998 23:4.3299999 24:5.8600001 25:2.1600001 26:6.0500002 27:3.0599999 28:3.8199999 29:10.57 30:7.1900001 31:2.23 32:4.0700002 33:10.5 34:4.0700002 35:5.0300002 36:11.78 37:5.6700001 38:4.1999998 39:0.50999999 40:1.91 #
2.877437848650932371074922730414e-06 1:4 2:0 3:12 4:4 5:8 6:28 7:4 8:0 9:0 10:4 11:4 12:0 13:8 14:4 15:16 16:0 17:0 18:0 19:0 20:4 21:4.5799999 22:1.27 23:2.04 24:5.3400002 25:4.5799999 26:8.9099998 27:3.8199999 28:8.6499996 29:3.3099999 30:10.69 31:1.53 32:3.5599999 33:6.1100001 34:4.5799999 35:3.8199999 36:7.8899999 37:7.3800001 38:6.8699999 39:1.02 40:4.0700002 #
-2.8774378486509324769540411372015e-07 1:0 2:0 3:4 4:0 5:0 6:4 7:4 8:16 9:4 10:12 11:4 12:12 13:12 14:16 15:4 16:8 17:0 18:0 19:0 20:0 21:1.54 22:0.38999999 23:7.3400002 24:6.9499998 25:4.25 26:3.47 27:1.16 28:11.2 29:9.2700005 30:10.42 31:0.76999998 32:12.74 33:1.9299999 34:3.47 35:4.25 36:7.7199998 37:4.6300001 38:2.3199999 39:1.54 40:4.6300001 #
-2.8774378486509324769540411372015e-07 1:4 2:4 3:0 4:0 5:0 6:4 7:8 8:0 9:4 10:8 11:4 12:0 13:16 14:8 15:0 16:8 17:12 18:20 19:0 20:0 21:1.13 22:1.13 23:2.9400001 24:14.93 25:0.44999999 26:4.98 27:5.1999998 28:0.89999998 29:10.18 30:12.22 31:0.89999998 32:0.44999999 33:8.6000004 34:27.6 35:2.04 36:2.9400001 37:1.36 38:1.13 39:0 40:0.89999998 #
2.877437848650932371074922730414e-06 1:0 2:4 3:4 4:0 5:8 6:0 7:8 8:0 9:0 10:24 11:4 12:0 13:12 14:8 15:8 16:12 17:4 18:4 19:0 20:0 21:7.0300002 22:3.1199999 23:7.0300002 24:3.1199999 25:3.1199999 26:7.0300002 27:3.9100001 28:6.25 29:5.4699998 30:8.5900002 31:0.77999997 32:2.3399999 33:9.3800001 34:1.5599999 35:7.0300002 36:9.3800001 37:10.16 38:3.1199999 39:0 40:1.5599999 #
-2.8774378486509324769540411372015e-07 1:20 2:8 3:0 4:4 5:12 6:4 7:0 8:0 9:0 10:0 11:4 12:0 13:16 14:0 15:4 16:12 17:8 18:4 19:4 20:0 21:7.1399999 22:2.0799999 23:0.88999999 24:2.6800001 25:5.0599999 26:7.4400001 27:1.79 28:3.5699999 29:2.0799999 30:12.5 31:1.79 32:2.3800001 33:9.5200005 34:3.8699999 35:5.6500001 36:13.1 37:4.7600002 38:8.04 39:1.49 40:4.1700001 #
-2.8774378486509324769540411372015e-07 1:8 2:0 3:0 4:8 5:4 6:12 7:0 8:8 9:8 10:8 11:4 12:4 13:4 14:4 15:8 16:8 17:8 18:4 19:0 20:0 21:14.94 22:1.95 23:4.5500002 24:8.1199999 25:1.62 26:10.71 27:1.3 28:0.64999998 29:3.5699999 30:8.1199999 31:0.64999998 32:0.97000003 33:7.79 34:3.9000001 35:8.7700005 36:8.4399996 37:4.2199998 38:5.8400002 39:1.3 40:2.5999999 #
-2.8774378486509324769540411372015e-07 1:4 2:0 3:4 4:4 5:0 6:8 7:4 8:4 9:8 10:12 11:16 12:8 13:0 14:8 15:0 16:16 17:4 18:0 19:0 20:0 21:4.79 22:1.03 23:4.1100001 24:9.9300003 25:5.48 26:5.1399999 27:1.37 28:6.5100002 29:8.5600004 30:9.5900002 31:2.05 32:5.48 33:3.0799999 34:5.1399999 35:2.4000001 36:7.1900001 37:5.8200002 38:7.1900001 39:1.37 40:3.77 #
-2.8774378486509324769540411372015e-07 1:40 2:0 3:0 4:0 5:0 6:16 7:0 8:0 9:0 10:0 11:4 12:0 13:4 14:0 15:12 16:8 17:4 18:8 19:4 20:0 21:4.79 22:2.2 23:4.6599998 24:6.8699999 25:4.79 26:3.76 27:2.46 28:5.3099999 29:5.8299999 30:14.9 31:2.8499999 32:5.1799998 33:3.1099999 34:5.3099999 35:5.4400001 36:7.9000001 37:5.5700002 38:5.6999998 39:1.04 40:2.3299999 #
-2.8774378486509324769540411372015e-07 1:24 2:0 3:0 4:0 5:12 6:20 7:0 8:0 9:0 10:0 11:4 12:4 13:8 14:0 15:0 16:12 17:16 18:0 19:0 20:0 21:5.3600001 22:0.41 23:4.1199999 24:5.98 25:4.1199999 26:9.4799995 27:1.86 28:5.77 29:5.98 30:10.31 31:1.65 32:4.7399998 33:3.9200001 34:10.52 35:3.71 36:5.5700002 37:9.2799997 38:4.9499998 39:0.62 40:1.65 #
-2.8774378486509324769540411372015e-07 1:24 2:0 3:0 4:12 5:4 6:24 7:0 8:0 9:0 10:0 11:4 12:8 13:8 14:0 15:4 16:0 17:8 18:0 19:4 20:0 21:9.8500004 22:1.23 23:4.3099999 24:4.9200001 25:4.9200001 26:8.3100004 27:2.77 28:6.1500001 29:2.46 30:14.46 31:4.6199999 32:2.1500001 33:4 34:4.3099999 35:4.6199999 36:4.6199999 37:5.54 38:6.46 39:0.92000002 40:3.3800001 #
2.877437848650932371074922730414e-06 1:0 2:4 3:0 4:8 5:4 6:0 7:0 8:0 9:0 10:28 11:8 12:8 13:8 14:4 15:4 16:12 17:8 18:4 19:0 20:0 21:3.4100001 22:0.68000001 23:7.27 24:6.5900002 25:3.6400001 26:3.1800001 27:2.27 28:7.0500002 29:9.3199997 30:8.1800003 31:1.8200001 32:9.5500002 33:4.3200002 34:1.8200001 35:6.1399999 36:10.23 37:6.8200002 38:4.77 39:0.68000001 40:2.27 #
2.877437848650932371074922730414e-06 1:0 2:4 3:0 4:4 5:0 6:0 7:0 8:8 9:20 10:16 11:4 12:20 13:0 14:0 15:4 16:12 17:4 18:4 19:0 20:0 21:5.3499999 22:0.73000002 23:4.3800001 24:5.5999999 25:4.6199999 26:7.3000002 27:2.0699999 28:7.1799998 29:8.3900003 30:8.7600002 31:1.58 32:6.0799999 33:4.6199999 34:3.77 35:1.95 36:10.46 37:7.0599999 38:6.6900001 39:0.73000002 40:2.6800001 #
-2.8774378486509324769540411372015e-07 1:8 2:0 3:4 4:0 5:4 6:0 7:0 8:4 9:0 10:0 11:4 12:4 13:20 14:12 15:0 16:16 17:0 18:4 19:8 20:12 21:2.73 22:1.5599999 23:1.17 24:5.0799999 25:3.9100001 26:7.4200001 27:2.73 28:1.17 29:6.25 30:13.67 31:4.3000002 32:3.52 33:13.28 34:3.52 35:4.3000002 36:8.5900002 37:4.6900001 38:7.0300002 39:0.77999997 40:4.3000002 #
-2.8774378486509324769540411372015e-07 1:0 2:0 3:4 4:0 5:4 6:4 7:8 8:0 9:4 10:4 11:4 12:12 13:8 14:4 15:12 16:16 17:8 18:4 19:0 20:4 21:6.0900002 22:1.22 23:3.8499999 24:11.16 25:1.42 26:3.04 27:2.03 28:3.6500001 29:11.16 30:7.5100002 31:1.83 32:6.29 33:5.0700002 34:6.9000001 35:5.48 36:8.5200005 37:5.48 38:5.0700002 39:1.62 40:2.6400001 #
-2.8774378486509324769540411372015e-07 1:24 2:0 3:0 4:0 5:0 6:8 7:0 8:4 9:16 10:4 11:8 12:4 13:0 14:0 15:8 16:16 17:0 18:8 19:0 20:0 21:17.17 22:0.89999998 23:4.2199998 24:6.02 25:2.4100001 26:10.24 27:2.4100001 28:2.1099999 29:2.4100001 30:7.8299999 31:5.4200001 32:2.4100001 33:6.3299999 34:2.1099999 35:5.7199998 36:5.1199999 37:4.2199998 38:10.84 39:0.60000002 40:1.51 #
-2.8774378486509324769540411372015e-07 1:28 2:0 3:0 4:0 5:0 6:4 7:0 8:0 9:28 10:0 11:24 12:0 13:8 14:0 15:0 16:0 17:8 18:0 19:0 20:0 21:12.5 22:2.27 23:2.27 24:3.4100001 25:3.4100001 26:6.8200002 27:0 28:1.14 29:14.77 30:6.8200002 31:2.27 32:0 33:5.6799998 34:2.27 35:10.23 36:4.5500002 37:6.8200002 38:10.23 39:3.4100001 40:1.14 #
-2.8774378486509324769540411372015e-07 1:28 2:8 3:0 4:0 5:0 6:4 7:0 8:4 9:0 10:0 11:8 12:0 13:4 14:0 15:12 16:16 17:4 18:12 19:0 20:0 21:18.92 22:0 23:0 24:8.1099997 25:2.7 26:10.81 27:0 28:5.4099998 29:4.0500002 30:10.81 31:4.0500002 32:1.35 33:4.0500002 34:1.35 35:6.7600002 36:4.0500002 37:6.7600002 38:10.81 39:0 40:0 #
2.877437848650932371074922730414e-06 1:4 2:8 3:4 4:0 5:0 6:0 7:0 8:4 9:0 10:32 11:4 12:4 13:8 14:0 15:8 16:0 17:0 18:16 19:4 20:4 21:7.9699998 22:2.99 23:3.99 24:3.99 25:5.3200002 26:4.98 27:1 28:9.3000002 29:4.6500001 30:11.96 31:1 32:6.3099999 33:3.6500001 34:4.3200002 35:6.6399999 36:7.6399999 37:4.6500001 38:5.6500001 39:0.66000003 40:3.3199999 #
-2.8774378486509324769540411372015e-07 1:16 2:0 3:0 4:0 5:4 6:0 7:8 8:0 9:4 10:24 11:4 12:4 13:0 14:0 15:4 16:8 17:0 18:20 19:4 20:0 21:7.0300002 22:1.62 23:3.24 24:6.3099999 25:5.5900002 26:5.0500002 27:3.4200001 28:3.78 29:3.78 30:12.25 31:2.52 32:4.3200002 33:6.3099999 34:4.8600001 35:6.6700001 36:3.5999999 37:6.6700001 38:7.5700002 39:1.98 40:3.4200001 #
-2.8774378486509324769540411372015e-07 1:16 2:0 3:4 4:12 5:0 6:0 7:0 8:12 9:8 10:12 11:4 12:0 13:4 14:0 15:12 16:4 17:4 18:4 19:0 20:4 21:10.31 22:1.15 23:6.8699999 24:6.8699999 25:4.96 26:9.54 27:3.05 28:3.05 29:7.6300001 30:9.54 31:1.15 32:3.4400001 33:4.96 34:2.29 35:4.96 36:5.73 37:3.8199999 38:6.4899998 39:0.75999999 40:3.4400001 #
-2.8774378486509324769540411372015e-07 1:28 2:0 3:0 4:0 5:0 6:4 7:0 8:4 9:0 10:0 11:4 12:0 13:8 14:0 15:0 16:36 17:4 18:12 19:0 20:0 21:12.34 22:2.55 23:3.4000001 24:3.8299999 25:5.1100001 26:13.62 27:2.55 28:3.4000001 29:3.4000001 30:7.6599998 31:2.1300001 32:5.1100001 33:5.96 34:5.5300002 35:4.2600002 36:7.6599998 37:2.98 38:5.1100001 39:0 40:3.4000001 #
-2.8774378486509324769540411372015e-07 1:24 2:0 3:4 4:0 5:0 6:4 7:0 8:4 9:0 10:0 11:4 12:8 13:4 14:0 15:8 16:36 17:4 18:0 19:0 20:0 21:4.3099999 22:1.85 23:5.23 24:3.0799999 25:4.6199999 26:7.3800001 27:0.62 28:6.77 29:8.6199999 30:9.54 31:0.92000002 32:5.8499999 33:5.54 34:4.6199999 35:4.9200001 36:7.3800001 37:5.54 38:6.77 39:1.85 40:4.6199999 #
9.3356671661497790827956635983931e-07 1:8 2:4 3:0 4:0 5:0 6:12 7:4 8:0 9:0 10:32 11:8 12:0 13:8 14:0 15:16 16:8 17:0 18:0 19:0 20:0 21:4.9200001 22:2.73 23:4.9200001 24:3.8299999 25:6.0100002 26:14.21 27:3.28 28:3.8299999 29:8.7399998 30:5.46 31:1.64 32:4.3699999 33:4.3699999 34:2.1900001 35:2.73 36:10.93 37:5.46 38:8.1999998 39:0.55000001 40:1.64 #
-2.8774378486509324769540411372015e-07 1:4 2:8 3:0 4:0 5:0 6:16 7:0 8:4 9:4 10:32 11:12 12:4 13:0 14:0 15:4 16:4 17:4 18:4 19:0 20:0 21:8.2200003 22:0 23:6.8499999 24:9.5900002 25:0 26:4.1100001 27:1.37 28:4.1100001 29:2.74 30:9.5900002 31:4.1100001 32:4.1100001 33:9.5900002 34:1.37 35:10.96 36:9.5900002 37:5.48 38:0 39:1.37 40:6.8499999 #
2.877437848650932371074922730414e-06 1:0 2:0 3:0 4:8 5:0 6:0 7:4 8:0 9:4 10:28 11:12 12:0 13:4 14:8 15:8 16:20 17:0 18:0 19:0 20:4 21:4.8000002 22:2.21 23:6.27 24:4.4299998 25:3.3199999 26:5.54 27:4.0599999 28:5.1700001 29:6.6399999 30:8.4899998 31:4.4299998 32:4.0599999 33:6.27 34:7.3800001 35:4.0599999 36:4.8000002 37:5.9000001 38:6.27 39:2.21 40:3.6900001 #
-2.8774378486509324769540411372015e-07 1:12 2:0 3:0 4:0 5:0 6:16 7:0 8:0 9:0 10:32 11:8 12:0 13:12 14:0 15:16 16:0 17:0 18:0 19:4 20:0 21:10.28 22:3.1199999 23:2.5899999 24:4.8699999 25:2.4400001 26:10.21 27:3.2 28:3.27 29:2.28 30:12.57 31:1.37 32:3.5 33:7.46 34:3.2 35:6.4699998 36:8.8299999 37:4.8000002 38:5.6399999 39:1.6799999 40:2.21 #
2.877437848650932371074922730414e-06 1:28 2:0 3:4 4:0 5:0 6:8 7:0 8:0 9:0 10:0 11:4 12:8 13:12 14:4 15:0 16:24 17:4 18:4 19:0 20:0 21:6.8800001 22:2.4300001 23:7.29 24:6.48 25:2.8299999 26:4.8600001 27:2.8299999 28:4.4499998 29:6.48 30:4.0500002 31:2.8299999 32:3.6400001 33:7.6900001 34:3.6400001 35:7.29 36:8.1000004 37:4.4499998 38:4.8600001 39:4.8600001 40:4.0500002 #
-2.8774378486509324769540411372015e-07 1:0 2:0 3:8 4:4 5:8 6:0 7:4 8:4 9:4 10:12 11:4 12:8 13:4 14:4 15:8 16:8 17:12 18:4 19:0 20:4 21:3.24 22:1.47 23:6.3299999 24:6.3299999 25:5.8899999 26:4.5700002 27:1.62 28:7.2199998 29:5.8899999 30:10.31 31:1.1799999 32:10.01 33:2.8 34:3.98 35:3.53 36:11.34 37:4.8600001 38:4.1199999 39:1.91 40:3.3900001 #
-2.8774378486509324769540411372015e-07 1:4 2:4 3:0 4:8 5:4 6:0 7:0 8:4 9:16 10:4 11:4 12:4 13:16 14:8 15:4 16:4 17:12 18:4 19:0 20:0 21:3.77 22:2.6099999 23:6.3800001 24:4.3499999 25:4.3499999 26:6.0900002 27:2.9000001 28:5.5100002 29:7.25 30:11.3 31:2.3199999 32:6.0900002 33:5.5100002 34:2.9000001 35:6.6700001 36:8.1199999 37:3.77 38:7.25 39:0 40:2.9000001 #
-2.8774378486509324769540411372015e-07 1:4 2:0 3:0 4:16 5:4 6:4 7:0 8:4 9:20 10:16 11:8 12:4 13:4 14:0 15:4 16:0 17:8 18:4 19:0 20:0 21:14.06 22:0 23:7.8099999 24:9.3800001 25:1.5599999 26:6.25 27:0 28:3.1199999 29:3.1199999 30:15.62 31:3.1199999 32:0 33:3.1199999 34:3.1199999 35:10.94 36:1.5599999 37:3.1199999 38:9.3800001 39:0 40:4.6900001 #
2.6799804988566623886118555492031e-06 1:4 2:0 3:0 4:4 5:12 6:4 7:8 8:4 9:0 10:32 11:8 12:0 13:0 14:12 15:4 16:4 17:0 18:4 19:0 20:0 21:2.3800001 22:1.1900001 23:4.7600002 24:2.3800001 25:3.5699999 26:3.5699999 27:4.7600002 28:5.9499998 29:7.1399999 30:11.9 31:1.1900001 32:5.9499998 33:9.5200005 34:2.3800001 35:14.29 36:10.71 37:3.5699999 38:2.3800001 39:1.1900001 40:1.1900001 #
-2.8774378486509324769540411372015e-07 1:8 2:0 3:0 4:4 5:12 6:0 7:0 8:4 9:0 10:24 11:4 12:8 13:0 14:0 15:12 16:4 17:8 18:12 19:0 20:0 21:6.1500001 22:1.62 23:5.8299999 24:6.4699998 25:5.1799998 26:5.8299999 27:2.5899999 28:11.65 29:8.0900002 30:9.3900003 31:2.27 32:3.24 33:2.9100001 34:2.5899999 35:5.5 36:6.1500001 37:4.5300002 38:4.8499999 39:0.97000003 40:4.21 #
-2.8774378486509324769540411372015e-07 1:0 2:4 3:0 4:8 5:8 6:0 7:4 8:8 9:8 10:4 11:4 12:4 13:12 14:4 15:4 16:20 17:0 18:4 19:4 20:0 21:3.99 22:1.6 23:6.6500001 24:6.9099998 25:5.0500002 26:6.1199999 27:1.86 28:9.5699997 29:6.6500001 30:9.5699997 31:2.1300001 32:5.8499999 33:5.3200002 34:4.2600002 35:5.0500002 36:6.6500001 37:3.46 38:5.8499999 39:0.52999997 40:2.9300001 #
-2.8774378486509324769540411372015e-07 1:12 2:0 3:4 4:12 5:4 6:8 7:4 8:4 9:4 10:12 11:4 12:0 13:4 14:0 15:8 16:8 17:0 18:4 19:4 20:4 21:4.21 22:2.3900001 23:4.21 24:8.4200001 25:4.0999999 26:4.3200002 27:2.6199999 28:5.3499999 29:8.9899998 30:11.72 31:1.14 32:4.0999999 33:5.8000002 34:3.98 35:4.0999999 36:9.8999996 37:5.9200001 38:5.46 39:0.91000003 40:2.3900001 #
-2.8774378486509324769540411372015e-07 1:12 2:4 3:0 4:0 5:4 6:4 7:0 8:0 9:0 10:40 11:4 12:0 13:4 14:8 15:8 16:4 17:4 18:4 19:0 20:0 21:7.4400001 22:3.3099999 23:7.4400001 24:4.96 25:4.1300001 26:1.65 27:0 28:10.74 29:8.2600002 30:5.79 31:0.82999998 32:7.4400001 33:4.96 34:3.3099999 35:4.1300001 36:2.48 37:7.4400001 38:9.9200001 39:0.82999998 40:4.96 #
-2.8774378486509324769540411372015e-07 1:12 2:0 3:4 4:8 5:0 6:8 7:4 8:0 9:20 10:20 11:4 12:0 13:0 14:0 15:0 16:0 17:8 18:12 19:0 20:0 21:6.04 22:0 23:6.71 24:8.7200003 25:4.0300002 26:4.0300002 27:3.3599999 28:6.04 29:5.3699999 30:12.75 31:0.67000002 32:6.04 33:6.71 34:4.6999998 35:8.0500002 36:7.3800001 37:2.6800001 38:4.0300002 39:0 40:2.6800001 #
-2.8774378486509324769540411372015e-07 1:0 2:0 3:0 4:8 5:8 6:4 7:4 8:4 9:12 10:8 11:4 12:8 13:12 14:0 15:8 16:0 17:8 18:12 19:0 20:0 21:5.52 22:1.74 23:4.0700002 24:5.8099999 25:4.3600001 26:7.27 27:4.0700002 28:7.8499999 29:4.9400001 30:8.7200003 31:2.6199999 32:4.3600001 33:6.4000001 34:4.3600001 35:4.3600001 36:6.6900001 37:4.3600001 38:6.0999999 39:2.3299999 40:4.0700002 #
-2.8774378486509324769540411372015e-07 1:8 2:0 3:0 4:4 5:4 6:20 7:0 8:8 9:0 10:28 11:8 12:4 13:0 14:0 15:0 16:4 17:0 18:12 19:0 20:0 21:5.1100001 22:2.55 23:1.46 24:1.09 25:6.5700002 26:4.0100002 27:2.55 28:7.3000002 29:4.7399998 30:16.42 31:1.8200001 32:2.1900001 33:4.3800001 34:3.6500001 35:5.1100001 36:10.22 37:4.7399998 38:5.8400002 39:4.7399998 40:5.4699998 #
1.1996988056457401553684359585272e-06 1:12 2:8 3:0 4:0 5:8 6:4 7:4 8:8 9:8 10:4 11:4 12:0 13:8 14:0 15:8 16:4 17:8 18:12 19:0 20:0 21:10 22:0.38 23:5 24:4.23 25:3.0799999 26:6.1500001 27:0.76999998 28:6.54 29:9.2299995 30:9.2299995 31:1.15 32:3.0799999 33:6.54 34:4.23 35:6.1500001 36:9.2299995 37:6.1500001 38:6.1500001 39:0 40:2.6900001 #
-2.8774378486509324769540411372015e-07 1:4 2:4 3:0 4:4 5:36 6:4 7:0 8:0 9:0 10:12 11:8 12:0 13:0 14:0 15:4 16:16 17:4 18:4 19:0 20:0 21:3.0699999 22:3.6800001 23:3.0699999 24:0.61000001 25:23.309999 26:0 27:9.8199997 28:4.29 29:1.84 30:10.43 31:0.61000001 32:1.23 33:3.6800001 34:1.23 35:7.3600001 36:10.43 37:6.1300001 38:3.6800001 39:1.84 40:3.6800001 #
-2.8774378486509324769540411372015e-07 1:4 2:0 3:8 4:12 5:4 6:12 7:0 8:8 9:12 10:4 11:4 12:4 13:0 14:12 15:4 16:0 17:8 18:4 19:0 20:0 21:9.9200001 22:3.05 23:3.8199999 24:4.5799999 25:8.3999996 26:6.8699999 27:1.53 28:12.21 29:3.05 30:12.98 31:0.75999999 32:3.8199999 33:2.29 34:1.53 35:6.8699999 36:1.53 37:3.8199999 38:9.1599998 39:0 40:3.8199999 #
2.877437848650932371074922730414e-06 1:4 2:0 3:0 4:4 5:8 6:12 7:4 8:0 9:4 10:32 11:8 12:0 13:0 14:8 15:0 16:8 17:4 18:0 19:0 20:4 21:10.75 22:7.5300002 23:2.1500001 24:0 25:9.6800003 26:4.3000002 27:1.08 28:8.6000004 29:2.1500001 30:8.6000004 31:0 32:2.1500001 33:8.6000004 34:0 35:8.6000004 36:11.83 37:6.4499998 38:4.3000002 39:0 40:3.23 #
-2.8774378486509324769540411372015e-07 1:0 2:4 3:8 4:8 5:0 6:0 7:8 8:8 9:12 10:8 11:4 12:0 13:0 14:8 15:4 16:4 17:4 18:4 19:4 20:12 21:5.6900001 22:0 23:4.0700002 24:6.5 25:3.25 26:4.4699998 27:2.4400001 28:8.54 29:9.3500004 30:7.3200002 31:0.81 32:9.3500004 33:4.0700002 34:4.4699998 35:6.9099998 36:7.7199998 37:6.5 38:6.5 39:0 40:2.03 #
-2.8774378486509324769540411372015e-07 1:4 2:0 3:8 4:8 5:4 6:0 7:0 8:0 9:4 10:4 11:4 12:4 13:12 14:20 15:8 16:4 17:4 18:8 19:4 20:0 21:5.79 22:1.41 23:5.79 24:5.6199999 25:4.4699998 26:7.9400001 27:2.1500001 28:4.96 29:5.3800001 30:8.6800003 31:3.0599999 32:4.3800001 33:5.29 34:4.3800001 35:6.4499998 36:6.5300002 37:5.96 38:7.2800002 39:0.82999998 40:3.6400001 #
6.2759245292908764702656271988745e-07 1:4 2:0 3:4 4:0 5:16 6:4 7:0 8:4 9:0 10:20 11:8 12:8 13:0 14:0 15:0 16:4 17:16 18:0 19:4 20:8 21:2.29 22:1.53 23:2.29 24:0.75999999 25:31.299999 26:2.29 27:0 28:3.05 29:3.05 30:13.74 31:0 32:5.3400002 33:3.05 34:0 35:0 36:9.1599998 37:4.5799999 38:9.9200001 39:0 40:7.6300001 #
-2.8774378486509324769540411372015e-07 1:8 2:4 3:0 4:0 5:8 6:0 7:0 8:16 9:4 10:28 11:4 12:4 13:4 14:0 15:0 16:0 17:20 18:0 19:0 20:0 21:8.9200001 22:1.23 23:3.3800001 24:4.77 25:3.6900001 26:3.54 27:1.08 28:6.6199999 29:4.1500001 30:12.62 31:3.6900001 32:5.6900001 33:3.3800001 34:2.3099999 35:1.54 36:13.23 37:11.08 38:6 39:0.92000002 40:2.1500001 #
-2.8774378486509324769540411372015e-07 1:12 2:0 3:0 4:4 5:8 6:8 7:4 8:0 9:4 10:20 11:8 12:0 13:0 14:0 15:0 16:8 17:4 18:16 19:0 20:4 21:7.8099999 22:2.3399999 23:1.5599999 24:2.3399999 25:4.6900001 26:12.5 27:4.6900001 28:4.6900001 29:3.9100001 30:8.5900002 31:2.3399999 32:3.1199999 33:5.4699998 34:2.3399999 35:6.25 36:5.4699998 37:4.6900001 38:7.0300002 39:1.5599999 40:8.5900002 #
-2.8774378486509324769540411372015e-07 1:16 2:4 3:0 4:0 5:4 6:4 7:4 8:4 9:0 10:24 11:12 12:0 13:4 14:4 15:4 16:8 17:4 18:4 19:0 20:0 21:7.0500002 22:2.78 23:4.5700002 24:3.48 25:5.1599998 26:5.7600002 27:4.0700002 28:1.79 29:2.6800001 30:18.469999 31:1.6900001 32:5.3600001 33:5.46 34:4.27 35:6.2600002 36:8.4399996 37:3.77 38:4.9699998 39:2.0899999 40:1.89 #
2.877437848650932371074922730414e-06 1:4 2:0 3:8 4:4 5:0 6:16 7:0 8:4 9:20 10:4 11:4 12:4 13:0 14:0 15:0 16:24 17:4 18:4 19:0 20:0 21:2 22:0 23:4 24:2 25:8 26:4 27:4 28:4 29:14 30:10 31:2 32:4 33:8 34:2 35:0 36:8 37:4 38:14 39:4 40:2 #
2.877437848650932371074922730414e-06 1:0 2:0 3:0 4:0 5:0 6:4 7:0 8:8 9:16 10:12 11:4 12:0 13:24 14:4 15:12 16:4 17:0 18:8 19:0 20:4 21:7.1399999 22:5.71 23:2.8599999 24:4.29 25:0 26:5.71 27:4.29 28:2.8599999 29:8.5699997 30:11.43 31:2.8599999 32:10 33:2.8599999 34:2.8599999 35:4.29 36:11.43 37:2.8599999 38:4.29 39:1.4299999 40:4.29 #
2.877437848650932371074922730414e-06 1:0 2:0 3:0 4:0 5:4 6:8 7:0 8:8 9:16 10:16 11:4 12:4 13:20 14:4 15:4 16:8 17:0 18:4 19:0 20:0 21:5.8299999 22:0 23:5.8299999 24:10.68 25:3.8800001 26:3.8800001 27:2.9100001 28:5.8299999 29:7.77 30:10.68 31:0.97000003 32:7.77 33:4.8499999 34:4.8499999 35:5.8299999 36:7.77 37:3.8800001 38:2.9100001 39:0.97000003 40:2.9100001 #
-2.8774378486509324769540411372015e-07 1:4 2:4 3:0 4:4 5:12 6:0 7:0 8:0 9:4 10:4 11:4 12:4 13:12 14:0 15:12 16:12 17:12 18:0 19:0 20:12 21:4.7800002 22:2.1700001 23:5.2199998 24:4.7800002 25:0 26:6.52 27:7.3899999 28:3.9100001 29:0 30:6.52 31:2.1700001 32:0.87 33:12.61 34:4.7800002 35:9.5699997 36:12.61 37:5.2199998 38:6.52 39:1.3 40:3.04 #
-2.8774378486509324769540411372015e-07 1:0 2:4 3:4 4:4 5:12 6:8 7:0 8:4 9:4 10:12 11:4 12:8 13:8 14:8 15:12 16:4 17:4 18:0 19:0 20:0 21:6.1199999 22:2.1400001 23:5.4299998 24:7.4200001 25:3.9000001 26:5.1300001 27:3.1400001 28:3.98 29:5.9699998 30:11.63 31:1.91 32:3.9000001 33:4.2800002 34:5.4299998 35:3.9000001 36:8.1099997 37:5.0500002 38:8.1099997 39:1.6799999 40:2.75 #
-2.8774378486509324769540411372015e-07 1:44 2:4 3:0 4:0 5:0 6:8 7:0 8:0 9:0 10:4 11:4 12:0 13:4 14:0 15:12 16:0 17:0 18:20 19:0 20:0 21:6.3800001 22:0.43000001 23:7.25 24:12.46 25:2.46 26:4.7800002 27:1.16 28:3.1900001 29:12.61 30:6.6700001 31:2.03 32:4.0599999 33:3.3299999 34:5.0700002 35:7.0999999 36:10.87 37:3.9100001 38:4.3499999 39:0.57999998 40:1.3 #
-2.8774378486509324769540411372015e-07 1:28 2:0 3:0 4:0 5:0 6:24 7:0 8:0 9:0 10:24 11:4 12:0 13:4 14:0 15:12 16:0 17:0 18:4 19:0 20:0 21:6.52 22:1.88 23:5.6500001 24:4.9299998 25:3.1900001 26:8.5500002 27:2.75 28:4.7800002 29:5.5100002 30:7.0999999 31:1.45 32:3.6199999 33:6.0900002 34:4.9299998 35:5.2199998 36:10.14 37:7.3899999 38:5.5100002 39:1.16 40:3.6199999 #
-2.8774378486509324769540411372015e-07 1:28 2:4 3:0 4:0 5:0 6:24 7:0 8:0 9:0 10:24 11:4 12:0 13:4 14:0 15:8 16:0 17:4 18:0 19:0 20:0 21:6.3200002 22:2.9300001 23:6.5 24:4.9499998 25:4.0300002 26:6.1399999 27:2.75 28:4.21 29:3.6600001 30:11.36 31:1.92 32:5.3099999 33:6.04 34:4.4899998 35:5.04 36:10.26 37:6.23 38:4.7600002 39:1.1900001 40:1.92 #
1.4350531498274993255496231187029e-06 1:0 2:0 3:0 4:0 5:8 6:4 7:4 8:12 9:24 10:0 11:8 12:4 13:0 14:0 15:16 16:12 17:4 18:0 19:0 20:4 21:3.49 22:5.8099999 23:3.49 24:0 25:13.95 26:4.6500001 27:4.6500001 28:12.79 29:5.8099999 30:10.47 31:0 32:2.3299999 33:3.49 34:1.16 35:3.49 36:10.47 37:6.98 38:4.6500001 39:0 40:2.3299999 #
-1.9329278881475930553695066760334e-08 1:8 2:4 3:0 4:8 5:8 6:0 7:4 8:0 9:8 10:12 11:4 12:0 13:20 14:12 15:0 16:4 17:0 18:4 19:0 20:4 21:9.1400003 22:1.26 23:7.1999998 24:4.5700002 25:4.3400002 26:8.6899996 27:3.4300001 28:4.46 29:2.74 30:6.5100002 31:2.4000001 32:3.54 33:7.3099999 34:2.51 35:5.5999999 36:6.5100002 37:5.8299999 38:8.8000002 39:2.74 40:2.4000001 #
-2.8774378486509324769540411372015e-07 1:0 2:0 3:0 4:0 5:4 6:0 7:0 8:8 9:12 10:12 11:4 12:4 13:0 14:12 15:0 16:28 17:8 18:8 19:0 20:0 21:16.219999 22:2.7 23:5.4099998 24:0 25:5.4099998 26:2.7 27:2.7 28:8.1099997 29:0 30:18.92 31:0 32:10.81 33:2.7 34:5.4099998 35:0 36:13.51 37:2.7 38:2.7 39:0 40:0 #
-2.8774378486509324769540411372015e-07 1:0 2:0 3:4 4:0 5:8 6:0 7:8 8:0 9:0 10:16 11:4 12:0 13:0 14:0 15:12 16:40 17:4 18:4 19:0 20:0 21:7.02 22:0.88 23:6.6700001 24:5.0900002 25:5.0900002 26:7.7199998 27:2.8099999 28:5.4400001 29:4.5599999 30:8.25 31:2.6300001 32:5.2600002 33:7.8899999 34:0.88 35:5.96 36:6.1399999 37:6.1399999 38:8.0699997 39:0.34999999 40:3.1600001 #
-1.330430025633512002394050893761e-07 1:8 2:0 3:0 4:4 5:8 6:4 7:8 8:0 9:8 10:8 11:4 12:0 13:12 14:8 15:8 16:4 17:0 18:16 19:0 20:0 21:9.5699997 22:0.95999998 23:9.8100004 24:13.64 25:1.67 26:6.2199998 27:2.6300001 28:2.6300001 29:7.8899999 30:6.46 31:1.4400001 32:2.1500001 33:5.7399998 34:4.0700002 35:4.7800002 36:8.1300001 37:6.46 38:3.3499999 39:0.72000003 40:1.67 #
-2.8774378486509324769540411372015e-07 1:4 2:0 3:8 4:0 5:4 6:0 7:0 8:0 9:20 10:4 11:4 12:0 13:4 14:0 15:8 16:8 17:28 18:8 19:0 20:0 21:4.1199999 22:2.0599999 23:3.6099999 24:1.03 25:7.2199998 26:5.6700001 27:2.0599999 28:7.73 29:5.1500001 30:13.92 31:1.55 32:4.6399999 33:5.6700001 34:2.0599999 35:2.0599999 36:4.1199999 37:5.6700001 38:10.82 39:3.6099999 40:7.2199998 #
2.877437848650932371074922730414e-06 1:16 2:0 3:0 4:0 5:4 6:0 7:0 8:8 9:0 10:8 11:4 12:0 13:0 14:0 15:8 16:44 17:4 18:0 19:0 20:4 21:6.7399998 22:1.14 23:5.4899998 24:5.2800002 25:4.6599998 26:8.5 27:2.0699999 28:5.1799998 29:5.5999999 30:7.8800001 31:2.9000001 32:4.9699998 33:5.9099998 34:2.5899999 35:4.6599998 36:8.0799999 37:6.0100002 38:8.5 39:1.04 40:2.8 #
-2.8774378486509324769540411372015e-07 1:4 2:0 3:4 4:0 5:0 6:16 7:0 8:8 9:0 10:8 11:4 12:0 13:8 14:0 15:0 16:20 17:20 18:4 19:0 20:4 21:8.3100004 22:2.3399999 23:3.3800001 24:4.5900002 25:3.3800001 26:6.6700001 27:1.73 28:3.72 29:3.1199999 30:13.94 31:2.4200001 32:1.9 33:7.5300002 34:4.8499999 35:5.71 36:6.9299998 37:5.3699999 38:10.04 39:1.3 40:2.77 #
-2.8774378486509324769540411372015e-07 1:12 2:0 3:0 4:0 5:8 6:12 7:0 8:8 9:4 10:4 11:4 12:0 13:8 14:0 15:0 16:16 17:20 18:4 19:0 20:0 21:6.0900002 22:1.74 23:2.6099999 24:2.6099999 25:9.5699997 26:11.3 27:1.74 28:4.3499999 29:3.48 30:15.65 31:0 32:3.48 33:6.0900002 34:1.74 35:5.2199998 36:7.8299999 37:7.8299999 38:3.48 39:4.3499999 40:0.87 #
2.877437848650932371074922730414e-06 1:20 2:8 3:0 4:12 5:0 6:8 7:0 8:0 9:0 10:8 11:4 12:0 13:0 14:12 15:8 16:0 17:4 18:8 19:0 20:8 21:12.94 22:7.0599999 23:1.1799999 24:9.4099998 25:3.53 26:1.1799999 27:3.53 28:4.71 29:2.3499999 30:4.71 31:2.3499999 32:2.3499999 33:9.4099998 34:11.76 35:8.2399998 36:7.0599999 37:2.3499999 38:3.53 39:1.1799999 40:1.1799999 #
-2.8774378486509324769540411372015e-07 1:4 2:4 3:0 4:4 5:12 6:4 7:4 8:8 9:4 10:16 11:4 12:4 13:4 14:4 15:8 16:8 17:4 18:0 19:0 20:4 21:4.3800001 22:3.3699999 23:5.3899999 24:6.0599999 25:7.0700002 26:8.0799999 27:3.03 28:5.3899999 29:4.04 30:10.44 31:1.6799999 32:4.3800001 33:6.4000001 34:4.3800001 35:5.0500002 36:7.7399998 37:4.3800001 38:5.7199998 39:0.34 40:2.6900001 #
-2.8774378486509324769540411372015e-07 1:36 2:0 3:0 4:0 5:0 6:4 7:0 8:4 9:0 10:20 11:4 12:0 13:12 14:4 15:12 16:0 17:0 18:0 19:4 20:0 21:8.5799999 22:6.7199998 23:5.2199998 24:6.3400002 25:1.87 26:9.6999998 27:2.6099999 28:1.49 29:7.0900002 30:6.7199998 31:1.87 32:2.6099999 33:9.3299999 34:3.73 35:7.8400002 36:7.0900002 37:3.3599999 38:4.48 39:0.37 40:2.99 #
2.877437848650932371074922730414e-06 1:0 2:0 3:8 4:0 5:0 6:0 7:0 8:8 9:4 10:8 11:4 12:12 13:8 14:0 15:0 16:20 17:20 18:0 19:0 20:8 21:10.37 22:0 23:3.05 24:4.8800001 25:6.71 26:11.59 27:2.4400001 28:1.22 29:4.27 30:7.3200002 31:4.8800001 32:2.4400001 33:4.8800001 34:4.8800001 35:7.3200002 36:6.0999999 37:2.4400001 38:8.54 39:0.61000001 40:6.0999999 #
-2.8774378486509324769540411372015e-07 1:8 2:0 3:0 4:8 5:4 6:4 7:0 8:8 9:4 10:12 11:4 12:4 13:20 14:4 15:0 16:12 17:8 18:0 19:0 20:0 21:12.11 22:1.95 23:6.25 24:3.9100001 25:2.73 26:8.9799995 27:0.77999997 28:6.6399999 29:7.8099999 30:6.25 31:0.77999997 32:5.0799999 33:3.9100001 34:3.1199999 35:0.77999997 36:7.4200001 37:5.8600001 38:7.8099999 39:2.73 40:5.0799999 #
-2.8774378486509324769540411372015e-07 1:0 2:0 3:0 4:12 5:0 6:8 7:0 8:8 9:4 10:4 11:24 12:0 13:4 14:8 15:8 16:16 17:0 18:0 19:0 20:4 21:10.53 22:7.02 23:1.75 24:3.51 25:7.02 26:10.53 27:0 28:5.2600002 29:5.2600002 30:1.75 31:7.02 32:1.75 33:1.75 34:17.540001 35:1.75 36:10.53 37:3.51 38:3.51 39:0 40:0 #
-2.8774378486509324769540411372015e-07 1:0 2:0 3:0 4:12 5:0 6:0 7:0 8:4 9:12 10:8 11:4 12:0 13:4 14:24 15:0 16:0 17:8 18:4 19:0 20:20 21:9.46 22:1.35 23:5.4099998 24:9.46 25:5.4099998 26:4.0500002 27:0 28:5.4099998 29:5.4099998 30:6.7600002 31:4.0500002 32:4.0500002 33:2.7 34:5.4099998 35:10.81 36:4.0500002 37:4.0500002 38:4.0500002 39:2.7 40:5.4099998 #
2.877437848650932371074922730414e-06 1:4 2:0 3:4 4:0 5:0 6:8 7:4 8:0 9:4 10:20 11:4 12:0 13:0 14:8 15:24 16:12 17:0 18:4 19:0 20:4 21:10 22:1.11 23:6.6700001 24:5.5599999 25:2.22 26:13.33 27:3.3299999 28:1.11 29:0 30:6.6700001 31:1.11 32:1.11 33:11.11 34:4.4400001 35:16.67 36:4.4400001 37:4.4400001 38:4.4400001 39:0 40:2.22 #
-2.8774378486509324769540411372015e-07 1:32 2:0 3:4 4:0 5:0 6:16 7:0 8:0 9:0 10:20 11:4 12:0 13:0 14:4 15:8 16:8 17:0 18:4 19:0 20:0 21:6.4400001 22:4.4099998 23:4.4099998 24:3.73 25:6.7800002 26:3.73 27:4.0700002 28:2.71 29:2.71 30:14.58 31:2.03 32:2.71 33:4.0700002 34:3.05 35:4.75 36:7.1199999 37:4.0700002 38:10.51 39:4.0700002 40:4.0700002 #
-2.8774378486509324769540411372015e-07 1:28 2:0 3:0 4:4 5:0 6:8 7:0 8:0 9:0 10:28 11:4 12:4 13:4 14:0 15:4 16:4 17:0 18:4 19:8 20:0 21:6.8899999 22:1.97 23:1.3099999 24:1.3099999 25:9.8400002 26:4.5900002 27:3.6099999 28:2.95 29:4.5900002 30:15.08 31:2.3 32:3.28 33:3.28 34:4.2600002 35:5.25 36:8.5200005 37:3.28 38:9.5100002 39:3.28 40:4.9200001 #
-2.8774378486509324769540411372015e-07 1:0 2:0 3:4 4:8 5:0 6:8 7:4 8:12 9:12 10:4 11:4 12:4 13:4 14:0 15:4 16:24 17:4 18:4 19:0 20:0 21:8.3800001 22:0.34999999 23:4.8899999 24:7.1599998 25:4.54 26:5.4099998 27:2.4400001 28:8.3800001 29:7.3299999 30:7.8499999 31:1.22 32:5.2399998 33:4.3600001 34:5.4099998 35:3.8399999 36:7.5 37:6.6300001 38:6.1100001 39:0.17 40:2.79 #
7.8867160057606886880768315428725e-07 1:0 2:0 3:0 4:4 5:16 6:0 7:0 8:4 9:20 10:0 11:4 12:0 13:16 14:8 15:4 16:8 17:4 18:12 19:0 20:0 21:4.9099998 22:2.1500001 23:4.5999999 24:9.8199997 25:6.4400001 26:3.6800001 27:1.84 28:6.4400001 29:11.66 30:11.96 31:2.76 32:7.0599999 33:1.23 34:2.45 35:4.29 36:5.52 37:3.99 38:3.6800001 39:1.23 40:4.29 #
2.877437848650932371074922730414e-06 1:4 2:12 3:8 4:20 5:0 6:0 7:4 8:0 9:16 10:0 11:4 12:4 13:8 14:8 15:0 16:0 17:8 18:4 19:0 20:0 21:2.27 22:9.0900002 23:4.5500002 24:18.18 25:6.8200002 26:6.8200002 27:0 28:4.5500002 29:15.91 30:2.27 31:2.27 32:4.5500002 33:4.5500002 34:2.27 35:2.27 36:4.5500002 37:2.27 38:2.27 39:0 40:4.5500002 #
2.877437848650932371074922730414e-06 1:0 2:0 3:0 4:0 5:4 6:8 7:4 8:16 9:4 10:0 11:4 12:4 13:4 14:8 15:8 16:20 17:4 18:12 19:0 20:0 21:3.8499999 22:1.0700001 23:6.4099998 24:6.8400002 25:5.5599999 26:6.8400002 27:1.92 28:6.6199999 29:9.3999996 30:9.6199999 31:1.0700001 32:6.1999998 33:4.4899998 34:1.92 35:5.1300001 36:7.6900001 37:4.6999998 38:5.5599999 39:2.1400001 40:2.99 #
-2.8774378486509324769540411372015e-07 1:20 2:4 3:4 4:0 5:0 6:0 7:0 8:0 9:0 10:8 11:4 12:4 13:16 14:8 15:4 16:20 17:8 18:0 19:0 20:0 21:7.7199998 22:0.34999999 23:4.04 24:12.81 25:1.75 26:3.6800001 27:4.04 28:2.6300001 29:9.6499996 30:13.33 31:1.75 32:3.3299999 33:1.4 34:7.7199998 35:8.9499998 36:5.4400001 37:4.04 38:4.9099998 39:0.88 40:1.58 #
-2.8774378486509324769540411372015e-07 1:0 2:4 3:0 4:0 5:16 6:8 7:0 8:12 9:4 10:24 11:8 12:0 13:8 14:0 15:8 16:0 17:4 18:4 19:0 20:0 21:4.5799999 22:2.5699999 23:7.3600001 24:6.4499998 25:6.8000002 26:6.1100001 27:2.0799999 28:5.8299999 29:4.9299998 30:7.77 31:0.97000003 32:5.1399999 33:4.5100002 34:2.78 35:3.1199999 36:10.69 37:5.7600002 38:6.52 39:1.53 40:4.5100002 #
-2.8774378486509324769540411372015e-07 1:4 2:0 3:8 4:0 5:4 6:8 7:0 8:8 9:16 10:8 11:4 12:8 13:0 14:0 15:8 16:20 17:4 18:0 19:0 20:0 21:5.3200002 22:0.75999999 23:6.6500001 24:5.6999998 25:4.1799998 26:5.6999998 27:1.33 28:5.8899999 29:9.5100002 30:7.79 31:0.94999999 32:5.8899999 33:3.99 34:4.5599999 35:3.23 36:10.46 37:6.46 38:6.46 39:0.94999999 40:4.1799998 #
-2.8774378486509324769540411372015e-07 1:8 2:4 3:4 4:4 5:0 6:8 7:4 8:0 9:0 10:16 11:12 12:0 13:4 14:8 15:8 16:4 17:4 18:12 19:0 20:0 21:6.71 22:0.88999999 23:4.73 24:6.9000001 25:2.3699999 26:6.5100002 27:3.75 28:4.2399998 29:6.71 30:9.2700005 31:1.1799999 32:2.6600001 33:5.8200002 34:4.8299999 35:6.4099998 36:13.81 37:4.8299999 38:3.75 39:1.08 40:3.55 #
-2.8774378486509324769540411372015e-07 1:24 2:0 3:0 4:0 5:0 6:8 7:8 8:4 9:0 10:16 11:8 12:0 13:12 14:0 15:12 16:4 17:0 18:0 19:4 20:0 21:6.0999999 22:1.22 23:1.22 24:13.41 25:4.8800001 26:6.0999999 27:2.4400001 28:8.54 29:10.98 30:4.8800001 31:3.6600001 32:1.22 33:2.4400001 34:7.3200002 35:6.0999999 36:3.6600001 37:8.54 38:6.0999999 39:0 40:1.22 #
-2.8774378486509324769540411372015e-07 1:24 2:0 3:0 4:0 5:0 6:8 7:0 8:0 9:0 10:24 11:4 12:0 13:16 14:0 15:16 16:0 17:0 18:8 19:0 20:0 21:8.8400002 22:0 23:8.1599998 24:9.5200005 25:4.7600002 26:8.8400002 27:1.36 28:2.72 29:6.8000002 30:8.1599998 31:0.68000001 32:2.04 33:8.1599998 34:2.04 35:6.1199999 36:2.72 37:8.1599998 38:6.1199999 39:0 40:4.7600002 #
2.877437848650932371074922730414e-06 1:12 2:0 3:8 4:4 5:4 6:0 7:0 8:8 9:8 10:8 11:4 12:0 13:0 14:0 15:0 16:0 17:28 18:12 19:4 20:0 21:4.27 22:1.1799999 23:6.4000001 24:6.1599998 25:2.6099999 26:6.4000001 27:1.1799999 28:6.1599998 29:8.7700005 30:9.9499998 31:0.94999999 32:4.27 33:4.7399998 34:4.7399998 35:5.6900001 36:7.8200002 37:4.7399998 38:9.4799995 39:1.66 40:2.8399999 #
2.877437848650932371074922730414e-06 1:0 2:0 3:20 4:4 5:0 6:8 7:4 8:0 9:4 10:0 11:4 12:0 13:4 14:4 15:0 16:12 17:8 18:20 19:8 20:0 21:8.2399998 22:0.22 23:7.3800001 24:13.45 25:2.3900001 26:9.1099997 27:2.5999999 28:2.8199999 29:7.3800001 30:4.77 31:1.3 32:1.52 33:7.5900002 34:4.9899998 35:5.8600001 36:6.7199998 37:2.8199999 38:5.6399999 39:0.87 40:4.3400002 #
-2.8774378486509324769540411372015e-07 1:12 2:0 3:4 4:0 5:4 6:0 7:0 8:4 9:8 10:0 11:12 12:20 13:0 14:8 15:0 16:4 17:20 18:4 19:0 20:0 21:5.0300002 22:1.89 23:7.5500002 24:1.26 25:6.29 26:6.29 27:1.89 28:7.5500002 29:3.77 30:7.5500002 31:2.52 32:11.32 33:6.9200001 34:6.9200001 35:5.0300002 36:3.77 37:4.4000001 38:6.29 39:1.26 40:2.52 #
2.877437848650932371074922730414e-06 1:0 2:0 3:4 4:0 5:12 6:4 7:0 8:8 9:4 10:16 11:4 12:8 13:12 14:0 15:0 16:12 17:4 18:4 19:0 20:8 21:6.3299999 22:4.2199998 23:3.3099999 24:1.2 25:9.04 26:4.2199998 27:1.51 28:7.23 29:4.52 30:10.54 31:2.71 32:3.3099999 33:4.52 34:1.51 35:6.02 36:6.9299998 37:5.4200001 38:7.5300002 39:3.9200001 40:6.02 #
-2.8774378486509324769540411372015e-07 1:32 2:0 3:0 4:0 5:0 6:16 7:0 8:0 9:0 10:16 11:4 12:0 13:4 14:0 15:12 16:12 17:4 18:0 19:0 20:0 21:9.1599998 22:3.05 23:3.7 24:6.75 25:3.3800001 26:10.13 27:3.3800001 28:3.3800001 29:2.73 30:10.93 31:1.77 32:2.4100001 33:7.8800001 34:4.5 35:7.7199998 36:7.4000001 37:4.3400002 38:3.7 39:0.80000001 40:2.8900001 #
-2.8774378486509324769540411372015e-07 1:40 2:4 3:4 4:0 5:4 6:4 7:0 8:0 9:0 10:4 11:4 12:0 13:0 14:4 15:16 16:8 17:8 18:0 19:0 20:0 21:10.88 22:1.38 23:5.2800002 24:6.1700001 25:3.49 26:10.96 27:1.87 28:2.1099999 29:3.9000001 30:6.1700001 31:1.87 32:3.49 33:9.3299999 34:3.5699999 35:8.1999998 36:10.8 37:2.76 38:4.6300001 39:0.88999999 40:2.27 #
2.102849759772772072477162175197e-06 1:4 2:0 3:4 4:0 5:8 6:0 7:0 8:12 9:0 10:0 11:4 12:16 13:0 14:8 15:8 16:4 17:24 18:8 19:0 20:0 21:2.99 22:0.41 23:2.45 24:4.9000001 25:3.1300001 26:2.8599999 27:1.09 28:7.48 29:15.1 30:10.88 31:1.77 32:7.7600002 33:2.3099999 34:8.4399996 35:6.8000002 36:4.9000001 37:6.3899999 38:6.1199999 39:0.27000001 40:3.95 #
2.877437848650932371074922730414e-06 1:0 2:0 3:0 4:4 5:0 6:4 7:0 8:4 9:24 10:12 11:8 12:16 13:4 14:8 15:0 16:8 17:0 18:4 19:0 20:4 21:3.3299999 22:1.4299999 23:3.8099999 24:5.2399998 25:5.2399998 26:4.29 27:1.9 28:8.1000004 29:9.5200005 30:10.95 31:3.3299999 32:10 33:3.8099999 34:3.8099999 35:1.9 36:4.7600002 37:4.7600002 38:4.7600002 39:2.3800001 40:6.6700001 #
