SVM-light Version V6.02
2 # kernel type
3 # kernel parameter -d 
0.001 # kernel parameter -g 
1 # kernel parameter -s 
1 # kernel parameter -r 
empty# kernel parameter -u 
40 # highest feature index 
569 # number of training documents 
318 # number of support vectors plus 1 
3.1271227 # threshold b, each following line is a SV (starting with alpha*y)
-3.0014682518320308091119841265026 1:16 2:0 3:0 4:0 5:0 6:4 7:4 8:8 9:4 10:12 11:4 12:8 13:8 14:8 15:4 16:8 17:8 18:4 19:0 20:0 21:6.23 22:1.1900001 23:3.5599999 24:8.8999996 25:3.8599999 26:5.9299998 27:4.75 28:4.75 29:5.04 30:9.1999998 31:3.26 32:2.6700001 33:7.1199999 34:2.0799999 35:7.7199998 36:5.04 37:8.0100002 38:5.6399999 39:2.6700001 40:2.3699999 #
-10 1:20 2:0 3:0 4:0 5:4 6:12 7:0 8:4 9:8 10:12 11:8 12:0 13:4 14:0 15:8 16:8 17:8 18:4 19:0 20:0 21:9.4200001 22:0.91000003 23:4.5599999 24:8.21 25:3.95 26:7.29 27:3.95 28:5.4699998 29:6.6900001 30:6.9899998 31:3.3399999 32:3.3399999 33:4.5599999 34:1.52 35:5.7800002 36:4.5599999 37:6.3800001 38:6.0799999 39:3.3399999 40:3.6500001 #
-0.53672693890912004377469202154316 1:4 2:0 3:8 4:8 5:0 6:8 7:4 8:4 9:0 10:12 11:4 12:0 13:4 14:0 15:0 16:20 17:8 18:8 19:0 20:8 21:5.98 22:2.24 23:3.8599999 24:6.8499999 25:5.1100001 26:4.8600001 27:2.8599999 28:6.3499999 29:5.3499999 30:11.71 31:1.37 32:4.23 33:4.23 34:4.48 35:6.0999999 36:8.3400002 37:5.23 38:6.8499999 39:1.12 40:2.8599999 #
-4.7791917621840411811717785894871 1:4 2:0 3:0 4:0 5:4 6:12 7:0 8:4 9:8 10:12 11:4 12:0 13:4 14:0 15:4 16:16 17:4 18:16 19:4 20:4 21:2.47 22:0 23:11.11 24:4.9400001 25:1.23 26:6.1700001 27:2.47 28:4.9400001 29:6.1700001 30:4.9400001 31:1.23 32:7.4099998 33:1.23 34:4.9400001 35:7.4099998 36:6.1700001 37:6.1700001 38:8.6400003 39:6.1700001 40:6.1700001 #
-7.3245080667069988322737117414363 1:16 2:4 3:0 4:0 5:0 6:12 7:0 8:0 9:0 10:24 11:4 12:0 13:4 14:0 15:12 16:4 17:4 18:12 19:4 20:0 21:14.18 22:2.99 23:3.73 24:1.49 25:2.24 26:7.46 27:7.46 28:2.99 29:3.73 30:15.67 31:1.49 32:1.49 33:4.48 34:2.99 35:2.24 36:8.21 37:2.99 38:7.46 39:2.99 40:3.73 #
3.6721255089075492961114832723979 1:8 2:8 3:0 4:0 5:8 6:8 7:8 8:4 9:0 10:4 11:4 12:0 13:0 14:4 15:20 16:12 17:4 18:4 19:4 20:0 21:11.62 22:1.52 23:4.5500002 24:8.0799999 25:4.04 26:9.8500004 27:0.75999999 28:6.8200002 29:7.3200002 30:6.5700002 31:3.03 32:4.04 33:3.79 34:4.8000002 35:5.3000002 36:2.78 37:5.3000002 38:5.0500002 39:1.01 40:3.79 #
0.60610497573783383984391548437998 1:12 2:0 3:0 4:0 5:4 6:4 7:4 8:0 9:4 10:20 11:4 12:0 13:4 14:0 15:12 16:12 17:12 18:4 19:0 20:4 21:8.9300003 22:0.30000001 23:7.4400001 24:5.9499998 25:5.6500001 26:8.6300001 27:2.0799999 28:2.6800001 29:7.4400001 30:7.7399998 31:1.49 32:6.8499999 33:5.0599999 34:3.27 35:3.27 36:6.8499999 37:5.0599999 38:4.1700001 39:2.6800001 40:4.46 #
0.75714293493269191337446955003543 1:8 2:0 3:0 4:0 5:4 6:0 7:4 8:0 9:0 10:16 11:8 12:0 13:12 14:4 15:20 16:4 17:8 18:12 19:0 20:0 21:10.04 22:0.55000001 23:6.75 24:7.8499999 25:1.64 26:10.22 27:0.36000001 28:7.8499999 29:9.6700001 30:8.0299997 31:2.9200001 32:3.6500001 33:2.9200001 34:2.9200001 35:3.0999999 36:4.3800001 37:5.8400002 38:9.8500004 39:0.18000001 40:1.28 #
4.8018289026255587259583990089595 1:12 2:0 3:0 4:0 5:4 6:0 7:0 8:4 9:8 10:12 11:4 12:8 13:4 14:0 15:12 16:12 17:12 18:8 19:0 20:0 21:10.36 22:1.1799999 23:5.6199999 24:5.3299999 25:2.96 26:7.4000001 27:1.1799999 28:6.8000002 29:5.6199999 30:9.1700001 31:0.88999999 32:2.3699999 33:4.4400001 34:3.55 35:3.55 36:12.13 37:5.3299999 38:9.4700003 39:0.30000001 40:2.3699999 #
-5.1235913232332297440052570891567 1:16 2:8 3:0 4:4 5:4 6:8 7:0 8:0 9:0 10:24 11:4 12:0 13:8 14:0 15:8 16:4 17:4 18:4 19:4 20:0 21:7.6599998 22:0.43000001 23:3.8299999 24:5.1100001 25:5.5300002 26:6.8099999 27:2.55 28:6.8099999 29:5.1100001 30:7.6599998 31:2.1300001 32:3.4000001 33:5.96 34:1.7 35:5.5300002 36:8.5100002 37:8.0900002 38:6.3800001 39:0.85000002 40:5.96 #
-10 1:0 2:0 3:0 4:0 5:8 6:4 7:4 8:0 9:4 10:20 11:4 12:4 13:12 14:0 15:16 16:16 17:4 18:0 19:0 20:4 21:3.74 22:0.47 23:5.1399999 24:4.21 25:3.27 26:7.0100002 27:2.8 28:7.0100002 29:11.21 30:8.8800001 31:1.4 32:4.6700001 33:4.6700001 34:2.3399999 35:6.0700002 36:8.8800001 37:6.54 38:6.54 39:1.4 40:3.74 #
-10 1:4 2:4 3:0 4:0 5:8 6:0 7:0 8:4 9:4 10:20 11:4 12:0 13:4 14:4 15:16 16:16 17:8 18:0 19:0 20:4 21:4.6199999 22:2.3099999 23:7.6900001 24:6.9200001 25:0.76999998 26:10 27:3.0799999 28:4.6199999 29:6.9200001 30:8.46 31:1.54 32:3.8499999 33:7.6900001 34:3.0799999 35:3.0799999 36:4.6199999 37:7.6900001 38:8.46 39:1.54 40:3.0799999 #
-10 1:12 2:4 3:0 4:0 5:0 6:4 7:0 8:4 9:0 10:12 11:4 12:0 13:20 14:0 15:20 16:8 17:4 18:4 19:0 20:4 21:7 22:1.54 23:5.04 24:11.34 25:2.8 26:4.3400002 27:1.6799999 28:4.1999998 29:9.3800001 30:12.46 31:1.8200001 32:2.3800001 33:4.9000001 34:5.04 35:5.5999999 36:6.3000002 37:4.7600002 38:7.5599999 39:0.83999997 40:0.98000002 #
15.058997804819057364511536434293 1:32 2:0 3:0 4:0 5:0 6:4 7:0 8:0 9:4 10:16 11:4 12:0 13:0 14:4 15:12 16:8 17:4 18:12 19:0 20:0 21:3.6400001 22:1.8200001 23:6.6700001 24:6.6700001 25:3.9400001 26:6.3600001 27:3.3299999 28:5.4499998 29:8.1800003 30:10 31:1.21 32:3.3299999 33:4.5500002 34:4.5500002 35:5.4499998 36:6.3600001 37:4.8499999 38:6.3600001 39:1.52 40:5.7600002 #
14.948241175413695458473739563487 1:28 2:0 3:0 4:0 5:0 6:12 7:0 8:0 9:0 10:12 11:8 12:0 13:4 14:0 15:16 16:0 17:8 18:12 19:0 20:0 21:9.6300001 22:1.96 23:4.9099998 24:4.7199998 25:3.9300001 26:6.8800001 27:2.55 28:2.95 29:3.9300001 30:11.39 31:1.1799999 32:2.95 33:7.27 34:4.1300001 35:6.8800001 36:10.41 37:3.73 38:6.8800001 39:2.1600001 40:1.5700001 #
0.66629008891531782410311279818416 1:28 2:4 3:0 4:0 5:0 6:12 7:0 8:12 9:0 10:12 11:4 12:4 13:0 14:0 15:12 16:4 17:0 18:8 19:0 20:0 21:9.8800001 22:1.9400001 23:6.1999998 24:4.6500001 25:5.4299998 26:8.9099998 27:2.52 28:6.7800002 29:4.6500001 30:6.5900002 31:2.1300001 32:3.6800001 33:5.04 34:3.0999999 35:5.8099999 36:6.0100002 37:5.04 38:8.9099998 39:0.38999999 40:2.3299999 #
-10 1:32 2:4 3:0 4:0 5:0 6:4 7:0 8:0 9:0 10:8 11:4 12:0 13:4 14:4 15:16 16:8 17:4 18:12 19:0 20:0 21:10.33 22:2.4200001 23:5.0500002 24:6.8099999 25:3.3 26:7.25 27:2.8599999 28:4.4000001 29:3.3 30:9.8900003 31:1.98 32:3.3 33:4.4000001 34:4.4000001 35:5.9299998 36:6.8099999 37:5.71 38:7.0300002 39:1.3200001 40:3.52 #
-1.3577114905899492214302881620824 1:24 2:0 3:0 4:0 5:0 6:12 7:0 8:0 9:4 10:12 11:4 12:4 13:4 14:4 15:12 16:0 17:0 18:16 19:4 20:0 21:4.9699998 22:0.62 23:8.6999998 24:6.8299999 25:3.1099999 26:6.21 27:3.1099999 28:1.86 29:4.9699998 30:6.21 31:4.3499999 32:4.9699998 33:12.42 34:2.48 35:5.5900002 36:1.86 37:4.3499999 38:4.9699998 39:3.73 40:8.6999998 #
5.9590770051939614404545864090323 1:4 2:4 3:0 4:0 5:4 6:0 7:0 8:12 9:12 10:16 11:4 12:0 13:8 14:0 15:8 16:20 17:4 18:4 19:0 20:0 21:5.0999999 22:0.88999999 23:4.21 24:5.3200002 25:3.55 26:5.9899998 27:2 28:8.8699999 29:7.54 30:11.09 31:1.55 32:8.1999998 33:5.0999999 34:4.4299998 35:2.8800001 36:7.7600002 37:5.0999999 38:5.54 39:0.67000002 40:4.21 #
8.9945829788750248923179242410697 1:4 2:0 3:0 4:0 5:12 6:0 7:0 8:8 9:8 10:16 11:4 12:4 13:12 14:4 15:12 16:8 17:4 18:0 19:0 20:4 21:8.8000002 22:1.6 23:4.8000002 24:14.4 25:4.8000002 26:7.1999998 27:0 28:6.4000001 29:5.5999999 30:8.8000002 31:2.4000001 32:3.2 33:6.4000001 34:2.4000001 35:4.8000002 36:4.8000002 37:4.8000002 38:5.5999999 39:0.80000001 40:2.4000001 #
14.563696281994252146319013263565 1:0 2:4 3:0 4:0 5:0 6:8 7:0 8:12 9:8 10:12 11:8 12:0 13:12 14:0 15:8 16:16 17:4 18:4 19:0 20:4 21:5.2800002 22:1.96 23:5.48 24:6.8499999 25:5.0900002 26:5.0900002 27:3.1300001 28:6.2600002 29:9.5900002 30:12.13 31:1.96 32:5.0900002 33:4.5 34:2.9400001 35:5.2800002 36:6.8499999 37:4.5 38:3.3299999 39:0.98000002 40:3.72 #
-10 1:4 2:4 3:0 4:0 5:8 6:4 7:4 8:8 9:12 10:12 11:4 12:0 13:8 14:4 15:8 16:16 17:0 18:0 19:0 20:4 21:8.3599997 22:0.73000002 23:6.1799998 24:5.6399999 25:5.8200002 26:6.9099998 27:1.45 28:5.8200002 29:7.0900002 30:7.4499998 31:2 32:5.6399999 33:5.0900002 34:4 35:3.45 36:6.73 37:5.0900002 38:6.3600001 39:1.09 40:5.0900002 #
-1.7154602539018031226447646986344 1:12 2:0 3:0 4:0 5:4 6:4 7:4 8:8 9:0 10:12 11:4 12:8 13:8 14:0 15:20 16:4 17:4 18:4 19:0 20:4 21:9.7600002 22:0.81 23:7.3200002 24:13.01 25:6.5 26:0.81 27:0.81 28:2.4400001 29:7.3200002 30:9.7600002 31:0 32:4.0700002 33:4.0700002 34:3.25 35:7.3200002 36:4.8800001 37:4.8800001 38:7.3200002 39:0 40:5.6900001 #
-1.1255578861332444784437711859937 1:4 2:4 3:0 4:0 5:8 6:0 7:8 8:8 9:0 10:20 11:4 12:0 13:8 14:4 15:16 16:8 17:4 18:4 19:0 20:0 21:4.04 22:1.12 23:6.0500002 24:10.76 25:4.9299998 26:5.1599998 27:1.35 28:5.1599998 29:13.45 30:9.4200001 31:2.47 32:5.8299999 33:2.02 34:3.1400001 35:7.1700001 36:5.6100001 37:3.1400001 38:4.9299998 39:1.12 40:3.1400001 #
1.1999507757638026017588117611012 1:28 2:8 3:4 4:0 5:4 6:8 7:0 8:0 9:0 10:12 11:4 12:0 13:8 14:0 15:16 16:4 17:0 18:4 19:0 20:0 21:7.98 22:3.6800001 23:9.1999998 24:6.1300001 25:2.45 26:7.98 27:2.45 28:4.9099998 29:4.29 30:9.8199997 31:2.45 32:3.6800001 33:3.6800001 34:1.23 35:6.1300001 36:7.98 37:7.98 38:6.75 39:0.61000001 40:0.61000001 #
7.3249490827825525229854974895716 1:32 2:4 3:0 4:0 5:0 6:4 7:0 8:0 9:0 10:16 11:4 12:0 13:8 14:4 15:20 16:4 17:0 18:0 19:4 20:0 21:13.95 22:1.29 23:4.1300001 24:6.46 25:3.3599999 26:8.79 27:1.55 28:6.7199998 29:5.6799998 30:10.08 31:3.8800001 32:2.5799999 33:3.8800001 34:4.1300001 35:4.1300001 36:6.1999998 37:5.6799998 38:3.8800001 39:1.29 40:2.3299999 #
9.6533934978798043857750599272549 1:28 2:0 3:0 4:4 5:4 6:4 7:0 8:0 9:0 10:12 11:4 12:0 13:0 14:0 15:16 16:16 17:0 18:8 19:4 20:0 21:8.4099998 22:2.8 23:4.7399998 24:7.3299999 25:2.5899999 26:6.6799998 27:2.8 28:6.0300002 29:4.0900002 30:10.56 31:2.5899999 32:4.7399998 33:3.23 34:3.23 35:6.4699998 36:6.25 37:7.1100001 38:6.0300002 39:1.29 40:3.02 #
-3.138088231998813704137774038827 1:32 2:0 3:0 4:0 5:0 6:4 7:4 8:4 9:0 10:12 11:8 12:0 13:4 14:0 15:12 16:12 17:0 18:8 19:0 20:0 21:9.5100002 22:0.19 23:4.27 24:10.87 25:3.5 26:7.3800001 27:1.55 28:4.0799999 29:9.3199997 30:6.9899998 31:3.5 32:2.3299999 33:7.3800001 34:5.0500002 35:5.2399998 36:5.8299999 37:4.0799999 38:3.8800001 39:2.3299999 40:2.72 #
-10 1:20 2:0 3:0 4:0 5:0 6:16 7:0 8:0 9:0 10:16 11:4 12:4 13:4 14:4 15:16 16:8 17:0 18:8 19:0 20:0 21:7.6900001 22:3.8499999 23:3.8499999 24:7.6900001 25:0.95999998 26:8.6499996 27:3.8499999 28:4.8099999 29:5.77 30:6.73 31:1.92 32:3.8499999 33:6.73 34:3.8499999 35:4.8099999 36:6.73 37:6.73 38:7.6900001 39:1.92 40:1.92 #
3.8436172251104512298525150981732 1:16 2:0 3:0 4:0 5:0 6:4 7:0 8:8 9:4 10:8 11:12 12:0 13:0 14:0 15:16 16:16 17:0 18:12 19:0 20:4 21:4.6999998 22:1.34 23:6.04 24:10.07 25:3.3599999 26:5.3699999 27:3.3599999 28:4.0300002 29:6.04 30:11.41 31:0.67000002 32:6.04 33:6.71 34:4.0300002 35:3.3599999 36:6.71 37:6.04 38:7.3800001 39:1.34 40:2.01 #
13.122734156743955935553458402865 1:8 2:8 3:0 4:4 5:8 6:4 7:0 8:8 9:0 10:12 11:4 12:4 13:12 14:4 15:8 16:4 17:8 18:0 19:0 20:4 21:7.4099998 22:1.36 23:5.46 24:6.6300001 25:3.9000001 26:5.46 27:4.0900002 28:3.7 29:4.48 30:9.9399996 31:1.75 32:5.0700002 33:5.46 34:5.0700002 35:5.6500001 36:6.4299998 37:4.8699999 38:7.21 39:1.36 40:4.6799998 #
7.4778358651361731546103328582831 1:0 2:0 3:0 4:0 5:4 6:4 7:4 8:12 9:16 10:12 11:4 12:0 13:8 14:4 15:4 16:12 17:12 18:4 19:0 20:0 21:3.73 22:0.93000001 23:5.2800002 24:6.21 25:6.52 26:4.9699998 27:0.93000001 28:5.5900002 29:11.49 30:8.0699997 31:1.24 32:8.3900003 33:4.3499999 34:2.1700001 35:5.2800002 36:8.3900003 37:6.21 38:5.9000001 39:1.24 40:3.1099999 #
6.3483590079340235234894862514921 1:0 2:4 3:0 4:0 5:12 6:4 7:0 8:8 9:8 10:12 11:4 12:4 13:0 14:0 15:16 16:16 17:8 18:0 19:4 20:0 21:3.5999999 22:0.20999999 23:5.5100002 24:7.1999998 25:6.3600001 26:4.6599998 27:1.91 28:6.3600001 29:7.1999998 30:9.75 31:0.41999999 32:7.6300001 33:6.9899998 34:2.75 35:4.4499998 36:6.3600001 37:7.4200001 38:6.5700002 39:1.0599999 40:3.5999999 #
-10 1:4 2:4 3:0 4:0 5:8 6:4 7:4 8:12 9:4 10:12 11:4 12:0 13:4 14:0 15:4 16:12 17:12 18:4 19:4 20:4 21:4.2399998 22:1.21 23:7.27 24:3.6400001 25:4.2399998 26:8.4799995 27:3.03 28:6.6700001 29:5.4499998 30:7.27 31:3.6400001 32:7.8800001 33:4.8499999 34:1.21 35:4.2399998 36:4.8499999 37:6.6700001 38:9.0900002 39:2.4200001 40:3.6400001 #
-6.707825511412418784118472103728 1:0 2:8 3:0 4:0 5:8 6:4 7:4 8:0 9:4 10:12 11:4 12:4 13:8 14:12 15:4 16:4 17:8 18:8 19:4 20:4 21:8.3100004 22:1.4299999 23:5.3200002 24:6.4899998 25:2.73 26:7.1399999 27:3.6400001 28:6.0999999 29:4.8099999 30:11.56 31:1.95 32:3.3800001 33:3.6400001 34:4.4200001 35:6.0999999 36:7.6599998 37:4.6799998 38:8.8299999 39:0.51999998 40:1.3 #
-10 1:0 2:8 3:0 4:0 5:0 6:4 7:8 8:4 9:12 10:16 11:4 12:8 13:4 14:4 15:8 16:4 17:12 18:4 19:0 20:0 21:5.6700001 22:1.83 23:5.48 24:5.6700001 25:2.5599999 26:4.75 27:1.1 28:7.5 29:8.5900002 30:10.97 31:1.83 32:8.04 33:4.1999998 34:2.01 35:4.3899999 36:8.4099998 37:5.6700001 38:6.2199998 39:0.37 40:4.75 #
6.020002652166576595504920987878 1:24 2:0 3:0 4:0 5:0 6:12 7:0 8:0 9:0 10:8 11:8 12:4 13:0 14:4 15:12 16:8 17:4 18:8 19:8 20:0 21:6.3299999 22:2.53 23:6.96 24:8.8599997 25:2.53 26:12.03 27:3.8 28:1.9 29:1.9 30:9.4899998 31:1.27 32:2.53 33:8.2299995 34:3.1600001 35:6.96 36:5.6999998 37:5.0599999 38:9.4899998 39:0 40:1.27 #
1.7823379595948498632651535444893 1:12 2:0 3:0 4:0 5:0 6:24 7:0 8:0 9:0 10:20 11:4 12:0 13:4 14:4 15:16 16:8 17:4 18:4 19:0 20:0 21:10.69 22:2.26 23:5.5700002 24:5.7199998 25:2.71 26:8.7299995 27:2.71 28:5.4200001 29:4.6700001 30:7.0799999 31:2.26 32:1.8099999 33:5.7199998 34:2.71 35:5.5700002 36:5.7199998 37:5.7199998 38:9.1899996 39:1.96 40:3.77 #
1.4304142714352219289963841220015 1:4 2:4 3:0 4:0 5:0 6:4 7:16 8:4 9:4 10:8 11:4 12:12 13:0 14:4 15:12 16:4 17:8 18:4 19:8 20:0 21:8.1300001 22:1.8099999 23:4.9699998 24:5.1900001 25:4.0599999 26:8.1300001 27:2.26 28:5.6399999 29:5.8699999 30:7.2199998 31:2.48 32:3.8399999 33:5.1900001 34:1.8099999 35:4.7399998 36:11.06 37:4.9699998 38:10.16 39:0.68000001 40:1.8099999 #
-10 1:20 2:4 3:0 4:0 5:4 6:12 7:0 8:0 9:0 10:16 11:4 12:0 13:0 14:0 15:20 16:12 17:4 18:4 19:0 20:0 21:6.0999999 22:0.91000003 23:5.79 24:6.71 25:4.27 26:6.4000001 27:1.83 28:4.8800001 29:4.5700002 30:11.28 31:0.91000003 32:2.74 33:8.8400002 34:5.79 35:7.0100002 36:6.0999999 37:4.8800001 38:5.79 39:1.52 40:3.6600001 #
-10 1:24 2:4 3:4 4:0 5:0 6:8 7:4 8:0 9:0 10:16 11:4 12:0 13:4 14:0 15:16 16:4 17:8 18:4 19:0 20:0 21:8 22:1.6 23:7.1999998 24:8.8000002 25:2.4000001 26:4.8000002 27:1.6 28:7.1999998 29:5.5999999 30:8 31:0.80000001 32:3.2 33:7.1999998 34:2.4000001 35:7.1999998 36:4 37:6.4000001 38:8 39:1.6 40:4 #
2.8900780586046819209400382533204 1:4 2:0 3:0 4:0 5:8 6:0 7:8 8:8 9:12 10:8 11:8 12:0 13:8 14:4 15:4 16:16 17:4 18:0 19:0 20:8 21:5.0700002 22:0.56 23:5.9200001 24:5.3499999 25:2.54 26:6.7600002 27:0.85000002 28:6.48 29:9.5799999 30:8.4499998 31:1.13 32:6.7600002 33:3.3800001 34:3.6600001 35:2.54 36:10.42 37:7.6100001 38:8.1700001 39:1.6900001 40:3.0999999 #
20.062455287129058234540934790857 1:4 2:0 3:0 4:4 5:16 6:8 7:4 8:0 9:8 10:12 11:4 12:0 13:0 14:4 15:4 16:12 17:8 18:4 19:0 20:8 21:3.4300001 22:1.71 23:3.8499999 24:6.8499999 25:5.5700002 26:4.71 27:2.78 28:6.6399999 29:6.8499999 30:10.28 31:1.5 32:5.1399999 33:5.3499999 34:4.71 35:4.71 36:8.7799997 37:7.0700002 38:4.5 39:1.71 40:3.8499999 #
12.642837250568740969924874661956 1:4 2:0 3:0 4:0 5:4 6:8 7:4 8:8 9:8 10:12 11:8 12:8 13:4 14:8 15:0 16:8 17:12 18:0 19:0 20:4 21:5.8400002 22:0.73000002 23:8.7600002 24:8.7600002 25:2.9200001 26:2.1900001 27:0.73000002 28:5.1100001 29:12.41 30:12.41 31:1.46 32:4.3800001 33:3.6500001 34:2.9200001 35:5.8400002 36:8.7600002 37:3.6500001 38:1.46 39:3.6500001 40:4.3800001 #
-8.2525633120167931622290780069306 1:0 2:0 3:8 4:0 5:4 6:8 7:0 8:8 9:8 10:16 11:4 12:0 13:0 14:0 15:4 16:12 17:12 18:8 19:0 20:8 21:6.23 22:0.88999999 23:8.6099997 24:5.6399999 25:3.26 26:5.04 27:0.58999997 28:7.4200001 29:7.7199998 30:13.35 31:2.6700001 32:3.5599999 33:4.4499998 34:2.97 35:5.04 36:10.09 37:5.3400002 38:4.1500001 39:0.88999999 40:2.0799999 #
-6.1825640876529135425698768813163 1:4 2:0 3:0 4:0 5:4 6:4 7:0 8:0 9:12 10:16 11:4 12:4 13:8 14:0 15:8 16:20 17:4 18:0 19:4 20:8 21:2.9100001 22:0.49000001 23:4.8499999 24:3.72 25:4.6900001 26:2.0999999 27:2.75 28:6.96 29:7.4400001 30:12.78 31:1.29 32:7.2800002 33:6.1500001 34:6.6300001 35:2.4300001 36:12.46 37:7.4400001 38:3.5599999 39:1.29 40:2.75 #
-1.5073235585146211867879628698574 1:4 2:0 3:4 4:0 5:4 6:0 7:0 8:8 9:4 10:8 11:4 12:8 13:8 14:4 15:4 16:24 17:0 18:8 19:0 20:8 21:2.8499999 22:1.22 23:3.25 24:2.4400001 25:5.4899998 26:5.2800002 27:2.03 28:11.59 29:9.1499996 30:9.1499996 31:6.5 32:9.7600002 33:2.4400001 34:1.63 35:2.4400001 36:5.2800002 37:4.4699998 38:4.27 39:2.24 40:8.54 #
12.055970710889106101149081951007 1:16 2:0 3:0 4:4 5:0 6:8 7:0 8:0 9:0 10:16 11:4 12:0 13:8 14:4 15:28 16:8 17:0 18:4 19:0 20:0 21:7.4299998 22:1.61 23:4.6199999 24:6.4299998 25:3.21 26:7.0300002 27:2.8099999 28:3.01 29:4.4200001 30:14.06 31:2.21 32:3.4100001 33:5.6199999 34:6.6300001 35:7.0300002 36:5.8200002 37:3.6099999 38:7.23 39:1 40:2.8099999 #
-2.8714683441377930606108748179395 1:12 2:0 3:4 4:4 5:0 6:12 7:4 8:8 9:8 10:12 11:8 12:0 13:4 14:4 15:4 16:12 17:4 18:0 19:0 20:0 21:7.27 22:0.36000001 23:3.6400001 24:3.6400001 25:8 26:9.0900002 27:1.45 28:6.1799998 29:8.3599997 30:11.64 31:0.73000002 32:5.8200002 33:4.3600001 34:2.9100001 35:5.4499998 36:7.27 37:5.0900002 38:4.73 39:1.09 40:2.9100001 #
1.6997009191595848776046295824926 1:20 2:0 3:0 4:0 5:0 6:0 7:0 8:0 9:4 10:20 11:4 12:0 13:16 14:0 15:20 16:12 17:0 18:4 19:0 20:0 21:8.8900003 22:1.73 23:3.21 24:8.8900003 25:3.95 26:8.6400003 27:3.21 28:6.6700001 29:6.6700001 30:7.6500001 31:2.72 32:3.21 33:2.72 34:4.1999998 35:4.9400001 36:6.6700001 37:4.9400001 38:6.1700001 39:1.98 40:2.96 #
-10 1:16 2:4 3:0 4:4 5:0 6:8 7:0 8:0 9:0 10:16 11:4 12:4 13:12 14:0 15:20 16:0 17:0 18:4 19:8 20:0 21:7.5 22:0.94 23:5.6199999 24:7.8099999 25:4.6900001 26:7.8099999 27:1.88 28:4.6900001 29:4.6900001 30:9.6899996 31:2.5 32:5 33:5.3099999 34:3.4400001 35:6.5599999 36:6.25 37:5.3099999 38:5 39:1.25 40:4.0599999 #
-10 1:12 2:0 3:0 4:4 5:0 6:8 7:0 8:0 9:0 10:24 11:4 12:0 13:8 14:4 15:20 16:4 17:0 18:8 19:0 20:4 21:18.18 22:0 23:4.1999998 24:6.9899998 25:4.1999998 26:6.29 27:1.4 28:2.8 29:2.8 30:9.79 31:1.4 32:3.5 33:4.1999998 34:6.29 35:2.8 36:6.9899998 37:6.9899998 38:10.49 39:0 40:0.69999999 #
-10 1:12 2:0 3:0 4:0 5:0 6:4 7:0 8:4 9:4 10:16 11:4 12:0 13:12 14:0 15:20 16:8 17:4 18:8 19:0 20:4 21:7.6799998 22:1.34 23:5.7600002 24:6.5300002 25:2.3 26:7.29 27:4.0300002 28:3.6500001 29:3.6500001 30:8.8299999 31:1.54 32:3.45 33:7.6799998 34:4.2199998 35:6.3299999 36:7.29 37:4.4099998 38:8.6400003 39:2.8800001 40:2.5 #
-1.65175627762519638963567558676 1:8 2:0 3:0 4:0 5:4 6:8 7:4 8:4 9:4 10:16 11:4 12:0 13:0 14:20 15:8 16:12 17:0 18:4 19:0 20:4 21:9.7700005 22:0 23:9.3000002 24:11.63 25:4.6500001 26:3.26 27:0.47 28:6.0500002 29:13.49 30:9.3000002 31:4.1900001 32:2.3299999 33:3.72 34:4.1900001 35:5.5799999 36:3.26 37:3.26 38:4.1900001 39:0 40:1.4 #
-0.069666046690866068047398584894836 1:12 2:0 3:0 4:0 5:20 6:8 7:0 8:4 9:8 10:4 11:4 12:4 13:0 14:0 15:4 16:12 17:8 18:8 19:0 20:4 21:9.7600002 22:0 23:17.07 24:4.8800001 25:7.3200002 26:7.3200002 27:2.4400001 28:4.8800001 29:9.7600002 30:2.4400001 31:0 32:4.8800001 33:0 34:2.4400001 35:2.4400001 36:2.4400001 37:7.3200002 38:7.3200002 39:4.8800001 40:2.4400001 #
-6.9602492259348895942139279213734 1:16 2:0 3:0 4:0 5:4 6:8 7:0 8:4 9:4 10:8 11:12 12:0 13:0 14:8 15:12 16:20 17:4 18:0 19:0 20:0 21:8.2200003 22:0.91000003 23:3.6500001 24:8.2200003 25:4.1100001 26:4.5700002 27:1.37 28:5.48 29:8.2200003 30:10.05 31:2.74 32:4.1100001 33:4.1100001 34:4.5700002 35:5.9400001 36:6.8499999 37:6.8499999 38:7.7600002 39:0 40:2.28 #
-3.9462511063918883635892598249484 1:0 2:4 3:4 4:0 5:8 6:0 7:4 8:8 9:20 10:12 11:8 12:0 13:8 14:4 15:4 16:8 17:0 18:4 19:0 20:4 21:3.1199999 22:2.02 23:6.0700002 24:5.5100002 25:5.5100002 26:5.8800001 27:1.29 28:10.11 29:11.4 30:8.8199997 31:1.47 32:11.03 33:2.21 34:2.21 35:2.9400001 36:6.9899998 37:3.49 38:4.23 39:0.18000001 40:5.5100002 #
-10 1:0 2:0 3:4 4:0 5:16 6:4 7:4 8:0 9:12 10:12 11:8 12:0 13:8 14:4 15:8 16:4 17:12 18:0 19:0 20:4 21:7.48 22:1.1799999 23:5.1199999 24:5.9099998 25:5.9099998 26:4.7199998 27:0.79000002 28:3.9400001 29:9.4499998 30:8.6599998 31:1.97 32:4.3299999 33:3.54 34:5.5100002 35:5.1199999 36:8.6599998 37:5.1199999 38:7.0900002 39:2.3599999 40:3.1500001 #
-10 1:4 2:0 3:0 4:4 5:16 6:4 7:0 8:4 9:12 10:4 11:8 12:4 13:4 14:0 15:12 16:4 17:8 18:8 19:0 20:4 21:5.5100002 22:1.65 23:5.3299999 24:6.25 25:4.5999999 26:4.4099998 27:3.3099999 28:6.8000002 29:7.7199998 30:10.85 31:2.3900001 32:4.5999999 33:3.6800001 34:2.5699999 35:5.1500001 36:6.6199999 37:6.9899998 38:5.3299999 39:1.84 40:4.4099998 #
5.375201490718430008541872666683 1:12 2:4 3:0 4:0 5:0 6:4 7:0 8:0 9:0 10:32 11:4 12:0 13:16 14:4 15:12 16:8 17:0 18:0 19:4 20:0 21:5.8200002 22:2.49 23:5.6100001 24:7.6900001 25:3.95 26:7.9000001 27:1.66 28:6.0300002 29:8.3199997 30:10.19 31:2.9100001 32:1.87 33:3.74 34:4.9899998 35:5.6100001 36:4.9899998 37:4.1599998 38:8.3199997 39:0.62 40:3.1199999 #
4.1728357963254252283036294102203 1:20 2:0 3:0 4:8 5:0 6:4 7:0 8:4 9:4 10:12 11:4 12:0 13:4 14:0 15:20 16:4 17:4 18:8 19:4 20:0 21:8.8999996 22:2.74 23:4.79 24:7.3600001 25:3.77 26:6.1599998 27:3.5999999 28:3.77 29:5.1399999 30:9.5900002 31:1.03 32:2.74 33:6.3400002 34:3.4200001 35:4.6199999 36:8.8999996 37:4.2800002 38:7.71 39:1.03 40:4.1100001 #
1.125312956500076122523523736163 1:16 2:0 3:0 4:0 5:0 6:8 7:0 8:0 9:4 10:24 11:4 12:0 13:12 14:0 15:16 16:4 17:4 18:0 19:8 20:0 21:9.8500004 22:1.49 23:5.3899999 24:5.5799999 25:5.1999998 26:7.9899998 27:2.4200001 28:5.02 29:6.5100002 30:7.6199999 31:1.3 32:2.97 33:5.9499998 34:4.0900002 35:4.0900002 36:7.4299998 37:4.8299999 38:7.6199999 39:1.49 40:3.1600001 #
-10 1:20 2:0 3:0 4:0 5:0 6:12 7:0 8:0 9:0 10:16 11:4 12:0 13:8 14:0 15:12 16:16 17:0 18:8 19:4 20:0 21:6.0999999 22:0 23:10.98 24:3.6600001 25:6.0999999 26:7.3200002 27:1.22 28:7.3200002 29:4.8800001 30:9.7600002 31:1.22 32:1.22 33:6.0999999 34:0 35:6.0999999 36:12.2 37:2.4400001 38:10.98 39:1.22 40:1.22 #
-10 1:20 2:0 3:4 4:0 5:4 6:4 7:0 8:0 9:0 10:12 11:4 12:0 13:4 14:8 15:16 16:12 17:4 18:8 19:0 20:0 21:8.75 22:0.28999999 23:7 24:6.1199999 25:4.96 26:5.54 27:0.87 28:3.5 29:9.04 30:12.83 31:0 32:5.25 33:3.21 34:2.04 35:3.5 36:8.4499998 37:5.25 38:9.04 39:0 40:4.3699999 #
7.08497623647968843840772024123 1:0 2:0 3:0 4:4 5:16 6:0 7:0 8:0 9:16 10:12 11:4 12:0 13:8 14:4 15:8 16:4 17:12 18:4 19:0 20:8 21:6.9200001 22:0.63 23:8.1800003 24:6.9200001 25:0.63 26:2.52 27:3.1400001 28:3.77 29:8.1800003 30:13.84 31:2.52 32:4.4000001 33:3.1400001 34:11.32 35:4.4000001 36:5.0300002 37:5.0300002 38:3.1400001 39:1.89 40:4.4000001 #
3.42868904718260480990466021467 1:0 2:0 3:4 4:0 5:16 6:0 7:0 8:12 9:16 10:8 11:4 12:4 13:4 14:4 15:12 16:12 17:0 18:4 19:0 20:0 21:7.5999999 22:1.9 23:4.75 24:7.8400002 25:2.3800001 26:5.23 27:0.94999999 28:7.5999999 29:9.0299997 30:9.5 31:2.1400001 32:6.1799998 33:4.2800002 34:4.9899998 35:4.2800002 36:6.6500001 37:5.23 38:4.9899998 39:0.94999999 40:3.5599999 #
9.1646355617032426721380033995956 1:8 2:4 3:4 4:0 5:4 6:0 7:0 8:12 9:12 10:4 11:4 12:8 13:8 14:0 15:8 16:8 17:8 18:4 19:0 20:4 21:3.8499999 22:2.3699999 23:7.4000001 24:4.73 25:5.9200001 26:3.8499999 27:0.88999999 28:5.0300002 29:8.5799999 30:12.72 31:2.3699999 32:5.0300002 33:3.25 34:2.96 35:4.73 36:9.1700001 37:6.5100002 38:7.4000001 39:1.1799999 40:2.0699999 #
-0.78862637460129625388560725696152 1:16 2:0 3:0 4:8 5:0 6:8 7:0 8:0 9:4 10:8 11:4 12:4 13:24 14:0 15:4 16:4 17:0 18:16 19:0 20:0 21:7.8699999 22:1.85 23:6.9400001 24:6.9400001 25:3.7 26:6.02 27:2.3099999 28:6.02 29:9.2600002 30:10.65 31:3.7 32:2.3099999 33:6.02 34:2.3099999 35:5.5599999 36:6.48 37:5.5599999 38:4.6300001 39:0 40:1.85 #
-10 1:8 2:0 3:0 4:4 5:4 6:4 7:4 8:16 9:8 10:8 11:8 12:8 13:0 14:0 15:12 16:8 17:8 18:0 19:0 20:0 21:5.7800002 22:1.49 23:4.79 24:8.0900002 25:3.6300001 26:10.56 27:1.8200001 28:5.1199999 29:9.4099998 30:8.4200001 31:1.8200001 32:3.47 33:5.4499998 34:2.6400001 35:3.1400001 36:6.27 37:4.6199999 38:7.9200001 39:1.16 40:4.46 #
-3.236811177284916851704110740684 1:8 2:0 3:0 4:8 5:12 6:0 7:8 8:4 9:16 10:8 11:8 12:0 13:8 14:0 15:0 16:12 17:4 18:4 19:0 20:0 21:4.21 22:3.1600001 23:5.2600002 24:10.53 25:6.3200002 26:8.4200001 27:5.2600002 28:7.3699999 29:6.3200002 30:8.4200001 31:1.05 32:3.1600001 33:2.1099999 34:1.05 35:4.21 36:8.4200001 37:4.21 38:8.4200001 39:0 40:2.1099999 #
-3.4751783116174488341698634030763 1:4 2:4 3:0 4:0 5:4 6:0 7:4 8:12 9:4 10:8 11:8 12:0 13:12 14:4 15:12 16:8 17:4 18:4 19:0 20:8 21:6.5900002 22:0.77999997 23:3.8800001 24:3.49 25:5.4299998 26:5.8099999 27:0.38999999 28:8.1400003 29:6.5900002 30:13.95 31:1.55 32:4.2600002 33:5.04 34:2.3299999 35:5.04 36:7.3600001 37:8.1400003 38:5.04 39:1.16 40:5.04 #
-0.2320588873936628715455299243331 1:4 2:0 3:4 4:4 5:4 6:0 7:4 8:0 9:0 10:8 11:8 12:4 13:4 14:12 15:4 16:12 17:8 18:4 19:4 20:12 21:3.4200001 22:1.0700001 23:5.98 24:4.27 25:5.77 26:3.6300001 27:2.1400001 28:5.1300001 29:6.1999998 30:12.18 31:0.85000002 32:7.9099998 33:3.6300001 34:3.21 35:4.0599999 36:13.46 37:8.9700003 38:2.99 39:1.5 40:3.6300001 #
5.6268309122333803884430381003767 1:24 2:0 3:0 4:0 5:4 6:20 7:0 8:0 9:0 10:20 11:4 12:0 13:8 14:0 15:16 16:4 17:0 18:0 19:0 20:0 21:5.5999999 22:0.97000003 23:5.5999999 24:5.3499999 25:4.6199999 26:5.8400002 27:2.6800001 28:5.1100001 29:4.8699999 30:9.25 31:2.9200001 32:4.8699999 33:6.0799999 34:3.8900001 35:6.5700002 36:9 37:3.8900001 38:6.8099999 39:0.73000002 40:5.3499999 #
5.4939652910747156511206412687898 1:20 2:4 3:0 4:0 5:0 6:24 7:0 8:0 9:0 10:16 11:4 12:0 13:8 14:0 15:20 16:0 17:0 18:4 19:0 20:0 21:6.98 22:1.89 23:5.8099999 24:7.27 25:4.9400001 26:5.8099999 27:2.9100001 28:3.6300001 29:5.0900002 30:11.92 31:3.6300001 32:3.2 33:5.3800001 34:3.49 35:6.6900001 36:6.98 37:4.0700002 38:5.96 39:0.73000002 40:3.6300001 #
-10 1:8 2:8 3:0 4:0 5:0 6:24 7:0 8:0 9:0 10:16 11:4 12:0 13:8 14:4 15:12 16:8 17:0 18:4 19:4 20:0 21:7.6900001 22:2.8 23:4.9000001 24:7.23 25:4.6599998 26:10.72 27:3.26 28:2.8 29:5.1300001 30:8.1599998 31:1.86 32:1.86 33:5.5900002 34:3.96 35:7.6900001 36:6.7600002 37:4.4299998 38:6.0599999 39:2.3299999 40:2.0999999 #
0.62507781327879108346223802072927 1:0 2:4 3:4 4:0 5:4 6:0 7:4 8:16 9:4 10:4 11:4 12:8 13:4 14:8 15:12 16:12 17:4 18:0 19:0 20:8 21:3.4300001 22:0.86000001 23:4.0799999 24:7.73 25:4.29 26:4.29 27:3.4300001 28:6.8699999 29:7.9400001 30:12.02 31:2.79 32:5.5799999 33:4.5100002 34:3.6500001 35:3.6500001 36:7.3000002 37:5.5799999 38:4.9400001 39:0.43000001 40:6.6500001 #
7.7866707157277934570061006525066 1:4 2:0 3:0 4:0 5:4 6:8 7:0 8:4 9:12 10:12 11:4 12:4 13:0 14:16 15:8 16:4 17:8 18:12 19:0 20:0 21:8.0200005 22:0.94 23:8.0200005 24:8.4899998 25:4.25 26:5.6599998 27:1.42 28:5.6599998 29:9.9099998 30:7.5500002 31:0.94 32:2.3599999 33:3.77 34:4.7199998 35:5.1900001 36:7.0799999 37:5.1900001 38:8.4899998 39:0 40:2.3599999 #
5.3074734664067202416504187567625 1:4 2:0 3:0 4:8 5:8 6:4 7:0 8:16 9:4 10:0 11:4 12:4 13:0 14:4 15:12 16:12 17:12 18:4 19:0 20:4 21:8.1000004 22:0.47999999 23:2.8599999 24:7.6199999 25:2.8599999 26:7.6199999 27:1.1900001 28:5.71 29:6.6700001 30:9.29 31:0.70999998 32:6.4299998 33:2.8599999 34:3.5699999 35:2.8599999 36:10.95 37:8.5699997 38:9.0500002 39:0.23999999 40:2.3800001 #
-10 1:4 2:4 3:0 4:4 5:0 6:4 7:0 8:4 9:16 10:8 11:4 12:0 13:4 14:4 15:8 16:12 17:12 18:12 19:0 20:0 21:5.3000002 22:0.37 23:6.5799999 24:5.48 25:3.6600001 26:5.8499999 27:1.83 28:6.7600002 29:6.9499998 30:8.96 31:1.28 32:6.5799999 33:5.8499999 34:2.9300001 35:5.1199999 36:10.6 37:6.0300002 38:5.48 39:0.37 40:4.02 #
-4.7216589122948011691960346070118 1:12 2:0 3:0 4:0 5:4 6:0 7:0 8:0 9:8 10:8 11:4 12:4 13:4 14:4 15:8 16:12 17:20 18:12 19:0 20:0 21:8.1000004 22:0.23 23:5.0900002 24:5.79 25:4.4000001 26:6.02 27:2.0799999 28:4.8600001 29:6.71 30:11.81 31:1.16 32:8.1000004 33:2.78 34:4.1700001 35:3.01 36:10.19 37:5.0900002 38:6.9400001 39:1.62 40:1.85 #
-0.54773303511510995633670972893015 1:4 2:0 3:0 4:0 5:0 6:4 7:0 8:8 9:4 10:8 11:4 12:12 13:4 14:4 15:0 16:16 17:8 18:20 19:4 20:0 21:9.3400002 22:2.4200001 23:4.5 24:5.54 25:4.1500001 26:6.75 27:1.73 28:4.3299999 29:7.0900002 30:9.6899996 31:1.38 32:4.8400002 33:4.8400002 34:3.8099999 35:5.02 36:7.96 37:5.8800001 38:7.27 39:0.87 40:2.5999999 #
4.8462875097802049495498977194075 1:20 2:0 3:0 4:0 5:0 6:16 7:0 8:0 9:0 10:12 11:4 12:0 13:12 14:0 15:16 16:4 17:8 18:0 19:8 20:0 21:6.3800001 22:1.72 23:5.1700001 24:7.0900002 25:3.24 26:5.8800001 27:2.3299999 28:5.4699998 29:7.1900001 30:9.4200001 31:2.3299999 32:3.4400001 33:6.0799999 34:3.55 35:4.3600001 36:7.8000002 37:5.27 38:7.4000001 39:2.23 40:3.6500001 #
6.9237607815535540112250600941479 1:4 2:0 3:4 4:4 5:4 6:12 7:0 8:0 9:0 10:28 11:4 12:0 13:0 14:0 15:16 16:12 17:8 18:4 19:0 20:0 21:7.9200001 22:2.8199999 23:4.75 24:4.75 25:4.5799999 26:6.8699999 27:3.52 28:2.99 29:3.3499999 30:10.92 31:0.34999999 32:2.46 33:7.04 34:4.0500002 35:6.6900001 36:7.3899999 37:5.6300001 38:7.04 39:2.8199999 40:4.0500002 #
-2.8781609179376328455646216752939 1:8 2:8 3:0 4:0 5:4 6:16 7:0 8:0 9:0 10:20 11:4 12:0 13:0 14:0 15:28 16:0 17:8 18:0 19:4 20:0 21:13.53 22:1.1799999 23:4.71 24:10.88 25:2.0599999 26:4.71 27:2.3499999 28:6.4699998 29:4.71 30:13.53 31:2.9400001 32:2.6500001 33:2.3499999 34:5.8800001 35:7.0599999 36:5 37:4.4099998 38:1.47 39:0.28999999 40:3.8199999 #
-1.5227823218210563283037117798813 1:20 2:0 3:0 4:4 5:8 6:4 7:0 8:0 9:0 10:28 11:4 12:0 13:4 14:0 15:4 16:0 17:12 18:4 19:0 20:8 21:6.8200002 22:1.7 23:3.98 24:5.1100001 25:2.27 26:6.25 27:3.4100001 28:5.6799998 29:6.25 30:9.6599998 31:1.7 32:2.27 33:3.4100001 34:6.25 35:9.0900002 36:5.6799998 37:6.8200002 38:8.5200005 39:1.7 40:3.4100001 #
8.2602875988283859243210827116854 1:16 2:0 3:0 4:0 5:8 6:0 7:0 8:4 9:8 10:0 11:8 12:0 13:0 14:4 15:8 16:28 17:8 18:8 19:0 20:0 21:9 22:0.34999999 23:5.54 24:6.9200001 25:5.1900001 26:6.9200001 27:2.77 28:5.1900001 29:10.03 30:9 31:2.4200001 32:3.46 33:3.8099999 34:2.0799999 35:2.4200001 36:5.8800001 37:7.6100001 38:9 39:0.34999999 40:2.0799999 #
13.507390133205792182025106740184 1:8 2:4 3:0 4:4 5:8 6:4 7:0 8:0 9:8 10:8 11:4 12:0 13:8 14:8 15:12 16:12 17:0 18:12 19:0 20:0 21:8.1300001 22:2.28 23:5.3699999 24:5.1999998 25:3.9000001 26:6.8299999 27:3.74 28:3.9000001 29:5.8499999 30:8.29 31:3.5799999 32:3.25 33:5.6900001 34:4.7199998 35:5.5300002 36:8.46 37:4.8800001 38:7.6399999 39:0.33000001 40:2.4400001 #
3.018858794702439674040306272218 1:8 2:0 3:0 4:0 5:4 6:0 7:0 8:4 9:8 10:8 11:4 12:4 13:8 14:0 15:12 16:12 17:12 18:16 19:0 20:0 21:7.8800001 22:0.41 23:5.3899999 24:13.28 25:6.6399999 26:2.9000001 27:1.24 28:4.1500001 29:4.5599999 30:7.8800001 31:1.66 32:8.3000002 33:3.73 34:3.3199999 35:3.3199999 36:9.96 37:4.5599999 38:6.6399999 39:0.82999998 40:3.3199999 #
-10 1:4 2:0 3:0 4:0 5:4 6:4 7:0 8:4 9:8 10:12 11:8 12:4 13:0 14:8 15:8 16:24 17:4 18:4 19:4 20:0 21:8.6000004 22:0.37 23:5.98 24:5.4200001 25:4.3000002 26:5.98 27:1.3099999 28:4.6700001 29:9.1599998 30:10.47 31:1.5 32:3.9300001 33:3.9300001 34:3.1800001 35:4.3000002 36:6.9200001 37:5.79 38:8.04 39:1.12 40:5.0500002 #
-4.3051177729843619346183913876303 1:8 2:0 3:4 4:0 5:12 6:4 7:0 8:0 9:4 10:8 11:4 12:0 13:0 14:12 15:8 16:12 17:0 18:12 19:8 20:4 21:9.79 22:1.03 23:3.0899999 24:8.25 25:3.6099999 26:2.5799999 27:2.0599999 28:2.5799999 29:8.7600002 30:7.73 31:2.0599999 32:4.6399999 33:3.6099999 34:5.6700001 35:6.1900001 36:6.6999998 37:8.25 38:8.7600002 39:2.0599999 40:2.5799999 #
-10 1:4 2:0 3:0 4:4 5:8 6:4 7:0 8:4 9:8 10:12 11:4 12:0 13:4 14:0 15:8 16:24 17:4 18:12 19:0 20:0 21:11.06 22:1.4400001 23:4.8099999 24:6.73 25:2.8800001 26:5.77 27:5.77 28:6.73 29:5.29 30:8.6499996 31:1.4400001 32:3.8499999 33:4.3299999 34:4.8099999 35:5.29 36:4.3299999 37:7.21 38:4.8099999 39:1.4400001 40:3.3699999 #
-3.4913756872470140812936278962297 1:36 2:0 3:0 4:0 5:0 6:20 7:0 8:0 9:0 10:8 11:8 12:0 13:8 14:0 15:12 16:0 17:4 18:4 19:0 20:0 21:9.3299999 22:2 23:4.3299999 24:5.3299999 25:2.6700001 26:8.6700001 27:3.3299999 28:1.67 29:4.6700001 30:12 31:3.6700001 32:2 33:8.3299999 34:2.3299999 35:6.6700001 36:8 37:2.6700001 38:6.3299999 39:1 40:5 #
12.460581414941662714568337833043 1:4 2:4 3:0 4:0 5:4 6:4 7:0 8:4 9:4 10:8 11:8 12:4 13:0 14:12 15:8 16:24 17:12 18:0 19:0 20:0 21:8.8100004 22:0 23:4.1900001 24:8.5900002 25:3.74 26:7.4899998 27:2.8599999 28:5.29 29:8.3699999 30:12.11 31:0.66000003 32:2.6400001 33:5.0700002 34:2.6400001 35:4.1900001 36:6.6100001 37:5.0700002 38:5.9499998 39:1.3200001 40:4.4099998 #
12.08465642151602104092944500735 1:4 2:0 3:4 4:8 5:8 6:8 7:0 8:0 9:0 10:16 11:4 12:0 13:12 14:0 15:4 16:8 17:0 18:12 19:4 20:8 21:8.46 22:1 23:2.99 24:6.4699998 25:2.99 26:6.4699998 27:2.49 28:3.98 29:8.46 30:12.94 31:5.4699998 32:2.99 33:5.9699998 34:4.48 35:4.48 36:4.98 37:5.4699998 38:5.4699998 39:1.99 40:2.49 #
3.2555364968740452269457819056697 1:8 2:8 3:0 4:0 5:0 6:0 7:4 8:4 9:12 10:12 11:4 12:4 13:0 14:0 15:4 16:16 17:12 18:4 19:0 20:8 21:8.8299999 22:0 23:7.5300002 24:7.79 25:4.1599998 26:3.9000001 27:0.77999997 28:5.9699998 29:10.91 30:9.6099997 31:1.8200001 32:4.9400001 33:5.9699998 34:4.1599998 35:1.8200001 36:8.0500002 37:5.1900001 38:5.9699998 39:0.25999999 40:2.3399999 #
-5.2404535350798520099147026485298 1:8 2:0 3:4 4:0 5:12 6:0 7:0 8:4 9:4 10:4 11:8 12:0 13:12 14:4 15:4 16:12 17:8 18:12 19:0 20:4 21:4.9299998 22:2.6300001 23:4.2800002 24:6.9099998 25:3.6199999 26:3.95 27:2.6300001 28:5.5900002 29:6.9099998 30:13.16 31:1.97 32:4.9299998 33:2.6300001 34:6.5799999 35:3.6199999 36:7.5700002 37:6.5799999 38:7.2399998 39:0.66000003 40:3.6199999 #
-2.7112663504270879677449102018727 1:4 2:0 3:12 4:0 5:4 6:0 7:4 8:8 9:4 10:8 11:4 12:12 13:8 14:0 15:4 16:12 17:4 18:4 19:0 20:8 21:10.08 22:0.77999997 23:4.6500001 24:3.0999999 25:6.1999998 26:8.1400003 27:0.77999997 28:3.0999999 29:6.98 30:11.24 31:1.16 32:6.5900002 33:4.2600002 34:4.2600002 35:1.55 36:8.1400003 37:9.3000002 38:6.5900002 39:0.77999997 40:2.3299999 #
-4.2466879070226113412900303956121 1:4 2:0 3:0 4:0 5:8 6:0 7:8 8:4 9:0 10:12 11:4 12:4 13:8 14:8 15:0 16:16 17:12 18:12 19:0 20:0 21:6.5500002 22:0.67000002 23:4.9499998 24:7.2199998 25:4.9499998 26:6.8200002 27:2.4100001 28:6.1500001 29:7.6199999 30:10.03 31:2.6700001 32:4.1399999 33:4.5500002 34:3.6099999 35:5.6100001 36:7.4899998 37:6.02 38:5.8800001 39:0.67000002 40:2.01 #
-1.6366514335789332790227490477264 1:12 2:0 3:0 4:0 5:12 6:8 7:0 8:4 9:0 10:24 11:8 12:0 13:8 14:4 15:4 16:4 17:0 18:0 19:12 20:0 21:7.8600001 22:1.9400001 23:5.5799999 24:8.8800001 25:1.71 26:6.7199998 27:2.05 28:3.53 29:5.0100002 30:9.6800003 31:1.14 32:2.3900001 33:8.0900002 34:4.3299999 35:4.0999999 36:10.59 37:5.5799999 38:8.1999998 39:0.80000001 40:1.8200001 #
-4.4010304986224291212693060515448 1:28 2:4 3:0 4:0 5:0 6:12 7:0 8:0 9:0 10:20 11:8 12:0 13:4 14:0 15:16 16:0 17:4 18:4 19:0 20:0 21:6.1999998 22:0.77999997 23:7.75 24:10.85 25:4.6500001 26:3.8800001 27:1.55 28:3.8800001 29:3.8800001 30:6.98 31:2.3299999 32:3.0999999 33:8.5299997 34:2.3299999 35:8.5299997 36:8.5299997 37:2.3299999 38:6.98 39:3.0999999 40:3.8800001 #
13.658153592331666814629897999112 1:8 2:0 3:4 4:0 5:4 6:20 7:0 8:4 9:12 10:12 11:4 12:4 13:0 14:0 15:8 16:4 17:8 18:8 19:0 20:0 21:9.5900002 22:0.91000003 23:5.48 24:4.5700002 25:3.6500001 26:6.8499999 27:1.83 28:4.1100001 29:5.48 30:9.5900002 31:4.1100001 32:4.5700002 33:4.5700002 34:1.37 35:4.5700002 36:9.1300001 37:5.48 38:12.79 39:0.46000001 40:0.91000003 #
13.744313710882744672403532604221 1:12 2:0 3:8 4:4 5:0 6:4 7:4 8:0 9:0 10:12 11:8 12:4 13:16 14:4 15:0 16:4 17:8 18:4 19:0 20:8 21:11.4 22:0 23:6.2199998 24:3.6300001 25:3.1099999 26:8.29 27:3.6300001 28:3.1099999 29:6.7399998 30:8.29 31:1.55 32:9.3299999 33:5.6999998 34:2.5899999 35:2.0699999 36:4.6599998 37:4.6599998 38:7.77 39:3.6300001 40:3.6300001 #
2.7545031023284383131510821840493 1:4 2:8 3:4 4:0 5:0 6:0 7:0 8:4 9:0 10:16 11:4 12:12 13:12 14:4 15:4 16:16 17:4 18:8 19:0 20:0 21:14.66 22:1.15 23:5.75 24:3.1600001 25:2.5899999 26:9.7700005 27:1.15 28:4.02 29:7.4699998 30:8.0500002 31:3.45 32:2.3 33:4.5999999 34:2.8699999 35:2.8699999 36:7.1799998 37:5.75 38:10.92 39:0.28999999 40:2.01 #
11.839107431491736832640526699834 1:8 2:0 3:0 4:0 5:4 6:8 7:0 8:4 9:12 10:12 11:4 12:0 13:12 14:0 15:12 16:16 17:4 18:4 19:0 20:0 21:5.4099998 22:1.38 23:5.8699999 24:6.4400001 25:5.1799998 26:5.1799998 27:1.84 28:6.79 29:8.8599997 30:7.8299999 31:2.6500001 32:5.4099998 33:5.8699999 34:3.9100001 35:3.6800001 36:6.3299999 37:5.1799998 38:6.9000001 39:2.1900001 40:3.1099999 #
3.0503350325044271684760133211967 1:32 2:0 3:0 4:4 5:0 6:12 7:4 8:0 9:0 10:12 11:4 12:0 13:0 14:0 15:16 16:0 17:0 18:8 19:8 20:0 21:9.2600002 22:3.27 23:4.9000001 24:6.54 25:6.27 26:7.6300001 27:2.1800001 28:7.9000001 29:4.3600001 30:6.8099999 31:0.81999999 32:2.45 33:6.8099999 34:4.0900002 35:4.6300001 36:5.4499998 37:4.9000001 38:7.3600001 39:1.09 40:3.27 #
-3.7400885929066163271272671408951 1:8 2:0 3:0 4:0 5:0 6:4 7:8 8:16 9:8 10:8 11:4 12:0 13:20 14:0 15:8 16:8 17:4 18:0 19:0 20:4 21:6.5300002 22:0.47 23:5.3600001 24:8.6199999 25:3.03 26:2.3299999 27:1.17 28:5.5900002 29:10.49 30:12.35 31:2.3299999 32:5.3600001 33:4.6599998 34:3.73 35:5.8299999 36:7.6900001 37:3.96 38:6.29 39:0.69999999 40:3.5 #
-10 1:4 2:0 3:0 4:0 5:4 6:0 7:4 8:4 9:4 10:20 11:4 12:12 13:8 14:4 15:8 16:8 17:4 18:8 19:0 20:4 21:1.85 22:0 23:7.4099998 24:8.3299999 25:1.85 26:3.7 27:4.6300001 28:4.6300001 29:10.19 30:12.96 31:2.78 32:5.5599999 33:3.7 34:7.4099998 35:5.5599999 36:6.48 37:3.7 38:3.7 39:1.85 40:3.7 #
-0.75427897090446149874765069398563 1:4 2:0 3:0 4:16 5:4 6:0 7:0 8:0 9:4 10:20 11:4 12:0 13:12 14:4 15:12 16:8 17:4 18:4 19:4 20:0 21:7.3800001 22:1.01 23:3.3599999 24:5.6999998 25:3.3599999 26:10.74 27:2.3499999 28:4.6999998 29:5.0300002 30:11.07 31:4.6999998 32:2.01 33:4.3600001 34:3.6900001 35:6.04 36:5.6999998 37:5.6999998 38:7.3800001 39:2.3499999 40:3.3599999 #
9.4670794289139834631896519567817 1:0 2:0 3:0 4:4 5:4 6:4 7:8 8:8 9:8 10:12 11:8 12:4 13:0 14:4 15:16 16:16 17:0 18:4 19:0 20:0 21:3.23 22:1.8099999 23:5.29 24:6.9699998 25:6.0599999 26:2.71 27:2.3199999 28:7.48 29:8.6499996 30:11.23 31:2.3199999 32:5.4200001 33:1.8099999 34:4.2600002 35:5.0300002 36:8.2600002 37:5.8099999 38:5.1599998 39:1.42 40:4.77 #
7.0512158783908214232383215858135 1:8 2:0 3:0 4:0 5:16 6:4 7:4 8:4 9:0 10:16 11:8 12:24 13:0 14:0 15:12 16:0 17:0 18:4 19:0 20:0 21:7.29 22:0.91000003 23:5.1700001 24:6.0799999 25:3.3399999 26:6.3800001 27:2.4300001 28:4.5599999 29:7.9000001 30:13.68 31:3.04 32:3.04 33:4.2600002 34:5.1700001 35:3.6500001 36:6.6900001 37:7.29 38:4.2600002 39:1.52 40:3.3399999 #
5.1756803038604015654300383175723 1:0 2:0 3:0 4:0 5:8 6:4 7:0 8:20 9:16 10:12 11:4 12:16 13:4 14:0 15:0 16:4 17:0 18:12 19:0 20:0 21:3.3399999 22:0.94999999 23:3.6600001 24:7.6300001 25:3.02 26:4.77 27:1.59 28:7.9499998 29:7.3099999 30:9.6999998 31:1.91 32:10.33 33:2.7 34:7.3099999 35:2.3800001 36:11.45 37:5.25 38:5.8800001 39:0.16 40:2.7 #
-6.6222865763601985733544097456615 1:8 2:4 3:0 4:0 5:16 6:4 7:4 8:4 9:0 10:8 11:4 12:12 13:0 14:4 15:8 16:16 17:0 18:4 19:4 20:0 21:5.6100001 22:2.2 23:3.21 24:5.8099999 25:5.4099998 26:4.6100001 27:3.4100001 28:6.4099998 29:7.4099998 30:12.63 31:2.4000001 32:4.6100001 33:5.21 34:4.6100001 35:4.8099999 36:7.0100002 37:4.21 38:6.21 39:2.4000001 40:1.8 #
-7.1780448987352443168674653861672 1:0 2:0 3:0 4:0 5:16 6:20 7:0 8:8 9:12 10:8 11:4 12:4 13:4 14:0 15:8 16:8 17:4 18:4 19:0 20:0 21:6.5599999 22:1.5599999 23:4.0599999 24:5.3099999 25:5 26:5 27:2.5 28:7.1900001 29:5.3099999 30:9.0600004 31:3.4400001 32:5.6199999 33:5 34:3.75 35:5.6199999 36:9.6899996 37:4.0599999 38:4.6900001 39:1.5599999 40:5 #
8.1297376281377644602343934820965 1:24 2:0 3:0 4:0 5:0 6:0 7:4 8:0 9:0 10:8 11:8 12:0 13:12 14:0 15:12 16:12 17:0 18:20 19:0 20:0 21:5.9200001 22:0.28 23:4.79 24:6.1999998 25:5.9200001 26:7.3200002 27:4.23 28:7.8899999 29:5.6300001 30:7.04 31:1.13 32:2.25 33:7.04 34:2.8199999 35:7.3200002 36:5.9200001 37:4.79 38:9.0100002 39:1.6900001 40:2.8199999 #
12.116322899854564454358296643477 1:12 2:8 3:0 4:0 5:0 6:4 7:4 8:0 9:0 10:20 11:4 12:0 13:0 14:12 15:16 16:0 17:4 18:8 19:4 20:4 21:8.3699999 22:1.88 23:4.9099998 24:7.3600001 25:5.3400002 26:7.3600001 27:3.03 28:3.03 29:3.1700001 30:12.41 31:0.57999998 32:1.73 33:5.6300001 34:5.77 35:8.2299995 36:6.7800002 37:5.1900001 38:5.1900001 39:2.1600001 40:1.88 #
-4.5916304222734867224176014133263 1:24 2:0 3:0 4:0 5:0 6:4 7:4 8:0 9:4 10:12 11:4 12:0 13:4 14:8 15:8 16:4 17:4 18:8 19:8 20:4 21:7.2800002 22:2.6500001 23:4.6399999 24:1.3200001 25:3.97 26:9.9300003 27:1.99 28:3.3099999 29:3.97 30:15.89 31:1.99 32:3.3099999 33:4.6399999 34:5.96 35:5.3000002 36:3.3099999 37:3.3099999 38:9.2700005 39:3.3099999 40:4.6399999 #
14.184385738304685631305801507551 1:16 2:0 3:0 4:0 5:4 6:16 7:4 8:8 9:4 10:4 11:16 12:4 13:4 14:0 15:8 16:8 17:4 18:0 19:0 20:0 21:7.9000001 22:1.48 23:5.1900001 24:5.9299998 25:3.95 26:7.4099998 27:3.21 28:4.4400001 29:6.6700001 30:8.6400003 31:3.21 32:2.96 33:5.6799998 34:4.1999998 35:4.4400001 36:7.9000001 37:4.9400001 38:6.4200001 39:1.73 40:3.7 #
-0.1839355525350363507186557399109 1:8 2:0 3:0 4:0 5:4 6:8 7:0 8:0 9:0 10:16 11:4 12:4 13:8 14:4 15:16 16:4 17:8 18:4 19:8 20:4 21:9.6800003 22:0 23:12.9 24:0 25:3.23 26:9.6800003 27:0 28:6.4499998 29:9.6800003 30:9.6800003 31:0 32:3.23 33:3.23 34:0 35:3.23 36:0 37:3.23 38:12.9 39:9.6800003 40:3.23 #
3.4326088591987193865406879922375 1:4 2:0 3:0 4:0 5:4 6:0 7:12 8:12 9:8 10:8 11:4 12:8 13:0 14:0 15:0 16:20 17:8 18:8 19:0 20:4 21:6.5300002 22:1.0599999 23:3.1700001 24:8.4700003 25:4.23 26:6 27:2.6500001 28:5.6399999 29:6 30:10.23 31:1.59 32:4.23 33:6 34:5.6399999 35:4.5900002 36:8.1099997 37:5.8200002 38:5.8200002 39:0.70999998 40:3.53 #
-10 1:8 2:0 3:0 4:0 5:0 6:8 7:0 8:8 9:4 10:12 11:8 12:4 13:0 14:0 15:16 16:8 17:20 18:4 19:0 20:0 21:4.27 22:1.9400001 23:5.8299999 24:9.5100002 25:3.5 26:3.6900001 27:1.17 28:5.8299999 29:10.1 30:13.01 31:0.38999999 32:9.71 33:2.52 34:3.3 35:3.6900001 36:9.8999996 37:4.8499999 38:4.27 39:0.97000003 40:1.55 #
-2.8149781607242951864122915139887 1:0 2:4 3:0 4:4 5:0 6:20 7:0 8:4 9:8 10:8 11:4 12:4 13:4 14:4 15:8 16:8 17:12 18:8 19:0 20:0 21:5.8000002 22:2.9000001 23:3.6199999 24:9.7799997 25:5.8000002 26:6.8800001 27:2.54 28:2.54 29:4.3499999 30:13.04 31:2.1700001 32:2.1700001 33:2.1700001 34:5.0700002 35:7.6100001 36:6.1599998 37:4.3499999 38:9.0600004 39:1.45 40:2.54 #
-10 1:4 2:0 3:0 4:0 5:4 6:4 7:4 8:4 9:0 10:4 11:4 12:0 13:0 14:4 15:20 16:20 17:20 18:0 19:0 20:8 21:7.8800001 22:0.25 23:4.9299998 24:10.1 25:4.4299998 26:6.6500001 27:0.74000001 28:5.6700001 29:10.59 30:6.6500001 31:1.23 32:2.96 33:2.46 34:4.1900001 35:6.6500001 36:7.1399999 37:6.4000001 38:7.1399999 39:1.23 40:2.71 #
7.6892180655793156418553735420574 1:24 2:4 3:0 4:4 5:0 6:4 7:0 8:0 9:0 10:8 11:4 12:4 13:4 14:4 15:16 16:0 17:4 18:8 19:12 20:0 21:9.9700003 22:1.29 23:4.3400002 24:5.79 25:2.4100001 26:7.4000001 27:1.13 28:6.4299998 29:5.9499998 30:7.5599999 31:2.0899999 32:2.5699999 33:10.93 34:3.22 35:4.02 36:6.4299998 37:7.4000001 38:8.5200005 39:0.80000001 40:1.77 #
15.614598270769576515704102348536 1:16 2:4 3:4 4:0 5:4 6:0 7:0 8:0 9:4 10:12 11:4 12:0 13:0 14:8 15:12 16:16 17:0 18:8 19:8 20:0 21:9.5799999 22:0.69999999 23:4.21 24:7.0100002 25:4.4400001 26:10.05 27:2.8 28:3.97 29:4.21 30:11.45 31:1.87 32:2.0999999 33:7.71 34:3.27 35:6.0700002 36:5.3699999 37:3.97 38:7.0100002 39:1.4 40:2.8 #
-10 1:20 2:8 3:0 4:0 5:8 6:0 7:0 8:4 9:8 10:12 11:8 12:0 13:4 14:4 15:12 16:4 17:0 18:8 19:0 20:0 21:9.4899998 22:1.8200001 23:5.4499998 24:6.46 25:4.2399998 26:13.13 27:2.22 28:3.23 29:7.8800001 30:3.6400001 31:1.21 32:3.23 33:4.04 34:5.0500002 35:6.2600002 36:6.6700001 37:6.0599999 38:6.0599999 39:0.61000001 40:3.23 #
-10 1:16 2:4 3:0 4:0 5:0 6:8 7:0 8:0 9:4 10:12 11:4 12:0 13:4 14:8 15:12 16:12 17:0 18:4 19:12 20:0 21:8.71 22:2.0899999 23:5.23 24:4.5300002 25:2.79 26:8.8900003 27:4.1799998 28:4.1799998 29:4.3600001 30:8.1899996 31:2.26 32:3.48 33:6.4499998 34:5.9200001 35:6.0999999 36:5.5700002 37:4.6999998 38:7.1399999 39:1.92 40:3.3099999 #
7.5209994419225090211966744391248 1:8 2:0 3:0 4:0 5:0 6:0 7:0 8:4 9:4 10:8 11:4 12:0 13:0 14:4 15:20 16:8 17:28 18:4 19:0 20:8 21:6.6799998 22:0.63 23:7.5799999 24:9.21 25:3.25 26:4.96 27:1.71 28:6.4099998 29:9.5699997 30:8.3900003 31:1.99 32:4.1500001 33:4.8699999 34:3.52 35:4.1500001 36:8.0299997 37:5.6900001 38:6.1399999 39:0.63 40:2.4400001 #
5.4841832544651190062268142355606 1:0 2:4 3:0 4:0 5:4 6:12 7:4 8:4 9:4 10:8 11:4 12:0 13:12 14:0 15:16 16:12 17:12 18:0 19:4 20:0 21:6.1700001 22:2.5999999 23:6.1700001 24:4.8699999 25:4.2199998 26:6.1700001 27:2.9200001 28:3.5699999 29:3.9000001 30:11.04 31:0.97000003 32:2.9200001 33:7.4699998 34:5.8400002 35:8.4399996 36:8.1199999 37:3.25 38:7.79 39:1.95 40:1.62 #
2.9761234863084524704390787519515 1:8 2:0 3:0 4:0 5:4 6:8 7:0 8:8 9:0 10:8 11:4 12:0 13:16 14:0 15:20 16:4 17:16 18:4 19:0 20:0 21:10.43 22:0.68000001 23:5.8099999 24:7.0100002 25:3.5899999 26:7.1799998 27:2.5599999 28:3.4200001 29:5.8099999 30:8.8900003 31:2.3900001 32:3.0799999 33:5.4699998 34:4.4400001 35:5.6399999 36:7.1799998 37:4.96 38:6.5 39:1.88 40:3.0799999 #
-2.1085980088061209158922792994417 1:0 2:4 3:0 4:0 5:8 6:4 7:0 8:8 9:0 10:12 11:4 12:8 13:8 14:4 15:20 16:12 17:4 18:4 19:0 20:0 21:4.4899998 22:1.12 23:5.3899999 24:5.1700001 25:4.4899998 26:1.5700001 27:1.12 28:8.0900002 29:9.8900003 30:12.36 31:2.7 32:8.3100004 33:2.7 34:2.47 35:3.5999999 36:10.56 37:6.52 38:4.4899998 39:1.35 40:3.5999999 #
-2.3802772015666606719719311513472 1:4 2:0 3:0 4:0 5:8 6:0 7:4 8:4 9:0 10:12 11:4 12:8 13:8 14:4 15:24 16:4 17:4 18:8 19:0 20:4 21:3.8699999 22:0.76999998 23:6.96 24:6.1900001 25:3.0899999 26:4.9000001 27:1.8 28:7.9899998 29:8.25 30:16.24 31:3.6099999 32:4.9000001 33:2.0599999 34:2.5799999 35:4.6399999 36:9.0200005 37:5.4099998 38:4.6399999 39:0.25999999 40:2.8399999 #
-10 1:8 2:0 3:0 4:0 5:0 6:8 7:0 8:0 9:0 10:12 11:8 12:0 13:4 14:8 15:20 16:20 17:8 18:4 19:0 20:0 21:9.9799995 22:1.11 23:3.96 24:6.6599998 25:4.75 26:9.8299999 27:1.4299999 28:5.5500002 29:6.3400002 30:9.6700001 31:2.8499999 32:3.49 33:3.49 34:4.75 35:4.75 36:7.29 37:4.4400001 38:7.29 39:0.47999999 40:1.9 #
0.51489555026384170588471533847041 1:20 2:4 3:0 4:0 5:0 6:12 7:0 8:0 9:4 10:20 11:4 12:0 13:0 14:0 15:8 16:16 17:4 18:0 19:4 20:4 21:8.6899996 22:1.41 23:5.0500002 24:7.27 25:3.8399999 26:10.3 27:2.02 28:6.6700001 29:7.4699998 30:8.0799999 31:2.8299999 32:3.8399999 33:4.2399998 34:2.6300001 35:4.2399998 36:5.4499998 37:5.25 38:7.8800001 39:0.61000001 40:2.22 #
1.3615031597658566742126140525215 1:20 2:0 3:0 4:4 5:0 6:4 7:4 8:0 9:8 10:20 11:4 12:0 13:0 14:12 15:12 16:4 17:4 18:0 19:0 20:4 21:7.8200002 22:1.3 23:5.21 24:7.0799999 25:4.2800002 26:9.1199999 27:2.98 28:8.0100002 29:6.52 30:6.52 31:2.6099999 32:4.2800002 33:4.2800002 34:2.79 35:5.77 36:4.8400002 37:6.6999998 38:5.5900002 39:0.56 40:3.72 #
22.315166353903219231824550661258 1:20 2:4 3:0 4:0 5:0 6:8 7:0 8:8 9:8 10:12 11:4 12:4 13:4 14:0 15:8 16:12 17:4 18:0 19:0 20:4 21:7.1399999 22:0.31 23:5.1199999 24:6.8299999 25:3.1099999 26:8.2299995 27:2.1700001 28:5.4299998 29:8.2299995 30:7.3000002 31:4.04 32:3.73 33:4.3499999 34:5.9000001 35:5.75 36:5.2800002 37:6.21 38:5.5900002 39:1.86 40:3.4200001 #
-10 1:28 2:0 3:0 4:0 5:4 6:8 7:8 8:4 9:4 10:16 11:4 12:4 13:0 14:0 15:12 16:4 17:0 18:0 19:4 20:0 21:7.5900002 22:2.23 23:4.02 24:7.5900002 25:3.1199999 26:8.04 27:1.79 28:6.25 29:7.1399999 30:7.5900002 31:2.23 32:5.3600001 33:9.3800001 34:3.5699999 35:3.5699999 36:2.6800001 37:6.6999998 38:7.1399999 39:0.44999999 40:3.5699999 #
-10 1:16 2:0 3:4 4:0 5:0 6:4 7:0 8:8 9:12 10:12 11:4 12:4 13:0 14:0 15:4 16:20 17:4 18:4 19:4 20:0 21:4.6999998 22:0 23:8.0500002 24:8.7200003 25:3.3599999 26:2.01 27:1.34 28:4.6999998 29:12.75 30:8.7200003 31:2.01 32:4.0300002 33:3.3599999 34:6.04 35:4.0300002 36:8.7200003 37:6.04 38:8.0500002 39:0.67000002 40:2.6800001 #
4.1142609159862129075690972968005 1:12 2:8 3:0 4:4 5:4 6:4 7:0 8:8 9:0 10:16 11:4 12:8 13:8 14:4 15:12 16:4 17:0 18:4 19:0 20:0 21:5.79 22:1.08 23:5.79 24:6.1500001 25:5.2399998 26:6.3299999 27:2.53 28:4.8800001 29:7.23 30:11.93 31:1.99 32:3.0699999 33:2.3499999 34:6.6900001 35:5.0599999 36:7.23 37:4.8800001 38:7.7800002 39:0.72000003 40:3.25 #
2.0731681408618838347024393442553 1:0 2:4 3:0 4:0 5:0 6:0 7:0 8:0 9:0 10:16 11:4 12:4 13:8 14:0 15:20 16:16 17:12 18:4 19:4 20:8 21:4.6900001 22:1.64 23:5.4000001 24:4.23 25:5.6300001 26:6.3400002 27:2.1099999 28:5.6300001 29:7.98 30:10.09 31:2.1099999 32:7.75 33:4.6900001 34:5.6300001 35:3.05 36:6.5700002 37:3.29 38:6.5700002 39:1.88 40:4.6900001 #
8.6098160680244006925931898877025 1:20 2:0 3:0 4:0 5:0 6:4 7:0 8:8 9:4 10:16 11:8 12:8 13:0 14:0 15:12 16:16 17:0 18:4 19:0 20:0 21:9.0900002 22:1.14 23:7.3899999 24:5.1100001 25:5.6799998 26:10.23 27:1.7 28:5.6799998 29:10.23 30:6.25 31:0 32:1.7 33:3.98 34:2.27 35:2.27 36:11.36 37:3.4100001 38:8.5200005 39:1.7 40:2.27 #
-0.50282073687337391909579764615046 1:16 2:0 3:0 4:0 5:0 6:8 7:0 8:0 9:4 10:16 11:4 12:0 13:20 14:0 15:16 16:4 17:4 18:4 19:0 20:4 21:11.63 22:0.77999997 23:4.6500001 24:18.99 25:0.38999999 26:5.4299998 27:0.77999997 28:1.16 29:3.8800001 30:4.2600002 31:0.77999997 32:1.16 33:7.3600001 34:5.4299998 35:2.3299999 36:12.02 37:8.9099998 38:8.1400003 39:0 40:1.9400001 #
-9.4596138410609107438631326658651 1:0 2:4 3:0 4:0 5:12 6:0 7:0 8:4 9:4 10:20 11:4 12:4 13:8 14:0 15:16 16:16 17:4 18:4 19:0 20:0 21:6.7199998 22:0.40000001 23:5.5300002 24:3.95 25:5.1399999 26:3.1600001 27:1.98 28:6.7199998 29:9.4899998 30:11.46 31:1.98 32:6.3200002 33:5.5300002 34:4.7399998 35:4.3499999 36:6.7199998 37:5.1399999 38:6.7199998 39:1.1900001 40:2.77 #
-3.2744704181050789948415058461251 1:8 2:0 3:0 4:0 5:4 6:8 7:8 8:0 9:4 10:20 11:4 12:0 13:0 14:0 15:8 16:20 17:12 18:0 19:0 20:4 21:3.8499999 22:0 23:5.77 24:5.77 25:5.77 26:9.6199999 27:1.92 28:1.92 29:7.6900001 30:15.38 31:3.8499999 32:3.8499999 33:13.46 34:1.92 35:0 36:1.92 37:7.6900001 38:1.92 39:3.8499999 40:3.8499999 #
11.763244628012319736853896756656 1:20 2:0 3:0 4:4 5:4 6:4 7:8 8:4 9:8 10:8 11:8 12:0 13:0 14:0 15:16 16:12 17:0 18:0 19:4 20:0 21:8.0600004 22:0.89999998 23:5.6700001 24:5.6700001 25:2.6900001 26:4.7800002 27:2.99 28:5.3699999 29:8.96 30:10.75 31:1.79 32:1.49 33:4.48 34:5.9699998 35:3.8800001 36:7.46 37:5.3699999 38:10.15 39:0.89999998 40:2.6900001 #
-3.0627241195583985167161245044554 1:16 2:0 3:4 4:0 5:0 6:20 7:0 8:12 9:8 10:4 11:4 12:8 13:4 14:0 15:8 16:12 17:0 18:0 19:0 20:0 21:12.16 22:0 23:2.7 24:8.1099997 25:1.35 26:8.1099997 27:0 28:9.46 29:4.0500002 30:12.16 31:2.7 32:1.35 33:5.4099998 34:6.7600002 35:6.7600002 36:6.7600002 37:4.0500002 38:6.7600002 39:1.35 40:0 #
-1.8226132326554691509556960227201 1:20 2:0 3:0 4:8 5:0 6:8 7:0 8:4 9:4 10:8 11:4 12:0 13:8 14:4 15:8 16:8 17:0 18:8 19:0 20:8 21:12 22:0 23:4 24:4.8000002 25:3.2 26:8 27:2.4000001 28:6.4000001 29:8.8000002 30:8 31:1.6 32:1.6 33:4.8000002 34:3.2 35:8 36:7.1999998 37:5.5999999 38:6.4000001 39:0.80000001 40:3.2 #
-2.3063750934055802233046961191576 1:8 2:0 3:0 4:0 5:12 6:4 7:4 8:4 9:4 10:4 11:16 12:0 13:4 14:4 15:16 16:4 17:12 18:4 19:0 20:0 21:6.4099998 22:1.28 23:3.8499999 24:5.77 25:3.8499999 26:7.6900001 27:1.28 28:3.8499999 29:7.6900001 30:10.26 31:3.8499999 32:3.21 33:6.4099998 34:1.28 35:1.28 36:9.6199999 37:6.4099998 38:7.6900001 39:1.92 40:6.4099998 #
3.3360995161106781203841364913387 1:4 2:0 3:0 4:0 5:12 6:0 7:0 8:0 9:4 10:20 11:4 12:4 13:8 14:8 15:16 16:4 17:16 18:0 19:0 20:0 21:2.5 22:2.5 23:8.75 24:6.25 25:4.3800001 26:5.6199999 27:1.25 28:10 29:8.75 30:10 31:0 32:8.1199999 33:3.75 34:0.62 35:3.75 36:11.88 37:5.6199999 38:3.1199999 39:0 40:3.1199999 #
5.7673307084348905959814146626741 1:4 2:0 3:4 4:4 5:4 6:0 7:0 8:0 9:4 10:20 11:4 12:8 13:8 14:4 15:16 16:12 17:8 18:0 19:0 20:0 21:7.52 22:1.88 23:4.6999998 24:6.27 25:4.0799999 26:8.1499996 27:2.1900001 28:4.3899999 29:5.6399999 30:7.21 31:3.76 32:2.51 33:4.0799999 34:1.25 35:6.27 36:8.1499996 37:6.5799999 38:9.3999996 39:1.5700001 40:4.3899999 #
0.18114068524128068560230531147681 1:4 2:4 3:0 4:0 5:4 6:4 7:0 8:4 9:0 10:16 11:4 12:0 13:4 14:8 15:12 16:20 17:0 18:16 19:0 20:0 21:10.18 22:2.4000001 23:4.1900001 24:3.5899999 25:2.4000001 26:7.1900001 27:2.4000001 28:4.79 29:8.9799995 30:7.1900001 31:2.99 32:5.3899999 33:5.3899999 34:2.4000001 35:4.1900001 36:7.1900001 37:7.1900001 38:9.5799999 39:0 40:2.4000001 #
-8.5359817496171075390520854853094 1:4 2:0 3:4 4:0 5:0 6:0 7:4 8:4 9:8 10:24 11:4 12:0 13:4 14:16 15:12 16:4 17:4 18:8 19:0 20:0 21:5.6300001 22:0.68000001 23:4.73 24:11.04 25:5.1799998 26:6.3099999 27:1.8 28:4.73 29:10.36 30:5.4099998 31:2.03 32:1.58 33:3.8299999 34:5.8600001 35:5.8600001 36:9.0100002 37:6.3099999 38:6.0799999 39:1.35 40:2.25 #
-10 1:4 2:4 3:0 4:0 5:0 6:4 7:0 8:8 9:8 10:12 11:4 12:0 13:8 14:4 15:24 16:4 17:8 18:4 19:4 20:0 21:6.7600002 22:1.96 23:8.0100002 24:6.0500002 25:3.3800001 26:6.23 27:2.8499999 28:5.8699999 29:8.54 30:8.3599997 31:2.49 32:5.3400002 33:4.6300001 34:1.96 35:3.2 36:7.1199999 37:6.4099998 38:7.1199999 39:1.0700001 40:2.6700001 #
-10 1:8 2:4 3:0 4:0 5:4 6:4 7:0 8:0 9:4 10:12 11:4 12:4 13:0 14:4 15:20 16:20 17:4 18:4 19:0 20:4 21:10.65 22:0.63 23:3.97 24:7.0999999 25:3.1300001 26:6.6799998 27:1.88 28:4.1799998 29:4.5900002 30:9.6000004 31:3.1300001 32:3.76 33:5.4299998 34:3.1300001 35:3.55 36:10.02 37:5.6399999 38:8.1400003 39:0.63 40:4.1799998 #
2.1603041403106431062042247503996 1:24 2:4 3:0 4:0 5:0 6:8 7:4 8:0 9:0 10:12 11:4 12:0 13:12 14:0 15:16 16:4 17:0 18:4 19:4 20:4 21:10.22 22:1.49 23:5.3899999 24:5.9499998 25:4.2800002 26:10.22 27:1.86 28:7.0599999 29:5.1999998 30:7.9899998 31:2.04 32:3.9000001 33:4.46 34:3.9000001 35:5.5799999 36:5.1999998 37:3.72 38:7.0599999 39:0.56 40:3.9000001 #
11.420886520760014093411882640794 1:12 2:0 3:8 4:0 5:12 6:4 7:4 8:4 9:0 10:20 11:8 12:0 13:4 14:4 15:16 16:0 17:0 18:4 19:0 20:0 21:8.4399996 22:1.63 23:4.3000002 24:7.6999998 25:3.5599999 26:6.0700002 27:1.9299999 28:2.22 29:6.52 30:13.19 31:2.3699999 32:3.26 33:6.6700001 34:5.6300001 35:6.52 36:5.6300001 37:5.48 38:5.04 39:1.1900001 40:2.6700001 #
6.000230906438806854907852539327 1:0 2:0 3:0 4:0 5:8 6:0 7:0 8:4 9:0 10:20 11:4 12:4 13:4 14:8 15:20 16:12 17:12 18:4 19:0 20:0 21:8.8599997 22:2 23:5.1399999 24:5.71 25:2.8599999 26:11.14 27:2.5699999 28:6 29:9.1400003 30:8 31:1.14 32:3.1400001 33:4.29 34:2.29 35:1.71 36:6.5700002 37:4.5700002 38:10 39:1.4299999 40:3.4300001 #
-10 1:24 2:0 3:0 4:0 5:0 6:0 7:0 8:8 9:4 10:12 11:4 12:4 13:4 14:0 15:16 16:12 17:12 18:0 19:0 20:0 21:10.58 22:0.19 23:4.04 24:7.1199999 25:2.8800001 26:9.04 27:1.15 28:5.3800001 29:5.3800001 30:11.92 31:0.38 32:3.27 33:3.8499999 34:5 35:5.96 36:7.6900001 37:4.6199999 38:8.46 39:0.38 40:2.6900001 #
-3.2212729668238693214732393244049 1:8 2:0 3:8 4:4 5:12 6:8 7:0 8:4 9:0 10:16 11:4 12:0 13:0 14:4 15:8 16:0 17:8 18:16 19:0 20:0 21:6.25 22:1.5599999 23:4.3000002 24:5.8600001 25:6.25 26:8.5900002 27:3.1199999 28:4.6900001 29:7.0300002 30:8.1999998 31:3.52 32:3.1199999 33:7.4200001 34:5.0799999 35:4.6900001 36:4.6900001 37:5.0799999 38:6.6399999 39:0.38999999 40:3.52 #
-0.5362789643232694913876912323758 1:0 2:4 3:4 4:0 5:4 6:16 7:0 8:0 9:0 10:16 11:4 12:0 13:8 14:12 15:16 16:4 17:4 18:8 19:0 20:0 21:11.08 22:1.5 23:4.1900001 24:6.5900002 25:2.4000001 26:5.9899998 27:1.5 28:4.4899998 29:6.29 30:14.07 31:2.0999999 32:2.0999999 33:3.8900001 34:4.79 35:8.0799999 36:8.0799999 37:4.4899998 38:5.3899999 39:0.89999998 40:2.0999999 #
-5.1290421593471764438731952395756 1:16 2:4 3:0 4:0 5:8 6:0 7:4 8:0 9:4 10:16 11:4 12:0 13:8 14:0 15:12 16:8 17:8 18:8 19:0 20:0 21:9.6899996 22:0.62 23:1.88 24:2.8099999 25:3.1199999 26:11.25 27:0.94 28:6.5599999 29:4.6900001 30:10.94 31:5.9400001 32:2.5 33:5 34:2.1900001 35:4.3800001 36:6.8800001 37:6.25 38:8.1199999 39:1.88 40:4.3800001 #
3.6349090622702817654499085620046 1:4 2:4 3:0 4:4 5:0 6:8 7:8 8:4 9:8 10:4 11:12 12:0 13:4 14:4 15:16 16:8 17:0 18:0 19:12 20:0 21:4.3400002 22:1.36 23:4.8800001 24:5.6900001 25:3.79 26:4.3400002 27:3.25 28:8.9399996 29:7.3200002 30:13.55 31:2.4400001 32:4.8800001 33:5.96 34:5.4200001 35:2.98 36:5.96 37:5.96 38:3.52 39:0.27000001 40:5.1500001 #
2.6461597444867273054569523083046 1:8 2:4 3:0 4:0 5:0 6:4 7:0 8:0 9:0 10:4 11:4 12:0 13:16 14:0 15:16 16:16 17:4 18:4 19:20 20:0 21:6.8200002 22:1.28 23:5.1199999 24:5.9699998 25:3.2 26:9.1700001 27:1.92 28:3.8399999 29:4.2600002 30:11.09 31:0.63999999 32:1.71 33:8.3199997 34:4.0500002 35:8.3199997 36:4.9000001 37:6.8200002 38:9.8100004 39:1.0700001 40:1.71 #
3.0231219508945832430413247493561 1:4 2:0 3:4 4:0 5:0 6:8 7:4 8:0 9:4 10:20 11:4 12:0 13:0 14:8 15:24 16:12 17:0 18:4 19:0 20:4 21:10 22:1.11 23:6.6700001 24:5.5599999 25:2.22 26:13.33 27:3.3299999 28:1.11 29:0 30:6.6700001 31:1.11 32:1.11 33:11.11 34:4.4400001 35:16.67 36:4.4400001 37:4.4400001 38:4.4400001 39:0 40:2.22 #
-1.9659156085735034480421745683998 1:8 2:8 3:0 4:0 5:0 6:4 7:0 8:4 9:0 10:12 11:4 12:12 13:4 14:4 15:24 16:4 17:0 18:12 19:0 20:0 21:6.6100001 22:1.59 23:9.5200005 24:15.61 25:2.3800001 26:6.0799999 27:1.59 28:2.1199999 29:9.79 30:3.4400001 31:1.59 32:7.4099998 33:4.23 34:5.0300002 35:1.85 36:11.64 37:4.5 38:3.4400001 39:0.25999999 40:1.3200001 #
-10 1:8 2:0 3:8 4:0 5:4 6:12 7:8 8:0 9:0 10:8 11:4 12:0 13:8 14:4 15:20 16:8 17:0 18:0 19:8 20:0 21:9.2600002 22:1.89 23:3.79 24:6.6300001 25:3.8900001 26:7.6799998 27:2.8399999 28:2.53 29:2.4200001 30:15.89 31:1.6799999 32:2.95 33:6.21 34:4.3200002 35:7.4699998 36:6.21 37:4.3200002 38:6.8400002 39:0.83999997 40:2.3199999 #
-0.27218033540550656823597819311544 1:8 2:0 3:0 4:0 5:0 6:4 7:0 8:4 9:0 10:0 11:8 12:0 13:8 14:4 15:24 16:28 17:12 18:0 19:0 20:0 21:13.74 22:3.05 23:3.8199999 24:3.05 25:3.05 26:9.9200001 27:2.29 28:3.05 29:0.75999999 30:3.8199999 31:3.05 32:5.3400002 33:5.3400002 34:16.030001 35:3.8199999 36:6.1100001 37:7.6300001 38:3.05 39:0 40:3.05 #
12.917864828201494731274578953162 1:16 2:0 3:0 4:0 5:4 6:0 7:0 8:4 9:4 10:12 11:4 12:4 13:0 14:0 15:12 16:24 17:12 18:4 19:0 20:0 21:8.6099997 22:0.47999999 23:4.3099999 24:6.6999998 25:3.8299999 26:7.1799998 27:2.8699999 28:7.1799998 29:9.0900002 30:7.6599998 31:0 32:7.6599998 33:3.3499999 34:5.2600002 35:1.4400001 36:5.7399998 37:5.2600002 38:5.7399998 39:2.8699999 40:4.7800002 #
17.819528691673053089061795617454 1:12 2:0 3:4 4:0 5:4 6:8 7:4 8:4 9:8 10:20 11:4 12:0 13:4 14:4 15:8 16:8 17:8 18:0 19:0 20:0 21:7.3400002 22:1.09 23:3.8 24:6.25 25:3.53 26:8.6999998 27:1.36 28:5.4299998 29:7.0700002 30:9.5100002 31:1.63 32:5.1599998 33:6.79 34:3.8 35:4.0799999 36:4.0799999 37:8.1499996 38:5.98 39:2.1700001 40:4.0799999 #
-2.2158864383173551004801993258297 1:12 2:0 3:0 4:0 5:4 6:4 7:0 8:8 9:8 10:12 11:16 12:4 13:0 14:4 15:12 16:16 17:0 18:0 19:0 20:0 21:7.3800001 22:0.81999999 23:3.6900001 24:6.9699998 25:5.7399998 26:7.3800001 27:0.81999999 28:5.3299999 29:8.6099997 30:5.3299999 31:0.81999999 32:4.0999999 33:6.5599999 34:4.0999999 35:6.1500001 36:8.6099997 37:6.1500001 38:6.5599999 39:0.41 40:4.5100002 #
7.1209283198538546599820620031096 1:8 2:8 3:0 4:0 5:0 6:20 7:12 8:0 9:0 10:12 11:4 12:0 13:0 14:4 15:20 16:4 17:0 18:4 19:4 20:0 21:5.4299998 22:1.58 23:6.0300002 24:6.23 25:5.3400002 26:5.6300001 27:3.3599999 28:4.1500001 29:6.3200002 30:10.28 31:2.3699999 32:3.46 33:6.52 34:5.5300002 35:4.4499998 36:7.1100001 37:6.7199998 38:5.4299998 39:1.09 40:2.96 #
10.146121270053223284435262030456 1:4 2:4 3:0 4:4 5:4 6:24 7:0 8:0 9:0 10:16 11:4 12:0 13:4 14:0 15:16 16:8 17:4 18:4 19:4 20:0 21:7.54 22:2.03 23:2.9000001 24:7.54 25:3.1900001 26:6.96 27:4.0599999 28:3.77 29:5.2199998 30:9.2799997 31:1.45 32:3.1900001 33:5.2199998 34:4.0599999 35:4.9299998 36:9.2799997 37:6.3800001 38:7.8299999 39:2.03 40:3.1900001 #
6.9067428791737697224561998154968 1:12 2:8 3:0 4:0 5:0 6:4 7:0 8:0 9:0 10:16 11:4 12:0 13:16 14:0 15:20 16:4 17:0 18:12 19:4 20:0 21:13.21 22:2.26 23:4.9099998 24:7.5500002 25:4.9099998 26:8.3000002 27:0.75 28:6.4200001 29:9.0600004 30:7.9200001 31:3.02 32:4.1500001 33:2.6400001 34:4.5300002 35:2.6400001 36:4.5300002 37:5.2800002 38:5.6599998 39:0.38 40:1.89 #
-10 1:8 2:4 3:0 4:4 5:0 6:20 7:4 8:4 9:0 10:12 11:4 12:0 13:0 14:0 15:20 16:8 17:0 18:8 19:0 20:4 21:7.29 22:2.01 23:6.5300002 24:5.7800002 25:4.77 26:5.0300002 27:2.76 28:6.0300002 29:5.7800002 30:5.7800002 31:3.27 32:4.27 33:7.29 34:2.76 35:6.0300002 36:5.7800002 37:5.7800002 38:6.5300002 39:2.76 40:3.77 #
-8.2775020614943493058035528520122 1:4 2:4 3:0 4:4 5:0 6:12 7:4 8:0 9:0 10:20 11:12 12:0 13:0 14:4 15:20 16:8 17:0 18:8 19:0 20:0 21:9.0200005 22:1.46 23:2.4400001 24:4.8800001 25:4.3899999 26:5.1199999 27:2.4400001 28:5.3699999 29:4.1500001 30:11.95 31:2.6800001 32:2.4400001 33:9.0200005 34:5.1199999 35:5.3699999 36:7.0700002 37:5.8499999 38:6.5900002 39:2.4400001 40:2.2 #
-2.9649187853365264189164918207098 1:0 2:4 3:0 4:0 5:4 6:24 7:8 8:0 9:0 10:12 11:4 12:0 13:12 14:4 15:16 16:4 17:4 18:0 19:0 20:4 21:9.6199999 22:0 23:5.77 24:5.1300001 25:3.8499999 26:7.0500002 27:1.92 28:1.92 29:3.8499999 30:8.9700003 31:3.21 32:2.5599999 33:4.4899998 34:6.4099998 35:8.3299999 36:5.77 37:4.4899998 38:10.9 39:2.5599999 40:3.21 #
2.3603303107782647174417434143834 1:4 2:0 3:4 4:0 5:4 6:0 7:0 8:8 9:12 10:8 11:4 12:0 13:8 14:12 15:12 16:4 17:0 18:20 19:0 20:0 21:7.6300001 22:1.27 23:6.3600001 24:8.8999996 25:1.6900001 26:5.5100002 27:0.41999999 28:10.17 29:11.86 30:9.75 31:2.1199999 32:5.9299998 33:4.6599998 34:2.54 35:2.54 36:5.5100002 37:5.0799999 38:7.1999998 39:0.41999999 40:0.41999999 #
14.468847845727818679506526677869 1:20 2:0 3:0 4:0 5:8 6:4 7:0 8:4 9:4 10:4 11:4 12:4 13:0 14:4 15:12 16:20 17:4 18:0 19:0 20:8 21:6.0599999 22:1.01 23:6.6700001 24:8.4799995 25:2.8299999 26:6.6700001 27:1.62 28:7.27 29:9.8999996 30:10.91 31:1.21 32:3.8399999 33:3.03 34:4.6500001 35:4.6500001 36:5.8600001 37:5.0500002 38:8.0799999 39:0.2 40:2.02 #
9.94900427448552271414428105345 1:8 2:0 3:4 4:0 5:4 6:0 7:0 8:8 9:16 10:8 11:4 12:4 13:0 14:8 15:8 16:12 17:4 18:8 19:4 20:0 21:5.9299998 22:0.56 23:5.9299998 24:6.21 25:4.2399998 26:4.8000002 27:3.3900001 28:5.9299998 29:8.7600002 30:9.3199997 31:2.54 32:4.8000002 33:4.8000002 34:3.6700001 35:4.2399998 36:8.4700003 37:4.52 38:7.6300001 39:0.85000002 40:3.3900001 #
-2.0039999067938172316871714428999 1:4 2:0 3:0 4:0 5:8 6:20 7:0 8:4 9:8 10:8 11:4 12:0 13:0 14:0 15:8 16:24 17:0 18:8 19:0 20:4 21:8.7600002 22:0.50999999 23:4.5700002 24:8.5 25:5.0799999 26:9.2600002 27:1.52 28:5.1999998 29:7.23 30:8.3800001 31:1.65 32:4.1900001 33:4.5700002 34:4.6999998 35:5.8400002 36:5.8400002 37:4.4400001 38:6.5999999 39:0.38 40:2.79 #
-0.67354910504281928496084219659679 1:12 2:0 3:0 4:4 5:4 6:0 7:0 8:4 9:12 10:8 11:4 12:4 13:4 14:12 15:8 16:8 17:4 18:4 19:0 20:8 21:6.6700001 22:0.94999999 23:3.8099999 24:5.71 25:7.6199999 26:6.6700001 27:1.9 28:5.71 29:11.43 30:9.5200005 31:1.9 32:2.8599999 33:4.7600002 34:2.8599999 35:0.94999999 36:4.7600002 37:9.5200005 38:3.8099999 39:1.9 40:6.6700001 #
-10 1:16 2:0 3:0 4:0 5:4 6:4 7:0 8:12 9:4 10:8 11:4 12:4 13:4 14:0 15:8 16:16 17:8 18:0 19:4 20:4 21:3.8499999 22:1.1 23:4.9499998 24:6.04 25:4.1199999 26:5.4899998 27:2.47 28:6.04 29:9.6199999 30:8.5200005 31:2.47 32:3.8499999 33:6.04 34:4.4000001 35:6.8699999 36:6.8699999 37:6.5900002 38:4.9499998 39:2.75 40:3.02 #
5.6486124019897561154834875196684 1:12 2:4 3:0 4:0 5:0 6:20 7:0 8:4 9:0 10:16 11:4 12:0 13:4 14:0 15:20 16:4 17:0 18:12 19:0 20:0 21:6.9000001 22:1.42 23:4.46 24:7.71 25:4.0599999 26:6.9000001 27:3.04 28:3.45 29:3.25 30:12.37 31:2.03 32:2.6400001 33:6.4899998 34:6.6900001 35:7.9099998 36:5.8800001 37:5.27 38:5.6799998 39:0.61000001 40:3.25 #
12.45207329128268369800025539007 1:8 2:0 3:0 4:0 5:0 6:20 7:0 8:0 9:0 10:16 11:4 12:0 13:12 14:0 15:8 16:12 17:8 18:8 19:4 20:0 21:7.6500001 22:1.53 23:3.5699999 24:10.71 25:3.5699999 26:8.1599998 27:3.0599999 28:5.0999999 29:1.53 30:11.73 31:1.02 32:0 33:6.6300001 34:3.0599999 35:11.22 36:9.6899996 37:3.0599999 38:4.5900002 39:1.53 40:2.55 #
-4.9890503270228130361374496715143 1:16 2:0 3:0 4:4 5:8 6:20 7:8 8:0 9:0 10:12 11:4 12:0 13:0 14:4 15:4 16:0 17:4 18:8 19:8 20:0 21:7.71 22:2.9400001 23:5.1399999 24:5.5 25:2.9400001 26:8.6199999 27:3.49 28:3.1199999 29:3.3 30:13.39 31:1.47 32:1.1 33:8.0699997 34:4.9499998 35:4.4000001 36:8.8100004 37:5.5 38:5.1399999 39:1.1 40:3.3 #
-0.67152147676224949179868417559192 1:20 2:0 3:0 4:0 5:0 6:36 7:0 8:0 9:0 10:20 11:4 12:0 13:0 14:0 15:8 16:12 17:0 18:0 19:0 20:0 21:6.75 22:1.53 23:6.1300001 24:6.1300001 25:3.0699999 26:4.9099998 27:2.76 28:4.9099998 29:4.9099998 30:12.27 31:1.84 32:2.1500001 33:3.99 34:6.4400001 35:8.2799997 36:4.5999999 37:5.52 38:7.6700001 39:1.53 40:4.5999999 #
-10 1:16 2:12 3:0 4:0 5:4 6:16 7:0 8:4 9:0 10:12 11:4 12:0 13:4 14:4 15:16 16:4 17:0 18:0 19:4 20:0 21:6.7800002 22:0.69999999 23:6.0700002 24:9.8100004 25:3.74 26:6.3099999 27:1.4 28:5.1399999 29:10.28 30:10.05 31:2.3399999 32:3.04 33:2.0999999 34:4.21 35:5.3699999 36:8.4099998 37:4.9099998 38:5.8400002 39:1.17 40:2.3399999 #
8.306959649962173841686308151111 1:12 2:0 3:0 4:0 5:0 6:4 7:0 8:4 9:4 10:16 11:4 12:4 13:0 14:4 15:12 16:24 17:4 18:4 19:0 20:4 21:6.8600001 22:1.37 23:5.6399999 24:7.4699998 25:3.96 26:5.9499998 27:1.6799999 28:5.3400002 29:7.1599998 30:8.2299995 31:3.51 32:3.51 33:4.27 34:4.27 35:7.4699998 36:7.3200002 37:5.3400002 38:6.4000001 39:0.15000001 40:4.1199999 #
4.1005911569322801568659997428767 1:4 2:0 3:4 4:0 5:0 6:0 7:0 8:8 9:12 10:16 11:4 12:0 13:4 14:8 15:8 16:12 17:8 18:4 19:0 20:8 21:7.9299998 22:1.6799999 23:6.4899998 24:4.8099999 25:4.3299999 26:7.6900001 27:0.47999999 28:6.4899998 29:7.6900001 30:8.8900003 31:2.6400001 32:6.9699998 33:2.1600001 34:3.1199999 35:2.6400001 36:7.6900001 37:8.4099998 38:7.6900001 39:0.72000003 40:1.4400001 #
-0.07218588776089163161486794706434 1:4 2:0 3:0 4:0 5:4 6:12 7:0 8:0 9:4 10:12 11:12 12:0 13:0 14:4 15:12 16:20 17:4 18:12 19:0 20:0 21:10.05 22:0.46000001 23:4.1100001 24:8.2200003 25:2.74 26:3.2 27:0.91000003 28:5.9400001 29:9.1300001 30:10.96 31:1.37 32:4.5700002 33:2.74 34:5.48 35:3.6500001 36:9.5900002 37:4.5700002 38:9.1300001 39:0.46000001 40:2.74 #
-9.8522217035182890754185791593045 1:12 2:0 3:0 4:0 5:0 6:0 7:0 8:4 9:0 10:16 11:4 12:12 13:4 14:0 15:16 16:16 17:4 18:12 19:0 20:0 21:4.21 22:0.22 23:6.8699999 24:9.3100004 25:4.8800001 26:5.3200002 27:1.77 28:4.8800001 29:11.31 30:9.5299997 31:2.8800001 32:3.77 33:5.54 34:4.4299998 35:3.77 36:7.3200002 37:4.6599998 38:3.3299999 39:1.33 40:4.6599998 #
-7.0372740635792840890871957526542 1:16 2:0 3:0 4:4 5:4 6:4 7:0 8:8 9:8 10:8 11:4 12:4 13:0 14:0 15:12 16:20 17:0 18:4 19:0 20:4 21:11.85 22:0.74000001 23:1.48 24:9.6300001 25:4.4400001 26:5.9299998 27:1.48 28:3.7 29:5.9299998 30:11.11 31:0.74000001 32:5.1900001 33:4.4400001 34:5.9299998 35:1.48 36:11.11 37:3.7 38:10.37 39:0 40:0.74000001 #
20.205164482353172417106179636903 1:8 2:0 3:4 4:0 5:4 6:12 7:0 8:0 9:4 10:16 11:4 12:4 13:4 14:8 15:8 16:8 17:0 18:8 19:4 20:4 21:8.1999998 22:1.8200001 23:5.0100002 24:5.6900001 25:3.3 26:5.5799999 27:3.3 28:4.5599999 29:6.7199998 30:9.5699997 31:2.51 32:2.1600001 33:5.8099999 34:5.3499999 35:4.5599999 36:6.6100001 37:6.2600002 38:6.8299999 39:2.96 40:3.1900001 #
1.3703860189218382004128216067329 1:4 2:4 3:0 4:0 5:8 6:0 7:4 8:8 9:0 10:4 11:4 12:0 13:12 14:0 15:20 16:24 17:0 18:4 19:4 20:0 21:6.3299999 22:1.3099999 23:4.5900002 24:7.21 25:4.5900002 26:7.4200001 27:2.1800001 28:6.1100001 29:6.5500002 30:10.04 31:2.4000001 32:4.3699999 33:4.3699999 34:2.6199999 35:3.28 36:10.04 37:6.77 38:8.0799999 39:0.87 40:0.87 #
-4.0331263590461352563920627289917 1:4 2:4 3:0 4:0 5:0 6:20 7:0 8:4 9:0 10:32 11:4 12:4 13:0 14:0 15:4 16:8 17:8 18:4 19:0 20:4 21:6.9099998 22:1.64 23:5.5900002 24:6.25 25:6.25 26:3.95 27:2.3 28:5.5900002 29:8.5500002 30:6.25 31:0.66000003 32:6.25 33:9.54 34:4.2800002 35:5.2600002 36:5.9200001 37:4.2800002 38:5.9200001 39:0.66000003 40:3.95 #
-10 1:12 2:4 3:4 4:0 5:4 6:12 7:0 8:0 9:4 10:16 11:4 12:0 13:0 14:4 15:12 16:4 17:8 18:4 19:0 20:8 21:6.8200002 22:1.52 23:5.6799998 24:7.5799999 25:3.4100001 26:5.6799998 27:3.4100001 28:6.0599999 29:6.0599999 30:7.1999998 31:0.75999999 32:4.5500002 33:6.4400001 34:3.79 35:8.3299999 36:5.3000002 37:4.5500002 38:7.1999998 39:3.03 40:2.6500001 #
10.14489558408502212216717452975 1:20 2:0 3:0 4:0 5:8 6:0 7:0 8:4 9:4 10:0 11:8 12:0 13:12 14:0 15:16 16:8 17:16 18:4 19:0 20:0 21:5.4200001 22:0 23:7.3899999 24:11.33 25:6.4000001 26:4.4299998 27:1.97 28:2.96 29:11.33 30:9.3599997 31:1.48 32:4.9299998 33:3.9400001 34:4.9299998 35:5.4200001 36:6.4000001 37:5.4200001 38:5.9099998 39:0 40:0.99000001 #
10.389355465129051836470353009645 1:12 2:0 3:0 4:0 5:8 6:0 7:0 8:0 9:0 10:8 11:4 12:4 13:12 14:0 15:20 16:16 17:8 18:8 19:0 20:0 21:10.85 22:0.28999999 23:4.9899998 24:8.8000002 25:5.2800002 26:6.7399998 27:1.17 28:5.8699999 29:5.5700002 30:7.6199999 31:2.05 32:2.9300001 33:4.9899998 34:2.9300001 35:4.1100001 36:6.7399998 37:6.1599998 38:9.0900002 39:0.28999999 40:3.52 #
-10 1:20 2:0 3:0 4:4 5:8 6:4 7:0 8:0 9:4 10:4 11:4 12:4 13:4 14:0 15:16 16:16 17:4 18:4 19:4 20:0 21:11.26 22:1.15 23:4.5999999 24:5.0599999 25:3.45 26:11.72 27:1.61 28:5.0599999 29:5.98 30:9.6599998 31:1.38 32:3.9100001 33:5.98 34:2.53 35:5.0599999 36:6.9000001 37:4.8299999 38:7.1300001 39:0.92000002 40:1.84 #
-9.4396824937171075475816905964166 1:20 2:0 3:0 4:0 5:4 6:4 7:0 8:0 9:4 10:4 11:8 12:4 13:4 14:0 15:16 16:12 17:8 18:12 19:0 20:0 21:3.1199999 22:0 23:4.6900001 24:7.8099999 25:6.25 26:10.94 27:1.5599999 28:4.6900001 29:14.06 30:9.3800001 31:1.5599999 32:1.5599999 33:3.1199999 34:4.6900001 35:3.1199999 36:3.1199999 37:1.5599999 38:14.06 39:0 40:4.6900001 #
-3.4681454634063957342959838570096 1:12 2:0 3:0 4:0 5:8 6:0 7:0 8:4 9:0 10:8 11:4 12:8 13:0 14:12 15:20 16:16 17:4 18:4 19:0 20:0 21:1.85 22:1.85 23:5.5599999 24:3.7 25:3.7 26:9.2600002 27:0 28:5.5599999 29:5.5599999 30:14.81 31:1.85 32:5.5599999 33:3.7 34:3.7 35:5.5599999 36:5.5599999 37:5.5599999 38:7.4099998 39:1.85 40:7.4099998 #
-0.86577001182226909214989518659422 1:20 2:0 3:0 4:4 5:0 6:0 7:0 8:8 9:4 10:12 11:4 12:0 13:20 14:4 15:0 16:12 17:12 18:0 19:0 20:0 21:6.9099998 22:1.1 23:5.25 24:4.1399999 25:5.8000002 26:8.29 27:1.1 28:3.8699999 29:4.9699998 30:10.77 31:1.38 32:6.0799999 33:4.1399999 34:7.46 35:2.76 36:9.3900003 37:6.3499999 38:6.3499999 39:0.82999998 40:3.04 #
4.7693541482612999971024692058563 1:12 2:0 3:0 4:4 5:0 6:4 7:4 8:0 9:8 10:12 11:4 12:0 13:0 14:4 15:8 16:8 17:4 18:20 19:4 20:4 21:7.7199998 22:1.47 23:5.5100002 24:7.7199998 25:5.5100002 26:9.1899996 27:2.5699999 28:2.5699999 29:5.1500001 30:8.0900002 31:1.84 32:2.5699999 33:6.6199999 34:1.84 35:6.6199999 36:6.9899998 37:4.4099998 38:7.3499999 39:2.5699999 40:3.6800001 #
12.962298573207796437145589152351 1:8 2:4 3:4 4:0 5:4 6:12 7:0 8:0 9:0 10:16 11:4 12:0 13:8 14:0 15:20 16:8 17:0 18:4 19:4 20:4 21:9.0299997 22:0.63 23:5.8800001 24:6.3000002 25:2.52 26:7.1399999 27:1.05 28:7.3499999 29:7.77 30:8.6099997 31:1.05 32:2.73 33:8.6099997 34:3.3599999 35:4.6199999 36:7.3499999 37:6.0900002 38:7.77 39:1.47 40:0.63 #
-10 1:8 2:4 3:8 4:4 5:4 6:0 7:0 8:0 9:0 10:24 11:4 12:0 13:8 14:4 15:8 16:4 17:4 18:8 19:8 20:0 21:6.6100001 22:2.05 23:4.7800002 24:5.4699998 25:3.4200001 26:9.1099997 27:2.28 28:7.0599999 29:7.0599999 30:10.93 31:2.51 32:2.73 33:5.9200001 34:4.5599999 35:4.7800002 36:7.29 37:3.6400001 38:7.0599999 39:0.23 40:2.51 #
-4.0147402723057883378032784094103 1:8 2:4 3:0 4:0 5:0 6:16 7:0 8:0 9:12 10:20 11:4 12:0 13:8 14:0 15:4 16:4 17:4 18:16 19:0 20:0 21:4.0900002 22:1.17 23:6.4200001 24:4.2800002 25:3.8900001 26:8.1700001 27:1.36 28:6.23 29:8.75 30:10.89 31:2.53 32:7.1999998 33:4.8600001 34:3.1099999 35:4.4699998 36:7.1999998 37:5.8400002 38:5.8400002 39:0.77999997 40:2.9200001 #
-4.0234015030306933269343971915077 1:8 2:0 3:0 4:0 5:0 6:8 7:0 8:0 9:4 10:24 11:4 12:0 13:12 14:0 15:16 16:8 17:8 18:8 19:0 20:0 21:4.5500002 22:2.27 23:0 24:9.0900002 25:4.5500002 26:9.0900002 27:4.5500002 28:6.8200002 29:2.27 30:18.18 31:2.27 32:0 33:9.0900002 34:0 35:4.5500002 36:6.8200002 37:6.8200002 38:4.5500002 39:2.27 40:2.27 #
6.0193432725361040169786974729504 1:12 2:4 3:0 4:0 5:8 6:8 7:0 8:12 9:0 10:8 11:4 12:0 13:0 14:0 15:20 16:20 17:0 18:4 19:0 20:0 21:8.2700005 22:1.49 23:4.4699998 24:6.23 25:4.0700002 26:9.4899998 27:0.81 28:5.0100002 29:8.9399996 30:9.6199999 31:2.4400001 32:3.25 33:4.1999998 34:4.8800001 35:3.9300001 36:5.96 37:5.4200001 38:8.9399996 39:0.14 40:2.4400001 #
-0.89939858559660468273477818001993 1:12 2:0 3:0 4:4 5:0 6:20 7:0 8:0 9:0 10:8 11:4 12:0 13:4 14:0 15:20 16:20 17:0 18:4 19:4 20:0 21:9.5799999 22:4.79 23:4.79 24:5.9899998 25:1.8 26:3.5899999 27:3.5899999 28:5.9899998 29:4.79 30:13.17 31:0 32:2.4000001 33:4.1900001 34:3.5899999 35:3.5899999 36:4.1900001 37:7.1900001 38:7.1900001 39:1.2 40:8.3800001 #
-8.7629082393300095077393052633852 1:20 2:0 3:0 4:0 5:4 6:0 7:0 8:0 9:8 10:8 11:4 12:0 13:0 14:4 15:12 16:24 17:8 18:8 19:0 20:0 21:10.11 22:0 23:4.4899998 24:6.1799998 25:4.4899998 26:5.6199999 27:2.8099999 28:5.6199999 29:6.1799998 30:7.8699999 31:2.8099999 32:2.25 33:8.9899998 34:3.9300001 35:0.56 36:9.5500002 37:7.8699999 38:8.9899998 39:0.56 40:1.12 #
-10 1:16 2:0 3:0 4:0 5:8 6:12 7:0 8:8 9:4 10:8 11:4 12:0 13:0 14:0 15:16 16:16 17:0 18:8 19:0 20:0 21:7.5799999 22:1.46 23:5.25 24:7.5799999 25:5.54 26:7 27:1.75 28:4.3699999 29:6.71 30:8.75 31:1.75 32:4.0799999 33:5.25 34:4.3699999 35:5.54 36:7.8699999 37:4.6599998 38:6.1199999 39:1.17 40:3.21 #
7.9408581711117411927602915966418 1:12 2:0 3:4 4:0 5:0 6:8 7:4 8:4 9:12 10:28 11:4 12:0 13:8 14:4 15:4 16:4 17:4 18:0 19:0 20:0 21:4.3099999 22:0 23:6.2199998 24:6.6999998 25:2.8699999 26:6.6999998 27:0.95999998 28:6.6999998 29:8.1300001 30:14.35 31:0.47999999 32:2.8699999 33:5.7399998 34:3.8299999 35:5.2600002 36:8.1300001 37:8.1300001 38:4.3099999 39:0.95999998 40:3.3499999 #
15.050370813812950387955424957909 1:0 2:0 3:0 4:0 5:4 6:4 7:4 8:0 9:8 10:16 11:12 12:4 13:4 14:0 15:12 16:4 17:12 18:8 19:0 20:8 21:2.9300001 22:1.35 23:7.21 24:7.6599998 25:4.0500002 26:4.0500002 27:2.9300001 28:7.8800001 29:8.5600004 30:8.7799997 31:2.25 32:5.8600001 33:4.2800002 34:2.7 35:5.6300001 36:6.98 37:5.6300001 38:6.0799999 39:2.25 40:2.9300001 #
-9.996982459694594425059221975971 1:4 2:0 3:0 4:0 5:4 6:4 7:8 8:4 9:8 10:24 11:8 12:0 13:0 14:8 15:12 16:8 17:4 18:0 19:4 20:0 21:7.5599999 22:1.05 23:5.6700001 24:10.08 25:4.1999998 26:2.73 27:1.47 28:5.6700001 29:10.5 30:11.76 31:2.73 32:5.04 33:3.78 34:3.99 35:5.04 36:7.77 37:3.1500001 38:3.78 39:1.05 40:2.9400001 #
-5.8380247567363321437028389482293 1:4 2:0 3:0 4:8 5:12 6:0 7:0 8:0 9:16 10:20 11:4 12:0 13:0 14:12 15:4 16:4 17:8 18:4 19:0 20:4 21:4.1700001 22:3.47 23:5.21 24:5.9000001 25:5.9000001 26:3.8199999 27:2.4300001 28:7.29 29:7.6399999 30:14.58 31:2.4300001 32:4.5100002 33:2.0799999 34:3.1199999 35:3.8199999 36:10.07 37:5.21 38:4.8600001 39:0 40:3.47 #
7.9975660500170562272614915855229 1:12 2:0 3:0 4:0 5:8 6:4 7:0 8:4 9:0 10:8 11:4 12:8 13:0 14:4 15:12 16:20 17:12 18:4 19:0 20:0 21:11.47 22:1.15 23:5.9299998 24:4.7800002 25:3.4400001 26:7.46 27:4.21 28:5.9299998 29:6.3099999 30:8.9899998 31:1.53 32:4.9699998 33:4.02 34:3.25 35:3.6300001 36:7.0700002 37:5.7399998 38:6.5 39:0.75999999 40:2.8699999 #
6.4326475480267788498167647048831 1:16 2:0 3:0 4:0 5:8 6:4 7:0 8:8 9:0 10:4 11:8 12:4 13:8 14:4 15:16 16:8 17:8 18:4 19:0 20:0 21:6.8600001 22:0.56999999 23:6.29 24:8.29 25:4.29 26:5.71 27:3.1400001 28:7.4299998 29:5.4299998 30:6 31:2 32:4.5700002 33:4.5700002 34:2.8599999 35:7.4299998 36:5.1399999 37:6.29 38:7.71 39:0.86000001 40:4.5700002 #
10.095530994600213858802817412652 1:4 2:8 3:0 4:0 5:4 6:0 7:0 8:0 9:8 10:16 11:4 12:4 13:4 14:0 15:20 16:12 17:4 18:4 19:8 20:0 21:3.6300001 22:1.27 23:5.6300001 24:6.3499999 25:5.2600002 26:5.0799999 27:1.63 28:6.5300002 29:8.3500004 30:12.34 31:2 32:6.1700001 33:4.7199998 34:4.9000001 35:4.54 36:7.4400001 37:5.0799999 38:5.0799999 39:0.36000001 40:3.6300001 #
14.129151427502190330187659128569 1:8 2:0 3:0 4:0 5:12 6:0 7:0 8:4 9:12 10:16 11:4 12:0 13:4 14:0 15:8 16:12 17:4 18:12 19:0 20:4 21:4.3499999 22:1.12 23:6.3200002 24:5.7600002 25:4.3499999 26:4.9200001 27:2.25 28:6.7399998 29:9.1300001 30:10.81 31:2.6700001 32:5.48 33:4.4899998 34:2.95 35:4.4899998 36:7.8699999 37:5.1999998 38:6.04 39:1.12 40:3.9300001 #
-2.0062079020502556758742684905883 1:8 2:4 3:0 4:0 5:4 6:0 7:0 8:4 9:4 10:24 11:4 12:4 13:4 14:0 15:24 16:12 17:0 18:4 19:0 20:0 21:9.3999996 22:0.28 23:5.4099998 24:7.6900001 25:4.27 26:5.1300001 27:1.14 28:4.27 29:7.98 30:9.1199999 31:1.14 32:2.8499999 33:6.8400002 34:3.4200001 35:5.98 36:6.8400002 37:6.27 38:5.4099998 39:1.14 40:5.4099998 #
-9.4330175593060410221823985921219 1:8 2:0 3:0 4:0 5:12 6:0 7:0 8:0 9:0 10:8 11:4 12:0 13:8 14:4 15:20 16:12 17:4 18:8 19:4 20:8 21:5.0500002 22:0.54000002 23:8.1199999 24:3.0699999 25:6.1399999 26:4.6900001 27:1.08 28:9.21 29:6.6799998 30:10.11 31:1.26 32:6.1399999 33:3.97 34:3.6099999 35:5.7800002 36:8.1199999 37:5.4200001 38:5.4200001 39:1.99 40:3.6099999 #
-1.0231871989415053381122788778157 1:12 2:0 3:0 4:0 5:12 6:16 7:0 8:0 9:0 10:8 11:4 12:0 13:8 14:4 15:8 16:12 17:8 18:4 19:4 20:0 21:7.9400001 22:3.1700001 23:5.0799999 24:6.0300002 25:2.54 26:6.3499999 27:1.27 28:3.8099999 29:3.49 30:12.7 31:1.9 32:2.54 33:5.4000001 34:4.1300001 35:9.21 36:6.3499999 37:5.71 38:7.6199999 39:1.9 40:2.8599999 #
2.1931885788726805941450948012061 1:12 2:4 3:0 4:0 5:4 6:4 7:4 8:0 9:0 10:20 11:8 12:0 13:4 14:8 15:8 16:16 17:0 18:4 19:0 20:4 21:6.9499998 22:2.3199999 23:5.8899999 24:6.1100001 25:6.1100001 26:7.1599998 27:3.1600001 28:6.5300002 29:6.3200002 30:9.2600002 31:2.74 32:4.6300001 33:5.2600002 34:4 35:5.8899999 36:5.8899999 37:3.5799999 38:4.8400002 39:1.05 40:2.3199999 #
-10 1:12 2:4 3:0 4:4 5:0 6:0 7:0 8:8 9:20 10:16 11:4 12:4 13:4 14:0 15:8 16:8 17:4 18:0 19:0 20:4 21:7.4200001 22:1.24 23:6.3600001 24:6.71 25:2.6500001 26:6.71 27:1.59 28:5.6500001 29:8.8299999 30:9.7200003 31:1.59 32:4.5900002 33:5.8299999 34:3.3599999 35:4.2399998 36:6.0100002 37:5.1199999 38:8.1300001 39:1.0599999 40:3.1800001 #
-5.195661177885064319070806959644 1:4 2:4 3:0 4:0 5:0 6:8 7:0 8:4 9:4 10:28 11:8 12:8 13:8 14:0 15:20 16:4 17:0 18:0 19:0 20:0 21:6.1500001 22:1.34 23:5.48 24:4.4099998 25:4.8099999 26:6.02 27:1.6 28:7.75 29:6.8200002 30:10.96 31:1.47 32:4.2800002 33:4.4099998 34:4.0100002 35:4.5500002 36:10.56 37:6.8200002 38:6.02 39:0.13 40:2.4100001 #
23.481994553363414013347210129723 1:16 2:4 3:4 4:4 5:4 6:0 7:0 8:8 9:0 10:12 11:4 12:4 13:4 14:4 15:16 16:4 17:8 18:4 19:0 20:0 21:4.9000001 22:1.11 23:6 24:7.1100001 25:6 26:5.0599999 27:1.9 28:6.48 29:9.6400003 30:9.3199997 31:2.21 32:5.6900001 33:5.21 34:3.48 35:4.7399998 36:6.9499998 37:4.4200001 38:5.5300002 39:0.79000002 40:3.48 #
8.114994069377651442209753440693 1:16 2:4 3:4 4:0 5:4 6:16 7:0 8:4 9:8 10:4 11:8 12:0 13:0 14:4 15:12 16:4 17:0 18:12 19:0 20:0 21:8.96 22:0.94 23:4.25 24:5.6599998 25:3.3 26:11.32 27:3.77 28:4.7199998 29:6.5999999 30:11.79 31:2.3599999 32:4.7199998 33:1.42 34:3.3 35:4.7199998 36:5.1900001 37:4.7199998 38:10.85 39:0 40:1.42 #
-6.6182204505405604066936575691216 1:28 2:0 3:4 4:4 5:4 6:4 7:0 8:4 9:0 10:8 11:8 12:0 13:0 14:4 15:16 16:8 17:8 18:0 19:0 20:0 21:4.4699998 22:2.8499999 23:4.0700002 24:5.2800002 25:3.6600001 26:4.8800001 27:5.8899999 28:3.25 29:4.8800001 30:11.59 31:2.24 32:3.25 33:6.9099998 34:5.4899998 35:5.2800002 36:9.7600002 37:5.6900001 38:6.3000002 39:1.83 40:2.4400001 #
0.7313258217692484297600685749785 1:0 2:0 3:0 4:0 5:4 6:4 7:0 8:4 9:8 10:24 11:4 12:16 13:4 14:4 15:8 16:12 17:4 18:0 19:0 20:4 21:7.1199999 22:0.16 23:6.8000002 24:6.8000002 25:3.3199999 26:6.8000002 27:0.63 28:9.6499996 29:8.2299995 30:8.3900003 31:1.74 32:6.6500001 33:3.6400001 34:4.27 35:4.27 36:6.4899998 37:6.4899998 38:6.6500001 39:0 40:1.9 #
3.4349105264565649164865135389846 1:0 2:0 3:0 4:0 5:0 6:16 7:0 8:8 9:8 10:16 11:4 12:4 13:8 14:4 15:12 16:8 17:4 18:0 19:4 20:4 21:6.3800001 22:1.75 23:5.4200001 24:7.6599998 25:4.7800002 26:5.7399998 27:3.3499999 28:4.6300001 29:4.9400001 30:12.44 31:1.91 32:1.75 33:6.2199998 34:4.6300001 35:6.8600001 36:6.8600001 37:5.4200001 38:5.5799999 39:0.95999998 40:2.71 #
-4.061425456620007423680362990126 1:4 2:0 3:8 4:4 5:0 6:12 7:4 8:4 9:16 10:12 11:4 12:4 13:4 14:0 15:4 16:4 17:4 18:4 19:0 20:8 21:7.9699998 22:0.40000001 23:6.3699999 24:2.79 25:5.1799998 26:7.5700002 27:1.99 28:5.98 29:7.9699998 30:9.1599998 31:0.40000001 32:4.7800002 33:3.1900001 34:2.79 35:1.59 36:11.55 37:10.36 38:7.9699998 39:0.40000001 40:1.59 #
-10 1:8 2:0 3:0 4:0 5:4 6:4 7:0 8:4 9:4 10:20 11:8 12:8 13:4 14:0 15:12 16:8 17:4 18:4 19:0 20:8 21:5.0999999 22:0.23 23:4.6399999 24:10.44 25:4.1799998 26:2.78 27:1.62 28:5.8000002 29:9.7399998 30:10.67 31:1.62 32:6.2600002 33:1.86 34:5.8000002 35:6.0300002 36:8.5799999 37:6.0300002 38:3.48 39:1.86 40:3.25 #
-2.3779820274176852734626663732342 1:32 2:4 3:0 4:0 5:0 6:16 7:0 8:0 9:4 10:8 11:4 12:0 13:0 14:0 15:12 16:8 17:0 18:8 19:4 20:0 21:6.3600001 22:0.98000002 23:4.4000001 24:8.5600004 25:8.0699997 26:6.5999999 27:3.1800001 28:4.8899999 29:9.0500002 30:8.8000002 31:3.4200001 32:2.6900001 33:1.96 34:4.8899999 35:5.3800001 36:6.3600001 37:5.6199999 38:5.1300001 39:1.47 40:2.2 #
-0.59240720550687075984797047567554 1:28 2:8 3:0 4:0 5:0 6:4 7:0 8:4 9:4 10:4 11:4 12:0 13:0 14:0 15:4 16:4 17:8 18:28 19:0 20:0 21:7.5500002 22:0.41999999 23:6.29 24:7.3400002 25:3.98 26:8.8100004 27:2.52 28:6.0799999 29:6.71 30:10.9 31:3.5599999 32:2.52 33:3.5599999 34:1.6799999 35:4.4000001 36:8.3900003 37:4.6100001 38:7.9699998 39:0.83999997 40:1.89 #
8.2583531020268825528773959376849 1:0 2:4 3:0 4:4 5:0 6:4 7:0 8:0 9:0 10:20 11:4 12:8 13:4 14:0 15:12 16:20 17:4 18:12 19:0 20:4 21:4.9299998 22:1.28 23:6.21 24:4.0700002 25:4.71 26:7.0700002 27:1.71 28:7.4899998 29:7.2800002 30:10.71 31:1.28 32:5.7800002 33:3.21 34:4.71 35:5.3499999 36:8.1400003 37:5.1399999 38:6.4200001 39:0.63999999 40:3.8499999 #
-0.54145982487739985344887827523053 1:16 2:4 3:0 4:0 5:8 6:4 7:0 8:0 9:8 10:8 11:4 12:4 13:20 14:4 15:8 16:8 17:0 18:0 19:0 20:4 21:8.6499996 22:0 23:7.6900001 24:8.6499996 25:5.77 26:1.92 27:6.73 28:3.8499999 29:9.6199999 30:4.8099999 31:2.8800001 32:4.8099999 33:4.8099999 34:0.95999998 35:3.8499999 36:4.8099999 37:4.8099999 38:8.6499996 39:4.8099999 40:1.92 #
2.9002919194366927335693162604002 1:4 2:0 3:0 4:0 5:8 6:4 7:8 8:4 9:4 10:24 11:4 12:8 13:0 14:0 15:8 16:20 17:4 18:0 19:0 20:0 21:8.2799997 22:1.12 23:5.5900002 24:6.2600002 25:4.0300002 26:5.8200002 27:2.46 28:5.8200002 29:3.5799999 30:6.4899998 31:2.46 32:5.3699999 33:5.1500001 34:5.1500001 35:6.9400001 36:8.0500002 37:5.3699999 38:6.71 39:1.5700001 40:3.8 #
-10 1:8 2:0 3:0 4:0 5:4 6:8 7:0 8:8 9:0 10:16 11:4 12:4 13:4 14:8 15:12 16:16 17:8 18:0 19:0 20:0 21:9.4099998 22:2.6300001 23:6.0900002 24:6.2199998 25:3.73 26:7.0500002 27:1.24 28:5.3899999 29:5.8099999 30:7.0500002 31:2.77 32:4.4299998 33:5.9499998 34:3.04 35:5.5300002 36:6.5 37:4.8400002 38:9.4099998 39:0.82999998 40:2.0699999 #
-4.9818736241740619874462936422788 1:24 2:0 3:0 4:0 5:0 6:8 7:4 8:0 9:0 10:16 11:8 12:0 13:0 14:0 15:12 16:16 17:4 18:8 19:0 20:0 21:6.0999999 22:0 23:4.8800001 24:8.54 25:7.3200002 26:7.9299998 27:3.6600001 28:9.1499996 29:6.71 30:9.7600002 31:1.22 32:1.83 33:7.3200002 34:0.61000001 35:8.54 36:2.4400001 37:4.8800001 38:3.6600001 39:1.83 40:3.6600001 #
-1.0378516300519637916011106426595 1:12 2:12 3:4 4:4 5:0 6:0 7:0 8:8 9:12 10:4 11:8 12:0 13:4 14:8 15:4 16:8 17:0 18:12 19:0 20:0 21:3.6099999 22:4.8200002 23:8.4300003 24:8.4300003 25:3.6099999 26:4.8200002 27:1.2 28:2.4100001 29:12.05 30:12.05 31:3.6099999 32:7.23 33:6.02 34:7.23 35:4.8200002 36:2.4100001 37:3.6099999 38:1.2 39:0 40:2.4100001 #
6.4994006963828141465455701109022 1:4 2:0 3:0 4:0 5:0 6:8 7:0 8:4 9:0 10:12 11:4 12:0 13:4 14:8 15:12 16:24 17:0 18:16 19:0 20:4 21:8.75 22:0.52999997 23:5.3099999 24:4.5100002 25:4.77 26:8.4899998 27:2.1199999 28:5.04 29:6.0999999 30:9.0200005 31:3.71 32:3.71 33:6.3699999 34:2.6500001 35:5.04 36:6.6300001 37:5.04 38:8.2200003 39:0.52999997 40:3.45 #
6.2958416866116282406551363237668 1:4 2:0 3:0 4:0 5:4 6:4 7:0 8:4 9:0 10:16 11:4 12:4 13:8 14:0 15:16 16:8 17:16 18:12 19:0 20:0 21:11.67 22:0.82999998 23:3.3299999 24:5.8299999 25:5 26:2.5 27:2.5 28:4.1700001 29:8.3299999 30:5.8299999 31:2.5 32:10 33:5.8299999 34:4.1700001 35:0.82999998 36:9.1700001 37:2.5 38:11.67 39:0 40:3.3299999 #
9.9357288381855060066527585149743 1:4 2:0 3:0 4:0 5:8 6:12 7:4 8:4 9:0 10:12 11:4 12:8 13:0 14:0 15:16 16:12 17:8 18:4 19:4 20:0 21:7.5599999 22:2.22 23:4.8899999 24:4.8899999 25:4.4400001 26:5.3299999 27:0.88999999 28:7.1100001 29:13.33 30:5.3299999 31:1.33 32:4.4400001 33:7.1100001 34:3.1099999 35:4.8899999 36:11.11 37:4.4400001 38:5.3299999 39:0.88999999 40:1.33 #
-10 1:8 2:4 3:0 4:0 5:8 6:4 7:0 8:4 9:8 10:12 11:4 12:8 13:0 14:4 15:12 16:16 17:0 18:4 19:0 20:4 21:4.71 22:2.1700001 23:7.6100001 24:7.25 25:6.52 26:6.52 27:1.45 28:6.1599998 29:6.8800001 30:9.4200001 31:0 32:3.6199999 33:5.8000002 34:3.6199999 35:7.25 36:6.8800001 37:4.3499999 38:2.9000001 39:1.09 40:5.8000002 #
-0.027943725081913228791563597042114 1:28 2:0 3:0 4:4 5:0 6:8 7:0 8:0 9:0 10:20 11:4 12:0 13:4 14:4 15:4 16:4 17:4 18:8 19:8 20:0 21:7.9299998 22:3.0799999 23:3.52 24:6.1700001 25:4.4099998 26:6.6100001 27:3.0799999 28:3.0799999 29:2.6400001 30:12.78 31:0.88 32:2.6400001 33:5.73 34:4.8499999 35:11.01 36:7.0500002 37:5.29 38:5.73 39:1.76 40:1.76 #
-3.4257081306965115885532213724218 1:4 2:0 3:0 4:4 5:0 6:12 7:0 8:8 9:0 10:4 11:4 12:12 13:12 14:12 15:0 16:20 17:8 18:0 19:0 20:0 21:7.6900001 22:0 23:4.1999998 24:4.1999998 25:5.5900002 26:12.59 27:2.0999999 28:4.9000001 29:11.89 30:9.79 31:2.8 32:6.9899998 33:2.8 34:3.5 35:1.4 36:4.9000001 37:7.6900001 38:4.1999998 39:0 40:2.8 #
-1.0564801959211593818110941356281 1:0 2:0 3:8 4:0 5:0 6:0 7:0 8:8 9:4 10:8 11:4 12:12 13:8 14:0 15:0 16:20 17:20 18:0 19:0 20:8 21:10.37 22:0 23:3.05 24:4.8800001 25:6.71 26:11.59 27:2.4400001 28:1.22 29:4.27 30:7.3200002 31:4.8800001 32:2.4400001 33:4.8800001 34:4.8800001 35:7.3200002 36:6.0999999 37:2.4400001 38:8.54 39:0.61000001 40:6.0999999 #
-2.9300267693272683544591927784495 1:4 2:0 3:8 4:0 5:4 6:0 7:0 8:8 9:4 10:8 11:4 12:4 13:16 14:12 15:4 16:8 17:8 18:4 19:0 20:4 21:8.8599997 22:5.0599999 23:4.4299998 24:7.5900002 25:3.8 26:4.4299998 27:1.9 28:3.8 29:7.5900002 30:6.3299999 31:1.9 32:6.96 33:8.2299995 34:4.4299998 35:6.3299999 36:6.3299999 37:3.1600001 38:4.4299998 39:2.53 40:1.9 #
-1.9143724717761461118215038368362 1:20 2:0 3:0 4:0 5:0 6:8 7:0 8:12 9:0 10:12 11:4 12:4 13:4 14:4 15:4 16:12 17:12 18:0 19:0 20:4 21:12.03 22:0 23:5.0599999 24:10.13 25:3.8 26:3.1600001 27:0.63 28:6.3299999 29:8.2299995 30:6.96 31:2.53 32:3.1600001 33:5.6999998 34:6.3299999 35:5.0599999 36:6.3299999 37:3.8 38:6.3299999 39:0 40:4.4299998 #
16.232337998546796598020591773093 1:16 2:4 3:0 4:0 5:0 6:12 7:0 8:4 9:0 10:12 11:4 12:0 13:4 14:4 15:16 16:12 17:8 18:4 19:0 20:0 21:7.77 22:1.73 23:5.1799998 24:6.04 25:4.3200002 26:7.5999999 27:2.76 28:6.3899999 29:5.6999998 30:10.19 31:2.4200001 32:3.97 33:5.5300002 34:3.97 35:5.1799998 36:4.8400002 37:4.8400002 38:7.0799999 39:0.51999998 40:3.97 #
9.3588188486936587651143781840801 1:16 2:4 3:0 4:0 5:4 6:0 7:0 8:0 9:0 10:16 11:4 12:4 13:8 14:4 15:24 16:8 17:4 18:4 19:0 20:0 21:8.8800001 22:0.91000003 23:4.8899999 24:7.0700002 25:2.72 26:7.79 27:1.8099999 28:3.6199999 29:3.99 30:10.33 31:2.72 32:4.1700001 33:5.0700002 34:3.4400001 35:6.3400002 36:8.8800001 37:7.4299998 38:6.3400002 39:0.72000003 40:2.9000001 #
-1.939192473238710467953183069767 1:4 2:0 3:8 4:12 5:8 6:4 7:0 8:0 9:0 10:12 11:4 12:0 13:8 14:0 15:20 16:8 17:0 18:4 19:4 20:4 21:4.4899998 22:0.56 23:5.9000001 24:6.7399998 25:5.9000001 26:5.0599999 27:1.6900001 28:5.0599999 29:7.3000002 30:10.39 31:2.25 32:4.7800002 33:7.02 34:1.97 35:6.46 36:8.1499996 37:5.0599999 38:5.6199999 39:2.53 40:3.0899999 #
-5.9574903920220272368624137016013 1:8 2:0 3:8 4:0 5:0 6:0 7:4 8:12 9:8 10:8 11:4 12:0 13:4 14:4 15:8 16:16 17:0 18:12 19:0 20:4 21:3.02 22:1.01 23:3.77 24:5.7800002 25:4.77 26:4.52 27:0.75 28:6.7800002 29:9.5500002 30:14.07 31:1.51 32:6.5300002 33:4.52 34:3.52 35:4.02 36:7.29 37:7.04 38:4.77 39:2.26 40:4.52 #
-3.5637153894022670641561489901505 1:0 2:0 3:0 4:0 5:12 6:16 7:4 8:4 9:0 10:20 11:4 12:0 13:16 14:0 15:16 16:0 17:0 18:8 19:0 20:0 21:9.4399996 22:2.1099999 23:2.6800001 24:5.77 25:3.9400001 26:9.1499996 27:2.3900001 28:2.8199999 29:2.96 30:13.38 31:2.3900001 32:2.1099999 33:4.23 34:4.79 35:7.04 36:7.1799998 37:5.77 38:8.8699999 39:1.27 40:1.6900001 #
5.4271656306085604981603864871431 1:4 2:0 3:4 4:0 5:8 6:4 7:4 8:0 9:12 10:12 11:4 12:4 13:0 14:12 15:12 16:0 17:8 18:12 19:0 20:0 21:6.3299999 22:1.27 23:5.0599999 24:10.13 25:1.27 26:2.53 27:2.53 28:7.5900002 29:11.39 30:11.39 31:1.27 32:6.3299999 33:3.8 34:3.8 35:5.0599999 36:6.3299999 37:6.3299999 38:6.3299999 39:0 40:1.27 #
-10 1:12 2:4 3:0 4:0 5:8 6:4 7:0 8:0 9:4 10:8 11:4 12:8 13:0 14:8 15:12 16:12 17:4 18:8 19:0 20:4 21:8.21 22:0.36000001 23:5.1100001 24:10.95 25:4.0100002 26:2.55 27:1.09 28:5.1100001 29:11.68 30:9.8500004 31:1.8200001 32:4.0100002 33:5.29 34:3.47 35:3.8299999 36:8.0299997 37:5.8400002 38:5.29 39:0.36000001 40:3.0999999 #
-8.8644953388812215422376539208926 1:4 2:4 3:4 4:0 5:4 6:4 7:0 8:12 9:8 10:12 11:4 12:0 13:8 14:4 15:4 16:16 17:4 18:4 19:0 20:4 21:11.76 22:0 23:5.8800001 24:11.76 25:1.96 26:1.96 27:2.9400001 28:7.8400002 29:6.8600001 30:12.75 31:0.98000002 32:4.9000001 33:5.8800001 34:3.9200001 35:5.8800001 36:1.96 37:2.9400001 38:3.9200001 39:0.98000002 40:4.9000001 #
3.4717490383060352066024734085659 1:8 2:4 3:0 4:0 5:0 6:12 7:4 8:0 9:0 10:32 11:8 12:0 13:8 14:0 15:16 16:8 17:0 18:0 19:0 20:0 21:4.9200001 22:2.73 23:4.9200001 24:3.8299999 25:6.0100002 26:14.21 27:3.28 28:3.8299999 29:8.7399998 30:5.46 31:1.64 32:4.3699999 33:4.3699999 34:2.1900001 35:2.73 36:10.93 37:5.46 38:8.1999998 39:0.55000001 40:1.64 #
-0.27579151278456814910811090157949 1:16 2:0 3:0 4:0 5:0 6:16 7:0 8:0 9:0 10:48 11:4 12:0 13:4 14:0 15:8 16:4 17:0 18:0 19:0 20:0 21:5.75 22:0.88 23:2.6500001 24:5.75 25:7.0799999 26:7.0799999 27:1.33 28:1.33 29:3.54 30:14.16 31:1.77 32:3.98 33:4.4200001 34:2.21 35:6.6399999 36:10.62 37:3.54 38:11.95 39:2.21 40:3.0999999 #
3.8142234498901146366733883041888 1:0 2:4 3:0 4:0 5:4 6:0 7:8 8:8 9:4 10:4 11:4 12:4 13:8 14:4 15:8 16:12 17:8 18:12 19:0 20:8 21:3.45 22:1.27 23:5.6399999 24:6.3600001 25:5.0900002 26:5.0900002 27:2.3599999 28:7.6399999 29:8.5500002 30:9.6400003 31:1.45 32:6 33:4.73 34:4.5500002 35:4.73 36:8.1800003 37:3.8199999 38:5.27 39:2 40:4.1799998 #
-7.3205053083756430609696508327033 1:8 2:0 3:0 4:0 5:4 6:0 7:0 8:12 9:0 10:12 11:4 12:4 13:0 14:8 15:16 16:20 17:0 18:8 19:4 20:0 21:4.8200002 22:0 23:8.4300003 24:8.4300003 25:8.4300003 26:6.02 27:0 28:2.4100001 29:10.84 30:6.02 31:2.4100001 32:3.6099999 33:7.23 34:7.23 35:4.8200002 36:2.4100001 37:6.02 38:7.23 39:0 40:3.6099999 #
0.21344186129929632045332255074754 1:16 2:0 3:4 4:0 5:4 6:4 7:4 8:4 9:4 10:8 11:4 12:8 13:0 14:0 15:20 16:4 17:12 18:0 19:0 20:4 21:8.1599998 22:2.04 23:8.1599998 24:6.1199999 25:2.04 26:4.0799999 27:3.0599999 28:3.0599999 29:11.22 30:10.2 31:2.04 32:4.0799999 33:6.1199999 34:4.0799999 35:7.1399999 36:4.0799999 37:7.1399999 38:6.1199999 39:0 40:1.02 #
-8.479570815706601649708318291232 1:12 2:4 3:8 4:8 5:4 6:0 7:0 8:0 9:0 10:12 11:4 12:0 13:8 14:8 15:12 16:0 17:8 18:4 19:4 20:4 21:5.9699998 22:0.66000003 23:5.5300002 24:6.4200001 25:4.1999998 26:10.4 27:0.88 28:7.3000002 29:7.7399998 30:9.96 31:3.54 32:3.54 33:3.0999999 34:4.8699999 35:3.76 36:5.3099999 37:5.75 38:5.75 39:1.77 40:3.54 #
-10 1:12 2:0 3:0 4:4 5:4 6:4 7:0 8:4 9:4 10:16 11:4 12:4 13:0 14:4 15:16 16:8 17:8 18:4 19:4 20:0 21:7.1599998 22:0.64999998 23:1.95 24:4.5599999 25:4.77 26:6.5100002 27:2.1700001 28:6.29 29:7.3800001 30:12.36 31:3.25 32:3.25 33:4.77 34:3.04 35:4.9899998 36:8.6800003 37:6.0700002 38:6.9400001 39:3.04 40:2.1700001 #
-4.87240887197328031987808572012 1:12 2:0 3:0 4:0 5:8 6:8 7:4 8:4 9:0 10:8 11:4 12:4 13:0 14:4 15:16 16:8 17:16 18:4 19:0 20:0 21:8.5900002 22:0 23:3.9100001 24:6.25 25:2.3399999 26:7.8099999 27:0 28:2.3399999 29:8.5900002 30:8.5900002 31:3.1199999 32:4.6900001 33:4.6900001 34:7.8099999 35:3.9100001 36:10.16 37:2.3399999 38:7.0300002 39:4.6900001 40:3.1199999 #
-4.8735812228013450919661408988759 1:12 2:0 3:0 4:0 5:8 6:0 7:0 8:4 9:0 10:20 11:4 12:0 13:4 14:0 15:12 16:8 17:20 18:4 19:0 20:4 21:10.26 22:0 23:5.1300001 24:12.82 25:7.6900001 26:7.6900001 27:7.6900001 28:7.6900001 29:12.82 30:5.1300001 31:0 32:5.1300001 33:0 34:2.5599999 35:2.5599999 36:0 37:0 38:5.1300001 39:2.5599999 40:5.1300001 #
14.194597259646378972774982685223 1:8 2:0 3:0 4:0 5:4 6:8 7:0 8:4 9:0 10:8 11:8 12:4 13:4 14:8 15:12 16:16 17:0 18:4 19:8 20:4 21:6.3200002 22:1.76 23:5.3899999 24:6.6700001 25:4.0999999 26:7.73 27:2.8099999 28:5.04 29:5.04 30:10.07 31:3.28 32:3.51 33:4.3299999 34:4.5700002 35:4.9200001 36:6.6700001 37:5.27 38:6.4400001 39:1.87 40:4.2199998 #
-10 1:8 2:0 3:0 4:0 5:8 6:12 7:4 8:4 9:4 10:8 11:12 12:0 13:4 14:4 15:12 16:8 17:0 18:4 19:4 20:4 21:5.79 22:0 23:4.96 24:8.2600002 25:4.96 26:8.2600002 27:4.1300001 28:5.79 29:8.2600002 30:12.4 31:0 32:2.48 33:4.96 34:5.79 35:3.3099999 36:6.6100001 37:0 38:7.4400001 39:0.82999998 40:5.79 #
-0.13702628593764853981440410279902 1:20 2:0 3:0 4:0 5:0 6:12 7:0 8:0 9:0 10:12 11:4 12:4 13:32 14:0 15:0 16:8 17:0 18:8 19:0 20:0 21:7.7399998 22:1.79 23:2.98 24:4.46 25:4.1700001 26:11.61 27:2.98 28:2.3800001 29:4.46 30:11.01 31:1.79 32:4.46 33:6.8499999 34:4.7600002 35:2.6800001 36:7.7399998 37:7.7399998 38:6.8499999 39:0.88999999 40:2.6800001 #
-0.93817133903646343640048144152388 1:0 2:4 3:8 4:12 5:4 6:4 7:4 8:8 9:8 10:0 11:4 12:0 13:4 14:4 15:8 16:12 17:8 18:4 19:0 20:4 21:8.5500002 22:5.1300001 23:6.8400002 24:17.950001 25:3.4200001 26:6.8400002 27:1.71 28:3.4200001 29:5.1300001 30:4.27 31:2.5599999 32:4.27 33:7.6900001 34:5.1300001 35:1.71 36:5.98 37:3.4200001 38:1.71 39:0.85000002 40:3.4200001 #
7.0886023409978466958136777975596 1:12 2:0 3:0 4:0 5:0 6:0 7:0 8:0 9:0 10:16 11:4 12:0 13:0 14:4 15:20 16:20 17:16 18:8 19:0 20:0 21:8.0699997 22:1.4 23:5.4299998 24:6.52 25:3.4200001 26:6.6799998 27:2.6400001 28:5.75 29:5.5900002 30:9.4700003 31:1.71 32:4.3499999 33:6.0599999 34:3.8800001 35:6.21 36:5.5900002 37:6.3699999 38:6.9899998 39:0.77999997 40:3.1099999 #
-0.81675199214035387740295846015215 1:24 2:0 3:0 4:4 5:0 6:4 7:0 8:8 9:0 10:4 11:4 12:0 13:0 14:0 15:4 16:20 17:12 18:12 19:4 20:0 21:6.02 22:3.6099999 23:8.4300003 24:4.8200002 25:4.8200002 26:6.02 27:6.02 28:7.23 29:14.46 30:4.8200002 31:2.4100001 32:6.02 33:3.6099999 34:1.2 35:4.8200002 36:1.2 37:3.6099999 38:4.8200002 39:1.2 40:4.8200002 #
-4.9047601733673449331263327621855 1:16 2:0 3:0 4:0 5:0 6:8 7:0 8:0 9:0 10:16 11:4 12:0 13:12 14:0 15:20 16:16 17:0 18:8 19:0 20:0 21:5.8099999 22:0 23:2.3299999 24:8.1400003 25:5.8099999 26:9.3000002 27:8.1400003 28:1.16 29:3.49 30:8.1400003 31:3.49 32:4.6500001 33:10.47 34:0 35:5.8099999 36:5.8099999 37:4.6500001 38:6.98 39:2.3299999 40:3.49 #
3.2158739500744846218083239364205 1:0 2:0 3:0 4:0 5:4 6:8 7:4 8:16 9:4 10:0 11:4 12:4 13:4 14:8 15:8 16:20 17:4 18:12 19:0 20:0 21:3.8499999 22:1.0700001 23:6.4099998 24:6.8400002 25:5.5599999 26:6.8400002 27:1.92 28:6.6199999 29:9.3999996 30:9.6199999 31:1.0700001 32:6.1999998 33:4.4899998 34:1.92 35:5.1300001 36:7.6900001 37:4.6999998 38:5.5599999 39:2.1400001 40:2.99 #
1.9779861352381260530819417908788 1:8 2:0 3:4 4:0 5:0 6:0 7:0 8:8 9:12 10:16 11:8 12:0 13:4 14:4 15:8 16:12 17:4 18:12 19:0 20:0 21:9.8800001 22:0 23:7.4099998 24:6.1700001 25:3.7 26:9.8800001 27:0 28:6.1700001 29:9.8800001 30:8.6400003 31:0 32:6.1700001 33:4.9400001 34:6.1700001 35:1.23 36:2.47 37:3.7 38:12.35 39:0 40:1.23 #
-10 1:8 2:0 3:4 4:0 5:0 6:16 7:0 8:4 9:8 10:8 11:4 12:4 13:0 14:8 15:8 16:4 17:8 18:12 19:0 20:4 21:6.6999998 22:3.03 23:6.2199998 24:7.5 25:3.3499999 26:4.6300001 27:2.71 28:6.2199998 29:5.7399998 30:10.05 31:2.71 32:3.51 33:5.4200001 34:3.6700001 35:5.0999999 36:6.0599999 37:5.2600002 38:7.02 39:1.12 40:3.99 #
-1.8553358984248595753285826503998 1:4 2:0 3:0 4:0 5:4 6:8 7:0 8:20 9:4 10:12 11:4 12:0 13:8 14:0 15:4 16:4 17:12 18:8 19:4 20:4 21:2.8199999 22:0.69999999 23:7.75 24:9.1499996 25:2.1099999 26:2.1099999 27:5.6300001 28:7.04 29:4.9299998 30:5.6300001 31:2.8199999 32:1.41 33:3.52 34:5.6300001 35:9.1499996 36:14.08 37:5.6300001 38:8.4499998 39:1.41 40:0 #
6.5256207221503768067805140162818 1:8 2:0 3:0 4:0 5:0 6:0 7:0 8:4 9:8 10:16 11:4 12:0 13:8 14:16 15:16 16:4 17:12 18:0 19:0 20:4 21:7.25 22:0.88999999 23:7.8899999 24:8.3999996 25:2.54 26:5.3400002 27:1.4 28:7.5100002 29:8.7799997 30:11.2 31:1.91 32:3.8199999 33:3.4400001 34:2.9300001 35:7.1199999 36:5.73 37:5.0900002 38:6.7399998 39:0.25 40:1.78 #
-2.2599631358137202141733723692596 1:0 2:0 3:4 4:12 5:4 6:16 7:0 8:4 9:0 10:12 11:4 12:8 13:4 14:0 15:8 16:4 17:8 18:8 19:0 20:4 21:8.3299999 22:0 23:6.6700001 24:2.5 25:3.3299999 26:10.83 27:2.5 28:5.8299999 29:2.5 30:10 31:2.5 32:5.8299999 33:3.3299999 34:8.3299999 35:6.6700001 36:5 37:1.67 38:10 39:0.82999998 40:3.3299999 #
1.9536392987369968210487058968283 1:16 2:0 3:0 4:0 5:0 6:0 7:0 8:0 9:0 10:12 11:8 12:4 13:0 14:4 15:16 16:20 17:4 18:16 19:0 20:0 21:7.5799999 22:0.94999999 23:8.5299997 24:8.5299997 25:5.6900001 26:4.27 27:2.8399999 28:2.8399999 29:5.6900001 30:8.5299997 31:0.94999999 32:3.79 33:6.1599998 34:5.21 35:3.79 36:6.6399999 37:3.79 38:10.43 39:0 40:3.79 #
-3.8806397213359873354932005895535 1:16 2:4 3:0 4:0 5:0 6:0 7:0 8:12 9:0 10:16 11:4 12:0 13:4 14:4 15:20 16:12 17:4 18:4 19:0 20:0 21:16.030001 22:1.53 23:3.8199999 24:4.5799999 25:6.8699999 26:9.1599998 27:4.5799999 28:3.8199999 29:2.29 30:12.21 31:2.29 32:1.53 33:5.3400002 34:0.75999999 35:3.8199999 36:1.53 37:5.3400002 38:8.3999996 39:2.29 40:3.8199999 #
3.1331738270006401769762760523008 1:0 2:12 3:0 4:0 5:0 6:0 7:8 8:16 9:4 10:12 11:4 12:12 13:0 14:0 15:12 16:8 17:4 18:0 19:0 20:8 21:5.0599999 22:0.72000003 23:6.27 24:10.12 25:3.1300001 26:3.1300001 27:1.45 28:6.02 29:8.6700001 30:10.84 31:1.9299999 32:8.9200001 33:2.1700001 34:3.1300001 35:6.02 36:6.75 37:4.3400002 38:6.75 39:0.47999999 40:4.0999999 #
-7.6601342729436261436148924985901 1:24 2:4 3:0 4:0 5:4 6:0 7:4 8:4 9:4 10:4 11:4 12:4 13:4 14:4 15:16 16:4 17:8 18:4 19:4 20:0 21:5.2600002 22:0.66000003 23:4.2800002 24:6.9099998 25:4.2800002 26:4.9299998 27:2.96 28:4.9299998 29:4.2800002 30:9.54 31:2.96 32:5.2600002 33:4.9299998 34:1.64 35:8.2200003 36:6.9099998 37:7.2399998 38:10.2 39:1.64 40:2.96 #
-3.4500730929590925910588339320384 1:8 2:4 3:0 4:0 5:4 6:4 7:0 8:0 9:0 10:4 11:4 12:4 13:4 14:4 15:28 16:12 17:4 18:16 19:0 20:0 21:16.15 22:0 23:5.5900002 24:8.0699997 25:3.73 26:6.21 27:8.0699997 28:2.48 29:6.8299999 30:6.8299999 31:0.62 32:3.73 33:4.3499999 34:4.3499999 35:3.1099999 36:4.3499999 37:3.1099999 38:4.9699998 39:1.24 40:6.21 #
12.969100136165499392859601357486 1:12 2:0 3:0 4:0 5:0 6:4 7:0 8:8 9:4 10:24 11:4 12:8 13:4 14:0 15:8 16:12 17:8 18:4 19:0 20:0 21:4.8499999 22:1.1 23:7.5100002 24:7.3600001 25:5.1599998 26:3.9100001 27:1.88 28:7.98 29:8.7600002 30:7.5100002 31:1.25 32:7.5100002 33:3.4400001 34:2.3499999 35:7.6700001 36:8.4499998 37:4.23 38:5.79 39:0.16 40:3.1300001 #
4.1448000473859476500138043775223 1:4 2:0 3:4 4:0 5:0 6:8 7:12 8:4 9:4 10:20 11:4 12:0 13:4 14:4 15:8 16:8 17:0 18:4 19:4 20:8 21:4.8000002 22:2.78 23:5.0500002 24:6.5700002 25:4.5500002 26:4.8000002 27:4.5500002 28:4.5500002 29:5.3000002 30:11.11 31:0.75999999 32:4.5500002 33:4.29 34:4.8000002 35:6.0599999 36:3.79 37:7.3200002 38:6.3099999 39:2.78 40:5.3000002 #
-9.2302981747698495951226504985243 1:8 2:0 3:4 4:4 5:0 6:8 7:0 8:0 9:4 10:16 11:8 12:8 13:0 14:0 15:8 16:20 17:8 18:4 19:0 20:0 21:7.9200001 22:2.6400001 23:2.9300001 24:4.4000001 25:4.9899998 26:5.5700002 27:1.17 28:7.6199999 29:6.4499998 30:8.5 31:4.1100001 32:4.9899998 33:4.1100001 34:2.9300001 35:4.9899998 36:10.26 37:6.4499998 38:4.9899998 39:2.6400001 40:2.3499999 #
